{"layers":[{"out_depth":3,"out_sx":32,"out_sy":32,"layer_type":"input"},{"sx":5,"sy":5,"stride":1,"in_depth":3,"out_depth":16,"out_sx":32,"out_sy":32,"layer_type":"conv","l1_decay_mul":0,"l2_decay_mul":1,"pad":2,"filters":[{"sx":5,"sy":5,"depth":3,"w":{"0":0.00628197258079743,"1":0.08444331236733885,"2":0.003169068508428179,"3":0.3764963788059744,"4":0.784330253580068,"5":0.47824530108102553,"6":-0.2719649054670868,"7":0.08053486862023164,"8":0.30376928241399764,"9":-1.724037278544829,"10":-0.7913916473087091,"11":-0.6375822175315515,"12":-0.6987885286908919,"13":-0.19824778768033205,"14":-0.001979610391546353,"15":-0.5740171182173204,"16":-0.4765976031225427,"17":-0.3793830564569914,"18":-0.04555361393740057,"19":-0.2882566838571892,"20":-0.7381734142080271,"21":0.3743028105119828,"22":0.4671752082635775,"23":-0.060897068039244245,"24":0.39409890464539143,"25":0.11876017627857083,"26":0.092583717752236,"27":0.8184484922874372,"28":0.39971482193307906,"29":0.5224466840612896,"30":0.4605098019183982,"31":0.18023316868512607,"32":-0.06281570173462853,"33":-0.12439569938083371,"34":-0.025827376236513024,"35":-0.34869443597411015,"36":-0.04747437589739595,"37":0.3051464899834538,"38":-0.061060782712964556,"39":0.18155427269332833,"40":0.2111947224244294,"41":-0.1813363612111788,"42":0.9084328662605007,"43":0.8520930709936003,"44":0.43075837324452854,"45":-0.18828109227193623,"46":-0.08608768923506495,"47":-0.655010894487455,"48":0.22648978101591288,"49":0.24017415288498795,"50":-0.5196012970205288,"51":0.6875688156745806,"52":0.435748121006689,"53":-0.0513422290751492,"54":0.5111111494654507,"55":0.5137670267421394,"56":0.23117847673013198,"57":-1.1107268869073086,"58":-1.2688785078618006,"59":-1.043578984133535,"60":-0.16169041394972417,"61":0.5168844385374556,"62":0.18287561678087755,"63":-0.18957819933064216,"64":-0.5118395765592005,"65":-0.4289371509363124,"66":0.5442569005024318,"67":0.21209822390667246,"68":-0.35394240530336607,"69":0.5808676176375939,"70":0.041054498828677066,"71":-0.19627933651374915,"72":-0.23318043307979752,"73":-0.6706444298574018,"74":-0.6038964479938325}},{"sx":5,"sy":5,"depth":3,"w":{"0":-0.15784699301343807,"1":-0.2505510060131371,"2":0.050840946484638244,"3":-1.0393798830074223,"4":-0.07484964308232095,"5":0.42039977852061583,"6":-1.0343880122882125,"7":-0.016634592587018444,"8":-0.1278279725699226,"9":-0.2503604223440085,"10":-0.07803275255391151,"11":-0.1079362051352537,"12":-0.6413456152585586,"13":-0.010575555307945609,"14":0.2789854500806626,"15":-0.37716041989653204,"16":0.027625771889236886,"17":0.22842777395869596,"18":0.024360538921362782,"19":-0.038129840269680255,"20":-0.23857937574867336,"21":0.057880674288957115,"22":-0.1599005471245131,"23":-0.8023129623641319,"24":0.5634069724439493,"25":0.0412792995221784,"26":-0.025675350895488953,"27":-0.5273773756011819,"28":0.26498354747283936,"29":0.4469556520690998,"30":0.6977674306907747,"31":-0.6290800001582277,"32":-0.07537677277927914,"33":1.3232390355623114,"34":0.4021112534670698,"35":0.339518289995435,"36":1.3284723365756277,"37":0.5447786767263695,"38":-0.16118563617661846,"39":-0.2596351505473337,"40":0.25450718096287966,"41":-0.2750517453905983,"42":0.2849682808165871,"43":1.0002285373502993,"44":0.41883252475507404,"45":0.5529952299515666,"46":-0.3863782321421084,"47":0.3358529964500947,"48":-0.25774554470218003,"49":-1.195597463628582,"50":-0.19144786783052253,"51":-0.13387752799253017,"52":-1.65862087349734,"53":-0.6900445543337687,"54":-0.17838808694533426,"55":-0.6176820912747881,"56":-0.17416343065516507,"57":0.24306211415880388,"58":-0.3379888818096705,"59":-0.36296838569473305,"60":-0.03219018730738858,"61":-0.40190411691914374,"62":0.2377095301141183,"63":0.44724802116671863,"64":0.06416807553852981,"65":0.0907749207266196,"66":0.5022387543532639,"67":0.37101272116284073,"68":0.13706964148110148,"69":0.3464470284478876,"70":-0.10953731697134074,"71":-0.2283738310891013,"72":-0.15699060929288022,"73":-0.06838276621186795,"74":0.31564218492611407}},{"sx":5,"sy":5,"depth":3,"w":{"0":-0.3812276365638726,"1":0.2154704317497735,"2":0.12578218976843333,"3":0.10369900004329112,"4":-0.5488077465525555,"5":-0.8237214658328661,"6":-0.02338963273744034,"7":-0.287174353324736,"8":-0.7761208245176353,"9":-0.09700446998278331,"10":-0.06508432132362911,"11":-0.5051019130976052,"12":0.22174356601765516,"13":0.6407130081755734,"14":0.23520925732762388,"15":-0.17447304405729508,"16":0.5223473896956189,"17":0.02579114587019875,"18":0.002778499968706977,"19":-0.12454616544566413,"20":-0.6564161906505236,"21":0.16812660731245632,"22":0.07401896744184758,"23":-0.3140348937183065,"24":-0.1095181760318772,"25":0.2869895151042646,"26":-0.042781433611365695,"27":-0.4698216072221963,"28":-0.10910623267739973,"29":-0.601867423038866,"30":0.010661144724001582,"31":0.15488663341133851,"32":-0.06441263548330858,"33":-0.1423320602046068,"34":0.27474929823542193,"35":0.07037214899201776,"36":-0.029810716029875506,"37":0.04610986250320006,"38":-0.6669629489762267,"39":0.22949874484164703,"40":0.1802159477029279,"41":-0.3231301556639739,"42":0.24495103693170625,"43":0.03663696051475581,"44":-0.16464333156752817,"45":-0.3217119123429146,"46":0.29968350960229434,"47":-0.02964118469818755,"48":-0.007124375849442706,"49":0.9412050052564881,"50":0.5979549832158918,"51":0.2020474471638214,"52":0.7462302538373424,"53":0.1190132011316549,"54":-0.043711640686065936,"55":-0.1380001414179786,"56":0.3067198111134312,"57":0.41680128271016387,"58":0.03267783551389602,"59":0.20706051716308296,"60":-0.4236748975495685,"61":0.8427062053559061,"62":0.3308597333932605,"63":-0.17393555153375276,"64":0.9930557212700949,"65":0.6353090329314707,"66":0.08551007101431231,"67":0.2462119987371046,"68":0.3822840180764773,"69":0.14774121805985901,"70":-0.15117269250262869,"71":0.17476603545496022,"72":-0.3951774716153464,"73":-0.729528824915749,"74":-0.6145729041442346}},{"sx":5,"sy":5,"depth":3,"w":{"0":-0.47848239641280355,"1":-0.18211178024445968,"2":-0.3204078036190878,"3":-0.7851954525327539,"4":-0.31285694989324314,"5":-0.03451513500554533,"6":0.15924197918333502,"7":0.5188399192856088,"8":0.826499908244235,"9":-0.6858403910381108,"10":-0.2188562778694708,"11":0.26775580308681635,"12":-0.4877499947826239,"13":-0.11868993229263591,"14":0.29144491452672666,"15":0.39443052707889514,"16":1.0536847674294167,"17":1.2208773180671737,"18":-0.3480516442666187,"19":0.04068903511616947,"20":0.39649030725891726,"21":0.03230929629841068,"22":0.7408330482057833,"23":0.7898627992281357,"24":-0.23771352545690824,"25":-0.05887649679033227,"26":0.08899661990252265,"27":-0.2981292711191124,"28":0.05001787329953076,"29":-0.13043551476753512,"30":-0.06094654177083591,"31":0.4304132164031129,"32":0.36681700075329815,"33":-0.1044114762782358,"34":0.06737909055279073,"35":0.12135845798390223,"36":-0.3467805329163569,"37":0.16826359345857123,"38":0.20982086880506165,"39":-0.25677176515322614,"40":0.10309052343889359,"41":0.22489269307757148,"42":0.09124493069901858,"43":0.3657600266660546,"44":0.5503904462326522,"45":-0.16159372018356485,"46":0.13542793270147907,"47":0.17646804138684147,"48":-0.932352364625752,"49":-0.5160626589043027,"50":-0.20874266241727954,"51":-0.3129654015851614,"52":-0.014352961494378536,"53":0.1018891695836224,"54":-0.23781097660863507,"55":-0.5821575263526966,"56":-0.05653231768027279,"57":-0.20670702068331528,"58":-0.6013245528717952,"59":-0.16263133504769955,"60":-0.09550509817937215,"61":0.027117375713835254,"62":-0.049081526342815526,"63":0.0942487401382144,"64":-0.049108281099261575,"65":-0.23284282929696418,"66":0.05055388340634492,"67":-0.019579626683576625,"68":-0.10306215983163482,"69":0.30054915994563647,"70":-0.42600087193090735,"71":-0.13185942941051043,"72":0.5883465292443324,"73":0.032211011371915454,"74":0.3786845840266687}},{"sx":5,"sy":5,"depth":3,"w":{"0":-0.11910066231180559,"1":-0.40705678342083385,"2":0.2057154568684902,"3":-0.29932160363159976,"4":-0.7634058929756025,"5":-0.629664170875569,"6":0.4907537021580524,"7":-0.007921024050428537,"8":-0.37697381118750006,"9":-0.3857929910293414,"10":-0.923016300726463,"11":-0.7977107654294509,"12":0.7369204292131103,"13":0.814437903971782,"14":0.1785026087693667,"15":0.6707036722411693,"16":0.5137571018667313,"17":0.4098848145883166,"18":0.9299754096598944,"19":0.8146080884410571,"20":0.5425585757129523,"21":0.9133046078424248,"22":0.14713241202259436,"23":-0.4394292417261684,"24":0.5195367831660572,"25":-0.40169390246354447,"26":-0.9943798039775615,"27":0.31627484759747126,"28":0.17235505303179502,"29":-0.6412311893616112,"30":-0.5082097844911354,"31":0.18739179484642743,"32":0.4440561351034779,"33":-0.6708935186744965,"34":-0.4643386755276244,"35":-0.4440870161702891,"36":0.6561432795678186,"37":0.6937603052382427,"38":-0.1820429798148552,"39":0.966489272535769,"40":-0.28985589815010104,"41":-0.7376885237693238,"42":-0.07310908701601333,"43":0.04329748490850291,"44":-0.8022770964556255,"45":-1.390851842422703,"46":0.23069777950602666,"47":0.6677000983015018,"48":-0.6800277595301676,"49":0.5142768523253464,"50":-0.08628755926758372,"51":-0.32493095836166935,"52":0.7123439641020816,"53":-0.3673410765164133,"54":-0.04772919082562309,"55":-0.025328296279895798,"56":-0.763166063104159,"57":-0.007735672746771534,"58":0.5591177585936804,"59":-0.2369086513933061,"60":-0.311446728887599,"61":0.6350070386512859,"62":0.5697743603729154,"63":-0.641344312362447,"64":0.11513595753167125,"65":0.17942156693126207,"66":-0.42775296169290333,"67":0.32099924457964657,"68":0.02643126162328639,"69":-0.22638732558876312,"70":0.26239442567302446,"71":-0.16964405104781616,"72":-0.23171497810326777,"73":0.6294787938411164,"74":-0.18485330168567324}},{"sx":5,"sy":5,"depth":3,"w":{"0":-0.5443262035781354,"1":0.520361637041791,"2":0.7466147111789386,"3":-0.24844611604193903,"4":0.17862477252878733,"5":-0.37015787077553,"6":0.0025755245473545883,"7":-0.23377759132290105,"8":-0.26674616373729004,"9":0.22250979024715617,"10":0.4285975492246377,"11":0.5378145141270502,"12":0.16220172166253713,"13":0.2236769256046582,"14":0.3453274824051097,"15":-0.3744406990438916,"16":0.35349711183749283,"17":0.6053474920325284,"18":-0.0647288224152587,"19":0.48977861159209174,"20":0.2681408959331122,"21":-0.09273670218418054,"22":0.02698074521478705,"23":0.036368942356979225,"24":0.5317629766251318,"25":0.857106445425517,"26":0.6573884539796847,"27":0.018681955090094474,"28":0.03194833083096785,"29":0.11186603175702184,"30":-0.7420695688916792,"31":-0.580962845627527,"32":-0.15871875706795635,"33":-0.6478309715527135,"34":-0.5529964187271468,"35":-0.6923807521190599,"36":-0.8349763870560465,"37":-0.20319283637625063,"38":-0.22594617781820112,"39":-0.7418258251089661,"40":-0.8651253066575335,"41":-0.6570957746095422,"42":-0.6383764864340615,"43":-0.14720970641462366,"44":-0.06214727969742,"45":0.3735638893360757,"46":0.4725846649370738,"47":0.27708801411057227,"48":0.6225670959256294,"49":0.9098912240528808,"50":0.10661237438285565,"51":-0.1906183508507847,"52":0.13846457394459158,"53":-0.04223079488176615,"54":0.12154459076897264,"55":0.11636390436302156,"56":0.5276368741101994,"57":-0.2810838880540054,"58":-0.6911869241751761,"59":-0.1912705329257707,"60":0.02976524465929443,"61":-0.050882071894039274,"62":0.1953403985963242,"63":0.016808715226692767,"64":0.4425765658301213,"65":-0.0556721504232175,"66":-0.13803319407665682,"67":0.31733098356065403,"68":0.2392497432138401,"69":0.3055918296509789,"70":0.278098485762058,"71":0.6863846220389329,"72":0.06734278841253812,"73":-0.49351026363661105,"74":-0.35253515218218867}},{"sx":5,"sy":5,"depth":3,"w":{"0":-0.988047664644477,"1":-0.9166212139400362,"2":-0.5708781372896854,"3":-0.24920908113402673,"4":-0.5560107894407266,"5":-0.335428735224872,"6":-0.4444347139570509,"7":-0.21981182569690036,"8":-0.3585434278571688,"9":-0.18708427134160793,"10":-0.21925855560538002,"11":0.04679442928753648,"12":-0.37229505796771706,"13":0.2636801579214806,"14":0.6266366416342386,"15":-0.3698458981133313,"16":-0.3790629327361836,"17":-0.3982694792979354,"18":0.3932632253047067,"19":0.3679268262483452,"20":0.48789095530221566,"21":0.08757915123719327,"22":0.39710652220353604,"23":0.45364346458719945,"24":-0.14144801430851744,"25":0.021849042391512027,"26":0.2949082663800818,"27":-0.5482091815629024,"28":-0.3002514766009665,"29":0.16651506223190896,"30":-0.2780191005518891,"31":-0.10073085651312344,"32":-0.23012478189410004,"33":0.08330301658837774,"34":0.09065823686479774,"35":0.2000680763116011,"36":-0.331227357242707,"37":0.24922338007701422,"38":0.2742727991762568,"39":0.24253412109072264,"40":0.24423881241991993,"41":0.34040024922116574,"42":-0.6583654025406659,"43":-0.3998635809546887,"44":-0.1897038640736081,"45":-0.5028096834410425,"46":-0.2733190303703812,"47":0.3124198417773061,"48":-0.21880384246664475,"49":0.2282345117022016,"50":0.37140715559687065,"51":-0.6528212748839991,"52":0.21298409589413206,"53":0.26298101519395367,"54":0.08725722366851238,"55":0.478821588424306,"56":1.0466274419360886,"57":-0.7672161268776857,"58":-0.3924316796905763,"59":0.24154683611016514,"60":-0.2584739349487363,"61":-0.0952946633443674,"62":0.648765175824539,"63":-0.3445172864162287,"64":0.19730203887479092,"65":0.49727010457699716,"66":-0.415479082224155,"67":0.16282990851270876,"68":0.08234680154738142,"69":0.4288556814186269,"70":0.594277577310403,"71":0.5545559119044853,"72":0.017616374489050308,"73":-0.33690232103970696,"74":0.22844477499486743}},{"sx":5,"sy":5,"depth":3,"w":{"0":-0.3062921545731425,"1":-0.4602815143817653,"2":-0.40626633560895653,"3":0.574820352845412,"4":-0.07282164436250903,"5":-0.07704941356050353,"6":0.30226574054035177,"7":0.33966726234780786,"8":-0.1380044843970505,"9":-0.22579715417703045,"10":0.5018087912059427,"11":-0.07592407115710498,"12":0.08942171539315096,"13":0.6758688643907357,"14":0.0446086348384988,"15":0.09545276039155047,"16":0.1418520462115188,"17":0.4576827439098129,"18":0.05731316354321732,"19":0.23950849925018644,"20":0.3101309915727275,"21":-0.5992823971745728,"22":-0.15580994277910493,"23":-0.5729581808619442,"24":-0.43772138571801206,"25":0.12194494845015606,"26":-0.4496068564750848,"27":-0.6406149982639403,"28":-0.021631199166611804,"29":0.002257485434071842,"30":0.09350057141491516,"31":-0.23239796060693446,"32":0.27573809227698703,"33":0.37595328211581847,"34":0.3397622077363927,"35":0.14796710026966375,"36":-0.35560573220260067,"37":-0.009862948437291979,"38":0.09434070027524336,"39":-0.11272859328240949,"40":0.7751278665352949,"41":0.6359658169201017,"42":-1.5427377411754097,"43":-0.4284992278763476,"44":-0.096887503407595,"45":-0.13971334464652232,"46":0.06197131718704118,"47":0.1757748547804088,"48":-0.03334496010272122,"49":-0.198971128003746,"50":-0.1784841226582383,"51":-0.4094944410554707,"52":-0.3861689605068806,"53":-0.34871244481296815,"54":0.4056703681584234,"55":0.6824285123701634,"56":0.5789834424334026,"57":-0.2835842588705475,"58":0.0031544614817653636,"59":-0.18829389188088608,"60":-0.14390998684414263,"61":0.06011039356508913,"62":0.2591210420205601,"63":0.27985720837841144,"64":0.1446596702429772,"65":0.14382310198190376,"66":-0.7878938340624402,"67":-0.49951898506627795,"68":-0.6192160262932443,"69":0.3630540290231288,"70":0.32787929597033855,"71":0.5330757960831097,"72":-0.19246559855702194,"73":0.11402235566380882,"74":-0.19097607290070007}},{"sx":5,"sy":5,"depth":3,"w":{"0":0.6516274828796772,"1":0.5724608279408163,"2":0.5826454574586947,"3":0.3270800732579492,"4":0.2278951723051345,"5":0.5837705062716586,"6":-0.28948406846942276,"7":-1.170022436093712,"8":-0.5606704959136467,"9":0.04037167705350006,"10":0.19306216994910846,"11":0.04025051739442811,"12":0.07595860634647258,"13":0.7183614897818815,"14":0.7530707262353813,"15":0.023833894647366058,"16":0.21489248913302633,"17":0.16919012659956,"18":-0.06321758781588291,"19":-0.07041940006739725,"20":0.16801318058693807,"21":-0.6755328363639079,"22":-1.2159005166483567,"23":-0.7219597599696974,"24":-0.34024009953210793,"25":-0.14019902002796836,"26":0.11450738437876515,"27":0.23871376765927999,"28":0.9272343874705408,"29":1.0399457282310156,"30":-0.4694198754248728,"31":-0.49802436091945584,"32":-0.24045659059194363,"33":-0.4360756739178167,"34":0.048005320910058824,"35":0.28553226791282826,"36":-0.031165244845643293,"37":0.16449627960906532,"38":-0.14004055110150948,"39":-0.42278943228031163,"40":-0.17533113274352363,"41":0.16685288216945748,"42":-0.7722327502351457,"43":0.014345600979592182,"44":0.19388764995466612,"45":-0.5619034379634513,"46":-0.43135947007356573,"47":-0.1245084171598448,"48":-0.22744502450489631,"49":0.5348307074036922,"50":0.7471034802323223,"51":-0.8797814564206651,"52":-0.42847443569020127,"53":-0.5372919864822446,"54":-0.1839210266535698,"55":0.33912579540789345,"56":0.2729426634635583,"57":-0.34417301906553216,"58":0.5132738397428269,"59":0.4481125397643138,"60":0.2948656244534721,"61":0.23239352841526226,"62":-0.32325589970966334,"63":0.1102927467774822,"64":0.7525555527944355,"65":0.4001203001670148,"66":-0.09434104226282315,"67":0.10450280363066058,"68":-0.19888185442930248,"69":-0.29892025093554203,"70":0.315373448801951,"71":0.11356266951588971,"72":-0.42939166026831993,"73":0.8489408333375146,"74":0.3671672552495233}},{"sx":5,"sy":5,"depth":3,"w":{"0":-1.2076060129170425,"1":-0.40441938379027387,"2":0.013199726475468507,"3":-0.7200359940304102,"4":-0.4461958565457089,"5":-0.558391093462064,"6":-0.6917495699800122,"7":0.6885266273503374,"8":0.2695855471701886,"9":0.26811815295348734,"10":1.1078895482591924,"11":0.6459845570227171,"12":-0.34767717918413943,"13":0.5048402246029322,"14":-0.22517804942012384,"15":0.3354238144734934,"16":0.8659250187902621,"17":1.2538016868284483,"18":-0.14595437868746244,"19":0.9394620586779346,"20":0.5818118304712124,"21":-0.5143296989132065,"22":0.67571707959886,"23":0.03286931601849084,"24":0.13929488637554038,"25":0.9798348948246338,"26":0.5077203370302388,"27":-0.4212830190842888,"28":0.5630017789208888,"29":0.09361242792067644,"30":-0.3288772904115734,"31":0.05052447855360626,"32":-0.03998008665318873,"33":-0.6776019610195682,"34":0.009808174986674469,"35":-0.41789031178928254,"36":0.18242515036507573,"37":0.2138491693092077,"38":-0.6629977770995099,"39":0.07947157124671501,"40":0.2190689545246486,"41":-0.32888131239270674,"42":-1.1797871867040162,"43":-0.7353985796214774,"44":-1.07901083294667,"45":-0.8485985015500591,"46":-0.32077644937649696,"47":-0.7443941034635059,"48":-0.3438997849450509,"49":0.09266511815272534,"50":-0.1948434912425156,"51":0.1710014896067586,"52":0.8512373478027668,"53":-0.17703616813530232,"54":-0.08425687734906587,"55":0.2683448814326398,"56":-0.26646780341887744,"57":-0.22424316971432343,"58":-0.19688350216497663,"59":-0.715309608186088,"60":-0.2587765802106146,"61":0.13530202908576291,"62":-0.0029091348074737284,"63":0.9286319695405183,"64":1.174108188257227,"65":0.3930594752133576,"66":0.25902076428477905,"67":0.4698930808880522,"68":0.05398196396487542,"69":-1.0765370524506088,"70":-0.36165963198476475,"71":-0.6649884214542131,"72":0.8703853123857813,"73":1.090162534433078,"74":0.4297199945602594}},{"sx":5,"sy":5,"depth":3,"w":{"0":-0.34301570753194643,"1":0.43891184556286983,"2":0.148681711540527,"3":-0.3927298110309282,"4":0.32523066891305613,"5":-0.2932949185967962,"6":-0.5466078923989939,"7":-0.009064336028297974,"8":0.010706808027624758,"9":-0.6083011818390359,"10":-0.1528971805485371,"11":-0.5218295788629367,"12":-0.8080018717229913,"13":-0.44690904908936435,"14":-0.29302915491935944,"15":-0.4668201497105057,"16":-0.43210609583980086,"17":-0.7367467157741655,"18":-0.1565472803713709,"19":0.1173024439921328,"20":-0.4174201045107093,"21":-0.14183357286736054,"22":0.06930203463763879,"23":-0.047727666335921466,"24":0.09263766782292915,"25":0.4048081570851624,"26":0.2344107121550871,"27":0.16884001902378035,"28":0.02198412647985664,"29":-0.06884499988769627,"30":0.005596550652283963,"31":0.17356087973322828,"32":-0.29703753257026233,"33":0.17624748091952358,"34":0.5285085682212357,"35":-0.14406432665989338,"36":0.3018421739628733,"37":0.462512461238664,"38":-0.23168802747297967,"39":0.021851402704122835,"40":0.24582687067453365,"41":-0.1633552897458401,"42":-0.2691522491014175,"43":-0.13100264799724234,"44":-0.5456756825783972,"45":-0.5037273409940989,"46":-0.07713244047592971,"47":-0.16086921846826224,"48":0.4934079390790479,"49":0.6417429735527633,"50":-0.11109703666174776,"51":0.8693064312607421,"52":0.8926751902642542,"53":0.738491081350606,"54":0.43251239835941524,"55":0.8562833034934214,"56":0.19714520111934705,"57":0.15881093589049922,"58":0.2983997908796456,"59":-0.01811542391277792,"60":-0.15251501166564782,"61":0.09530267673030057,"62":-0.08051979936336053,"63":-0.6406145272709909,"64":-0.5729497069979822,"65":-0.9981549579852093,"66":-0.4258015167918337,"67":-0.42616532679613134,"68":-0.5850174318328403,"69":-0.287934728178924,"70":0.04706320880413993,"71":-0.08082274874111187,"72":-0.0942487302630328,"73":0.023157730580397017,"74":-0.15009151944158033}},{"sx":5,"sy":5,"depth":3,"w":{"0":-0.24126328489266854,"1":0.17434906521879262,"2":-0.09841437540115128,"3":-0.1572666465576783,"4":0.573258171777744,"5":0.7421707177139691,"6":-0.5740487954318267,"7":0.45019786002943163,"8":0.3013464822019485,"9":-0.4374951672121609,"10":0.7782391195622775,"11":-0.16702249185250875,"12":0.032521919476205065,"13":0.49478213220173317,"14":0.1073168179955438,"15":0.3096724311242975,"16":0.112911841769779,"17":-0.3818561258276007,"18":0.1966680228858392,"19":0.3355474058571418,"20":0.1650825061881092,"21":-0.08169681899071628,"22":0.2081382094916322,"23":-0.18955996889334714,"24":-0.17135615294127024,"25":0.7207551145301705,"26":0.043379034886637836,"27":-0.4956804321086518,"28":0.24885495908397492,"29":-0.2459859471128325,"30":0.6161815873283705,"31":0.0023938038415513975,"32":-0.15060227465615056,"33":0.5045531803040526,"34":-0.133024163906188,"35":-0.39443557646698535,"36":0.344464918232899,"37":-0.029964346801965847,"38":-0.12795391435686151,"39":-0.052907714713104584,"40":0.000058242255644512086,"41":-0.767348294679614,"42":-0.5121399464168334,"43":-0.10146533753573064,"44":-0.936147483384627,"45":-0.24340944422085145,"46":-0.21892352128904577,"47":-0.5335127048825006,"48":0.038940232203681105,"49":-0.16216029203625873,"50":-0.4024222736284229,"51":-0.1871064995250854,"52":0.04932407917524835,"53":-0.12838835222347694,"54":-0.5265482911916322,"55":-0.6715006680037375,"56":-1.0676332651262002,"57":-0.44259659024354625,"58":-0.2581472408320719,"59":-0.4081659758329,"60":0.02878783238460807,"61":0.12750149765129434,"62":0.017730736118266994,"63":0.2521811941045565,"64":0.12368763613647958,"65":-0.08825751945644035,"66":0.1564525767027853,"67":0.3494876709439977,"68":0.292579312359306,"69":-0.38464747154678713,"70":-0.5338175059856519,"71":-0.7351678444198729,"72":0.8004547344120665,"73":0.4724172674285423,"74":0.033378351477729266}},{"sx":5,"sy":5,"depth":3,"w":{"0":0.1419128556967142,"1":0.47508548496845465,"2":0.8147015992343711,"3":0.3801773855287161,"4":0.20213226049948674,"5":0.7369345502550444,"6":-0.11445287794892448,"7":-0.5248064330958698,"8":0.18334782971139135,"9":-0.10317381058507265,"10":-0.4815838253676336,"11":0.140245690951579,"12":-0.11396903748494011,"13":-0.4537421103814866,"14":-0.2484211835523709,"15":-0.7077734505252514,"16":-0.11899050873611126,"17":0.11908999905561533,"18":-0.4149195528567744,"19":-0.07787455777576073,"20":0.6145404848722429,"21":0.09478238716065907,"22":-0.5482333019147503,"23":0.3430437862940748,"24":0.03217649851454503,"25":-0.5377100263162418,"26":-0.25826775105883004,"27":0.16937335973600462,"28":-0.22200355388477283,"29":-0.08356958326933829,"30":-0.6558122475540938,"31":-0.4509582823831399,"32":0.43982448088146187,"33":-0.5544142335477252,"34":-0.5252275659061191,"35":0.26399032993218674,"36":0.04436352933599395,"37":-0.17375639372939358,"38":0.5196200461968234,"39":0.6229157032055557,"40":-0.20714234686276123,"41":0.22298298846642994,"42":-0.2823574736922881,"43":0.005520692321272442,"44":0.3240055124487422,"45":0.4384669879184669,"46":0.33475757210293455,"47":0.5747262551813437,"48":-0.6419041477294367,"49":-0.6461603214201466,"50":0.22536355577165826,"51":-0.08799580984396072,"52":-0.7270318458888377,"53":-0.10646715124676254,"54":0.48306016663581763,"55":0.03138012171807684,"56":0.5039876598784386,"57":-0.6454872865178256,"58":-0.23298531585371532,"59":0.23904788186284945,"60":0.401586760888613,"61":0.5707727626592576,"62":0.8481404729718649,"63":-0.10930993167598356,"64":-0.1387491603330674,"65":0.074723609616012,"66":0.41319772228832435,"67":-0.5931763716382462,"68":-0.028264620173460733,"69":0.2671363978919205,"70":-0.5748319109257445,"71":-0.3650456967067043,"72":-0.23902474174249233,"73":-0.4489899574056283,"74":-0.035286303274888596}},{"sx":5,"sy":5,"depth":3,"w":{"0":-1.0752259658782488,"1":-0.692488368197632,"2":-0.17946474725788364,"3":-0.49866330062344405,"4":0.37699921243291795,"5":0.2366305733186187,"6":-1.0170259669551203,"7":0.09498379205983641,"8":-0.3412551881229175,"9":0.10307846773745968,"10":1.1648776829184686,"11":0.5040334283118578,"12":-0.4969590851185904,"13":0.3684811890741252,"14":-0.09655854108523497,"15":-0.465440921307591,"16":0.2379429878026601,"17":0.3498483376137071,"18":-0.5174449020265078,"19":0.11440124243344697,"20":-0.09547156826635214,"21":0.22056746326226093,"22":0.9377028506067175,"23":0.6342609724612762,"24":0.0926728680298908,"25":1.1104843751588256,"26":0.7694752309141777,"27":-0.08561882941118948,"28":-0.31296867870901557,"29":-1.4030014080798592,"30":0.35824698754164636,"31":0.5209900845188836,"32":0.6033054569477831,"33":0.1911191401375612,"34":0.4206942888380955,"35":-0.0069274942909028315,"36":-0.2400662865652863,"37":-0.14574592372436732,"38":-0.9210114160747335,"39":0.37420181596284735,"40":0.6570750780578379,"41":-0.09884510845616708,"42":-0.6313640463353726,"43":-0.6608074757919561,"44":-1.0306566799640418,"45":0.18201383207209046,"46":0.27836944318939966,"47":0.22544726971561715,"48":-0.11640619811847312,"49":-0.5299788040746188,"50":-1.0956143765415935,"51":-0.7966357677975798,"52":-0.30589143421650034,"53":-1.0267090195280624,"54":0.5566101821055969,"55":0.9119861245804983,"56":0.19675165657283278,"57":0.5266439275421145,"58":0.31731720428686727,"59":-0.507164384296997,"60":0.2442461889338904,"61":0.4869555900927118,"62":0.7946143962334581,"63":0.6775132708557622,"64":0.45114772163659084,"65":-0.48113520865455506,"66":-0.723217100722365,"67":-0.29703587625470107,"68":-0.22094507779562514,"69":0.12656019858456416,"70":0.2563094626736088,"71":-0.09799315956766284,"72":0.5829136393042172,"73":0.0532590234588992,"74":0.348916722271494}},{"sx":5,"sy":5,"depth":3,"w":{"0":-0.009636906253106491,"1":-0.024630747963033592,"2":-0.039057012981753556,"3":0.13115990349499973,"4":-0.5492985198892553,"5":-0.24596432972434695,"6":1.1190084726808294,"7":0.1415111675848404,"8":0.03870015839506503,"9":0.5746684158039803,"10":0.03855014106382821,"11":0.10262299547871404,"12":0.042879093324337446,"13":-0.6961804390745031,"14":-0.19312238498230933,"15":-0.14439423969721976,"16":0.29270354356827605,"17":0.399000477439255,"18":-0.11704045354879668,"19":-0.1749065331054957,"20":0.258143045877528,"21":-0.3181102913309354,"22":-0.35341624075338246,"23":0.2600324422999107,"24":-0.20718881377609735,"25":-0.9569743108814098,"26":0.3218777918321219,"27":-0.18433016155803594,"28":-0.6275897792958013,"29":0.08411684738665609,"30":0.4751709087112031,"31":0.478486164363324,"32":0.5192668534491826,"33":-0.16671035562325637,"34":0.1537588117888614,"35":0.1716062394788533,"36":-0.5530024729563933,"37":-0.3914104516798933,"38":0.10918472203553105,"39":-0.7777046991143088,"40":-0.8467193070847833,"41":0.04300689168533117,"42":-0.67091022377922,"43":-0.9302563484493094,"44":-0.1231725362410193,"45":-0.05179397540121913,"46":0.13237447597027846,"47":0.16751172954291252,"48":0.02997922656740341,"49":0.022560456827161943,"50":0.039503819457079745,"51":-0.5076859905721625,"52":-0.3962450369483599,"53":0.17868730952476905,"54":0.0497268640931763,"55":-0.20831427041705133,"56":0.49785354240440266,"57":0.39191263225266415,"58":0.17606210530744776,"59":0.21567853291454842,"60":-0.46344679988664994,"61":-0.7704269017158648,"62":0.3836790971695767,"63":0.21072137927917883,"64":-0.29011609541525835,"65":0.44772711869179393,"66":0.07083542635762057,"67":-0.34871677369008103,"68":0.15973424391742944,"69":-0.03852862473275322,"70":-0.1475157169771054,"71":0.38868028463091486,"72":0.7020385206814932,"73":0.4650909693915384,"74":0.40062115365166756}},{"sx":5,"sy":5,"depth":3,"w":{"0":-0.3565730050362253,"1":-0.46090847896836146,"2":-0.23250096784901886,"3":-0.4651433257251352,"4":-0.25213650335431,"5":-0.7399684545279417,"6":0.2689236443809587,"7":-0.7091343442182614,"8":-0.8920843679460322,"9":0.277521274164124,"10":0.12084743085523314,"11":0.018037405406524713,"12":-0.050647159794974736,"13":0.28358434169347485,"14":0.8989491754060521,"15":0.8254680464538231,"16":0.6392928284943412,"17":0.4221638759941916,"18":0.24885814524844085,"19":0.0007775530123866675,"20":-0.16504340711895238,"21":0.35297170441074555,"22":-0.5816154897165154,"23":-0.649969193189277,"24":0.05053483319734352,"25":-0.2779467505011389,"26":-0.5171441250303136,"27":-0.05206346201802176,"28":0.22500496925479724,"29":0.6385608819335323,"30":0.5361689370649577,"31":0.04012576910434359,"32":0.3484814789845742,"33":0.39921445755785945,"34":-0.13062371666895878,"35":0.056669022387227326,"36":0.0144700591109829,"37":0.17316446658439305,"38":-0.19699211951755288,"39":0.2740958957775581,"40":-0.5875555085563454,"41":-0.3531508113914407,"42":0.1986534504200079,"43":-0.45282645099678864,"44":0.06355269805901824,"45":-0.016652878301964318,"46":-0.06709988507776761,"47":-0.04188307211340248,"48":-0.5286019545196701,"49":-0.3394655424985035,"50":-0.34217181384351575,"51":-0.1392838085475141,"52":0.028788878796763923,"53":0.19022832351000454,"54":0.008301090563526691,"55":-0.410193834098938,"56":-0.16139561060427213,"57":-0.15193220155087103,"58":-0.7500926482321375,"59":-0.16147814400450292,"60":-0.3031887891594667,"61":-0.17415399301163015,"62":0.0489684923417643,"63":-0.15810538231896926,"64":-0.009585271900595013,"65":-0.16517423717227386,"66":-0.12642435729700777,"67":0.19041286969240284,"68":0.06893243121497564,"69":0.0789418184159581,"70":0.3610244306838424,"71":0.6770452685537987,"72":0.3455311468708753,"73":-0.16683287202828073,"74":0.7815506548437402}}],"biases":{"sx":1,"sy":1,"depth":16,"w":{"0":-1.6606493831993405,"1":-0.9558347457241642,"2":-0.5383538450039229,"3":-0.10417582227555025,"4":-0.9797234226245405,"5":-1.210785925693575,"6":-1.758162638147706,"7":0.10336532454367107,"8":-1.0931490105166923,"9":-1.4592341613486104,"10":-1.3563343877212886,"11":-0.3707740224589394,"12":-1.4732800049177113,"13":-0.8871700391870165,"14":-0.5661341169070514,"15":-0.5458360871168259}}},{"out_depth":16,"out_sx":32,"out_sy":32,"layer_type":"relu"},{"sx":2,"sy":2,"stride":2,"in_depth":16,"out_depth":16,"out_sx":16,"out_sy":16,"layer_type":"pool","pad":0},{"sx":5,"sy":5,"stride":1,"in_depth":16,"out_depth":20,"out_sx":16,"out_sy":16,"layer_type":"conv","l1_decay_mul":0,"l2_decay_mul":1,"pad":2,"filters":[{"sx":5,"sy":5,"depth":16,"w":{"0":0.957288739530953,"1":-0.5949840250404982,"2":-0.4996258243592564,"3":0.8002810383086464,"4":-0.39384610720503493,"5":0.017061459994143276,"6":0.08330189606796358,"7":1.1056317054557507,"8":0.05787717812176957,"9":0.48429510922934094,"10":0.08734864206033827,"11":0.018566459333871837,"12":0.5937325066417817,"13":-0.42045637408651615,"14":0.37499152964469135,"15":-0.6360974229610469,"16":0.19561953005931737,"17":-0.5161931115782189,"18":0.00840899825493624,"19":-0.1282136613565448,"20":-0.08246898982534547,"21":0.2791251253809334,"22":0.6187307744135118,"23":-0.9998778956060508,"24":0.09983875540637781,"25":0.43960915859799116,"26":0.43181488449297545,"27":-0.42309403967233683,"28":0.3818851615979762,"29":-0.37638332214864284,"30":-0.48453237212804634,"31":-0.04213492075626055,"32":-0.29628228365500564,"33":0.6000720537863445,"34":-0.5927705897355193,"35":-0.6505440448363341,"36":0.5160216841945929,"37":0.3670107807499144,"38":0.004776083937897056,"39":-0.2656856588351552,"40":-0.6871422923788367,"41":-0.4564823015126294,"42":-0.21469402315435449,"43":-0.9540377711775113,"44":0.13673748369854846,"45":-0.21424783188190263,"46":-0.7168223516639691,"47":-0.24001992749928733,"48":-0.29448980002008035,"49":-0.15146602989722832,"50":-0.7196560758398618,"51":-0.16018895924509938,"52":-0.47356850702247827,"53":0.12874923208371772,"54":0.11367091878622383,"55":-0.050047080552015365,"56":-0.8520153942236802,"57":-0.19894744830635155,"58":-0.5576768641659964,"59":-0.09386728172506963,"60":-0.20875716663241226,"61":-0.4333113778099324,"62":0.002426934988994209,"63":0.2892670267199117,"64":0.4864878784056022,"65":0.12461440497204816,"66":-0.41641051462089507,"67":-0.030042206021648837,"68":-0.5723861730666648,"69":0.28861202338343817,"70":0.5284418459679588,"71":-0.17119574222323827,"72":-0.10348837085594063,"73":0.14135109203648416,"74":0.22275825718644449,"75":-0.04612065239019234,"76":-0.6040655360681038,"77":0.3482899467232808,"78":0.544905013095151,"79":0.6208259457473851,"80":1.146344485333662,"81":-0.48360946630323554,"82":-0.013429312229158247,"83":0.642289377624005,"84":-0.16493100073651876,"85":0.30391340093570973,"86":-0.029879422307379274,"87":-0.5586506099487316,"88":0.1855723230076105,"89":0.6728896055365884,"90":-0.18388174290899653,"91":-0.9639861945874204,"92":0.6084188064934978,"93":0.3328029875695252,"94":-0.04978663628535656,"95":0.07056470592834528,"96":-0.5270583015839432,"97":0.20923535669856924,"98":0.10912224596273372,"99":-0.08821977366677905,"100":0.06996420468116264,"101":-0.6781614964859768,"102":0.40995048066261885,"103":-1.260370781129727,"104":0.04208423358767821,"105":0.3660364280043319,"106":0.8180732684559827,"107":0.32016343921071855,"108":-0.06216793138188464,"109":-0.3020569383213242,"110":-0.2721361739208766,"111":-0.7628401921436493,"112":0.35176191205304636,"113":-0.8438015463125067,"114":0.12944402390408855,"115":0.017532842431269804,"116":-0.27201248492142505,"117":0.37751270422121563,"118":-0.8027847734314828,"119":0.13159837287276605,"120":-0.12551728466192585,"121":-0.700831452819579,"122":-0.45970839657208,"123":-0.0207518091084219,"124":0.12421438871041676,"125":0.1254376436567615,"126":-0.5783794213942927,"127":-0.32602029105795616,"128":-0.009727291214077569,"129":0.015000341917158613,"130":0.12428731648965707,"131":0.3857342924724827,"132":-0.649281850408445,"133":-0.2233192502559214,"134":0.40311851601194376,"135":-0.4104163369736115,"136":0.1374528401931999,"137":-0.3355572349280623,"138":-0.7136480560989469,"139":-0.8768565331287251,"140":-0.34198016285359206,"141":-0.6180316099256938,"142":-0.5527010420928602,"143":-0.30517385151886084,"144":0.22590502074970614,"145":0.9355362337582478,"146":0.07614375765408984,"147":-0.2603486393254403,"148":0.2200220685191541,"149":0.016751320472711963,"150":-0.16506211876773605,"151":-0.2525345613123125,"152":-0.3453310942683747,"153":0.11720252452693658,"154":-0.3542951658062826,"155":-0.26621216271387327,"156":0.06087403875937889,"157":-0.47842787696913863,"158":0.30553326898086164,"159":-0.2772298346375053,"160":-0.7673376001712752,"161":0.23493634055942653,"162":0.35117534932333466,"163":-0.2938650449893896,"164":-0.11030999690151203,"165":-0.4374966083575595,"166":-0.43785422971125487,"167":-0.9441303995087956,"168":0.9133748773684481,"169":0.215499121432918,"170":0.07787609329577672,"171":-0.7423913024848569,"172":-0.21696252752438278,"173":0.37492943609650203,"174":-0.014308021887340093,"175":-0.09282393365334858,"176":0.18868737536985516,"177":-0.2623277944843423,"178":-0.7734015931523441,"179":0.3918258464878683,"180":-0.3055563956786673,"181":0.18931261568289975,"182":-0.03988005832369559,"183":-0.29430931717286984,"184":-0.9228253560103765,"185":0.3159853362127422,"186":0.6637274412329388,"187":-0.07591198631588214,"188":-0.43816649279561887,"189":0.5569661828891719,"190":0.5451313867295251,"191":-0.17175303653373725,"192":0.4306585016621607,"193":-0.7802681102709761,"194":-0.11014915712972556,"195":-0.03643549480785485,"196":0.021120072101160656,"197":-0.054734085452626355,"198":-0.500668683095583,"199":0.7905616960749405,"200":0.0006637525989915322,"201":-0.17257079589016858,"202":-0.20429399276831398,"203":0.43801931329105426,"204":0.2032326050142272,"205":-0.27826350958367535,"206":-0.42912974747616567,"207":-0.2237477194379743,"208":0.10379930172033726,"209":-0.11440974031591344,"210":-0.12991030578685864,"211":0.0012445639356085452,"212":0.5043763841911468,"213":-0.6103631995303567,"214":0.6140537305833054,"215":0.4468167904033082,"216":-0.5504937618292186,"217":-0.058240061834646105,"218":1.0315238385681518,"219":-0.485140453208791,"220":-0.37002317220466063,"221":0.00861606388305967,"222":-0.5274373508481397,"223":0.7050462464073681,"224":-0.2418726929163799,"225":0.5600606636701786,"226":0.289972027209806,"227":-0.11628167011974623,"228":-0.051346786108498244,"229":-1.3003351272796009,"230":1.1387023102679705,"231":0.2541414297878924,"232":-0.39378637163007957,"233":0.46975698988186826,"234":0.00754324844582052,"235":0.6981452199777822,"236":-0.4799361011476492,"237":-0.44874962500693116,"238":0.3436044081055815,"239":-0.009683661953238352,"240":0.8237288946066503,"241":0.7461733401816969,"242":-0.0913189206492228,"243":-0.603261234880309,"244":-0.27470590745070084,"245":-0.22336304295725368,"246":0.00799389203943035,"247":-0.7115727574325086,"248":0.03245534000766512,"249":-0.03529357659454438,"250":0.34309663383097605,"251":-0.6346349706876283,"252":0.3405353764628552,"253":0.27450094369047506,"254":-0.0186403871028805,"255":-0.02355162101618704,"256":0.08692427460446096,"257":0.01715313680128718,"258":0.16043891068080335,"259":0.12017580602312145,"260":0.10997755874003941,"261":0.1284509955477277,"262":-0.13603636080798154,"263":0.08557802728216302,"264":-0.28657822275995154,"265":0.42809291384513404,"266":0.013415209070475035,"267":-0.16430930848504424,"268":-0.10141129019183305,"269":-0.3062978216696018,"270":-0.7034830830044596,"271":0.6571908120016753,"272":-0.5370962512347528,"273":-0.17512355714170774,"274":-0.21650002874362786,"275":-0.011462358328893653,"276":0.4972978319874577,"277":0.5392961552998915,"278":0.555427291745114,"279":-0.11531572282141646,"280":0.7201328620524351,"281":-0.17361356826987095,"282":-0.9401182914691613,"283":-0.26256483448908624,"284":-0.10972265240753053,"285":0.21831787080264578,"286":0.2103615806414945,"287":-0.26017591372633464,"288":0.5586384998134004,"289":-0.0991164684364122,"290":0.620476060633406,"291":0.28880063039054793,"292":-0.3187406170492391,"293":-0.14538868858492215,"294":0.008070240126653548,"295":-0.10607988379451945,"296":0.7079951524982044,"297":0.595906732683611,"298":-0.7731995763023157,"299":-0.09091163919900504,"300":0.23010770342429848,"301":-0.20189517422777933,"302":0.1545766078654337,"303":-0.01437543977636481,"304":0.2695613171058059,"305":-0.5029060948127769,"306":-0.047052230312371233,"307":-0.3815434369456792,"308":0.06789704895537874,"309":-0.6131892092176767,"310":-0.6744518979078887,"311":-0.3747468516980206,"312":0.3799824980614025,"313":-0.18104031673060916,"314":-1.0767975775090717,"315":0.5893586556884192,"316":0.354143022638697,"317":-0.0011486475550777215,"318":-0.9999535202278148,"319":0.318238386100576,"320":1.1348212165284155,"321":0.15633656579163097,"322":-0.31042702170769365,"323":0.3962445983313209,"324":0.16522935518254495,"325":0.560026719245945,"326":0.7424061198394226,"327":-0.14983968903465222,"328":0.00814739672908785,"329":0.14545196538340932,"330":0.3270792201792026,"331":-0.17122184951909078,"332":0.4093067263582667,"333":-0.1819741125917574,"334":-0.02129914279417587,"335":-0.32840264538713504,"336":0.02090688246333388,"337":0.08261460525423825,"338":-0.284447152422112,"339":-0.09248743686158224,"340":-0.4923098896067561,"341":-0.061620646198219685,"342":-0.506387531527373,"343":-0.9765162193456514,"344":-0.0063378876414563684,"345":-0.29191947495647236,"346":0.23666395395674822,"347":-0.1355733068084287,"348":0.21560854702769236,"349":-0.19338139335137833,"350":-0.43295070694960747,"351":-1.2430431218902618,"352":0.8235872194006261,"353":0.0850886059518204,"354":0.30694185892714965,"355":-0.18435073583251338,"356":0.15322749750224407,"357":-0.689046694596231,"358":-0.013799233476369237,"359":-0.45236606675736385,"360":0.29807314069762403,"361":-0.13445503908439585,"362":-0.1517248023584808,"363":-0.4521303131676721,"364":-0.24148331900052789,"365":0.09908868149311961,"366":-0.42055139006434455,"367":-0.052592111394635314,"368":0.19530225612187113,"369":0.15404326975080623,"370":0.7124906804616262,"371":-0.0862057357141339,"372":-0.9344134801872905,"373":0.8670713113760852,"374":-0.6862675009744418,"375":-0.05828314380261733,"376":-0.05317469568949541,"377":0.18543419520186624,"378":0.36075681088722744,"379":-0.6979007538589563,"380":-0.4613631831415074,"381":0.06413779610032481,"382":0.8430999579924292,"383":-0.3294883091170765,"384":0.06262478690330504,"385":-0.37379303975747263,"386":0.9590132292672748,"387":0.10518116499687666,"388":0.19603860170259813,"389":0.29069392266609617,"390":0.04995444772624834,"391":0.027664863737542154,"392":-0.2217750473907719,"393":-0.1908766182868288,"394":0.6220838046119429,"395":-0.7257249663559806,"396":-0.2311192936361447,"397":0.24710022398797066,"398":0.24118385651919236,"399":-0.24125165710077862}},{"sx":5,"sy":5,"depth":16,"w":{"0":0.25872727618927593,"1":0.49687027540114853,"2":0.26332426758677474,"3":0.14293045810902077,"4":-0.5055175699786635,"5":-0.7002069568701255,"6":0.05185666816808011,"7":0.8335167074489188,"8":0.21227401069481366,"9":-0.6575944936153275,"10":-0.267642772413175,"11":1.3063636483108274,"12":0.5727959976825411,"13":-0.42202478497898566,"14":1.3886532392283528,"15":0.9208062630304549,"16":-0.0358507843770099,"17":0.7793606441213081,"18":1.1119275197025078,"19":-1.2241697077214626,"20":0.3326958733568318,"21":0.45093926147297914,"22":0.3157706843039101,"23":-0.4227362343363072,"24":-1.1538908882584178,"25":-0.2735846531173956,"26":0.8748658805564054,"27":0.5470839308634649,"28":-0.08179282345287486,"29":-0.05666014260831289,"30":-1.033310750342362,"31":0.2802784435497087,"32":0.691320882032323,"33":1.4533038722818419,"34":-0.03465179252013064,"35":-1.168699218685394,"36":-0.018056726981178665,"37":-0.3731223125368615,"38":0.7212046852644108,"39":-0.03545561968716103,"40":-0.4678691842243369,"41":0.36402944186590547,"42":0.34534160160318594,"43":-0.857369631952414,"44":-0.14751933895131372,"45":0.47534890121100787,"46":-0.302371734993312,"47":0.7793631239047705,"48":-0.8056565320397244,"49":0.4917012042366105,"50":0.6259255026992684,"51":-0.38459674872338995,"52":0.28738544438762215,"53":0.07025687912758291,"54":-0.3096976604317228,"55":0.418478224882783,"56":0.36151980358149033,"57":-0.15244152376568043,"58":-0.29447046513160335,"59":-0.718278572128931,"60":-0.2629485632116106,"61":0.3735342924357635,"62":0.5670265347500272,"63":-0.1404857623281097,"64":-0.07557668058419677,"65":0.24419153378858086,"66":0.2218179109298185,"67":0.6197445551240864,"68":0.3047584850698089,"69":0.20716335808136982,"70":-1.0113959351023678,"71":0.33795465785020773,"72":0.16567189141675143,"73":-0.9408677150170712,"74":0.35950441902669866,"75":0.5949355945458586,"76":-0.4426365090797074,"77":-0.8727407557568634,"78":1.069842179238857,"79":0.7420107268285876,"80":0.07658737346840692,"81":0.6643011411827966,"82":-0.6468258798247108,"83":0.23363940492796584,"84":-0.31024834907667154,"85":-0.11170013885067395,"86":0.43400082313508187,"87":-0.7495377220353336,"88":0.6583789927179488,"89":0.4680825189124862,"90":1.032147189520173,"91":0.05882343290671553,"92":-0.14251567806861282,"93":0.288384973820545,"94":0.11565434966527063,"95":0.13056598819173026,"96":0.1902615310860549,"97":-0.9280215077818694,"98":0.5410323489057357,"99":-0.4234152455550873,"100":-0.18771491562589068,"101":-0.14362517123413687,"102":0.210190203865286,"103":-0.436128562573032,"104":-0.9235324993604697,"105":-1.172770608462989,"106":0.622932362138558,"107":-1.6508176340247573,"108":-0.8546245202662519,"109":-0.20633499120822238,"110":-0.4588892123521775,"111":-0.34458784393282027,"112":0.19875077615281617,"113":-0.5836555136023651,"114":1.0020288950755691,"115":-0.4591905621790383,"116":-0.11182509752125136,"117":-1.0812229269994102,"118":-0.2929284976212995,"119":0.13819168109419414,"120":-1.2039918805386989,"121":-1.581431774217556,"122":-0.8948543988445307,"123":-0.4450729490166563,"124":-0.15310408393361408,"125":0.194101772693463,"126":-0.47062010977766733,"127":-0.2809180742012108,"128":-0.5401576274875818,"129":0.5566287853414251,"130":-0.2774551660549641,"131":-0.26297454217971633,"132":-0.8132809192104757,"133":-0.140607762220417,"134":-0.5254092005374148,"135":0.07136742861011237,"136":-0.054539205451231754,"137":-0.6058035213414602,"138":-1.4227909744354856,"139":-1.3082465702278716,"140":-0.5459089230281031,"141":-0.40110658025877904,"142":-0.27850076013575586,"143":-0.17979551367248256,"144":0.8017273225614433,"145":0.32407681340272304,"146":-0.3622190195503663,"147":0.44424577869464804,"148":-0.20604040550083796,"149":-0.03712391235336942,"150":0.14720033495817741,"151":0.5217376531995627,"152":0.39270510741415926,"153":0.17062796368544506,"154":0.057781290705862666,"155":0.28182171901531616,"156":0.6329060612861487,"157":0.07661759493962209,"158":0.23107735049068448,"159":-0.5014948401086821,"160":0.44272234168138064,"161":-0.5722641120398894,"162":-0.4101559198411738,"163":-0.14462006957115447,"164":0.05362144150514328,"165":-0.9744327998070014,"166":-0.009346468221049075,"167":-0.7016075645798576,"168":0.3657698438848729,"169":-0.6880461554669859,"170":0.9343572545832182,"171":-0.26727707816898216,"172":-0.5981450669153313,"173":0.3715128446079511,"174":-0.7563441901488952,"175":-0.27884684748015764,"176":-0.8824649944031914,"177":-0.2464647491401954,"178":-0.6065660156548184,"179":-0.8949822417479742,"180":0.012236390400982162,"181":-0.5633356839191529,"182":-0.8816462322745073,"183":-2.624433076873193,"184":-1.169329054525471,"185":-1.387042702380008,"186":-0.8716562386978506,"187":-1.087780896761383,"188":-0.031394497589463485,"189":0.003428160561398771,"190":-0.49089217497008,"191":0.3489974642614391,"192":-1.364127172758366,"193":-0.8423145167458224,"194":0.37440691039809404,"195":0.23563791592254496,"196":0.351969945118857,"197":-0.3046304834790585,"198":-0.6181828244427169,"199":-0.49360527657322983,"200":0.4004787972201877,"201":-1.248344065057529,"202":-0.7987768309043562,"203":-0.3307975978677873,"204":0.7604285117180749,"205":0.15566312569492155,"206":-0.7786957100683098,"207":-0.19128819799482796,"208":-0.47254346317206286,"209":-0.29926567212472327,"210":0.49244237699493926,"211":-0.20509487552607844,"212":0.3160274809823605,"213":-0.4028629327020878,"214":-0.4118899817803686,"215":-0.9979622207200756,"216":0.8290650529786047,"217":-0.47235432315535747,"218":0.9828940834236046,"219":-0.23218783858462863,"220":-0.19813295722373278,"221":-0.45958427960908543,"222":-1.3813890891312663,"223":-0.10798370349109218,"224":-0.3204630805272493,"225":0.7887274883266097,"226":0.08805938985999293,"227":0.9546431049762825,"228":-0.19973412225936213,"229":0.6509001375636468,"230":0.1603957869132526,"231":0.1295132675266591,"232":-0.31701204511249403,"233":0.6610164861924741,"234":-0.7152178760039422,"235":1.2500359077297947,"236":0.3450123329633696,"237":0.2916363106469818,"238":0.24045666266430213,"239":0.2449196230605714,"240":0.21352246232342867,"241":-0.6328269833865875,"242":0.45578116353097475,"243":0.7336002276843828,"244":-0.29065525240063916,"245":0.02914065305886606,"246":-0.4818099233449091,"247":0.3111230937237267,"248":0.385518594898657,"249":1.2284700687405046,"250":-0.00739414798779375,"251":-0.13216219353066544,"252":-0.7894657414387016,"253":1.008791442886388,"254":-0.3329963877928184,"255":0.015855078462969574,"256":-0.5927943445179813,"257":-0.555446144436489,"258":-0.12301358255525892,"259":-0.06349918699090876,"260":0.00972157851235565,"261":0.26487511414151405,"262":-0.0871709602734659,"263":-1.6942108636215112,"264":-1.0808792888586312,"265":0.11296952026733763,"266":0.013146975935087325,"267":0.5296913402003696,"268":-0.6662741283942145,"269":-0.10465786007919062,"270":-1.0874717320906335,"271":-0.30634806448790874,"272":-0.24990287954429546,"273":-0.11703910299794609,"274":-1.0830942705042559,"275":-0.5274091276443698,"276":-0.5321350607089915,"277":0.6825540352348091,"278":-0.38752559939944725,"279":-1.9767603032639207,"280":-1.1305979996345823,"281":0.12005244208041371,"282":0.09546512940770516,"283":0.05050902908298864,"284":-0.5345850634994541,"285":-1.090490659172436,"286":-1.1286168619280141,"287":-1.0704832515853813,"288":-1.009850332805699,"289":-1.149985979064813,"290":0.29250497109758233,"291":-0.8817484132513413,"292":-0.4585929292513753,"293":0.2736187768432684,"294":-0.6279574438242079,"295":-0.35077138632685123,"296":-1.1604064636801772,"297":-0.370832126892568,"298":-1.3533951610893369,"299":-0.14347175417668687,"300":-0.4282496837416496,"301":-0.5073540048883852,"302":-0.007435078370601318,"303":-0.522369299263273,"304":0.7747639956267734,"305":0.39723969922619895,"306":0.2887282637675366,"307":-0.03647635213917526,"308":-0.9144433632379778,"309":0.1050867551162709,"310":-0.37754122596600925,"311":-0.49691722391688165,"312":-0.5321045036517774,"313":-0.19754234349024524,"314":-0.8319580492361109,"315":-0.20727465049671234,"316":-0.04182690662198201,"317":-0.35246482969153564,"318":-0.35090719583243724,"319":-0.4165337951408609,"320":0.527675541812386,"321":1.1618997901681938,"322":0.5702730900213085,"323":0.8769226362354263,"324":-0.13234480233796928,"325":0.1388324157305365,"326":-0.8946740126220477,"327":-0.025931732182186668,"328":-0.6889369379953196,"329":0.9401908205056534,"330":-0.4982233928048434,"331":0.31019571891894604,"332":-0.6219337267449898,"333":0.3702863894314652,"334":-0.43752219443387863,"335":0.2679353654014917,"336":-0.4736932439119407,"337":-0.03232611051505978,"338":-0.34887164072665144,"339":0.22835608562556117,"340":0.4930056384056301,"341":0.13315605039229733,"342":0.05708236869993363,"343":-0.6262014676605412,"344":0.0453427624985953,"345":-0.351097835837342,"346":-0.5770763528720163,"347":-0.06750704607773657,"348":-0.3582448082831503,"349":0.4046997018931439,"350":-0.7727442154952882,"351":-0.0767721714470101,"352":-0.4736700538760571,"353":-0.596587062959248,"354":-0.9344910573053615,"355":-0.381029432729324,"356":-0.0981217414632024,"357":-0.4828924930558563,"358":-0.28406286158583344,"359":0.08047394289222104,"360":-1.6810997187903585,"361":-0.7580138153955378,"362":-0.6879552252011968,"363":0.68414507270488,"364":-0.864553674275361,"365":-0.46793555265499476,"366":-0.7354006578730942,"367":-0.20527742086638756,"368":-0.3474564195421071,"369":0.01516839780891084,"370":-0.5872968896472609,"371":-0.026101888074626912,"372":0.11572975713183933,"373":-0.5334925867014764,"374":-0.10513621240676424,"375":-0.17746879712071895,"376":0.060035686469070745,"377":-0.12031564244387029,"378":-0.5317138015483994,"379":-0.05883908962297628,"380":-0.4089096936535217,"381":-0.9397339353856983,"382":-1.154517895937394,"383":-0.12704872774615225,"384":-0.5541385248179571,"385":-0.34076016511445845,"386":-0.044292658498013816,"387":0.4224389436277215,"388":0.06253531195458539,"389":-0.7560164165894472,"390":0.1637418969048169,"391":-0.3640506013101075,"392":0.49866036629261223,"393":-0.14781636284674243,"394":-1.0807303077049137,"395":-0.6380519186730327,"396":-0.3409950502540551,"397":0.1431388976800469,"398":-0.3444629051908618,"399":0.1657644369136783}},{"sx":5,"sy":5,"depth":16,"w":{"0":0.06119637710058658,"1":0.24119483267433914,"2":-0.668656832769598,"3":-0.9000676098209005,"4":0.2144065495564926,"5":-1.1871535265201687,"6":0.4664328624590016,"7":0.12989803850102252,"8":0.1424769230072229,"9":-0.342562789611405,"10":0.29029731087643956,"11":-0.45344531118547277,"12":-0.23470344526340817,"13":0.939234075951375,"14":-0.170107900874434,"15":0.22554810660192834,"16":-0.32889850937059495,"17":-0.17786648561464213,"18":0.2048997369907664,"19":-0.28154136428885185,"20":-0.3963983095628954,"21":-0.3925565988812189,"22":-0.06491026397939523,"23":-0.3960981018808248,"24":0.5508142566606057,"25":0.7824608532815279,"26":-0.49966374068014896,"27":-0.3107546885588143,"28":-0.18173053355288618,"29":0.5731207381019149,"30":-1.126570334034981,"31":-0.18256630723012998,"32":-0.20045669801429555,"33":-0.49133721970464533,"34":-0.11536462144999708,"35":-0.12874918068515728,"36":-0.14588021470073873,"37":0.003672774987088091,"38":0.21184444654627904,"39":-0.5573475127969532,"40":0.8705064632458281,"41":0.16320887370007406,"42":-0.47194091291562984,"43":0.09867319444474326,"44":-0.3561735310045213,"45":-0.7276725342688951,"46":-0.7214378970634119,"47":-0.49146067574918084,"48":0.0012842687700598868,"49":-0.06519439033622065,"50":0.171020829120391,"51":0.5901365555471713,"52":-1.0094431242674693,"53":-0.45075623811552595,"54":0.6046740191094557,"55":0.33541964869562574,"56":0.1167240835949763,"57":-0.08386641282022424,"58":-0.1761261125050014,"59":0.2872904077440183,"60":-0.01906787193240259,"61":-0.07710972471166617,"62":0.22810365122391835,"63":0.5853164954378881,"64":0.2918967192162127,"65":-0.2834152893697309,"66":-0.9928380489288445,"67":0.22481936598972202,"68":-0.43695060137207126,"69":0.49174732994191495,"70":-0.5314683959368389,"71":0.19961502908496456,"72":0.2725907281145697,"73":0.43033352582874607,"74":0.41024835601586546,"75":-0.022886778382764202,"76":0.26038831971975374,"77":0.4193014983983276,"78":-0.06329672795535597,"79":-0.4049821218097302,"80":-0.02334749923997559,"81":-0.11249574415387982,"82":-0.6477768553161889,"83":-0.8635160266401294,"84":0.21915229879366036,"85":0.23594879465521887,"86":0.026497260701152405,"87":-0.22164962258342297,"88":-0.5149793778735473,"89":0.4716595616990926,"90":0.1146034890500875,"91":-0.43726692937906386,"92":0.24342150312396713,"93":0.05327064516563982,"94":0.27822485327212443,"95":-0.04147780100184396,"96":-0.2859458685550127,"97":-0.6129943175751111,"98":-0.34635565370456345,"99":-1.1301467403271737,"100":-0.8566937423225671,"101":-0.04371424109884556,"102":0.17176239612618185,"103":0.10557897765211006,"104":-0.1984131988589376,"105":-0.4825497073573096,"106":0.30838441075924916,"107":0.157111101909105,"108":-0.08662744166762625,"109":-0.4766608951234564,"110":-0.34846730641184387,"111":0.31876338396011056,"112":-0.5655499030553699,"113":-0.14621604016500195,"114":-0.7028479089206284,"115":-0.5662764248657015,"116":0.34717867020668336,"117":0.21633058704521504,"118":0.674276791547465,"119":0.15524682396694903,"120":0.4642349690949641,"121":0.4000395570851089,"122":-0.33441738742314414,"123":-0.1830461093265144,"124":0.18799531544696538,"125":-0.09303252702874379,"126":-0.6187704398540494,"127":-0.10610935314714022,"128":0.10629766357960166,"129":-0.3713443027036912,"130":-0.25306549263371586,"131":-0.17678864111440995,"132":-0.19137998637157858,"133":0.21906114539931526,"134":-0.2778183662545285,"135":0.12453060891173731,"136":-0.749157640430765,"137":0.12358658503147092,"138":0.07504408838182597,"139":0.2868034241230965,"140":0.596069420019292,"141":-0.17474880851955052,"142":-0.13797900687362244,"143":-0.29746435010511374,"144":-0.30855686283746436,"145":-0.1495782323841295,"146":-0.9684120817256091,"147":-0.33171338434196085,"148":-0.19450206249810736,"149":0.26983556572292683,"150":-0.7764005801726876,"151":-0.1791234317089907,"152":0.2117923436661855,"153":-0.43509707734387315,"154":-0.030901527142845987,"155":-0.030614632044858193,"156":0.14100798186462662,"157":0.3865200269516371,"158":0.1725757051753966,"159":0.19262429607511516,"160":-0.007348397421435469,"161":-0.9506875842140885,"162":0.21891639762268608,"163":-0.7246287988720754,"164":0.06792048322337192,"165":-0.6298214354676448,"166":-0.04005372462302626,"167":-0.3881634015835655,"168":-0.40851701815113844,"169":-0.257581188959895,"170":0.41187454809100443,"171":0.179862024550131,"172":0.08815075018699646,"173":-0.2878146531847682,"174":-0.015528227232229535,"175":-0.07209434990455318,"176":-0.05140874776322773,"177":-0.017409098538703406,"178":0.09131417161941265,"179":-0.31158463962841887,"180":0.45782057248314695,"181":-0.3128990014417583,"182":0.4140872347618642,"183":-1.2208455552578916,"184":0.18978476516875323,"185":-0.030471712873459053,"186":-0.12083593318518338,"187":-0.316335154904488,"188":-0.11293163611340072,"189":0.07476715333185503,"190":-0.7737547210298308,"191":-0.5072427024219531,"192":-0.6100161795970364,"193":0.36094535843962744,"194":0.431506639188728,"195":-0.5235170421574319,"196":-0.03590592739316663,"197":0.6272938335062604,"198":-0.0392779337036755,"199":0.4180282964783956,"200":-0.17964606319758933,"201":-0.3867921579011111,"202":-0.7189454524981571,"203":-0.15776504723743875,"204":-0.3589638169885822,"205":0.6261848873753227,"206":-0.23910240019513665,"207":-0.45870909076756117,"208":-0.3507300373396698,"209":-0.1632723422232428,"210":-0.6106239617882593,"211":0.2865876986922367,"212":0.23779116698957514,"213":-0.029238686460385667,"214":-0.13106737189223874,"215":0.08068858741832337,"216":-0.4634729545497837,"217":-0.24189971108878355,"218":-0.20693881345985138,"219":0.41920690364201296,"220":0.5725576311919688,"221":-1.6501748067329156,"222":-0.1324904345083194,"223":0.22569295810001305,"224":0.2152115749551239,"225":0.4523325899178022,"226":-0.7532291341337567,"227":0.3058035340207848,"228":0.08657807301005166,"229":0.19855901826667843,"230":-0.20274668747187283,"231":-0.45202001186959095,"232":-0.2012867777589887,"233":0.3241084547008644,"234":0.25242564470879963,"235":0.20852020050742895,"236":0.41942816833351065,"237":-0.33293730051302045,"238":0.09773421723286199,"239":-0.008290209663534054,"240":-0.4708523424655414,"241":-0.0016997258624980548,"242":-0.23117361142719398,"243":0.22688693586985342,"244":-0.41386873929460555,"245":0.20902607446566976,"246":-0.07029412875440438,"247":-0.21004571372110642,"248":0.45524309375327116,"249":-0.6033803881398547,"250":0.3886399769435542,"251":0.23837086287675685,"252":-0.3541507824892898,"253":-0.29099944565374136,"254":0.311788263527816,"255":-0.08939504406575179,"256":0.714337199914498,"257":-0.7466461340096582,"258":-0.3403861196087713,"259":-1.8953715792637709,"260":-0.9835561565178033,"261":-0.12445442545556173,"262":0.5976201789189602,"263":0.6002788470482379,"264":-0.18801459326314587,"265":0.9683455179185919,"266":-0.5585742630606721,"267":0.5468562986900116,"268":-0.32062239375647844,"269":0.4722266138853353,"270":0.1729461113586456,"271":-0.28226044055986116,"272":0.32599220453123834,"273":-0.14390382276389654,"274":-0.6875491627754302,"275":-0.9504451479720634,"276":0.1986967727445111,"277":0.3825637234596885,"278":0.49533780556083623,"279":-0.37368307745373813,"280":-1.1445956419174088,"281":0.9522531319553031,"282":-0.46053657240537943,"283":0.1488581198179875,"284":0.5083330647983285,"285":-0.11099426793843248,"286":0.15159088564809448,"287":0.21932540336154363,"288":-0.5047206389670327,"289":-0.12308123354435305,"290":-0.8996331008791817,"291":-0.5153821452022845,"292":-0.5575418495425795,"293":-0.09950719131386247,"294":-0.11822556744451622,"295":-0.13427525550434638,"296":0.13217498966587743,"297":-0.05493758247294939,"298":-0.33030512405173856,"299":0.41917889707712425,"300":0.15486906918568188,"301":-0.561795144433557,"302":-0.10527647704360903,"303":0.39782963594974957,"304":0.257537820412479,"305":0.22501383562333016,"306":0.27903100680660436,"307":-0.25957432346025855,"308":-0.11039585638291016,"309":-0.015477676226096606,"310":-0.09444153938369806,"311":0.15299906015927264,"312":0.21999104296427782,"313":-0.6986008660197015,"314":0.16044602940674893,"315":-0.4250666534312262,"316":-0.2224437947749562,"317":-0.38024790445480433,"318":0.04981466521266979,"319":0.7600280136226891,"320":0.5027956124190718,"321":-1.073751461924712,"322":1.0471686112310399,"323":-0.48137287799626133,"324":0.0843374702341262,"325":-0.9145646502603998,"326":0.023751697752576798,"327":0.14775900204366627,"328":0.34498609657067675,"329":0.3532176861758445,"330":0.8294883281548779,"331":-0.023868932612978587,"332":-0.3544650321259504,"333":-0.4657020248806867,"334":0.3793026057396908,"335":-0.036792653665000105,"336":-0.6751891793408672,"337":-0.05282918165388875,"338":-0.00889968856720161,"339":-1.3977395797966345,"340":-0.07840561548305819,"341":-1.246208295804507,"342":-0.14511434047022614,"343":0.04830279549154152,"344":-0.21855399997746394,"345":-0.18242132056409455,"346":-0.4355763323622189,"347":-0.5310891027674802,"348":-0.4948147573182982,"349":-0.6111872587620957,"350":0.28275276954052186,"351":0.4794759401061734,"352":0.6335760784266247,"353":-0.3289527369629556,"354":0.026817151555611776,"355":-0.34789892518162835,"356":-0.0016345889906988057,"357":-1.0179682343729135,"358":-0.35925529418905483,"359":0.32547422609858634,"360":-0.8183140786542827,"361":0.17470495078159498,"362":-0.09076781070427567,"363":0.36790931272960437,"364":0.4631697861558174,"365":0.49705520015097227,"366":-0.06485659820726554,"367":-0.3217064916362816,"368":-0.593690828702632,"369":-0.3723152327342795,"370":-0.8464610546423772,"371":-0.480240655332801,"372":0.028393784752439463,"373":-0.09990655872590662,"374":-0.03173082926290889,"375":0.23238719694410515,"376":0.3613667450515606,"377":0.1899164933519783,"378":-0.39663125000823873,"379":0.011740986300454979,"380":0.4987588100484357,"381":-0.6399134157317123,"382":0.48314936173419465,"383":-0.06787370831647681,"384":-0.37583495385472415,"385":-0.3680968659654058,"386":0.09353128359734142,"387":-0.40736891174281437,"388":0.616250597339628,"389":0.3509079697081991,"390":0.3754681673483442,"391":0.36127831297489615,"392":0.3631224045514295,"393":-0.5908313207160554,"394":0.33289292241467755,"395":-0.23912404948791988,"396":-0.3905493518881894,"397":0.46718416660463086,"398":-0.5872809771677341,"399":-0.0928530746165199}},{"sx":5,"sy":5,"depth":16,"w":{"0":-0.3590007915459717,"1":-0.048586949453487564,"2":-0.12492223555543255,"3":0.07398664204902473,"4":0.620672088988536,"5":-0.18752874324326518,"6":-0.4144672335064582,"7":0.13164678613580713,"8":0.3612975347004464,"9":-0.7214019348906521,"10":-0.2559894914398821,"11":-0.16627030699398998,"12":-0.20087548502727598,"13":-0.1677818031240205,"14":0.7455581192603795,"15":-0.17567284232808972,"16":0.3983707958885641,"17":-0.19719011948838724,"18":-0.665397169300453,"19":-0.5765395657747389,"20":-0.45024137722201224,"21":-0.3917238991697262,"22":0.17277062840590943,"23":-0.09281518585863684,"24":0.03180518170194779,"25":-0.2074883391025914,"26":0.7902742856656302,"27":0.36907992939874135,"28":-0.28948664711783345,"29":-0.5885274362823227,"30":-0.20626986585797982,"31":0.002164387953424385,"32":0.36016955874434237,"33":-0.8423193526875421,"34":-0.6146401214302083,"35":0.46040069369748476,"36":0.3162725222294219,"37":-0.20056397262478715,"38":0.6562086281388861,"39":0.038772106932821064,"40":0.27631759892674607,"41":-0.336279308599157,"42":-0.08136728906665529,"43":0.4878705279868179,"44":0.10348493198839903,"45":0.2989506076030989,"46":-0.0101106180932406,"47":0.37535502735143966,"48":0.11263833910783676,"49":-0.20244036240306254,"50":0.0930705811653941,"51":0.17152942227149748,"52":-0.5491006366125872,"53":0.37670949677366805,"54":-0.16888721741699148,"55":0.052828035718677904,"56":-0.3820951680543374,"57":0.16717265138584547,"58":-0.30989746072532837,"59":-0.026507915320273193,"60":0.3980137478316022,"61":0.17788826766468105,"62":-0.0227639243519695,"63":-0.8213870678782833,"64":0.09653999336521238,"65":-0.42900658202007685,"66":0.5264746774542454,"67":0.5858766123494086,"68":-0.8380944530909322,"69":-0.6716066216643707,"70":-0.1574361198962686,"71":0.051640118011176385,"72":-0.2943179841063752,"73":-0.5356086887784531,"74":-0.42112446459121566,"75":-0.5798418731550974,"76":-0.5588988192283693,"77":-0.07368411025540728,"78":0.5893255886295016,"79":0.37064801029682626,"80":-0.7857476073799639,"81":-0.46314370704849545,"82":-0.933171532176457,"83":0.16132170985779162,"84":-0.08767497050784216,"85":-0.3177567474837632,"86":-0.45156993558757524,"87":-0.41857669497292005,"88":-0.13885304386883787,"89":0.10682970881597585,"90":0.19164038763383032,"91":0.37748200646053326,"92":0.0030722882037498077,"93":-0.024700404485749863,"94":0.2929711428380287,"95":0.6574388914421359,"96":0.1223127268939418,"97":-0.26904621018998065,"98":-0.32421296104473624,"99":-0.5098811861970715,"100":-0.30302988399827085,"101":-0.3620492159817919,"102":-0.018401088156005774,"103":0.03824085279339375,"104":-0.8136630511776036,"105":0.6597076750324479,"106":-0.23721479462171308,"107":-0.4628462437148442,"108":-0.2170137099476471,"109":-1.0675070203622794,"110":0.12421412807158938,"111":-0.006662735749881993,"112":-0.4144882660695503,"113":0.21521969027258706,"114":-0.9724312870784493,"115":-0.015009165820493244,"116":0.6127196619919457,"117":0.8884359185904632,"118":0.09821760137177567,"119":0.2662016229798457,"120":0.2048854038345154,"121":-0.00035013897042772066,"122":-0.01960975314123809,"123":-0.3745311119866165,"124":0.032502342569128304,"125":-0.10671848230247158,"126":-0.5054167243096012,"127":-0.33546773647307115,"128":-0.37637360839011486,"129":0.29271025807242385,"130":0.09250973328716595,"131":-0.21651882647839624,"132":-0.33285182880708847,"133":0.4278485346820986,"134":0.27794256208730506,"135":0.10929055246999955,"136":-0.24280691821319075,"137":-0.41135169322004,"138":-0.5915514331081337,"139":-0.3492124275502496,"140":0.34101507043164,"141":-0.2780773587590164,"142":0.4637290981738607,"143":0.07770513637458679,"144":-0.1444366367030791,"145":-0.4871701750142203,"146":-0.23591724547594425,"147":0.6083269654717371,"148":-0.171444943018984,"149":-0.4015695322070799,"150":-0.5543455036063091,"151":0.3995242886022074,"152":0.040050447593079935,"153":0.4158414387475477,"154":-0.6964597057818779,"155":-0.27960554619521094,"156":-0.016781957087646123,"157":-0.028994077014835144,"158":0.056005654938869456,"159":-0.5230802775251258,"160":-0.10714515427954602,"161":-0.741602516045672,"162":-0.32459043281343825,"163":-0.10098917036853355,"164":0.11101730751265577,"165":0.330710559681382,"166":-0.35487136665157437,"167":0.7117255172393058,"168":0.08595334804061751,"169":0.13669946646810982,"170":0.04154538593017805,"171":-0.07846908704640243,"172":0.03630639909055613,"173":-0.359372007636215,"174":-1.1216473309134365,"175":0.7652676146412065,"176":-0.18005957721764665,"177":0.6569712036762819,"178":-0.6479716598638617,"179":-0.6520093441113554,"180":0.23852195993200437,"181":0.10089353258610359,"182":-0.6920578826472118,"183":0.17742092136367832,"184":-0.677197662689409,"185":0.3922458981621041,"186":-0.20721238703525915,"187":0.5866443663775665,"188":-0.08133362183208728,"189":-0.39299140605845523,"190":-0.013595330074756586,"191":-0.00347476705032988,"192":-0.9307730537524331,"193":-0.4341657395817623,"194":-0.4116513871739436,"195":-0.11341014371423948,"196":0.011373352080115298,"197":-0.0216336191753875,"198":0.04053897903388507,"199":0.1400704833757291,"200":-0.6680064359018746,"201":0.3101986649438668,"202":-0.8019281984511683,"203":0.2350206045943559,"204":-0.07316572019001816,"205":-0.7255002490148704,"206":0.4448462165320772,"207":-0.1342558391976496,"208":0.3744485379682806,"209":-0.6070854848017117,"210":-0.3870399918479116,"211":0.47894819278758116,"212":-0.09516637294044289,"213":0.13306160867213043,"214":-0.2910101962750106,"215":0.5433428991611442,"216":-0.31771382577805396,"217":0.5696863537876634,"218":-0.673569763725464,"219":-0.038255423236257316,"220":0.37051243831807806,"221":0.34456583167422555,"222":-0.14198306103452135,"223":-0.1242152564259704,"224":-0.45727906381738265,"225":-0.2771083282030996,"226":-0.8859861852052043,"227":0.44413011478199743,"228":0.09022390241434367,"229":-0.18120427518400356,"230":-0.3536585221359348,"231":-0.7421469261879658,"232":0.4216039320258915,"233":1.077354181557161,"234":-0.6363445331752705,"235":-1.0991609975551138,"236":0.031268623457019834,"237":-0.4314976524700905,"238":-0.06513459092696547,"239":0.17015981611510733,"240":0.2993112973440835,"241":-0.3877342852321318,"242":-0.24981037322803828,"243":0.10226552601819994,"244":-1.2860225103066119,"245":0.21640718778734075,"246":0.5956859875090603,"247":-0.013115965259390896,"248":0.0008687419341121903,"249":0.11751295530365481,"250":0.054273096738980356,"251":-1.0225366058273249,"252":0.4405142003265732,"253":0.25881926513390624,"254":-0.05809825097138693,"255":-0.5231914896887478,"256":-0.27882544053899394,"257":0.2791693732416177,"258":0.019512222095444894,"259":-0.7205962498002786,"260":-0.3697285760628001,"261":-0.05744290056554051,"262":-0.03203627865238785,"263":0.24979794228093175,"264":1.0514093078596511,"265":-0.011409141461304397,"266":-0.2672860972012379,"267":-0.7484711044505308,"268":0.4643229608948076,"269":-0.5739230622369104,"270":0.48295146227218927,"271":0.3598715221661951,"272":0.42358646024836827,"273":0.0012841580634329233,"274":0.08556389771482109,"275":-0.29560291022534285,"276":0.4035670623051906,"277":-0.34199638881864364,"278":0.4687909021707073,"279":-1.5050447867551096,"280":-0.6136166452099316,"281":0.3457441546952895,"282":0.5727547364982427,"283":0.2176148369648862,"284":0.3470630297930717,"285":-0.42332336318425084,"286":-0.21726046053919765,"287":0.036054726018964506,"288":0.1957351286979084,"289":-0.051010864480491885,"290":-0.6378586341413683,"291":0.2323733540695358,"292":-0.21729689751358003,"293":-0.3191551354079839,"294":-0.24801819412259607,"295":-0.9021615633676817,"296":0.38765445363180684,"297":-0.505882885002881,"298":-0.6906218256225373,"299":-1.0171110761098545,"300":0.43147372817328933,"301":-0.6022325581970871,"302":-0.055098872436021774,"303":-0.3158498139223557,"304":-0.005192568912131001,"305":0.06210828309046806,"306":-0.2911126389038144,"307":-0.13059247596294737,"308":-0.07660717137745386,"309":0.024000425252466047,"310":-0.3421172223536179,"311":-1.140328173946181,"312":0.19428035502967386,"313":0.018490794651729855,"314":-0.11692512972268007,"315":-0.23864791170720331,"316":0.31728553961595835,"317":-0.23855519521415966,"318":0.4295555827818183,"319":-0.8646537204648697,"320":0.4370152753892003,"321":-1.6503090841689279,"322":-0.09043940854984416,"323":-0.31244494862771754,"324":0.31936900724552514,"325":0.14090950060630578,"326":-0.0036411000941470014,"327":-0.7588337937053877,"328":0.2270680590590762,"329":0.7597664581680383,"330":-0.23482582485933085,"331":-0.5113644778949413,"332":0.16495369168933607,"333":0.40436790155276836,"334":0.6164174486008998,"335":-0.8954009819314453,"336":0.12008718736677583,"337":-0.14196755141293801,"338":-0.06716169827996923,"339":-1.3906280569909655,"340":-0.10615997756667389,"341":-0.163374319381351,"342":-0.20401491495862736,"343":0.39300005391909293,"344":-0.08969637083858802,"345":0.38278198008859105,"346":0.524586309047999,"347":-0.3761310144016369,"348":1.1171392548193944,"349":-0.6750022879552092,"350":0.3913387069435752,"351":-0.15494861359859813,"352":0.377650164250808,"353":0.4128966214409094,"354":0.36625822061780006,"355":-0.3594365754331844,"356":-0.7053066894283758,"357":0.8067850707736105,"358":-0.17582197747000228,"359":-0.6310810051195344,"360":-0.07177971970521756,"361":0.5008925541830058,"362":0.7478785919253325,"363":-0.4931872336987611,"364":0.6584920863431918,"365":0.16093842070269765,"366":-0.06992469922287128,"367":-0.48065237514327913,"368":-0.37498727437203283,"369":0.3157750983590678,"370":0.2601478656793955,"371":-0.6631703354671623,"372":-0.04661110677512525,"373":0.1474668378740029,"374":-0.24740974378097158,"375":0.8923117551170712,"376":0.5610622476294079,"377":0.05930465617863045,"378":-0.21904023353066454,"379":-0.8079146623808218,"380":-0.1747652952707279,"381":0.8301308335183135,"382":-0.053071825303533056,"383":-1.190798722601333,"384":-0.0636686127084298,"385":-0.44295859237238067,"386":0.33675878340718324,"387":-0.7181375613852772,"388":0.30234523426778226,"389":0.38209129707172484,"390":-0.29748628042402186,"391":-0.06082985125034316,"392":0.30803745535730315,"393":0.29232135062640596,"394":-0.3717763002330455,"395":-0.35808637174179425,"396":-0.11840381116302914,"397":0.19984570962776776,"398":0.3339415291376692,"399":0.1881845989732582}},{"sx":5,"sy":5,"depth":16,"w":{"0":-0.9484043903270537,"1":-0.10767212072858226,"2":0.14575482088585698,"3":0.5653132297005049,"4":0.293293642910218,"5":-0.6574481903604175,"6":-0.45949893052807034,"7":-0.19792832896904833,"8":0.1906622367138114,"9":-1.3833788836306335,"10":0.0975643730601393,"11":0.6495803619988912,"12":-0.14491476334232425,"13":0.2314839853450205,"14":0.18601306787389335,"15":0.6935610245833017,"16":0.7631811924670846,"17":0.4599637268889009,"18":0.3715881580970373,"19":-1.5871598436251457,"20":-0.21128259043849695,"21":-0.7440045295868387,"22":-0.4127198335660459,"23":0.7299990024007498,"24":-0.15869086849092584,"25":-0.7451867674030426,"26":0.37188794382378865,"27":0.059175645449082506,"28":0.2891476594369604,"29":-0.8865758290131682,"30":0.04599916327575816,"31":0.01982427838219333,"32":0.3963506070220111,"33":-0.2997871607942876,"34":-1.1274747836144094,"35":-0.3535975998025383,"36":-0.6771352622234202,"37":-0.27381589519584637,"38":0.20352248209928642,"39":-0.10855914749330098,"40":0.4297193132721057,"41":-0.890939661623655,"42":0.4798007984117268,"43":0.6632453281636298,"44":-0.21503105127779654,"45":-0.29538295781097784,"46":0.3225667985016425,"47":0.4094815939262717,"48":0.15870198311250747,"49":-0.2694334658398405,"50":-1.3562356101752193,"51":0.054055689092773744,"52":0.3418501337711271,"53":-0.1338346347437811,"54":-0.7542845987522786,"55":-0.7751829670649398,"56":0.0451804415174907,"57":-0.3306084270534315,"58":0.21980443316510062,"59":-0.31717578612904596,"60":-0.1947865321369072,"61":-0.5407874790207814,"62":0.24954507311313426,"63":0.32727461940005903,"64":0.7004011877355147,"65":0.2804177399182194,"66":-0.0536117131503134,"67":0.12977799352216482,"68":0.7972634275998285,"69":-0.15040908433200081,"70":0.16358333112521792,"71":-0.3812232036590383,"72":-0.6902056713996044,"73":0.17638006961178362,"74":0.3211178636867979,"75":-0.37746826061818983,"76":-0.1075965081033594,"77":-0.9475787545331016,"78":0.40293750083461444,"79":-0.31452146514510587,"80":0.6947274775473731,"81":-0.6235400578911808,"82":0.26523804831909886,"83":-0.8639321380174484,"84":0.48276019894078787,"85":-0.2609262290415864,"86":-1.4952367137247917,"87":-0.7893074322416583,"88":-0.30902530570835574,"89":-0.8608778712661228,"90":-0.6423810853448445,"91":0.15030569750860046,"92":-0.9537367834283765,"93":0.24241554959097042,"94":-0.3646508326397449,"95":0.02887508503162538,"96":-0.14698803132641908,"97":0.3996478792218262,"98":-0.49919295600594404,"99":-1.0663457802417267,"100":-0.10052964854061215,"101":-0.43506839122973406,"102":-0.9866285879634398,"103":-0.8758627088172872,"104":-1.1186644444506948,"105":0.2330150454329849,"106":-0.3710570394194747,"107":0.08930453063522877,"108":0.0212999087881109,"109":-0.5375861949144192,"110":0.029873913252635134,"111":0.11475171363569565,"112":-0.5306337923290451,"113":-0.44964265697225597,"114":0.5436713336404364,"115":-0.13013581016733375,"116":0.0019971048180009135,"117":-1.0813104716560709,"118":-1.0720173744177457,"119":-0.20843218385203097,"120":0.16286336973978233,"121":-1.0986793687372272,"122":-0.9175136779088122,"123":0.16111501305144318,"124":0.11875930962132314,"125":0.63793086139995,"126":-0.5895941252777025,"127":0.03211687120367353,"128":-0.4542451381580034,"129":0.5048335423947677,"130":0.1629337020998268,"131":-0.5821271647625017,"132":-0.22862379117422788,"133":-0.6140523122136344,"134":-0.40490449279609697,"135":-0.055033805689260556,"136":0.12436444373091313,"137":0.2954088809181061,"138":0.25289408668917546,"139":-0.538541064768492,"140":-0.166168441463806,"141":-0.16578354912898038,"142":-0.15298471008939654,"143":-0.3094948509418,"144":-0.06903464271430287,"145":-0.5446821354962182,"146":-0.8441290489904116,"147":0.2842341726570418,"148":-1.3748484709538005,"149":-0.623360933216798,"150":0.07102700763068029,"151":-0.35119618503914385,"152":-0.9117939472346823,"153":-0.5351768901841187,"154":-0.026103453532017158,"155":-0.41057548005023636,"156":-0.7921955329436361,"157":-0.08729359526619929,"158":-0.20667804596267814,"159":0.03004435164732243,"160":0.5449164678364001,"161":1.097115644028709,"162":0.030375427232158806,"163":1.0107286253714305,"164":0.548842138734409,"165":-1.6261041843780795,"166":-1.219753673116298,"167":-0.22848883430705838,"168":0.10319759145927121,"169":-0.5174390488285939,"170":0.7526015226642963,"171":-0.9626110466697595,"172":0.15682852597552266,"173":0.6319061808051074,"174":0.17490147845350568,"175":0.7135639011742082,"176":-0.0062741778843432225,"177":-0.5196111081988024,"178":0.587814932899842,"179":-0.806573475682341,"180":-0.06195643112323766,"181":0.1256484440989574,"182":-0.3173573257936069,"183":-0.6216153311511485,"184":-0.15256920268991261,"185":-0.8671259196290882,"186":0.49535318408633844,"187":-0.842641539084983,"188":-0.21671605683476733,"189":-1.325281387399126,"190":-0.3818058228371633,"191":-0.5121022140297598,"192":-0.03254780056267644,"193":-0.20909509607606944,"194":1.025069249465656,"195":-0.18534617226087363,"196":0.0855660280036866,"197":0.6629155373262829,"198":0.2645288291122267,"199":0.5983698931928594,"200":-0.7608907381292317,"201":0.25770661528672867,"202":0.5658833731903516,"203":-0.325929972324728,"204":-0.5204250380338187,"205":0.16120238143340834,"206":0.08745250305858393,"207":-0.5251915483796283,"208":0.450266482976166,"209":0.044549123521239124,"210":0.149333360456283,"211":0.2573935802066736,"212":0.07791649368192627,"213":0.1819996152606279,"214":0.17124631264481058,"215":-0.10675288666501856,"216":0.38833412374035226,"217":0.30304962331504337,"218":0.04492972030994462,"219":0.047029630908949925,"220":-0.6358069531632696,"221":0.4507751689427984,"222":0.39254529049397024,"223":0.15065840194209573,"224":-0.20255498758959317,"225":0.11429990806276542,"226":-0.1158965919745672,"227":0.36974160925211574,"228":1.2983343582352849,"229":0.8089068115090331,"230":0.39934030199379106,"231":0.3476779005923521,"232":0.8565446980360744,"233":-0.17002299320518163,"234":-0.004182392662995697,"235":0.5072057771431353,"236":0.16723310117378176,"237":0.20952361909186645,"238":-0.5462878796270516,"239":-0.26992073789089777,"240":0.14990737188794903,"241":0.14564160708291413,"242":0.09277447962712375,"243":0.46085150113744977,"244":-0.5762339079119839,"245":0.48714332969384666,"246":0.28411669611096424,"247":-0.2760790479897329,"248":0.26767342111381326,"249":-0.9664970082953024,"250":0.6193853372863983,"251":-1.1209517939200393,"252":-0.27805540740252027,"253":0.11017452202575728,"254":-0.32345539986773686,"255":-0.07649580002914216,"256":0.1946977060510435,"257":0.15369120720472854,"258":0.5184231931477079,"259":-0.4950421758390381,"260":-0.4245018751437341,"261":-0.5992631401517058,"262":0.16510509574490972,"263":-0.30536700200910577,"264":-0.49053969898537125,"265":-0.674643787660276,"266":-0.7165428726705605,"267":-0.6839372894047289,"268":-0.3705655487248367,"269":-0.13156420895998805,"270":-1.4733792706547795,"271":-0.0641377084172439,"272":-0.17918870429390057,"273":-0.762814800538354,"274":-0.35263721380709506,"275":-0.5817345848336808,"276":0.18358156798399303,"277":0.44328803092322,"278":0.023631832650427058,"279":0.1856575117218022,"280":0.07808683890241375,"281":0.3533489325764203,"282":-0.8993822863053164,"283":0.47600459824066194,"284":0.5756203589321904,"285":-0.32614115947386524,"286":0.17707713461110675,"287":0.4664985335424415,"288":-0.1024746268309344,"289":-0.3375632383810166,"290":-0.739239506341302,"291":0.24304338805684145,"292":0.0857471803773314,"293":0.6333278232796681,"294":-0.20347252793690693,"295":-0.43894844871565075,"296":-0.3343405570617799,"297":0.23207100113542975,"298":0.3413582087642402,"299":-0.3944350163624203,"300":0.25554719954524713,"301":0.6391841455966396,"302":-0.12249339829032416,"303":0.556221600785875,"304":-0.06285273153117994,"305":0.19425625109725386,"306":-0.9285533594869815,"307":-0.28086766655102346,"308":-1.3790915933132382,"309":0.635333868634264,"310":0.5019181691064283,"311":0.5850707389867281,"312":0.7409125536882806,"313":-0.26498381793775827,"314":0.599267378153574,"315":0.5498208078892333,"316":1.0727764225077296,"317":-0.6553349025523177,"318":0.9269264922097331,"319":-0.7550805383298516,"320":-0.13849895030374115,"321":-0.6263966278696731,"322":0.370794861673819,"323":0.2669083343575154,"324":-0.6846366819111721,"325":-0.9839913645168419,"326":-0.03146413866368033,"327":-0.06913848974159842,"328":0.2041594672978126,"329":0.34951336954754353,"330":-1.0196286011295292,"331":0.04142879786171123,"332":-0.6861548969420799,"333":0.5683407355696931,"334":-0.7502996055409598,"335":0.17614921577552864,"336":-0.38707515582988145,"337":-0.6177050540514393,"338":-0.4698816765735819,"339":-0.02286552081849124,"340":0.41389331291923515,"341":-0.5909850161654084,"342":0.6601537913695359,"343":0.2328812039326008,"344":0.21702139275613883,"345":-0.8921460582901072,"346":-0.13238753038181114,"347":0.3451819904804584,"348":-0.9409580802702531,"349":0.052934108446809736,"350":-0.42682764375401766,"351":-0.19714549328574413,"352":0.43639353662667,"353":-0.18761206386740417,"354":0.2840702487444154,"355":0.563458890882437,"356":0.2562792195624934,"357":0.19099789867980788,"358":1.2891136729810484,"359":1.2218580438142814,"360":0.5149857188104915,"361":0.39782983127383964,"362":-0.5345306624480107,"363":0.4619289360596886,"364":-0.6697595466930749,"365":-0.2343199429585329,"366":0.5336274873657776,"367":0.2367504781936787,"368":0.5883407302897854,"369":0.40065066613160416,"370":0.14790683317726394,"371":-0.5167997854546964,"372":-0.014868334815957937,"373":0.2495637488866823,"374":0.9130283974480301,"375":0.0933267207567672,"376":-0.2259524630085406,"377":-1.433953874337222,"378":0.050735255260844374,"379":-0.09502336445879415,"380":-0.2072657929363238,"381":0.26857137400984504,"382":-0.5928129386034567,"383":-0.27429888916308953,"384":0.3132175289548897,"385":0.1424856389937519,"386":-0.06851898229877525,"387":-1.5116377138684798,"388":0.3449619704557447,"389":0.4605521077564769,"390":-0.12331158036771594,"391":0.5643560508024089,"392":0.31269354376106473,"393":-0.5579433601112651,"394":-0.25531271674202655,"395":0.36440629757206633,"396":0.6522591633472973,"397":0.24240461070629393,"398":0.16943601200530972,"399":-0.06316323177334757}},{"sx":5,"sy":5,"depth":16,"w":{"0":0.14659140004610766,"1":-0.34353265168633423,"2":0.5753194097198878,"3":0.09380782581350568,"4":0.8269127993191485,"5":0.2912205936923294,"6":0.8840848093579967,"7":0.053794523089152675,"8":0.8027533370208537,"9":0.07961064163553296,"10":-0.36892672071135896,"11":-0.6221122821684612,"12":-0.3360611428922495,"13":0.2970978564699071,"14":0.22870343705985496,"15":0.750480379038411,"16":-0.4266387277388701,"17":0.22070979779336658,"18":0.5309854476782954,"19":0.7047149468327001,"20":0.16532231281547974,"21":0.5706418957798084,"22":-0.018485402889276602,"23":0.34193435712184544,"24":0.15149532217691022,"25":-0.17005157714560576,"26":0.222572933480313,"27":0.37716628128159113,"28":0.39193601114472204,"29":0.5080488149046982,"30":0.378358681936318,"31":-0.5350999456542463,"32":0.4364836381504815,"33":-0.29623881782165756,"34":-0.9658948340370266,"35":0.3566931484584244,"36":-0.231204145496835,"37":0.25991962548397746,"38":-0.6110069229974325,"39":0.37548662012824424,"40":0.22529254046914676,"41":-0.10404931755835461,"42":0.7444017674149382,"43":-0.5101015032089619,"44":-0.09540870956036245,"45":-0.0026285330163889576,"46":-0.29241769167184645,"47":-1.488003024550521,"48":-0.04013373079307908,"49":0.3454330730402996,"50":-1.01244404894048,"51":-0.04047879858897779,"52":-0.4603948935307307,"53":-0.3299773520693118,"54":-0.3335119292854696,"55":-0.26556249074525734,"56":0.3011510574979345,"57":-0.19964051792152415,"58":0.5796066609026816,"59":-0.3151584779776709,"60":0.023389915755663584,"61":0.017758511770200186,"62":-0.4710863073661417,"63":-0.05680128138632256,"64":0.16836543289662784,"65":0.1189711374539139,"66":-0.26775322917523015,"67":-0.4728271784015616,"68":0.07067141875202679,"69":0.6440861003134682,"70":-0.3674725786964073,"71":0.042239778359272444,"72":0.6109072281405831,"73":0.09729115823079995,"74":0.9918215441743802,"75":0.2519302859792401,"76":-0.13191851290824336,"77":0.7544112390525902,"78":-0.4658446363428743,"79":-0.8109789081110125,"80":0.6624548928758981,"81":-0.13928373799461763,"82":0.13419409741232,"83":0.45031661425867986,"84":0.36445550732866655,"85":-0.21141722468271984,"86":0.16647557444890465,"87":-0.32359624868646614,"88":-0.24423560163146152,"89":-0.02162837181200366,"90":0.810187320641727,"91":-0.5129155717139665,"92":0.5266040158200388,"93":0.45266535268792346,"94":-0.7107113042488352,"95":0.542124920804164,"96":0.45108352845952066,"97":0.364709378401358,"98":0.521148171220612,"99":-0.15966381542323535,"100":0.27165168734105494,"101":0.12146210109431074,"102":0.3389416446330127,"103":-0.8346195738931815,"104":-0.4649236683010843,"105":0.03116618148970632,"106":-0.21030073417181105,"107":-0.11308306504175533,"108":0.4977593518507595,"109":-0.7337069188971427,"110":-0.6394535787291307,"111":-0.512123027585155,"112":0.5500207667550536,"113":0.3289582966458034,"114":-0.10763604142285602,"115":0.00387776275080021,"116":-0.4652598602449208,"117":-0.1252915033907839,"118":-0.17165806188223873,"119":-0.27372414018119173,"120":-0.06441259391738978,"121":0.27780359324907256,"122":0.11321892090306515,"123":-0.5227030230375703,"124":-0.19867406913904495,"125":0.4029321530731168,"126":-0.6571246083626908,"127":0.19572854064873782,"128":0.4102714250237558,"129":0.4166132525197695,"130":-0.9533828885852846,"131":-0.7945902281378511,"132":-0.7025720919737217,"133":0.16716494262934806,"134":0.2875063881541353,"135":-0.30950893857989265,"136":0.06787919606898224,"137":-0.002689167093732928,"138":0.10733422848549776,"139":-0.5802372880505755,"140":0.46438246326995425,"141":-0.44351244389892536,"142":0.29282461283059,"143":-0.036536779296476286,"144":-0.2781879566012831,"145":-0.15889494642697286,"146":-0.13264561853233542,"147":-0.06359834588700439,"148":0.691277991625484,"149":0.7721404663889313,"150":-0.1289362078966444,"151":0.22863652833269024,"152":0.5041480148276309,"153":-0.3843429080931222,"154":-0.11322595799867605,"155":-0.7545374789845964,"156":-0.26000751533518646,"157":-0.6740106228479318,"158":0.3421057643160885,"159":-0.46477555515234226,"160":0.757823451178205,"161":-0.33514632201513783,"162":-0.3600286204681612,"163":-0.1565500534124507,"164":-0.2733437159600809,"165":0.4826708242015618,"166":0.4320506547899884,"167":-0.29084471193290257,"168":-0.5432877195936079,"169":0.05400063929209948,"170":0.22784233257522538,"171":0.2600561097676489,"172":0.4282830765243309,"173":0.3220729897928001,"174":-0.03065061394870148,"175":-0.24532625378053494,"176":-0.7108256092302254,"177":-1.3248289191887597,"178":-0.244125360389426,"179":0.4116118157514589,"180":-0.3482824636833071,"181":-0.5237917266314133,"182":-0.41874574086822414,"183":0.16036888057629098,"184":0.6553602567440895,"185":-0.11204075026529464,"186":-0.06411677139017623,"187":-0.23183539585665736,"188":0.3269093074894626,"189":-0.13791958255787368,"190":-1.387717009394926,"191":0.35101915425832103,"192":0.03698862603279546,"193":-0.6364391160649253,"194":-0.7482506402948853,"195":-0.13100527057588487,"196":-0.09151255717875012,"197":0.03892411548261257,"198":-0.7770148923814733,"199":-0.38908366610249145,"200":-0.6410902339309053,"201":-0.1675755537681772,"202":-0.34282264411857916,"203":-0.8304855597662827,"204":0.00359499393765619,"205":0.05983562164452698,"206":-0.441729785921439,"207":-0.4668242891649775,"208":-0.08083447737240441,"209":0.378590665609039,"210":0.20364054468493348,"211":-0.22193474710810152,"212":-1.1294768417009373,"213":0.13687319555193084,"214":-0.05874304152390701,"215":-0.545784458845996,"216":0.5616494621353852,"217":0.11404580657504221,"218":0.42377838604276025,"219":-0.07082159631162067,"220":-0.20007656543294805,"221":-0.517200720375101,"222":0.44415647278961645,"223":-0.4034665020755101,"224":-0.09494028233397822,"225":0.5075280439939251,"226":0.6098566521199992,"227":0.13829003401690512,"228":0.41146271057500583,"229":-0.12177363534895984,"230":0.027543057135540335,"231":-0.29560752030062554,"232":1.1927406820442517,"233":-0.11209614411741062,"234":0.8828920599293464,"235":0.24726730327479157,"236":-0.07161869970779582,"237":-0.408221777995023,"238":0.14766162308194025,"239":-0.6086764187328688,"240":1.269937392347515,"241":0.6952704708485549,"242":0.4404898650353599,"243":0.3180484685895857,"244":-0.29201482779574167,"245":0.1258614081124645,"246":0.008784132342598252,"247":-0.0617987796970908,"248":-0.623848011811743,"249":0.6106181294653591,"250":-0.2798566432981046,"251":0.178323838198648,"252":0.0587539444436885,"253":0.3060144142071199,"254":-0.2724512317978189,"255":0.10744032422927564,"256":-0.4452647184090962,"257":0.3708328446220681,"258":0.378543795433965,"259":-0.038978346163423286,"260":0.448737835903818,"261":-0.05784933938863419,"262":-0.13141116236856512,"263":-0.6687938486688506,"264":-1.126443602069023,"265":0.3134748343185249,"266":-0.4204937469806451,"267":0.09762945447204398,"268":0.3848119988479856,"269":-0.15187838228552025,"270":-0.6821790462303194,"271":-0.6693793581563435,"272":-0.4349200538833768,"273":-0.5179405477024807,"274":-0.47935020989286853,"275":-0.47519109872930804,"276":0.31153112977613806,"277":-0.08813681439131772,"278":0.14684678244630717,"279":0.6807197262496645,"280":0.21912985081122568,"281":0.03465701553922595,"282":0.43565160374140566,"283":-0.9478768694478593,"284":0.2670975129726886,"285":0.4000411498465118,"286":0.30582461160212804,"287":0.22390399836689054,"288":-0.4429056033291801,"289":0.42748062559100614,"290":0.015284365186994258,"291":-0.08454824510467047,"292":0.8367101611940865,"293":-0.06334410604747541,"294":0.35550451074429945,"295":-0.5937782132979232,"296":-0.3820881523430438,"297":0.07771353011331354,"298":0.3938357069894195,"299":-0.4386521455993631,"300":0.07475152296839481,"301":-0.6930796411612102,"302":0.07067535379343735,"303":-0.21128791864198013,"304":0.03021652534501075,"305":0.12861811842810775,"306":0.05805965879197166,"307":0.2052915136954045,"308":0.07946675190036268,"309":0.3447393015476918,"310":-0.4230025665192472,"311":-0.43547871583388564,"312":0.04183423055461592,"313":-0.46698120014939537,"314":0.05695676383507114,"315":-0.742345275596919,"316":0.40701408439914827,"317":-0.5700865024298927,"318":-0.4979508591655833,"319":-0.23794330133976727,"320":-0.24650937044144652,"321":0.7644393248676562,"322":0.11198794757070556,"323":0.10966319743598542,"324":-0.8492971560520574,"325":-0.4438186028938707,"326":0.5466071257663464,"327":0.29957534831327387,"328":-0.8965107211951786,"329":-0.5059058489889043,"330":0.11955347676087431,"331":-0.20994319065148337,"332":-0.058338234128604075,"333":0.07176739514899651,"334":-1.570342566731825,"335":-0.2573850302174302,"336":-0.09117780780861295,"337":0.05272548006783769,"338":-0.3657963584715358,"339":-0.2484684518271491,"340":-0.021891909271975103,"341":-0.5611807375483263,"342":-0.2337464139966421,"343":-0.057687355524025555,"344":-0.11993365889706495,"345":-0.09207528392535705,"346":0.03769865610689546,"347":0.38493214228081024,"348":-0.23098463053577628,"349":0.4344144368368108,"350":-0.5262478432758138,"351":-0.6936666463696032,"352":0.8414807891430388,"353":-0.4896043269823735,"354":-0.7939357722388904,"355":0.0648462544804686,"356":-0.22512608380330312,"357":-0.5153607512321933,"358":0.35250886597939146,"359":-0.2473547711375964,"360":-0.19148959836026672,"361":-0.21140320799405818,"362":0.6715507204561673,"363":-0.6102736956304308,"364":0.4223684575925161,"365":-0.15628002666685917,"366":-0.4459367985116595,"367":-0.6047970076322633,"368":-0.0580140598704756,"369":0.2529334851574936,"370":0.07091425729154176,"371":0.6228415337013605,"372":0.09997801523796514,"373":-0.20283216845282678,"374":-0.04183279192241475,"375":-0.14012308658973158,"376":0.08484797437320356,"377":-0.09260909421357343,"378":0.35875518560004444,"379":-0.5268257132368726,"380":0.0018870648694003578,"381":0.154895797656649,"382":-0.41619740578496917,"383":0.40495630310511477,"384":-0.2628514619120583,"385":-0.04749613401919946,"386":0.006350347022783537,"387":0.21689378452991587,"388":0.2660301407670605,"389":-0.45275263154916484,"390":-0.38398208804496314,"391":0.07250891544455365,"392":0.4503400324507312,"393":0.1573877374702226,"394":0.027270661243171703,"395":-0.3432070416560162,"396":-0.3653650045601837,"397":-0.7274419284058096,"398":0.13261191211502818,"399":0.7249279666822143}},{"sx":5,"sy":5,"depth":16,"w":{"0":-0.029962296337916826,"1":-0.438775215819706,"2":0.38116743155940525,"3":0.014445256650889419,"4":-0.4237550845427503,"5":0.5866429209165985,"6":-0.5218693674072977,"7":0.33317458802840805,"8":-0.08092677908605983,"9":-0.3265509192774154,"10":0.546706281185715,"11":-0.00630145113165782,"12":-0.2315393108726307,"13":-0.10266734323529406,"14":0.057154388103871426,"15":0.13164231350680328,"16":-0.39337475871661387,"17":-0.9722105052856501,"18":0.36148237120374715,"19":0.11388005889285586,"20":-0.7036841882294216,"21":-0.17682740093850682,"22":0.15105223008264348,"23":-0.42746340853878845,"24":-0.39990245263188007,"25":0.3145963966849978,"26":0.3889827062190828,"27":-0.11787238956300666,"28":-0.46023538381688633,"29":0.07253386527980571,"30":-0.15231753945354173,"31":0.44025783734612955,"32":-0.12315892478036874,"33":0.1510647638123874,"34":0.1351300893455049,"35":-0.740253025587234,"36":0.4509947582836081,"37":0.46107169404231624,"38":-0.3059604189893594,"39":-0.6345336662045242,"40":-0.4525395232992103,"41":-0.27589041283501986,"42":0.10685081095684541,"43":-0.9034670405478555,"44":0.19656109211762,"45":-0.6741981494576382,"46":-0.20041715109268568,"47":-0.03295790814548141,"48":-0.19489614289967724,"49":-0.2582544454218149,"50":0.4219824741345619,"51":-0.2915057479004646,"52":0.2569013519357743,"53":0.38334914798344427,"54":0.6144451737126463,"55":0.2213065871405949,"56":-0.20191252817310765,"57":-0.0811595467159626,"58":0.7589656296868743,"59":-0.2830862175159303,"60":-0.006484657542529434,"61":-0.07074725815799514,"62":0.45576436349931776,"63":0.16157808415159156,"64":-0.137939739866808,"65":-0.7059152974368791,"66":-0.4786937903684473,"67":0.4182180594420014,"68":-0.2155009321122989,"69":-0.11138971831014795,"70":-0.8725168734910731,"71":-0.054750309026727374,"72":0.04108700153314546,"73":0.5617944686307882,"74":-0.690245471216109,"75":-0.5778002808716928,"76":0.12275029577076929,"77":-0.11078093941815186,"78":-0.28212318058330554,"79":-0.11632719640283974,"80":0.14895262657705133,"81":0.30366929135543486,"82":0.3820138142246438,"83":0.2304807918546171,"84":0.037367119294407614,"85":0.084989444453608,"86":-0.1794858781645321,"87":0.28964947520869333,"88":0.2826503291898893,"89":-0.20222608600474723,"90":0.08530609359912818,"91":-1.3661471373324556,"92":-0.7314135662702277,"93":0.5014714786629108,"94":-0.07066341671945639,"95":0.13800488766409363,"96":-0.6093970383796683,"97":0.32178780243023075,"98":-0.006032257329551785,"99":-0.051814302708263864,"100":-0.030338211580137227,"101":-0.6948987390226131,"102":0.7538255017898706,"103":-0.4188969440000036,"104":-0.979884831606587,"105":0.5431217084961396,"106":0.09281444581053476,"107":-0.7693501619159863,"108":0.27655605606393185,"109":-0.3187512604609458,"110":0.3152214198947684,"111":-0.29192219347740295,"112":-0.2606711289259766,"113":0.06451412469998796,"114":-0.059596160929613465,"115":-0.1973156011603895,"116":-0.3577877715470495,"117":-0.45261262851858725,"118":0.507730509472318,"119":0.47690386302214466,"120":0.5035473031532169,"121":-0.6261421257338649,"122":0.4081654826779407,"123":-1.2080008642915845,"124":0.4301912519965391,"125":-0.4467371905028756,"126":0.24134029925967482,"127":-0.2672482049690017,"128":0.18165965095775097,"129":0.37846023632223014,"130":-0.19410716470414743,"131":0.11153794727317691,"132":-0.06662415592117421,"133":0.14197674044367356,"134":-0.20626938358800448,"135":0.14443439158999305,"136":-0.05687006302015281,"137":0.02998665409576309,"138":0.5239358770376207,"139":-0.18001619284101658,"140":0.5990880507631215,"141":-0.1205869000472955,"142":-0.08926833833759121,"143":-0.38764763317671985,"144":0.3539076742610208,"145":-0.07890320738881883,"146":0.23030224815768244,"147":-0.5245326878460478,"148":-0.38248164526453576,"149":0.07817714856112615,"150":-0.9417029337532957,"151":0.4443037337511169,"152":0.33540568966880147,"153":-0.4464478054134304,"154":0.2638769378466489,"155":-0.024583792397216475,"156":-0.4908089803107257,"157":0.1563682840890257,"158":-0.12146018737567271,"159":-0.39165165709850075,"160":-0.5991687279321379,"161":0.12914388449992797,"162":-0.07464786304468964,"163":-0.1485230445896149,"164":-0.8909136539202391,"165":-0.43232725658243065,"166":-0.5813862636749515,"167":-0.5798646865711586,"168":0.13618211730768898,"169":-0.26409919223254896,"170":0.23527747416628117,"171":-0.2771985893480054,"172":-0.17430672861112698,"173":-0.2869677900654013,"174":0.3102641632586598,"175":-0.09644910661651748,"176":0.04972862510256972,"177":1.217187864593588,"178":-0.42304178353313615,"179":-0.03612382288132694,"180":0.22310379525859533,"181":-0.8250967332134388,"182":-0.11631758274823766,"183":-0.6416857360833055,"184":-0.2731637825280848,"185":-0.2767157406015664,"186":0.5367783260847333,"187":0.3331630961737068,"188":-0.0547067218641393,"189":-0.5291005523941366,"190":-0.22428849468589604,"191":-0.6156370689942438,"192":-0.056279430218013377,"193":0.3162705224492007,"194":-0.637467050479671,"195":0.41373932932098234,"196":-0.30426409912471675,"197":-0.9079278507103687,"198":-0.0990962355894545,"199":0.012653735985054423,"200":-0.3916412907210371,"201":0.1453864368246348,"202":0.7744070751691251,"203":-0.19500158819238775,"204":0.3415706659020591,"205":0.0924598266660065,"206":-0.20601658426535338,"207":-0.409926639182162,"208":0.36763520080041484,"209":0.3938842077766451,"210":-0.5941655523579376,"211":0.6340654690411048,"212":0.023759727688569623,"213":-0.23154361617892688,"214":-0.19889909938473785,"215":0.6741059723834494,"216":-0.47167339624006854,"217":-0.6334383819466314,"218":0.38379214056136135,"219":0.7174476271098702,"220":0.29190551527514125,"221":0.11383385559803462,"222":-0.1425931942368265,"223":-0.0031225299049028815,"224":-0.34999515661598923,"225":0.10272938704247664,"226":0.06858234177208014,"227":0.2076151054976304,"228":-0.05420483008842317,"229":-0.10744816990490731,"230":-0.25308339979394556,"231":-0.03336129696563485,"232":0.25577780907581127,"233":-0.4123521558420672,"234":-1.177771258990521,"235":-0.12592276768056565,"236":0.03129975856304333,"237":-0.011493154050742613,"238":-0.04018765529319114,"239":-1.34800353775179,"240":0.43978426416221794,"241":0.5401785254866429,"242":-1.0066336480212943,"243":-0.16021049248764355,"244":-0.5288296017658148,"245":0.04021933345968821,"246":0.18567557110046276,"247":-0.31149804300805767,"248":0.38871452096348663,"249":-0.7159192706405069,"250":0.6756035823679373,"251":-0.999024168335328,"252":-0.7427844911945385,"253":-1.314818068630775,"254":0.6977028896178585,"255":-0.06700742929491055,"256":-0.20908850324717307,"257":-0.3601264479741583,"258":-0.7035993655391973,"259":-0.23086212978718773,