{"layers":[{"out_depth":3,"out_sx":32,"out_sy":32,"layer_type":"input"},{"sx":5,"sy":5,"stride":1,"in_depth":3,"out_depth":16,"out_sx":32,"out_sy":32,"layer_type":"conv","l1_decay_mul":0,"l2_decay_mul":1,"pad":2,"filters":[{"sx":5,"sy":5,"depth":3,"w":{"0":-0.24741298169678547,"1":-0.008355035927219739,"2":0.030058636241364123,"3":0.11690982571663726,"4":0.6168832243840143,"5":0.2817312497555706,"6":-0.16439882864751873,"7":0.29762610364716174,"8":0.4062584805251522,"9":-1.3131214591360025,"10":-0.6759466387311321,"11":-0.6136801256612744,"12":-0.5929904298848273,"13":-0.10044818474451224,"14":0.03348786354582705,"15":-0.5399829640038083,"16":-0.5206311306214579,"17":-0.3485810716548587,"18":-0.03560785787276525,"19":-0.27199351973482977,"20":-0.5011118534871553,"21":0.28860199108343393,"22":0.46630657462790426,"23":0.019993341418649547,"24":0.17509396826851883,"25":0.07522748733590605,"26":0.14291867344132286,"27":0.7216491313429602,"28":0.4029364412886122,"29":0.4708028926449049,"30":0.465768802486156,"31":0.06057500189029151,"32":-0.12869385830283422,"33":-0.10678028496528691,"34":-0.09148051906359624,"35":-0.22463724733501,"36":0.26144810124067014,"37":0.5166792648962677,"38":-0.13117430591713936,"39":0.23018371061261902,"40":0.09211710397826946,"41":-0.4281769422521727,"42":0.7166638386049036,"43":0.6856635373797633,"44":0.24443938864777867,"45":-0.09683980527557078,"46":-0.0485954453526551,"47":-0.5088025845067635,"48":0.31746794843337395,"49":0.3778129077967354,"50":-0.46808781200752025,"51":0.6809429569945357,"52":0.33874195456486883,"53":-0.2629269670933147,"54":0.47423401443690516,"55":0.48990891407748516,"56":-0.02594424185223711,"57":-0.9599998738761832,"58":-0.8722102828285905,"59":-0.9694926086622543,"60":-0.09444921583229046,"61":0.313830078651165,"62":-0.03680473256010344,"63":-0.3206769151477723,"64":-0.3866577427505015,"65":-0.5990440086886443,"66":0.36357545511300193,"67":0.42107452566595804,"68":-0.37279847499146146,"69":0.27869320827706623,"70":0.22256949356544695,"71":-0.30576947511223646,"72":-0.27467963409739526,"73":-0.09987717969111076,"74":-0.3605884900970669}},{"sx":5,"sy":5,"depth":3,"w":{"0":-0.19347886772425937,"1":-0.25844938301088466,"2":0.12913825807600088,"3":-0.9663748967017406,"4":-0.1674151022155956,"5":0.3408204661485396,"6":-1.0076575595290058,"7":-0.12253765664490755,"8":-0.13374023515250624,"9":-0.4825668938076541,"10":0.18285752853161089,"11":0.01506324520326398,"12":-0.7501164644328723,"13":0.011379625573052178,"14":0.22336182591040316,"15":-0.3223087939514562,"16":-0.14152637267678062,"17":0.12401323748383764,"18":-0.012918603589930038,"19":-0.09904692145746939,"20":-0.23451600754460747,"21":0.013315530686113155,"22":-0.0933975378648016,"23":-0.6813254803080915,"24":0.48430406583525176,"25":0.082005670820555,"26":-0.03813433737926639,"27":-0.31067899689010164,"28":0.29633133653154453,"29":0.37232215310543154,"30":0.7145511595584286,"31":-0.2863813718194587,"32":-0.07953247125126188,"33":1.259080848828302,"34":0.42648885916053453,"35":0.31625565689923846,"36":1.18424294356561,"37":0.5250315338945567,"38":-0.11717990183879948,"39":0.061460027377312154,"40":0.31790540040504633,"41":-0.11211722350007874,"42":0.28524772975224455,"43":0.8835738080054165,"44":0.2998962327895281,"45":0.40691078828756233,"46":-0.23849459739618598,"47":0.1620937369768312,"48":-0.17687908759580012,"49":-1.0243034537217475,"50":-0.284241590780795,"51":-0.05752758053146776,"52":-1.4332671515171846,"53":-0.7483353832732442,"54":-0.1370531436171318,"55":-0.6551435694723863,"56":-0.3369258875136231,"57":0.14850177535874892,"58":-0.2741604099664837,"59":-0.33502084076054855,"60":-0.16061254631111735,"61":-0.22500081109790926,"62":0.09999547770155148,"63":0.40244654724303636,"64":0.052352094468440726,"65":0.14363169578010657,"66":0.645577167567009,"67":0.22767077904409275,"68":0.12239431917674928,"69":0.31337260716091847,"70":-0.11545078624972845,"71":-0.1576772717861376,"72":-0.1723729095588934,"73":-0.02490693881756708,"74":0.1311178967169252}},{"sx":5,"sy":5,"depth":3,"w":{"0":-0.2388957861014109,"1":0.01832139126976719,"2":-0.20412208790800834,"3":0.13765442883147205,"4":-0.3632530925793955,"5":-0.7104801545768944,"6":-0.008209409538209204,"7":-0.09750176040782592,"8":-0.7361615123665965,"9":-0.27320277795866205,"10":-0.07918747306567984,"11":-0.494096542605428,"12":0.18255758018939922,"13":0.5438799979663407,"14":0.2249636963192522,"15":-0.0943871600039418,"16":0.5254816766847158,"17":-0.019291586110122456,"18":-0.013634478342386881,"19":-0.014664473778514701,"20":-0.6080686317832559,"21":0.1707063164941769,"22":0.1106835801593051,"23":-0.4881724293471916,"24":-0.057797733274150366,"25":0.3149654632830264,"26":-0.09347061892683871,"27":-0.23705071562690797,"28":-0.010187357301836786,"29":-0.43723447870062987,"30":0.006160134530464901,"31":0.04735997103837142,"32":0.06499824602499299,"33":-0.13643700346661272,"34":0.28248547099499943,"35":0.1756298180785304,"36":0.03947875856867053,"37":0.09335023131572392,"38":-0.4930425779417214,"39":0.07595219530248071,"40":0.09238038501775576,"41":-0.29942491434612933,"42":0.03527945970346773,"43":-0.036489563784660325,"44":-0.06783189519319076,"45":-0.14881990971178932,"46":0.2625438000246743,"47":0.12667475540260728,"48":-0.06309292355934051,"49":0.7324322101167109,"50":0.5561180149744848,"51":0.11676320035908176,"52":0.6621742600727933,"53":0.14845058921595974,"54":-0.021153866810184926,"55":-0.042023415148559846,"56":0.3244908357364919,"57":0.35093119775996856,"58":0.025592095110415578,"59":0.26280067465730755,"60":-0.23726620451726482,"61":0.6538852801140896,"62":0.2573325713974494,"63":-0.25086638410603407,"64":0.6873740125300415,"65":0.5217789071265047,"66":0.05281730664599846,"67":0.17110439945219086,"68":0.33521685776717036,"69":0.05222975772188186,"70":0.009509424960638198,"71":0.14918621045043598,"72":-0.2905158327963463,"73":-0.44781426324079704,"74":-0.606021176219137}},{"sx":5,"sy":5,"depth":3,"w":{"0":-0.32434908006775565,"1":-0.1539972591845597,"2":-0.16175595399315076,"3":-0.6275027304167679,"4":-0.14420278985060897,"5":0.04996369342798165,"6":0.08166487515735663,"7":0.4715080336628835,"8":0.7374335844906337,"9":-0.6627752851503727,"10":-0.16869145956732012,"11":0.24073032341074063,"12":-0.39084529582058036,"13":-0.03563737743744669,"14":0.32844375701966044,"15":0.27376738947352514,"16":0.846206108492075,"17":1.0717877274794012,"18":-0.25943843808197353,"19":0.1714347280850439,"20":0.4160123766899719,"21":-0.015050721438306172,"22":0.6559352149388618,"23":0.7476155568774404,"24":-0.25285114736795783,"25":-0.004728268640485899,"26":0.13872543813435428,"27":-0.3058818485566568,"28":0.09049298926866607,"29":-0.055425944224090355,"30":-0.11514277537814262,"31":0.49460519142658177,"32":0.38497198481350214,"33":-0.1528270431311288,"34":0.23721149270306977,"35":0.2311452662233943,"36":-0.4472105200158862,"37":0.13864480989799746,"38":0.2463037055216491,"39":-0.3381786280113515,"40":0.13385562923243044,"41":0.1488285191890781,"42":0.04905409323408372,"43":0.2910821979717996,"44":0.35920700506434644,"45":-0.15748543906720366,"46":0.19232662962353647,"47":0.2255313038678283,"48":-0.9412136830448588,"49":-0.36876355411732054,"50":-0.23798782648940808,"51":-0.2935635564913556,"52":-0.01244780565984552,"53":-0.1118703214072198,"54":-0.17723930732576873,"55":-0.37000612726451726,"56":-0.07848529112828405,"57":-0.028402954547334377,"58":-0.40581905909149385,"59":-0.20888824777765821,"60":-0.1684643091052207,"61":0.0753057435779994,"62":-0.02169553062168065,"63":-0.036745455753371854,"64":0.04092840500558491,"65":-0.21186316778296835,"66":-0.0007130883308398134,"67":0.07956691607287919,"68":-0.16348626146742098,"69":0.26275105030371854,"70":-0.18725219906663357,"71":-0.08472460317862496,"72":0.4283945269309213,"73":0.09441149115353466,"74":0.1991561423601225}},{"sx":5,"sy":5,"depth":3,"w":{"0":0.04920058324806464,"1":-0.1525553835697929,"2":0.15418554850066957,"3":-0.19643247771270209,"4":-0.5701787845147273,"5":-0.49955118988039315,"6":0.39370058816227244,"7":-0.030178524970310736,"8":-0.30313773300988545,"9":-0.19234303662726232,"10":-0.654386493965292,"11":-0.5942530676398812,"12":0.7365413996841756,"13":0.6130087751250122,"14":0.15534583077462574,"15":0.44312207648947016,"16":0.5297319230627828,"17":0.2868943365510519,"18":0.7627569232910698,"19":0.7896772974145567,"20":0.32355497991758125,"21":0.8650320240084167,"22":0.1456511330191551,"23":-0.3068832628842089,"24":0.46246456539487324,"25":-0.4554704926704198,"26":-0.9426797944417381,"27":0.29552093682587566,"28":0.17290377183516692,"29":-0.49105485501628443,"30":-0.4834141757411685,"31":0.23818822616264965,"32":0.26262353927367793,"33":-0.5589037580134293,"34":-0.17564495754674087,"35":-0.2955792084079742,"36":0.40631577941803754,"37":0.6360762991873498,"38":-0.2675056128578072,"39":0.5913085000126468,"40":-0.3377614326030906,"41":-0.5047394683569718,"42":0.012652596388845735,"43":-0.046157460848975006,"44":-0.5063714695287487,"45":-1.1338416779596618,"46":0.16781713798330855,"47":0.49911159659857796,"48":-0.4870537548700848,"49":0.41789263526569725,"50":-0.15749506599129584,"51":-0.18500608039473276,"52":0.6055515493850155,"53":-0.5545396558487774,"54":0.09891896667318226,"55":-0.01969895647924741,"56":-0.6423960623288205,"57":0.12799627892406754,"58":0.3219790119442067,"59":-0.08534426264032453,"60":-0.4442963337608517,"61":0.49097154955976774,"62":0.5796883273784805,"63":-0.591307917863237,"64":0.149174488825878,"65":0.13426523454760947,"66":-0.43958655239438454,"67":0.3118596539296326,"68":-0.006275428506554993,"69":-0.21167881028576974,"70":0.12105045969268284,"71":-0.14798686325824936,"72":-0.09223318027744903,"73":0.5198757767500267,"74":0.014346943702650059}},{"sx":5,"sy":5,"depth":3,"w":{"0":-0.5379254752732209,"1":0.444856741259297,"2":0.493086299406885,"3":-0.17546295904108472,"4":0.15771493770435113,"5":-0.3481253794947593,"6":0.001468281617419344,"7":-0.21620100860764851,"8":-0.3008268803584706,"9":0.25792072714032016,"10":0.41975856544431095,"11":0.4163572012920291,"12":0.30304590031748324,"13":0.3975684911276188,"14":0.3133778606359516,"15":-0.3116919695103728,"16":0.46993773189987303,"17":0.5805950664754961,"18":-0.06532134277059481,"19":0.5257478622079937,"20":0.3794951650503465,"21":0.014968124281857623,"22":0.1510390843691351,"23":0.19967767932425545,"24":0.3621693662237691,"25":0.7149819355390948,"26":0.5364114929528405,"27":-0.08063598652093348,"28":0.054999833840559134,"29":0.1616519010295552,"30":-0.6886676831166739,"31":-0.5315569867220675,"32":-0.13103756130887628,"33":-0.656448079862818,"34":-0.39532197938950087,"35":-0.5195112726614529,"36":-0.8706805327011069,"37":-0.22995244893286976,"38":-0.22400764514127458,"39":-0.7970512419698654,"40":-0.7250173374808043,"41":-0.38591067808956026,"42":-0.6499091525110234,"43":-0.33649825555049667,"44":-0.23231264146671918,"45":0.32728838285408796,"46":0.4879420648117859,"47":0.3892805563116345,"48":0.4616579933215273,"49":0.6346845893117463,"50":0.07049423073817665,"51":-0.31057353175024527,"52":0.12451022290609963,"53":0.16603737087802864,"54":-0.11261410869045047,"55":0.08597978933879792,"56":0.5404553418530315,"57":-0.29129802463649396,"58":-0.5436027380841484,"59":-0.3022443997056265,"60":0.060727379822981896,"61":-0.07706907497543498,"62":0.20489393650656418,"63":0.055884023241699124,"64":0.19226632493841395,"65":0.04502700673011234,"66":-0.029160016544993637,"67":0.1652899828996562,"68":0.306599349716701,"69":0.23574901410558202,"70":0.215544141276163,"71":0.6803554136018295,"72":0.005973789906493223,"73":-0.3096392620134304,"74":-0.19784760780682828}},{"sx":5,"sy":5,"depth":3,"w":{"0":-0.9711059181630443,"1":-0.9149867860249723,"2":-0.466042339577197,"3":-0.17896780935502057,"4":-0.434541072153081,"5":-0.2833616538560829,"6":-0.351639231701463,"7":-0.054848961972487315,"8":-0.243613574569327,"9":-0.13030561093099408,"10":-0.1362063805508943,"11":0.24771353904439736,"12":-0.20285693045743625,"13":0.1359130678863422,"14":0.4940234240426508,"15":-0.22920673214635306,"16":-0.11040141136515201,"17":-0.14009378420368335,"18":0.2850602032348683,"19":0.15407502607496323,"20":0.29740007266649493,"21":0.2280976287404274,"22":0.35886034649122495,"23":0.34070537199207984,"24":0.07113871993099427,"25":0.10655474274318466,"26":0.37679303063767233,"27":-0.42636355215932314,"28":-0.49048160681349007,"29":0.015695679534763918,"30":-0.22371895866317093,"31":-0.07057535050097306,"32":-0.328089046231835,"33":0.19326379484591358,"34":0.17470618394327453,"35":0.20768933701466294,"36":-0.02915302114521625,"37":0.2657346326305086,"38":0.14349373317321495,"39":0.09342430166764436,"40":0.1852013542443554,"41":0.2619729491058008,"42":-0.5379805769762521,"43":-0.4068483134198882,"44":-0.16340375680941346,"45":-0.4783729337564772,"46":-0.07872148896422138,"47":0.2692324239161923,"48":-0.2528968732069674,"49":0.29610161437043503,"50":0.3722942323430859,"51":-0.5575809586248474,"52":0.13619441661723952,"53":0.15426958792267495,"54":-0.006939730431530446,"55":0.4460563692567544,"56":0.9218471851176192,"57":-0.5912440511466519,"58":-0.3175730656075838,"59":0.24716478576707937,"60":-0.21977105768883512,"61":0.007952531924907412,"62":0.4128942218303039,"63":-0.2974851286000341,"64":0.3090934131396569,"65":0.4584094004936817,"66":-0.18616703018057593,"67":0.335393169023096,"68":0.3644750096825184,"69":0.14888137471225676,"70":0.47098048750931604,"71":0.570259659221901,"72":-0.104592041986314,"73":-0.5182243710438381,"74":-0.0031587528939316244}},{"sx":5,"sy":5,"depth":3,"w":{"0":-0.2298241965279411,"1":-0.3338713149730897,"2":-0.28626603631607167,"3":0.4340415040093403,"4":-0.10271659517261154,"5":0.05852238714565425,"6":0.3813997156616565,"7":0.218493874737762,"8":-0.1392472277146364,"9":-0.047013843235754985,"10":0.306243275610629,"11":-0.014000378742290423,"12":0.17610858786361064,"13":0.41002018683574115,"14":0.1210614841291038,"15":0.054992529998950025,"16":0.021855768598452154,"17":0.24689885003790515,"18":0.057789176520521714,"19":0.19976753196873673,"20":0.29594579022233286,"21":-0.3330357867777132,"22":-0.1326061711268875,"23":-0.46772095115802353,"24":-0.373186465780217,"25":0.0412027410893989,"26":-0.2763765650222584,"27":-0.6599144772498299,"28":-0.16268064266576168,"29":0.11060973738665976,"30":0.11231263317755742,"31":-0.020035411607785377,"32":0.1587878586271184,"33":0.2686607444154249,"34":0.4230109706949529,"35":0.2267191210852546,"36":-0.3091748243095698,"37":-0.03893831662429328,"38":0.021054525562951624,"39":-0.12865125818210488,"40":0.6547285256208539,"41":0.5679770429148919,"42":-1.2337539414131873,"43":-0.4381028775508197,"44":-0.12155970539280131,"45":-0.17073634428205767,"46":0.14643312712700196,"47":0.06526757586974208,"48":-0.05829770678712803,"49":-0.13081100884941738,"50":-0.22473731376703654,"51":-0.4292580956552331,"52":-0.2619467060324648,"53":-0.31077761291911965,"54":0.16977969912936253,"55":0.6635069695314963,"56":0.5330411692207695,"57":-0.28407906060313953,"58":-0.03402700395661373,"59":-0.02527309696724223,"60":-0.2824329261311394,"61":0.026252614664748743,"62":0.35476837241006537,"63":0.16301524192134487,"64":0.09905832085534126,"65":0.17719030254034687,"66":-0.7274297368745565,"67":-0.3974598274156502,"68":-0.4950297075317645,"69":0.26058553633396064,"70":0.2913300329969353,"71":0.5320371039626742,"72":-0.20282613151119616,"73":0.007082355691456714,"74":-0.13482112838530852}},{"sx":5,"sy":5,"depth":3,"w":{"0":0.6276637878735389,"1":0.5624000546504876,"2":0.48701595098828204,"3":0.3464776421177961,"4":0.39246607087010293,"5":0.4377877592517618,"6":-0.5200392769307115,"7":-1.0279390187181217,"8":-0.584354895319086,"9":-0.12834111596288075,"10":0.09676607998782298,"11":-0.06504087541517986,"12":0.16928807193994533,"13":0.6717078906343561,"14":0.6447397699245214,"15":0.05930986084094566,"16":0.06779001451880391,"17":0.07876929477659697,"18":-0.013998641035959896,"19":-0.04782112705478274,"20":0.2136252680078436,"21":-0.5910626830181542,"22":-0.9691202608398732,"23":-0.49904543165629084,"24":-0.2511242437812411,"25":0.0920000123267433,"26":0.14368854194079522,"27":0.20897558341140376,"28":0.7029275692004773,"29":0.8408142741483094,"30":-0.3117459137031823,"31":-0.47141822658669,"32":-0.19191578468262754,"33":-0.28303521722024066,"34":-0.1318508126358952,"35":0.29070743048794123,"36":-0.24022463685879034,"37":-0.16767607474239832,"38":-0.311825643823115,"39":-0.3353288462519068,"40":-0.08408328994482252,"41":0.15749469854659418,"42":-0.47773535334628003,"43":0.025934590111333963,"44":0.22823059638762283,"45":-0.503957430768732,"46":-0.5577661815178776,"47":-0.21060831116818732,"48":-0.16427300064387432,"49":0.22244288834589485,"50":0.5961414916716512,"51":-0.682123768230903,"52":-0.3152646626756381,"53":-0.2500836412736018,"54":-0.29934324257595757,"55":0.11927175170205524,"56":0.24763164690189096,"57":-0.10272502618526821,"58":0.291868181849512,"59":0.49431112560239004,"60":0.26770299989922397,"61":0.12659082166133634,"62":-0.1668483153213308,"63":0.34870849059841225,"64":0.6356733071703571,"65":0.4308584715053473,"66":-0.14403172196113975,"67":0.04657806321745592,"68":-0.11709577018666299,"69":-0.21981431832855422,"70":0.35439162872665575,"71":0.21599378049708662,"72":-0.16624389411714943,"73":0.6714920261578423,"74":0.21787832492259693}},{"sx":5,"sy":5,"depth":3,"w":{"0":-0.9452992129899513,"1":-0.3432842976089636,"2":0.027936030631078686,"3":-0.6253588424862127,"4":-0.2866334445868819,"5":-0.4077124417944069,"6":-0.6075402758731188,"7":0.5593021137639327,"8":0.191936238377544,"9":0.0714256854176712,"10":0.8838380511338095,"11":0.5288525456480251,"12":-0.1131948681876164,"13":0.6865359543475487,"14":-0.13507048620616294,"15":0.297679708849929,"16":0.5827790903831426,"17":0.7980627718078226,"18":0.10170269366614083,"19":0.7871660654071817,"20":0.37086210752050014,"21":-0.1622878841395457,"22":0.6543822384004503,"23":0.028484313017981967,"24":-0.14777453398291326,"25":0.5571316618689083,"26":0.23327895834483564,"27":-0.4229040188529197,"28":0.47743204965001773,"29":-0.09947081391238394,"30":-0.25921624743670624,"31":-0.011764618072171933,"32":0.011682412258423413,"33":-0.46425618404278773,"34":-0.07494610564952342,"35":-0.4395979756375607,"36":0.03312295365808233,"37":0.024319753794346984,"38":-0.6022556566024623,"39":-0.013343324217760199,"40":0.3175776165839879,"41":-0.10548050548094241,"42":-1.007917002199903,"43":-0.4829010457799574,"44":-0.9832329182632855,"45":-0.6149101184190396,"46":-0.3404504010235672,"47":-0.6683117593435924,"48":0.11365607795862963,"49":0.1407907080125187,"50":-0.1579657508537538,"51":0.3089278158379528,"52":0.7209880271030754,"53":-0.041189743158117964,"54":-0.15528244238762284,"55":0.31896195780319453,"56":-0.08733223191331739,"57":-0.2480412790513008,"58":0.030942921530620768,"59":-0.582843278379559,"60":-0.22073246346973555,"61":0.08658442278632245,"62":0.1352302110994835,"63":0.6323799826655514,"64":0.7872534660360583,"65":0.2396157491278976,"66":0.08608862335089622,"67":0.2513463606648874,"68":-0.17444438780756205,"69":-0.8843106722808967,"70":-0.3068341689171985,"71":-0.4603045729514698,"72":0.6878720552372826,"73":0.8131701693487458,"74":0.34214291749618236}},{"sx":5,"sy":5,"depth":3,"w":{"0":-0.290516282896497,"1":0.3716701225970519,"2":0.15114969267417439,"3":-0.3305522887768586,"4":0.21686523739594163,"5":-0.2896769873215315,"6":-0.5960857318545677,"7":-0.02695543860746057,"8":-0.005059226651114429,"9":-0.4423110452692718,"10":-0.04155109445898347,"11":-0.4639144935943396,"12":-0.8220160535029848,"13":-0.32859302929660766,"14":-0.2350588766272512,"15":-0.49939816454574887,"16":-0.41484695944377115,"17":-0.6263725034195036,"18":-0.12162225054556218,"19":0.1340296960314632,"20":-0.279710985944431,"21":-0.07908706954270674,"22":0.17737878661271544,"23":0.08571156134121236,"24":0.07001978690360312,"25":0.331899787420512,"26":0.3174845404004381,"27":0.11631764060548362,"28":0.035457558116058614,"29":-0.008721535168900996,"30":0.13486399509415922,"31":0.23499071125564946,"32":-0.12653113116221357,"33":0.17220340695156272,"34":0.5431877948539232,"35":-0.04538169045901036,"36":0.36042017142561517,"37":0.41316753871388523,"38":-0.30143677799921387,"39":0.11312908462770899,"40":0.18764870589533045,"41":-0.17116143052186938,"42":-0.02595870084886304,"43":-0.21107513076499962,"44":-0.6621519883780731,"45":-0.4435062758533895,"46":-0.07170887692374944,"47":-0.13709180144415534,"48":0.3238571595080607,"49":0.658164309941419,"50":0.04682047624641339,"51":0.7526496285630121,"52":0.7916565019713953,"53":0.6317770033378858,"54":0.4990883271392926,"55":0.8013091336093072,"56":0.12975652489265835,"57":0.16935386486686718,"58":0.2330023714445735,"59":0.021447923020675726,"60":-0.31548213992216795,"61":0.13722041964890705,"62":-0.0987324075671854,"63":-0.7804621192886918,"64":-0.5045773009549699,"65":-0.8515610999120913,"66":-0.4275951606119203,"67":-0.33442271830766807,"68":-0.5130003501099064,"69":-0.3313652885506005,"70":0.06043087753664607,"71":-0.037447532275030684,"72":-0.1252778896115773,"73":-0.08059361400763619,"74":-0.17247101390783476}},{"sx":5,"sy":5,"depth":3,"w":{"0":0.004055134567986781,"1":0.24849158937860086,"2":-0.02918652119191425,"3":-0.010387758455788938,"4":0.42285533522120955,"5":0.5726369443015914,"6":-0.45411540165009917,"7":0.3957402575349168,"8":0.33042264242350433,"9":-0.26579728775290634,"10":0.6658533916124536,"11":-0.09947999269831666,"12":-0.011758459130966122,"13":0.43225594192174294,"14":0.04861180303726114,"15":0.18053259653318127,"16":0.16033821373763266,"17":-0.34427716997366803,"18":0.23822136737734534,"19":0.3005147054814508,"20":0.15520505030303156,"21":-0.0513264574107765,"22":0.09673053549169924,"23":-0.21811682362191087,"24":0.002923780800425835,"25":0.5680215362250132,"26":0.13441134437484423,"27":-0.51598277859207,"28":0.17719593701897127,"29":-0.24097532599852448,"30":0.326071170516584,"31":0.06666148597637626,"32":-0.1460191700578098,"33":0.34090704740420896,"34":0.0034750940773494937,"35":-0.21405256326380362,"36":0.25116095590809173,"37":0.014367952816318431,"38":0.009932208221732276,"39":0.03806179814968706,"40":-0.12906383829192444,"41":-0.5470901031403079,"42":-0.5283803765213102,"43":-0.09835806441343645,"44":-0.7426151742898667,"45":-0.12430397041480053,"46":-0.03757521915343699,"47":-0.44066944384895573,"48":-0.06926804833089957,"49":-0.12456543441303723,"50":-0.3851607691569249,"51":-0.18317895900435402,"52":0.018208112831618772,"53":-0.2919994138830333,"54":-0.5016423216057957,"55":-0.6305148100256668,"56":-0.9198317486995657,"57":-0.28938673780318946,"58":-0.14481766643300856,"59":-0.4698365636466454,"60":0.01652168827456345,"61":0.1084591721853074,"62":-0.08217234645976892,"63":0.22325592804837696,"64":0.2001036868712964,"65":0.014169529442269138,"66":0.023559714329334003,"67":0.29028320003584446,"68":0.1821170485706124,"69":-0.40088045232591824,"70":-0.5200114141329102,"71":-0.6368961931237908,"72":0.5831717392191341,"73":0.5712484003095193,"74":0.1096444733721471}},{"sx":5,"sy":5,"depth":3,"w":{"0":0.030097999936506935,"1":0.1626800044932998,"2":0.6092190659691943,"3":0.39694797419394473,"4":0.08968801675018682,"5":0.5460140973455361,"6":-0.047923947826915385,"7":-0.3867043208671741,"8":0.06995870705897057,"9":-0.10246854351892148,"10":-0.42669559573021887,"11":0.10534662844658726,"12":-0.266250801145122,"13":-0.5290962850589895,"14":-0.3581885874167973,"15":-0.3476118884347353,"16":-0.19826067498574002,"17":0.2707233006074415,"18":-0.1361766304819527,"19":-0.22174357084430318,"20":0.5200437830923182,"21":0.2148060876756237,"22":-0.466667289953809,"23":0.19708331223330347,"24":-0.05029230451161,"25":-0.30171855025902294,"26":0.058491264452031025,"27":-0.054022272389406566,"28":-0.29179589303942166,"29":-0.025459951404685682,"30":-0.35545023936063835,"31":-0.45676078454011904,"32":0.29521505978886203,"33":-0.3220312647306696,"34":-0.4684702153574775,"35":0.2315681571536537,"36":0.13160888452197372,"37":-0.15647948983728505,"38":0.4179679579422645,"39":0.6294496286662447,"40":0.037633726166522344,"41":0.3256706964651495,"42":-0.07325825460704206,"43":0.08377604837846915,"44":0.3346760031702144,"45":0.3309922047888667,"46":0.2931124008714715,"47":0.45996541957495407,"48":-0.5713221343820925,"49":-0.6579189086542098,"50":0.104135380337147,"51":-0.12585588847353596,"52":-0.7208796621427955,"53":-0.1660596745552299,"54":0.40972643862936703,"55":-0.09367211504806601,"56":0.45478300939531896,"57":-0.34483818078294165,"58":-0.26653500769777744,"59":0.19911093811735092,"60":0.2668308580993039,"61":0.47132744402627835,"62":0.8871419872045437,"63":-0.07959542749151031,"64":-0.17858099636251845,"65":0.2820065745215374,"66":0.34874406450949186,"67":-0.37796745470143767,"68":0.27023402032668753,"69":0.18623333775223652,"70":-0.5031931413433971,"71":-0.07177717242081649,"72":-0.13230002780413008,"73":-0.511637693482272,"74":-0.0076482459231158985}},{"sx":5,"sy":5,"depth":3,"w":{"0":-0.6257005174160359,"1":-0.5441925743275418,"2":-0.14718190479391693,"3":-0.4896506576220209,"4":0.24977882377636854,"5":0.07844359249329412,"6":-0.8211336707139167,"7":0.0052605252046687735,"8":-0.26659276665930165,"9":0.11689002362947301,"10":0.9300429977217863,"11":0.496074149862994,"12":-0.4751765361637074,"13":0.2388489221485729,"14":0.03665986988731527,"15":-0.4550669858377068,"16":0.18122343013084935,"17":0.11899982402903274,"18":-0.3377877618303229,"19":0.24851222794121688,"20":-0.037573588666317194,"21":0.18215825796115054,"22":0.6600883753467564,"23":0.3349100667086875,"24":0.27038996693065287,"25":0.9700266952975489,"26":0.5632890176170252,"27":-0.26521698656188925,"28":-0.3208192473171872,"29":-1.0511449563308222,"30":0.2480396522435175,"31":0.5925892060660899,"32":0.4253094415799619,"33":-0.060790814726091116,"34":0.42119483169203265,"35":0.05834032443602963,"36":-0.2225794284822803,"37":-0.1680852486935046,"38":-0.7671161140857653,"39":0.4144655788732501,"40":0.6284296014591381,"41":-0.032330926124792575,"42":-0.6208333412576779,"43":-0.4991572900108587,"44":-0.777159733687732,"45":0.10069258995451118,"46":0.4122226422461028,"47":0.18778023789242612,"48":-0.3729071633167856,"49":-0.43773822797262085,"50":-0.914434005793897,"51":-0.7251320964607412,"52":-0.16898056249829807,"53":-0.9922930191424827,"54":0.5827067923127893,"55":0.7178082372807688,"56":-0.023427817659482267,"57":0.3898333727815871,"58":0.23525672954687252,"59":-0.3799377025611821,"60":0.19342054900587985,"61":0.5286909163768957,"62":0.6619685905341327,"63":0.5432986042521561,"64":0.6234352067753476,"65":-0.1996950235868354,"66":-0.5574503707114822,"67":-0.25566687421463796,"68":-0.22734909429857067,"69":0.27499913121174435,"70":0.16471364129905433,"71":-0.17671331771165338,"72":0.5127543285794651,"73":0.026778775561007623,"74":0.24685971976985224}},{"sx":5,"sy":5,"depth":3,"w":{"0":0.11587519444591549,"1":-0.11022314915771164,"2":0.09391709091820304,"3":-0.024338116788375996,"4":-0.46194530754716345,"5":-0.030718732889222233,"6":0.9662327417447403,"7":0.03209306195889618,"8":0.18063931003247538,"9":0.44075393376588096,"10":-0.12030465344382694,"11":0.06677131492354389,"12":0.14861085231844526,"13":-0.554783119207646,"14":-0.0053756885732485745,"15":-0.044993574421588856,"16":0.08709393007047361,"17":0.22136598659071655,"18":-0.06339628697230175,"19":-0.16732146187848065,"20":0.19104563473816097,"21":-0.17006034293633854,"22":-0.41388212036781624,"23":0.1523158722904154,"24":-0.14686172309300552,"25":-0.7668349746817681,"26":0.22659500546271497,"27":-0.2541928046817544,"28":-0.4806857123544607,"29":0.09481943604436925,"30":0.5712745990998435,"31":0.37682549468240717,"32":0.3169919105311596,"33":-0.10953433988867853,"34":0.09723168302122083,"35":0.17640876289011825,"36":-0.7318950048367797,"37":-0.36123308254898234,"38":0.047648904553623646,"39":-0.9075253901936212,"40":-0.7460604858724634,"41":-0.009342998697431866,"42":-0.6652787561026097,"43":-0.7393654512948128,"44":-0.11440192449332089,"45":0.1647772804551196,"46":0.29878892473145663,"47":0.18623259171725662,"48":-0.08073609493868882,"49":-0.08004784762600091,"50":-0.048523774403745404,"51":-0.5199070449878631,"52":-0.22201894620423754,"53":0.15483463737620687,"54":-0.11239893586124325,"55":-0.12812311521534092,"56":0.4272539937793246,"57":0.41896139016046374,"58":0.14462549536522848,"59":0.2996693842540116,"60":-0.4651605664995465,"61":-0.7986478800106782,"62":0.12341361866670615,"63":0.020562683310085563,"64":-0.3575927396559579,"65":0.33141356240020675,"66":0.038097938605034035,"67":-0.058572303717558984,"68":0.1036933538044023,"69":0.0039843194184252025,"70":0.1207559838464575,"71":0.37989726072492686,"72":0.6744223649611121,"73":0.1569112900194592,"74":0.1829899480275253}},{"sx":5,"sy":5,"depth":3,"w":{"0":-0.12703883037013272,"1":-0.28288444640470706,"2":-0.13345346724635054,"3":-0.32995014434564623,"4":-0.32206587214253957,"5":-0.7648100592972202,"6":0.15299347321482365,"7":-0.5205175641308835,"8":-0.523336489327621,"9":0.17314304880789835,"10":0.13975136504448238,"11":-0.07796285981881382,"12":0.12806765769979372,"13":0.3432655018944682,"14":0.7134024382227226,"15":0.5923146658334221,"16":0.3772312609516116,"17":0.2879946151904268,"18":0.13483265355899465,"19":-0.023919245059244573,"20":-0.11411226384408919,"21":0.2682938927214298,"22":-0.5785707879753074,"23":-0.6081461552619585,"24":-0.0639245783542147,"25":-0.18374385475446078,"26":-0.5345627128093382,"27":-0.0029250068870511664,"28":0.27935975095223226,"29":0.30854683906931785,"30":0.4304197739203384,"31":0.1387437211989039,"32":0.22269616270387432,"33":0.4572218812457233,"34":0.05463982099170293,"35":0.05534435354803664,"36":0.20187965108254888,"37":0.20644026338582477,"38":-0.3156356265501158,"39":0.031182568386387034,"40":-0.3418893658795604,"41":-0.4035491656004329,"42":0.080050175092832,"43":0.016940205139224937,"44":-0.0029392419985452755,"45":-0.039737748920324015,"46":-0.022057188618783762,"47":-0.08090533436786934,"48":-0.43652560986696004,"49":-0.3819313952475696,"50":-0.4899033891731131,"51":0.02483020115535815,"52":0.029585221143266793,"53":0.07644127607767555,"54":-0.08925390381379159,"55":-0.24067282699178338,"56":-0.27080879292272425,"57":-0.27211039257036634,"58":-0.3559999807791437,"59":-0.41797657704979135,"60":-0.2650600152693633,"61":-0.09547470276688032,"62":0.12408352817619182,"63":-0.16078612968873193,"64":-0.17607042242495463,"65":-0.20179233237278962,"66":0.02767668912051416,"67":0.11270599001591447,"68":0.08937787210735716,"69":0.18960484072657485,"70":0.38042344071154965,"71":0.4253137387730207,"72":0.2614168761648152,"73":-0.028455133034118164,"74":0.5804584546300569}}],"biases":{"sx":1,"sy":1,"depth":16,"w":{"0":-1.4136102078221142,"1":-0.9616386164765265,"2":-0.5071374000590322,"3":-0.11626420298085675,"4":-0.9259255020375206,"5":-1.0963971815026752,"6":-1.3474662230149912,"7":0.04061502936007601,"8":-1.1214780032021368,"9":-1.1642393167959681,"10":-1.2268663534823976,"11":-0.3725753176761985,"12":-1.369383494551661,"13":-0.8456039224725825,"14":-0.5278488157274741,"15":-0.6631653619868547}}},{"out_depth":16,"out_sx":32,"out_sy":32,"layer_type":"relu"},{"sx":2,"sy":2,"stride":2,"in_depth":16,"out_depth":16,"out_sx":16,"out_sy":16,"layer_type":"pool","pad":0},{"sx":5,"sy":5,"stride":1,"in_depth":16,"out_depth":20,"out_sx":16,"out_sy":16,"layer_type":"conv","l1_decay_mul":0,"l2_decay_mul":1,"pad":2,"filters":[{"sx":5,"sy":5,"depth":16,"w":{"0":0.6579245963698402,"1":-0.07865518122203956,"2":-0.20819214665177474,"3":0.7762658536994904,"4":-0.18620476728968932,"5":-0.05215679577247681,"6":-0.3869725630979479,"7":1.0383657771773644,"8":0.1425947693279335,"9":0.3056943803634244,"10":0.407973607974973,"11":-0.01950915300567368,"12":0.23174022941741226,"13":-0.21414873093482492,"14":0.29680033266301503,"15":-0.3671560129112188,"16":-0.20369783999636157,"17":0.05618159882527829,"18":-0.13192189939304308,"19":-0.29837393577693627,"20":-0.25152861088513484,"21":0.3133451706618861,"22":0.3464584474292554,"23":-1.017349239304617,"24":0.09711486771941577,"25":0.6806056885942154,"26":-0.001482244314459748,"27":-0.42318705847580607,"28":0.06392796091842091,"29":-0.3506459927345014,"30":-0.4908692767532485,"31":-0.14395756898032044,"32":-0.42669238262252046,"33":0.46910284383069867,"34":-0.4304827784808544,"35":-0.6346936751997392,"36":0.40871074283058506,"37":0.3719103088103817,"38":0.27772340394922423,"39":-0.4840416411285539,"40":-0.5755236030633354,"41":-0.3010734396859668,"42":-0.0014483465958519237,"43":-0.38329412055035733,"44":-0.17819354516935293,"45":-0.35222501599977896,"46":-0.535055671619604,"47":-0.023353537793901695,"48":-0.3311748504983661,"49":0.006079788651886691,"50":-0.7471769800312243,"51":-0.3328750209120198,"52":-0.5053300509819517,"53":0.15430914050389832,"54":-0.23293426035185744,"55":-0.23269887253618976,"56":-0.7595861805819333,"57":-0.06316881751051001,"58":-0.24633781401757512,"59":-0.2035535546458204,"60":0.08365861741207986,"61":-0.6231762597028884,"62":-0.5502642969778092,"63":0.043490322362964344,"64":0.25827582745371924,"65":-0.3697030497215375,"66":-0.5107613198985633,"67":-0.1524077660604089,"68":-0.6191955754690118,"69":0.010761669221432891,"70":0.010768911868283458,"71":-0.0670089475869291,"72":-0.7700351700751003,"73":0.1479900833156291,"74":-0.15381457341137547,"75":-0.10366158535382847,"76":-0.33816820377253815,"77":0.33300030127288843,"78":0.3454696679117951,"79":0.6412441993612028,"80":0.5300029549327597,"81":-0.08581207049937686,"82":-0.17650592079214836,"83":0.607554118661198,"84":-0.10970661000870466,"85":0.20389850701822004,"86":-0.06788733438646241,"87":0.11911565793534679,"88":0.19048492009434298,"89":0.30036795276466155,"90":-0.2242849535778095,"91":-0.5520225731357516,"92":-0.1332183694722303,"93":0.24495603881881287,"94":0.23215767985777264,"95":-0.07069320164230919,"96":-0.35323744068534546,"97":-0.2207536053792229,"98":0.04863260603239057,"99":-0.09465143725402672,"100":0.3733940101999742,"101":-0.6648102293270559,"102":0.35069742384633296,"103":-1.2233647397192322,"104":0.11127890021482503,"105":0.34019462421587826,"106":0.08129079510628819,"107":0.3602071491117386,"108":-0.05988648003612088,"109":-0.3077950282030865,"110":-0.6129964637845401,"111":-0.7164231388752809,"112":0.1684269845043828,"113":-0.4509683033993305,"114":0.0003524649994510609,"115":0.07612221964694314,"116":-0.3078896064242796,"117":0.36838670597427525,"118":-0.10637160959837753,"119":-0.2532470004025311,"120":-0.06724242853407068,"121":-0.48608911542289,"122":-0.20955388424622748,"123":0.27092730326429804,"124":-0.09068799413586989,"125":-0.38766206682821686,"126":-0.13053595707833096,"127":-0.37641510141158335,"128":0.31716728307106334,"129":0.13859879775971456,"130":0.15172026922379003,"131":0.46866785913265036,"132":-0.24257771273293072,"133":-0.002645535891887611,"134":0.1163268152211795,"135":-0.0950553088401417,"136":-0.3525835726303831,"137":-0.215593253828724,"138":-0.2447672903984077,"139":-0.849150171057296,"140":-0.4360483910963485,"141":-0.6151720119896593,"142":-0.4267657313205731,"143":-0.2339157949358586,"144":0.1368374424821186,"145":0.7795332266170227,"146":-0.003518436761854516,"147":-0.17829433090780314,"148":0.237310770191751,"149":-0.26630300505893845,"150":-0.23002527960427402,"151":-0.41977964839062043,"152":-0.5842999280645028,"153":-0.2011193915627317,"154":-0.021422855398620624,"155":-0.4861377214752555,"156":-0.08174716818360811,"157":0.16409860485049818,"158":-0.0757319132570827,"159":-0.07632071059113271,"160":-0.3126406207739404,"161":0.37988348799171917,"162":0.18084671846571682,"163":-0.0584579607923968,"164":0.002562497526718697,"165":-0.4374228993283589,"166":-0.14547506781466482,"167":-0.6578004453428289,"168":0.5740004972997865,"169":0.3519580320485197,"170":0.3380165604409941,"171":-0.5017873984073521,"172":-0.21712720685118134,"173":0.25116864928883686,"174":-0.13499500338269244,"175":-0.12842792486097976,"176":-0.290865895751007,"177":-0.3084015603870257,"178":-0.6770301177278006,"179":0.36008422370326304,"180":0.1490371058675436,"181":0.14684584442686802,"182":-0.03872397246631744,"183":-0.18464433355044418,"184":-0.6016709802492098,"185":0.3052719942483633,"186":0.5168775954287219,"187":-0.08708775706866352,"188":-0.08906611641360773,"189":0.5114550905134021,"190":-0.017419480272975785,"191":0.04001840661583081,"192":-0.1902425257508978,"193":-0.725003964863725,"194":-0.09176952784062432,"195":0.03125950310841949,"196":0.09107935670627672,"197":-0.13324945786910508,"198":-0.4577534527879947,"199":0.4282312950068033,"200":-0.14065333178130315,"201":-0.04973789714101424,"202":-0.013868957954668582,"203":0.5652563257479253,"204":0.04883995769319346,"205":-0.38263823432282873,"206":-0.31522887830816515,"207":-0.40592918590200694,"208":0.15137433299054986,"209":-0.07310514655910125,"210":-0.45005421283949565,"211":0.009865217913356783,"212":0.3647684220679628,"213":-0.3408703629898128,"214":0.2950770446324754,"215":0.4012475508775556,"216":-0.14272256950395773,"217":0.08545415581291896,"218":0.2726282832661667,"219":-0.5311255154737404,"220":-0.3686364346910751,"221":-0.007252608517614168,"222":-0.47583693295884316,"223":0.5775292734805404,"224":-0.00538452895193268,"225":0.3003130184781236,"226":0.16683522754073213,"227":-0.1167305784396906,"228":-0.014413325938332042,"229":-1.0859966463285822,"230":0.608515816579903,"231":0.3647887516938103,"232":-0.14062939844280717,"233":0.21333939843970437,"234":-0.16903892119854427,"235":0.4504912762495628,"236":-0.2260357287963094,"237":-0.2909463110198956,"238":0.3228614252882866,"239":0.10443547122731764,"240":0.31096368899078375,"241":0.49600382764199474,"242":-0.09723956396901183,"243":-0.13063267765350908,"244":-0.031563827377589046,"245":-0.36950112780238187,"246":0.144654114752035,"247":-0.23900495818032044,"248":0.110130675804503,"249":-0.2966044777010188,"250":0.16624768849186408,"251":-0.667679642003138,"252":0.023311479685719606,"253":0.3505045757968872,"254":-0.2915211588514965,"255":0.13500588171362532,"256":0.24038760898295203,"257":-0.2655613418683683,"258":-0.0649514835953288,"259":-0.09141277904624635,"260":-0.22358496343299705,"261":0.28820155396221386,"262":-0.03162753940616017,"263":0.045865539682813705,"264":-0.7756431780903658,"265":0.4513474599367469,"266":-0.08675830383601647,"267":-0.27761946751090794,"268":-0.023752920779044406,"269":-0.13193450274198246,"270":-0.5450553758397282,"271":0.11296201792591119,"272":-0.0011993806896754206,"273":-0.43284491744880416,"274":-0.12547718308184022,"275":-0.04933217684981871,"276":0.2568540272464411,"277":0.18891621633881417,"278":0.10706544777341125,"279":0.04474964807988363,"280":0.8087497377981834,"281":-0.1604050186153086,"282":-0.44739183800408044,"283":-0.08437365985827462,"284":-0.14116167787989892,"285":0.23154369712812126,"286":0.17696901489172337,"287":-0.29327153735992656,"288":0.2536209781554186,"289":-0.5745775473485966,"290":0.6165170663370442,"291":-0.022430722758960936,"292":-0.1480564931864589,"293":0.09712099342874049,"294":-0.11639837951981392,"295":-0.22707878456673983,"296":0.670299570630402,"297":0.5701422899803783,"298":-0.37210345499034886,"299":0.04796827872767428,"300":0.22259876437349124,"301":-0.05408484212480712,"302":0.16666534791023496,"303":-0.2544773233901257,"304":0.46871700806099115,"305":-0.2227240501462543,"306":-0.020512882732771506,"307":-0.05995236434611223,"308":-0.048436633673247735,"309":-0.19557553997874144,"310":-0.21416581840478982,"311":-0.18136388253924174,"312":0.03881538020752499,"313":-0.059223611416971134,"314":-0.8185398797711713,"315":0.5522644551969875,"316":0.4351464257491341,"317":-0.10123402534795695,"318":-0.9346964830071341,"319":-0.025597268676695702,"320":0.38259895621516904,"321":-0.11501597003090401,"322":-0.07939762753131667,"323":0.1991920054519302,"324":-0.03619268068187981,"325":0.5737868504609122,"326":0.15080031368730032,"327":-0.27273220158043254,"328":-0.09676307803840727,"329":0.14624758422339973,"330":-0.05076600466396524,"331":-0.5267160971780435,"332":0.2965733358794988,"333":-0.2995250344830261,"334":-0.03322735429964396,"335":-0.250287752416928,"336":-0.0934904524207301,"337":0.23893586320582014,"338":-0.20640649567624478,"339":-0.18047883108958185,"340":-0.4898874205059233,"341":0.11009619679389253,"342":-0.1998742468772193,"343":-0.37168730081628004,"344":-0.16075177840241597,"345":-0.16810830910911936,"346":-0.08628444296710575,"347":-0.11010263641498293,"348":-0.022363607933402,"349":0.11918796720692579,"350":-0.18269459838859978,"351":-0.898177607323795,"352":0.4250398933577056,"353":0.15741290378527167,"354":-0.021119076914599275,"355":0.015547621164207654,"356":-0.03615875445027438,"357":-0.14193464270442976,"358":-0.4386136556673301,"359":-0.22349709248081318,"360":0.15018233962621308,"361":-0.13702178890868766,"362":-0.20776385795482788,"363":-0.3943390195237104,"364":0.08512981260525747,"365":-0.08269914484980526,"366":-0.3759495322181453,"367":-0.1194008432213487,"368":0.22608898646345546,"369":-0.08626967568042856,"370":0.7109800913924654,"371":-0.07624394805053412,"372":-0.47874434645572306,"373":0.3823122553452409,"374":0.03114963799352695,"375":-0.47843775329993093,"376":-0.46706499519122585,"377":-0.1532806223749491,"378":0.43974675422537485,"379":-0.5022000413616372,"380":0.07506448576843035,"381":-0.2647314284203576,"382":0.2776450442691116,"383":-0.2907167850323364,"384":-0.05359660051981501,"385":-0.3294741886166217,"386":0.8765974146850675,"387":0.0648235013316578,"388":0.03135693111892539,"389":0.42363652229271986,"390":0.29868049475280656,"391":0.06319476624018415,"392":-0.08462524453152127,"393":-0.2509956559980473,"394":0.3598329293999893,"395":-0.5752646629382178,"396":-0.2033965585169997,"397":0.04812182758669275,"398":0.1502631332625011,"399":-0.15349365265821246}},{"sx":5,"sy":5,"depth":16,"w":{"0":-0.06385709834411414,"1":0.13254716613161316,"2":0.246161961106222,"3":0.37463104757134846,"4":-0.12214290511724257,"5":-0.4761267715154272,"6":0.005771896458864054,"7":0.46159687293409446,"8":0.27514068852922063,"9":-0.28706591472498466,"10":0.13866097374163244,"11":0.9845859157302471,"12":0.5575993553180075,"13":-0.46784515347709515,"14":1.1000940559094372,"15":0.5937474167694793,"16":0.24209128453009973,"17":0.6963385242159841,"18":0.6592674591001272,"19":-1.0085588941218935,"20":0.3244198526307502,"21":0.08720533179504432,"22":0.10949446195044836,"23":-0.71670620091733,"24":-0.6113224932338054,"25":-0.09948315787619515,"26":0.8487364276974889,"27":0.5449445953694345,"28":0.024360941141660358,"29":0.04107801573311153,"30":-0.6665638649721997,"31":0.3136278772392652,"32":0.5931951829287108,"33":1.0567641380857316,"34":-0.002496396778236006,"35":-0.7803948507920081,"36":-0.09692552535588363,"37":-0.2684058107158441,"38":0.17102730423746412,"39":-0.06972143114386303,"40":-0.691204372730452,"41":-0.08870568061192022,"42":0.04403497308089619,"43":-0.5758939176232092,"44":-0.1257523372993384,"45":-0.16823880779906322,"46":-0.3084002892139443,"47":0.7314079100807738,"48":-0.38055360496211543,"49":0.10942807569804706,"50":0.43038567228763025,"51":-0.4235977095169239,"52":-0.03657652897937648,"53":-0.028576368053286276,"54":-0.06842565033634755,"55":0.21402667138988773,"56":0.1520201545346549,"57":-0.1352920058440908,"58":0.18228064794683954,"59":-0.6127042492567173,"60":-0.07894253610908657,"61":0.17157275511308737,"62":0.44393574399329727,"63":-0.11469597361500446,"64":0.08346817734819927,"65":0.30433271195983636,"66":0.38471577102941584,"67":0.3944118621545102,"68":0.5496150750818821,"69":-0.06439873104386529,"70":-0.2304436479755984,"71":0.41416022191651963,"72":0.13741538643008758,"73":-0.6472706944605906,"74":0.7933829606963906,"75":0.4645596855031503,"76":-0.411587943306912,"77":-0.4913189900785708,"78":0.5572156101210675,"79":0.424260211354694,"80":-0.19283836312791544,"81":0.5779974946528984,"82":-0.4420878400648348,"83":0.24814290972206027,"84":-0.29794998964502134,"85":-0.020188912441617923,"86":0.16984444713802674,"87":-0.33991312720581834,"88":0.2674454273846521,"89":-0.14902868908256475,"90":0.7276888347442191,"91":-0.11186430775123524,"92":-0.2107130705416863,"93":0.13233647540133772,"94":0.18436683184561978,"95":-0.025787990494620435,"96":-0.2543173387377651,"97":-0.37669236610659956,"98":0.5322101812169568,"99":-0.47481974918034675,"100":-0.2878849429245174,"101":-0.2795632599284063,"102":0.3638472608289079,"103":-0.36119250030665023,"104":-0.7454392497401734,"105":-0.04249844503505192,"106":-0.022412629186401647,"107":-1.238306306517877,"108":-0.17662369959615012,"109":0.03385346208108289,"110":-0.4181718971000378,"111":-0.2219411058064245,"112":-0.11294386080890757,"113":-0.48430350574469494,"114":0.7138555904849606,"115":-0.35621503040710034,"116":-0.028269605572053533,"117":-0.46873107302975897,"118":0.09468718951518992,"119":0.46742082045518046,"120":-0.8714066975805753,"121":-0.6245731502090204,"122":-0.7255117909472885,"123":-0.33109750756253187,"124":0.3340906455248112,"125":0.2382153655760238,"126":-0.1913622929245852,"127":-0.25614395607110635,"128":-0.18880192431093593,"129":0.3360400925162444,"130":-0.23827855128052697,"131":-0.1913701147523354,"132":-0.44229280543571836,"133":0.018127299252086945,"134":0.040795588250282996,"135":0.24997945100742905,"136":-0.08896602292137272,"137":-0.35310682320085357,"138":-0.9298150215060542,"139":-0.9734123586995868,"140":-0.7793155238985063,"141":-0.3304223013994243,"142":-0.17286330951068457,"143":-0.16581513088752173,"144":0.33439118631913317,"145":0.041001792619816305,"146":-0.0452618052138125,"147":0.03990836828738211,"148":-0.39620843608020895,"149":0.3172726502947838,"150":-0.05236731166736393,"151":0.17144196793380753,"152":-0.04776557460240877,"153":0.5561963844892196,"154":0.14227923484638944,"155":0.12410903059505009,"156":0.20162125305743486,"157":-0.24228968198277034,"158":0.11017086897231934,"159":-0.2321122661779711,"160":-0.026683863238208632,"161":-0.0032483338139190298,"162":-0.19234773395058755,"163":-0.08907816527061867,"164":0.18017974170780843,"165":-0.7858066453264055,"166":-0.13264578599530574,"167":-0.15184975475013096,"168":0.16422444248255186,"169":-0.5552598984545064,"170":0.30541099536288246,"171":-0.42039808147193297,"172":-0.6253198580439046,"173":0.29826445385332034,"174":-0.4056866142483684,"175":0.059024471480529896,"176":-0.6163174428348804,"177":0.01945733705198008,"178":-0.42075700973418184,"179":-0.49790611560681486,"180":-0.3761563448177895,"181":-0.4803433780505243,"182":0.03383000473120922,"183":-1.5208012299872515,"184":-0.42222488542176495,"185":-0.6956513072428817,"186":-0.6141324757645723,"187":-0.7419679518289714,"188":-0.11986179604501435,"189":0.09503318325973947,"190":-0.004387756157782413,"191":0.37121835058042757,"192":-0.4564804248677503,"193":-0.4439753525981859,"194":0.275097533624889,"195":0.24922978456960712,"196":0.13512562498624428,"197":-0.3764367211439066,"198":-0.1311594985725833,"199":-0.4473209129473809,"200":0.25919760332497177,"201":-0.5810575510781791,"202":-0.5438186777500318,"203":-0.35623414745835685,"204":0.7579568424421597,"205":0.084066807653959,"206":-1.002461701286766,"207":-0.32570329828662065,"208":0.04668509511316975,"209":-0.12513712280154837,"210":0.36812526905231774,"211":0.04455114034431183,"212":0.14953143351432505,"213":-0.0773978518174741,"214":-0.22204354567626694,"215":-0.38683688881447575,"216":0.04789392501507188,"217":-0.336959751394113,"218":0.31249971054343795,"219":-0.08094107087526485,"220":-0.12678298816162256,"221":-0.8440737865640026,"222":-1.3734374381564451,"223":0.11969471322653072,"224":0.2994957433383454,"225":0.3783712740138921,"226":-0.09271884011569255,"227":0.7050038817100793,"228":0.03260577674333914,"229":0.35632822891313637,"230":0.0070141155596846316,"231":0.03443720716339924,"232":-0.4566883924977886,"233":0.20321560345091594,"234":0.06479526617594375,"235":0.7585308756324542,"236":0.37760812328855203,"237":-0.17810110547472202,"238":0.2189287174329466,"239":0.30864004219450486,"240":-0.03036308720337846,"241":-0.3620770373991708,"242":0.3772780479974975,"243":0.4861680022891333,"244":-0.11524275291330527,"245":-0.47354061037590733,"246":-0.4513646750070568,"247":0.36453925395745995,"248":0.2608065959998166,"249":0.6750949985238294,"250":-0.29554605111284993,"251":0.01109503168019358,"252":-0.6932784914397593,"253":0.6088515880856925,"254":-0.1928223377367487,"255":-0.06017330995209105,"256":-0.41416611413357834,"257":-0.47256353118568073,"258":-0.20120588551224283,"259":0.05671267709439222,"260":0.08757477165045917,"261":0.6196990228198241,"262":0.06796151711961174,"263":-1.2803734259978314,"264":-0.40530175118653133,"265":0.3275867400271831,"266":-0.4216716630979283,"267":0.15951178273164285,"268":-0.8750385231244532,"269":-0.004378616776383945,"270":-0.526774361135272,"271":-0.2106189165889808,"272":-0.15226906400638868,"273":0.07104864252696909,"274":-0.8941515603231021,"275":-0.6366103523457731,"276":-0.8111976643327009,"277":0.25467075386484356,"278":-0.18700367604159973,"279":-1.7507608640990067,"280":-0.44668437695596075,"281":0.09467808874053525,"282":0.012766272281297135,"283":-0.039806044457035415,"284":-0.09157441392431011,"285":-0.8682204618638706,"286":-0.9559497696159661,"287":-0.6036265535150311,"288":-0.2621727896002915,"289":-0.9730061009110582,"290":-0.020175821712326947,"291":-0.6195932504151901,"292":-0.23523736749979346,"293":0.03833742027373888,"294":-0.2772178785738281,"295":-0.5231782091100724,"296":-1.1502915295648122,"297":-0.37939428236782347,"298":-0.5913693822195211,"299":-0.040901160405585384,"300":-0.19260711968149224,"301":-0.4125625914982649,"302":-0.24766865773484822,"303":-0.2140861834992091,"304":0.3678360060583212,"305":0.12921211293935833,"306":0.2718585132298988,"307":-0.17408937192282734,"308":-0.5854300938947912,"309":0.27396630995041604,"310":-0.199026597948524,"311":-0.2328165258001652,"312":-0.7398643379089447,"313":-0.23660986871460835,"314":-0.12962816035834687,"315":0.07382040289480997,"316":0.24247584495784918,"317":0.14072156214424575,"318":-0.10338019618264004,"319":-0.02537149693882322,"320":-0.0034598794461486253,"321":0.8803635769919356,"322":0.3725190838065987,"323":0.8611634983581778,"324":-0.2771458705721069,"325":0.09007510929160184,"326":-0.23914916024741892,"327":-0.38557466703757515,"328":-0.6149386863536112,"329":0.39695343228878427,"330":-0.2750219659013677,"331":0.06497414425006255,"332":-0.17866365939189408,"333":0.24753988683281983,"334":-0.28010610695535987,"335":0.27809425548302114,"336":-0.2243875411456304,"337":-0.10250897529224656,"338":0.04032279336806847,"339":0.21765951303268086,"340":0.43758336904858763,"341":0.38777424330803695,"342":0.15958442588657581,"343":-0.5809014172562649,"344":0.04147423292146783,"345":0.3659618107470423,"346":-0.6316706149400387,"347":-0.17640291626445448,"348":-0.4496800774076568,"349":0.6025035030297221,"350":-0.1953408463819758,"351":-0.2484442143938431,"352":-0.36014265808460083,"353":0.15870734865538016,"354":-0.869123426083318,"355":-0.3339398345877295,"356":-0.019458322384853503,"357":0.06286793476440193,"358":0.02491563734605077,"359":-0.3939534302538609,"360":-0.6037831686822506,"361":-0.20896171553259765,"362":-0.09835189308035959,"363":0.48512693687017594,"364":-0.560980889748547,"365":-0.5753673437589453,"366":-0.06786394389511509,"367":-0.21109967163868656,"368":-0.18136932599818606,"369":-0.036743246967749915,"370":-0.31959694720234355,"371":-0.017025443130684187,"372":0.03133132590036137,"373":-0.14749866463242442,"374":-0.12486626144272042,"375":-0.2173678468888943,"376":-0.07749495723925183,"377":-0.448253406078002,"378":-0.18100554191952012,"379":-0.19757600697690456,"380":-0.34774056839670087,"381":-0.5869288304925183,"382":-1.3203517297490548,"383":-0.3512387580917198,"384":-0.06032069095273106,"385":0.02553468359977328,"386":0.2287930169362843,"387":0.3063139197806441,"388":0.4891688386726177,"389":-0.0665434756848849,"390":0.11554431608342837,"391":-0.15967741574247787,"392":0.3829845784581202,"393":0.015571424472104198,"394":-0.43342609466160864,"395":-0.5854971867604674,"396":-0.6415455592877163,"397":0.34023543710964543,"398":-0.15019485781024589,"399":0.31104495262828274}},{"sx":5,"sy":5,"depth":16,"w":{"0":0.34477765284923534,"1":0.20311060035555617,"2":-0.31368914863262964,"3":-0.6672932937730267,"4":0.00609781343361864,"5":-0.7499435791594913,"6":0.1498971134604943,"7":-0.3576666251006104,"8":-0.23608621696366144,"9":-0.13072269502580774,"10":0.5682013901878858,"11":-0.3639214379070566,"12":-0.11738186101408238,"13":0.5324209832979696,"14":-0.33347038069501217,"15":0.30152223663779343,"16":-0.021985771169836223,"17":-0.18270861085590998,"18":0.056563047779334484,"19":-0.45121654508900383,"20":-0.49145939655035137,"21":-0.3753765503077585,"22":-0.2576363860148613,"23":-0.24390775881666918,"24":0.21385447482819428,"25":-0.4413658621153581,"26":-0.5536055644043703,"27":-0.47246274075083877,"28":-0.6033881212253067,"29":0.5389977676204599,"30":-0.6112159248493836,"31":-0.33392722214895376,"32":-0.15351757962266624,"33":-0.4665653724394654,"34":-0.018783069604885516,"35":0.1761318409772058,"36":0.053890192929647675,"37":-0.27268227880594176,"38":0.09845388175195148,"39":-0.42614980671811026,"40":0.6037642061897088,"41":0.4347856271573865,"42":-0.33169147813699673,"43":-0.013553360191967376,"44":-0.456894337615227,"45":-0.20037108309973198,"46":-0.662916118770664,"47":-0.3417564624024522,"48":-0.11150548740753799,"49":-0.8545209806863929,"50":-0.27583050801605535,"51":0.5940170837720011,"52":-0.8992426354051225,"53":-0.354885853965589,"54":0.4068354579056829,"55":0.13832847430590198,"56":0.47987689492303054,"57":0.16009799131891114,"58":-0.3293991844662899,"59":0.25310342450951184,"60":-0.11541535247939408,"61":0.0442948553738322,"62":0.20742602070641641,"63":0.28235712967709253,"64":0.2838538162759527,"65":-0.14749469137297486,"66":-0.9856831615497856,"67":0.1991097497965949,"68":-0.2926907908041327,"69":0.31553781974590256,"70":-0.6029551113563314,"71":0.06390594083421852,"72":0.11775258543377981,"73":-0.04059207546791105,"74":0.08553178191483883,"75":-0.08461818145273595,"76":0.5299090408437515,"77":0.15696296491517395,"78":0.007527059359398642,"79":-0.2435281743012427,"80":-0.43305993454738,"81":-0.12467528976170345,"82":-0.455950647363953,"83":-1.624636793495623,"84":0.2614500210402827,"85":0.4080630040891921,"86":-0.16404199085619245,"87":-0.3667939128965021,"88":-0.2777231921076605,"89":-0.0734407059425878,"90":0.11605175202245747,"91":-0.5712416474558539,"92":0.24046089283121824,"93":-0.08074747241105097,"94":0.24679316769637857,"95":-0.1964532691357646,"96":-0.6821074372044033,"97":-0.7550930799123957,"98":-0.37880917201178943,"99":-1.0128093469181065,"100":-0.7950997541262186,"101":-0.11895813691655847,"102":0.15405564858501516,"103":-0.15187311745725254,"104":0.06308130879421031,"105":-0.3682058634635134,"106":0.5046243005927658,"107":0.024338443073667174,"108":0.05553215084888145,"109":-0.2317631992487003,"110":-0.4602456900678393,"111":0.3423367452342049,"112":-0.36809848075707247,"113":-0.7720712121384188,"114":-0.757630436031029,"115":-0.3320366390359348,"116":0.15508028540970148,"117":0.18528292081254102,"118":0.6390476684938524,"119":0.024208698953075154,"120":0.4193061643758968,"121":-0.24709036716748137,"122":-0.2943473418924317,"123":-0.053832471468240724,"124":-0.12416910291941399,"125":0.02595378340439695,"126":-0.5024254710518524,"127":-0.17805731924749463,"128":-0.11928482810316639,"129":-0.1447321170513733,"130":-0.2408544462503464,"131":-0.029190852868966662,"132":-0.22553825672135444,"133":-0.1538560391082259,"134":0.03587526319302045,"135":-0.048487743096281656,"136":-0.2110361929272059,"137":-0.09381538562117105,"138":0.043054441988804794,"139":0.39759239222419474,"140":0.26976468428717787,"141":-0.1512445748917561,"142":-0.09566416004170263,"143":-0.2861029666844132,"144":0.06409084701031974,"145":-0.06328718442819599,"146":-0.7903763401201304,"147":-0.2322785691456317,"148":-0.14800166481488045,"149":-0.04240307896384572,"150":-0.23819022673294984,"151":-0.11101617372244679,"152":0.33692704355017317,"153":-0.15946928088430654,"154":-0.22110751018455652,"155":0.11303614990241728,"156":0.20089320991279597,"157":0.04712460817870049,"158":0.4355194723321519,"159":0.19937351088999455,"160":0.03836984718275506,"161":-0.916936744643791,"162":0.290942083901394,"163":-0.3496270396438946,"164":0.18699431705475636,"165":-1.0835241613177675,"166":-0.08653702062148587,"167":-0.33490535213082223,"168":-0.5405248601348567,"169":-0.1098489087422856,"170":-0.3083518295596779,"171":-0.1048864935403371,"172":0.10714604148412597,"173":-0.4125749611053544,"174":0.1452951556641414,"175":0.005840969081949577,"176":-0.12566203473943544,"177":-0.5366803868669359,"178":-0.0943106041440534,"179":-0.4574108443524539,"180":0.01216755687069777,"181":-0.38111781696688457,"182":0.129731629922827,"183":-0.9741733861321866,"184":0.25134475531818773,"185":0.24172454982759156,"186":-0.14440259925519652,"187":-0.09357879800262696,"188":-0.1340312586962771,"189":0.1174257607737665,"190":-0.8139840866911341,"191":-0.3079068701337654,"192":-0.28959370436169113,"193":0.1513323610688877,"194":-0.006000393240262229,"195":-0.4411862266146941,"196":0.3144485191436096,"197":0.17538271819102447,"198":0.3255877344649016,"199":0.02374855444135704,"200":-0.3581828989123583,"201":-0.16933732156348977,"202":-0.22715907391125367,"203":-0.0349393962727329,"204":0.07199095647745299,"205":0.5357545450893569,"206":-0.08848109864713652,"207":0.12650085275822634,"208":0.04785023608686061,"209":-0.3104705153056062,"210":-0.7390856159516491,"211":0.38735935302228214,"212":-0.2725726577976587,"213":-0.12059216334415632,"214":0.013390227099576234,"215":0.09982968656398683,"216":-0.4578433037032454,"217":-0.3301363677395017,"218":-0.029701842299342425,"219":0.3223398506798006,"220":0.017180714140596177,"221":-1.3042410483106317,"222":-0.06864236074253509,"223":0.2850755489990221,"224":0.0013047415626078736,"225":0.21650558791188698,"226":-0.8867934806108589,"227":0.05542239732944105,"228":-0.033232528622255515,"229":0.2180722059619583,"230":0.03884823404222927,"231":-0.22819646348081038,"232":-0.1733821626853597,"233":0.21769940082705821,"234":0.31253572782704453,"235":0.12050080845255336,"236":0.1245061246859897,"237":-0.6405054768812039,"238":-0.022346443829453947,"239":0.046153230384312065,"240":-0.04230193878386061,"241":-0.5394143003260149,"242":-0.13756039445470117,"243":0.22397171955868925,"244":-0.2832104897597328,"245":-0.049200253757377826,"246":-0.09305283285187718,"247":-0.37374655999998346,"248":0.4102854370491776,"249":-0.645412637131842,"250":0.16006329639886854,"251":-0.0015841929030825164,"252":-0.20978338080661044,"253":0.02212626952774847,"254":0.05792628625389565,"255":0.15189429693891227,"256":0.6032654077324708,"257":-0.6635695881447186,"258":-0.4421059339385044,"259":-2.01865781814389,"260":-0.698600623137556,"261":-0.14188717797920017,"262":0.35889312063469553,"263":0.3578798636281083,"264":-0.4449142614077667,"265":0.08487555509253272,"266":-0.44569554804576345,"267":0.47524855621665674,"268":-0.49478972207253735,"269":0.0632478992501715,"270":0.1558300044959197,"271":-0.2999172788078248,"272":0.0012179264844199896,"273":-0.2375349464574776,"274":-0.5677901097471315,"275":-0.7780775666761964,"276":0.13970960291841317,"277":0.24080235878846007,"278":0.10161277236820458,"279":-0.3547920459946753,"280":-0.946686989156289,"281":0.7766312484936115,"282":-0.530345250380378,"283":0.13896834650844211,"284":0.39616555520180663,"285":-0.09799100015424277,"286":0.08479937851059742,"287":0.3005615621233853,"288":-0.4984522118933984,"289":-0.1503685579892579,"290":-0.7543217828262169,"291":-0.6110073955009236,"292":-0.4427523640391545,"293":-0.11227597355216014,"294":-0.32402053920525475,"295":0.10700542422107091,"296":0.3341685908211921,"297":-0.41416129156466436,"298":-0.258968034756418,"299":0.5067942431828445,"300":0.04049472199880512,"301":-0.7557633177613895,"302":-0.33964155732903856,"303":0.09590305321312939,"304":0.1517304615601027,"305":0.24387929231705688,"306":0.20829850810573006,"307":-0.7767034892569381,"308":-0.17097568362380058,"309":0.11645984797192731,"310":0.01551898694526135,"311":0.09319295477255024,"312":0.23394438852587524,"313":-0.43447245411341723,"314":0.1867014048059479,"315":-0.3332776725339195,"316":-0.2792155477596529,"317":-0.06426320943717845,"318":0.07586646445101464,"319":0.5898781479982059,"320":0.36005236045511124,"321":-0.4540149033989113,"322":0.9825592148855944,"323":-0.18579068832421133,"324":0.29922424513469387,"325":-0.9548379440919778,"326":0.14046328522908877,"327":0.02001875074409637,"328":0.6376663158818932,"329":0.31228978720956285,"330":0.5145026919850468,"331":0.07277976702425569,"332":-0.23498465200453356,"333":-0.07563917701489188,"334":0.3773333657181246,"335":-0.12652053494533885,"336":-0.7521380559806494,"337":-0.02527942793488852,"338":0.1250597899923294,"339":-1.047364978527872,"340":-0.09560821753512266,"341":-0.4867738339175606,"342":0.07306453082349841,"343":0.05231021695038691,"344":-0.1410945377368913,"345":-0.398218833065224,"346":-0.20071092536858198,"347":-0.47771587112418773,"348":-0.4479394875629416,"349":-0.5252625080386086,"350":0.054286310564607795,"351":0.601822329964795,"352":0.18056753898043099,"353":0.32800770707625043,"354":-0.254643709863343,"355":-0.801588152322451,"356":-0.09650178701741952,"357":-0.2700362783159709,"358":-0.12742570258474434,"359":0.2946495437162401,"360":-0.7610192858477836,"361":0.2303069332791074,"362":-0.44315964947132225,"363":0.4197856414443257,"364":0.33962533653156657,"365":0.5671367850456898,"366":-0.006309534389359344,"367":-0.20256833312170122,"368":-0.21955968609851031,"369":-0.053516229587550306,"370":-0.8796557272131497,"371":-0.5480413311251607,"372":-0.29056296101523904,"373":-0.3299538293191533,"374":-0.5040374949513239,"375":0.24000219849691506,"376":0.19044969741817958,"377":-0.044028594678147605,"378":-0.21130697223276193,"379":-0.007676670125188317,"380":0.22177629768821683,"381":-0.5144878508119818,"382":0.56741479441371,"383":-0.008063377748122639,"384":-0.008376615809131686,"385":-0.5422090774195755,"386":0.06308772781929177,"387":-0.6086659033441588,"388":0.3626557426833404,"389":-0.2812616598198018,"390":0.24616770765105847,"391":0.22075296624521243,"392":0.45679457992122474,"393":-0.46705257956142104,"394":0.3653551389358479,"395":-0.6391890484967359,"396":-0.3587039910398458,"397":0.03573040381734452,"398":-0.1908153206828519,"399":-0.018290374557247167}},{"sx":5,"sy":5,"depth":16,"w":{"0":-0.38582046557314287,"1":-0.008383933342345249,"2":-0.23867475543978653,"3":-0.08159554363941818,"4":-0.051962958645224114,"5":-0.6252673398484663,"6":-0.49334166114310135,"7":0.16424204681902096,"8":0.30352307470957535,"9":-0.03762127781849585,"10":0.10083639023599732,"11":-0.2301434862263284,"12":-0.42791044515918203,"13":-0.13439303202532665,"14":0.484395329038093,"15":0.18140679989540526,"16":0.1895605872664895,"17":-0.36683687199287274,"18":-0.8333211622060712,"19":-0.4303516718938561,"20":-0.8315555509033257,"21":-0.30111558696095175,"22":0.10152425805243878,"23":-0.06262980807867598,"24":-0.282872506937523,"25":0.08160465057182478,"26":0.4602715183533276,"27":0.28483839268254685,"28":-0.08146080940616994,"29":-0.5133773956041268,"30":-0.04890849108295462,"31":-0.142039915276637,"32":0.14747810498932615,"33":-0.3932387992229507,"34":-0.3176554344087485,"35":0.49257927405068663,"36":0.3444297828075314,"37":0.18299709580591902,"38":0.5522088521698884,"39":-0.018386476780801925,"40":0.09044970776992625,"41":-0.24537267495296666,"42":0.25643878968076117,"43":0.6625446769282709,"44":0.33338650673765197,"45":0.25932936242065,"46":-0.20703737347519968,"47":-0.02587426072714444,"48":0.18237364190238092,"49":-0.11167176907034537,"50":0.30851286954737184,"51":0.47298325668482943,"52":0.1586201885872905,"53":0.1584816845410251,"54":0.1448780343461167,"55":-0.006413360612620075,"56":-0.4484579196083434,"57":0.3055469225641892,"58":0.11515035468187965,"59":-0.15572137017029425,"60":0.24955590490902282,"61":-0.0034395960769131985,"62":-0.059673410169471794,"63":-0.7251217777583974,"64":-0.05307934754869995,"65":-0.22579998110568744,"66":0.6016946033385451,"67":0.5656960183565383,"68":-0.28739794924661716,"69":-0.5780585773866022,"70":0.0661054742291163,"71":0.05556432843628924,"72":-0.1359461902757757,"73":-0.19828095781756094,"74":-0.2899588874722994,"75":-0.451884933745067,"76":0.08397370762061668,"77":-0.23954493056287304,"78":0.4686948299779821,"79":0.24261625692909985,"80":-0.6748703836807939,"81":-0.06192741164262442,"82":-0.46495311957489366,"83":0.36056568107286785,"84":-0.37394147386116844,"85":-0.3738992459153263,"86":-0.33590399260983267,"87":-0.1508207657785315,"88":0.1188040875234821,"89":-0.2742508639776667,"90":0.050397779608406884,"91":0.2574256385265998,"92":-0.27960634699022785,"93":0.21355364163533216,"94":0.2071807846778804,"95":0.48868536437257415,"96":0.294997369939137,"97":-0.32470260515216337,"98":-0.7174327606819015,"99":-0.3509228446362084,"100":-0.32693530323908876,"101":-0.3376137954657396,"102":-0.16053414799406943,"103":-0.24501564462771003,"104":-0.39623229069806953,"105":-0.20754664410682191,"106":-0.17744334734158712,"107":-0.669402963441831,"108":-0.2667182675894531,"109":-1.2480013532306413,"110":0.05968647606358079,"111":0.1107491470518027,"112":-0.23592708195608816,"113":-0.26654410776009296,"114":-0.9826941594382719,"115":-0.17679931102950008,"116":0.16694118381654796,"117":0.27625559947217876,"118":-0.05118126482387869,"119":0.08379989982504571,"120":0.17737061508237584,"121":-0.22184199812309505,"122":0.07370015060554008,"123":0.1568735377018352,"124":-0.041696656124205686,"125":0.05715449643264549,"126":-0.09675872643881864,"127":-0.11548370513609112,"128":-0.3736122422176118,"129":0.21291092459027333,"130":-0.1482864792355695,"131":0.02169921765094496,"132":0.03650146507878048,"133":0.18370064530035304,"134":0.013659323553404566,"135":-0.14173376752273173,"136":-0.19569382016733053,"137":-0.07220357526049864,"138":-0.037592894261999965,"139":-0.3956612339356591,"140":-0.008647723502681141,"141":-0.11532128703890153,"142":0.3203581461245191,"143":-0.35582654373462325,"144":-0.4489776650014974,"145":0.11442757488622819,"146":-0.34128889153979514,"147":0.46830692963723297,"148":-0.09507277971465027,"149":-0.3583750457052618,"150":-0.13060543916088244,"151":0.21033677843590728,"152":0.28682320865917516,"153":0.12263941220372232,"154":-0.4470059611185747,"155":-0.3685266312111298,"156":-0.15803509476813207,"157":0.2812351749836052,"158":0.01316825515679357,"159":-0.4000952335095246,"160":0.0007875519489565095,"161":-0.8238429154760645,"162":0.007449233195532203,"163":-0.13309014141504394,"164":0.3012108471002875,"165":0.35979168258515487,"166":-0.4606940536364596,"167":0.9451171655982786,"168":0.15456245957541734,"169":0.04017676797873406,"170":-0.1043871975611195,"171":0.10931712290643227,"172":0.10950741378662351,"173":-0.4716116708741142,"174":-0.7626290641515091,"175":0.3143842357499134,"176":-0.2795874124854187,"177":0.8267357133299992,"178":-0.7467901661445526,"179":-0.3656960597935008,"180":0.1835902675375415,"181":0.16617910627543303,"182":-0.383656032851316,"183":0.03971299440831029,"184":-0.5706413145882604,"185":0.8088008043990359,"186":-0.5605218622492427,"187":0.30960029007347895,"188":-0.13573028131574558,"189":-0.06839698081568112,"190":-0.12488200810191975,"191":-0.09229420066224626,"192":-0.7047995105505469,"193":-0.3757331615103178,"194":-0.3254577530379172,"195":-0.0013048936551838537,"196":-0.03850176644360583,"197":0.07694242337363683,"198":0.026228803268321534,"199":0.23876277984760086,"200":-0.3093577016921411,"201":0.41107176297779446,"202":-0.3211123718290088,"203":0.050444099988385206,"204":-0.038448591505583114,"205":-0.5802648389621867,"206":0.22188362354518457,"207":0.07711874276164543,"208":-0.26332176912620364,"209":-0.6326021549506042,"210":-0.3496325301052634,"211":0.3281588599001539,"212":-0.11121045850245553,"213":-0.008486578980251883,"214":-0.32401488044358584,"215":0.153663392411399,"216":-0.2565111080136939,"217":0.7283871805929039,"218":-0.1175856524288953,"219":-0.1265239539970699,"220":-0.24928692821054219,"221":0.22427486971883717,"222":0.3263272982764005,"223":-0.28041808625506925,"224":-0.4504563334776286,"225":-0.3159397040752628,"226":-1.0153161627331413,"227":0.4113083348343501,"228":0.1438327079531708,"229":-0.27642946865668183,"230":-0.35294168095308137,"231":-0.4967423306731181,"232":0.2546798885058943,"233":0.7011330743566054,"234":0.10453920542098197,"235":-0.9875149093706365,"236":-0.22985259368343042,"237":-0.8740659100785717,"238":0.15340153312875812,"239":-0.12707193751097287,"240":-0.21223533291167915,"241":-0.2591468329415724,"242":-0.34991402350567674,"243":0.028912104097169693,"244":-0.8330961328700729,"245":0.016094605167273283,"246":0.30095989924046257,"247":-0.21970190018555566,"248":-0.09750529446028892,"249":0.3431287683544645,"250":0.004781917525065636,"251":-0.724892855767397,"252":0.5113393632906467,"253":0.18313992986333055,"254":-0.11018463680118087,"255":-0.3081894653524868,"256":-0.19725844158612169,"257":0.3531313337654728,"258":0.2513820635444154,"259":-0.43464997810613343,"260":-0.14379955161981986,"261":-0.43004966314356036,"262":-0.11349521983872203,"263":-0.0712228281704645,"264":0.4293492674060496,"265":-0.21570849885388574,"266":-0.03764946182266076,"267":-0.6677836206303664,"268":0.017175923762626732,"269":-0.6256286144279548,"270":0.40028919403479,"271":0.22612647171532216,"272":0.008183684583462171,"273":-0.2219822728632183,"274":-0.11031773949440227,"275":-0.28065586429150263,"276":0.16996727261708583,"277":-0.06499066409080781,"278":0.12697173497791792,"279":-1.148040127732662,"280":-0.12133799493269347,"281":0.39932129419162865,"282":0.26402569177010876,"283":-0.20914404051221966,"284":-0.07769880502294355,"285":-0.5224769510157525,"286":0.028605235942881398,"287":0.09784441925318411,"288":0.015020120891326143,"289":-0.29365177629053774,"290":-0.37240890049569175,"291":0.29694814654472845,"292":-0.2904262007790515,"293":0.027635305793299952,"294":-0.29918825630970747,"295":-0.6026305030175297,"296":0.3801331174156705,"297":-0.4336391080175283,"298":-0.15090478448587888,"299":-0.9293421868076357,"300":0.25182186334189677,"301":-0.29013584724280866,"302":0.08083419414767186,"303":-0.14111236904949176,"304":0.3236686687952557,"305":-0.2617401005604334,"306":-0.21360325154568388,"307":-0.28282397384842156,"308":-0.5878525965379,"309":0.034468099948504444,"310":0.04976628688255219,"311":-0.8831262393441317,"312":-0.07716811020601619,"313":-0.24620184011099458,"314":0.21963486408254912,"315":-0.5212046025066412,"316":0.19123814558822222,"317":-0.13315626258917962,"318":0.039131862069314176,"319":-0.6438643109087704,"320":0.3334595998248938,"321":-0.8659237040734783,"322":0.1487384099133573,"323":-0.25039357586915173,"324":-0.2647715042570705,"325":-0.09080624435194862,"326":0.010829432079543353,"327":-0.4028689757324451,"328":-0.000029937731586390485,"329":0.5733466996302358,"330":-0.5319038148175798,"331":-0.18406901357915617,"332":0.31799858101110134,"333":0.21202600434021154,"334":0.35842095110195327,"335":-0.7550894428429533,"336":-0.060194982046367154,"337":-0.1371949803097964,"338":-0.07362922371078737,"339":-0.8355019702935569,"340":-0.10910989661635556,"341":0.02756453561169655,"342":-0.45735109752827147,"343":0.31684479305178853,"344":-0.16468192689251018,"345":0.334344554175397,"346":0.510660336876997,"347":-0.18466573620740057,"348":0.45882139923068543,"349":-0.9661146591627909,"350":0.41551161540276066,"351":-0.41233922229834696,"352":-0.05927546196285957,"353":0.4097419968613846,"354":0.11719588028767738,"355":-0.5516694844301797,"356":-0.1397417814744153,"357":0.824814509160567,"358":-0.015414341281416973,"359":-0.589733703131992,"360":0.21183761170458013,"361":0.48435825219719697,"362":0.7236553269825711,"363":-0.48264233459076517,"364":0.1473225574706009,"365":-0.0008178800403349231,"366":-0.11330409291420825,"367":-0.5177553860239603,"368":-0.23262988809077817,"369":0.338636407830113,"370":0.3900500975795681,"371":-0.5322263619449238,"372":-0.528003109574725,"373":0.7186603099130265,"374":-0.14199087883770067,"375":0.7336777961288544,"376":0.4261824696064601,"377":-0.09344825467881467,"378":-0.28342042481116086,"379":-0.9099514412767558,"380":0.07244376159486587,"381":0.534885296694014,"382":-0.19804470392255746,"383":-0.8107833698507131,"384":-0.3477072584115054,"385":-0.1960295874614388,"386":0.08018195122344401,"387":-0.3875616590321798,"388":0.0052225536499628964,"389":0.3898748916047604,"390":-0.0540156082208506,"391":-0.43582744356438263,"392":0.1690438338635679,"393":-0.20376238983934436,"394":-0.11446359437297977,"395":-0.2541936331739855,"396":0.024837631909769974,"397":0.56079362737128,"398":0.20475027296077292,"399":0.0672909387060314}},{"sx":5,"sy":5,"depth":16,"w":{"0":-0.6089330953433938,"1":-0.0900072802941817,"2":0.1384115858987173,"3":0.4546886286508943,"4":0.1486459240424111,"5":-0.45811906584852413,"6":-0.44818572722228855,"7":-0.3515872897289746,"8":0.12426734247181065,"9":-0.39087414186281433,"10":-0.21912695882442396,"11":0.6091787015632474,"12":-0.5737816808816402,"13":0.034260452955351205,"14":0.2110689618353286,"15":0.4958687391292541,"16":0.3648402964752993,"17":0.34823743244010347,"18":0.35771906022143146,"19":-1.4606210177262413,"20":-0.5099196791957727,"21":-0.47745920330163516,"22":0.010089760727155436,"23":0.3458730922986251,"24":0.17499172050280157,"25":-0.43355937187872035,"26":0.013592926940357356,"27":0.20001387848024127,"28":0.567218079563452,"29":-0.5463005686857245,"30":0.030605202817860395,"31":-0.044011724241742656,"32":0.4836686315552324,"33":0.2176125707658389,"34":-1.1557315216771233,"35":-0.3513359423102766,"36":-0.49342950123483376,"37":-0.310350417951154,"38":0.30646910662818777,"39":-0.1290654100664577,"40":0.23555576650540058,"41":-0.8167978474018889,"42":0.3692276968912202,"43":0.49869474962009175,"44":-0.2584060068311462,"45":-0.288268920288197,"46":0.282368769149892,"47":0.2835254046027899,"48":0.13943036837984213,"49":-0.4924301178041797,"50":-0.97313923269376,"51":-0.14048600854463825,"52":0.2870454309417631,"53":0.14981578094793283,"54":-0.8840061927599392,"55":-0.4162480708513446,"56":-0.192597672034948,"57":-0.4928042106513538,"58":0.18018046770117901,"59":-0.09645888269631561,"60":-0.3760137088032437,"61":-0.35361727925296965,"62":-0.0772844508417475,"63":0.39018734235461067,"64":0.463486186209409,"65":-0.08430485025544512,"66":-0.1728240385453021,"67":0.19910857496204667,"68":0.4198132168048939,"69":0.10601506810875314,"70":0.4969616831824831,"71":-0.3348321399966782,"72":-0.6745356495242353,"73":-0.07606267481981867,"74":-0.18830795860609795,"75":-0.49910150200652154,"76":0.04666128484592701,"77":-0.9403729675173187,"78":0.11139090676562755,"79":-0.3226598313344853,"80":0.3813847819940944,"81":-0.7275214294149842,"82":0.18933750407913902,"83":-1.1817512850596876,"84":0.253079712954605,"85":-0.04593454076596862,"86":-1.3716727327550342,"87":-0.6768321233935474,"88":-0.1777321489765867,"89":-1.0301420223882327,"90":-0.366214850741286,"91":0.25255862701538345,"92":-0.5835523725707418,"93":0.33695593941872687,"94":-0.10684761666045682,"95":0.001598005382089054,"96":0.00904102071452472,"97":0.14951260710402217,"98":-0.03697198928402063,"99":-1.0202624356993013,"100":0.01942020193012842,"101":-0.5625066620335855,"102":-0.9142109252477942,"103":-0.6777561555869518,"104":-0.8512090223009796,"105":0.2013261528393444,"106":-0.4737635882809442,"107":0.10016606809608788,"108":0.33692622290822605,"109":-0.6593255065108519,"110":-0.27221148947210244,"111":0.14196807305511844,"112":-0.3789363561325001,"113":-0.32879932900793013,"114":0.4404233278403892,"115":-0.09755953938540282,"116":-0.28528537040629515,"117":-0.6795213941982604,"118":-0.7844720485593416,"119":0.237281611138212,"120":0.11383292104674411,"121":-0.5734962725446887,"122":-0.3541014320405224,"123":0.014180269761356385,"124":-0.27069088448033457,"125":0.6340309506874808,"126":-0.309751795794441,"127":-0.025716366759571986,"128":-0.16169062956040822,"129":0.17658085473810722,"130":0.15919383461138473,"131":-0.011488735215546546,"132":-0.6803970693222323,"133":-0.262206479490377,"134":-0.09571348322801246,"135":-0.2911232923158915,"136":0.1520845376923859,"137":-0.09517464584987499,"138":0.1270033394040757,"139":-0.0381075683954164,"140":0.22127959895712548,"141":-0.23978714648968857,"142":0.00344009994780787,"143":-0.2687039661679931,"144":-0.32277453463621214,"145":-0.8202387767228356,"146":-0.46356976006326106,"147":0.004491877832788209,"148":-0.6111436138267123,"149":-0.5371057221169858,"150":0.2535935488327992,"151":-0.13063822253182178,"152":-0.7976280345483198,"153":-0.31207340000148576,"154":0.015998831142743905,"155":-0.4198478541142824,"156":-0.25557777988257036,"157":-0.2539708467233623,"158":-0.22964634878826298,"159":-0.10983263327300372,"160":0.0835580405346504,"161":0.8325261927216939,"162":0.09148755368785821,"163":0.5022992131481265,"164":0.33919820935226885,"165":-1.2883598739790776,"166":-0.8121655355262158,"167":-0.24285063878105725,"168":0.512739278688298,"169":-0.42395237459841656,"170":0.4147422529626101,"171":-0.8366601427338339,"172":-0.06659941535859877,"173":0.5976397142392206,"174":0.10789814234992798,"175":0.5658876422414473,"176":-0.04307515361131217,"177":-0.35820157349994397,"178":0.5097853557647162,"179":-0.5406090278307745,"180":0.23129049702568952,"181":-0.16342992121653657,"182":-0.08129172357248485,"183":-0.46885177923215304,"184":-0.43919869799509165,"185":-1.0084364359600648,"186":0.042341856469214505,"187":-0.8689801431388016,"188":0.16094177079694297,"189":-1.4927107261380286,"190":-0.3490589320201059,"191":-0.45129284069986136,"192":0.20471509692465373,"193":-0.30452947117108803,"194":0.8367049780532607,"195":-0.3794331512390856,"196":0.12451801239572899,"197":0.12593669759476606,"198":-0.025635624274485038,"199":0.4936507371202307,"200":-0.8117185124900999,"201":0.2290679261194352,"202":0.27623985317698185,"203":-0.3398626150815546,"204":-0.19381635291824734,"205":-0.08773568527898655,"206":0.09425718061316048,"207":-0.38601571147150826,"208":-0.16458939737392023,"209":0.16422684754830794,"210":0.15191593070360837,"211":0.16453584196385812,"212":-0.23055775507930462,"213":0.42406638018124604,"214":0.13731645616848578,"215":-0.08193021540647437,"216":0.1771442748696736,"217":0.4564214923526071,"218":0.08037475862226573,"219":-0.16574966346527129,"220":-0.4226839623597054,"221":0.30556121882503756,"222":0.17969880193604032,"223":0.1051351779813137,"224":-0.3412048463608867,"225":0.27303455443544566,"226":0.06557676358500153,"227":0.26743349500034386,"228":0.9759302923938896,"229":0.4797953262579647,"230":0.4755332669109994,"231":0.4968570547504756,"232":0.7629942388703153,"233":-0.18150608348829672,"234":-0.054465592750090275,"235":0.3775802786844242,"236":0.37133419279289803,"237":-0.11507270312390289,"238":-0.4968554660276387,"239":-0.33015537695799235,"240":0.12189778875236175,"241":0.20576086345030878,"242":0.07124404828927898,"243":0.5569956896294526,"244":-0.7381933262091751,"245":-0.09121776899394968,"246":0.17795369824794338,"247":-0.4619731831203991,"248":0.3032975401361619,"249":-1.2509147737456634,"250":0.029662747770182872,"251":-0.7639126081106501,"252":-0.4821861101690238,"253":-0.05034998575648529,"254":0.08505606774511133,"255":-0.3114153693762533,"256":0.2090408510035439,"257":-0.10288615544286468,"258":0.46528983122447626,"259":-0.42599402741350917,"260":-0.4623460338285829,"261":0.13270009251298942,"262":0.108496724068822,"263":-0.27786925696518294,"264":-0.22165285816159436,"265":-0.6221625546887413,"266":-0.46978572958794235,"267":-0.5304891786563647,"268":-0.552441716207153,"269":0.007329585093687516,"270":-0.52628547933377,"271":0.08734793962441952,"272":0.02549745553343445,"273":-0.6390027805244324,"274":-0.3133877856227421,"275":-0.7531718599741267,"276":0.1393077699433191,"277":0.170071319572442,"278":0.02621925558353874,"279":-0.07171205056000933,"280":0.1030583916527859,"281":0.23911255798981332,"282":-0.5597160213690929,"283":0.5263038854005587,"284":0.5274150149317414,"285":0.04814042514304782,"286":0.2894598905737216,"287":0.25038899866243247,"288":-0.18036445085338917,"289":-0.24000130192644104,"290":-0.7601468954722966,"291":0.19664001127008257,"292":0.18393264753676442,"293":0.6228623633859679,"294":-0.06879985995279582,"295":-0.17454208222477743,"296":-0.4981974472042412,"297":0.20009444732428436,"298":0.33775053167315006,"299":-0.1677464191913698,"300":0.5230178031689906,"301":0.5607158715473408,"302":-0.02082062477184091,"303":0.24979467068771907,"304":0.38278230151017184,"305":-0.1350538651198171,"306":-0.841143310752396,"307":-0.2600403431892635,"308":-0.8033199666275262,"309":0.3772540242258166,"310":0.40711199739358367,"311":0.43760908679695487,"312":0.5569288492192183,"313":-0.05136110351843502,"314":0.2182656752045025,"315":0.4329979878939385,"316":0.48132764995527993,"317":-0.8058608028756921,"318":0.5355479127037958,"319":-0.40268419779468784,"320":-0.24211736032282638,"321":-0.1112207904420725,"322":0.22730367339086824,"323":0.035916995324993796,"324":-0.13006566940716116,"325":-0.8066007362932817,"326":0.41166599862525804,"327":-0.19461177931063642,"328":0.31728924363403643,"329":-0.25293735364595216,"330":-0.562812058598422,"331":0.19915780234467312,"332":-0.8829692773697202,"333":0.16780468853819377,"334":-0.45113116951513477,"335":0.0687832252222177,"336":-0.21688420799773356,"337":-0.45591324068528083,"338":-0.2193178847358128,"339":0.18073849777108816,"340":0.2818700975129828,"341":-0.643457013139717,"342":0.2871836626188951,"343":0.20953544144714178,"344":-0.000019095982293279058,"345":-0.2572468672717656,"346":-0.48285193612704674,"347":0.27055415831801843,"348":-0.6002733726238911,"349":0.12189087935754477,"350":0.1859937871380169,"351":-0.42545310821855764,"352":0.24886744296216004,"353":-0.1567559254241079,"354":0.032437393157958634,"355":0.441324613181208,"356":-0.023045101791420733,"357":0.3111321573809228,"358":0.9336122404672997,"359":0.9392638998635707,"360":0.41420622518661854,"361":0.3397265061196336,"362":-0.22646446046594623,"363":0.522386619238557,"364":-0.5801485692695209,"365":-0.3204142958942502,"366":0.17906324177061925,"367":0.12635714349288568,"368":0.3241902094750145,"369":0.3732842209701521,"370":0.3800384522049856,"371":-0.2358220882359003,"372":-0.1384023269339794,"373":0.0029493477333579375,"374":0.21679973726794788,"375":0.16894136826286202,"376":-0.27098499951149846,"377":-0.6336425592042455,"378":0.0725374716053147,"379":-0.298292990662644,"380":0.048111241041053146,"381":-0.027854416301149505,"382":-0.4204758564947011,"383":-0.24930957884368926,"384":0.24009697944655292,"385":-0.055285884779297044,"386":-0.05104412495304072,"387":-1.0657566134680603,"388":-0.28593350059000605,"389":0.28347426123871416,"390":-0.05055424008873613,"391":0.2910716528693074,"392":0.007476201838056057,"393":-0.30842987258143156,"394":-0.3989026050321266,"395":0.2987918570774359,"396":0.5112865755073759,"397":-0.09602511569034608,"398":0.20454780425675267,"399":-0.20294521446098293}},{"sx":5,"sy":5,"depth":16,"w":{"0":-0.1579628618492559,"1":-0.2804680616593092,"2":0.5985889262025665,"3":0.15091909994054623,"4":0.7976030372504187,"5":0.21560234815252927,"6":0.5139605747629667,"7":0.19269596591922628,"8":0.41043827874661737,"9":0.05617539117284324,"10":-0.1243569179218151,"11":-0.677624501618578,"12":-0.5088398546927755,"13":0.04707472141384591,"14":0.3045767503411356,"15":0.3051427520783454,"16":-0.21333773008116724,"17":0.13114776948422174,"18":0.5289580484470823,"19":0.5564552014276581,"20":-0.224724864019505,"21":0.32259962891735455,"22":0.06341553360171645,"23":0.12575282098231505,"24":0.2292097132731416,"25":0.14349618291420715,"26":0.15429412989411495,"27":0.34777407149169925,"28":-0.03477159656648959,"29":0.4340549726864702,"30":0.30417688907104923,"31":-0.5274304099623057,"32":-0.06292009331500936,"33":-0.11422507969136289,"34":-0.8809599581744973,"35":0.03158142230277283,"36":-0.7249555732623195,"37":0.21134139037022348,"38":-0.41551685719604203,"39":-0.07537501591474409,"40":0.17826866802038718,"41":-0.3400951721096711,"42":0.5119612599967913,"43":-0.07346773811829241,"44":-0.2056780982525502,"45":-0.23417961536302312,"46":-0.32948114237598836,"47":-1.1413298586333556,"48":-0.09395160253983702,"49":0.3390424068973043,"50":-0.7823066256164272,"51":0.02973879654015907,"52":-0.3748544040083088,"53":-0.19672394833235476,"54":0.10526450222437585,"55":0.06315294194869953,"56":-0.09906877759429905,"57":-0.49455857534793646,"58":0.3104487535830049,"59":-0.3007105179925182,"60":0.084126801821793,"61":-0.19768479046490844,"62":-0.37502675637747496,"63":-0.22852102435901178,"64":0.20419370816716176,"65":0.1029850703219419,"66":-0.11760681499105083,"67":-0.06571717627982797,"68":0.21835386574730029,"69":0.4171844801229562,"70":0.2071297065812302,"71":0.027740356634647037,"72":0.388603360631398,"73":0.12791504278125884,"74":0.47861803953211496,"75":-0.1667701410456391,"76":0.1516121918790118,"77":0.6112324255067847,"78":-0.5209577204859065,"79":-0.15975650675474856,"80":0.4304604720544503,"81":0.10185880606172473,"82":0.13819534051123086,"83":0.16146169072299338,"84":0.17455801783282873,"85":0.0539480158715154,"86":0.047718216776772994,"87":-0.37082104232902496,"88":-0.7400095227811778,"89":-0.11558764874730212,"90":0.3089333392521237,"91":-0.33404401604223444,"92":0.45878371503279064,"93":0.3593376293047579,"94":-1.1703484236955763,"95":0.16540538316268147,"96":0.4408270748426994,"97":0.5592150359380771,"98":0.6188226472854973,"99":-0.1297412393375874,"100":0.08540109691436426,"101":-0.007748015440150363,"102":0.3010527639307261,"103":-0.8622822922005273,"104":-0.1652518665436313,"105":-0.12120424225357461,"106":-0.37702378270843107,"107":0.09884600473219632,"108":0.31422460133762153,"109":-0.47513094140414824,"110":-0.3848038129138492,"111":-0.40243029664904023,"112":0.2609145133487364,"113":0.24790918876450774,"114":0.055219602314348186,"115":-0.16248485028949375,"116":-0.5472850128635787,"117":-0.25606100361839174,"118":0.16472272343655264,"119":-0.2562785195113433,"120":-0.08783076442981846,"121":0.03004767408335158,"122":0.2121070437223955,"123":-0.40010074803460094,"124":-0.25572167919948907,"125":0.23032191120249773,"126":-0.636479789045464,"127":0.03778882530596896,"128":0.3119761165938379,"129":0.053268548087148565,"130":-0.7928101360168682,"131":-0.5142165382779756,"132":-0.3682216674974838,"133":0.008796766050198489,"134":0.013991636820307464,"135":0.1100563797167162,"136":-0.09223052081093776,"137":0.09960362963078764,"138":0.1246875970901803,"139":-0.7241182594067798,"140":0.049856298572075665,"141":0.14170233055285486,"142":-0.18110840801903932,"143":-0.2791610534815879,"144":-0.04097853249010372,"145":-0.2176994851166259,"146":-0.3986236785682972,"147":-0.13821568647781407,"148":0.6342250835612664,"149":0.19129334959480104,"150":-0.38434672285047045,"151":-0.32444075908115205,"152":0.4178987546859184,"153":-0.16373510425478266,"154":0.05049886801584149,"155":-0.6973816568729977,"156":-0.05586908238898155,"157":-0.5443217524478748,"158":0.30467071484078545,"159":0.14467414549499416,"160":0.06081982886498366,"161":-0.2053902857677086,"162":-0.3994390528809398,"163":0.054967116858071395,"164":-0.2615996369637248,"165":0.09761659753411613,"166":0.0071331937727015585,"167":-0.1558005257451188,"168":0.03351163734871616,"169":-0.16044049650659212,"170":-0.016692145768866958,"171":0.1912736429871171,"172":0.0007092660298488046,"173":0.14535287410934206,"174":-0.3328922645976325,"175":-0.2540090222091784,"176":-0.40897504558609693,"177":-0.5458804347607791,"178":-0.39858874507334485,"179":0.12607096475438434,"180":-0.21822886886634982,"181":-0.013839706542951299,"182":-0.21281703380150335,"183":-0.3235320169029885,"184":0.19005501180249407,"185":-0.16056092946976155,"186":-0.06352643825899411,"187":0.08429239114164609,"188":0.13102530732687875,"189":-0.13417686966233877,"190":-0.58125272171932,"191":-0.05224216997636424,"192":-0.5956408365890645,"193":-0.2878860443862692,"194":-0.5556949731037374,"195":-0.3128164305658857,"196":-0.13543928468095076,"197":0.48259249483455463,"198":-0.5702179756705591,"199":-0.3125043214274528,"200":-0.6393253633850956,"201":0.03331813113875302,"202":-0.4070868640991176,"203":-0.676542366161581,"204":-0.3567360867175137,"205":-0.0138282012489606,"206":-0.48991619840937317,"207":-0.4902592163008216,"208":-0.16814618828495714,"209":0.16520963253234616,"210":-0.11651863851901736,"211":-0.28356613478738996,"212":-0.11267753786716511,"213":0.2045640192198948,"214":-0.19541673563342735,"215":-0.37028325428633885,"216":0.270570297067832,"217":0.20704503723807158,"218":0.08053901153362925,"219":-0.16802269007852255,"220":-0.30437609860532233,"221":-0.3169645919501848,"222":0.049417094481701576,"223":-0.34596305930423904,"224":0.3324279550273777,"225":-0.06072776906647637,"226":0.3078981583270875,"227":0.22926508742493126,"228":0.5036847317134422,"229":-0.019047812737109364,"230":-0.02749505473700423,"231":-0.2711958792117799,"232":0.649001241174119,"233":-0.10376887126485203,"234":0.4013851783950754,"235":0.10837884272302532,"236":0.1348841412032516,"237":-0.1983674655648407,"238":0.3152151906711777,"239":-0.5132666974640954,"240":0.17470964717512047,"241":0.4932401083946665,"242":0.5983978207722409,"243":0.25785711545211404,"244":-0.14989976207606262,"245":-0.011762616519296144,"246":0.15598854790524735,"247":-0.3003262533448748,"248":-0.7360754268310815,"249":0.37703550449506396,"250":0.07022616378729038,"251":0.2201700583628552,"252":0.17258572529884575,"253":0.4892826184974608,"254":-0.3167845954128795,"255":0.0026100577634056597,"256":0.1250617616614643,"257":0.24514587948739008,"258":0.03302779414331089,"259":0.02276326070964127,"260":0.5757482927240033,"261":-0.11060382599513575,"262":-0.20389785153952686,"263":-0.5447409559460309,"264":-0.5648404591504003,"265":0.19510376626245943,"266":-0.11371874864632221,"267":-0.03937282257126241,"268":0.10412267065796803,"269":-0.17626771672028574,"270":-0.22069002623674147,"271":-0.8856245238471258,"272":-0.04604894506742048,"273":0.0795524547585606,"274":-0.7127829200697748,"275":-0.43975576110918385,"276":0.1798701669444682,"277":0.27592178447046206,"278":-0.008007502144064274,"279":0.41149171767375875,"280":-0.2912980206848658,"281":0.0793812323326084,"282":0.19519909515847933,"283":-0.7231037472664953,"284":-0.06703691238730689,"285":0.3955608683473115,"286":0.2038924555062021,"287":-0.18571124912430426,"288":-0.03206851761610761,"289":0.2732634008181453,"290":-0.12123121146014723,"291":0.22113267515918855,"292":0.724691516110374,"293":0.16300532995710218,"294":0.036586622583510614,"295":-0.6488824032523437,"296":0.02202584224932848,"297":0.03624259775179671,"298":0.32896399825533024,"299":-0.4293183274524178,"300":0.08733518205373754,"301":-0.6997437191322953,"302":0.2563693075563052,"303":-0.14844541198216954,"304":-0.23915704221704287,"305":0.4536392536895374,"306":0.049247039964679024,"307":0.123191601633735,"308":0.23587436133731818,"309":0.12347825173088728,"310":0.02801658131911542,"311":-0.4375012329921622,"312":0.014348585939084344,"313":0.13064047118634495,"314":-0.04661275286175092,"315":-0.6471299572084155,"316":0.34079345328707833,"317":-0.24971796176799554,"318":-0.13233489006650936,"319":-0.4404637234314847,"320":0.2119576278136516,"321":0.021463609141638938,"322":-0.04399113141006106,"323":-0.07717688540388798,"324":-0.46456409034174573,"325":-0.5523238145082163,"326":0.36722389198162575,"327":0.09362824839967414,"328":-0.5292117452244136,"329":-0.5638076474801608,"330":-0.19127480213343606,"331":0.09760215073648529,"332":0.1544754038319249,"333":0.05753881807422687,"334":-0.7309103886893941,"335":-0.03290187726191076,"336":0.23411350925230112,"337":-0.384593156996842,"338":-0.15366774949071227,"339":0.06622310126400542,"340":0.3769859109026134,"341":-0.16073002580645782,"342":-0.26922160915967447,"343":0.08466413443966028,"344":-0.05333732121438049,"345":0.11245473559163226,"346":0.006011028059882976,"347":0.15281030964716508,"348":-0.010165516639359233,"349":-0.2185579665101144,"350":-0.3297247209139484,"351":-0.5227705739605375,"352":0.5374263008609205,"353":-0.24690905608135394,"354":-0.5882163942937786,"355":0.07128874298951333,"356":-0.1940349138573231,"357":0.07295691656360197,"358":0.06298435651380188,"359":-0.332592888847938,"360":-0.28241249989666484,"361":0.1581091619305036,"362":0.7309126509990564,"363":-0.5015034131779649,"364":0.011028723582431486,"365":-0.2185799011448613,"366":0.043574697195688454,"367":-0.6424403535796555,"368":0.39070677128944087,"369":0.36539030272289386,"370":0.09712869941760845,"371":0.34432977040067936,"372":0.21660704644008288,"373":0.13508769963764505,"374":-0.013678137053274716,"375":-0.3762262878880106,"376":0.03253362428282293,"377":0.17170230190315097,"378":0.33860821372132016,"379":-0.2978945571378941,"380":0.07333390885866233,"381":-0.090233076906806,"382":-0.5812071492764961,"383":-0.27047067378198747,"384":-0.11031008110329088,"385":-0.08784593435288897,"386":0.5760196054540568,"387":0.05783015298718828,"388":0.40022811351452947,"389":0.018068368226229252,"390":-0.11267803011674664,"391":-0.02714941578546369,"392":0.12884963714822867,"393":-0.10478134599567941,"394":0.17065668144109147,"395":-0.6533714653370003,"396":-0.10533812061104621,"397":-0.0620153956109187,"398":-0.13110720132320045,"399":0.10864838053673216}},{"sx":5,"sy":5,"depth":16,"w":{"0":-0.5407115932747925,"1":-0.37505029744551377,"2":0.33284848932636335,"3":0.26534872196436027,"4":-0.16009407916259671,"5":0.5904092909636846,"6":-0.30095519807660737,"7":0.028575708208896725,"8":0.21323226818308788,"9":-0.11520320034395892,"10":0.24811018351784678,"11":0.05453108293469437,"12":-0.014982162951742248,"13":-0.286592188098128,"14":0.11521436620170802,"15":0.21004079437548645,"16":-0.8608457033843169,"17":-0.9691036262554932,"18":0.31415556244505977,"19":-0.18612446032895813,"20":-0.33353421495386026,"21":-0.2737349796587448,"22":-0.0962550372445914,"23":-0.09857134995022987,"24":-0.5991356634231179,"25":-0.0633182678391524,"26":0.32632783244360675,"27":-0.4831439585694802,"28":-0.30560767986265763,"29":0.05711900195190671,"30":-0.2446483173286799,"31":0.22884400355466997,"32":-0.5685602739400716,"33":-0.15683292958504116,"34":0.044342134267459685,"35":-0.5174123408277373,"36":0.2875677000751148,"37":0.27369685694781787,"38":-0.23526551375302737,"39":-0.3130645396861599,"40":-0.4202317757037463,"41":-0.29144377379116343,"42":0.14307511227563027,"43":-0.5741547296472925,"44":-0.002768595934343091,"45":-0.7542032289876627,"46":-0.3725564585589314,"47":-0.3231800992452212,"48":-0.1434207865400737,"49":0.1007067820767494,"50":0.1562190633435038,"51":-0.1453836430593327,"52":0.033251458857325444,"53":0.1469582725141837,"54":0.4092585984305797,"55":0.41578890956922454,"56":0.3581415533410877,"57":0.19602474917320858,"58":0.3167384610871136,"59":-0.39167029916284757,"60":-0.03992581622205975,"61":-0.24102488665628413,"62":-0.10312397831359536,"63":0.555363293336831,"64":-0.7118243702676034,"65":-0.8115417385576018,"66":-0.4046391215533342,"67":0.32748552212206083,"68":-0.09217989246051563,"69":-0.2931718097726062,"70":-0.340780675790856,"71":0.05003010097383617,"72":-0.09576840952716743,"73":0.7178809917430949,"74":-0.5236863427958062,"75":-0.449588022495883,"76":0.1347068433850015,"77":-0.06641252826912666,"78":-0.38363437966545905,"79":-0.09243141819125224,"80":0.07166352726496901,"81":0.5943852623427294,"82":0.5449822906063283,"83":0.0710536254293237,"84":-0.280641152503913,"85":-0.0404901444693438,"86":-0.18123357219880246,"87":-0.2738581364644759,"88":0.2498851735237168,"89":-0.6527650729243637,"90":0.15663212206516994,"91":-1.4799679248270063,"92":-0.08408011648065468,"93":0.3021726766952615,"94":0.1539245818390918,"95":0.2088939528117593,"96":-0.48649870268969053,"97":0.20658626383551276,"98":0.2403618703830054,"99":-0.06636085555005038,"100":-0.35522390828029493,"101":-0.49756434065521704,"102":0.37748866061639674,"103":-0.2923791106211977,"104":-0.5170500358936747,"105":0.296850030984277,"106":0.05576480582148781,"107":-0.46706807699182584,"108":0.07308390161757043,"109":-0.16898785105205957,"110":-0.12375374419076779,"111":-0.30516841949214546,"112":-0.38266564200663766,"113":0.15774948195490274,"114":0.1375527365792369,"115":-0.20379259248208814,"116":-0.9272813786767112,"117":-0.5412609712677638,"118":0.6310315421591016,"119":0.34724034847664675,"120":-0.13005991494380245,"121":-0.5980307913322321,"122":0.25051254364327263,"123":-1.2233516704894452,"124":-0.19775952270381864,"125":-0.5135912781685232,"126":0.19390392942002033,"127":0.06452883230708234,"128":-0.101604321428418,"129":0.1380484325196824,"130":-0.06081927615071621,"131":-0.07228852862582837,"132":-0.4409548286653815,"133":0.3434991948254721,"134":0.11962047888517253,"135":0.41578587186064914,"136":-0.11724296803696017,"137":0.05260976881259487,"138":0.5357840852885398,"139":-0.1764767477967219,"140":0.25900108447422565,"141":0.0864466812094038,"142":-0.2675352497430752,"143":-0.6255728344958325,"144":-0.05096104939960753,"145":-0.11023825554906058,"146":-0.057878566133647634,"147":-0.5135922865737442,"148":-0.4095502828245462,"149":0.15518286628375783,"150":-0.8520415773611417,"151":0.3570738672360296,"152":0.30898566376155273,"153":-0.17624941954204468,"154":-0.2073733777861033,"155":-0.04787344919187229,"156":-0.2266889718567793,"157":0.14619233669040918,"158":-0.22524118901786172,"159":-0.2963146936855248,"160":-0.31218234884023477,"161":0.11743321993699157,"162":-0.445760625127616,"163":-0.005647125944856648,"164":-0.6091028375729238,"165":-0.35378561792596697,"166":-0.3162676296698418,"167":-0.48664417163227436,"168":0.031940670605424305,"169":-0.4913220903109003,"170":0.31002195751102773,"171":0.010680501317717198,"172":0.18274922725975526,"173":-0.3902589233675602,"174":0.10277256264623491,"175":-0.3470930933709134,"176":-0.29777797953697366,"177":0.9095561728215383,"178":-0.36295796480198944,"179":-0.16272651534824237,"180":-0.40209226726581215,"181":-0.43286321231103075,"182":0.15566636897753178,"183":-0.6038025033913444,"184":-0.022703795557797904,"185":-0.42043242924990587,"186":0.31398577654317755,"187":0.2971868036900819,"188":-0.18047061677279452,"189":-0.17636553855885947,"190":-0.1927875539787101,"191":-0.49494495916203246,"192":-0.18324917141055516,"193":0.2337408647792079,"194":-0.5153900446387157,"195":0.3180380777079468,"196":-0.26725507157689526,"197":-0.43283981055042814,"198":0.05923737472907299,"199":-0.05107408068426587,"200":0.2413915731104774,"201":0.029060505355558347,"202":-0.12210513263339416,"203":-0.21268207804041286,"204":0.008690546941617373,"205":0.08478152490147364,"206":-0.6070771838199098,"207":-0.21168231074904945,"208":0.12474117679158181,"209":0.13051342141553468,"210":-0.5052005638194397,"211":0.45004717928699556,"212":-0.2331362316270406,"213":-0.32099866423250856,"214":0.10169128032854138,"215":0.49952017812501665,"216":-0.18184582030088686,"217":-0.19343319168803622,"218":0.3017813173030934,"219":0.6031837687459362,"220":0.600239564317135,"221":0.22328606268811402,"222":-0.14261354323346218,"223":0.035437103681772886,"224":-0.8777650952138688,"225":0.09471189225333224,"226":0.16029302925526867,"227":0.21025255197628387,"228":0.0014002168468033515,"229":-0.21303778634824191,"230":-0.10229156278695638,"231":-0.13749680141106552,"232":0.2403184382108362,"233":-0.5600963769532965,"234":-0.9288654544014747,"235":-0.1278910496588277,"236":0.14304572420430117,"237":-0.2593987954373377,"238":-0.05055809540454836,"239":-1.5315455914956926,