{"layers":[{"out_depth":3,"out_sx":32,"out_sy":32,"layer_type":"input"},{"sx":5,"sy":5,"stride":1,"in_depth":3,"out_depth":16,"out_sx":32,"out_sy":32,"layer_type":"conv","l1_decay_mul":0,"l2_decay_mul":1,"pad":2,"filters":[{"sx":5,"sy":5,"depth":3,"w":{"0":-0.1073781921886271,"1":0.05310949223517684,"2":0.0641602775594005,"3":0.014567520961604415,"4":0.5484075524176443,"5":0.22497205907908754,"6":-0.18228866331322316,"7":0.2590863593849453,"8":0.4011346141077627,"9":-1.3578893573334312,"10":-0.7419706748545125,"11":-0.5758011618522414,"12":-0.6761450198400296,"13":-0.2309741737450095,"14":0.01740763416250932,"15":-0.42553356674849885,"16":-0.4438074372347642,"17":-0.31617172214246314,"18":0.02867115873553823,"19":-0.15700205405176662,"20":-0.4722042335435573,"21":0.29011069740775874,"22":0.5144538335280667,"23":-0.01135809333006808,"24":0.14284914210143723,"25":0.06470193845999958,"26":0.13674647320136837,"27":0.6532691417628701,"28":0.3326271568507072,"29":0.41248733344051386,"30":0.5127893230442068,"31":0.04742767520958552,"32":-0.13176065640113996,"33":0.05097911657511093,"34":0.02231341977629424,"35":-0.17691779084048787,"36":0.2799722690732287,"37":0.580003720791144,"38":-0.12961380540557998,"39":0.22956431519377035,"40":0.14809236936676023,"41":-0.3483998655996972,"42":0.6938541659929843,"43":0.6517149487671845,"44":0.2640127039349054,"45":-0.06530339725115118,"46":-0.14455825561654298,"47":-0.5594480810651481,"48":0.38715025803082137,"49":0.32097119605582397,"50":-0.43438895902152913,"51":0.5903097523602726,"52":0.26969181388857544,"53":-0.2926301793051098,"54":0.43829331415790374,"55":0.49636583169823517,"56":0.009364071909095953,"57":-0.9358858478676624,"58":-0.8280328500207802,"59":-0.9134303851329839,"60":0.05744070819166107,"61":0.329804016710565,"62":-0.032635179186484606,"63":-0.24802333206103652,"64":-0.3668764621811306,"65":-0.48463419958733006,"66":0.2728807349222191,"67":0.3380983658951455,"68":-0.32892111531813195,"69":0.24766499997131625,"70":0.19292642250407835,"71":-0.2847726981978878,"72":-0.3364787618514826,"73":-0.15434272174923874,"74":-0.38186889663021467}},{"sx":5,"sy":5,"depth":3,"w":{"0":-0.13900556558189947,"1":-0.36707934161054295,"2":0.08069202512206115,"3":-0.8570547278902142,"4":-0.2121041095882221,"5":0.310006261660575,"6":-0.903924060765492,"7":-0.14018377386456335,"8":-0.08837623654340508,"9":-0.4645479028710139,"10":0.1445651827335701,"11":0.04656095152835555,"12":-0.7328956644815975,"13":-0.06976990700511436,"14":0.18084091377041664,"15":-0.31833565586981244,"16":-0.13462089619064938,"17":0.18158642811246614,"18":0.02155219904429295,"19":0.009936292522224902,"20":-0.11336592501459263,"21":-0.030103084070669514,"22":-0.13504750350940853,"23":-0.6512360609362662,"24":0.4655092232957791,"25":0.033243189935653804,"26":0.032619486463277406,"27":-0.24424147776177513,"28":0.227288280977336,"29":0.36034619162254367,"30":0.7001496872140134,"31":-0.21819251179636528,"32":-0.029391546527864097,"33":1.2671045255511788,"34":0.5437021524468364,"35":0.4446232607914832,"36":1.0492133638180519,"37":0.49967283906631926,"38":-0.06351141286920388,"39":0.09072501581964089,"40":0.2866681293774962,"41":-0.06291036809488272,"42":0.3186221460425375,"43":0.8167955302672439,"44":0.29999847511421845,"45":0.38017906431205745,"46":-0.2210662996462711,"47":0.12980290399194613,"48":-0.13044885879545898,"49":-0.9090439943947602,"50":-0.26627218162038174,"51":-0.13625880331456086,"52":-1.3854304751694968,"53":-0.7866081470014457,"54":-0.2050482959671509,"55":-0.6073801104222959,"56":-0.31816879785486,"57":0.16550830661167487,"58":-0.19261346239599475,"59":-0.26323169745881186,"60":-0.07689906302067369,"61":-0.18099304717863987,"62":0.10305475069406064,"63":0.37349003293310906,"64":0.01539815591821876,"65":0.054622958919023905,"66":0.655428347228036,"67":0.24245301313147616,"68":0.1150385146103388,"69":0.31357214939864686,"70":-0.0014805644249638187,"71":-0.0603311427250016,"72":-0.13094464746151732,"73":-0.005074801773237486,"74":0.09512165341792567}},{"sx":5,"sy":5,"depth":3,"w":{"0":-0.13860828093117736,"1":0.021593671027618916,"2":-0.2037012079722521,"3":0.18390746725340873,"4":-0.3844483791904161,"5":-0.6653795839899743,"6":-0.03402463222981286,"7":-0.07461622984209491,"8":-0.6697608337230366,"9":-0.2801324752913989,"10":-0.023714011996946817,"11":-0.4202121513039112,"12":0.16329958566162933,"13":0.5289887176957592,"14":0.22045092965601168,"15":-0.09748802280685669,"16":0.44360822439906,"17":-0.06697281717023608,"18":-0.022018279596167572,"19":-0.06381336573384136,"20":-0.6361144977355321,"21":0.1673172736476139,"22":0.07994694076513154,"23":-0.4926653980530893,"24":-0.005289680596999,"25":0.3063729734223604,"26":-0.0884542309340406,"27":-0.2544935424910293,"28":-0.07127242336752616,"29":-0.4863465981185902,"30":0.011732241650673991,"31":0.010147991294413555,"32":0.10489430624812572,"33":-0.1192714763886531,"34":0.21968881213329694,"35":0.17054864729951255,"36":0.013158261990320792,"37":0.05289673148122447,"38":-0.4381595724296322,"39":0.07764164389955634,"40":0.06562476238337162,"41":-0.2949373941060987,"42":0.03935754023764275,"43":-0.07138541015819116,"44":-0.03431166341711367,"45":-0.12885386447475083,"46":0.21908726963440053,"47":0.1417050518346904,"48":-0.0704962718756517,"49":0.6431190681221556,"50":0.5108964449045845,"51":0.06496579364183956,"52":0.5883241609564946,"53":0.1372882097735981,"54":-0.025941797656768205,"55":-0.02572339043295641,"56":0.33756750396114243,"57":0.3350645213322236,"58":-0.03141518320172782,"59":0.2635541542825091,"60":-0.2594545616152071,"61":0.5771604087250657,"62":0.24051462457182174,"63":-0.29091899023559387,"64":0.586982356958657,"65":0.5394285846100211,"66":0.0396906093986218,"67":0.19239047440199183,"68":0.42482478965908893,"69":0.046158778239690584,"70":0.062334208959570404,"71":0.22549970576865117,"72":-0.262677897142538,"73":-0.3914251028268871,"74":-0.5576476826816239}},{"sx":5,"sy":5,"depth":3,"w":{"0":-0.2774063492625874,"1":-0.12432088790793075,"2":-0.1312310643037902,"3":-0.6314879684911379,"4":-0.17086160782380408,"5":0.026983157812108582,"6":0.030361587870510243,"7":0.4195768098061248,"8":0.6866107763146698,"9":-0.6768008297019777,"10":-0.21768641814086745,"11":0.21452617555601214,"12":-0.40008172348447724,"13":0.0006812985207823651,"14":0.3825549399895456,"15":0.29587865453152895,"16":0.8326623196993109,"17":1.0200581686050756,"18":-0.23074167072515642,"19":0.14704020620916064,"20":0.3257954286323502,"21":-0.04204968216231133,"22":0.5773711645861334,"23":0.6652980247074269,"24":-0.2674151680314669,"25":-0.06817624274305735,"26":0.08748848819813174,"27":-0.34945901718688793,"28":0.04679113154668555,"29":-0.07619828274110145,"30":-0.1471870507960155,"31":0.44722215076882466,"32":0.38287614887504917,"33":-0.14507288839635893,"34":0.17802441850194753,"35":0.18986752453683522,"36":-0.42362719962114215,"37":0.10135281507641114,"38":0.2600701824015315,"39":-0.32941778244574826,"40":0.11367379069277009,"41":0.18494096563143836,"42":0.014738438455663395,"43":0.26785773071253166,"44":0.3975045273167314,"45":-0.16347803018652704,"46":0.18146570162096626,"47":0.1950826509183631,"48":-0.9225783738853479,"49":-0.3592463545556677,"50":-0.2427898179791589,"51":-0.32273749763053455,"52":-0.05901929367190455,"53":-0.13110024009329108,"54":-0.15965078154825438,"55":-0.3435022572164751,"56":-0.03483570072535963,"57":-0.07879196833566386,"58":-0.4063805055705493,"59":-0.14357765086845134,"60":-0.1310682179088003,"61":0.06116826106848135,"62":-0.021528083490825096,"63":-0.03533210800032211,"64":0.011237174566001248,"65":-0.20599908405173242,"66":-0.01727128705414324,"67":0.0445919436834154,"68":-0.16221288693136648,"69":0.26390114572016504,"70":-0.16721726751553762,"71":-0.05273993864420725,"72":0.37283818352673387,"73":0.0652714571044543,"74":0.17565711318115665}},{"sx":5,"sy":5,"depth":3,"w":{"0":0.00692182623184991,"1":-0.20069313092285276,"2":0.12407373066227347,"3":-0.11676278979225505,"4":-0.550434873504386,"5":-0.4503878223775344,"6":0.3801877659299118,"7":-0.07309020100399052,"8":-0.23762423466724478,"9":-0.11523159396951595,"10":-0.6415331938101503,"11":-0.5471882305245548,"12":0.6385964397798719,"13":0.513290616142233,"14":0.14976657769538002,"15":0.26525248818184116,"16":0.44723922626781637,"17":0.19827961461243523,"18":0.6113706840845607,"19":0.7449877077923241,"20":0.3572544631804432,"21":0.842295522675006,"22":0.17729769429740877,"23":-0.19823478966628455,"24":0.43851069806540344,"25":-0.5091371042689367,"26":-1.0057465922362618,"27":0.3303387194651829,"28":0.24790180618578794,"29":-0.44136527751123367,"30":-0.5286181087392325,"31":0.18849566490526487,"32":0.20872371621133132,"33":-0.6384644566925115,"34":-0.16049854521071655,"35":-0.2703225479446418,"36":0.30409036883341595,"37":0.591876102257129,"38":-0.25714365342300527,"39":0.546354027938796,"40":-0.22703858273195018,"41":-0.4787738738780048,"42":-0.012045284822941255,"43":-0.06449464203887785,"44":-0.4986306139547262,"45":-1.0621018132482134,"46":0.16749854407916923,"47":0.5099171486542105,"48":-0.43826078424447096,"49":0.38546074147857956,"50":-0.08787647440609,"51":-0.1295727980035738,"52":0.6030687222187441,"53":-0.49620264297221217,"54":0.13485154157730297,"55":0.03344578473174958,"56":-0.649696608800609,"57":0.10024755493857206,"58":0.2624994226325251,"59":-0.11344772310942425,"60":-0.3264448747093692,"61":0.5572458302915771,"62":0.6296858408873408,"63":-0.5343358749811213,"64":0.12306334388830906,"65":0.13616950576586645,"66":-0.43928749712534915,"67":0.2457410823416484,"68":-0.04731952143212534,"69":-0.16645843492431647,"70":0.17902873856580714,"71":-0.02885820260476674,"72":-0.03580353000625281,"73":0.5394159033854636,"74":-0.0006061547570698493}},{"sx":5,"sy":5,"depth":3,"w":{"0":-0.500823685562242,"1":0.41848284791484197,"2":0.39231877837253065,"3":-0.11228228547119372,"4":0.19237557723458582,"5":-0.3627078783692315,"6":0.03703375619327016,"7":-0.1903808173854882,"8":-0.3279526730241567,"9":0.2266947558573817,"10":0.34186973779476937,"11":0.29278709305096234,"12":0.27617682139209465,"13":0.40637037820888455,"14":0.25710328585968284,"15":-0.38638286552305134,"16":0.3334845102763401,"17":0.4951430257091396,"18":-0.08037821549489285,"19":0.4319968678793347,"20":0.31302672310892543,"21":-0.00434847878329649,"22":0.1367959558361264,"23":0.20596832077862032,"24":0.17978968862489167,"25":0.5298816548756193,"26":0.3282254795770332,"27":-0.09910305826821778,"28":-0.016789712038186636,"29":0.05011175751900792,"30":-0.6693844201563266,"31":-0.5560779022989706,"32":-0.09110568258091939,"33":-0.5790957628820171,"34":-0.3985757718363705,"35":-0.4699560078068585,"36":-0.9220632777036507,"37":-0.30373523960390386,"38":-0.2575757477907289,"39":-0.897120139698106,"40":-0.7903709565942897,"41":-0.442385394960482,"42":-0.5614539286226392,"43":-0.3528445887095169,"44":-0.23785605004233154,"45":0.370839452379504,"46":0.44384043617557395,"47":0.44228939279710927,"48":0.513177241717825,"49":0.6571568345777726,"50":0.19569298649560474,"51":-0.25067626168651824,"52":0.08159132471820146,"53":0.25091755284469963,"54":-0.05997340740460048,"55":0.052352156574607234,"56":0.5497274190434963,"57":-0.14279763688993738,"58":-0.4754363777471686,"59":-0.21471134903513422,"60":0.059288860257673846,"61":-0.167330981986412,"62":0.1147283793427078,"63":0.07060029889638544,"64":0.22573492874358997,"65":0.1444010814713509,"66":-0.06816703807808813,"67":0.08957530413844178,"68":0.28831137928253486,"69":0.10570638351519428,"70":0.06667300975443054,"71":0.5364790375836028,"72":-0.10197789610720695,"73":-0.375440592435974,"74":-0.19860734542045358}},{"sx":5,"sy":5,"depth":3,"w":{"0":-0.792010129845019,"1":-0.7590884609390026,"2":-0.3255920254889531,"3":-0.2288717909262619,"4":-0.4497933622172127,"5":-0.2821628994022769,"6":-0.3758357371786223,"7":-0.01424188986609272,"8":-0.2216823162932619,"9":-0.09165486919367086,"10":0.025052714474880118,"11":0.3893700992592629,"12":-0.2711952003168327,"13":0.03366777169045067,"14":0.35701579019233853,"15":-0.06922798804445196,"16":-0.06428163708044146,"17":-0.027772221164634143,"18":0.27923105164792583,"19":0.10840728424160002,"20":0.24386707901906154,"21":0.24416601633487092,"22":0.36677420011607886,"23":0.3082161629546465,"24":0.02832266121219487,"25":0.10251174525730238,"26":0.32537161130298714,"27":-0.3849481316072132,"28":-0.4413687706772726,"29":-0.04905929477413106,"30":-0.08716595449833926,"31":-0.004631604682717319,"32":-0.29743772606636765,"33":0.21975445916665942,"34":0.14595068173142328,"35":0.15449277597930436,"36":0.006256694072395687,"37":0.2475458630169758,"38":0.07691644942382816,"39":0.11102122897844179,"40":0.15909584076761923,"41":0.1829541084246082,"42":-0.4544357706075884,"43":-0.3643527235178397,"44":-0.20143938318158483,"45":-0.4134265735750828,"46":-0.10065797279273042,"47":0.16360706139923603,"48":-0.25738993091678697,"49":0.2200761097611171,"50":0.26172479737543214,"51":-0.45863648599130585,"52":0.20921639891109028,"53":0.18139369429726107,"54":-0.012287157926536516,"55":0.4099576941634222,"56":0.8662537048752552,"57":-0.5720722405178215,"58":-0.31352137286708737,"59":0.15395219404290061,"60":-0.2034191129993942,"61":0.0005977462408510458,"62":0.3544388935295938,"63":-0.2930022466819438,"64":0.27122171299325726,"65":0.37263392357138264,"66":-0.14542783300697784,"67":0.3685895767831305,"68":0.3874504554559272,"69":0.16199127553810888,"70":0.5144569685051634,"71":0.5830006218378696,"72":-0.02527538808007032,"73":-0.469473580274882,"74":-0.06563326903134456}},{"sx":5,"sy":5,"depth":3,"w":{"0":-0.2009398944850352,"1":-0.30624749106999555,"2":-0.2787923110105339,"3":0.4171258229141988,"4":-0.07626054203462707,"5":0.048273384183795585,"6":0.26203946797252187,"7":0.1553545417582066,"8":-0.21683539549072103,"9":-0.02553223788663847,"10":0.28457286859946834,"11":-0.0393354295361447,"12":0.1105564254197628,"13":0.32032651484507224,"14":0.04167066003263163,"15":0.08656239872106421,"16":0.05013798179080102,"17":0.18003078338068024,"18":0.07138402233420431,"19":0.266738646526528,"20":0.316470206071774,"21":-0.3213512255828024,"22":-0.06660237816727213,"23":-0.45324129153824294,"24":-0.35004093154990984,"25":0.05766710909686013,"26":-0.2815349249544048,"27":-0.626002153199418,"28":-0.1492450076954119,"29":0.0685182325549853,"30":0.07759714154989637,"31":-0.027135518036306913,"32":0.06402513321560907,"33":0.20841348856469577,"34":0.40372915830341494,"35":0.1918114687036338,"36":-0.3752099052686969,"37":-0.04364229564220358,"38":-0.01321434812377571,"39":-0.1666511424195752,"40":0.611734158126254,"41":0.510896198446275,"42":-1.1184824530803665,"43":-0.39884915542334126,"44":-0.1658626163596695,"45":-0.11055626038970665,"46":0.1865849851344867,"47":0.05849722457211621,"48":-0.06433786422115803,"49":-0.11459280276101251,"50":-0.22853691830832024,"51":-0.4835069478245109,"52":-0.20998737612932525,"53":-0.2662438444028259,"54":0.12181712397566762,"55":0.6982562691070178,"56":0.5787265644221041,"57":-0.3297532033785687,"58":-0.10481481283188687,"59":-0.0985815091586626,"60":-0.2290813814102088,"61":0.02084166530377449,"62":0.3205292267270438,"63":0.23141720923210396,"64":0.09651333746744638,"65":0.13848023312752833,"66":-0.6802864373369351,"67":-0.37463193113058385,"68":-0.5091940016939536,"69":0.2519016667874614,"70":0.3040206487169927,"71":0.4764155611070937,"72":-0.13729780558579247,"73":0.04120037946580473,"74":-0.12704402363197145}},{"sx":5,"sy":5,"depth":3,"w":{"0":0.6143754948312629,"1":0.4825335845040149,"2":0.3282222388453836,"3":0.3031956835434352,"4":0.39335783715087724,"5":0.4231871794771876,"6":-0.502774964795378,"7":-0.9054289594765244,"8":-0.4918212801494848,"9":-0.16272449432378908,"10":0.09669382015580733,"11":-0.03872878915666366,"12":0.11827678304532281,"13":0.6148121437819629,"14":0.6175399851356981,"15":0.04888627819026299,"16":0.10556880427078176,"17":-0.0366653984587367,"18":-0.023652727318707358,"19":-0.04359794330330916,"20":0.18769500777420844,"21":-0.6247476907953481,"22":-0.9272186355670016,"23":-0.4866202052443384,"24":-0.24076307317552922,"25":0.11563033167936489,"26":0.18397611759669338,"27":0.17823902210188244,"28":0.6427007757571475,"29":0.7770953442325251,"30":-0.25515996608789143,"31":-0.33898373147740013,"32":-0.22266181988888825,"33":-0.21624414372557535,"34":-0.07305812196688583,"35":0.31699708048782055,"36":-0.2399999244103544,"37":-0.09209476057825842,"38":-0.21607936836338193,"39":-0.31399652395663347,"40":-0.08509615661452496,"41":0.213312242153987,"42":-0.40567792572142297,"43":0.0678511840501169,"44":0.25125551559133225,"45":-0.5794922254632675,"46":-0.5577774756526177,"47":-0.26711317534598206,"48":-0.07206417467000481,"49":0.3151181810969799,"50":0.6702486449208459,"51":-0.6401075928029352,"52":-0.22927152149292515,"53":-0.1385347851068853,"54":-0.285475144975976,"55":0.10820950196607726,"56":0.2752872178403351,"57":-0.11055441892939201,"58":0.21985917262191457,"59":0.45856769656648044,"60":0.11655001881002282,"61":0.08670656799835158,"62":-0.22803980528261206,"63":0.3162033476575886,"64":0.6345194831082231,"65":0.42933717096042456,"66":-0.2087340799945212,"67":-0.023461717019457717,"68":-0.09723235746942312,"69":-0.28980736091297343,"70":0.28364222830471286,"71":0.2249137237804205,"72":-0.1754737167433556,"73":0.6124375757229821,"74":0.15944359020789053}},{"sx":5,"sy":5,"depth":3,"w":{"0":-0.8527566752454291,"1":-0.1761715065116239,"2":0.1755000433400094,"3":-0.6168123085645792,"4":-0.228672161059571,"5":-0.38289051254567613,"6":-0.49970915402541083,"7":0.5573747218377157,"8":0.23662217193020815,"9":0.07852936680513037,"10":0.8583942044906916,"11":0.5520075238512336,"12":-0.17577904312301124,"13":0.6350785005595571,"14":-0.17084993460830242,"15":0.24182297053427126,"16":0.6613533369734532,"17":0.8262177319626645,"18":0.07069858667999743,"19":0.7540871682150703,"20":0.3166450076269884,"21":-0.18618114736140343,"22":0.616034557188632,"23":0.08199547908111289,"24":-0.2535604677054086,"25":0.5181506949741806,"26":0.32169772939590485,"27":-0.5243668013464972,"28":0.321511673126022,"29":-0.13318936463772693,"30":-0.31889547012919367,"31":-0.01302546072868542,"32":-0.022331611542672117,"33":-0.38566503694323034,"34":0.015962644396180958,"35":-0.4241230900932713,"36":0.02261940556637211,"37":0.027067740812426674,"38":-0.5534432032988611,"39":-0.06005227404829541,"40":0.22368808082001224,"41":-0.1752560783962831,"42":-0.9048127260993769,"43":-0.4110151224114499,"44":-0.8937246936234452,"45":-0.5377381377171767,"46":-0.29926413626048864,"47":-0.6036142571276132,"48":0.07783347670600492,"49":0.12645006538710854,"50":-0.17264827212161843,"51":0.3392616977030157,"52":0.6987666360444504,"53":-0.019305249969608314,"54":-0.14042526132422736,"55":0.268643328686541,"56":-0.1656306254585126,"57":-0.2214748480900739,"58":0.10411412982711162,"59":-0.4918307822504732,"60":-0.22879682723750064,"61":0.04240678879094653,"62":0.07987427438731826,"63":0.5802811079720742,"64":0.7616424317706862,"65":0.22809053388464068,"66":0.104820285223302,"67":0.23953912472288344,"68":-0.20532764829521444,"69":-0.8236530159704194,"70":-0.22221026870703947,"71":-0.41822171428350563,"72":0.6144319979387542,"73":0.742713829576161,"74":0.25530765082125984}},{"sx":5,"sy":5,"depth":3,"w":{"0":-0.30450008111255644,"1":0.2729595352586692,"2":0.017069377202961877,"3":-0.20638972694577978,"4":0.22406485456290198,"5":-0.28459203216637147,"6":-0.5041626853135983,"7":-0.05531511658734708,"8":-0.024886112506959417,"9":-0.4613158950932615,"10":-0.08946557471890755,"11":-0.4721598620061651,"12":-0.8019046531148657,"13":-0.2705135492595039,"14":-0.12657883187523297,"15":-0.4325844791216576,"16":-0.3475328584314075,"17":-0.5516133031792126,"18":-0.10919236601618866,"19":0.12008904325752924,"20":-0.271903568877851,"21":-0.11998082613503104,"22":0.08206407873316171,"23":0.03358717554412777,"24":0.020667423878686742,"25":0.28045716919511054,"26":0.31755654489365576,"27":0.025160254933739096,"28":0.022454620922519326,"29":0.059680969555104886,"30":0.11627271579000985,"31":0.20409365882690486,"32":-0.08571701318915001,"33":0.12151849274243748,"34":0.4938661824362061,"35":-0.018575248384308636,"36":0.31380092365561285,"37":0.3412264912158318,"38":-0.2983715464094866,"39":0.1259144702812625,"40":0.1784576761218298,"41":-0.07833798377763439,"42":0.05651350858121191,"43":-0.17245201559582937,"44":-0.5276020803391197,"45":-0.4593391654274454,"46":-0.12852674742734396,"47":-0.18262815335074664,"48":0.28273020247651603,"49":0.6162812977891035,"50":0.019697070061663078,"51":0.6276404035707713,"52":0.6844642165718906,"53":0.5609705439118865,"54":0.45370514864119094,"55":0.7384176395170654,"56":0.14191494255578685,"57":0.17037025566951206,"58":0.24668756638983763,"59":0.0909283390723409,"60":-0.37506896351204516,"61":0.055013176809090354,"62":-0.14558017565363043,"63":-0.7746734821651166,"64":-0.44167484243307686,"65":-0.730177569080942,"66":-0.48814895152786697,"67":-0.36657630013502307,"68":-0.5165245574240932,"69":-0.2762757934939179,"70":0.1074891907373445,"71":0.0754904769980704,"72":-0.11906301993188144,"73":-0.062492291988197765,"74":-0.16426177383537577}},{"sx":5,"sy":5,"depth":3,"w":{"0":-0.11841557139572202,"1":0.1570900133264608,"2":0.027550905296612565,"3":-0.026569319845233606,"4":0.3907954505432551,"5":0.5899484111148084,"6":-0.40781579520396677,"7":0.42347574947707006,"8":0.3530255154064989,"9":-0.16831332395592882,"10":0.626207938033472,"11":-0.14665812566793612,"12":-0.01036194013741826,"13":0.35822691261462436,"14":0.13898453834174956,"15":0.1827978975245774,"16":0.1362281267932501,"17":-0.3164624078033578,"18":0.2887357086732817,"19":0.2712625454573028,"20":0.1234429651452295,"21":-0.08025716566473676,"22":0.06199595043647094,"23":-0.27179060426569723,"24":0.05729831447475864,"25":0.5546744028715536,"26":0.11144495105781971,"27":-0.5043198752124897,"28":0.1138107149579919,"29":-0.22485301293927895,"30":0.2909436581433669,"31":0.06710916170569263,"32":-0.14057627832803135,"33":0.3394953485807299,"34":-0.008257890116320832,"35":-0.2407510706497523,"36":0.1951671116441268,"37":-0.01362167683210268,"38":-0.04456195894931754,"39":0.057675378665384004,"40":-0.011518662412670511,"41":-0.47217685663117276,"42":-0.47062398627674573,"43":-0.08535392250602825,"44":-0.6707613834945815,"45":-0.07668874932755575,"46":0.030174997111129868,"47":-0.434334144789512,"48":-0.03956254613244123,"49":-0.10415795288416507,"50":-0.39010427230286976,"51":-0.18069560875186425,"52":0.05832454856752582,"53":-0.3361496578248859,"54":-0.5143810761105899,"55":-0.5529801275046022,"56":-0.8860859022039418,"57":-0.2922641804313023,"58":-0.09998527316018423,"59":-0.41406267249799894,"60":-0.006967410199033601,"61":0.06902340438305406,"62":-0.1585810041351567,"63":0.27700384341368783,"64":0.17697131716654374,"65":-0.015777606177961145,"66":0.12596475751142638,"67":0.33952988643953685,"68":0.12098479385305978,"69":-0.3760709471695417,"70":-0.4913634868949397,"71":-0.616281088732023,"72":0.5244005807335992,"73":0.5146072819730168,"74":0.03784733655132235}},{"sx":5,"sy":5,"depth":3,"w":{"0":0.03716427376325518,"1":0.19142132180163327,"2":0.6445943787546004,"3":0.36011499882971665,"4":0.13546163465690828,"5":0.5002832574078184,"6":-0.11356739885443423,"7":-0.32481828608990837,"8":0.006370288614281323,"9":-0.23437141980072212,"10":-0.5386076599087444,"11":-0.022107517977154868,"12":-0.14722256947813006,"13":-0.48302370806524586,"14":-0.22846666386590356,"15":-0.17426785603472145,"16":-0.0912146974541405,"17":0.3652790913763282,"18":-0.1386181792763017,"19":-0.1929925315903333,"20":0.4545224512445396,"21":0.23982309046405842,"22":-0.3307295890459637,"23":0.2564202428429112,"24":-0.0039023686680101652,"25":-0.2763903275440927,"26":0.07171053519661735,"27":0.04172634681679128,"28":-0.28153805274803306,"29":0.08063325163242328,"30":-0.2527592501915962,"31":-0.38919065984271406,"32":0.2992708654810242,"33":-0.35292947368283506,"34":-0.4866811344301179,"35":0.14735363134213106,"36":0.14195266863183095,"37":-0.12942794814675607,"38":0.4063062058562419,"39":0.5496755765273796,"40":-0.0445346089999261,"41":0.2813714907919464,"42":-0.017613847266121387,"43":-0.002495429210526648,"44":0.3445017500896205,"45":0.4002383718185183,"46":0.38222408379433837,"47":0.42807379780215954,"48":-0.5718698230998843,"49":-0.6562928055334711,"50":0.01899084710242544,"51":-0.026652405421589885,"52":-0.5611661028683381,"53":-0.05183191531072932,"54":0.35905827268678814,"55":-0.11464615762533112,"56":0.35746970686669527,"57":-0.3021422994747278,"58":-0.25187648838629856,"59":0.21402887074143037,"60":0.29474418720621076,"61":0.5134078242495439,"62":0.8462717233168751,"63":-0.1527712258872652,"64":-0.30867363974835316,"65":0.1948301346877694,"66":0.30795144047067263,"67":-0.40059245008297273,"68":0.2645526184593943,"69":0.13886951269818676,"70":-0.5300970575821276,"71":-0.14031333416347938,"72":0.0009209590386736916,"73":-0.3581854930552694,"74":0.06516191413271316}},{"sx":5,"sy":5,"depth":3,"w":{"0":-0.6048754765762988,"1":-0.49367074016472917,"2":-0.08420069672985232,"3":-0.49016455141259124,"4":0.24191968996248225,"5":0.08044151041068924,"6":-0.7734499197799369,"7":-0.00676760282818797,"8":-0.23935408220715024,"9":0.09881120392232429,"10":0.8761702595495847,"11":0.5372412170905465,"12":-0.438364804502876,"13":0.14860558116733136,"14":-0.05144940522430323,"15":-0.521518243929241,"16":0.12771327424486,"17":0.12152902031514388,"18":-0.3335806521885545,"19":0.2886342230818748,"20":0.01554133345898308,"21":0.15050154914654626,"22":0.6060724495374443,"23":0.32567509290809116,"24":0.2289601966767759,"25":0.9169981496224058,"26":0.6197679856343786,"27":-0.2555112552918169,"28":-0.30417015623675414,"29":-0.9055351473683236,"30":0.21858014997055397,"31":0.5154582907475824,"32":0.38854142613409376,"33":-0.06627580883227875,"34":0.4261237865061584,"35":0.09742280378271118,"36":-0.1356911119916269,"37":-0.06936468286274308,"38":-0.6671818572719569,"39":0.33656245194040596,"40":0.6011857798354592,"41":-0.013732540752535547,"42":-0.5362545286272599,"43":-0.38976635490653905,"44":-0.6703086104368554,"45":0.14000937383980983,"46":0.3618702577307365,"47":0.1985117361347855,"48":-0.2620559567328292,"49":-0.34326902343488136,"50":-0.7762388681912058,"51":-0.6455120713702514,"52":-0.08437019140193203,"53":-0.9429550699161882,"54":0.5310915942178814,"55":0.6964340246095231,"56":-0.022330956285637773,"57":0.32012131297719254,"58":0.22140347511606906,"59":-0.3790395014479387,"60":0.1964887930816564,"61":0.48333130743681474,"62":0.6382467695008377,"63":0.4332137744478285,"64":0.5019491928340227,"65":-0.23728194553320175,"66":-0.6488231554613321,"67":-0.3420796395240339,"68":-0.32590102299076806,"69":0.27071730383385734,"70":0.15355892608864613,"71":-0.21267710165736708,"72":0.4847074051091859,"73":-0.0003753177488785667,"74":0.19247311591777996}},{"sx":5,"sy":5,"depth":3,"w":{"0":0.14813283602379704,"1":-0.1342687872636195,"2":0.09143317957256478,"3":0.00487558802251232,"4":-0.452812171748641,"5":-0.08384600787815318,"6":0.8242016978127716,"7":0.04026555153691173,"8":0.15886145389426579,"9":0.3399597840528346,"10":-0.13988805370603835,"11":0.07692193976048935,"12":0.14046080701136848,"13":-0.5121983080582806,"14":0.018240238596672217,"15":-0.00886334751972344,"16":0.09049481304466289,"17":0.3249701874989764,"18":-0.030105569187431822,"19":-0.09599509087678709,"20":0.2538782006060746,"21":-0.16780070719031706,"22":-0.33917010733369224,"23":0.15436138813587558,"24":-0.1647836209172681,"25":-0.7232569928241519,"26":0.1658783169320835,"27":-0.18163635682492507,"28":-0.38151741976815906,"29":0.09181137976823245,"30":0.660238079276735,"31":0.30691391813961916,"32":0.2848001738197788,"33":-0.0594892656373589,"34":0.09342747485067121,"35":0.2052668662726768,"36":-0.6623996270837523,"37":-0.309699081436899,"38":0.06047866839185939,"39":-0.8109625761035091,"40":-0.6184321490117338,"41":-0.02259286837492413,"42":-0.5558727031867696,"43":-0.6360726956889686,"44":-0.084543434603956,"45":0.18445981947973636,"46":0.18234307268916455,"47":0.10379490746283887,"48":-0.1264136693705058,"49":-0.14455767236766728,"50":-0.09397112031668614,"51":-0.43504534722734683,"52":-0.23619750100064282,"53":0.11201506248070173,"54":-0.13491492819544176,"55":-0.09830496076362712,"56":0.40754232737897655,"57":0.35603822221398645,"58":0.19243829413794902,"59":0.2823657315816992,"60":-0.3573579873688476,"61":-0.7257386840646965,"62":0.12897086589499793,"63":0.03352226449583905,"64":-0.32531539926215386,"65":0.3223176967704548,"66":0.0057188633867410995,"67":-0.14521284162102727,"68":0.00032812270244427915,"69":0.03979732423647445,"70":0.1466531710185111,"71":0.37319831777206536,"72":0.5981551204239716,"73":0.16055898485611608,"74":0.1382638877079064}},{"sx":5,"sy":5,"depth":3,"w":{"0":-0.04606080696448199,"1":-0.2797830427022255,"2":-0.1557806137576178,"3":-0.2785018999127894,"4":-0.2658144469353363,"5":-0.6676084780604431,"6":0.11319998731527524,"7":-0.48358399647412315,"8":-0.46195424633467314,"9":0.1936278397316354,"10":0.12207400489518407,"11":-0.1206221073671289,"12":0.18405195757469905,"13":0.32783693307927264,"14":0.7033732562287318,"15":0.6083898552331755,"16":0.30105614478137294,"17":0.22043820217858232,"18":0.16835410390976965,"19":0.003846807945869379,"20":-0.10395693080372675,"21":0.2646664391402423,"22":-0.5353208043015298,"23":-0.5416047632519739,"24":-0.033888523253348,"25":-0.1614536558944209,"26":-0.5455448814153672,"27":0.000054140027326484005,"28":0.2594159763559858,"29":0.2880593474056047,"30":0.43608922361644686,"31":0.1293301129943355,"32":0.2101006313839065,"33":0.4102941835710873,"34":0.00779072999587116,"35":0.04071199894381072,"36":0.18156259107506612,"37":0.21812558520875203,"38":-0.26308539444617807,"39":0.023336135997511595,"40":-0.35189462100989827,"41":-0.4332153278962782,"42":0.03149030564710604,"43":0.003841501542363996,"44":0.011952064036964931,"45":0.01660728459916773,"46":0.029265660764790886,"47":-0.04439588576433917,"48":-0.38312461340867165,"49":-0.37199491493313225,"50":-0.4634585442102491,"51":0.053031706568044484,"52":0.018915769012974013,"53":0.0886978917501361,"54":-0.007876560119464714,"55":-0.2343557943029779,"56":-0.22785609058608922,"57":-0.1791671688676202,"58":-0.2628709130160928,"59":-0.32071493969052145,"60":-0.2732139451472453,"61":-0.08432569707296382,"62":0.18141970877657504,"63":-0.17573332845767134,"64":-0.22884439279278934,"65":-0.24140159200081485,"66":-0.04322025554918919,"67":0.03888780681797289,"68":0.030851487865379144,"69":0.17370931465184417,"70":0.3828296404310005,"71":0.43653242264268877,"72":0.3715852690057332,"73":0.07349645947710436,"74":0.6634067343832251}}],"biases":{"sx":1,"sy":1,"depth":16,"w":{"0":-1.3664490651312036,"1":-0.9269423592323518,"2":-0.46882117003917595,"3":-0.09539973802973896,"4":-0.9576076992899185,"5":-1.024773628089025,"6":-1.22366936023197,"7":0.07726660669338639,"8":-1.0556799484686428,"9":-1.0390348957244602,"10":-1.2415008301799628,"11":-0.3480326803431837,"12":-1.2530144707152941,"13":-0.8549775364251482,"14":-0.5444897758792745,"15":-0.6273182509418109}}},{"out_depth":16,"out_sx":32,"out_sy":32,"layer_type":"relu"},{"sx":2,"sy":2,"stride":2,"in_depth":16,"out_depth":16,"out_sx":16,"out_sy":16,"layer_type":"pool","pad":0},{"sx":5,"sy":5,"stride":1,"in_depth":16,"out_depth":20,"out_sx":16,"out_sy":16,"layer_type":"conv","l1_decay_mul":0,"l2_decay_mul":1,"pad":2,"filters":[{"sx":5,"sy":5,"depth":16,"w":{"0":0.6013699911161745,"1":-0.04231449859464099,"2":-0.08155739122325646,"3":0.6372335558564807,"4":-0.284068423259291,"5":0.1801434645121559,"6":-0.3853920939447742,"7":0.9430129947202829,"8":0.1396227189709687,"9":0.2733580799133585,"10":0.35524244834711033,"11":-0.116616253559283,"12":0.028692308331086866,"13":-0.2562667547634229,"14":0.29503440132694836,"15":-0.24427275701533718,"16":-0.06644171383498716,"17":0.023752787315772465,"18":-0.17424259366536896,"19":-0.20011470204276083,"20":-0.18384586333495453,"21":0.4247335788410626,"22":0.26510570514803683,"23":-0.8479254868327449,"24":-0.001176411822907619,"25":0.6650870865500093,"26":-0.07131923275694299,"27":-0.37378765101958045,"28":0.030784503236022977,"29":-0.4110848703310186,"30":-0.4925476853101384,"31":-0.207960652712937,"32":-0.3052013929132003,"33":0.35853898628546566,"34":-0.4764781818061081,"35":-0.5772320302366467,"36":0.277495735603973,"37":0.4198523539189465,"38":0.3046149877674329,"39":-0.5032715447364624,"40":-0.712709334603389,"41":-0.23027652471101093,"42":0.04715738011239515,"43":-0.3937129907275557,"44":-0.19518653087717988,"45":-0.26758285690555317,"46":-0.36748995883675056,"47":-0.12087072087023179,"48":-0.14470380457488716,"49":-0.020926789353610288,"50":-0.5020638671299724,"51":-0.32289171491912383,"52":-0.4982206161112243,"53":0.18672170034143265,"54":-0.19153386935572464,"55":-0.3344202535916009,"56":-0.6599924660400643,"57":-0.2130646967600294,"58":-0.20149981926071853,"59":-0.20063763771695406,"60":-0.059361616830563804,"61":-0.7653548427586533,"62":-0.42559129211767155,"63":0.027818717553679814,"64":0.21895950516645002,"65":-0.42781476941291585,"66":-0.5380184174746448,"67":-0.23805344890395985,"68":-0.6614270807283301,"69":0.16603269993464453,"70":0.09383585837276809,"71":-0.12478901156636937,"72":-0.7740254857403869,"73":0.22185238777037652,"74":-0.298398795056772,"75":-0.09044427254524869,"76":-0.3625051409875106,"77":0.2159951211378281,"78":0.42497769330667917,"79":0.46427915930930175,"80":0.6138496366213473,"81":-0.026336136475796027,"82":-0.14421164174775142,"83":0.5422834663262995,"84":-0.18191794340964432,"85":-0.04820279397963719,"86":-0.12476008300911187,"87":0.2779574660514561,"88":0.17064555934726483,"89":0.13357229800152867,"90":-0.11798549011596964,"91":-0.62022235714618,"92":-0.12316280351094189,"93":0.2914622880109927,"94":0.11915693078950292,"95":-0.10247788601868967,"96":-0.24083468354259982,"97":-0.22985260821124112,"98":0.012781070580602757,"99":-0.12088967922181304,"100":0.3720262874157136,"101":-0.7497565295806465,"102":0.2132275992062755,"103":-1.0234623012723587,"104":-0.05610056786194161,"105":0.45337597703465293,"106":0.10820441966925669,"107":0.3854756609927568,"108":-0.038661033357407185,"109":-0.3607466781861174,"110":-0.6541174401792059,"111":-0.6118463430026773,"112":-0.003180656471412395,"113":-0.3463872633699055,"114":-0.04912629419228969,"115":0.05221642620479932,"116":-0.31600508813305284,"117":0.1718281305943279,"118":-0.08781108589289467,"119":-0.2624875653415451,"120":-0.1433784659531611,"121":-0.506243499317492,"122":-0.20818910697084017,"123":0.31718161576320864,"124":-0.06032408636608812,"125":-0.31438669909067607,"126":-0.07414362341771619,"127":-0.5238817629533395,"128":0.29690380332884725,"129":0.18337868464279589,"130":0.17570728511467776,"131":0.438582095801241,"132":-0.17682485089544275,"133":-0.1523169250549543,"134":-0.12119201197081857,"135":-0.047240400039720326,"136":-0.19510338459615015,"137":-0.21255817847174927,"138":-0.2262013117714557,"139":-0.7683402581185014,"140":-0.3275314439868414,"141":-0.45720052298204433,"142":-0.24757933348040517,"143":-0.22090675509984753,"144":0.13825553699819138,"145":0.7421826311610762,"146":0.038366232571613604,"147":-0.27529060644271414,"148":0.16936088972907645,"149":-0.16823187899247563,"150":-0.2453221374042171,"151":-0.36539620084902463,"152":-0.7125171241944885,"153":-0.1014682662171302,"154":0.04847685246110753,"155":-0.2132849789258292,"156":-0.16098662167241948,"157":0.12834749329268685,"158":-0.0030843271138767787,"159":-0.1246139217613283,"160":-0.19952326477065363,"161":0.1790439473685309,"162":0.09966479899510741,"163":-0.006783049196284501,"164":0.07155149145915425,"165":-0.4875558879265929,"166":-0.22471870927375162,"167":-0.5772894021146159,"168":0.5349769518450785,"169":0.358797330823725,"170":0.16695753859881898,"171":-0.6401402160781604,"172":-0.12571282154339164,"173":0.31892824312770157,"174":-0.13529272104332463,"175":-0.04486051638504693,"176":-0.22388437016821292,"177":-0.2867693736616865,"178":-0.5038185479831738,"179":0.27801002007047726,"180":0.1910710301267373,"181":0.08891621175672548,"182":-0.19652612594552188,"183":-0.12563523296971515,"184":-0.49951928102119064,"185":0.19508239239391326,"186":0.3929700057709238,"187":-0.11140770561990125,"188":-0.03170225160435301,"189":0.49055675338348453,"190":-0.13668787027305457,"191":-0.14106306001302427,"192":-0.07411944547874882,"193":-0.6025633657778919,"194":-0.0742609544672515,"195":0.014296104098880151,"196":0.1535172678240306,"197":-0.2254362194830241,"198":-0.36150541428636707,"199":0.47382249426989087,"200":-0.11101946468483007,"201":-0.0839633776593516,"202":-0.05027151186225512,"203":0.5548477786382096,"204":0.0202024293350068,"205":-0.26362356354867605,"206":-0.31861589731927453,"207":-0.23373398616491786,"208":0.24156395830981064,"209":-0.017527493277161674,"210":-0.39633029828209826,"211":-0.04502937186185635,"212":0.30972270733013185,"213":-0.4291779778640545,"214":0.12568346473600225,"215":0.23062924532977333,"216":-0.16006919911610762,"217":0.15745171919568812,"218":0.09138273472717504,"219":-0.46797269579858886,"220":-0.19444904150932957,"221":0.01809053963204344,"222":-0.6313130389180144,"223":0.5596308795210829,"224":0.1275016218997424,"225":0.27359340879095717,"226":0.05367395314352711,"227":-0.23498476023276402,"228":-0.07700211879638494,"229":-0.980136987311106,"230":0.5488982348581529,"231":0.46134670620801893,"232":-0.19427447599759587,"233":0.08620052202437221,"234":-0.19241532686789325,"235":0.5269848294904159,"236":-0.03154530657632627,"237":-0.2721195363554164,"238":0.23795987695583473,"239":0.030943408728169745,"240":0.29669823684598495,"241":0.37515400940735383,"242":-0.23165534696246742,"243":-0.1625897556739507,"244":0.05403606774698084,"245":-0.3366108874646306,"246":0.036552214499541,"247":-0.36095175055670176,"248":0.09225083980979867,"249":-0.3065381486126169,"250":0.03478496253715629,"251":-0.5992497145072088,"252":0.06415757677121853,"253":0.30631350929609014,"254":-0.26869420673598077,"255":0.13924814776664288,"256":0.17180253265515702,"257":-0.17842199306970977,"258":-0.12402421867704956,"259":-0.24817783417872757,"260":-0.24053322868052218,"261":0.1931747342799518,"262":0.006909773078100099,"263":0.11016201374680479,"264":-0.631244151814619,"265":0.3443344046696862,"266":-0.08757703796473272,"267":-0.26310488566317014,"268":-0.06536800883396139,"269":-0.04039543830234704,"270":-0.7366977977073533,"271":0.10655168889215366,"272":-0.05946626605590894,"273":-0.48275606679979643,"274":-0.13365128430178427,"275":-0.015951100515465333,"276":0.2011987006157934,"277":0.08429089910719909,"278":0.1971975676033874,"279":0.08870226025273613,"280":0.6819813953776369,"281":-0.038541867039965295,"282":-0.5584220801080708,"283":-0.03706896926122417,"284":-0.12749103585336086,"285":0.14936757559676117,"286":0.08123427286395095,"287":-0.19822322901759842,"288":0.15426202456727714,"289":-0.39563118555447896,"290":0.6605592870342003,"291":0.01255006749980589,"292":-0.29745723016386055,"293":0.1251231448838974,"294":0.1154057474858254,"295":-0.16465628129837545,"296":0.5343436325740825,"297":0.4363287377494966,"298":-0.3080488368654433,"299":0.1736005562738492,"300":0.28114602817347867,"301":-0.024661299924672052,"302":0.09231435061082457,"303":-0.29035693916198024,"304":0.3016716776361645,"305":-0.28246883868522016,"306":-0.014746868439878338,"307":-0.03792527234019897,"308":0.10470805931361851,"309":-0.19904892330130144,"310":-0.1124015631631435,"311":-0.08417820548014368,"312":-0.010171450966099053,"313":0.04629136412101382,"314":-0.6406429451866761,"315":0.45464587296043646,"316":0.4515001409316227,"317":-0.15487641177235373,"318":-0.639094776764296,"319":-0.09376930575249343,"320":0.24460243307491264,"321":-0.11374167543906107,"322":-0.015174512634052265,"323":0.15546684283858858,"324":0.18653007136250574,"325":0.5002801767529425,"326":-0.048488861845381835,"327":-0.31972184330140974,"328":-0.10330567128102858,"329":0.17055723584445592,"330":-0.150967785125747,"331":-0.37949757879414386,"332":0.3149566624586534,"333":-0.21396311161122103,"334":-0.09282966806230061,"335":-0.3070843148637675,"336":-0.13893718232693097,"337":0.15734060561585284,"338":-0.14654779212286273,"339":-0.28065050262804075,"340":-0.5422052905907424,"341":0.17960397242888104,"342":-0.1379837414871155,"343":-0.3594156654196547,"344":-0.26698714843587895,"345":-0.16231815593236332,"346":-0.16779179309486417,"347":0.0006420632104911365,"348":-0.1820001899438865,"349":0.10223762795404359,"350":-0.14065142357895677,"351":-0.7613173201627228,"352":0.4551969460808604,"353":-0.07295871692212898,"354":-0.017270197825213416,"355":0.09982741287520115,"356":0.07366598487130374,"357":-0.01287062984149331,"358":-0.359717167426123,"359":-0.05447772740159782,"360":0.2295688236321531,"361":0.00046649941297186373,"362":-0.17328040216603113,"363":-0.3261858973637989,"364":-0.11746863779493621,"365":0.019524409115037313,"366":-0.2954815348347309,"367":-0.2619822696961944,"368":0.16399931379906793,"369":-0.12748780683887356,"370":0.6350099944939454,"371":-0.11548985951320632,"372":-0.44248860735149814,"373":0.3837852951038438,"374":0.13635303323349438,"375":-0.4372746793505642,"376":-0.48293372283943875,"377":-0.2391848850095578,"378":0.4891086568641911,"379":-0.3381935017672202,"380":0.12667669431628062,"381":-0.339345447746063,"382":0.22300178098403248,"383":-0.30193101793088706,"384":-0.16780217469753947,"385":-0.17338836324797482,"386":0.7607426309604576,"387":0.0071039280513527986,"388":0.05094555244322938,"389":0.3571070815673026,"390":0.31970706870224525,"391":-0.07688166213639146,"392":-0.14356307260979986,"393":-0.1799011005077217,"394":0.32426397821001546,"395":-0.5167295459871963,"396":-0.07526903727242958,"397":-0.07305378825386968,"398":0.2734110777958622,"399":-0.05587196525702068}},{"sx":5,"sy":5,"depth":16,"w":{"0":-0.14011295217689282,"1":0.17328780210855738,"2":0.39040606251951965,"3":0.3341399558420562,"4":-0.25143547014543327,"5":-0.45302017400221206,"6":-0.0946295170077337,"7":0.37962192354934093,"8":0.30215026585062404,"9":-0.20898349272268046,"10":0.1502076799499123,"11":0.9211019391824868,"12":0.33305015484701045,"13":-0.4861995416033576,"14":1.0104756374322217,"15":0.48192382574648035,"16":0.15800338459601607,"17":0.7131610803099859,"18":0.6634815400677785,"19":-0.8829027977361296,"20":0.2689305145359508,"21":0.21307199527270104,"22":0.1810269847520027,"23":-0.7750331235650598,"24":-0.4857953089591641,"25":-0.07668330650999995,"26":0.5916624966721746,"27":0.4271802376835024,"28":-0.018966240959519525,"29":-0.03972688392346619,"30":-0.7603234335025596,"31":0.25605209342379537,"32":0.5893006322984127,"33":0.9843856365377281,"34":-0.03195602075511368,"35":-0.7063097433774792,"36":0.12470188917447374,"37":0.013822620961723656,"38":0.10998471314900113,"39":-0.03546967638436158,"40":-0.4871146080632101,"41":-0.05051935383697711,"42":-0.24745301516677753,"43":-0.480495270225744,"44":-0.23437373736837114,"45":0.041529038505536985,"46":-0.24608322515655479,"47":0.6917963371591364,"48":-0.19325155722797296,"49":0.1714913651188157,"50":0.32710293235609955,"51":-0.46246733802693335,"52":-0.141087770354044,"53":0.025661767008532194,"54":-0.05075101042695202,"55":0.0827841141948219,"56":0.17319200033993193,"57":-0.052895571572991136,"58":0.2810171130490746,"59":-0.4476221356779098,"60":-0.11154787673141459,"61":0.08861588787571689,"62":0.41476968558523386,"63":-0.1141558049454232,"64":0.03766102617996303,"65":0.22842363450284542,"66":0.2469328984788639,"67":0.4362820360695459,"68":0.43697261477020904,"69":-0.22914110863237824,"70":-0.2669885769740796,"71":0.4334153140296153,"72":-0.02358582085311136,"73":-0.7067150568238463,"74":0.8272515537110968,"75":0.38611364398384806,"76":-0.14044487786308615,"77":-0.6053212763916157,"78":0.7221167292827452,"79":0.4056655481415527,"80":-0.06171987954251519,"81":0.619625158360182,"82":-0.4058922947332581,"83":0.14006956480130708,"84":-0.30360406468398016,"85":0.040226397137115,"86":0.12012355681381928,"87":-0.4722038503177267,"88":0.13065888771632947,"89":0.10799883700024963,"90":0.6406814793894913,"91":-0.21099801633722498,"92":-0.1356555278487381,"93":0.08496618704416277,"94":0.22453966102140074,"95":-0.04332443506035363,"96":-0.01534843032500485,"97":-0.5715371194686459,"98":0.5211508411191674,"99":-0.45559084507068387,"100":-0.3481006081886826,"101":-0.35823946199234374,"102":0.4533644304187431,"103":-0.3744232774074852,"104":-0.7016459092842734,"105":0.1569518212100627,"106":-0.018628268238741825,"107":-1.2324227721947556,"108":-0.24257736871920305,"109":0.10532572514193479,"110":-0.2862662066342747,"111":-0.24351710962971357,"112":-0.07434360039167402,"113":-0.33718965711424426,"114":0.647782100544686,"115":-0.3552374543362341,"116":-0.027304938040056716,"117":-0.5678694953980638,"118":0.08426771553260048,"119":0.3961953946111578,"120":-0.7006557470859411,"121":-0.3508456849205086,"122":-0.6444465363623016,"123":-0.49140205663122305,"124":0.30797795953075613,"125":0.23929594904609236,"126":-0.25033459805086555,"127":-0.17135642220290506,"128":-0.20389997183771547,"129":0.3510341312112995,"130":-0.29655115233980966,"131":-0.28786046610153115,"132":-0.4426490072765645,"133":-0.029786703891336194,"134":0.11827123299278028,"135":0.2987938983077312,"136":0.041950886215253204,"137":-0.2535787785853082,"138":-0.6024838197347129,"139":-0.8956098313492803,"140":-0.67063620824813,"141":-0.3755251001464723,"142":-0.07030450246346567,"143":-0.16259818531102,"144":0.4694273500240923,"145":0.17035145899721205,"146":0.0019310578848432372,"147":0.10300335479776938,"148":-0.392068635292338,"149":0.2964847960774672,"150":0.11499923499473022,"151":0.04395893621279017,"152":0.001263926811113221,"153":0.46681143832827743,"154":0.06853579594863335,"155":0.05610820727022122,"156":0.038938577740154294,"157":-0.3127316233074418,"158":-0.043720262094000796,"159":-0.11210484552413953,"160":-0.14485279777450508,"161":-0.08178184810092705,"162":-0.21113855070592968,"163":-0.0664184122069056,"164":0.18570315785483807,"165":-0.4113165410081708,"166":-0.03129963024075593,"167":-0.0773015596056115,"168":0.21859289090725462,"169":-0.25864435137891606,"170":0.20668840670115862,"171":-0.3650523278083391,"172":-0.503367959725646,"173":0.258929936409344,"174":-0.5010749879845376,"175":0.1610828944814278,"176":-0.8397192223519893,"177":-0.1525247559571376,"178":-0.48138502714898873,"179":-0.47436521600667525,"180":-0.24852761207814517,"181":-0.33716013180177895,"182":0.07299026634787208,"183":-1.4115917855235782,"184":-0.4402051154223655,"185":-0.7265121945925813,"186":-0.49266343493370823,"187":-0.5273585440557947,"188":-0.05501400526583906,"189":0.21441752668952166,"190":0.010158663696630592,"191":0.39608430705358183,"192":-0.2576604923976258,"193":-0.3103656740169111,"194":0.1674089264597461,"195":0.2610873471158613,"196":0.19534337338173327,"197":-0.44328252542564955,"198":-0.278038202132205,"199":-0.4660411072372925,"200":0.13657795229873243,"201":-0.6142992140155339,"202":-0.49752805397068955,"203":-0.442218110806451,"204":0.845145676864373,"205":0.02958904327823592,"206":-0.7213275674429249,"207":-0.24677577994111158,"208":0.014869991065526588,"209":-0.07019435238156557,"210":0.3110269117467268,"211":0.01851093022275774,"212":0.05722333695683008,"213":-0.2458646944833217,"214":-0.2060122167826236,"215":-0.5653918699737114,"216":0.06123096688976393,"217":-0.27868703932162087,"218":0.24359986347648663,"219":-0.11845937550028225,"220":0.20414094138638572,"221":-0.9127737196789868,"222":-1.2910325499931496,"223":-0.013528559946302436,"224":0.11455269881585108,"225":0.2742478070900147,"226":-0.10747429090471666,"227":0.5473544863152364,"228":0.10094279100293205,"229":0.16907445574897678,"230":0.0940704039528279,"231":0.17851616256904734,"232":-0.624361184816604,"233":0.2230962665705738,"234":0.05303303638578595,"235":0.6937768021198265,"236":0.406504956157184,"237":-0.2585992847717189,"238":0.0676348023756366,"239":0.26757200624606714,"240":-0.16609903596287615,"241":-0.12285225942771176,"242":0.47353209705554855,"243":0.47541698846259567,"244":-0.023874028914040016,"245":-0.5357951863804148,"246":-0.2870517031080262,"247":0.28936279683675464,"248":0.3468704997156542,"249":0.6840509719905215,"250":-0.2765481705891345,"251":0.0613564332161053,"252":-0.7596457088261983,"253":0.4709310169555218,"254":-0.26337492481247077,"255":-0.04892522237452536,"256":-0.2727173463699816,"257":-0.36591970889157643,"258":-0.18702443758464998,"259":0.21971723899978168,"260":0.2433666818598943,"261":0.6438653367791063,"262":0.18500507351754045,"263":-1.161518672327702,"264":-0.4897206167679434,"265":0.43398482580682013,"266":-0.28182344671064435,"267":0.10572259126360066,"268":-0.7403614619881996,"269":0.22004076878944423,"270":-0.42666567074425477,"271":-0.1914083515549603,"272":-0.30795958226510967,"273":0.1307766569549221,"274":-0.8555698872049219,"275":-0.46462960879941767,"276":-0.4190776333159281,"277":0.3358199516302303,"278":-0.18751110718553204,"279":-1.6761697596834686,"280":-0.32523758630911515,"281":0.05766731935591499,"282":0.05400374751654189,"283":-0.03567393427300225,"284":0.05866010870581912,"285":-1.0082426616797457,"286":-0.9460152085831175,"287":-0.49599344673382956,"288":-0.3873499629399019,"289":-0.922945222463329,"290":-0.06094119968349365,"291":-0.5096594955974814,"292":-0.17236611075587233,"293":0.06869586745184844,"294":-0.11489070451254432,"295":-0.5595111145165285,"296":-0.7917179557093017,"297":-0.3036110801492844,"298":-0.6270618207941243,"299":-0.1234539779753103,"300":-0.08254915648091901,"301":-0.25813426548435475,"302":-0.29244164691256125,"303":-0.3368091204364505,"304":0.27569408494951925,"305":-0.01006877862818156,"306":0.37270668261507917,"307":-0.20635796979866597,"308":-0.4668320651302334,"309":0.03793639411875935,"310":-0.30181158948932674,"311":-0.10962616711741892,"312":-0.7185080494843882,"313":-0.4313893616564068,"314":-0.32547374758049985,"315":0.06747214343428316,"316":0.1569954802160256,"317":0.1612606128026918,"318":-0.013781426530757377,"319":0.1425529791969632,"320":0.14294827644486838,"321":0.7306782765467986,"322":0.3444044394833095,"323":0.8502698165310345,"324":-0.2188186182576487,"325":0.07338747874824983,"326":-0.12253059621512538,"327":-0.264236835419737,"328":-0.542852995339192,"329":0.16962264381421074,"330":-0.2756408607760004,"331":0.003597318875306957,"332":-0.13151929624191858,"333":0.2220345315835351,"334":-0.4390705533400505,"335":0.14206053539190483,"336":-0.19461803810214498,"337":-0.17844558347351658,"338":0.07493516663079587,"339":0.24868891640231963,"340":0.46668214028758886,"341":0.15665807883313818,"342":0.2600196891870604,"343":-0.5842801703670708,"344":-0.15968528701442275,"345":0.302804908462416,"346":-0.7137449396838533,"347":-0.1983041435760816,"348":-0.3867213316004672,"349":0.5637691021898492,"350":-0.1759958828477901,"351":-0.05881062869295314,"352":-0.3283520836196348,"353":-0.08143303385818354,"354":-0.7791945607318236,"355":-0.3557975635482737,"356":-0.15569537931128433,"357":0.06749859296526756,"358":-0.06457961022772217,"359":-0.5204038444390988,"360":-0.5976522380049111,"361":-0.37782746099665787,"362":-0.10378840606428857,"363":0.45941456085581545,"364":-0.5191208211853202,"365":-0.6152480628290883,"366":-0.06929343141645272,"367":-0.232355527154668,"368":-0.06922973335111862,"369":-0.0669779319165759,"370":-0.38226365587922717,"371":-0.03730012785856986,"372":0.07567736878075672,"373":-0.23082598727457315,"374":-0.18451419051262288,"375":-0.4301035252419798,"376":-0.08356831017675466,"377":-0.48336997072901744,"378":-0.029569610426843064,"379":-0.11812098059355677,"380":-0.3052031702252512,"381":-0.4798198834040552,"382":-1.1107094357928757,"383":-0.3325652146983385,"384":-0.018218398588709734,"385":-0.07251518491793404,"386":0.24405835617504282,"387":0.23324705414744493,"388":0.45037239612136715,"389":0.18843903814456214,"390":0.17270475338835223,"391":-0.18733131414679202,"392":0.31720343737936285,"393":0.07060680073534784,"394":-0.3278910444683452,"395":-0.482377246283079,"396":-0.4486987407746098,"397":0.3510214167063435,"398":-0.14622811353380774,"399":0.36673205164292905}},{"sx":5,"sy":5,"depth":16,"w":{"0":0.21637973166163155,"1":0.05605809900901862,"2":-0.42000971924700214,"3":-0.5574398433512243,"4":-0.16413011232407196,"5":-0.6115380437614855,"6":0.12692652992491982,"7":-0.29394208525088866,"8":-0.1531173246131271,"9":-0.20635583300615568,"10":0.4377446614332909,"11":-0.28512741752470266,"12":-0.16935058286996862,"13":0.512683571107634,"14":-0.39569107163356626,"15":0.3654874261188157,"16":-0.040561958125362764,"17":-0.06286594086817664,"18":0.030138154702183676,"19":-0.41555713720804205,"20":-0.46769748034409697,"21":-0.3689230879562723,"22":-0.22607550258834602,"23":-0.17901339738272012,"24":0.058753928547504906,"25":-0.43608293743697624,"26":-0.6444238462369077,"27":-0.4687334638907462,"28":-0.6061625908494954,"29":0.4878674923969545,"30":-0.3138197108905034,"31":-0.26892728900552576,"32":-0.1259547586223527,"33":-0.25323032482175567,"34":0.009002811243787923,"35":0.17818259248649387,"36":-0.0562508341431683,"37":-0.19037346668950764,"38":0.11008767818944483,"39":-0.40588590954353326,"40":0.4384795787171419,"41":0.41630712258080615,"42":-0.16493622462734683,"43":-0.0282018152885396,"44":-0.48798250131929277,"45":-0.06361073288765151,"46":-0.7851153703430731,"47":-0.3964796989698648,"48":-0.28624820491960123,"49":-0.8751197746708295,"50":-0.2996261511709868,"51":0.5164534703156655,"52":-0.8165294094626071,"53":-0.4385883168403598,"54":0.2571730155511362,"55":0.09977597150944983,"56":0.5017640635099099,"57":0.2668894206721649,"58":-0.5458604394159342,"59":0.17323579273337186,"60":0.021347287989272448,"61":0.04233510474284958,"62":0.26055061822515885,"63":0.24565058762638248,"64":0.4717956681749569,"65":-0.3862236020888292,"66":-1.0577557536340911,"67":0.18768068106257893,"68":-0.33878172917905,"69":0.24586622554266463,"70":-0.6053858057553081,"71":0.01070398738845492,"72":0.18158328106286684,"73":-0.08120473233093933,"74":0.12817494128829565,"75":-0.06952998192956908,"76":0.5826969803419378,"77":0.06958739462304002,"78":-0.08771396377654693,"79":-0.3721435611011259,"80":-0.37162973282879236,"81":-0.014446183148264471,"82":-0.5951889141354146,"83":-1.635152247835522,"84":0.10656253556271769,"85":0.3939643355128231,"86":-0.2366953720725161,"87":-0.34749162159272406,"88":-0.19751048670706423,"89":-0.1307162112011861,"90":0.021945390337468715,"91":-0.5446511979813361,"92":0.02169096820731415,"93":-0.05431360399155294,"94":-0.03344246796105145,"95":-0.22127842109821544,"96":-0.4667389756374698,"97":-0.8444449845623146,"98":-0.23441967656068785,"99":-0.8100103970775022,"100":-0.40343500849026565,"101":0.03481415956044537,"102":0.15489536406898846,"103":-0.050529311819658064,"104":0.08254322037919101,"105":-0.5372453676282808,"106":0.5149047082685073,"107":0.03459008534578155,"108":-0.0022926772360715073,"109":-0.2724248241613116,"110":-0.32830693497213803,"111":0.28775077475663263,"112":-0.44461737030263404,"113":-0.6533265126868879,"114":-0.7434720151975406,"115":-0.5595228974899077,"116":0.07783474398900848,"117":0.06990119640571062,"118":0.5835697119196132,"119":0.011281769221961252,"120":0.4892213183847042,"121":-0.3655419007267572,"122":-0.5939149140057745,"123":-0.049385885398993905,"124":-0.1458412741302486,"125":0.03775389452236549,"126":-0.5276099211820909,"127":-0.18551817496074624,"128":-0.19802387365024982,"129":-0.2132754848462986,"130":-0.5487064657341958,"131":0.009942840164193237,"132":-0.23832029137673214,"133":-0.3516784024741094,"134":-0.0598180996786641,"135":-0.08964928102724659,"136":-0.13654150351546981,"137":-0.02377276959365863,"138":-0.26216584522514536,"139":0.39015401628877394,"140":0.3039805435251566,"141":-0.2043003896475824,"142":-0.07548464312902138,"143":-0.30391561235179154,"144":-0.016940999398870123,"145":-0.12186636803475778,"146":-1.1118816007513868,"147":-0.09268016319784338,"148":-0.13576324715016125,"149":-0.0531605781508775,"150":-0.11616147777317398,"151":-0.13223675224123616,"152":0.2772872889809804,"153":-0.1752854725115113,"154":-0.21854024175472744,"155":0.18977832030950562,"156":0.11894647505000008,"157":0.1689182254415389,"158":0.45388024062841487,"159":0.10810707084670552,"160":-0.010686893700589574,"161":-0.7770982336474168,"162":0.2384888059689571,"163":-0.2057168925781659,"164":0.15245990781380725,"165":-0.9224865751088358,"166":-0.14237778213898086,"167":-0.19748402437142704,"168":-0.4671114193863884,"169":0.030332315039917228,"170":-0.2714863179930566,"171":-0.10010366233439957,"172":0.08843803288014172,"173":-0.42955529558181904,"174":0.048723134966199524,"175":-0.07368114712912267,"176":-0.11297920197044141,"177":-0.5493201473553404,"178":-0.08167059926698106,"179":-0.3818966303615972,"180":0.1346564344444654,"181":-0.5254734282849959,"182":0.07023418859949025,"183":-0.7040752954074008,"184":0.09431256286123092,"185":0.2995717132263581,"186":-0.2947483769853101,"187":-0.13077596735427668,"188":-0.25503071051533666,"189":-0.09449396653871528,"190":-0.4543841252147057,"191":-0.363383352946049,"192":-0.25948864861212145,"193":0.15920788278520792,"194":-0.15994040723298658,"195":-0.349147923231608,"196":0.28422093180606317,"197":0.2881488796419738,"198":0.13243826504583173,"199":0.05030982270869677,"200":-0.2759990949264973,"201":-0.23417302931280473,"202":-0.26039044878940554,"203":-0.04912649588185545,"204":0.007582962640804058,"205":0.5158775864410486,"206":0.029550213439205032,"207":0.10732868208663707,"208":0.11957657081462607,"209":-0.08541668833097174,"210":-0.6577311345964282,"211":0.4412437916413919,"212":-0.26801641701831086,"213":-0.3037614377439649,"214":-0.14481383238586445,"215":0.025151503321622113,"216":-0.33673565685828755,"217":-0.2581491731658743,"218":-0.23632773986533223,"219":0.32031136143693695,"220":-0.000020494039393320817,"221":-1.3296929487028994,"222":-0.08225132505068607,"223":0.2398351792458885,"224":0.12515351041947861,"225":0.21987534128148503,"226":-0.8514252155508713,"227":0.042190395259344246,"228":0.006551597658297746,"229":0.1368080924528285,"230":0.057689715517847184,"231":-0.2785900170166957,"232":-0.051547524096756496,"233":0.1021317001071978,"234":0.3294933664532974,"235":0.06228119338057476,"236":-0.0779208528807621,"237":-0.5148099767323925,"238":-0.002264366235410681,"239":0.11650535784035733,"240":-0.05680773016518602,"241":-0.2631101407584668,"242":-0.10710175288883338,"243":0.06589114493339712,"244":-0.3325845493779389,"245":-0.14224065603214198,"246":-0.07371815729502759,"247":-0.07638624149463674,"248":0.445927968161078,"249":-0.47950081496078917,"250":0.1383140540723567,"251":0.02375125166494584,"252":-0.18301802052450883,"253":-0.11024611564880679,"254":0.013775889148375868,"255":0.1456411078374458,"256":0.5718911624816398,"257":-0.62304554192083,"258":-0.5379611533242095,"259":-1.7672651598259423,"260":-0.6983697327009436,"261":-0.12481031089424315,"262":0.2125496886886951,"263":0.2671488991511661,"264":-0.42461991731655063,"265":-0.1810519506408243,"266":-0.4006976476710399,"267":0.3584059810521325,"268":-0.5885045786438314,"269":0.18454641824444507,"270":0.17161366187498955,"271":-0.4366174951290739,"272":0.044702065271082544,"273":-0.45810201653233823,"274":-0.6102008314163626,"275":-0.8943975450961777,"276":0.08475485347162864,"277":0.11838868282520139,"278":-0.004632764903016177,"279":-0.3434901963725034,"280":-0.7960196290570827,"281":0.6983743595033052,"282":-0.3634459959049385,"283":0.0981482474099019,"284":0.29696301223704014,"285":-0.2245510941610289,"286":0.09205896167255967,"287":0.20876905782305474,"288":-0.4831158455760185,"289":-0.16999369583740673,"290":-0.3995507600263229,"291":-0.7767454162679857,"292":-0.5306760718592283,"293":-0.011633881032130533,"294":-0.3725936236757664,"295":0.17105127155331962,"296":0.24840475650703517,"297":-0.5858082724590895,"298":-0.2184694540503783,"299":0.42957521567199886,"300":0.02068270890945454,"301":-0.981953573985979,"302":-0.2675674848457988,"303":0.1296504448105897,"304":0.08433713206121508,"305":0.25119302195890975,"306":0.2702138736551948,"307":-0.7411824740766656,"308":-0.0898270147416921,"309":0.2204639684939911,"310":0.16387457651703904,"311":0.042171984143096926,"312":0.30502639533378595,"313":-0.42575551274785806,"314":0.27828576109118397,"315":-0.33034680089747814,"316":-0.3191469224783987,"317":-0.13177710644129037,"318":0.15334687050288134,"319":0.5870739461860544,"320":0.5474139855960599,"321":-0.4762316580911544,"322":0.9978673498924207,"323":-0.36780915236733824,"324":0.3320908866148428,"325":-0.8224707421802278,"326":0.09742777583323346,"327":-0.06309525643596142,"328":0.6611462446883782,"329":0.05953854080380607,"330":0.4666010296649885,"331":0.020688766353674743,"332":-0.16081413724098217,"333":-0.15839721243105265,"334":0.18123537784361207,"335":-0.14451561131999072,"336":-0.5891027441922754,"337":-0.09472314285920204,"338":0.14745012810364372,"339":-1.0132272983223747,"340":-0.14135022521822155,"341":-0.703204702172577,"342":0.04462375084651962,"343":0.007449417015414254,"344":-0.13274066070601287,"345":-0.5518933974647046,"346":-0.2656783570490956,"347":-0.4866402087090297,"348":-0.4254238458674473,"349":-0.48427911292498904,"350":0.08993133741444294,"351":0.4586562392985682,"352":0.1922176461995609,"353":0.38440538611074015,"354":-0.295182657481924,"355":-0.8320669074295856,"356":-0.15314671081961448,"357":-0.5491715083820848,"358":-0.05727809486590229,"359":0.3724292432251506,"360":-0.7790517201566578,"361":0.17412861279416578,"362":-0.3550485850205303,"363":0.41857086765831525,"364":0.2235639606060136,"365":0.6002056849501334,"366":0.07096109598309631,"367":-0.21205625055735355,"368":-0.07456667859858156,"369":0.1605833173003903,"370":-0.7618231526727196,"371":-0.39369463501039437,"372":-0.0670368392676287,"373":-0.28622269402880407,"374":-0.5373639772335765,"375":0.2650961001364228,"376":0.0777342028855575,"377":-0.16951365508246738,"378":-0.1045801426208169,"379":0.013777713380729984,"380":0.0834773605713368,"381":-0.48654116150554316,"382":0.6452491552700425,"383":-0.09650075044449757,"384":0.003391516299262339,"385":-0.35572878225220467,"386":0.13038222401829144,"387":-0.5021322994995129,"388":0.3688267864474776,"389":-0.1858957654430006,"390":0.37862075326617656,"391":0.10606104489830886,"392":0.41141456987236963,"393":-0.7016176452544214,"394":0.24394217189894973,"395":-0.5489648200215431,"396":-0.3527889778091854,"397":0.055961748631413455,"398":-0.33667846887344943,"399":0.027322356502669898}},{"sx":5,"sy":5,"depth":16,"w":{"0":-0.3081706665501903,"1":-0.2431136486532577,"2":-0.11897785595099762,"3":0.0238635376060626,"4":-0.21922004172784065,"5":-0.5501308647783504,"6":-0.3788136143803985,"7":0.11852151950920614,"8":0.26647303091812696,"9":-0.0556809742349808,"10":0.16516358662482078,"11":-0.09709200331841857,"12":-0.29694744291621034,"13":-0.02774760408636599,"14":0.5477962496729541,"15":0.13458839368152906,"16":0.23560918872618186,"17":-0.29932376218585716,"18":-0.8288135920206972,"19":-0.47755777507183866,"20":-0.7384149748487593,"21":-0.10883829314632694,"22":0.02232374670715518,"23":-0.12079475068683797,"24":-0.282581566956732,"25":-0.14179455904931332,"26":0.3746997507877877,"27":0.24087644738820718,"28":-0.051878577944613355,"29":-0.45288423289183993,"30":-0.07374436754222745,"31":-0.21172272498378264,"32":0.0028592157234414934,"33":-0.33763938474993743,"34":-0.357038194144929,"35":0.4059375908729973,"36":0.2649372489414344,"37":0.17732638175391036,"38":0.4302151932533786,"39":-0.06708169694542977,"40":0.17286923809005622,"41":-0.22484264039367569,"42":0.10963820381923746,"43":0.7634253220748016,"44":0.3322008600101121,"45":0.3840070127141719,"46":-0.2407534707468666,"47":-0.06120675904011309,"48":0.16388324531076276,"49":-0.2237715266862924,"50":0.30294132573428045,"51":0.32512141745366785,"52":-0.1264903758095306,"53":0.037794021527492304,"54":0.10740253554388085,"55":-0.12036015991361564,"56":-0.29128398813689593,"57":0.2069403634459227,"58":0.12040472897918661,"59":-0.2199732255464072,"60":0.21220300320816085,"61":-0.10678790563248,"62":-0.103449961749959,"63":-0.5180698162526899,"64":-0.035203896527265334,"65":-0.1259068153091526,"66":0.47795906178666536,"67":0.5846820636116077,"68":-0.1768147895143744,"69":-0.4989869233852912,"70":0.009418933565675627,"71":0.05226663463561742,"72":-0.10062241392333825,"73":-0.1801428396194325,"74":-0.263159602368072,"75":-0.4185922883755483,"76":0.1083170479408384,"77":-0.2649843024665164,"78":0.3634815696309809,"79":0.28718290529437673,"80":-0.6436135411506836,"81":-0.017412034097593464,"82":-0.36233753815037956,"83":0.30686035121695365,"84":-0.2794617627836485,"85":-0.34013720788049856,"86":-0.3141382397131878,"87":-0.22790735689503508,"88":0.049945485126270915,"89":-0.36480363962600465,"90":0.11775364017489912,"91":0.19120621426265216,"92":-0.22363280464740903,"93":0.15189745504789576,"94":0.2570464364312413,"95":0.5776118061454802,"96":0.11509529894240982,"97":-0.29394262872998594,"98":-0.8471262437989747,"99":-0.3155451399370107,"100":-0.45636456600799286,"101":-0.32518275952296666,"102":-0.133345597663348,"103":-0.316876430880572,"104":-0.30575093697214123,"105":-0.1665440881668844,"106":-0.3170706511463415,"107":-0.6310755134081351,"108":-0.3462672912530673,"109":-0.8929346360184494,"110":0.0020217627364831283,"111":-0.008073878993892966,"112":-0.20911630707914697,"113":-0.14791276452038793,"114":-0.9843042609326955,"115":-0.1997134215903746,"116":0.1414749845916128,"117":0.17902811586896344,"118":-0.14948577692663761,"119":0.08191087666462354,"120":0.1622301279153512,"121":-0.11184255940161689,"122":0.09461159595689883,"123":0.21446600931399004,"124":-0.03633755426722946,"125":-0.0363380920609587,"126":-0.015149516019010751,"127":-0.03264002977906075,"128":-0.5074412262335507,"129":0.01739948558564394,"130":-0.05840172402996166,"131":-0.016962314047785455,"132":0.1114596506835042,"133":0.1896884008624049,"134":-0.16634925923789734,"135":-0.1697795177771505,"136":-0.1712471446658989,"137":-0.09181160589798529,"138":-0.0351549679678542,"139":-0.4799139926333103,"140":-0.02632871106687587,"141":-0.07654027724141187,"142":0.2056453035547649,"143":-0.31227880208897985,"144":-0.39119237626609626,"145":0.024944280787422664,"146":-0.4108306659044049,"147":0.43626967739286676,"148":-0.1395913847246784,"149":-0.3166513236181874,"150":-0.24326300536089462,"151":0.1750993826458917,"152":0.24189961573746,"153":0.10335264576193441,"154":-0.43107447892848455,"155":-0.23229733256291923,"156":-0.08182612462220157,"157":0.24308518753116268,"158":-0.1665804328718362,"159":-0.27413241525781995,"160":0.11052820757123415,"161":-0.7098756985685719,"162":-0.031303246459181144,"163":-0.21057940337182285,"164":0.10307074110872275,"165":0.2303559025851342,"166":-0.40881779135668755,"167":0.8919433575258486,"168":0.18290694332057167,"169":-0.09934200884292797,"170":-0.012649422732814029,"171":0.08937749169853547,"172":0.11179777058178478,"173":-0.44515541226457356,"174":-0.8180802505884727,"175":0.36515089398666617,"176":-0.3792652764566887,"177":0.9360413794956385,"178":-0.494587369039333,"179":-0.2620637167865464,"180":-0.11318898376543773,"181":0.0375966026708657,"182":-0.2860404283617442,"183":0.04776699273023556,"184":-0.36696203020834833,"185":0.8676945767781092,"186":-0.6919019330712695,"187":0.22905575500109857,"188":-0.19119193392263487,"189":-0.1428904685425436,"190":-0.0705067510667592,"191":-0.01318713519183634,"192":-0.6972263960419038,"193":-0.17553211535766441,"194":-0.40873541642167277,"195":0.1325557660149544,"196":-0.19399879112931592,"197":0.016660355573481896,"198":0.008094164103648258,"199":0.14294602407537782,"200":-0.43179810100129823,"201":0.34606175961308705,"202":-0.533226425532169,"203":-0.004446868383528318,"204":-0.08893907151482414,"205":-0.5194382781707917,"206":0.23080702898656122,"207":0.0033406176833347093,"208":-0.2235982488694533,"209":-0.4507790270875292,"210":-0.3523612872481661,"211":0.2957033643849756,"212":0.009333367132706138,"213":-0.12186931538526281,"214":-0.3620990823437196,"215":0.11657194795216833,"216":-0.38347294314850455,"217":0.6804673758132066,"218":-0.11096915436427594,"219":-0.22233812430815147,"220":-0.21801680412729052,"221":0.22317958873749402,"222":0.3492078347717413,"223":-0.24000774579499162,"224":-0.6040128464083558,"225":-0.28541602938577004,"226":-0.8733281008231315,"227":0.3765706218256018,"228":0.14749360100472622,"229":-0.2567834271246585,"230":-0.3194662247175798,"231":-0.33071965501617984,"232":0.08550242315784015,"233":0.6529366264462434,"234":-0.1312136472614027,"235":-0.9297078887152401,"236":-0.289175155255465,"237":-0.8337696166766528,"238":0.20927088765071522,"239":0.00913381373125313,"240":-0.14133215937015542,"241":-0.17347547679292893,"242":-0.2523191519602181,"243":-0.09852672403087644,"244":-0.6900888480538995,"245":-0.011884008062235638,"246":0.23026897956808265,"247":-0.21436337336911093,"248":-0.23042545414214521,"249":0.13160056356186683,"250":-0.20377985153000136,"251":-0.6124153669003672,"252":0.4609572912921406,"253":0.2575223237354013,"254":-0.10577582841285281,"255":-0.2253460793706503,"256":-0.15857151163815741,"257":0.3026454003201664,"258":0.11078037722564457,"259":-0.44184263258666656,"260":0.02121691891991091,"261":-0.45227919942223677,"262":-0.21061340400629203,"263":-0.08715998746876066,"264":0.32927896323092104,"265":-0.11053368265180162,"266":-0.025182579740840677,"267":-0.7290604903794436,"268":-0.009359305295436549,"269":-0.6790030809907592,"270":0.3813535773081036,"271":0.13072221988552837,"272":-0.1131871250273617,"273":-0.09049794920775,"274":-0.10330470661148028,"275":-0.25890358196978314,"276":0.15307695703564886,"277":-0.15543893434080164,"278":0.018954848053658713,"279":-1.0325457078842426,"280":-0.03881214772131984,"281":0.22384887245636192,"282":0.19223400511661443,"283":-0.2363745009286205,"284":-0.028033286754446617,"285":-0.4798944226106258,"286":-0.00957081823048769,"287":0.11788086235429442,"288":-0.07509820233994134,"289":-0.11018796932387026,"290":-0.38988665855744425,"291":0.23456811335575276,"292":-0.4505873963454372,"293":0.003024255791903178,"294":-0.2594813120644677,"295":-0.3914738166549335,"296":0.2257837639606468,"297":-0.49608969486018456,"298":-0.09357399218495883,"299":-1.07959189026097,"300":0.17068752037798596,"301":-0.15953837960290856,"302":0.09262691884204557,"303":-0.3095652484305366,"304":0.2989686383069573,"305":0.006944197828513878,"306":-0.31014959852270796,"307":-0.1903413453592954,"308":-0.5622331138244804,"309":0.060968870559028894,"310":0.10800899604833965,"311":-0.8615083451927809,"312":-0.2550573363046243,"313":-0.306283202118814,"314":0.23579175755706133,"315":-0.5623895316449526,"316":0.09208016068112332,"317":-0.1776730255904606,"318":-0.1005873462196119,"319":-0.49382915545216843,"320":0.2811883488558384,"321":-1.0013510233657585,"322":0.11041033990656234,"323":-0.28907420561935404,"324":-0.3501794978088085,"325":-0.08124681720666932,"326":0.127433468535634,"327":-0.31851870608629956,"328":-0.0021306723473069017,"329":0.3198425754392655,"330":-0.42946429965387506,"331":-0.2793382930521572,"332":0.2889560343802854,"333":0.2553854234369648,"334":0.3362535752993396,"335":-0.5491108325102383,"336":-0.13952811001499432,"337":0.012872138945259888,"338":-0.20060492657633494,"339":-0.8676267378168623,"340":-0.011103368726378416,"341":0.004587071143847458,"342":-0.459922013232825,"343":0.3231570644401173,"344":0.12027902855504621,"345":0.2473289184893933,"346":0.5875662903543576,"347":-0.16039677980187567,"348":0.41880165743577197,"349":-0.9679702518778995,"350":0.32409074679559635,"351":-0.32237999201211837,"352":-0.07027504273169581,"353":0.40146801899724005,"354":0.03759867371501112,"355":-0.5557399957994755,"356":-0.11467561967044032,"357":0.6277980875716901,"358":0.01520419366565897,"359":-0.38399216283604426,"360":0.2685645228736096,"361":0.3680901916806783,"362":0.7127923314459402,"363":-0.6284995985480402,"364":0.22855014206732796,"365":0.23839349252212735,"366":-0.06908917949524494,"367":-0.5593392450249958,"368":-0.008386983850242667,"369":0.29561204166157534,"370":0.3586413149303996,"371":-0.5339706489841245,"372":-0.35352661223464454,"373":0.5907218864403685,"374":-0.11304030788687748,"375":0.6925028373420096,"376":0.5148361782996143,"377":-0.08422654165498616,"378":-0.27628986487100926,"379":-0.9997190928372031,"380":0.28076727209464997,"381":0.6285763054982136,"382":-0.15643606562275025,"383":-0.7943906167922192,"384":-0.20244402518578195,"385":-0.12698711775348825,"386":0.06312554565940935,"387":-0.37886045533243645,"388":0.05199352984200546,"389":0.3035101409181241,"390":0.035101190015119306,"391":-0.4934662832684984,"392":0.1968892304101608,"393":-0.22767734294271613,"394":-0.07843527907715345,"395":-0.30581200007930914,"396":0.13062914670760886,"397":0.4039037162604524,"398":0.11272443028475158,"399":-0.0626847928231904}},{"sx":5,"sy":5,"depth":16,"w":{"0":-0.5927234991025726,"1":-0.026233969396905397,"2":0.10713985588668788,"3":0.3478720593081936,"4":0.0434563107855107,"5":-0.16337124998974598,"6":-0.3540780643006118,"7":-0.405840420321128,"8":0.16241563723681393,"9":-0.10237641110661663,"10":-0.0355781994267193,"11":0.5329366518183486,"12":-0.516540126544821,"13":0.037551036334770006,"14":0.016841156738692756,"15":0.4723265541777727,"16":0.3210867051090906,"17":0.366925410462664,"18":0.34713217123126094,"19":-1.2898283456359065,"20":-0.39884364699679836,"21":-0.21537250906913627,"22":0.06500298859205736,"23":0.417555024942709,"24":0.20962985688136343,"25":-0.35883111987898697,"26":0.13346167707009374,"27":0.1834922812953336,"28":0.5440956149739811,"29":-0.37272973718965047,"30":0.01865058918494702,"31":-0.053837378569223875,"32":0.2922176030245871,"33":0.24922834459506515,"34":-1.0599456527095004,"35":-0.3265759806007334,"36":-0.32586601593850995,"37":-0.41589069123357314,"38":0.10422663346391182,"39":-0.13174690137902526,"40":0.15458428575307118,"41":-0.5789134425875212,"42":0.2925467639247361,"43":0.451752329368018,"44":-0.14431999457744896,"45":-0.27139275027149523,"46":0.1827390893593897,"47":0.17881440379455824,"48":-0.12047993998864272,"49":-0.44329703858128966,"50":-0.9725509086720882,"51":-0.02036249155295909,"52":0.3895424242704744,"53":0.20722617603471372,"54":-0.6097757004339829,"55":-0.32937782969481105,"56":-0.14616249833130346,"57":-0.3792511878225334,"58":0.06766030239993943,"59":-0.02870544538230791,"60":-0.18367052773283443,"61":-0.3933759384053111,"62":-0.07941915466415865,"63":0.40122202859141926,"64":0.5192566518178873,"65":-0.08522124783114679,"66":-0.1736449792760234,"67":0.08378234474044041,"68":0.4803304396842875,"69":0.2888190727201382,"70":0.5044380674953998,"71":-0.25908860815642765,"72":-0.7372461806910575,"73":-0.011884967818316126,"74":-0.14138833593656017,"75":-0.4978409808159752,"76":0.16516811329588318,"77":-0.8321219402510288,"78":0.23230401327258582,"79":-0.3207998672989178,"80":0.29117554263409007,"81":-0.729590413096292,"82":0.08904669434402446,"83":-0.9437598472772305,"84":0.15859510866118534,"85":-0.2443456187474401,"86":-1.095874049909512,"87":-0.504508667891931,"88":-0.16766578956882686,"89":-1.1047846266570656,"90":-0.42315938439940265,"91":0.3053703306426513,"92":-0.3913000080986064,"93":0.2947694703355823,"94":-0.12666013416377944,"95":0.030959361273253855,"96":-0.13118610952551193,"97":-0.04338462538285527,"98":-0.06773123261750122,"99":-0.7817324066470345,"100":-0.06083398515768756,"101":-0.5163992461103877,"102":-1.0086632284893902,"103":-0.6643243025188644,"104":-0.6509284350124638,"105":0.43533302096146,"106":-0.32292616992730977,"107":0.1841933238786515,"108":0.15093582358008767,"109":-0.6282363179573158,"110":-0.1941546743985123,"111":0.15637420687586248,"112":-0.3946197499894459,"113":-0.28433584391146155,"114":0.32004476607128945,"115":-0.030868672791555595,"116":-0.2560402133539182,"117":-0.8736896712142417,"118":-0.8149244031922978,"119":0.3205890759098376,"120":0.016373183214100927,"121":-0.5684713265734903,"122":-0.35772801279035654,"123":-0.013480443696002434,"124":-0.32654046417903215,"125":0.39817288783949,"126":-0.30066107136189607,"127":0.016509197320787487,"128":-0.32973197296133566,"129":0.2174776910635979,"130":0.16932714021964893,"131":-0.03224154083815244,"132":-0.5768201241885494,"133":-0.20738071289810306,"134":-0.15928560410634068,"135":-0.3622135407344446,"136":0.24987154420287183,"137":-0.17339663990963647,"138":0.04164074136302557,"139":-0.09774350022174225,"140":0.23243249497889118,"141":-0.0643079693873835,"142":-0.1514422617474264,"143":-0.05474731256299639,"144":-0.35929279363547134,"145":-0.5430328807985954,"146":-0.3945129954858768,"147":-0.038973559743665336,"148":-0.5427510107624062,"149":-0.3640899206031843,"150":0.13670536026550015,"151":-0.19687230502903208,"152":-0.7945515673621741,"153":-0.11096384737563007,"154":-0.022863157763298097,"155":-0.42402261949736686,"156":-0.09315177273820001,"157":-0.24968589834873242,"158":-0.20871138654386298,"159":-0.09381869157405143,"160":0.10386674432675665,"161":0.8583303989076697,"162":0.16932407979520006,"163":0.4911997268913195,"164":0.2552705870348879,"165":-0.9383685679186985,"166":-0.91473196903493,"167":-0.1552494148934264,"168":0.5754774241986129,"169":-0.30658919107201404,"170":0.3560436310838604,"171":-0.7839800511488685,"172":-0.19365732260167592,"173":0.5998195725494376,"174":0.2112992115089112,"175":0.42000288200683694,"176":-0.10501216310836335,"177":-0.37753160139942404,"178":0.4454799770843723,"179":-0.43860990096230623,"180":0.1791814703429648,"181":-0.20597872783637203,"182":-0.10191157688921672,"183":-0.5734932691246442,"184":-0.2321264515290402,"185":-1.0312749031786521,"186":-0.12943425023986826,"187":-0.7931200499909684,"188":0.23450669636333313,"189":-1.1796544995966185,"190":-0.468487498090119,"191":-0.3774119919180586,"192":0.20335935812064657,"193":-0.3846195727951139,"194":0.7529456466690306,"195":-0.26729224998060086,"196":0.33527773717596415,"197":0.15245058892473018,"198":-0.04621458564742532,"199":0.4102447579891505,"200":-0.6773235523430723,"201":0.2653773217616205,"202":0.2334584070595447,"203":-0.3151227907225241,"204":-0.21730087219452904,"205":-0.10402695733518247,"206":0.050430981550081994,"207":-0.43871633782616576,"208":-0.16377129756405884,"209":0.22798398715314006,"210":0.13874283384772312,"211":0.21753541370011506,"212":0.02495602844000717,"213":0.44341509330522694,"214":0.10992822970011346,"215":-0.04826699324769328,"216":0.22763593595677037,"217":0.5302598109868614,"218":0.08838006249025267,"219":-0.10099716551728577,"220":-0.4054354393034513,"221":0.36168616867976516,"222":0.18721085551092603,"223":0.13048305196788212,"224":-0.5089085392985129,"225":0.36247233938344986,"226":-0.04525201047474817,"227":0.21945959072203428,"228":0.9513418426798869,"229":0.5301262418226299,"230":0.5569399485215186,"231":0.4955604813805683,"232":0.7342472060855437,"233":-0.1751710275512691,"234":-0.10098701433129031,"235":0.3246403152955969,"236":0.5092842745261101,"237":0.004628142232628411,"238":-0.34357271884842905,"239":-0.28311341268858536,"240":0.28195967169646874,"241":0.09206493855039456,"242":0.1613520264998819,"243":0.5561833355379356,"244":-0.6213360478712516,"245":-0.09286113115339695,"246":0.17688108935093247,"247":-0.5317269106273563,"248":0.3448819138265795,"249":-1.156534863566007,"250":-0.0295900154851211,"251":-0.761451128041665,"252":-0.34464281703503863,"253":-0.10587003709044937,"254":0.04689636828933643,"255":-0.46182643589382794,"256":0.3170681567853222,"257":0.05635884334827351,"258":0.5564001656360187,"259":-0.2684695467694736,"260":-0.41068234916129137,"261":0.05387804787676987,"262":0.0796971158113809,"263":-0.3748154292147975,"264":-0.25722435323525317,"265":-0.5179896796541258,"266":-0.4245171723344306,"267":-0.5034382512443734,"268":-0.4215189107527311,"269":0.10245841736405702,"270":-0.49121628165192793,"271":0.13591320912904536,"272":0.24968896788101905,"273":-0.35375970149509595,"274":-0.33972574791314375,"275":-0.570771596443532,"276":0.2519517753045763,"277":-0.06807407261469364,"278":0.08527478570052313,"279":-0.04274668914717173,"280":0.1287588339322579,"281":0.07463992003335343,"282":-0.4227920111901358,"283":0.46204782729935806,"284":0.524403123305748,"285":-0.0927060302927261,"286":0.18151365711337755,"287":0.17530622348170657,"288":-0.2966828447769392,"289":-0.07113277234350615,"290":-0.7793973949829537,"291":0.237526267176578,"292":0.1606931278303858,"293":0.450678243919208,"294":-0.023668698621847443,"295":-0.13204047933568094,"296":-0.5395524577647816,"297":0.377280759597944,"298":0.20563465450301535,"299":-0.13895634323999212,"300":0.41301117985385993,"301":0.6231656660648845,"302":-0.04845629199308664,"303":0.18446744070195814,"304":0.27761692111361924,"305":-0.033079516979712946,"306":-0.7662864849918919,"307":-0.27851475177878027,"308":-0.8655732812682695,"309":0.4845196725474136,"310":0.3515227747986382,"311":0.40567824689954135,"312":0.5161821105943691,"313":-0.1198183810703994,"314":0.1599911347356092,"315":0.35954363021893443,"316":0.4223152357999883,"317":-0.6217100405046169,"318":0.43208158227516663,"319":-0.334976827591517,"320":-0.2779016386819698,"321":-0.05409607110421961,"322":0.1794329878560989,"323":0.1294762179061868,"324":-0.19143065708509702,"325":-0.6683416912522697,"326":0.4823437644830088,"327":-0.27532998513669643,"328":0.22082180106659602,"329":-0.07621884936648413,"330":-0.6652331366223405,"331":0.1941164945263916,"332":-0.6606057439705646,"333":0.16916718186940646,"334":-0.2168241328453912,"335":0.30579364164174383,"336":-0.2568091208989645,"337":-0.5031232423687664,"338":-0.3019412067165103,"339":0.22206020495844583,"340":0.23620775867487417,"341":-0.5434123620360188,"342":0.18053283806230241,"343":0.24495908301721409,"344":0.12844058072747258,"345":-0.36183605632994753,"346":-0.6143580080426324,"347":0.23716532283287223,"348":-0.33500254600197504,"349":0.16730003249772135,"350":0.33391664162808027,"351":-0.4695687119505836,"352":0.17117957794106559,"353":-0.15180891560916554,"354":-0.023683294418316705,"355":0.3342668685510137,"356":-0.07526390403713089,"357":0.1460518134590703,"358":0.8979785167321881,"359":0.9158139091038164,"360":0.4057649986960606,"361":0.22961319439645275,"362":-0.13089359150179825,"363":0.4382113341148945,"364":-0.35625240110286555,"365":-0.35511887925491215,"366":0.20462012329906037,"367":0.1929449765326907,"368":0.45626902905797034,"369":0.5413088910244173,"370":0.4783000455514931,"371":-0.19874558796927866,"372":-0.20188562091892714,"373":-0.1823638190216748,"374":0.19968195271395492,"375":0.14743139877859493,"376":-0.16900593095958225,"377":-0.7578749397172047,"378":0.05816568505867119,"379":-0.2697586472039186,"380":0.07599412963225859,"381":-0.1261569315430524,"382":-0.4016220609414276,"383":-0.12308550994807829,"384":0.14392793570563783,"385":0.06279643738862971,"386":-0.05718866743930285,"387":-1.0236215163093028,"388":-0.186551726177031,"389":0.3122267181366747,"390":0.016816409710729112,"391":0.2411556218592243,"392":0.08334929240268969,"393":-0.4145385708178958,"394":-0.10148126761260501,"395":0.19134842259177362,"396":0.3764792726785721,"397":-0.10875129004801823,"398":0.2719593111236933,"399":-0.2028531492404284}},{"sx":5,"sy":5,"depth":16,"w":{"0":-0.3256411200566054,"1":-0.2537693637196875,"2":0.6511438693018718,"3":0.1293705697969142,"4":0.7346027958057332,"5":0.20330636913454395,"6":0.5141377109164228,"7":0.18742709671752528,"8":0.4376363071427881,"9":0.04204252124771922,"10":-0.03691821951713051,"11":-0.46983872991948683,"12":-0.5229077638113643,"13":0.1813571664228043,"14":0.27927922123649307,"15":0.2601729188114887,"16":-0.08844246458399517,"17":-0.09860170942050384,"18":0.4574528118629597,"19":0.5585613385152775,"20":-0.2817206266137912,"21":0.3403023712768142,"22":0.08993344683852403,"23":0.13468932989200358,"24":0.2517810755017913,"25":0.1787760528853567,"26":0.15036108661889316,"27":0.21192823442209488,"28":-0.00009253364425434985,"29":0.5008719242653215,"30":0.24830800230186736,"31":-0.5238473421526642,"32":-0.05059455432677775,"33":-0.11556699874390847,"34":-0.7494683437508204,"35":-0.008073181707392423,"36":-0.7631591862053576,"37":0.04024557513761261,"38":-0.30978679151780414,"39":0.08173490968545466,"40":0.21038744274233,"41":-0.3395356324624497,"42":0.5618104891960098,"43":0.01758419205871225,"44":-0.14194410642562508,"45":-0.09949568993250098,"46":-0.33626147166252196,"47":-1.0300471285164203,"48":0.007843413215167115,"49":0.3952920842534445,"50":-0.6923248726116046,"51":0.010855298804476141,"52":-0.38011890943959115,"53":-0.20994807319639586,"54":0.15829038351230962,"55":0.019969822855768163,"56":0.03573663443031961,"57":-0.6014936692938437,"58":0.41911690301174187,"59":-0.14758927112444106,"60":0.09356504976505349,"61":-0.15391864319732126,"62":-0.3770326673541062,"63":-0.2812957622586969,"64":0.20401656941371726,"65":0.1777821275171234,"66":-0.14677168260772852,"67":-0.09959069132825885,"68":0.28215936093381,"69":0.3784857896832258,"70":0.11928201869515999,"71":0.0696413604455493,"72":0.32060606047787293,"73":-0.009315397519658227,"74":0.3916264339515218,"75":0.022162831689210846,"76":0.14150118569950285,"77":0.5478179568294453,"78":-0.45742311056993523,"79":-0.3653669347891065,"80":0.38891480757654434,"81":0.15379919612406429,"82":0.138838433549147,"83":0.20957329868971286,"84":0.2587508440301745,"85":-0.054345554514600644,"86":-0.08586172425025002,"87":-0.14483245328554525,"88":-0.5578822311512142,"89":-0.19656667328822733,"90":0.27788465853741834,"91":-0.34132267109915365,"92":0.5020190514122684,"93":0.4249752320432618,"94":-1.1140130700561193,"95":0.2178559134626253,"96":0.36947899726541394,"97":0.5790128263947872,"98":0.48763307808219924,"99":-0.08580444628635199,"100":0.1571748965231029,"101":-0.18161379206913653,"102":0.2755683688002244,"103":-0.8699629426586984,"104":-0.12357328697870117,"105":0.11024172710273154,"106":-0.4029987475315372,"107":0.08242763162959449,"108":0.20126383392658329,"109":-0.3810412120847334,"110":-0.38728832765373933,"111":-0.25975887560886046,"112":0.42865830632450985,"113":0.1832972371589638,"114":0.05869725248360931,"115":-0.14783372561828031,"116":-0.3973381604438328,"117":-0.27390086287337606,"118":0.21609147240780485,"119":-0.18050351692280225,"120":-0.0514560323602245,"121":-0.0348175669399344,"122":0.35368579478909057,"123":-0.37575668327775513,"124":-0.12133540257060031,"125":0.2930352536516757,"126":-0.6754350782439774,"127":-0.09009218572313647,"128":0.3450636157783141,"129":-0.03442474486882258,"130":-0.6449938621647193,"131":-0.5255293385651665,"132":-0.26983952008405254,"133":-0.019454112501377314,"134":0.05611054898316901,"135":0.19590828907134072,"136":-0.21172566980209245,"137":0.20670802855674136,"138":0.01537773778802839,"139":-0.7486722401081412,"140":0.0436371179562272,"141":0.3088010553034324,"142":-0.11602220725559932,"143":-0.2680912374896719,"144":-0.0636507836155407,"145":-0.19937788017987157,"146":-0.31477113648195904,"147":-0.1926425917142555,"148":0.6448173661648413,"149":0.16914079939463475,"150":-0.3622892482322524,"151":-0.09412571086585207,"152":0.39859353126694524,"153":-0.1106018739569992,"154":0.03711083645568266,"155":-0.5832221157119333,"156":-0.04188489195595021,"157":-0.5550056691390728,"158":0.38406171549826135,"159":0.1734938140500798,"160":-0.07923650978462737,"161":-0.1188503034116768,"162":-0.2909700524804852,"163":0.06837338892042423,"164":-0.2662135410373366,"165":-0.08015466525787569,"166":0.061792040360383146,"167":-0.037089754096356356,"168":-0.04656559770077476,"169":-0.202887772530627,"170":-0.011123016522915698,"171":0.22987391419951594,"172":0.05009360205080397,"173":0.008043015663573651,"174":-0.32463814197376756,"175":-0.1739155877006874,"176":-0.3643184150439032,"177":-0.33042113482321084,"178":-0.2461219225773128,"179":0.10147070917864544,"180":-0.1490432616347463,"181":0.1260809040410426,"182":-0.178605997905647,"183":-0.340430768834782,"184":0.20949822329161927,"185":-0.18738315957513277,"186":-0.10171974545077661,"187":0.08422232885334263,"188":0.08861910051403592,"189":-0.1441733709042429,"190":-0.568606491117263,"191":0.10273806246547937,"192":-0.4910069674719969,"193":-0.20979506857383345,"194":-0.5262753591560551,"195":-0.27610436888795103,"196":-0.18815202278963006,"197":0.3995013301170143,"198":-0.6257842278660565,"199":-0.17226004587405838,"200":-0.47939586828652564,"201":0.05856548054966662,"202":-0.43208683849812884,"203":-0.7109842671045898,"204":-0.26078248639505125,"205":0.10251305879191772,"206":-0.5168155832922084,"207":-0.35986003199435046,"208":-0.12680941468937862,"209":0.06655881686869632,"210":0.0821568071161786,"211":-0.2010508341463429,"212":-0.08349044273868052,"213":0.14916843455924572,"214":-0.12059271108270418,"215":-0.22505675382145404,"216":0.11909981446735692,"217":0.19603515950631528,"218":0.03391002331157268,"219":-0.0673880564439286,"220":-0.3461713305375766,"221":-0.15989655302266742,"222":0.12324028345934064,"223":-0.3149245007699182,"224":0.3070839761086535,"225":-0.19129231237169703,"226":0.436941550239385,"227":0.21632102916607462,"228":0.250416545562683,"229":0.010496593872627372,"230":-0.08982947845288976,"231":-0.05248487921810168,"232":0.5616177426905439,"233":-0.019491424680836922,"234":0.2997800882229551,"235":0.15218882889708124,"236":-0.015552485728718353,"237":-0.15049018798633337,"238":0.4340717805098308,"239":-0.30035874897639936,"240":0.06360821331019954,"241":0.5183542966352817,"242":0.41666965080432516,"243":0.20330362052827175,"244":-0.09452836804055838,"245":-0.08657283474171307,"246":0.3034991938421233,"247":-0.21720148226495098,"248":-0.7037223737057237,"249":0.3164537895225363,"250":0.1400077742866571,"251":0.30098740141052543,"252":0.21441328174176086,"253":0.33234236960778707,"254":-0.31598329384981116,"255":0.044151661581637386,"256":-0.013396848298388747,"257":0.18415581615250592,"258":0.04106745161162032,"259":0.0488386600501091,"260":0.628185363903026,"261":-0.07760947389336738,"262":-0.1879896830429,"263":-0.5100240104868607,"264":-0.45147066787212564,"265":0.15232592725955846,"266":-0.0822737083247481,"267":-0.12061245529677518,"268":0.10769866357927119,"269":-0.07306147441004528,"270":-0.18489906963495917,"271":-0.638300373029019,"272":-0.051455848125043925,"273":-0.05722581644649067,"274":-0.6967381715557541,"275":-0.33656096084503,"276":-0.05357661870925854,"277":0.24514339351039666,"278":-0.1478363124639888,"279":0.3100371224863833,"280":-0.21478637379800342,"281":0.004448838622240537,"282":0.08548188230550072,"283":-0.6104089079967205,"284":-0.05083051612036654,"285":0.4515693676783993,"286":0.08799730923972256,"287":-0.18249092209480441,"288":0.030646460741642335,"289":0.2308348773728574,"290":-0.01937493909713531,"291":0.20125580320138553,"292":0.5424469933872214,"293":0.04204364643728344,"294":-0.021421390403988473,"295":-0.6741151959205416,"296":-0.13973173936144925,"297":-0.03319723816410277,"298":0.18177143354067168,"299":-0.2912623084897841,"300":0.03808212638247287,"301":-0.5777013077668254,"302":0.16104381805762227,"303":-0.25786899975956656,"304":-0.2537542771163841,"305":0.40073161422792797,"306":0.0386138671605465,"307":0.0976813935724795,"308":0.21096018488896762,"309":-0.020359539560419762,"310":-0.05896872702933771,"311":-0.44406449758049055,"312":-0.07072900796818896,"313":0.11720745584748704,"314":-0.13523186761895428,"315":-0.6333476115027366,"316":0.26404316875289635,"317":-0.2063516276759042,"318":-0.18231174119717516,"319":-0.4854659728738341,"320":0.10174142013833289,"321":0.03727034231534597,"322":0.023004637194228253,"323":-0.05850392164992774,"324":-0.5063954601923689,"325":-0.3981596760013195,"326":0.3421837284048781,"327":-0.12497209894969347,"328":-0.3357665796201104,"329":-0.3297688548999876,"330":-0.07881359776447865,"331":0.049663955673846225,"332":0.11771965390274797,"333":0.00480989371635971,"334":-0.7267849067066985,"335":-0.0821886103620894,"336":0.09437917249131118,"337":-0.4689706505833497,"338":-0.028476965442952407,"339":0.03401461125557031,"340":0.30833829725627354,"341":-0.11084500874468788,"342":-0.1486030657868625,"343":-0.18293467569613683,"344":0.02126087232345808,"345":0.048113984395300895,"346":-0.12316311749237445,"347":0.06658043540143055,"348":-0.05720671704018425,"349":-0.24876070796653396,"350":-0.33854161875311545,"351":-0.5343306178504682,"352":0.5335351872418477,"353":-0.03712268781033424,"354":-0.43601436437040286,"355":0.07299218562663506,"356":-0.27341079406280394,"357":0.0006830957335127796,"358":0.012388030825126753,"359":-0.2761825930768131,"360":-0.2543977183850109,"361":0.02161386675970327,"362":0.5801094492027654,"363":-0.5532174984082968,"364":0.028315496544156857,"365":-0.02674859801236667,"366":0.08597874450342728,"367":-0.6847131884561393,"368":0.267044842793781,"369":0.47921452096576866,"370":0.13505323595383592,"371":0.31298911793143414,"372":0.19308507327973842,"373":0.10789983564912367,"374":-0.013314410195461502,"375":-0.4020601052317161,"376":-0.12416463041165002,"377":0.10130181155662307,"378":0.19806783855790416,"379":-0.3693763843872495,"380":-0.016268293291774653,"381":-0.07198891041269517,"382":-0.5949669228362948,"383":-0.23747255610773224,"384":-0.16363016338012518,"385":-0.049692326689490904,"386":0.48100479893465214,"387":0.09814345941300096,"388":0.3068338588922578,"389":0.23159626935146077,"390":-0.03487050915027221,"391":0.04535656568608875,"392":0.12698894774660988,"393":0.07183475139926346,"394":0.14019543254306036,"395":-0.6321258520897254,"396":-0.03359335760916305,"397":-0.04729190163894232,"398":-0.10405883619239073,"399":0.013017439975344167}},{"sx":5,"sy":5,"depth":16,"w":{"0":-0.6538165770452072,"1":-0.31685226787272214,"2":0.32015075077414384,"3":0.2680983263930032,"4":-0.23377740365677158,"5":0.5308256418022588,"6":-0.08529512147480721,"7":-0.08200429550748779,"8":0.31761362180135344,"9":-0.12932996690390838,"10":0.17691652221674523,"11":0.10607798751974512,"12":-0.07020544839969126,"13":-0.2648220169576627,"14":0.11297997338378793,"15":0.148766404791355,"16":-0.6704606217012856,"17":-0.7434925117759051,"18":0.2614531278238719,"19":-0.16213204141826354,"20":-0.14990656135163297,"21":-0.20712293159482872,"22":-0.06634859459351236,"23":-0.16360269952297746,"24":-0.5294060290399275,"25":-0.06379635253407798,"26":0.33252905901857055,"27":-0.4482157946969718,"28":-0.15388100036401706,"29":0.1598063057541653,"30":-0.1331774768484171,"31":0.2403650320957822,"32":-0.7640079507527605,"33":-0.030438224069159064,"34":0.1101684410437596,"35":-0.452815901642857,"36":0.1963741408785967,"37":0.3713265746586258,"38":-0.0825613672075127,"39":-0.24828437720726912,"40":-0.42594914842210474,"41":-0.17812145845639338,"42":0.1253676857279754,"43":-0.7379305143061249,"44":-0.13008102861339324,"45":-0.6850633116774524,"46":-0.4196783684799195,"47":-0.5092994106156066,"48":-0.19115779644316308,"49":0.12585293007689913,"50":0.18473143650656892,"51":-0.1452221134498766,"52":-0.09578200949865676,"53":0.14607186881721573,"54":0.3640200340614628,"55":0.37618395285952344,"56":0.42876565870997196,"57":0.203387131346077,"58":0.01204319613398375,"59":-0.3516566690554466,"60":-0.19659127074528582,"61":-0.10711960268022394,"62":0.003950492938961579,"63":0.6258058578142769,"64":-0.6435530159461139,"65":-0.7728028771974971,"66":-0.3702926348983536,"67":0.30435986580125635,"68":-0.12361634564759949,"69":-0.21811934197220934,"70":-0.33371862233614485,"71":0.1063957533619157,"72":-0.278021252704131,"73":0.7514497189603018,"74":-0.6136377346380221,"75":-0.4545371099733065,"76":0.018669528971418405,"77":-0.23489340885002435,"78":-0.32133114994628637,"79":-0.22355699809037058,"80":0.1600023159144546,"81":0.6030005525204137,"82":0.48721838820224045,"83":0.007491703343160781,"84":-0.41622991434140266,"85":-0.11646051341465789,"86":-0.14164250673613585,"87":-0.38270916979052616,"88":0.1405761413239336,"89":-0.5171077799130221,"90":0.2424829609556391,"91":-1.3905839248848668,"92":-0.1659659628361501,"93":0.24042366868517132,"94":0.06237640069129067,"95":0.1412508484287572,"96":-0.4498911307442677,"97":0.29217610858977244,"98":0.15991481949848163,"99":-0.1956928101874072,"100":-0.4221656025541596,"101":-0.46191650525151046,"102":0.3392044130392265,"103":-0.3873331353324442,"104":-0.5295530093404227,"105":0.22570954415113945,"106":0.04161625981691353,"107":-0.5438916795639291,"108":0.21842888512716135,"109":-0.14319425192292462,"110":0.028643652491786357,"111":-0.36333045217716803,"112":-0.25708130117967665,"113":0.1758439284700125,"114":0.11203813296177555,"115":-0.05144256866587854,"116":-0.8675477986477497,"117":-0.5706500591011837,"118":0.5090981725691804,"119":0.4658415181893022,"120":-0.2183469697527277,"121":-0.4721700993873242,"122":0.14131649751181605,"123":-1.078012489481836,"124":-0.1923379615264321,"125":-0.4848500828673031,"126":0.16851259329339202,"127":-0.02292492449643191,"128":-0.012832254559311142,"129":0.16950162201693247,"130":-0.04283976581952358,"131":-0.1037490731406447,"132":-0.4346640694212559,"133":0.4307548757850972,"134":0.15316394741786793,"135":0.3211517214351143,"136":-0.13677708774280872,"137":-0.1887262750182783,"138":0.5790224216375217,"139":-0.18668031621166406,"140":0.14950468880812476,"141":-0.09517053016070595,"142":-0.2778623549812019,"143":-0.561592289136402,"144":-0.38990417039551206,"145":-0.0714901752150741,"146":-0.1216290913014403,"147":-0.5177468903651203,"148":-0.47224950423259077,"149":0.19764095818043415,"150":-0.6749515675046872,"151":0.3279578881092548,"152":0.1751923501603714,"153":0.023197725042175554,"154":-0.2303087221202891,"155":-0.140074479422319,"156":-0.21730520404440998,"157":0.12874327256516713,"158":-0.18877740956151465,"159":-0.4202373645149277,"160":-0.18354627872428445,"161":0.07332735865738263,"162":-0.38724494863465214,"163":0.004563952643398911,"164":-0.5824756878840711,"165":-0.3886337516895017,"166":-0.34664935210024356,"167":-0.31477439347588465,"168":-0.061573279888302745,"169":-0.3734102550593141,"170":0.1648565088995641,"171":-0.09339555456419717,"172":0.12944323895894796,"173":-0.2903660221977364,"174":0.06294488665538872,"175":-0.24305386859198533,"176":-0.2750326576549561,"177":0.7477664870351656,"178":-0.38996207381394926,"179":-0.14785292377292839,"180":-0.2537255287404943,"181":-0.4269942500912848,"182":-0.0030678458943415618,"183":-0.6429794582904512,"184":0.007840025753870663,"185":-0.30614188192786873,"186":0.10029154799346289,"187":0.307135360347821,"188":-0.1522635960796871,"189":-0.1409749963217605,"190":-0.03820526487906162,"191":-0.3549323765114651,"192":-0.3877513884575138,"193":0.11793423185118335,"194":-0.49942200061515274,"195":0.32013162337263595,"196":-0.3962059875543343,"197":-0.4637354135896665,"198":0.004343688489287745,"199":-0.03761635359653331,"200":0.19250902713444043,"201":-0.19331795556239675,"202":-0.22726208870191883,"203":-0.1453097312918995,"204":0.06744508313738268,"205":0.06890268782619659,"206":-0.5896641577260693,"207":-0.19411410518288644,"208":0.2905860042182746,"209":0.10983736070399772,"210":-0.5003433407229595,"211":0.41636182196091254,"212":-0.3022787855018501,"213":-0.16108066032154356,"214":0.1298803279191884,"215":0.4718824145547383,"216":-0.21557733492524747,"217":-0.1223698594456063,"218":0.07216523136419714,"219":0.7779601115132259,"220":0.47139172547182573,"221":0.2924015818567162,"222":-0.10508004265906068,"223":0.18120257554940883,"224":-1.032806889970831,"225":0.18778903798448973,"226":0.05546119386739248,"227":0.19864536559163182,"228":-0.0368627650877252,"229":-0.2710537813254195,"230":-0.07604717561839476,"231":-0.23188603108391112,"232":0.2237696318140213,"233":-0.5754863629062462,"234":-0.8435195006438175,"235":0.04186960839243683,"236":0.07980088354360892,"237":-0.17606309961168584,