{"layers":[{"out_depth":3,"out_sx":32,"out_sy":32,"layer_type":"input"},{"sx":5,"sy":5,"stride":1,"in_depth":3,"out_depth":16,"out_sx":32,"out_sy":32,"layer_type":"conv","l1_decay_mul":0,"l2_decay_mul":1,"pad":2,"filters":[{"sx":5,"sy":5,"depth":3,"w":{"0":0.16868023117494232,"1":0.2575187976160614,"2":-0.21260834703547274,"3":0.2973662739300356,"4":0.9072002840147998,"5":0.250058856254533,"6":-0.36569189301250465,"7":0.3632013952976246,"8":0.4780740945988486,"9":-1.908701748126559,"10":-0.7268755702341745,"11":-0.4096318358931137,"12":-1.0826545805065142,"13":-0.33835371996880953,"14":-0.07431008538853931,"15":-0.7658773332502801,"16":-0.5024312531783218,"17":-0.6972196683674081,"18":0.024244068644597806,"19":-0.03894464970246373,"20":-0.948018838136953,"21":0.17070399212979379,"22":0.30084628514646483,"23":-0.06987167621585978,"24":0.05061203096716887,"25":0.11649854797833174,"26":0.09555028694823378,"27":1.003284198261683,"28":0.6206937601504174,"29":0.4097279404638589,"30":0.5413772363986995,"31":0.1829572535833659,"32":-0.34387983180551573,"33":-0.16294605944754456,"34":-0.06540902379244797,"35":-0.6143356777508955,"36":-0.0968627470964341,"37":0.13772124475586822,"38":-0.04004871354734143,"39":0.13845292625628902,"40":0.3350409563418831,"41":-0.16895828406030033,"42":1.2051888949833167,"43":1.1094374861319471,"44":0.40770312116988,"45":-0.31217909394787013,"46":0.031194259336742386,"47":-0.6637868864378027,"48":0.4814122966129939,"49":0.08614723368515104,"50":-0.7426456876442141,"51":1.0345232212408135,"52":0.24236160058458361,"53":-0.09056753215905891,"54":0.6046735345377853,"55":0.675062246092268,"56":0.437092351564926,"57":-1.6015771202054938,"58":-1.3355166684497155,"59":-1.0821204839604919,"60":-0.11722098194905477,"61":0.4684571251944818,"62":0.19743121025350044,"63":0.15299347417505887,"64":-0.6654967625943589,"65":-0.375885458213927,"66":0.7755197718668911,"67":-0.003105900467714286,"68":-0.5120583122134968,"69":0.8131178531244166,"70":-0.23300334052886507,"71":-0.3762744013232358,"72":-0.5408781157930966,"73":-0.7765223321645655,"74":-0.498006923019806}},{"sx":5,"sy":5,"depth":3,"w":{"0":-0.573813352134064,"1":-0.3422355341775116,"2":-0.026913381304482693,"3":-1.0793278267696236,"4":0.11895427907167358,"5":0.49515635367951444,"6":-1.1579016063108216,"7":0.09018384695048112,"8":-0.17854006188445118,"9":-0.33234307330744345,"10":-0.21243723932878703,"11":-0.08660237233577976,"12":-0.46551345913783815,"13":-0.03651088776361715,"14":0.7210573927117888,"15":-0.35696129931840737,"16":-0.004968397390916451,"17":0.2466093633659311,"18":0.006336791596038354,"19":0.20163202044031364,"20":-0.19279663585155551,"21":-0.11377418337238314,"22":-0.1496591924847854,"23":-0.8365202798614371,"24":0.7396889892503625,"25":-0.24396709289749802,"26":-0.15218323256729396,"27":-0.3875619215249144,"28":0.025151679455057054,"29":0.5698480545788775,"30":0.9189303329485419,"31":-0.6302136375285027,"32":0.04751959971507164,"33":1.7099418970910838,"34":0.6987421632393088,"35":0.39345532572446174,"36":1.4481478850024274,"37":0.6672789207287105,"38":-0.3110674254052038,"39":-0.28743413001266965,"40":0.3876914853569336,"41":-0.2531152550141154,"42":0.3521543047898964,"43":1.1052489979939204,"44":0.4331912963065483,"45":0.7649932618537848,"46":-0.3682643590785396,"47":0.5066211999826787,"48":-0.37726762199131336,"49":-1.3047867699793032,"50":-0.3381273502680855,"51":-0.030429347218105886,"52":-2.1388668154748585,"53":-0.9233130448447852,"54":-0.5551132331144802,"55":-0.6491119201593889,"56":-0.07930938834426492,"57":0.4083658292536451,"58":-0.2994261501115813,"59":-0.4043735584262282,"60":-0.193724449697089,"61":-0.48517755269400314,"62":0.3140535056987329,"63":0.4338815768297608,"64":0.3520527017229176,"65":0.45186127200005816,"66":0.6374907982514392,"67":0.29923408227450576,"68":0.199661874177805,"69":0.46884402634214944,"70":0.0986605701134825,"71":-0.20246160296858595,"72":0.012164903168127905,"73":-0.027094591044926685,"74":0.13222863371586513}},{"sx":5,"sy":5,"depth":3,"w":{"0":-0.5442032977032246,"1":0.23391127045575197,"2":0.2534709618916626,"3":-0.06283393664377186,"4":-0.6764719539915625,"5":-0.9458348269978726,"6":-0.22291032884886997,"7":-0.33519733781025685,"8":-0.8763453859604585,"9":-0.24917535170319402,"10":-0.26228749818836666,"11":-0.6753803285148705,"12":0.3431242825844369,"13":0.6270417047760529,"14":0.2352502717669545,"15":-0.3922226580265658,"16":0.5693279231690413,"17":-0.08468954345997858,"18":0.16860026448284277,"19":-0.04028206492859792,"20":-0.9157986261960963,"21":0.22914250150919607,"22":0.03834946701850756,"23":-0.46194802428327564,"24":-0.0026560570638968625,"25":0.4598217376779047,"26":-0.09391584329740943,"27":-0.48698586762483925,"28":-0.07479823551614179,"29":-0.5166309207637336,"30":-0.1177489941237205,"31":0.2626872960806152,"32":-0.10329633667361808,"33":-0.043134393232728836,"34":0.5352906336110511,"35":-0.07483652600555905,"36":-0.04931291507793881,"37":0.059006563033998885,"38":-0.8896458333148651,"39":0.35080512997640806,"40":0.13024783038798976,"41":-0.33602503149498125,"42":0.38115868569433464,"43":0.017637405018770525,"44":-0.14205538059269782,"45":-0.6492393856567183,"46":0.46126479409932253,"47":0.15373823964485636,"48":-0.03516486239286515,"49":1.4618426166051122,"50":0.6901048030711862,"51":0.26161600041521105,"52":1.0503009695700987,"53":0.04055495312592158,"54":0.17973828948216589,"55":-0.04577022786374378,"56":0.47219065672802085,"57":0.5954453982608442,"58":0.00037638767912047817,"59":0.3363281039473181,"60":-0.47916738847099105,"61":1.2413512869148555,"62":0.4187275207633937,"63":-0.3272893651144274,"64":1.3274519621915366,"65":0.7211232464138178,"66":0.01330744819917385,"67":0.3286366521676651,"68":0.225511486649489,"69":0.27786833329368826,"70":-0.316145306859573,"71":0.0609727577058997,"72":-0.4807286047204863,"73":-1.143754890995054,"74":-0.548882100745405}},{"sx":5,"sy":5,"depth":3,"w":{"0":-0.5589395817048332,"1":-0.2576300743439138,"2":-0.4756396637257761,"3":-1.1086628440344277,"4":-0.46220163615724247,"5":0.0071184417531616855,"6":0.19467315013697528,"7":0.6802688642009201,"8":1.2802708210696594,"9":-1.136124357032895,"10":-0.2733031881663681,"11":0.5329621664151999,"12":-0.8000766706653691,"13":-0.21217079225804714,"14":0.549618641821573,"15":0.612365977849498,"16":1.315502629940678,"17":1.6020562700888878,"18":-0.2748355900150023,"19":0.17884354603642633,"20":0.6621105980688239,"21":0.22504114018735938,"22":1.0097098552399488,"23":1.1697449564985414,"24":-0.2936681953976742,"25":0.009338798337139962,"26":0.3778658536766254,"27":-0.39660672633736377,"28":-0.18705485796142154,"29":0.02961710684981971,"30":0.0811441414247946,"31":0.48772738342687383,"32":0.42448100641342196,"33":0.04416032081861329,"34":0.019077561469026155,"35":0.006641721509791954,"36":-0.3564783858028618,"37":0.17775647654470836,"38":0.20505517428832876,"39":-0.3590651756473241,"40":0.09476907430105033,"41":0.23761930170379222,"42":0.3036320928704391,"43":0.36550429500118925,"44":0.6444968857473576,"45":-0.10648653130661259,"46":0.29989753427206456,"47":0.27520454090259694,"48":-1.3547319165169074,"49":-0.6793436368160878,"50":-0.25421954994799684,"51":-0.5497050361654411,"52":0.016060287026704867,"53":0.27383764683635214,"54":-0.5155491156004217,"55":-0.800569450442335,"56":-0.0682826293340239,"57":-0.3646820423064521,"58":-0.8877861257358397,"59":-0.10266157010845108,"60":-0.015882587072876788,"61":0.037875135398953604,"62":-0.03483854417748496,"63":0.05543311296534139,"64":-0.06691691066586186,"65":-0.3271964874471604,"66":0.0190204903841644,"67":-0.14761794040798895,"68":-0.36049719083720794,"69":0.35749064377647,"70":-0.5994164423142393,"71":-0.3131993762938246,"72":1.0326397401877168,"73":0.11648659228862697,"74":0.6359194090781611}},{"sx":5,"sy":5,"depth":3,"w":{"0":-0.23505372911381295,"1":-0.7059729614682311,"2":0.19084956521658666,"3":-0.33721521118119124,"4":-1.0054512224423924,"5":-0.6437939706643085,"6":0.7951596357380173,"7":-0.11446071039735868,"8":-0.5412368002012897,"9":-0.38199553059816344,"10":-1.176219651325826,"11":-0.8849525852007042,"12":0.9815858336196691,"13":1.118950740032421,"14":0.06939858871727018,"15":1.00099585264974,"16":0.5306619442523908,"17":0.7064273594543885,"18":1.0211244109165476,"19":0.955426677030464,"20":0.787939926066912,"21":1.0214413230272377,"22":0.21368287947785033,"23":-0.34019035229775335,"24":0.2922363399217931,"25":-0.6752923186616698,"26":-1.0943440081818028,"27":0.3918481520804389,"28":0.33294672398908115,"29":-0.7852881039471816,"30":-0.5287657335493302,"31":-0.04130187183553568,"32":0.5950094581081101,"33":-0.4542207952187855,"34":-0.4881699694788787,"35":-0.6223583444201298,"36":0.9935099162790367,"37":0.48833209705556707,"38":-0.45588876619281765,"39":1.210547556747916,"40":-0.1925898145196805,"41":-0.8579401808737435,"42":0.08629662699236477,"43":-0.05460108011460848,"44":-1.0602793734063205,"45":-1.570609490683199,"46":0.02956390683000745,"47":0.9043033136164776,"48":-0.5907148920315033,"49":0.4285499191419998,"50":0.07379136249306864,"51":-0.35288259149344947,"52":0.6594461021674907,"53":-0.181421024613493,"54":-0.055463309680694094,"55":0.06312680659001928,"56":-0.5587355122136286,"57":0.2157120966313909,"58":0.7228514561521405,"59":-0.11936804865759182,"60":-0.09698149411910091,"61":0.7056520156102203,"62":0.618218018997602,"63":-0.8195350740586469,"64":-0.14466294383277786,"65":-0.054044722227686644,"66":-0.6160174700948973,"67":0.1975690367474153,"68":0.03965098152472023,"69":-0.3444753524503258,"70":0.21361741112562851,"71":-0.09526673808363123,"72":-0.19541183414405294,"73":0.5564709252395508,"74":-0.2348895546777055}},{"sx":5,"sy":5,"depth":3,"w":{"0":-0.5182767159497327,"1":0.5886654180997702,"2":0.9074162658006967,"3":-0.36463858300031116,"4":0.009859400257045028,"5":-0.5332514581356852,"6":0.2555540783801151,"7":-0.12907729641594456,"8":-0.19113572334837123,"9":0.19781566757872937,"10":0.4875706198778178,"11":0.7022563884051521,"12":0.03245812845290187,"13":0.4013504989474596,"14":0.5852286849961,"15":-0.6457809510429187,"16":0.4296325513166205,"17":0.7957875233740217,"18":-0.015430132360715134,"19":0.46736053392677757,"20":0.2691299199061201,"21":-0.1448878992567122,"22":0.08647003971468656,"23":0.1109653578325227,"24":0.18747158683182957,"25":0.58505332752418,"26":0.5392495163332379,"27":0.003094530784549848,"28":0.08017750167703645,"29":0.10784904769103248,"30":-0.7053163629761526,"31":-0.5342258432233883,"32":-0.007274439459254149,"33":-0.8052678329932245,"34":-0.5946951683207452,"35":-0.598939408606877,"36":-0.6004082001924664,"37":-0.2735794072752529,"38":-0.2997321839344905,"39":-0.7188232847672646,"40":-0.9338018703627717,"41":-0.9685468835274447,"42":-0.7661137698832341,"43":-0.11689277777379582,"44":-0.24780177059938902,"45":0.3330087898586198,"46":0.38847212223876587,"47":0.236937043800465,"48":0.6681464918387048,"49":1.0694602816290502,"50":0.33796375210490087,"51":-0.07785016033468733,"52":0.025707985599969393,"53":-0.12451823067101221,"54":0.48700224870710584,"55":0.15300143215616568,"56":0.5377882750794476,"57":-0.27880620200057116,"58":-0.7096296142657307,"59":-0.24864700821962435,"60":-0.026717165499376257,"61":-0.04164964751752304,"62":0.40135441354677803,"63":-0.05456349611055754,"64":0.6051305295767707,"65":0.1753788835692405,"66":-0.25079751092374186,"67":0.3736750539266229,"68":0.24532235494341068,"69":0.47679302254288514,"70":0.3402808783064739,"71":0.5043747891261703,"72":0.23766933963628756,"73":-0.24188867119805704,"74":-0.4268098617671498}},{"sx":5,"sy":5,"depth":3,"w":{"0":-0.7358815372850703,"1":-1.253897675042074,"2":-0.7529530258909668,"3":-0.18625576716118677,"4":-0.7916116876349338,"5":-0.4066469742319315,"6":-0.20371222550121454,"7":-0.4544370072236587,"8":-0.24408784029432132,"9":0.015318782524171078,"10":-0.4912842155275478,"11":-0.11011186088957516,"12":-0.44741254111897527,"13":0.11624953838800316,"14":0.5851297163078246,"15":-0.33813919767715794,"16":-0.4203655480258139,"17":-0.2482520565816294,"18":0.318013941830199,"19":0.5325518216164331,"20":0.7191798232319812,"21":0.05273749882817514,"22":0.47569527417015334,"23":0.6235957669299378,"24":0.16523246354165463,"25":0.2336410620604323,"26":0.4227804764171323,"27":-0.760408137072346,"28":-0.27202037413258234,"29":0.15259157447641458,"30":-0.20627400450165,"31":-0.02676613617563389,"32":-0.02026719122148873,"33":0.056824218397457334,"34":0.016821083642509994,"35":0.11293250391294002,"36":-0.24468027886434587,"37":0.3035828325078505,"38":0.3021304980255475,"39":0.2588529480998818,"40":0.15920404448274456,"41":0.292413814966642,"42":-0.8363622992966845,"43":-0.34526214946041667,"44":-0.2970578751809541,"45":-0.505678497510846,"46":-0.5254558781006923,"47":0.3236021586561173,"48":-0.3109306810834151,"49":0.12707236864396915,"50":0.5017315918773887,"51":-0.4934562585800923,"52":0.46587748776199944,"53":0.4605189839331769,"54":0.07343691246087158,"55":0.5344565321544565,"56":1.1141874696452292,"57":-1.0812822824214903,"58":-0.40580615803244063,"59":0.2125437749842317,"60":-0.1642762336959176,"61":-0.16277737167892933,"62":1.0675562026948955,"63":-0.3159418740249046,"64":0.20488200112379576,"65":0.8907079822108578,"66":-0.413563648933675,"67":0.0877333939899494,"68":-0.07427928512057619,"69":0.6661163409185851,"70":0.5794048820211736,"71":0.33884147446986834,"72":-0.06097678456423136,"73":-0.39048260351336406,"74":-0.026653660584462575}},{"sx":5,"sy":5,"depth":3,"w":{"0":-0.3381129001131579,"1":-0.5937356184726363,"2":-0.5346526289485787,"3":0.6671573209273496,"4":-0.14958733276425704,"5":-0.25841230827095,"6":0.4621559261947746,"7":0.5479373488059731,"8":-0.12926796207384678,"9":-0.33869282435596604,"10":0.7098446600657378,"11":0.03632598249017145,"12":0.14569120582852235,"13":0.7153964068762861,"14":-0.07800886348778444,"15":0.03203649794162235,"16":0.0750246675638195,"17":0.5050016451995967,"18":0.37769326160172945,"19":0.4899309704615716,"20":0.45820359307969366,"21":-0.7108160930593879,"22":-0.28817857447319545,"23":-0.7980566852701575,"24":-0.592768598487138,"25":0.12166878711973475,"26":-0.6096622954834029,"27":-0.8706134414475457,"28":-0.03361802904174149,"29":0.18637845542547612,"30":0.12471422922512218,"31":-0.45193385921549206,"32":0.34273703230605645,"33":0.46240030675953586,"34":0.28713352266092623,"35":0.04015471153508628,"36":-0.22881102246790305,"37":0.0555431601971026,"38":-0.011194714970576565,"39":0.02478683183200817,"40":0.989589031646487,"41":0.6779047614272482,"42":-2.2470453937246306,"43":-0.5210291295445154,"44":0.15463186403240115,"45":-0.1270067287975264,"46":-0.06433433426122934,"47":0.2991777226539839,"48":-0.06485365058062012,"49":-0.45693957051302014,"50":-0.2539574330206462,"51":-0.5321270008479182,"52":-0.6384893815917144,"53":-0.2904557963369598,"54":0.47654564990291315,"55":0.6646988896026387,"56":0.6993963635691314,"57":-0.43883061760739867,"58":-0.0022564729373790162,"59":-0.1050505824650217,"60":-0.05062458426529462,"61":0.06085779700474961,"62":0.23654165198729163,"63":0.5388166192702024,"64":0.15336698517255334,"65":0.13952142899998882,"66":-0.9553680408875368,"67":-0.8173918167188932,"68":-0.9215404842095931,"69":0.4387835553816072,"70":0.5618315120033425,"71":0.5517892446993493,"72":-0.11139907836170809,"73":0.32448408660349876,"74":-0.2153449493803117}},{"sx":5,"sy":5,"depth":3,"w":{"0":0.6380855826489527,"1":0.7430131126785398,"2":0.8262786923033867,"3":0.20770019619424274,"4":0.206271287068723,"5":0.7897743708841374,"6":0.01612852156674678,"7":-1.3967105278272176,"8":-0.6068690121486535,"9":-0.15372655268566848,"10":0.16720911577297173,"11":-0.0371861234794051,"12":0.039612441671875914,"13":0.833537120681198,"14":0.8544979363838395,"15":0.08053667703315666,"16":0.24788780086933324,"17":0.2688486782614297,"18":-0.1500619113978784,"19":-0.11307016690780387,"20":0.19425021016779317,"21":-0.6632271079613375,"22":-1.2884806100134405,"23":-0.5166321488698652,"24":-0.4085503492892248,"25":0.021535442495111214,"26":0.3118625298469129,"27":0.24063243465004752,"28":0.9312918492447575,"29":0.935966944861881,"30":-0.14594753031265026,"31":-0.609598025773274,"32":-0.3388442304667234,"33":-0.3414395778168928,"34":0.07317612538918468,"35":0.3816466052788841,"36":0.08914534218772534,"37":0.023651105263300602,"38":-0.2082517670629468,"39":-0.6731028336722884,"40":-0.3262971065436142,"41":0.04248111154165017,"42":-0.6380176863056141,"43":0.04301980460583239,"44":0.20285892212305504,"45":-0.5863178266205122,"46":-0.7139974603471801,"47":-0.4377301022573429,"48":-0.2105815609094649,"49":0.5996223049761112,"50":0.7876741852185032,"51":-0.7397498426519774,"52":-0.5574682491757369,"53":-0.7275088071974869,"54":-0.059283867971502695,"55":0.6792515760693238,"56":0.3550530552917139,"57":-0.5120068352982265,"58":0.6050680861824473,"59":0.40469674487474283,"60":0.3242527773380898,"61":0.2965863796200959,"62":-0.4559924519651061,"63":0.07800804576435272,"64":0.7917835472745203,"65":0.39291355034481706,"66":-0.09023792205171677,"67":0.15046958036707064,"68":-0.21547013062043807,"69":-0.28185331681624387,"70":0.589781187422946,"71":0.1501541130870922,"72":-0.49944424287965583,"73":0.9894834225847504,"74":0.36992584376504284}},{"sx":5,"sy":5,"depth":3,"w":{"0":-1.249316767697823,"1":-0.21020646905170992,"2":0.07032443483378872,"3":-1.2506214506821731,"4":-0.6672297191065721,"5":-1.039280423795267,"6":-0.7921417848806259,"7":0.9040425142140084,"8":0.4200084373658409,"9":0.34454787162722017,"10":1.2361753000469613,"11":0.5024453719472628,"12":-0.2903070419208533,"13":0.5645656893615357,"14":-0.49133894949637985,"15":0.2741076749498994,"16":0.9791705741321303,"17":1.3440292010083617,"18":-0.31819618030029845,"19":1.3348970543092433,"20":0.8198578218972659,"21":-0.5002014224266161,"22":0.9015248509998283,"23":0.2746076939940743,"24":0.33039963483427814,"25":1.192524472448607,"26":0.5868927083878077,"27":-0.28041194081033416,"28":0.6979848298124743,"29":0.11791786481178544,"30":-0.2822993253200369,"31":-0.042599861444567365,"32":-0.3333169285706468,"33":-0.9025123512093599,"34":0.20757964592636222,"35":-0.17144835857245974,"36":0.05882980703167536,"37":0.09818514912656066,"38":-0.899527905024858,"39":0.32629793417467023,"40":0.13060558817242854,"41":-0.7320879439366078,"42":-1.2485563463903133,"43":-1.0737940628065692,"44":-1.3064121187742166,"45":-0.817642684592117,"46":-0.45658323107174104,"47":-0.9260523176889321,"48":-0.3875309745502023,"49":0.144102238856224,"50":-0.050939848925147004,"51":0.25001465649155197,"52":0.8133760037760975,"53":-0.21535814890862245,"54":0.4467293599606046,"55":0.3574999951040077,"56":-0.1965657206469845,"57":-0.08071774808211556,"58":-0.30204606531519806,"59":-0.6864266645665564,"60":-0.15293703284500973,"61":0.07266831637958626,"62":-0.09384839830491216,"63":0.8753549532267468,"64":1.212959360008105,"65":0.7326689875841087,"66":0.1762692128022401,"67":0.3885927006382701,"68":0.0005442019705933442,"69":-1.050319426810555,"70":-0.3482437843428592,"71":-0.7350333309813452,"72":0.7709271779754447,"73":1.1559689064892178,"74":0.4781119573767109}},{"sx":5,"sy":5,"depth":3,"w":{"0":-0.6132627001894484,"1":0.49791932915309994,"2":0.009691702563973444,"3":-0.38558799378964703,"4":0.5594203101145312,"5":-0.3459690755002615,"6":-0.603865421304753,"7":0.0489616400221197,"8":-0.005005834618900207,"9":-0.7857561321400419,"10":-0.28014355435666566,"11":-0.59176265986938,"12":-0.9231851118600085,"13":-0.5197159838324086,"14":-0.24878395542747594,"15":-0.38679652370443857,"16":-0.28930845736468386,"17":-0.5412621406987208,"18":-0.2854147990767702,"19":0.024729431086578654,"20":-0.40377380736745927,"21":-0.06922536383303818,"22":0.27464631253180966,"23":0.08448371155861198,"24":0.14645965895816096,"25":0.6130038584199861,"26":0.38569831302384994,"27":0.12619330423057984,"28":0.005967569192824786,"29":-0.1318753026090547,"30":0.20468880283537622,"31":0.11468747769599856,"32":-0.38296744488073353,"33":0.24678859587763693,"34":0.36598794570010523,"35":-0.22575977322248705,"36":0.4512630476870396,"37":0.32213592522928447,"38":-0.2642634267607303,"39":0.15469714919203045,"40":0.28453795324247527,"41":-0.13320892914475033,"42":-0.292927513421651,"43":-0.3325668398771302,"44":-0.7299646887274561,"45":-0.6076051386078264,"46":-0.11287804908578043,"47":-0.1415060970068943,"48":0.5538984085785429,"49":0.5270495988367487,"50":-0.40071188521232115,"51":0.9934126374278776,"52":0.8252185723384234,"53":0.7853603952822855,"54":0.5254689330832577,"55":0.8094086666764622,"56":0.24532467785199905,"57":0.45027895472671103,"58":0.397409100910932,"59":-0.08546445915888409,"60":-0.49081165059285015,"61":0.11380443635655162,"62":-0.03234434643080377,"63":-0.8089098939716372,"64":-0.4800238659492168,"65":-0.8233233452718418,"66":-0.8026632321161284,"67":-0.46508893223785897,"68":-0.3919375080345067,"69":-0.34858582936419963,"70":0.0017673831283653092,"71":0.028748670770294832,"72":0.14815068500890016,"73":-0.06868735028652566,"74":-0.41171051837571804}},{"sx":5,"sy":5,"depth":3,"w":{"0":-0.30969136363379274,"1":0.11224888242092824,"2":0.17275609840051112,"3":-0.2212958815501136,"4":0.7594252545717429,"5":1.0334835156386335,"6":-0.6830379975587654,"7":0.586672579038283,"8":0.2884082409922308,"9":-0.6413656060793018,"10":0.6989287782347571,"11":-0.23770788259796644,"12":0.13104453830272597,"13":0.501620365777243,"14":0.2823141362345295,"15":0.4542106557100924,"16":0.06166465597428856,"17":-0.3141985870672494,"18":0.2825563925488839,"19":0.6185435167318173,"20":0.19093861305288498,"21":-0.18341646343508208,"22":0.38712648075708034,"23":-0.16227511084442287,"24":-0.06799322925606877,"25":0.9823609537746775,"26":0.1433327644281531,"27":-0.46846023471205006,"28":0.37826042712902563,"29":-0.19582155150320996,"30":0.8669141641274873,"31":-0.10095786016923618,"32":-0.17379986706217088,"33":0.6247981592907427,"34":0.019458228998302355,"35":-0.5450202904788838,"36":0.37297394107599807,"37":0.12779640264367229,"38":-0.14442631355980753,"39":-0.2653102717151564,"40":-0.12624666622129677,"41":-0.9423992897975845,"42":-0.7090008645997409,"43":-0.3114867966986784,"44":-1.3056094293771878,"45":-0.24051202274962516,"46":-0.207529224415716,"47":-0.5371288229508661,"48":0.024623068024786785,"49":-0.0697103612834374,"50":-0.549728446444821,"51":-0.2744238743174647,"52":0.00667281082812599,"53":-0.2444598872816646,"54":-0.7534589409597687,"55":-0.9065365981144697,"56":-1.5148808630032708,"57":-0.31127460776064975,"58":-0.371225975846435,"59":-0.6114103106127168,"60":-0.020334490407491766,"61":-0.14736890684238377,"62":0.24127419439188502,"63":0.40462746786129444,"64":0.1611069773721238,"65":0.03891716169567638,"66":0.180812708771245,"67":0.5315097454439162,"68":0.3343852852193633,"69":-0.6660585431881217,"70":-0.6092915194078746,"71":-0.7838964169430838,"72":1.165457146175791,"73":0.2618654925690039,"74":-0.001889113703879015}},{"sx":5,"sy":5,"depth":3,"w":{"0":0.31547771598404534,"1":0.35154560293893344,"2":1.1718617676411027,"3":0.5220315819477275,"4":0.3972794898956406,"5":0.881640848986182,"6":-0.126663212894175,"7":-0.5998238711186422,"8":-0.05121604022190589,"9":-0.2668701106851813,"10":-0.8776505049528656,"11":-0.08575870007991279,"12":0.02853464756792894,"13":-0.505586025563475,"14":-0.03664957563375773,"15":-0.9108283678583262,"16":-0.35786055721939425,"17":0.0745030391347724,"18":-0.4150526414302575,"19":-0.13346685257605387,"20":0.6312622702797073,"21":0.263828206730502,"22":-0.5924406647238196,"23":0.15482979017997214,"24":0.05355008352579587,"25":-0.8153090432612433,"26":-0.4643127669244064,"27":0.1392101389976968,"28":-0.14007387236659885,"29":-0.08393581963037172,"30":-0.7884594721851588,"31":-0.4853112251734244,"32":0.7059079790328876,"33":-0.7635293528097356,"34":-0.5878661471898895,"35":0.5356316510684027,"36":0.19767108177732468,"37":0.12914405709172885,"38":0.7726568772043718,"39":0.6359063073785524,"40":-0.2323573432161738,"41":0.28734464149340794,"42":-0.11133101660775649,"43":0.2481732801049046,"44":0.4590142971842167,"45":0.47208735398412044,"46":0.6560451762413011,"47":0.8675572422496862,"48":-1.0365897829296638,"49":-1.0286386206668883,"50":-0.021202182732113946,"51":0.010365800985978828,"52":-0.6976921913542731,"53":-0.12705160014026493,"54":0.6142322307276566,"55":0.15919805244070667,"56":0.6434493308361046,"57":-0.6856849499765778,"58":-0.028441436377199446,"59":0.2078560020765141,"60":0.4883925546795402,"61":0.7344562090222079,"62":0.847366654760508,"63":0.15776912616296476,"64":0.20189943929210902,"65":0.1488944705202255,"66":0.5203831177833901,"67":-0.5566866662950367,"68":-0.17211877712409,"69":0.3720200810785996,"70":-0.26827439450755247,"71":-0.3133993351238875,"72":-0.8409646718376806,"73":-0.47186743637559514,"74":-0.5406022325322652}},{"sx":5,"sy":5,"depth":3,"w":{"0":-1.1857906873081694,"1":-0.7782705635532285,"2":-0.2519404680413711,"3":-0.6531055491704982,"4":0.46233079373796,"5":0.22231214797571258,"6":-1.5206654345057438,"7":0.1867453303203866,"8":-0.3575030378698795,"9":0.050156862012760456,"10":1.3512161558666282,"11":0.7631425541645566,"12":-0.7527065177047667,"13":0.4114311451328768,"14":0.10077412997392374,"15":-0.2519057936814225,"16":0.04845496983063454,"17":0.5554273044310957,"18":-0.6823753363273897,"19":0.0013792266694496417,"20":-0.2715603112902854,"21":0.3549608698641671,"22":1.1362522830296253,"23":0.9042464204635213,"24":0.27857199453365206,"25":1.2156643434273224,"26":0.8900369708006565,"27":-0.008120906231288808,"28":-0.6894019428241105,"29":-1.7052481586433443,"30":0.4797871025510406,"31":0.32363028092283824,"32":0.8610097269204731,"33":0.3416124030702958,"34":0.6134047170275597,"35":0.3292210651609713,"36":-0.30118461689060533,"37":-0.13483950681903348,"38":-1.0276306387507066,"39":0.5445266026502863,"40":0.8133349909699178,"41":-0.15847062604495143,"42":-0.8430732604528924,"43":-0.9683393840054348,"44":-1.1247498178206066,"45":0.0701865147963518,"46":0.3980388803676789,"47":0.4150915099360857,"48":-0.09710501490154337,"49":-0.641689678587668,"50":-1.0934518985463229,"51":-1.0112966448426328,"52":-0.3149721265702678,"53":-1.1809541113120174,"54":0.3281535637020925,"55":0.9209206754576266,"56":0.006770603884110666,"57":0.6703541796955208,"58":0.46040139862806245,"59":-0.5190683149883335,"60":0.1366085531174259,"61":0.4283901165299684,"62":0.9040824350587828,"63":0.9888155313940449,"64":0.3399419608028699,"65":-0.51284795094028,"66":-0.44175446622801967,"67":-0.40885350161869016,"68":-0.34539607442097947,"69":0.4471285627253696,"70":0.2932610845701634,"71":-0.25453279428245007,"72":0.630127666354327,"73":-0.08558196747465495,"74":0.4008084234620935}},{"sx":5,"sy":5,"depth":3,"w":{"0":-0.06430739401325772,"1":0.17718892795242605,"2":0.1442910474470365,"3":0.11815429520503101,"4":-0.5617429103771726,"5":-0.43452521153903717,"6":1.1854469063477482,"7":0.23005186914599154,"8":-0.005711256369000059,"9":0.6990666852352498,"10":0.253470889632526,"11":0.09815519380269014,"12":0.07388798014245294,"13":-0.6461314831633642,"14":-0.28318220976948943,"15":-0.2814282833341911,"16":0.19186375159637223,"17":0.5635313143535363,"18":-0.08899380995041414,"19":-0.27165953619999533,"20":0.35404103532790027,"21":-0.07425357796475371,"22":-0.3680078485245688,"23":0.2995082346787501,"24":-0.22847393384703396,"25":-1.1484956411553888,"26":0.5304564445836769,"27":-0.237307655340628,"28":-0.9623414153805564,"29":0.013712589936308974,"30":0.5606017986330323,"31":0.33392962661085257,"32":0.5972194717372247,"33":-0.05664823660341669,"34":-0.06901956309063807,"35":-0.07553435211620106,"36":-0.6820170785992571,"37":-0.5258264756479569,"38":0.012361711959425604,"39":-1.0260681693952423,"40":-0.9575735390024724,"41":0.18065511667141995,"42":-0.6309627342048334,"43":-1.1113924635143635,"44":-0.3160567352906085,"45":-0.14461539251711905,"46":0.31278632544893364,"47":0.36329507700486896,"48":0.11546780979712408,"49":0.013119645674559534,"50":-0.04464651779335379,"51":-0.5393865682482246,"52":-0.3958450653732389,"53":0.30897005547915185,"54":-0.09417021196889376,"55":-0.0376394442845577,"56":0.6705711491003512,"57":0.4133989390976848,"58":0.4437575505226991,"59":0.2032286718125974,"60":-0.7477372815965605,"61":-0.7795278525570801,"62":0.39663595433350374,"63":0.3583831837700103,"64":-0.2608622230915642,"65":0.49913824810561547,"66":0.09540117857879157,"67":-0.5071551151426494,"68":0.10282141624372461,"69":-0.21226859208326887,"70":-0.24969473079684193,"71":0.583228210330905,"72":0.8143113952039277,"73":0.46893370051641864,"74":0.45082825289552464}},{"sx":5,"sy":5,"depth":3,"w":{"0":-0.5505829878945607,"1":-0.40605589878566806,"2":-0.4056001206339087,"3":-0.7677298438002996,"4":-0.08894658570036465,"5":-0.8742210592386711,"6":0.21047754669530508,"7":-0.6225766829311447,"8":-1.0620016854099468,"9":0.14988737424339096,"10":0.20899407785802726,"11":0.10174896468653521,"12":0.03279534500448443,"13":0.45714238201998164,"14":0.8706983429574546,"15":0.967360597064945,"16":0.9090179787321894,"17":0.3607416615651568,"18":0.14975949113937784,"19":0.08567376375835929,"20":-0.09896963106120894,"21":0.43597814005457547,"22":-0.9654762451849289,"23":-0.8404665301570051,"24":0.022589559936059104,"25":-0.3872734655857762,"26":-0.5013771235095849,"27":-0.041353659228232455,"28":0.07356579048718334,"29":0.847995330622652,"30":0.5850659877120269,"31":0.26159614063139075,"32":0.4342001050109164,"33":0.5115739502731362,"34":-0.09995222594681108,"35":-0.11765416827914353,"36":0.31142185395597627,"37":0.21647312667025506,"38":-0.27195906746100507,"39":0.33584609983728264,"40":-0.6839532418006808,"41":-0.45862582628160425,"42":0.24422327200260602,"43":-0.48928526046539345,"44":0.21684402858278534,"45":-0.031006575225451166,"46":-0.11759226986968305,"47":0.22272462946673208,"48":-0.687294593828443,"49":-0.38584386632656614,"50":-0.4915432219012481,"51":-0.22584881470720197,"52":-0.07516856432643854,"53":-0.002168554063234745,"54":-0.12152966797311039,"55":-0.31217680913695284,"56":-0.05233221492952787,"57":-0.3312377258401692,"58":-1.0225636745419675,"59":-0.19632093075272433,"60":-0.34903469919031527,"61":-0.136855137061995,"62":0.30440222452670573,"63":-0.35518953025278704,"64":-0.05424384518372003,"65":-0.30383601543164285,"66":-0.10952330042946827,"67":0.40408261081213054,"68":0.15024817049937958,"69":0.16470080878212612,"70":0.30866346208821166,"71":0.7156148713606219,"72":0.564058341026129,"73":-0.07601628291097703,"74":0.9762823006976725}}],"biases":{"sx":1,"sy":1,"depth":16,"w":{"0":-1.9408154796111832,"1":-1.0694550719967808,"2":-0.4792477411869342,"3":-0.15207630961817398,"4":-1.0884084921782016,"5":-1.3425015138911454,"6":-1.9694410516425471,"7":0.13152285743676279,"8":-1.0638783140098889,"9":-1.7670945800241553,"10":-1.519838973640174,"11":-0.317738406236796,"12":-1.7652401022820257,"13":-0.8760387469908885,"14":-0.49442988106350916,"15":-0.5813413356464711}}},{"out_depth":16,"out_sx":32,"out_sy":32,"layer_type":"relu"},{"sx":2,"sy":2,"stride":2,"in_depth":16,"out_depth":16,"out_sx":16,"out_sy":16,"layer_type":"pool","pad":0},{"sx":5,"sy":5,"stride":1,"in_depth":16,"out_depth":20,"out_sx":16,"out_sy":16,"layer_type":"conv","l1_decay_mul":0,"l2_decay_mul":1,"pad":2,"filters":[{"sx":5,"sy":5,"depth":16,"w":{"0":1.4817769109977046,"1":-0.3066744556598371,"2":-0.3861322198582794,"3":1.090991534435278,"4":-0.18523868801080773,"5":-0.6349266946512561,"6":0.7694896223432689,"7":0.7843781471686196,"8":0.5270629846553945,"9":0.07364196398677561,"10":0.3535016747181318,"11":0.18116382351178298,"12":0.9469422147984787,"13":-0.16640892015023553,"14":0.5567603253005081,"15":-1.0442163074628208,"16":0.4714522102005624,"17":-0.7732832766602274,"18":-0.25041577578235846,"19":-0.28535212683852956,"20":0.2998258746073721,"21":0.5699133888267268,"22":0.5670062783138747,"23":-0.6990152367469841,"24":0.4856889945493627,"25":0.7841207383882917,"26":0.9470207864389321,"27":-0.17114800704148106,"28":0.5224273344756533,"29":0.2729179226929743,"30":-0.1665732928944709,"31":-0.11447720762247197,"32":-0.018005709133579153,"33":0.46651373446955463,"34":-0.928446957260969,"35":-0.6454366974503405,"36":0.8106031714476454,"37":0.20210475562533675,"38":0.1262265894772744,"39":-0.22938187751816425,"40":-0.8374720155978722,"41":-1.2512961566776863,"42":-0.10397234895939653,"43":-1.195033285316845,"44":0.34446153353537357,"45":-0.4865969243931914,"46":-0.7543197988488173,"47":-0.2610235599207164,"48":0.20142162220959858,"49":-0.20574992820695104,"50":-0.46090727537590603,"51":-0.3041717916840602,"52":-0.35940705012142987,"53":-0.07370998880788857,"54":-0.1558336621000702,"55":0.018349175373674483,"56":-1.1268133386835577,"57":-0.21429607840380238,"58":-0.9007335437121566,"59":-0.2604880339164461,"60":-0.22673161101194506,"61":-0.8247955295553404,"62":0.7117082336421704,"63":0.21040920274806343,"64":-0.009861150451950072,"65":0.6060126976955678,"66":-0.49573012778018977,"67":-0.14305932778855351,"68":-0.9135658298197843,"69":0.9132962449363666,"70":1.065469049263026,"71":-0.19888463892984726,"72":0.14604828845830634,"73":-0.6572003939545091,"74":0.8628465186785584,"75":-0.185210599555102,"76":-1.0961886617822587,"77":0.25041300747304535,"78":0.9065588743036351,"79":1.082013564526842,"80":1.7563875705153842,"81":-0.6095505617103384,"82":-0.003441546197656635,"83":0.6176762244423772,"84":-0.4251230657858842,"85":0.3766645970933153,"86":-0.6533331333883453,"87":-0.6622514684524414,"88":0.44832140352299127,"89":0.5317986132993493,"90":-0.3037207886639896,"91":-1.3655299924305175,"92":0.8986363716203826,"93":0.5385159980428756,"94":-0.1873032445130927,"95":0.3089213154002573,"96":-0.640640808098571,"97":0.6153808914076749,"98":0.22213997953511694,"99":-0.6338385387337169,"100":-0.4166846943820572,"101":-1.2626025014765652,"102":0.6113707973622635,"103":-1.129776917812041,"104":0.6562097303601082,"105":0.943993982820555,"106":0.5869622318745347,"107":0.1974598560433326,"108":-0.5189603093061217,"109":-0.13965244988603998,"110":-0.08436095543894245,"111":-1.16533017736309,"112":-0.06008889088877648,"113":-1.2442112392341083,"114":0.28194603717477923,"115":0.007710623410755901,"116":-0.010347506501903731,"117":0.4623937885906297,"118":-0.5592043548695316,"119":0.6677202163202223,"120":-0.8174807756960956,"121":-1.1483838746804778,"122":-0.9544500592683438,"123":-0.03668392505709736,"124":-0.3094518720422244,"125":0.21836242881327508,"126":-0.39632376935057334,"127":-0.09007768542098198,"128":0.1812933706078644,"129":-0.458188571451661,"130":0.18456833226329,"131":0.4219033919265489,"132":-0.4991516278610715,"133":0.35068497430359835,"134":0.07336397727110387,"135":-0.04472202504399466,"136":-0.07574362251177019,"137":-0.3308734386638261,"138":-1.7021488944473622,"139":-0.9288686504268577,"140":-0.24376674236404589,"141":-0.8804595831052552,"142":-1.2754955680213957,"143":-0.4737041397101243,"144":-0.1570729932787742,"145":1.343047806943484,"146":-0.008726041551056747,"147":-0.1606396793927845,"148":0.3250554541352519,"149":0.26365009988638016,"150":-0.09645679085959352,"151":-0.28544422700970323,"152":-0.3066043700682145,"153":0.4033489381675587,"154":0.12530706913597844,"155":-0.4588221087567707,"156":0.08365300623787224,"157":-0.49601889886112416,"158":0.15029251361612775,"159":-0.6556142152834002,"160":-0.6732067411619231,"161":-0.06201839711998651,"162":0.5434372331258598,"163":-0.9230446534648381,"164":0.16732569560809463,"165":0.3081374970021278,"166":-0.8154661153084174,"167":-1.0402007130903055,"168":1.2715768333812947,"169":-0.006926733365491185,"170":0.7292855939314954,"171":-1.019692483883696,"172":-0.3769575019629852,"173":0.2078451843409703,"174":0.053322057335668825,"175":-0.012661914300168157,"176":-0.019054264362593124,"177":-0.3333833178755271,"178":-1.1227221429204044,"179":0.8473021698869039,"180":-1.0398480009324254,"181":0.11212412152543534,"182":-0.013392813194453693,"183":-0.20884637920737842,"184":-0.9434515487729712,"185":0.14649628450276886,"186":0.8478745137878527,"187":0.026707494615770166,"188":-0.4248379259483224,"189":0.021444989055081198,"190":0.6300784465810942,"191":-0.46174277981619666,"192":0.5755580278671112,"193":-1.3304842380710598,"194":0.29255052667244785,"195":0.33121434716716947,"196":0.2576907445129041,"197":-0.5331726223822557,"198":-0.02009361907671356,"199":0.9090763658518465,"200":0.11865497194464515,"201":0.17760637933362028,"202":-0.07369657386889457,"203":0.6748670472491759,"204":0.05607278333047753,"205":-0.14088471180782622,"206":-0.7037734496982029,"207":0.14507195495440317,"208":-0.3542356468743666,"209":-0.18584010603082243,"210":0.10292697558562561,"211":0.015872345144350087,"212":0.3325960508438819,"213":-0.628941965345135,"214":0.9279806867391223,"215":0.7725613928968521,"216":-0.5213225568592375,"217":-0.2865280910899252,"218":1.2787332260050457,"219":-0.5249154765578876,"220":-0.520124259946075,"221":0.11537161780643544,"222":-0.5842589098077781,"223":0.7684654306011678,"224":-0.8196788361206654,"225":0.23334117744025715,"226":0.33928445658761375,"227":-0.33633089056653687,"228":0.06330233392680651,"229":-1.8674349744027792,"230":0.9020560327135405,"231":0.012034246558956987,"232":-0.4073779026378653,"233":1.0052998702984053,"234":-0.4925645752947681,"235":0.78639731305384,"236":-0.7761165581774582,"237":-0.3269982369502983,"238":0.8933406154723316,"239":-0.33330363612262637,"240":0.7102383307551208,"241":0.5490012486851532,"242":0.1952441729974975,"243":-0.9592711738666448,"244":-0.10230714688623677,"245":-0.14308231548516587,"246":0.06898729010486093,"247":-0.46868166403034833,"248":0.11594511249545346,"249":0.6904115024947418,"250":0.23912001846215483,"251":-0.28629885921756554,"252":0.7496573748410602,"253":0.3881495950399442,"254":0.17251393689543024,"255":0.2043151787327273,"256":0.0769125362334866,"257":-0.3215511324798086,"258":-0.1595802066169755,"259":0.08695685933391287,"260":-0.011700818837447642,"261":-0.0004460939728394171,"262":0.10232905479903422,"263":-0.2925211802543581,"264":-0.6027147375100467,"265":0.49317539318721143,"266":0.05838336481149166,"267":-0.5161412413133665,"268":-0.15659627638085155,"269":-0.6668598526044522,"270":-0.9919523917996117,"271":0.7880310661676114,"272":-0.18251025588857345,"273":0.5927287214411221,"274":-0.5871106266995739,"275":0.037084653562643455,"276":0.5543289010838953,"277":0.8271224187399681,"278":0.10833997692412134,"279":-0.42739243681543765,"280":0.8505521034902173,"281":-0.1920501505076191,"282":-1.0575120878595043,"283":-0.3454999319949553,"284":-0.32082362870032716,"285":0.19751982469163085,"286":0.21378201043551115,"287":-0.06885881657268383,"288":1.031614220125778,"289":-0.5516388471914957,"290":0.8656136225753269,"291":0.194758063037009,"292":-0.31125719872173324,"293":0.09633214906622767,"294":-0.5140073073267978,"295":-0.31930683449886854,"296":1.3021750640801193,"297":1.2035081681016777,"298":-1.374200157507494,"299":-0.44591119793314654,"300":1.0820053847357447,"301":-0.4563916898665956,"302":0.1212471079125722,"303":0.24938883588992303,"304":0.4188565604253209,"305":-0.8426458039634486,"306":0.2340529565962683,"307":-0.4133642850693452,"308":-0.12927148158953686,"309":-0.7923866701396162,"310":-0.8327878700950456,"311":-0.4629733472338481,"312":0.442481035759248,"313":0.009430137971450682,"314":-1.0504534116836175,"315":0.42768951381247666,"316":1.2112067816721903,"317":0.10142507465963926,"318":-1.6049738407805856,"319":-0.16091821244564627,"320":1.6133187326327019,"321":-0.12521357613849105,"322":-0.3375786991034756,"323":0.532228737861345,"324":0.009589574921024933,"325":0.17582188780602437,"326":0.6807360998107024,"327":0.2024989882936618,"328":-0.03864441164916838,"329":0.945015147641511,"330":0.40804771026108355,"331":-0.25580600014874105,"332":0.9641799812787598,"333":0.0007086110540674113,"334":0.10655399701558943,"335":0.25411535313770833,"336":-0.16407919895963693,"337":-0.1220255659816035,"338":-0.5262088358127008,"339":0.042313279405461555,"340":-0.08927227835194428,"341":-0.26611809868676595,"342":-0.43021887294311795,"343":-0.5789937700483648,"344":-1.1058455933228943,"345":0.6973487539241117,"346":-0.1116158615119175,"347":-0.0436709496706942,"348":0.0278225528693656,"349":-0.13013448446537615,"350":-0.731804057230433,"351":-1.5232587190886127,"352":1.0102051633667761,"353":-0.313342027173128,"354":0.540936551744569,"355":-0.41830475158683783,"356":0.15218242459965822,"357":-0.6652326558410014,"358":0.15786273367741674,"359":-0.40281069419614834,"360":0.11044634444304945,"361":0.10156361742010844,"362":-0.11402454706756036,"363":-0.7806124574016878,"364":-0.2611856174643586,"365":0.4639373777629307,"366":-0.761125616142994,"367":0.24225228110159586,"368":0.751245759684242,"369":0.11828202149980961,"370":0.9096769556337357,"371":-0.15983392381479725,"372":-1.024446821604516,"373":1.1130446966546246,"374":-0.9911665180244178,"375":0.26417555063872344,"376":-0.24531594979286103,"377":0.25476391472785104,"378":0.5395375518923392,"379":-0.7923033886858833,"380":-0.2621887377146444,"381":0.00569514875169164,"382":1.5547974296736506,"383":-0.33350718700247844,"384":0.20966982308401766,"385":-0.29871237523769206,"386":1.3469572857995595,"387":-0.034835210131114284,"388":0.548554666553011,"389":0.17283972325788752,"390":-0.009020474538750161,"391":-0.44898849521311385,"392":0.30792218113127895,"393":-0.4005208085052699,"394":0.8096795989783331,"395":-0.6186873996556523,"396":-0.6158182607081986,"397":0.06109511112260752,"398":0.27439214804052636,"399":-0.34791462634548137}},{"sx":5,"sy":5,"depth":16,"w":{"0":0.6392371639966533,"1":0.5893515649859181,"2":-0.04425011466303932,"3":0.44744272092769666,"4":-1.3538990895251926,"5":-0.4258602235128974,"6":-0.31369965618541135,"7":1.2999971786733029,"8":0.8196143851369441,"9":-0.7287710687591246,"10":0.15165863933442053,"11":1.3902396596666662,"12":-0.3902213254699828,"13":-0.14663639287955682,"14":2.034743555659093,"15":1.316380172031683,"16":0.6188894386119097,"17":1.1987051033394873,"18":1.5467338234957388,"19":-1.522527002759118,"20":0.6475382911366813,"21":0.0945075837094633,"22":0.9433191228177126,"23":-0.5194469538800042,"24":-1.617462195972429,"25":-1.1201019046784426,"26":1.4754292881000646,"27":1.0644894896255161,"28":-0.5921256581502761,"29":-0.34623150485436816,"30":-1.4612805192229814,"31":0.3426262755081825,"32":0.8162506286677214,"33":1.5120458577659874,"34":-0.12309578589735824,"35":-1.2776980560634013,"36":0.019634126761144344,"37":-0.15573561313710024,"38":1.4196716953146944,"39":-0.2968232482519957,"40":-0.6327159248734857,"41":0.47174362405739767,"42":0.2874229204821475,"43":-0.9415543433042393,"44":-1.5849819696686165,"45":0.24706822460650235,"46":-0.7302659438182884,"47":1.321209899747691,"48":-0.9367817537526206,"49":0.9269193480025526,"50":0.817148002129996,"51":-0.32105135569130333,"52":0.3529319015021813,"53":0.40976782087050484,"54":-1.2880004213263712,"55":0.4872434881056609,"56":0.22726211319201003,"57":-0.5020599936779319,"58":-0.5688628750907184,"59":-0.9396243886849291,"60":-0.2522445169482999,"61":0.2619453885929025,"62":0.6698324185207586,"63":-0.03795904213563257,"64":-0.11557601600464115,"65":0.4748109861233267,"66":0.10777033407925182,"67":0.8297976458567922,"68":0.12673254990269073,"69":0.1190143049340569,"70":-1.4026714415447137,"71":0.5219794768355033,"72":0.03369698507472556,"73":-1.173278145290461,"74":0.34239628859581833,"75":0.7643066919330701,"76":-0.8289970145873967,"77":-1.0397312030630748,"78":1.6775589184367738,"79":0.9709193558197793,"80":0.40603924021443893,"81":1.142819701069282,"82":-1.0388782679034783,"83":-0.01715930150232616,"84":-0.5624124902068885,"85":-0.3092095964916563,"86":0.6303461317587413,"87":-1.4985724019826474,"88":0.5054746615503175,"89":0.5647023254565098,"90":0.5376459463225485,"91":-0.16923977640808813,"92":0.2696986499755061,"93":0.2289917899353604,"94":0.25543682919456717,"95":0.02745921358307252,"96":0.21613597540747811,"97":-0.7309148715101422,"98":0.5564854912174516,"99":-0.7091393167434765,"100":0.42779912587439706,"101":-0.04435084513573688,"102":0.09766820765885197,"103":0.16981731313003398,"104":-1.8018538533339234,"105":-1.0538948675858122,"106":0.9421868834030147,"107":-2.4265178946138226,"108":-0.4880318735738363,"109":-0.12630693927215458,"110":-0.603823019360509,"111":0.08588870568778088,"112":-0.0015345407407121633,"113":-0.7816596223475571,"114":1.2191978056771893,"115":-0.704707672228259,"116":-0.10669162874366951,"117":-1.794604089471225,"118":-0.32149129880625854,"119":0.4826285397704697,"120":-0.8918676788644233,"121":-1.830580803612068,"122":-0.10896207766606987,"123":-0.22380660796790222,"124":0.020474703976649345,"125":0.4440157709817239,"126":-1.2475289128041656,"127":-0.18991312965095905,"128":0.5534788073584703,"129":0.7739065342975703,"130":-0.10617091722812559,"131":0.2533197109795795,"132":-0.6488240230589185,"133":-0.3016312417479189,"134":-0.35234703695067515,"135":0.03766822044536059,"136":-0.5005467815326661,"137":-1.0500042290714557,"138":-1.5896957507016531,"139":-1.6746803048433554,"140":-0.35197416916301333,"141":-0.21740179558587355,"142":-0.41473190516758063,"143":-0.024606929232131536,"144":1.0143356747904588,"145":0.3150171235789934,"146":0.07339272610297372,"147":0.38018152403977623,"148":-0.11687336355751668,"149":0.18770031887920874,"150":0.506108369041543,"151":1.1493148300799805,"152":0.29552515444076666,"153":0.3835320797905523,"154":-0.0661196367148145,"155":0.5421843768400888,"156":0.8276761666920687,"157":-0.028993653495735707,"158":1.1034531465436521,"159":-0.5255926422317135,"160":1.1180911133086782,"161":-0.16492885055777912,"162":-0.3805277952313436,"163":-0.19739940041151446,"164":-0.14072813925128336,"165":-1.2865424178744447,"166":0.5647318878145371,"167":-1.4038925990806759,"168":0.4442179922125038,"169":-0.7278112828385374,"170":0.7803751739797575,"171":-0.6634432151638996,"172":-1.6872329239713753,"173":0.6835417910247474,"174":-1.4744994179492639,"175":0.10600076729040633,"176":-0.7231892879949832,"177":-0.4669719371882076,"178":-0.5624908447542291,"179":-0.9524714767103158,"180":-0.05584718254018685,"181":0.11460267424107672,"182":-1.7562961672073705,"183":-2.0915498107655,"184":-1.1330680690110222,"185":-1.4797380710372177,"186":-0.13539100430784998,"187":-1.2434400701622672,"188":0.35512982315437486,"189":-0.3381485495017409,"190":-0.9665637803601115,"191":-0.27455078238320185,"192":-1.1033420023126488,"193":-1.1239726961369305,"194":0.4833486864593591,"195":0.5519283250396205,"196":0.4201911054035392,"197":0.1466344479588492,"198":-1.056493380674034,"199":-0.6403608419382563,"200":1.0247080646460414,"201":-1.0307434042671078,"202":-0.9595023319886468,"203":-0.016106088634170117,"204":0.9629329648497355,"205":0.26097865629828826,"206":-0.8311808908459593,"207":-0.13426253049649256,"208":-0.15958040751669456,"209":0.01104712345145053,"210":0.47288275671137936,"211":-0.16674953713426807,"212":-0.3280716589084706,"213":-0.6372271785701137,"214":-0.7381767305593144,"215":-1.530267399558147,"216":0.9573578281060681,"217":-0.6805011002037482,"218":0.5348698496130817,"219":-0.8623372439123868,"220":-0.4489154373988656,"221":-0.6482960126847457,"222":-1.7681706004114288,"223":-0.28703687384150023,"224":-0.27161662981447077,"225":0.2967062207806407,"226":-0.18874609463092498,"227":1.1205871373094225,"228":-0.13141781054010845,"229":1.029220032082235,"230":-0.7915783905556494,"231":0.2813138098010925,"232":-0.10817558564495831,"233":0.37460937983600545,"234":-1.7911639218627493,"235":1.5769591030138814,"236":0.12148015147049865,"237":0.5301882429377293,"238":0.5800340198093594,"239":0.19840575606482613,"240":0.7142976449867601,"241":-0.7536177895672748,"242":0.465646014318261,"243":1.0335432467580978,"244":-0.47545690979761185,"245":0.2621942647285801,"246":0.09447981882967252,"247":0.3976578175257559,"248":0.31507057953082207,"249":1.3393253142947714,"250":-0.9747682710057366,"251":-0.15891554581235356,"252":-0.8174642859164141,"253":0.9967516851679804,"254":-0.1729929364270865,"255":0.8064499707560425,"256":-1.2448667985009192,"257":-0.3290350577977692,"258":0.4661918655146678,"259":-0.03849743750596947,"260":-0.5796524325140204,"261":-0.12790410002137464,"262":-0.2311294442021411,"263":-2.1414085669981486,"264":-2.012671259608658,"265":0.3869853475896505,"266":-1.0032823003110474,"267":0.5258790046168846,"268":-0.6661660899106921,"269":-0.5438035160543347,"270":-1.2434819648599746,"271":-0.7313042019357079,"272":0.8822155483834966,"273":-0.8097522161606159,"274":-0.796549173994406,"275":-0.8817778475136904,"276":-1.3739757827890589,"277":-0.26168852359933836,"278":0.03982171994731921,"279":-1.7369117924072845,"280":-1.306092341309615,"281":-0.9079201762906138,"282":-1.0103059765430642,"283":-0.06491643973060884,"284":-0.3275715465757983,"285":-1.2216068911831135,"286":-1.562348321863421,"287":-1.578638537098348,"288":-1.0625131504311975,"289":-0.6800200232610016,"290":0.4322526002633817,"291":-1.125511248476103,"292":-0.2679173698698251,"293":0.38886387994757526,"294":-0.8965302105351861,"295":-0.07349969386417812,"296":-0.9120076115913126,"297":0.01779780689202816,"298":-1.379840800161778,"299":-0.6002481819765031,"300":-0.8963642514569294,"301":-0.3277202867054865,"302":-0.291019930847545,"303":-0.6608473764146429,"304":-0.09526094090344542,"305":0.09995482670094946,"306":0.41364983607940176,"307":-0.18323668008580882,"308":-1.0333636734546439,"309":0.0786413998267774,"310":-0.24021985783065178,"311":-0.7782345802372079,"312":-0.42555348719192887,"313":0.2402865256214486,"314":-0.6138524501907089,"315":-0.0904572920163008,"316":-1.2205921585764523,"317":-0.6127630117502464,"318":-0.4260192297133728,"319":-0.4918685177549989,"320":0.5098272175005959,"321":1.0472789864086058,"322":0.6994197737070265,"323":1.2317621562165584,"324":0.3170598237420555,"325":-0.18564150294756365,"326":-0.6196976321700457,"327":-0.09324341006762212,"328":-1.3060582937133591,"329":1.4540877973931436,"330":-0.912475868638536,"331":0.059716888469984866,"332":0.06641574666271347,"333":0.7984106202677314,"334":-0.30297280894818274,"335":0.4821611621471324,"336":-0.060476713140436525,"337":-0.07568158246577264,"338":-0.556839171621028,"339":0.3768053776363368,"340":1.049351752817164,"341":0.4031567149799491,"342":-0.4363853026004537,"343":-1.1855158996077317,"344":0.5554473368023032,"345":-1.4935152256115012,"346":-1.1326369775294967,"347":0.1508922003349424,"348":0.10561584397654121,"349":0.5422960278685627,"350":-1.816715590702867,"351":0.1686387926134321,"352":-0.5041148669143912,"353":-0.15998444995609523,"354":-1.1845075528781794,"355":-0.6030959198033824,"356":-0.3162017170916618,"357":-0.5392016990205307,"358":-0.0037437192211277046,"359":0.46955018653501146,"360":-2.142887075652677,"361":-0.8689978329126817,"362":-0.4684291659911449,"363":0.9269213237851305,"364":-0.47288329809631147,"365":-0.7761389311996921,"366":-1.68394658188332,"367":0.343495843687449,"368":-0.47835228933231194,"369":0.13504574877353392,"370":-0.9903838152168817,"371":-0.27502733953539626,"372":0.20471239734899266,"373":0.017025830484931347,"374":-0.04753492440299897,"375":-0.841671386479221,"376":0.34906836376639105,"377":-0.33339172790787824,"378":-0.2705491733140975,"379":0.03693003136287234,"380":-0.7504294420099894,"381":-0.2936944928132752,"382":-1.1161025558231406,"383":-0.2926555141793689,"384":-1.3224229252630322,"385":0.2261709427821665,"386":-0.025705743830826903,"387":0.34256120032930104,"388":0.22932153658612323,"389":-0.04774606242070259,"390":0.07871532466858452,"391":-0.05921803188073489,"392":0.5678167426205144,"393":-1.0432916989344472,"394":-1.0869819270374195,"395":-0.8781924905857825,"396":-1.1182392264557273,"397":0.05076133161196504,"398":-0.8214167424752753,"399":0.3365212086281621}},{"sx":5,"sy":5,"depth":16,"w":{"0":-0.050340730534610925,"1":0.5610580413261944,"2":-0.5659966553835184,"3":-0.7093927160684911,"4":0.08370088865063824,"5":-0.4236505761211961,"6":0.31231714409874994,"7":0.4664589001119847,"8":-0.22437469447687036,"9":0.32891675299081224,"10":0.2787183884629782,"11":-0.3036280016407405,"12":-0.36383108962156246,"13":0.9953378536012013,"14":-0.6575365758365008,"15":0.15788045458621994,"16":-0.14562321418451338,"17":-0.6307661051174963,"18":0.7702136252141163,"19":-0.40593400616239717,"20":-0.013827670407621515,"21":0.4265849023080444,"22":-0.1371147711947201,"23":-0.11116619204971719,"24":0.4991406288344426,"25":1.173876367271895,"26":-0.4506105817349058,"27":-0.14744919695379735,"28":0.27799325510258066,"29":0.535550073247451,"30":-1.4372734002884506,"31":-0.07930258572292544,"32":-0.06977007192655224,"33":-1.0910063810835906,"34":-0.2986682928100559,"35":-0.004454559787435568,"36":-0.12480639904194929,"37":-0.08956608704946092,"38":0.6094976426631032,"39":-0.8563331631240103,"40":1.083992544487453,"41":0.457228731197761,"42":-0.5022575342548026,"43":-0.016662796957412008,"44":0.49899812584915626,"45":-0.5400486883441041,"46":-0.6352927189627604,"47":-0.6042478606496956,"48":0.35458389522734424,"49":0.3278971793641109,"50":-0.06751707554961456,"51":0.4735083267615657,"52":-1.5423809825256753,"53":0.16318553825890952,"54":0.9446970526893628,"55":0.46186768976658,"56":0.3110152788623942,"57":0.14066955235118286,"58":-0.6779456353948872,"59":0.21579668836318358,"60":0.23681089810275652,"61":-0.33984590567204087,"62":0.1394329284216926,"63":0.45408391836180734,"64":0.7717980962994602,"65":0.02196872440058731,"66":-0.31502867907987114,"67":-0.002338950433220197,"68":-0.06728782298482505,"69":0.3609063817374274,"70":-0.6846795852615298,"71":0.1910906384325022,"72":0.10515652136843934,"73":0.4950095906256256,"74":0.29097299691792966,"75":-0.18848623437197856,"76":0.8934407763321076,"77":-0.03264286244576402,"78":0.028357009848751766,"79":-0.2733371108607624,"80":-0.46602865584009917,"81":-0.24802446062567154,"82":-1.0033705762005785,"83":-1.277701892690892,"84":0.029421212302262842,"85":0.4347830390048164,"86":-0.1523248363626338,"87":-0.13771003391960604,"88":-0.6370721877621905,"89":0.7755692992832783,"90":-0.2483598595127926,"91":-0.1732955367490104,"92":0.26848395396989766,"93":-0.08628713347021505,"94":0.1573994594726467,"95":0.30649521547057046,"96":-0.13958946635791458,"97":-0.9161945675106392,"98":-0.763228109465549,"99":-1.2812272595796033,"100":-0.6481553654786434,"101":0.02121262637458474,"102":0.23497933567779264,"103":0.1543297212726191,"104":-0.15465314571054922,"105":-0.8787991645838468,"106":0.12720039455374582,"107":0.4582571898556494,"108":-0.06941105097025099,"109":-0.40443254709314747,"110":0.05687951948962936,"111":0.5210537601611713,"112":-0.691418741630456,"113":0.05854832036764293,"114":-0.6981514002264976,"115":-0.20329679171318915,"116":0.5100850668557084,"117":0.6959468754226553,"118":0.6763699342878926,"119":0.09141994473915216,"120":0.8125597820717468,"121":0.7461885937221578,"122":0.06107237845106001,"123":-0.12124777988184031,"124":0.3406758973458154,"125":0.15704864162976415,"126":-1.2963852712802342,"127":-0.17952140159573438,"128":-0.26793949493936364,"129":-0.3827697549731519,"130":0.08841202351018551,"131":-0.1841453111807344,"132":-0.4083960919600513,"133":0.5280416622784054,"134":-0.10591595853486811,"135":0.1712177201803735,"136":-0.49992354992864596,"137":0.04868102919552141,"138":0.08841334968352145,"139":0.4354539870616724,"140":1.246177639237105,"141":-0.32598835907233664,"142":-0.05945574160114352,"143":0.13282597045628416,"144":-0.5606472489557522,"145":0.16287447864814872,"146":-0.7831600652049083,"147":-0.3441437961988887,"148":0.1354111317244996,"149":0.053530003760631155,"150":-0.27379025315613625,"151":-0.179164775456156,"152":0.46641364111472344,"153":-0.21112650196671917,"154":-0.09064228737388219,"155":0.059765556598149215,"156":0.05289549850202854,"157":0.5627268886851193,"158":0.07610396084894115,"159":0.08903550870405672,"160":-0.3364389959571428,"161":-1.1317648934453257,"162":0.1933133994416339,"163":-1.4053826064112114,"164":0.46712762914318884,"165":-0.31833759977940096,"166":-0.18862760802182485,"167":0.09272616310177582,"168":-0.8141599174720305,"169":-0.7220111269630798,"170":0.32034462512072565,"171":0.2930447695227975,"172":-0.1767165194266687,"173":-0.04994340824667066,"174":-0.5573169224375817,"175":0.2940389846547913,"176":0.2355544234763705,"177":0.014842068552990414,"178":-0.15064298134967424,"179":-0.5026794309332174,"180":1.210835815866937,"181":-0.13932695296200537,"182":-0.18410294265691243,"183":-1.0695723285688727,"184":-0.016215174904596775,"185":0.001909822519378915,"186":-0.7050241744369816,"187":-0.12403430130287436,"188":0.12854369726653408,"189":-0.5616298518908724,"190":-0.906120664232191,"191":-0.3994112774084886,"192":-0.7374022237149972,"193":0.8885357238049221,"194":0.44122036638927653,"195":-0.18167500698748218,"196":-0.5685992386770825,"197":0.8597660977903792,"198":-0.16337707695814066,"199":0.7616989393175848,"200":-0.16372824622270024,"201":-0.5632703499805903,"202":-0.7083332036167194,"203":-0.28841843904560216,"204":-0.02833182962546723,"205":0.683940854396833,"206":-0.19038842876038406,"207":-0.4126779375835997,"208":-0.44962778475163395,"209":-0.03386531134112698,"210":-0.5157417772183609,"211":0.6777577260628013,"212":0.6220710327253557,"213":0.024169818010420997,"214":-0.09126287265740564,"215":-0.023156300009309367,"216":-0.8013018465498875,"217":-0.2657268273085398,"218":-1.1167391685009045,"219":0.3601196911071765,"220":0.6394868246326234,"221":-1.5600896505399247,"222":0.01692864951265918,"223":0.5683133294413335,"224":-0.4781279998705796,"225":0.2017172486722151,"226":-0.29782296450467594,"227":0.4647908770742891,"228":-0.18865717999931064,"229":-0.09197015377055853,"230":-0.27215062928632666,"231":-0.19148575525490202,"232":-0.12648239824286062,"233":0.15688846708684143,"234":0.48676273546818666,"235":0.21129424273823535,"236":0.2182088076318761,"237":-0.2531595077927913,"238":0.2511037502614114,"239":-0.1984254107233388,"240":-0.587113305925387,"241":-0.13768649179063713,"242":-0.2945216940636536,"243":0.46823172906067684,"244":-0.12751568116236445,"245":0.4289156087919322,"246":0.7040021450250428,"247":-0.46604728662264827,"248":0.5970437012880955,"249":-0.46376198195585483,"250":0.6416502999241628,"251":0.09137985042192574,"252":-0.6139192554394717,"253":-0.4122324856375307,"254":0.20353091259660833,"255":-0.2580534914166085,"256":0.6658834674322933,"257":-0.41264810032638416,"258":-0.24930640686296837,"259":-1.4269546347793365,"260":-1.6581327383614082,"261":-0.0013109483553824192,"262":0.3898655650724197,"263":0.8946478037632741,"264":0.015237298151287658,"265":1.130275958897631,"266":-0.4818882972827889,"267":0.6194438787617699,"268":0.06318228924075336,"269":0.7877184224558318,"270":0.13927777262157356,"271":-0.3355026047177571,"272":0.21432075536278714,"273":-0.19064482054586632,"274":-0.7190239343930829,"275":-0.897888627360324,"276":0.5098989058371624,"277":0.13016806222021832,"278":-0.24790432035825272,"279":-0.3290888462255292,"280":-0.5924313270003837,"281":0.9162865150657833,"282":0.18747749871241512,"283":0.03330651037642642,"284":0.1934074837937621,"285":-0.49814107582023465,"286":0.10770061898387902,"287":0.2579392216007923,"288":0.17180870065530163,"289":-0.2582845355610576,"290":-1.1070445718199082,"291":-0.6414985456209916,"292":-0.7757298489133145,"293":-0.36804691061794576,"294":0.11745638021303115,"295":-0.5088446376336457,"296":-0.056457532569330844,"297":0.05573047491101402,"298":-0.49104803847875705,"299":0.5320073154389872,"300":0.2496096877913756,"301":-0.7356002535061326,"302":-0.27849093356908555,"303":0.3342665550161207,"304":0.22499217512207573,"305":0.10862074666916369,"306":0.47033896331880704,"307":-0.7702029054068744,"308":-0.4498622041305927,"309":-0.08635405634593672,"310":-0.1309493240701944,"311":0.1680908662458149,"312":0.29903751949813046,"313":-0.811407173355862,"314":0.278110549556528,"315":-0.5806867174297421,"316":0.01688555963079233,"317":-0.5479131910548828,"318":-0.20428833748620825,"319":0.6587608299378788,"320":0.5826265079458257,"321":-1.4461898400030266,"322":1.0191566233939426,"323":0.07432688825243261,"324":0.12697016354801152,"325":-1.008270369362262,"326":0.24562618878940534,"327":0.16715983565095738,"328":0.7252074816958751,"329":-0.06746140707877045,"330":0.8135264605083347,"331":0.03887920165952828,"332":-0.6835682549881363,"333":-0.38973244850480343,"334":0.5397632879158927,"335":-0.1388166894027047,"336":-1.4905803271722233,"337":0.5501265405459398,"338":0.004455535653204971,"339":-1.0253221606402754,"340":0.26531736970792796,"341":-1.2443994919989416,"342":-0.16716365713412407,"343":-0.20663880750268807,"344":0.026688905644424138,"345":0.09420746945068564,"346":-0.4178155163278973,"347":-0.553016041631967,"348":-0.3186001812758863,"349":-0.6129009296618744,"350":0.4465527893955864,"351":0.44087033091398325,"352":0.9273282816581052,"353":-0.49853976695723257,"354":-0.018677727822094033,"355":0.06607631092966651,"356":-0.14748814081616266,"357":-0.9635060278909566,"358":-1.013276546687152,"359":0.5309343745636331,"360":-0.6831203200602295,"361":0.08890440813214463,"362":-0.6651032063741041,"363":0.3970272244504912,"364":0.35734286057237497,"365":0.4517457354415403,"366":-0.010515290730851893,"367":-0.49711481989510387,"368":-0.21125442089881843,"369":-0.25373929407965584,"370":-1.137799643455259,"371":-0.7775833447083949,"372":-0.1714953988444369,"373":0.12415098884609746,"374":0.3668872935148367,"375":0.4901141422662137,"376":0.467679858990159,"377":0.30561801820244955,"378":-0.5516979438559158,"379":0.08974942439838664,"380":0.5544492669805744,"381":-0.31335947285072574,"382":0.656997059232394,"383":-0.29449097786937706,"384":-0.27839232762910016,"385":-0.2481217051857004,"386":0.11557152380243615,"387":-0.15195211697833066,"388":0.4813852578921615,"389":-0.4613518212572478,"390":0.5808506496773231,"391":0.134123971505015,"392":0.36355610669658,"393":-0.8950499716145891,"394":0.7193876237966862,"395":0.0724070964952632,"396":-0.2731792719006752,"397":0.5790603482941551,"398":-0.5328049531709554,"399":-0.18881753839175977}},{"sx":5,"sy":5,"depth":16,"w":{"0":-0.205025249139772,"1":-0.1574069572278732,"2":-0.21850088118324823,"3":0.2049537956119881,"4":0.5524322210074505,"5":0.440418974337039,"6":-0.3517972129640295,"7":0.11894702779141376,"8":0.6337117555385575,"9":-1.3684363919211673,"10":-0.4571557161504947,"11":-0.011426932941346437,"12":-0.15888445701668424,"13":-0.36692739173942523,"14":0.7385589719476233,"15":-0.1311486022867428,"16":0.2615882504538034,"17":0.02130405725081709,"18":-0.3188607987549387,"19":-0.3702197665915336,"20":-0.8509600528176052,"21":0.010994636013523955,"22":0.5021346044700615,"23":0.06946864735790353,"24":-0.20731986801785712,"25":-0.16729381978028215,"26":1.387025130861461,"27":0.42809237406218026,"28":0.21643024365096664,"29":-0.5519810300356491,"30":-0.23593235613798613,"31":0.37434041974078175,"32":0.254716734475854,"33":-1.2011142074748355,"34":-0.6160456338439229,"35":0.4068978087162213,"36":0.13311471450553106,"37":-0.07520702832055898,"38":0.6278454501884283,"39":0.33028979572501044,"40":0.7639720746878236,"41":-0.22592548792740527,"42":0.009495733700134037,"43":0.4775037186410194,"44":0.424018358809965,"45":0.1136803764905717,"46":0.08313881356141092,"47":0.3002708763226434,"48":-0.48830826222229645,"49":-0.12393745796618041,"50":0.18522953510629314,"51":0.14851565839756165,"52":-0.8190921862262267,"53":-0.054077453608203416,"54":-0.4323992895307558,"55":-0.2789841831312937,"56":-0.03575351011734125,"57":0.15857982885032162,"58":-0.3839596377556064,"59":0.13543088084259255,"60":1.3641310280060297,"61":-0.33031380284963563,"62":-0.04045724336548983,"63":-1.0814163228311384,"64":0.12600015134490217,"65":-1.0184398935343462,"66":0.6819157478525821,"67":0.8068353751719307,"68":-0.7243175287833687,"69":-1.0923248297669974,"70":-0.2942870110938396,"71":-0.016682342599434484,"72":-0.7368688272059124,"73":-0.3308913801871507,"74":-0.5118175389604804,"75":-0.429740232443074,"76":-0.21353758544388676,"77":0.3608438798087702,"78":0.43641722897950036,"79":0.4151965512629794,"80":-1.172699202902249,"81":-0.6599860930237013,"82":-1.213145434501516,"83":0.1260225644730963,"84":0.08791146261770148,"85":-0.2814059440320445,"86":-0.25174544488841843,"87":-0.2505516643881984,"88":-0.14481993505589838,"89":-0.30840166265589786,"90":0.45702269881799534,"91":0.703868134287852,"92":-0.27452013990240287,"93":-0.04469946466819957,"94":0.08822792519697206,"95":0.6502897245910766,"96":0.13470350671094833,"97":-0.4583922470343156,"98":-0.22216582608067223,"99":-0.5184015612273454,"100":0.1946098226397821,"101":-0.3776756341718528,"102":0.1169634273705256,"103":0.16117470417818866,"104":-1.0858292367913014,"105":1.5684515425892092,"106":0.3996017050793776,"107":-0.49479777233605654,"108":-0.6037913911239177,"109":-0.903561161150749,"110":0.044252820462565484,"111":-0.07214688879863969,"112":0.10104132816663791,"113":0.23032835359920495,"114":-0.9292985646034264,"115":-0.03982713580820631,"116":1.145067933279062,"117":0.3172651860164413,"118":0.22752389315337548,"119":0.7921220857931467,"120":0.27759932662674586,"121":-0.23652010980265079,"122":0.425861590178916,"123":-0.27849728847354177,"124":0.0951284321669052,"125":-0.2497177009443568,"126":-0.3610128797045353,"127":-0.6326386242630033,"128":-0.05024145069998225,"129":-0.011507876409194314,"130":0.19904158086966747,"131":0.0024533119509478505,"132":-0.489031233314662,"133":0.1261200705795851,"134":0.5628608522213532,"135":0.34313464117507114,"136":-0.3693382073560267,"137":-0.9366477072322055,"138":-0.6360817285010246,"139":-0.38830047509802806,"140":0.14557384112115435,"141":0.11347142369974644,"142":0.6595444928779917,"143":0.1504414038113372,"144":0.29732784457158323,"145":0.010230470177725819,"146":-0.3366718082670206,"147":0.42607629710252914,"148":-0.2856827327040677,"149":-0.2713901843277335,"150":-0.2675657657507838,"151":0.28790544396703394,"152":-0.02444851377995507,"153":1.0412491123901315,"154":-0.6815380311623608,"155":-0.46108397169281323,"156":-0.20229164477755443,"157":-0.661115905474874,"158":-0.25461192007622396,"159":-0.24442759155112329,"160":0.0006515462448947378,"161":-0.8017445371419516,"162":-0.32267782766122527,"163":-0.25647563812139323,"164":-0.06048071563146548,"165":0.8700251802541107,"166":0.1421576196017922,"167":0.8497189093859542,"168":0.559311839536408,"169":0.7675533389030589,"170":-0.52698983909699,"171":-0.13277117950130268,"172":0.16469813913375228,"173":0.05307877977805479,"174":-1.4115182258151402,"175":0.5905192264618989,"176":-0.31273858596950765,"177":0.8162461511769554,"178":-0.8264956066237586,"179":-1.0458037704312781,"180":-0.27626373708770197,"181":-0.03993603587205109,"182":-0.3420927830775456,"183":0.8797224080791649,"184":-1.1762561446369255,"185":0.9255032365107193,"186":-0.27682346127411994,"187":0.6385981238150205,"188":0.08950585738119594,"189":-0.2889417183502145,"190":0.10168948421926767,"191":0.33051601599761454,"192":-1.186388888981178,"193":-0.009124828087631183,"194":0.01825249542818661,"195":-0.11868007423439039,"196":0.2791474819490529,"197":-0.25312155278286036,"198":0.05927361643333983,"199":0.6568208309609822,"200":-1.36755026165502,"201":0.2647476342637164,"202":-0.6111310379087802,"203":0.28298981617080454,"204":0.12880252605669285,"205":-0.8796751292417833,"206":0.4576633766287219,"207":-0.3807362004719179,"208":0.6306137290711666,"209":-0.06963770725728477,"210":-0.3683341377296199,"211":0.6158884913719119,"212":-0.4110395201897647,"213":-0.0921489334004749,"214":-0.6450037666395049,"215":1.197676512055753,"216":-0.9702196080175913,"217":-0.1621557206595221,"218":-0.14354240816097255,"219":-0.08049626238485738,"220":0.15064696627044724,"221":0.04590668351501872,"222":-0.1304791107718926,"223":-0.2646683381100923,"224":-0.36682093547726724,"225":-0.26236893157703667,"226":-0.7505229963712076,"227":0.7691133943374676,"228":0.09578237694346879,"229":-0.14063331680793628,"230":-0.6320558381295959,"231":-0.8968118932982504,"232":0.4125002795319251,"233":0.44441893113936226,"234":-0.3227998517306529,"235":-0.8891796072409988,"236":0.5478053407907197,"237":-0.2853937131442355,"238":-0.3607981464867372,"239":0.09917363091763012,"240":0.2872553981287469,"241":-0.29385195662990854,"242":-0.18403553875555237,"243":0.42630494671612945,"244":-0.8897053360729413,"245":-0.22166940545957198,"246":0.7972197329556353,"247":-0.08906099076517984,"248":0.10861836584164775,"249":0.17830922331038035,"250":-0.12856174947522034,"251":-1.0990765416605937,"252":0.17148723913811129,"253":0.21929620233567457,"254":0.029485273946365104,"255":-0.8099554956084598,"256":-0.7042328471893737,"257":0.20557010912802826,"258":0.469092225674402,"259":-0.7824574278145697,"260":-0.7125357177540749,"261":0.2712098721396498,"262":0.5384293724585706,"263":0.2845037849508905,"264":1.3869669844854773,"265":0.00008289192389780454,"266":-0.44251835011271684,"267":-0.9629444170238158,"268":0.12955867668227236,"269":-0.805924305707049,"270":0.6735818802033612,"271":0.600187991405061,"272":-0.2315208944752163,"273":0.3371224116001467,"274":-0.1577695206374087,"275":-0.17934538915189321,"276":0.2824464852657351,"277":-0.49556752654078695,"278":0.2925279610513674,"279":-1.8665277785546068,"280":-0.5843217037347594,"281":0.3069858549216709,"282":0.3747003838929211,"283":0.31429036200853183,"284":0.7462750348287225,"285":-0.9054046281580429,"286":-0.858307686472214,"287":-0.22086499337937787,"288":0.49833496131675975,"289":-0.20064881319590525,"290":-0.4707238230072813,"291":-0.48051259013782927,"292":-0.40959733971388357,"293":-0.4522586600614707,"294":0.08694958158645151,"295":-1.4588293121797224,"296":0.4362935914023244,"297":-0.009013038747753584,"298":-1.3019822974428166,"299":-1.5692267623930747,"300":0.11771425007937637,"301":-0.4468387990107912,"302":0.13166860497547406,"303":-0.7214868632103406,"304":0.035848131803571735,"305":0.4126523875363687,"306":-0.1807566333477841,"307":-0.14441480595741243,"308":0.21360647269981642,"309":0.5001410302246336,"310":-0.3634045082363516,"311":-1.068509660237506,"312":0.14909428010646025,"313":0.4466669917129821,"314":0.526408054237867,"315":-0.0786824765035149,"316":0.8128875967941418,"317":-0.7203237422978662,"318":0.34999234308497673,"319":-0.9273149227823001,"320":0.08464366224147846,"321":-1.924139919224614,"322":-0.3230663635513597,"323":-0.10344045371829949,"324":0.3389861389536709,"325":0.17292778684474064,"326":-0.18538821569064304,"327":-1.3041367379526723,"328":-0.33891309874332604,"329":0.2509435273304377,"330":0.05878028675287558,"331":-0.16588979524187888,"332":0.379557165646575,"333":0.974498535453512,"334":0.8118662850183727,"335":-0.9405583754636477,"336":0.19381419988536963,"337":0.43265576001344896,"338":-0.28072881093833696,"339":-1.7160508758941815,"340":0.07140142552145559,"341":-0.284233698408816,"342":0.3953073996276979,"343":0.6471421731723408,"344":-0.46805725612382865,"345":0.23396197560277682,"346":0.35811388536033034,"347":-0.29047680643333335,"348":1.431172848448361,"349":-0.3409095651397554,"350":0.3543160067517369,"351":-0.07541297763761425,"352":0.10798450565438145,"353":0.7689562538496284,"354":0.472660937269008,"355":-0.3403055124666479,"356":-0.4782442455529739,"357":1.0964711949027717,"358":-0.8652170144821766,"359":-0.5978066157065631,"360":-0.34568481049926214,"361":0.3451986557419932,"362":0.7862979686553744,"363":-0.0424900503098781,"364":1.0514150230107484,"365":0.11812120970303013,"366":-0.10779153475783745,"367":-0.3636791669452583,"368":0.16542331288619247,"369":1.0785614443197014,"370":0.1545275352383582,"371":-0.5465760564375427,"372":0.39259372499138,"373":0.18296066970228833,"374":-0.6799388003727685,"375":0.8357379900879066,"376":1.0987234773644348,"377":0.2659430263026866,"378":-0.052598948909204433,"379":-0.7859958231803292,"380":-0.1042930534145675,"381":0.8973830100009847,"382":0.4287808303103519,"383":-1.2502188818526139,"384":-0.5091640617689343,"385":-0.2609371534338406,"386":0.29377604086877185,"387":-0.6604122137422695,"388":0.4273112127236549,"389":0.3155802456593093,"390":-0.7493644467672841,"391":-0.37480984709210535,"392":0.6042199649735156,"393":0.580804826443668,"394":0.057128670254286903,"395":-0.39394931468107974,"396":0.3872601735160327,"397":0.2578597992225492,"398":0.8426894306722186,"399":0.6884229255548895}},{"sx":5,"sy":5,"depth":16,"w":{"0":-0.6933552574489418,"1":-0.29287741224152497,"2":0.18949947868113015,"3":0.6075341400463684,"4":0.5853043847961666,"5":-0.8756694489796543,"6":-0.3172246749425517,"7":-0.38809325146857104,"8":-0.019982315582040694,"9":-1.2377360084141291,"10":-0.21220436825897687,"11":0.6876891193886235,"12":-0.21212934651785692,"13":0.3230626037328513,"14":-0.5001204697638821,"15":1.2622380095906856,"16":0.7527481517982828,"17":0.5918187163425925,"18":0.5972328976036283,"19":-1.399340175163601,"20":0.35668700619414295,"21":-1.215604037296262,"22":-0.37993956908205406,"23":1.2669174848244902,"24":-0.06259385668354912,"25":-0.6973247611333124,"26":0.3609358559047942,"27":0.12453075704220697,"28":1.160337921158136,"29":-0.5401011885668345,"30":-0.40674508934291054,"31":-0.027995616494240257,"32":0.0776626040561694,"33":-0.175125212191506,"34":-0.6889403785801432,"35":-0.6567426707840367,"36":-0.6365671498524171,"37":-0.6755573406555603,"38":0.6990737006673218,"39":0.14317896958729076,"40":0.7076712905964885,"41":-2.1149718456337605,"42":-0.013940497273779454,"43":0.6529569256682959,"44":0.1829474007212444,"45":-0.40472037554390233,"46":0.5846853433469555,"47":0.14635089482192148,"48":0.5735510799417339,"49":-0.3838573297733735,"50":-1.552292029188603,"51":-0.07372914234414933,"52":0.5409599407148501,"53":-0.2884675397895683,"54":0.017796288333272417,"55":-1.1491986553862903,"56":-0.5086776920330545,"57":-0.3403811282289246,"58":-0.1641379522851673,"59":-0.4432259247113325,"60":-0.18459752300906454,"61":-0.9698680236012953,"62":0.33000263531315954,"63":0.44979179420556636,"64":0.6448860691337939,"65":0.4917586138254353,"66":0.17220219970524378,"67":0.4639632468313263,"68":1.2992603084356178,"69":-0.31456908539065104,"70":-0.18809903774444225,"71":-0.7216828123543433,"72":-1.535160152835514,"73":0.08572801267652436,"74":0.4941956724715774,"75":-0.2914673952144244,"76":-0.48378218977452486,"77":-0.9651014252982907,"78":0.38471695192032007,"79":0.035515671401333826,"80":1.252079371267999,"81":-0.5271068609536689,"82":0.6286911361167984,"83":-1.2954994979548773,"84":0.3684020186358822,"85":-0.3462955164591131,"86":-0.5540084072001302,"87":-0.5156493773962398,"88":-0.4566865189172179,"89":-1.228855653367177,"90":-0.873286164097965,"91":0.05690158649131985,"92":-1.1045317391865657,"93":0.3264752613304035,"94":-0.015290589478601445,"95":-0.5579624642015037,"96":-1.3765773992878512,"97":0.6276069963843578,"98":-0.9662728543928055,"99":-0.6217565619107251,"100":0.02470828599136368,"101":-0.2898451643415995,"102":-2.0712914980838635,"103":-1.192455184179859,"104":-1.9583549855124218,"105":0.7953738992087541,"106":0.07883526393207548,"107":0.42154528183530515,"108":-0.42426889806278145,"109":-0.5448958687098175,"110":0.03716551022470012,"111":-0.20742548070822422,"112":-0.5607136326656319,"113":-0.4033443587485691,"114":0.30184423260722404,"115":-0.08369100508039627,"116":-0.5809653106222871,"117":-1.4463302032043885,"118":-0.8564723029996169,"119":-0.24350570668158958,"120":-0.0036048290659767166,"121":-1.3802149135190742,"122":-1.1411553719072403,"123":0.2207029621017639,"124":0.46796886074529576,"125":0.6073611625799937,"126":-0.45453581371089813,"127":-0.052408600400241055,"128":-0.22296662354725413,"129":0.5183325894427089,"130":0.2223231036536226,"131":-0.9925960984366855,"132":-0.19375520650090244,"133":-0.3968845536708983,"134":-0.17663949754684238,"135":0.3831727397773457,"136":-0.0656879785925958,"137":0.4245445403590398,"138":0.2970956527132959,"139":-0.47469498473054855,"140":-0.9169682158155777,"141":0.2304281945333732,"142":-0.309585182351306,"143":-0.2748825687873557,"144":0.2802552530971858,"145":-0.9013197864693593,"146":-0.9177034069104214,"147":0.7295231384453194,"148":-1.1742797777575484,"149":-0.2540508196572751,"150":-0.5255460855970528,"151":-0.48204428016955503,"152":-1.3413807093574137,"153":0.25737876854797226,"154":0.08970333500166276,"155":-0.7897420958566651,"156":-0.688752867623897,"157":0.07785271043292744,"158":-0.18438410199893795,"159":0.47155697075516084,"160":0.21603558382100355,"161":0.99793086858196,"162":-0.0811049419231963,"163":1.1923163299140052,"164":0.5147097965681424,"165":-2.031697045504819,"166":-0.8575748871499371,"167":0.1484715086105424,"168":0.49355720582015955,"169":-1.0857294377673525,"170":0.9852565274361152,"171":-1.172773932364741,"172":-0.422389634709684,"173":0.6567515783636296,"174":0.22887591716367292,"175":0.37641565414404404,"176":-0.08504244386713669,"177":-0.5867236175233133,"178":0.7739462133324388,"179":-0.9477551259510099,"180":-0.01077962375198417,"181":0.3367761890937319,"182":-0.4850815596793871,"183":-0.8392128784464872,"184":-0.6865673592960349,"185":-0.9101368884476063,"186":0.7498658992449734,"187":-0.78501074755578,"188":-0.5564636785469477,"189":-1.0776626344229037,"190":-0.4779323842825869,"191":-0.23428650870637718,"192":0.039154109676275126,"193":-0.1809910841751257,"194":1.0810316526952093,"195":-0.3002200981898195,"196":0.06574067751592828,"197":1.329125354706503,"198":0.792584006040647,"199":0.661250986546381,"200":-1.0796790579440332,"201":1.0761345457225364,"202":0.8254364807846085,"203":-0.20962061738248797,"204":-0.3158669343918089,"205":0.3871039306898474,"206":0.27770734312928047,"207":-1.0742314491791916,"208":1.1543283294791837,"209":0.15712809997759136,"210":-0.09778229742252834,"211":0.18094840067471019,"212":0.4197196338859352,"213":0.1305841979425348,"214":0.5001074942837225,"215":0.2677099171012372,"216":0.5709367417332859,"217":0.2048394315344652,"218":-0.02942573314743184,"219":0.0027532227458291264,"220":-0.7578615699260591,"221":0.6307649345938537,"222":-0.019634426960411944,"223":0.4609422796673275,"224":-0.03156446577643455,"225":-0.21614701064214706,"226":0.1425371799274437,"227":0.4440853703110604,"228":0.9450008441324046,"229":1.6314805885138464,"230":0.16776032521281486,"231":0.4374928301711311,"232":0.8825486215709785,"233":-0.034537334243180985,"234":0.06508626152315311,"235":0.7453306149818871,"236":0.2221791196607597,"237":0.027422900624472175,"238":-0.7339611896471993,"239":-0.22490837562513843,"240":0.5170249341607419,"241":0.4552335317662293,"242":0.21569690439340078,"243":0.36802148796174894,"244":-0.6327901454595628,"245":0.3391864156072305,"246":0.03649659515995398,"247":-0.32799890788858305,"248":0.2311493611614934,"249":-0.9993154297735792,"250":0.6400422050199667,"251":-1.3022786587424813,"252":-0.10737672984713803,"253":-0.14722774403794123,"254":-0.16578948997342227,"255":0.4423165987507442,"256":0.013220980988575801,"257":0.28627696436828565,"258":0.4870609018902851,"259":-0.6671054978496697,"260":-0.12265100075980381,"261":-0.9626585149617995,"262":-0.36390388533167106,"263":-0.49505483668955963,"264":-0.5209974015628137,"265":-1.360249602822163,"266":-0.7164676361123549,"267":-0.8889436437475888,"268":-0.6761767587230068,"269":0.38167832823685444,"270":-1.2320655631306772,"271":0.5571323883589984,"272":0.02530579950952391,"273":-0.8603852793023836,"274":-0.6308128585929248,"275":-0.3227641921957846,"276":0.30234513837310095,"277":0.004467354742384693,"278":-0.14241069654579078,"279":0.29113389349488333,"280":0.95507989783043,"281":0.08617285575109929,"282":-0.6286535735663409,"283":0.5133257625770421,"284":0.9294939775228616,"285":-0.7579590812341359,"286":-0.1236482736788233,"287":0.65755889037703,"288":-0.3632603309748828,"289":-0.04956704967160485,"290":-0.962994410079518,"291":0.4086074266681989,"292":-0.39042748043893977,"293":1.0965964006216724,"294":0.045295012461187424,"295":-0.555212742882086,"296":0.00856107335547748,"297":0.22302736820535646,"298":0.2044502171574719,"299":-0.34122919739952484,"300":0.487167247880809,"301":0.3966961408321232,"302":-0.04138876131524213,"303":0.657296696863713,"304":-0.12085413051120235,"305":-0.7390307011959794,"306":-0.6010839559671698,"307":0.1744632380544927,"308":-1.790051924171253,"309":0.5443292717027036,"310":-0.5565600182749447,"311":0.24885465094357204,"312":0.8912051728186844,"313":-0.4855516893894253,"314":0.6401630316213534,"315":0.5055079687187205,"316":0.5994918215639591,"317":-0.7706417696406933,"318":0.9800812810575084,"319":-0.4578871344453567,"320":-0.36494413341707543,"321":-1.024891120362386,"322":0.2855761017713628,"323":0.35134601635131857,"324":-0.9572921924511307,"325":-1.185474210084816,"326":-0.03647848120126472,"327":0.054924072203250726,"328":0.8623393659819861,"329":0.34332449556441386,"330":-0.934708939086473,"331":-0.49419357314350904,"332":0.2188988183962763,"333":0.4830424379231909,"334":-1.1353366030261252,"335":0.09260429642873536,"336":-1.4147281248747332,"337":-0.9315185637787531,"338":-0.25034447669420384,"339":-0.03360276994879889,"340":-0.08711971461664272,"341":-0.46039427864385885,"342":0.9915959348447575,"343":0.3689548997359806,"344":0.5286819154857708,"345":-1.140236459407073,"346":-0.17138774390241107,"347":0.254045918854681,"348":-1.4721364194088442,"349":0.07676645088086635,"350":-0.015769942377656863,"351":-0.010319731064074612,"352":0.2567943039315571,"353":-0.31410352354782023,"354":0.0828055707292339,"355":0.5463123108363495,"356":0.41111498763925297,"357":0.29324450788440315,"358":2.1627995396649338,"359":1.0045406093235376,"360":0.360271288701183,"361":0.7803931911497373,"362":-0.5676381157571669,"363":0.45438094340991836,"364":-0.5593043881937664,"365":-0.4585158270246924,"366":0.5160517025656243,"367":0.3615341958682428,"368":0.5439815816851268,"369":0.3726491819833041,"370":0.3804571563741974,"371":-0.60707234693189,"372":-0.07864873446661087,"373":-0.052691307716067594,"374":1.4042520569910588,"375":0.27803410968426023,"376":-0.7460666329205862,"377":-1.5320696156549025,"378":-0.30095343625708787,"379":-0.23620209755817842,"380":0.36825661995676057,"381":0.23941577074395343,"382":-0.5494973649342113,"383":-0.25959898144214855,"384":0.653035651587028,"385":0.5050411706046376,"386":-0.7296743884617517,"387":-1.5924723853345648,"388":0.08234201344749138,"389":0.4268622669219423,"390":-0.45585833555345756,"391":0.6625304609395583,"392":0.5209698237616306,"393":-0.08240370880399918,"394":-0.2429874867850708,"395":0.6038403878741665,"396":0.335251461898932,"397":0.27140914667499244,"398":-0.0756925900535155,"399":0.05561263129975011}},{"sx":5,"sy":5,"depth":16,"w":{"0":-0.011947896344496988,"1":-0.2904063514100426,"2":0.649569214074154,"3":0.1770922949067455,"4":0.7272032821797604,"5":0.14676419667807317,"6":1.1004037091318335,"7":-0.06853411697295272,"8":0.9475015111034015,"9":0.19251604901386934,"10":0.2001459174277453,"11":-0.355393973318037,"12":-0.2694502824893822,"13":0.6639090150449267,"14":0.21060744881978197,"15":1.0246923272133674,"16":-0.7899007430277643,"17":-0.4054884666940625,"18":0.8791294597797681,"19":0.6396508274195809,"20":0.3706395253876649,"21":0.600502810318177,"22":0.6300050572968974,"23":0.3472005124913385,"24":0.18076522457311414,"25":0.00795749829670233,"26":0.4518500826748612,"27":0.35625114210108444,"28":0.830532417863545,"29":0.10049752816004608,"30":0.5535574312972972,"31":-0.609069931574772,"32":0.2591959917676881,"33":-0.33965869649614977,"34":-1.0585919154228383,"35":0.9380907052718144,"36":0.019298507530128704,"37":0.4395921833717543,"38":-0.4943170220904491,"39":0.21634272163326254,"40":-0.13400658931950532,"41":-0.2730962061926096,"42":1.0712532551543892,"43":-0.7179496868052515,"44":-0.03448427790813458,"45":0.2539094982526583,"46":-0.41405509464844353,"47":-1.1515261645580377,"48":0.3699425026533919,"49":0.21954945117737956,"50":-1.1330038384649253,"51":0.26357114388308034,"52":0.3481481921463497,"53":-0.4868294217254456,"54":-0.4296123138142023,"55":0.015731442746972107,"56":0.7429439413448449,"57":-0.38434619615924864,"58":0.16637305576149086,"59":-0.7466833966859167,"60":0.24165842831073167,"61":0.3122621264399794,"62":-1.037849345437761,"63":0.05416095250464171,"64":-0.08070206217684091,"65":-0.07269828010892117,"66":-0.4918868412318771,"67":-0.6997028807573972,"68":0.34448399341493946,"69":0.4119798439187638,"70":-0.634517416319298,"71":-0.3249950630409618,"72":0.5671701110872905,"73":-0.13025477134368035,"74":1.3249581330019848,"75":0.551403133887132,"76":-0.5681920833410782,"77":0.699776446302187,"78":-0.9233424082258629,"79":-1.0370123169890075,"80":0.6388397953592535,"81":-0.5960406581869012,"82":0.23998858952129873,"83":0.5487616674641956,"84":0.5404772014174304,"85":0.3332496640699381,"86":-0.21495244751802067,"87":-0.17405839328029027,"88":-0.44663384463233075,"89":-0.42047363909871627,"90":1.649578979717336,"91":-0.5924752478772329,"92":0.3735482807907663,"93":0.2687768959958103,"94":-0.6884130097836538,"95":0.44369830774480673,"96":1.1348979594863344,"97":0.37071118689747673,"98":0.7480031963229786,"99":-0.25768471690409034,"100":0.08775364132459738,"101":0.38111779235084997,"102":0.43977615728867187,"103":-1.2480456750520377,"104":-1.1562038564052781,"105":0.18118250665127972,"106":0.2638599444652849,"107":-0.28146233723942216,"108":1.1956446598059294,"109":-1.0960578831651306,"110":-0.7958723560480293,"111":-0.47005256968780945,"112":0.746002349694283,"113":-0.03214614380076012,"114":-0.06670178015974532,"115":0.2643897474373169,"116":-0.7634208736407094,"117":0.061671047954840255,"118":-0.20920808970570598,"119":-0.5781771974930683,"120":-0.16262812972466426,"121":0.6053148680301705,"122":0.1551666892224645,"123":-1.1643900844275932,"124":0.28729514267724354,"125":0.06630542843478342,"126":-0.8212150433419628,"127":0.3447825179586927,"128":-0.3179203236963803,"129":0.8008888406382699,"130":-1.5765551056817275,"131":-0.21325713802682594,"132":-0.6046216229561548,"133":0.22782708690078965,"134":0.6287714812856303,"135":-0.30371273416104566,"136":0.4676471569095861,"137":0.21738341697800104,"138":-0.41826403239647214,"139":-0.7791933089518989,"140":0.5853113656246598,"141":-0.7672422124271847,"142":0.8047150070507761,"143":0.1800892345822627,"144":-0.2902678303305541,"145":-0.32227041919962246,"146":-0.12714817643825982,"147":-0.23978752909940496,"148":1.5660750690752583,"149":1.4429097373199922,"150":-0.11143978411188477,"151":0.3173077311034662,"152":0.47374872899976045,"153":-0.3840482384448602,"154":-0.04674500161138713,"155":-1.08324949655308,"156":-0.5879858393079956,"157":-0.20458254836870146,"158":0.10393355076301371,"159":-0.34188077583488274,"160":0.8305047169727832,"161":-0.12614353578238335,"162":-0.44753177580553977,"163":-0.11479130127664784,"164":-0.13827082025266973,"165":0.6351404820641204,"166":0.8313190953758721,"167":-0.30957490587075936,"168":-1.004355529150075,"169":-0.06460008542398003,"170":0.6271743575136716,"171":0.28384818697297376,"172":0.04207674266281536,"173":0.8148835876144772,"174":-0.3377599709223432,"175":-0.32103413610051335,"176":-1.3913025994413417,"177":-1.7621833273932217,"178":-0.17603660267372967,"179":0.13314795498441176,"180":-0.2017415659147525,"181":-0.7232605463403862,"182":-0.46888094078291587,"183":0.17242495043393966,"184":1.0683989253876707,"185":-0.48043017600024557,"186":0.16334979408115727,"187":-0.10819196630359389,"188":-0.09559100147241126,"189":-0.2296072175658061,"190":-2.051814640450889,"191":0.02999538289261595,"192":-0.6663544699909125,"193":-1.2300006311206333,"194":-0.8458130680167575,"195":-0.4828633910733188,"196":-0.024652605197641782,"197":-0.29552088514205715,"198":-1.053265881968799,"199":-0.19268104002919562,"200":-0.4337200743603058,"201":0.14925981996220514,"202":-0.1858521198113332,"203":-0.6210719491668293,"204":0.2087724966333335,"205":0.2747548040905124,"206":-0.12988295035772404,"207":-0.9690636857986853,"208":-0.5361857199155027,"209":0.6497884719524356,"210":0.2221714523992176,"211":-0.4209822217382496,"212":-0.965433575076561,"213":0.10635252594384513,"214":0.1286088962284976,"215":-0.4866779122873951,"216":0.1558160565697583,"217":-0.31744824145582556,"218":0.0718617759237507,"219":-0.03757963884418148,"220":-0.2638739781761959,"221":-0.8443636386452527,"222":0.7874201048925399,"223":-0.7425117174522146,"224":-0.3560604944753077,"225":0.5342945750197969,"226":1.060432052476098,"227":0.12249178435249115,"228":0.5086645688417184,"229":0.4388069253392603,"230":0.3768606177967971,"231":-0.47024365553833675,"232":1.6183569497709882,"233":0.07953625993214322,"234":0.5341750743571464,"235":0.5702144324714297,"236":0.16614601524168002,"237":-0.3133421833053546,"238":0.5537847086610838,"239":0.08694675248750985,"240":0.8192118383819165,"241":0.731407157164985,"242":0.16626222543455985,"243":0.23596558100508075,"244":-0.02737793879647787,"245":-0.39417841431786443,"246":-0.08665546933529768,"247":0.13820812392328838,"248":-1.1883059544332177,"249":0.960283550547702,"250":-0.46512486952556564,"251":0.13514673924641135,"252":0.24791191679732033,"253":0.150309344051215,"254":-1.3330638404044088,"255":-0.17927119672219263,"256":-0.958911862245321,"257":0.8672248903016143,"258":0.3615300234609317,"259":0.07427011978640727,"260":0.3184177189414859,"261":-0.42002705277059393,"262":0.169027667537526,"263":-1.188738022664387,"264":-0.9139553883846905,"265":0.8465050503473405,"266":-0.6553211535580044,"267":-0.19166839853408646,"268":-0.6403057801895502,"269":0.021184967694314254,"270":-0.9836501232793025,"271":-0.9200585395342921,"272":-0.19287602395727457,"273":-0.8900867917034183,"274":0.09412899524965428,"275":-0.3093385723437183,"276":0.3611352690320812,"277":0.38282623821368555,"278":-0.07095162606657912,"279":1.9576806911400384,"280":0.3597996876632388,"281":0.19129479681440978,"282":-0.06371140696807827,"283":-1.1437472814240985,"284":0.35490032157432194,"285":0.22587662243187528,"286":0.0827664230842585,"287":0.30973387826087845,"288":-0.11118225702716804,"289":0.2698938901811938,"290":-0.01971207241235177,"291":-0.41744697357826727,"292":1.0867128307354308,"293":-0.5540514099545754,"294":0.9300401339610428,"295":-0.940429367546795,"296":-0.43616919462976605,"297":-0.16411642348077532,"298":-0.35745919150426814,"299":0.22213740235529073,"300":0.10499963839631399,"301":-0.8820965489457505,"302":-0.08676059776264201,"303":0.22581677627850724,"304":-0.224910294614272,"305":-0.4519749497640871,"306":0.009790046322237672,"307":0.44572097469547506,"308":-0.3290727158163185,"309":0.10643457358362333,"310":-0.10030107833930635,"311":-1.4532844229522182,"312":0.07690053088243891,"313":-0.07470691206504335,"314":0.4193116379910969,"315":-0.8530916497084716,"316":0.16280707671774156,"317":-0.832293034334684,"318":-1.0586012373525444,"319":-0.7145212660432242,"320":-0.4803616914538066,"321":0.7726700062128514,"322":0.6210184976171849,"323":0.16605397117043802,"324":-0.44657686298049254,"325":-1.2458986524766213,"326":0.5780886648751182,"327":1.1259255160758954,"328":-0.8513276633910942,"329":-0.8133912754667515,"330":0.18352287607167125,"331":0.025443242632376073,"332":-0.2696236540005281,"333":0.44699328671401356,"334":-0.8681340971314758,"335":-0.19861279989457822,"336":0.1303462754408784,"337":0.07891181253492807,"338":-0.29158941424596874,"339":0.08709794758452782,"340":-0.3403735856162849,"341":-0.8465848229344733,"342":0.2237879921441457,"343":0.23259879707574607,"344":0.11447476980232589,"345":-0.15935532668040775,"346":-0.03205571183665766,"347":0.7486513369275386,"348":0.12998517614715685,"349":0.10793192581775952,"350":-0.24451853406631877,"351":-0.004416012956158611,"352":0.9918753738420119,"353":-0.2992397333151725,"354":-0.7526722319557104,"355":-0.33595301403755923,"356":-0.37476278677158775,"357":-0.19589059282283766,"358":0.0018207400118038595,"359":-0.507790561691666,"360":-0.6011786949634461,"361":-0.45117069735845616,"362":0.44771551061192627,"363":-0.5713428215088576,"364":0.552614281282927,"365":0.03262293488479299,"366":-0.7581214362722745,"367":-1.1620884652831849,"368":0.05674448130266097,"369":0.36549608726414046,"370":-0.07065386059234821,"371":0.7771165877995855,"372":-0.15091475834348758,"373":-0.4397251835645356,"374":-0.03337756981096364,"375":-0.4730690623901981,"376":-0.6124874667088899,"377":-0.7033257073504967,"378":0.2930941220385799,"379":-0.514203998882053,"380":0.06563803246419816,"381":0.5319335498662268,"382":0.1863357893433779,"383":0.6747329988038454,"384":-0.15229451156186807,"385":0.326093462519082,"386":-0.28568820973805864,"387":0.3446983847681104,"388":0.7149658490317327,"389":-0.4482100468427414,"390":-0.49462203084686024,"391":-0.47402204046812474,"392":1.049954382373646,"393":-0.5742397442502857,"394":0.2389764816183116,"395":-0.5066387116083687,"396":-0.7170576915826056,"397":-0.34999797270003796,"398":0.3967751726731607,"399":1.0361011547469579}},{"sx":5,"sy":5,"depth":16,"w":{"0":0.09830835018422253,"1":-0.4742792602426877,"2":0.32648674306063413,"3":0.17396288220959416,"4":-0.1900630235155168,"5":0.9352081653721052,"6":-0.7795892410080154,"7":0.7702350891415631,"8":0.015017441754524985,"9":-1.1245623415992705,"10":0.26827589259333984,"11":-0.1701823306512355,"12":-0.9226412214752311,"13":-0.21505777030874884,"14":0.020079303306506938,"15":0.08147247240326953,"16":-0.2687632358964614,"17":-0.8622240714823435,"18":0.5711441691564625,"19":0.15420287845000255,"20":-0.8339174185374058,"21":-0.1917742392884197,"22":0.06700437687623637,"23":0.003696072301313637,"24":-0.6593403224605443,"25":-0.5149908349562865,"26":0.08085518365317776,"27":0.09835206955344555,"28":-0.19567938718454025,"29":0.3311564840588773,"30":-0.03767351971485415,"31":0.38349012874088184,"32":-0.3177451711566635,"33":-0.07225032453105598,"34":0.20921794974813757,"35":-0.7502309753356993,"36":0.17126968547231347,"37":0.6312752407218134,"38":-0.06633947065863965,"39":-0.7092886822558875,"40":-0.19477193831892398,"41":-0.7141567059760805,"42":0.24642981936786526,"43":-0.7341895301821575,"44":0.2014863339182401,"45":-0.995897901566513,"46":-0.1887463392174039,"47":-0.21285052497120152,"48":-0.6637805722002476,"49":-0.3617977831006529,"50":0.4009061806785315,"51":-0.18921295897451523,"52":0.3930483415416555,"53":0.25882607881071074,"54":0.43929623251436933,"55":-0.3602191359904094,"56":-0.12995206869541617,"57":-0.6853432686796633,"58":0.9390480896296749,"59":-0.31388220767458025,"60":0.3407527672540218,"61":-0.04303241233620281,"62":0.18867174763143252,"63":0.22803029846310574,"64":-0.32567028108383,"65":-0.4743872176474639,"66":-0.5661726866960931,"67":0.37982237021097004,"68":-0.2506063783956847,"69":0.07559812854980964,"70":-0.4009088251149522,"71":0.1787281489674748,"72":0.18771708860922437,"73":0.1850645557196839,"74":-0.3751081278327208,"75":-1.0625653121533585,"76":0.48744351450515505,"77":-0.07064259657917642,"78":-0.38236937197898707,"79":-0.02186544344339545,"80":0.7719630869920451,"81":0.19784119355524132,"82":0.47266199960828403,"83":0.178281952734009,"84":-0.26598311134598285,"85":0.2748103932933889,"86":0.45892982242872005,"87":-0.17663775224783398,"88":0.4955795216887812,"89":0.05159131435286983,"90":0.35786423152296465,"91":-1.1712750693992533,"92":-1.2661657579421037,"93":0.39610260935438657,"94":0.14253194189428314,"95":0.06861619204078137,"96":-0.3806558890997638,"97":0.409060196494197,"98":0.3048123382446884,"99":-0.25727704578218896,"100":-0.6763892777223618,"101":-0.7501412867658258,"102":0.6825190826854213,"103":-0.5960839557570848,"104":-1.5689570997273972,"105":0.5203621541388436,"106":-0.04848226697156642,"107":-0.6980605636427382,"108":0.3634307863784841,"109":-0.014903102312651406,"110":0.025357353016342066,"111":0.21453806328877156,"112":-0.5273614308188284,"113":-0.20107594186357686,"114":-0.0265936344981133,"115":-0.3919947399258393,"116":-0.26704037100647826,"117":-0.13380851553024337,"118":0.857543368731879,"119":0.6903386371452908,"120":0.6956849237624955,"121":-0.42790486389758414,"122":0.6129538582022024,"123":-1.0584189064209777,"124":0.7388780867770676,"125":-0.4283249111461588,"126":0.7867325916958602,"127":0.11421846079895401,"128":-0.09145430933398,"129":-0.16317880932307882,"130":-0.3760682591021727,"131":0.1730237021581444,"132":0.17070003901176597,"133":-0.011135645303655354,"134":-0.5464030502446383,"135":0.3262212153662677,"136":0.24838427678797959,"137":0.540560520587927,"138":1.3957836348753245,"139":0.35961059008778173,"140":0.5581342801567766,"141":-0.2155784764596303,"142":-0.06945132489923041,"143":-0.21724227303684318,"144":1.166539386204708,"145":-0.14906449311918832,"146":0.3224838002637775,"147":-0.5976019912797451,"148":-0.33372384509254194,"149":0.047436124932890816,"150":-0.5891149117878797,"151":0.7163243681665924,"152":0.6672708465703774,"153":-0.5971747075195053,"154":0.3130308257497503,"155":0.09350194028100385,"156":-0.30934199189556716,"157":-0.12846312031222143,"158":-0.38051450896274425,"159":-0.4772517182102867,"160":-0.04026123629094831,"161":-0.5842836664231442,"162":-0.27282360566810565,"163":0.27554229872863356,"164":-0.5805152212146749,"165":-0.161266489730454,"166":-0.31767929012398327,"167":-0.37418460480362625,"168":-0.1322904590311879,"169":-0.9125755003749517,"170":0.7870418852349335,"171":-0.3245691155599742,"172":-0.264314733380394,"173":-0.27016108685840967,"174":0.6829787286927395,"175":-0.49789532176189183,"176":0.8243691052542708,"177":1.1077153534028046,"178":-0.6432294645485379,"179":-0.0276522428789084,"180":0.5151077913133127,"181":-0.5544610092320041,"182":-0.24197253696314536,"183":-0.6083719977792155,"184":-0.2749722868911705,"185":-0.3044014784092133,"186":0.942599311503637,"187":0.2952438398534788,"188":-0.12713151742342843,"189":-0.6708585755023849,"190":0.20151471033474366,"191":-1.365317117489908,"192":-0.9996033433292109,"193":-0.32142717345804955,"194":-0.7500457658417198,"195":0.04369815785885851,"196":-0.5504875205847028,"197":-1.435725376665885,"198":-0.19706513193834668,"199":-0.4865446854984094,"200":-0.4207614971046527,"201":-0.2777590607917505,"202":0.9613298943569456,"203":0.02704412582946313,"204":0.2787525481802647,"205":0.6613217699007111,"206":-0.46420022575592734,"207":-1.0369378006228938,"208":0.7560140630564357,"209":0.026561681523419995,"210":-0.715498656867603,"211":0.6329517400276693,"212":-0.07970052148847943,"213":-0.40264618583356676,"214":-0.13294811978560447,"215":0.703107792205552,"216":-0.6907577269533254,"217":0.09204084151065316,"218":0.03495099418998875,"219":0.7837019760504682,"220":-0.7294358423993277,"221":-0.17673104147452928,"222":-0.6453615288472679,"223":-0.35411160945139103,"224":-0.2975596882902621,"225":-0.38163365057536447,"226":0.043310372751174095,"227":0.3306028237848038,"228":0.6722396005785491,"229":0.16633939569979084,"230":-0.46964137831423086,"231":-0.06946986500798888,"232":0.43470043170685674,"233":-0.4576485887705922,"234":-1.3590431832278458,"235":-0.43484707003600565,"236":0.057433101049040175,"237":0.46159118633778007,"238":0.04444440640782861,"239":-1.5355437720451528,"240":0.6580119998030776,"241":0.8523799202406233,"242":-0.34127330298286246,"243":0.05710174646324465,"244":-0.5751930408402126,"245":0.34446037322177603,"246":0.5929787173490979,"247":-0.6685727116111877,"248":0.09469922466358788,"249":-0.6638489037727141,"250":0.028947277037444544,"251":-0.7941417753524899,"252":-0.6791401711670053,"253":-1.6216838431533065,"254":0.57067106956082,"255":0.1154799162069483,"256":0.12711899048217526,"257":-0.1811966772953671,"258":-0.48722386269481877,"259":-0.48123604925722596,"260":-0.3263235245845253,"261":-0.03664324551481495,"262":-0.04587444273265211,"263":0.3878252279670586,"264":0.11209410785521416,"265":0.2768155667706418,"266":-0.23078849985205205,"267":-1.331013430024559,"268":0.15318586326557462,"269":0.2624951391698775,"270":0.5756713943941364,"271":0.07035693905182809,"272":0.11894349352235499,"273":-0.6173874604015106,"274":0.7489041746587581,"275":-0.21154319769061336,"276":0.2601711221030679,