{"layers":[{"out_depth":3,"out_sx":32,"out_sy":32,"layer_type":"input"},{"sx":5,"sy":5,"stride":1,"in_depth":3,"out_depth":16,"out_sx":32,"out_sy":32,"layer_type":"conv","l1_decay_mul":0,"l2_decay_mul":1,"pad":2,"filters":[{"sx":5,"sy":5,"depth":3,"w":{"0":0.06767888359791688,"1":0.1824237580653563,"2":-0.12303124566767562,"3":0.2918386503479208,"4":0.788235017889576,"5":0.1504250439453672,"6":-0.474593428545781,"7":0.3004254722831907,"8":0.4475837459925159,"9":-1.9279959933998905,"10":-0.7724748566966708,"11":-0.5697911854910386,"12":-0.9492842071028479,"13":-0.295073605509656,"14":-0.03588296870457062,"15":-0.6632154227084939,"16":-0.47705463233551526,"17":-0.5800106051681743,"18":0.03935368681377847,"19":-0.16292898150465487,"20":-0.8846595805858476,"21":0.31976971089336287,"22":0.4759488949089993,"23":-0.1551333677836969,"24":0.2486708621896773,"25":0.25959213763952477,"26":0.06287233957145728,"27":0.8314448935681327,"28":0.5961910553531686,"29":0.4551188860399497,"30":0.39178270137766413,"31":0.13840311312042314,"32":-0.22415714268793419,"33":-0.07174206548889389,"34":-0.0102713372234428,"35":-0.43465839560226943,"36":-0.058789589792997435,"37":0.2257264552388293,"38":-0.09538135332546516,"39":0.1360722461766961,"40":0.1927563088727119,"41":-0.18702719709899987,"42":0.9515356425102443,"43":0.9888549394249262,"44":0.40340896340598803,"45":-0.16446454834838434,"46":0.11753870941329883,"47":-0.5362265919724375,"48":0.332420439671994,"49":0.13042246989350137,"50":-0.6498869040686827,"51":0.8249741143557648,"52":0.32528873227644756,"53":-0.10292650738091728,"54":0.6765330777513033,"55":0.5497018914000662,"56":0.25336068931973593,"57":-1.356348584795133,"58":-1.3700931961541662,"59":-1.163663265259456,"60":-0.2889876344347943,"61":0.5228839081845859,"62":0.2925637267378598,"63":0.03205159931082857,"64":-0.4403236827124208,"65":-0.3217617926343508,"66":0.6783721256557917,"67":0.08526984720544803,"68":-0.4288575493601398,"69":0.6596946942395513,"70":-0.0583050552876701,"71":-0.25325627520258703,"72":-0.23732053347794632,"73":-0.7046628106552624,"74":-0.6323643770637397}},{"sx":5,"sy":5,"depth":3,"w":{"0":-0.34934104501316077,"1":-0.18829640369504655,"2":-0.007830079082407192,"3":-1.0752322647181936,"4":0.15236239350991196,"5":0.6202729057853407,"6":-1.1431099893420158,"7":0.0556630830406393,"8":-0.16727722475322107,"9":-0.30109054174520855,"10":-0.0998430797178121,"11":-0.14891237994546302,"12":-0.5770301496914705,"13":-0.04097033333708032,"14":0.37625864415255533,"15":-0.3874586871259597,"16":-0.04251596617382902,"17":0.21143772812973746,"18":0.08923880844561397,"19":0.044760918617935595,"20":-0.12034742228061925,"21":-0.09011219145365981,"22":-0.15015962391153556,"23":-0.685019926798365,"24":0.644829563429228,"25":-0.060215456142901976,"26":-0.030074755777029956,"27":-0.42669774259724486,"28":0.23265438338906108,"29":0.5783799454138819,"30":0.8444143630904349,"31":-0.6191524691170153,"32":-0.05098992867208295,"33":1.495413667355853,"34":0.5477840319761945,"35":0.33721521236196716,"36":1.405560896477874,"37":0.5077525834263842,"38":-0.20679678087997064,"39":-0.2272031579833798,"40":0.3818235948402301,"41":-0.172812649786868,"42":0.37451897943732787,"43":1.144761768011943,"44":0.4795416922404626,"45":0.6920804872331598,"46":-0.4337894400018772,"47":0.4557178287436063,"48":-0.245871657143264,"49":-1.4005055086336933,"50":-0.2991653311448611,"51":-0.0008355276940113346,"52":-1.8845969374559453,"53":-0.7440975541195938,"54":-0.23203429840829012,"55":-0.6578913386863329,"56":-0.05986333940739105,"57":0.3572329544183551,"58":-0.36811155496362513,"59":-0.3190780721079298,"60":-0.10398809476559438,"61":-0.4235995226927733,"62":0.2919129661876089,"63":0.4543205238648542,"64":0.1487481519955405,"65":0.28351574857450984,"66":0.5796460086639652,"67":0.38202507417779846,"68":0.18508389608694245,"69":0.4543748690150832,"70":0.06438626148638034,"71":-0.21709598152065,"72":-0.08979595483277866,"73":-0.023344746870322872,"74":0.16469991148917024}},{"sx":5,"sy":5,"depth":3,"w":{"0":-0.4563693920070315,"1":0.2804202228084197,"2":0.22419690991749108,"3":0.025459512395699595,"4":-0.5710666160573129,"5":-0.9813159048705082,"6":-0.11820233867081659,"7":-0.2759925451321484,"8":-0.8640296090341439,"9":-0.15217899697935025,"10":-0.1314567332650717,"11":-0.5835918030092336,"12":0.29390715221056485,"13":0.6468281485322216,"14":0.2576624335483814,"15":-0.2765452949032034,"16":0.5777049205075664,"17":0.02453097629137233,"18":0.12477545024140192,"19":-0.1027051329849935,"20":-0.824333010789166,"21":0.1637162910360269,"22":0.09107343083801182,"23":-0.43053991330052116,"24":-0.11322704604313123,"25":0.3881386800603769,"26":-0.004547153667393403,"27":-0.5888962038768365,"28":-0.06066795117226736,"29":-0.5568344370639702,"30":-0.03821900826810503,"31":0.2824461585248251,"32":-0.08384054238701011,"33":-0.049794746689684706,"34":0.34946045032515305,"35":-0.04765670190570921,"36":-0.0511183722453045,"37":0.08050909044273354,"38":-0.7107348981553079,"39":0.27689242946170767,"40":0.13434016800611637,"41":-0.3042968827859288,"42":0.26092327061485976,"43":0.051011537266282964,"44":-0.27928894010008626,"45":-0.4916148921244658,"46":0.435770979791885,"47":-0.010526783582208333,"48":-0.06751933107119835,"49":1.1315605731464995,"50":0.5512896792005965,"51":0.15284429561278026,"52":0.9341679372322993,"53":0.1570577725326138,"54":-0.018022874527827477,"55":-0.1559215101106951,"56":0.36597244112094035,"57":0.44483599895564635,"58":0.08714900742732402,"59":0.23597490691891332,"60":-0.47321141921929116,"61":0.9899387575718231,"62":0.35317332116314354,"63":-0.24179782976654227,"64":1.146503617399057,"65":0.7451810468693425,"66":0.028591223477727856,"67":0.262028919245925,"68":0.36371318029152216,"69":0.2035099296269504,"70":-0.2076207043837488,"71":0.16560009332253986,"72":-0.5220582059244283,"73":-0.9485502194786066,"74":-0.5909406760165341}},{"sx":5,"sy":5,"depth":3,"w":{"0":-0.45509029263316025,"1":-0.11308926730452491,"2":-0.43394709595702136,"3":-0.8868307642246908,"4":-0.37836713417736895,"5":-0.11184742461489126,"6":0.19619425960892806,"7":0.6206071920038474,"8":0.9862996250429039,"9":-0.8398295534499151,"10":-0.19932868969105655,"11":0.39477995318021114,"12":-0.5511187052927584,"13":-0.09735067897227108,"14":0.35862234354300443,"15":0.4761821178881065,"16":1.1327692575360317,"17":1.2764252701224394,"18":-0.2818421192155858,"19":0.09750362310031747,"20":0.4450280638507428,"21":0.1010304909114431,"22":0.8454223098987287,"23":0.9104069768743032,"24":-0.3135772447188751,"25":-0.05066534911736686,"26":0.21584104672045265,"27":-0.3326991698535995,"28":0.011255516500325075,"29":-0.12436238413628961,"30":-0.002737965342130951,"31":0.47821909543101637,"32":0.4555104317855777,"33":-0.041997165564625676,"34":0.07361309167209651,"35":0.06015647629196588,"36":-0.3138760764185669,"37":0.2255991182047098,"38":0.19386442529917347,"39":-0.2992498689091912,"40":0.06484727168140252,"41":0.18567191552986687,"42":0.08379595432896547,"43":0.3079646433556141,"44":0.4725062480725576,"45":-0.1743207411690935,"46":0.21940217439515744,"47":0.2863295807866338,"48":-1.150878140928082,"49":-0.5664617361003912,"50":-0.14737460413054249,"51":-0.44312418475247733,"52":0.00503247810967231,"53":0.20768481176533957,"54":-0.35531862325771174,"55":-0.6390400300427388,"56":-0.019757426734034363,"57":-0.27968161931645547,"58":-0.7031551289241861,"59":-0.13813205209302234,"60":-0.08438914755274275,"61":0.06597662083991684,"62":0.0360007310802062,"63":0.07650393938652005,"64":-0.11173556642628082,"65":-0.2517656836119612,"66":0.0343651428001079,"67":-0.082462843169416,"68":-0.2513102078486352,"69":0.32072281367440725,"70":-0.4983279285453129,"71":-0.21480442320695697,"72":0.7371036973459542,"73":0.049048624413614524,"74":0.43469005545035305}},{"sx":5,"sy":5,"depth":3,"w":{"0":-0.16650718384555938,"1":-0.5299492584526331,"2":0.26164489257447404,"3":-0.33122780827635534,"4":-0.9348656882571069,"5":-0.7417514772989912,"6":0.5268130575377906,"7":-0.026200874721026734,"8":-0.38058517654294577,"9":-0.3375653385106135,"10":-1.0106487978007714,"11":-0.7950016899111073,"12":0.9414150362754342,"13":0.9510277430478249,"14":0.08103738693895238,"15":0.7639435905656498,"16":0.5128680632014144,"17":0.5063730198041916,"18":1.0122113268788082,"19":1.016662195412918,"20":0.6660450074732207,"21":1.009463984130977,"22":0.18012107617643575,"23":-0.29946986434304024,"24":0.4338306740724385,"25":-0.5208343009233952,"26":-1.093531047829551,"27":0.3842850552331576,"28":0.24887098969761962,"29":-0.6912998077768456,"30":-0.5243004351669568,"31":0.17945294996073974,"32":0.5882162261906868,"33":-0.5708617474239633,"34":-0.46138853867391866,"35":-0.49424872146630533,"36":0.6919723331371797,"37":0.4756806050901823,"38":-0.4490381587751976,"39":1.0882852289189477,"40":-0.3090311077689982,"41":-0.815865664828677,"42":-0.09464887697168155,"43":0.12313622926759635,"44":-0.8511924614256576,"45":-1.5243808624948345,"46":0.13248198540112743,"47":0.7685238620836294,"48":-0.6217018013501056,"49":0.46361668166638015,"50":-0.06032345680036372,"51":-0.31867249014889953,"52":0.6699089766163802,"53":-0.3363729658017602,"54":-0.055062337673038086,"55":0.040013122797741926,"56":-0.6646258200430779,"57":0.08206922409388515,"58":0.7375686872201372,"59":-0.19947477590100562,"60":-0.28740692428986186,"61":0.577353375628088,"62":0.6274400337777014,"63":-0.740375178613034,"64":-0.029872819021577447,"65":0.07939680394861988,"66":-0.44373411291945514,"67":0.2667343520222082,"68":0.040458462258396034,"69":-0.25068754466030857,"70":0.21920505128048606,"71":-0.02536072113364743,"72":-0.12027075940086952,"73":0.6321106574811204,"74":-0.2253285030638676}},{"sx":5,"sy":5,"depth":3,"w":{"0":-0.6295677599619952,"1":0.5541291112188296,"2":0.8793739361985597,"3":-0.23669306112635932,"4":0.16888970385408839,"5":-0.4247052915664288,"6":-0.018537741390459495,"7":-0.2259245928453672,"8":-0.30020625096586256,"9":0.1330636375503223,"10":0.47084388696352586,"11":0.6199964541782267,"12":0.1982527599021491,"13":0.4431554340796544,"14":0.4679882755664929,"15":-0.5417617610837167,"16":0.38916124771318245,"17":0.7486051906173771,"18":-0.020207487020642626,"19":0.48394384064253687,"20":0.26048667050025354,"21":-0.12135193565986993,"22":0.08283456130299095,"23":0.057444606614847696,"24":0.22285964397248947,"25":0.6751603829781991,"26":0.5639597579431888,"27":-0.029034910734835995,"28":0.029613962484094633,"29":0.03291299146327138,"30":-0.691180550837309,"31":-0.5545550158010518,"32":-0.030429541326642006,"33":-0.6518704692834294,"34":-0.6468653638776374,"35":-0.7104299663518513,"36":-0.7966956641139773,"37":-0.3087560604669771,"38":-0.3521191698125557,"39":-0.6189598787844689,"40":-0.8864095668512457,"41":-0.68764633900203,"42":-0.6246967043443634,"43":-0.107302731717137,"44":0.005050072944832936,"45":0.46912527170237367,"46":0.3992134209119427,"47":0.26787655278129674,"48":0.7457286387509454,"49":0.9405473410453625,"50":0.2130835927967567,"51":-0.13467974792216827,"52":-0.027263739135939793,"53":-0.1873614907351104,"54":0.31738367900909087,"55":-0.011665619766659838,"56":0.4381004992551753,"57":-0.14993958661409845,"58":-0.746896941488439,"59":-0.1713641784408648,"60":0.017091894262012814,"61":-0.141616160838148,"62":0.21879636821468224,"63":0.011965107016306053,"64":0.46876202518443716,"65":0.13942854191991785,"66":-0.2332803816395798,"67":0.22312340033120853,"68":0.2982715341682664,"69":0.36996434944576534,"70":0.2821802132629963,"71":0.7045711399713167,"72":0.2453358710582381,"73":-0.4575036631125484,"74":-0.339749698478832}},{"sx":5,"sy":5,"depth":3,"w":{"0":-0.6775165992155942,"1":-1.0747866514871844,"2":-0.6703366440466426,"3":-0.2274515231470861,"4":-0.7340908619548773,"5":-0.355585972203716,"6":-0.24739389754311458,"7":-0.24713540293180197,"8":-0.18859428935993416,"9":-0.09850564405846289,"10":-0.3432510251750747,"11":-0.06305839984548159,"12":-0.29049484743720905,"13":0.13885647480479177,"14":0.4586863522606333,"15":-0.22951256738276266,"16":-0.46088180159459285,"17":-0.423262388406991,"18":0.40280659663459756,"19":0.5038989807105089,"20":0.6360929924239884,"21":0.13135849220990956,"22":0.4236110320691982,"23":0.46212605081780433,"24":0.10138320081999595,"25":0.23336368200072136,"26":0.29070792061646805,"27":-0.5604001198022917,"28":-0.25600664261239625,"29":0.17989708390372888,"30":-0.3168813136942106,"31":-0.10860155473551099,"32":-0.06433210721184161,"33":0.1083460639663734,"34":0.00011243051088955351,"35":0.11733987724080697,"36":-0.25080623838795685,"37":0.31227114452604776,"38":0.32781752320157254,"39":0.26507554795753135,"40":0.2041049039462829,"41":0.2687209052291191,"42":-0.7786129880340072,"43":-0.437527626136109,"44":-0.2303836814952291,"45":-0.5006185349402215,"46":-0.33454091551679815,"47":0.36945419891876885,"48":-0.2320149471154884,"49":0.1924670284310392,"50":0.4826053073690645,"51":-0.5721323511593057,"52":0.32855214727072646,"53":0.3720413988755018,"54":0.06023213577502795,"55":0.48987743068022166,"56":1.032991847840374,"57":-0.8566779271670142,"58":-0.41182588317564356,"59":0.25475936841560554,"60":-0.20417178589851848,"61":-0.019135301887906474,"62":0.8725397797022283,"63":-0.32017879663711735,"64":0.2091562204631908,"65":0.6936525093862345,"66":-0.43257530786407966,"67":0.14283538481244554,"68":0.022320692615614205,"69":0.6455066994151339,"70":0.6009320435714528,"71":0.3646027741875831,"72":0.00748123980428433,"73":-0.445163692028834,"74":-0.05384156575621415}},{"sx":5,"sy":5,"depth":3,"w":{"0":-0.2804160069855803,"1":-0.47323583896874954,"2":-0.3756705691973846,"3":0.5953506693839875,"4":-0.12097054502314872,"5":-0.18959603777258482,"6":0.414788985238871,"7":0.3970594076052099,"8":-0.15424356553094393,"9":-0.31858384924805183,"10":0.591410554263559,"11":0.0041181388833521244,"12":0.10737929883450821,"13":0.6588269035983185,"14":-0.06700869147644647,"15":-0.027573945647649124,"16":0.1493056319443328,"17":0.4629581506686393,"18":0.09792795888882382,"19":0.34806805221968756,"20":0.31753783033283545,"21":-0.6681294892781369,"22":-0.17175069654151942,"23":-0.653901940757286,"24":-0.4634706460348659,"25":0.1320215161392425,"26":-0.5335460657356133,"27":-0.7518994556210294,"28":-0.07671861189355474,"29":-0.031625918681165814,"30":0.06935032687220295,"31":-0.33574819453862254,"32":0.2705924087816584,"33":0.4287390908348116,"34":0.4278091077652514,"35":0.11856703075362418,"36":-0.23333073838541846,"37":0.13367512888881586,"38":0.07999391536426743,"39":-0.0687873356386108,"40":0.8449145980786467,"41":0.707490004511677,"42":-1.7796133364018296,"43":-0.447529950317387,"44":-0.03362659097448802,"45":-0.20261770271771862,"46":-0.0363881665049098,"47":0.18336932503004613,"48":-0.06566088148366289,"49":-0.3216034883575114,"50":-0.24902259208871283,"51":-0.4185261179888424,"52":-0.4520222066830556,"53":-0.3717134980724053,"54":0.40189421051698876,"55":0.6893942812288865,"56":0.6979446410945529,"57":-0.393748045043693,"58":-0.07129551801404525,"59":-0.17230959856168854,"60":-0.056463560110506066,"61":0.05850735733060654,"62":0.2290379404625132,"63":0.5077472189328396,"64":0.12549602788931014,"65":0.1591228679002458,"66":-0.8031879878944658,"67":-0.58499189923062,"68":-0.7287283821176438,"69":0.3667966349133579,"70":0.41269213409979427,"71":0.5766877137614941,"72":-0.12690594934653177,"73":0.22747902483310442,"74":-0.19568992173152105}},{"sx":5,"sy":5,"depth":3,"w":{"0":0.6131347030351051,"1":0.5603364664282035,"2":0.6357282952390422,"3":0.3213704285346269,"4":0.23407599394673095,"5":0.7434880647561048,"6":-0.13033686200523686,"7":-1.2669285371980332,"8":-0.5895265611573199,"9":-0.07797459228535503,"10":0.2216156014677502,"11":-0.0008233679141731502,"12":-0.014924186967916447,"13":0.7602904778160815,"14":0.8048718558642115,"15":0.16958352145443606,"16":0.2832180469878066,"17":0.2937649222840353,"18":0.05130005907428913,"19":-0.14472129741980774,"20":0.1272038159008775,"21":-0.6382466572424501,"22":-1.3228438947663892,"23":-0.6131622640664532,"24":-0.3184022371305608,"25":-0.05790290525404186,"26":0.17318563701825362,"27":0.20287435840941587,"28":0.9228537352035473,"29":1.014152057925798,"30":-0.24868028167258976,"31":-0.5130303192083916,"32":-0.34273941001372277,"33":-0.31550754243559176,"34":0.06009747252297003,"35":0.3058589913609473,"36":-0.138650797408384,"37":0.09929715929031067,"38":-0.2578291567446455,"39":-0.6060266537003345,"40":-0.30325327534210833,"41":0.08526931952629276,"42":-0.6787682427651386,"43":0.00420444550820215,"44":0.23166114970336776,"45":-0.4931641995045349,"46":-0.460243184303396,"47":-0.24050227530744606,"48":-0.1688604019764331,"49":0.7132169578376631,"50":0.8846694845373703,"51":-0.8851938281640038,"52":-0.4670505667365646,"53":-0.6254580683932154,"54":-0.1718286119654888,"55":0.5148899380999423,"56":0.2844389147287517,"57":-0.4661579877647677,"58":0.5435208172437533,"59":0.3575228614336553,"60":0.2874663648859922,"61":0.17641997020283468,"62":-0.4290570679718115,"63":0.06209185117129264,"64":0.7714411569798998,"65":0.36596436664383714,"66":-0.08099976777872459,"67":0.25973992035947135,"68":-0.1280205504556576,"69":-0.4055179237584122,"70":0.43282877546229764,"71":0.06321098300685452,"72":-0.5803075658307254,"73":0.9085334572199893,"74":0.3120775641197116}},{"sx":5,"sy":5,"depth":3,"w":{"0":-1.3006285707681946,"1":-0.23863855712201462,"2":0.10959661145302785,"3":-0.9233167150587892,"4":-0.5139999985849419,"5":-0.7188296708261935,"6":-0.7331305721876745,"7":0.7445446246925352,"8":0.3601953315382185,"9":0.25554737683449613,"10":1.0554052243359058,"11":0.44285442318758317,"12":-0.3625252502524588,"13":0.41426941765585845,"14":-0.49110803532160563,"15":0.21157062293787665,"16":0.9520962765805578,"17":1.3869801390029066,"18":-0.2178243524830659,"19":1.2531795286538778,"20":0.868530096050811,"21":-0.6071492782833396,"22":0.719250043529255,"23":0.1587508689765658,"24":0.21077479301358623,"25":1.0937819970669314,"26":0.6068062133365388,"27":-0.4057652553333107,"28":0.5345578382749153,"29":0.1623793662092483,"30":-0.5633826443627203,"31":-0.09622078084773583,"32":-0.2279491382142338,"33":-0.7293355197166937,"34":0.19063613366745258,"35":-0.09192167190347987,"36":0.16202427884758683,"37":0.16186342128998304,"38":-0.7345186017614524,"39":0.27503368966623143,"40":0.14743329724337123,"41":-0.6217557148229755,"42":-1.1466709771670849,"43":-0.8980626075779472,"44":-1.1104526935101424,"45":-1.0282375681722358,"46":-0.4033742071538751,"47":-0.9618096922488123,"48":-0.3995065622314634,"49":0.16897862066017885,"50":-0.08596389774347526,"51":0.11049324991758404,"52":0.7862124362732399,"53":-0.258480005472785,"54":0.1908304434082431,"55":0.2211702823498787,"56":-0.4064412796202155,"57":-0.14395329498155576,"58":-0.21685120715455036,"59":-0.6906853154549698,"60":-0.3891396984956151,"61":0.19385248408220668,"62":-0.11412525897678037,"63":0.787108982688396,"64":1.108886797118135,"65":0.40518744315541994,"66":0.09750974606912907,"67":0.27305166301126915,"68":-0.10902506055116615,"69":-1.1281674672942523,"70":-0.3907774048314321,"71":-0.7061966953189203,"72":0.7899689684930685,"73":1.1554504631920302,"74":0.43242216828870966}},{"sx":5,"sy":5,"depth":3,"w":{"0":-0.5000518038898923,"1":0.4457620288954625,"2":0.16630696759399996,"3":-0.3488537731013586,"4":0.38555203664636867,"5":-0.23230100636798867,"6":-0.5447467823785842,"7":-0.04856529696961801,"8":0.07574458383779589,"9":-0.7089127389943464,"10":-0.3041028735165001,"11":-0.5569055874675157,"12":-0.8978743707933334,"13":-0.5574474508643958,"14":-0.27156671434844565,"15":-0.42238815905030325,"16":-0.396861143957367,"17":-0.5649701098937978,"18":-0.16759447755300286,"19":0.011734888871887974,"20":-0.43640239972279027,"21":-0.12205575864778816,"22":0.12050312209245923,"23":0.011414920465339014,"24":0.07287720751053817,"25":0.5168233017356908,"26":0.3953222163548779,"27":0.09649138678801031,"28":-0.02527686217610066,"29":-0.03668555027920465,"30":0.16417536387343923,"31":0.14018594182042343,"32":-0.31120048361155855,"33":0.2670200176204884,"34":0.45471681534489555,"35":-0.2634009594551564,"36":0.4220494851828587,"37":0.4182850567118991,"38":-0.2820912017490201,"39":0.05001050279392182,"40":0.24519693277243385,"41":-0.17238918909230153,"42":-0.37698564121736494,"43":-0.2803400562307909,"44":-0.5468411985141148,"45":-0.4603718803763476,"46":-0.1614778412970197,"47":-0.16037778228159735,"48":0.6073063563492096,"49":0.6717794167004858,"50":-0.19682552357065886,"51":0.9316063327360793,"52":0.8892871918113331,"53":0.728832559688138,"54":0.4731502487106939,"55":0.8278014219759916,"56":0.1271231679239083,"57":0.2692106538143715,"58":0.3911244742296761,"59":-0.05253993588207192,"60":-0.2930627061524433,"61":0.018882990149141052,"62":-0.05612989276247003,"63":-0.6939323091322923,"64":-0.5930241873305737,"65":-0.9327477393052275,"66":-0.6117720348618289,"67":-0.3531011063487923,"68":-0.48284774039507644,"69":-0.4068647940367497,"70":0.0627451190552541,"71":-0.045345624016463956,"72":-0.08431396681414817,"73":0.06011780789202358,"74":-0.20717290863229232}},{"sx":5,"sy":5,"depth":3,"w":{"0":-0.30466231443475483,"1":0.23418264550864068,"2":0.01735952701079907,"3":-0.17135774783256347,"4":0.7226061620394018,"5":0.8773627018012119,"6":-0.6148756530852787,"7":0.47281880033639867,"8":0.2751848061640321,"9":-0.4944931611777726,"10":0.8228496855377272,"11":-0.1585374412638507,"12":0.1511766319743252,"13":0.5327920998537334,"14":0.22431167482101433,"15":0.3397437836635751,"16":0.10707337199496579,"17":-0.3410511257944935,"18":0.1922733576633765,"19":0.3878305674574485,"20":0.16873642667193667,"21":-0.11694608285075675,"22":0.2585334896686692,"23":-0.15354993458654273,"24":-0.13464004590102355,"25":0.7900165447030374,"26":0.12124642390626027,"27":-0.44705715197006374,"28":0.2514256433900812,"29":-0.3092357755314065,"30":0.7041045339179028,"31":-0.004544410067357036,"32":-0.13997272178912173,"33":0.560761823909762,"34":-0.07851279082765389,"35":-0.4800117934940834,"36":0.3323362152927418,"37":-0.04174268475404896,"38":-0.09697056200247733,"39":-0.14203004404587743,"40":0.00526477088021632,"41":-0.7470088048623761,"42":-0.5753589138598673,"43":-0.04983842230200958,"44":-1.0959183698886144,"45":-0.21060145860239102,"46":-0.21986275728140542,"47":-0.49146129174351805,"48":0.09781256445992946,"49":-0.16571490548107917,"50":-0.40102825713251716,"51":-0.09188516424619876,"52":-0.0007515893165666926,"53":-0.21606615497349918,"54":-0.7017428721598591,"55":-0.7255343337069362,"56":-1.2062094156572893,"57":-0.44460255910011587,"58":-0.16227976987605922,"59":-0.46162615649989447,"60":-0.01746505989897129,"61":0.03484798399646542,"62":0.15710178711498543,"63":0.29511523950110713,"64":0.084904734001317,"65":-0.02039982901907892,"66":0.2113301391768758,"67":0.41337227885809985,"68":0.3400980254540751,"69":-0.4319592498259828,"70":-0.6187482642500133,"71":-0.7612201758564741,"72":0.906884774523592,"73":0.33089166977805656,"74":-0.014420798189993034}},{"sx":5,"sy":5,"depth":3,"w":{"0":0.15036891269797775,"1":0.3081017752439195,"2":1.0089952643970876,"3":0.4710521286417381,"4":0.22361271020642987,"5":0.8536773842266229,"6":-0.01389539490444328,"7":-0.6619458144225002,"8":0.07950731561649531,"9":-0.0368529287792205,"10":-0.6774377087150384,"11":0.034476651229184314,"12":-0.1312595174069019,"13":-0.47400848860828027,"14":-0.19234884142557138,"15":-0.7517041495274349,"16":-0.09661120901362119,"17":0.16093656199606426,"18":-0.3413677202344099,"19":-0.08600043463816055,"20":0.546677234787569,"21":0.21113333897194148,"22":-0.6226842778166625,"23":0.2732297683981779,"24":0.1251169392304061,"25":-0.6973371801205948,"26":-0.2997087333316424,"27":0.16764944880882668,"28":-0.10637506857761528,"29":-0.009828358285985299,"30":-0.8080721409997451,"31":-0.40538394010976636,"32":0.6493311555876323,"33":-0.6443503972657073,"34":-0.49558276587817857,"35":0.42187526831194866,"36":0.11382198497937494,"37":-0.16087801460158338,"38":0.5323485693610445,"39":0.6498000586680037,"40":-0.29618165974056687,"41":0.2109562334506686,"42":-0.28616208657657877,"43":0.0909242966676765,"44":0.33053302059580714,"45":0.3852385692178032,"46":0.5013102691435446,"47":0.6685738128792503,"48":-0.6730659968929277,"49":-0.7384484206604873,"50":0.12162662786244331,"51":0.05722460182243436,"52":-0.7517716641432304,"53":-0.15530517666080354,"54":0.7448852972008443,"55":0.0537216040049894,"56":0.5761133781228065,"57":-0.7072738349480032,"58":-0.157666769699528,"59":0.22575061008804495,"60":0.37687846779786427,"61":0.7123410029117649,"62":0.8722741337329517,"63":0.019069623347647613,"64":0.1134965304407743,"65":0.11850652762172523,"66":0.514159882549071,"67":-0.5785993751440883,"68":-0.18289245443808233,"69":0.3500808420870938,"70":-0.4284451556475976,"71":-0.32018172843513953,"72":-0.47788107616359343,"73":-0.4478655667681601,"74":-0.23172509090287466}},{"sx":5,"sy":5,"depth":3,"w":{"0":-1.088556618559535,"1":-0.6225298249980484,"2":-0.2830156942045126,"3":-0.6086899159193724,"4":0.35222320673888335,"5":0.19839690796123327,"6":-1.1598716750487241,"7":0.15495361947785116,"8":-0.38180382759743936,"9":0.03236688053445765,"10":1.2255325948786773,"11":0.704934705110647,"12":-0.6200856859848433,"13":0.2948758833395633,"14":-0.09301373531618427,"15":-0.43046471335820125,"16":0.2492807163283384,"17":0.33827045449256754,"18":-0.5090235050544611,"19":0.16952369168227524,"20":-0.09358344509618718,"21":0.22745044539023376,"22":0.9863477194117263,"23":0.7638378126936751,"24":0.13767995641415157,"25":1.1871337206728176,"26":0.8655252521860282,"27":0.021727728202507783,"28":-0.4974641702834866,"29":-1.4657475614642574,"30":0.31570727268361287,"31":0.40618041121933796,"32":0.7280596683621219,"33":0.19148700819204523,"34":0.5370003246782752,"35":0.1613638552859869,"36":-0.3104661917822168,"37":-0.13529884743678194,"38":-0.8930457472344504,"39":0.4175733110046174,"40":0.7004925096859077,"41":-0.15300137994002763,"42":-0.7194079469286114,"43":-0.8253748214686115,"44":-1.0564135573558175,"45":0.20997787835659348,"46":0.34638502859074105,"47":0.35149615615591506,"48":-0.08196141741132777,"49":-0.5822049545743628,"50":-1.1531108438557784,"51":-0.8491895686037797,"52":-0.34176218309200146,"53":-1.005998405728406,"54":0.5074374170127864,"55":0.8047898446830901,"56":0.1279023428944537,"57":0.6818486683400664,"58":0.3337302063034755,"59":-0.6300725960599899,"60":0.23487647151932414,"61":0.3816249202387512,"62":0.7250321394242379,"63":0.8674510819090345,"64":0.3927503225468183,"65":-0.5054290124336299,"66":-0.5746872598280248,"67":-0.3291622413860147,"68":-0.1925405522873268,"69":0.2407587496194511,"70":0.05517142211307634,"71":-0.15943807506354307,"72":0.6187738221561938,"73":-0.07862549315373416,"74":0.36360994272394875}},{"sx":5,"sy":5,"depth":3,"w":{"0":-0.030300671209053883,"1":0.10761549985248343,"2":0.10576465532137624,"3":0.10424601009392369,"4":-0.5682024106054693,"5":-0.2700558365184271,"6":0.9442884668623434,"7":0.19509480915180558,"8":0.06111447980344344,"9":0.618510247670186,"10":0.18641145623151734,"11":0.18876390715463098,"12":0.03567622971847648,"13":-0.6917220008861578,"14":-0.18408534303401183,"15":-0.21745150817749648,"16":0.1890926028333975,"17":0.42827198706414665,"18":-0.13659872085670569,"19":-0.13221745499225407,"20":0.38825257740977626,"21":-0.2641556335583076,"22":-0.35006689478230235,"23":0.25214180339547027,"24":-0.1753986432062329,"25":-1.0160729558609969,"26":0.42148445943162777,"27":-0.14854061987518674,"28":-0.8334243057562605,"29":-0.00524659006567353,"30":0.5687341909611348,"31":0.42646523906399114,"32":0.5942186832167369,"33":-0.09162559203980872,"34":0.06519357842552272,"35":0.17425416693885903,"36":-0.5483419369099013,"37":-0.39426983556656153,"38":0.08409560181335275,"39":-0.9047318954412454,"40":-0.9171891528243187,"41":0.08204989077851922,"42":-0.5597706180583567,"43":-0.984864576923215,"44":-0.14385137035829676,"45":-0.1340842553989665,"46":0.13829403587541775,"47":0.19259521559116016,"48":0.1049270155097081,"49":0.006192064809230824,"50":0.003016032165513811,"51":-0.47334650338830286,"52":-0.43909609314348813,"53":0.14664518683209724,"54":-0.0028420615935746798,"55":-0.11208523004708282,"56":0.566043039293408,"57":0.3327184139323931,"58":0.27993555586048247,"59":0.24140301341969322,"60":-0.5099118680452647,"61":-0.8006709069993375,"62":0.43670145175415176,"63":0.28184447864398876,"64":-0.35888650204143974,"65":0.4958204982219973,"66":0.1073793522616968,"67":-0.4573048034811412,"68":0.15927875102730135,"69":-0.16984358025380847,"70":-0.2087769939890334,"71":0.4552654985579167,"72":0.6341747803698194,"73":0.5069525968478976,"74":0.5557762436571929}},{"sx":5,"sy":5,"depth":3,"w":{"0":-0.5033350201484872,"1":-0.35834307913590635,"2":-0.33195466962522835,"3":-0.556619367551663,"4":-0.07647205157924772,"5":-0.7521978736131769,"6":0.1887009621379615,"7":-0.6814447243455277,"8":-0.9792031614762824,"9":0.2647085848524336,"10":0.11310775410224123,"11":0.004191208639991994,"12":-0.020816730484404945,"13":0.4375578540132596,"14":0.9271861371800142,"15":0.8840678784378089,"16":0.8201293220110681,"17":0.3228407432181112,"18":0.3193806583478111,"19":0.09998604605805246,"20":-0.14816514752357315,"21":0.35258189082200997,"22":-0.7610192254377205,"23":-0.731751250121451,"24":-0.03738415324362135,"25":-0.3305544922801452,"26":-0.4847337481995471,"27":-0.020351245671337795,"28":0.11482330356073905,"29":0.6479152897930749,"30":0.5528036791504575,"31":0.14655674283593473,"32":0.3996503631192959,"33":0.4323521569393739,"34":-0.1513242357221668,"35":-0.01027475467934959,"36":0.1535656103160883,"37":0.1970205838121676,"38":-0.20111634773554413,"39":0.3190788277505576,"40":-0.6613505036371855,"41":-0.37090807259808467,"42":0.17136466737078263,"43":-0.5812028256630366,"44":0.06293668849966372,"45":-0.002914705523309523,"46":-0.061764436968879045,"47":0.059049235046938306,"48":-0.5250945207175578,"49":-0.3283258162211001,"50":-0.39871274864446876,"51":-0.17849080740106602,"52":-0.07110539518561113,"53":0.06902567823802809,"54":-0.022610860159269015,"55":-0.39217245571019654,"56":-0.03643353299623529,"57":-0.2211943978680255,"58":-0.949966094920763,"59":-0.23103409956295176,"60":-0.3476443180478292,"61":-0.17204536712957028,"62":0.15736468646243335,"63":-0.27339054651183275,"64":-0.09179730287773367,"65":-0.20530577054956922,"66":-0.22495339539108744,"67":0.17126546139048343,"68":0.04174058876594409,"69":0.0655734956931167,"70":0.37186626276077916,"71":0.7283993930012074,"72":0.4585824422629844,"73":-0.09611298665068804,"74":0.9272026337585414}}],"biases":{"sx":1,"sy":1,"depth":16,"w":{"0":-1.72976382349144,"1":-1.0573619648951564,"2":-0.4843015439428781,"3":-0.12885588384508617,"4":-1.071144499068019,"5":-1.2315549497516471,"6":-1.855348460555914,"7":0.043580418122634315,"8":-1.0959743238961173,"9":-1.6449958335721864,"10":-1.4485277193437878,"11":-0.3311228089004286,"12":-1.5909279411340675,"13":-0.9163462277302483,"14":-0.5066114247904987,"15":-0.5521335442887418}}},{"out_depth":16,"out_sx":32,"out_sy":32,"layer_type":"relu"},{"sx":2,"sy":2,"stride":2,"in_depth":16,"out_depth":16,"out_sx":16,"out_sy":16,"layer_type":"pool","pad":0},{"sx":5,"sy":5,"stride":1,"in_depth":16,"out_depth":20,"out_sx":16,"out_sy":16,"layer_type":"conv","l1_decay_mul":0,"l2_decay_mul":1,"pad":2,"filters":[{"sx":5,"sy":5,"depth":16,"w":{"0":0.9482968380611634,"1":-0.4434823249762806,"2":-0.3838279226597464,"3":0.9843696683180451,"4":0.007333648319700261,"5":-0.36803405971274833,"6":0.001212302872023352,"7":1.0409491733990546,"8":0.3818231856939864,"9":0.24518685484715108,"10":0.23864604688418056,"11":0.06585436139092397,"12":0.7230668209011507,"13":-0.36739322075605774,"14":0.519145513589737,"15":-0.7655030731606979,"16":0.057077479862254525,"17":-0.7176544985513745,"18":-0.1630357337085012,"19":-0.03615397843663264,"20":0.01287429897768479,"21":0.15382756949408427,"22":0.4954110546651907,"23":-0.5564739567046387,"24":0.43096227818113886,"25":0.33333722380672093,"26":0.5637159909772317,"27":-0.4428270737301497,"28":0.32278267191553156,"29":-0.11486230059915065,"30":-0.36912576741269043,"31":-0.04365362817162592,"32":-0.23015607515336917,"33":0.5580046739635076,"34":-0.6024143046872139,"35":-0.6632656353015314,"36":0.6410255587498502,"37":0.5059329019344605,"38":-0.15234269997627323,"39":-0.021968531235168773,"40":-0.6722726999251936,"41":-0.5468258102574253,"42":-0.0726223194415011,"43":-1.0855512316797564,"44":0.2401662985584045,"45":-0.2656959468753079,"46":-0.7488364876875149,"47":-0.20660079458784136,"48":0.15451682981289655,"49":-0.39023823266376273,"50":-0.5299458119906748,"51":-0.22356939516765095,"52":-0.4852076463192254,"53":0.40919455868320626,"54":0.20819174982619712,"55":0.12061082805108682,"56":-1.3928403341388653,"57":-0.13728590053534284,"58":-0.7854302566331638,"59":-0.02512824322235862,"60":-0.32504826192319886,"61":-0.43276181386162654,"62":0.4175847237174902,"63":0.1684398355464172,"64":0.3311839775347268,"65":0.3313119717913445,"66":-0.6195083743526757,"67":0.08436636460159239,"68":-0.5491001434570412,"69":0.6947026566582806,"70":0.5061260993561892,"71":-0.24565508139434575,"72":0.1489968640206805,"73":-0.11722194488404361,"74":0.3629661438668909,"75":0.0083856134937097,"76":-0.9610255764776419,"77":0.37616021838501873,"78":0.5583183316434064,"79":0.8481749673758726,"80":1.6107692596880412,"81":-0.6352290493759463,"82":-0.03860309056807951,"83":0.4542753317018073,"84":-0.18452724607039295,"85":0.213461511051287,"86":-0.38401084583010753,"87":-0.5023914408638909,"88":0.23451989633031,"89":0.4390336961292969,"90":-0.18617388757492806,"91":-1.1199166740212505,"92":0.8899457643651264,"93":0.3177981991446288,"94":-0.26276279508671246,"95":0.21836282189064415,"96":-0.4596359218361383,"97":0.5165420254064739,"98":0.14412242831138591,"99":-0.526635507260446,"100":-0.19889965493927772,"101":-0.9110381161323942,"102":0.5464220914725544,"103":-1.0163493684875151,"104":0.3434158017372607,"105":0.5319428612940191,"106":0.9516832961218143,"107":0.4545352085287559,"108":-0.2702575503541369,"109":-0.2232513667322567,"110":0.01262929434840812,"111":-0.919488109577515,"112":0.2210826115513253,"113":-1.0564602187898284,"114":0.20865182584146125,"115":-0.0643392342098598,"116":-0.08988558988600695,"117":0.3300896198357948,"118":-0.6993320251897375,"119":0.3813891861336147,"120":-0.49247757244476464,"121":-0.7786689302541344,"122":-0.7813023695098308,"123":-0.06035807808570449,"124":0.12270920337106152,"125":0.15412127106134207,"126":-0.4997298575327428,"127":-0.32802245585319184,"128":0.1166070601317531,"129":-0.3226107906236569,"130":0.14060064749444237,"131":0.259362913815124,"132":-0.5473919301725337,"133":0.20205168534834655,"134":0.38117097995371063,"135":-0.515752754797154,"136":-0.031626419338647904,"137":-0.4035356423898239,"138":-0.9502194182009418,"139":-0.8365296627119527,"140":-0.36151750051629894,"141":-0.723234061166095,"142":-0.9810682198318177,"143":-0.4636633101864638,"144":0.09334057733173462,"145":0.8199201693865515,"146":0.03827312582031423,"147":-0.2363909085987768,"148":0.19634406614216443,"149":0.2935852209871683,"150":-0.1602314639628116,"151":-0.6006645940697991,"152":-0.45734302909493,"153":0.4193009890562709,"154":0.019100189373833933,"155":-0.21699615509152154,"156":-0.05049139491678932,"157":-0.44611024413676875,"158":0.20818649486043825,"159":-0.4399964576319918,"160":-0.5794257692865177,"161":0.055274143026752154,"162":0.33627189237658034,"163":-0.5188348466085089,"164":-0.18675197529377177,"165":-0.14364061072273854,"166":-0.7752667977633645,"167":-1.0026972094453843,"168":1.0232635265984467,"169":0.033443472044627574,"170":0.327693391090471,"171":-0.9194276007729001,"172":-0.06273897242481954,"173":0.28726818532036513,"174":0.057279280305427484,"175":0.019467750582727313,"176":0.1554887894260124,"177":-0.3210951214939649,"178":-0.8199574969098852,"179":0.7232626906928393,"180":-0.4106034546848365,"181":0.126387736587861,"182":-0.20530365374130014,"183":-0.14512569217663598,"184":-1.0534779759967585,"185":0.17474015602489015,"186":0.8355157963488663,"187":0.017614945627502737,"188":-0.3086947298765172,"189":0.21785414862864655,"190":0.5691465492185097,"191":-0.32239985147048744,"192":0.4107785149969077,"193":-0.908230405677147,"194":0.10335229676866593,"195":0.06390912648794804,"196":0.03898845237907072,"197":-0.08849368154814898,"198":-0.2682037307310701,"199":0.8273022072691101,"200":0.030870305143831996,"201":-0.03646117206250526,"202":-0.08071633758198277,"203":0.5555818040810823,"204":0.2631611423910326,"205":-0.07891533484897466,"206":-0.6661397762589556,"207":0.0007441841489024722,"208":-0.08004599275093334,"209":-0.24611675422629137,"210":0.013522536827841892,"211":0.04000599487399521,"212":0.40941639515981604,"213":-0.500953196922912,"214":0.8107378595624064,"215":0.5502227210963284,"216":-0.6446658650828145,"217":-0.17571455026479824,"218":1.3558525119278197,"219":-0.5409376091474682,"220":-0.5544237604800908,"221":0.08641271245572903,"222":-0.5772062475186732,"223":0.9257042183391403,"224":-0.4001766094740479,"225":0.2760197326224919,"226":0.2642507223691861,"227":-0.09445356066285122,"228":-0.05925286715767918,"229":-1.5294576572402687,"230":1.0602268987363037,"231":0.09589543997773861,"232":-0.2789382216142165,"233":0.8301520166091423,"234":-0.17271792070373806,"235":0.667190382291321,"236":-0.5660584484520516,"237":-0.4885213888266326,"238":0.5610441181930513,"239":-0.05139824089545178,"240":0.8098096686255001,"241":0.3474054836289835,"242":0.08713425244896134,"243":-0.6589710412937669,"244":-0.2594696848333262,"245":-0.26907473392711106,"246":-0.12275074660932397,"247":-0.45391510746479774,"248":0.20792764955389623,"249":0.32650289902179863,"250":0.1159342243194016,"251":-0.24888166860074698,"252":0.6355986355783289,"253":0.3088700643754626,"254":-0.04630440937334364,"255":0.13392680442118707,"256":0.18004145767520607,"257":-0.10819850462340648,"258":0.14769111060884643,"259":0.07074444203904492,"260":0.11105231492423293,"261":-0.023174707480968046,"262":0.03840878333767955,"263":0.01589207654927736,"264":-0.13430732474105245,"265":0.26869791374288116,"266":-0.3046400389652455,"267":-0.3644546510150274,"268":0.24300105764271457,"269":-0.3264252444818776,"270":-0.8417318650967911,"271":0.6701914633413145,"272":-0.35959144003812826,"273":0.2180265071308492,"274":-0.4438991879486195,"275":-0.013479874257332604,"276":0.5232015987070895,"277":0.4656955366000138,"278":0.266386777541539,"279":-0.1806283907017847,"280":0.6609791891600815,"281":-0.2205358686557412,"282":-0.9377226331483414,"283":-0.3682467062863512,"284":-0.12241709376691368,"285":0.17561855011537755,"286":0.14548781490270996,"287":-0.2854974012303056,"288":1.0350246362569824,"289":-0.3639725537500877,"290":0.6036335503284098,"291":0.20849201160065625,"292":-0.2500694416355119,"293":-0.1800301894590175,"294":-0.37085599558253735,"295":-0.2695357298917173,"296":0.8859209580661144,"297":0.8521980173583132,"298":-0.9866523938566931,"299":-0.2411643337563669,"300":0.7167567236364941,"301":-0.3527577446762286,"302":0.2398263788419359,"303":0.040896898658826786,"304":0.6646201398338999,"305":-0.5847476108415649,"306":0.04260292714015638,"307":-0.42217277841484924,"308":-0.08423781729293106,"309":-0.6381216766052762,"310":-0.6131483604722363,"311":-0.26605108952165485,"312":0.3603069433652964,"313":-0.05844654354062215,"314":-0.807177338074169,"315":0.5430647578799859,"316":0.6445032168102136,"317":0.3046634903404199,"318":-1.206035198004161,"319":0.14023848030531716,"320":1.4704091455617916,"321":0.1606504283306645,"322":-0.2785537448298033,"323":0.23339795715477094,"324":0.07396291482442567,"325":0.4454032924501464,"326":0.884199200709162,"327":0.2983031805626264,"328":0.007407813873281034,"329":0.5660598357600175,"330":0.42322041594589793,"331":-0.14219563520142317,"332":0.7108940294706371,"333":-0.16813883163137402,"334":0.13582030212502638,"335":0.18892179030462894,"336":0.07657339182291734,"337":0.15702131676418926,"338":-0.39647290005981095,"339":-0.05122851970780152,"340":-0.18120732631635605,"341":-0.06964891601645207,"342":-0.5710332495473656,"343":-0.7503731759125016,"344":-0.5766523202984303,"345":0.30210861937832223,"346":0.18015937882432975,"347":-0.21629021936977233,"348":0.2783119190360081,"349":0.0403247365735421,"350":-0.43009537161105665,"351":-1.6026571253197677,"352":1.1384987318664808,"353":-0.030309662249536,"354":0.3762794324049066,"355":-0.28836146795913375,"356":0.24098006167626954,"357":-0.6947098175507738,"358":0.126638614585008,"359":-0.42022796399136797,"360":0.3171779622335398,"361":0.03927944542415179,"362":-0.07652203604602421,"363":-0.4197945697099034,"364":-0.28152904647752913,"365":0.35148009585570994,"366":-0.7703460675923025,"367":-0.022409385448209633,"368":0.6815668296770944,"369":0.11562308847217755,"370":0.7634878696129289,"371":-0.19302770061975896,"372":-0.7488084458702647,"373":0.8887061303572018,"374":-0.792201608309451,"375":-0.08538428484587608,"376":-0.005095745843800048,"377":0.26579545581557507,"378":0.31746425190417626,"379":-0.8698618962998634,"380":-0.4557613939791951,"381":-0.015699828736867136,"382":1.0277943455850924,"383":-0.513714161139641,"384":0.14203578217392088,"385":-0.3579459777417596,"386":1.0855859181409593,"387":0.06853430607269219,"388":0.436981337077864,"389":0.3273170206713426,"390":0.022396844124673052,"391":-0.08820511346316603,"392":-0.10527939101719244,"393":-0.37456870276152854,"394":0.758858164295963,"395":-0.6514015502764036,"396":-0.07137334044163218,"397":0.09756042082139399,"398":0.24463552626708332,"399":-0.40556667478513364}},{"sx":5,"sy":5,"depth":16,"w":{"0":0.8257602500339991,"1":0.43608485676018366,"2":0.13424445399270374,"3":0.2045390249426178,"4":-0.6258410266052005,"5":-0.5558128936730165,"6":-0.2170693184819936,"7":1.1880681190177476,"8":0.4564310169799985,"9":-0.6684650251581324,"10":-0.33432027334641107,"11":1.3489020497605166,"12":0.380968322159513,"13":-0.25026736728573235,"14":1.5057650177304993,"15":1.1298884407723897,"16":0.2860650270183364,"17":0.9538729632217038,"18":1.3170656878125049,"19":-1.391265774247445,"20":0.46366295141723346,"21":0.2627686251411247,"22":0.5261814417495577,"23":-0.23851481514923387,"24":-1.2946061048197837,"25":-0.545928214895341,"26":1.1641406261437155,"27":0.8603824621207746,"28":-0.056424044820454475,"29":-0.3180598828649207,"30":-1.362636298504302,"31":0.25430716824319854,"32":0.849447594570355,"33":1.5984621750676111,"34":-0.03106354433109946,"35":-1.2485263606777761,"36":-0.08558055635577558,"37":-0.060869073803898444,"38":1.0474466349434053,"39":-0.05659223968044486,"40":-0.7047868252293842,"41":0.20275244770677056,"42":0.6460851211438732,"43":-1.0271173478059743,"44":-0.829288908282179,"45":0.3972440517936491,"46":-0.7273083717431339,"47":0.8902481055202472,"48":-1.0280712018888256,"49":0.7019627525230034,"50":0.6972575571056754,"51":-0.4813319281321889,"52":0.5014050744822499,"53":0.3342444094317679,"54":-0.6139659383768179,"55":0.4587315056980449,"56":0.28829352855323587,"57":-0.3018168716059558,"58":0.07588616553851865,"59":-0.8621953735361441,"60":-0.6245040413545816,"61":0.43686991175632583,"62":0.796784937303367,"63":0.04210931619665576,"64":-0.13752450388283896,"65":0.16781462144798442,"66":0.2598250027611108,"67":0.5691964161860208,"68":0.2683343986461079,"69":0.37830963790960204,"70":-1.49158526746465,"71":0.17784960976889896,"72":0.16279215448340795,"73":-1.3494633241026608,"74":0.2516239497777358,"75":0.8256976337531307,"76":-0.4994258263719377,"77":-0.9214889374686493,"78":1.2092844208332059,"79":0.772096221102857,"80":0.26816236717678105,"81":0.7743719059711858,"82":-0.7780728212341683,"83":0.15761467973403248,"84":-0.3510475740578998,"85":-0.11389960278364,"86":0.44419011380894474,"87":-1.1234971746668092,"88":0.5153835488900442,"89":0.3750942187373639,"90":0.764025951998904,"91":-0.04196738025824861,"92":-0.027858306618634,"93":0.3857304392735237,"94":0.10322906486020367,"95":0.2042288388768022,"96":0.3954737775558323,"97":-0.7066274960638532,"98":0.5639495087763317,"99":-0.5531747964397845,"100":0.14337427016782475,"101":0.03551650348962891,"102":0.08002678931489975,"103":-0.3165738739950001,"104":-1.3005821069700738,"105":-1.1470764829268674,"106":0.7874118634814039,"107":-2.055144224565516,"108":-1.2074677722202325,"109":-0.015809080216795456,"110":-0.6508603605796003,"111":-0.09214655538520018,"112":0.4571884725883695,"113":-0.579290142254936,"114":1.0929761237983147,"115":-0.7911338627173613,"116":-0.12324750490200888,"117":-1.2777860274490371,"118":-0.590656434946635,"119":0.2731962525095003,"120":-1.125170451618188,"121":-1.8840826856062878,"122":-0.4227436585724838,"123":-0.19788304751496927,"124":-0.27285751180562445,"125":0.22363108010907679,"126":-0.8743296951359398,"127":-0.20538888283491705,"128":-0.07293769341812033,"129":0.940370057746902,"130":-0.16151356781145854,"131":-0.08884190082935407,"132":-0.9030704552204042,"133":-0.6284884135933101,"134":-0.5955395723919241,"135":-0.09940447341944869,"136":-0.18777389015326112,"137":-1.29003922797816,"138":-1.5367631497099339,"139":-1.4316824856128831,"140":-0.6845110487131209,"141":-0.2882898457252898,"142":-0.30453252568589034,"143":0.04930745644359503,"144":0.8847535480164178,"145":0.2866633956932174,"146":-0.05731409176118895,"147":0.38460296523631754,"148":-0.00041931338330006415,"149":-0.10666907348337237,"150":0.33227923203601983,"151":0.793311179796661,"152":0.712849327874836,"153":0.23087427113484812,"154":-0.015445357911332185,"155":0.27346765076969604,"156":0.6751751461242417,"157":-0.09897579067692681,"158":0.7990448360662512,"159":-0.45859023122846815,"160":0.7205766312788071,"161":-0.09296594190516314,"162":-0.45631721675833126,"163":-0.21022771844118976,"164":0.06250602686360283,"165":-0.9069899502120766,"166":0.27139971527741164,"167":-1.1292465740670925,"168":0.34396092531919625,"169":-0.7888095279129849,"170":0.7415932445071407,"171":-0.6534737710322549,"172":-0.8737208616741764,"173":0.6259215053162066,"174":-1.0345766804652419,"175":-0.021508904678375736,"176":-0.7239924530175442,"177":-0.3632306473950286,"178":-0.43342090168546027,"179":-0.896653810646848,"180":-0.10574395400702076,"181":-0.17330373889316375,"182":-1.1306880104025057,"183":-2.368097811127018,"184":-1.0023285198975633,"185":-1.4091826990697867,"186":-0.5177023543061797,"187":-1.1656748948167726,"188":0.25240708082243113,"189":-0.1636431720071111,"190":-0.6396984138909613,"191":0.16194316105750997,"192":-1.1182431719901793,"193":-0.7278924570904554,"194":0.3024614654714461,"195":0.3906248939550711,"196":0.3250974271832783,"197":-0.14948389668083256,"198":-0.9455015036267157,"199":-0.4644233391168906,"200":0.8115037645648515,"201":-1.4886643605992147,"202":-0.8554028202144929,"203":-0.07320297291974981,"204":0.9589910255629471,"205":0.1807317797383413,"206":-0.7080674539623929,"207":-0.4609889084312823,"208":-0.6225213217884918,"209":0.06344890369034252,"210":0.5117825075290506,"211":-0.1800389190130418,"212":-0.0560879873233095,"213":-0.5122340282345954,"214":-0.2697296268721553,"215":-1.3360273332131305,"216":0.9831654261942553,"217":-0.9805784611914147,"218":0.8065887356982785,"219":-0.4039743301505976,"220":-0.6263435465153185,"221":-0.6323862787959923,"222":-1.4674253255792136,"223":0.20546791902470546,"224":-0.42238528100052736,"225":0.7470916062546203,"226":0.07943615718172266,"227":1.1524217855087846,"228":-0.13807638367461686,"229":0.8053052716146978,"230":0.0704714452617295,"231":0.1666667661076789,"232":-0.27143480159120087,"233":0.7810537090806758,"234":-1.121947809741182,"235":1.3337156771148744,"236":0.1717964561925816,"237":0.40623397482356005,"238":0.2563359835130234,"239":0.14857161649362458,"240":0.7138028586458215,"241":-0.6319163700257837,"242":0.2993229343168741,"243":0.8357962881027675,"244":-0.45787817147069326,"245":-0.007325261414154859,"246":-0.054453058521931164,"247":0.2741049955768057,"248":0.40710417597299536,"249":1.3736441872419725,"250":-0.29751022202333005,"251":-0.06762787055476767,"252":-0.9154804809011504,"253":0.6483063319873568,"254":-0.12879885456444293,"255":0.35105049283151657,"256":-0.8411391006847422,"257":-0.14618216353507363,"258":0.23947364850126024,"259":-0.024745879932210488,"260":-0.1385895194973025,"261":0.14276448104759176,"262":-0.2538949129435898,"263":-2.1682769153927106,"264":-1.4683824954272664,"265":0.3465859256646272,"266":-0.39782666751825374,"267":0.6425592979353094,"268":-0.32581496149532063,"269":-0.27629122276426493,"270":-0.9290774268195927,"271":-0.524396253334751,"272":0.21011027117944264,"273":-0.3776913801072068,"274":-0.9226794476227799,"275":-0.738607196932567,"276":-0.8742393234257083,"277":0.6520551552968846,"278":-0.20225729632515616,"279":-1.9396165640394962,"280":-1.1548355120802507,"281":-0.020137852793127284,"282":-0.43511593054192654,"283":0.028521090575607148,"284":-0.34653285231612346,"285":-0.981396375180127,"286":-0.9520113839044093,"287":-1.3136423545959128,"288":-1.267489267221446,"289":-1.2874527656251478,"290":0.13841498278922124,"291":-0.971402796741251,"292":-0.32149419572282373,"293":0.34994996709340487,"294":-0.7656333364202135,"295":-0.5633044040919597,"296":-1.0706671091149602,"297":-0.1688472200221414,"298":-1.2200888148077704,"299":-0.39419999724546223,"300":-0.5695148188036103,"301":-0.48746168640448234,"302":-0.15145228359842833,"303":-0.28532642279540266,"304":0.21324155514673984,"305":0.3914864744135644,"306":0.2880037827538069,"307":-0.2335253947429025,"308":-1.0589286843901697,"309":0.03627355237095213,"310":-0.5777494448281144,"311":-0.5791784979937753,"312":-0.6579910704866262,"313":0.2470073215710222,"314":-0.8473072602630152,"315":-0.1826907573097401,"316":-0.7534231955286482,"317":-0.5371565337736821,"318":-0.5705919702482137,"319":-0.5122426414183263,"320":0.4209032581334248,"321":1.1401860953456548,"322":0.798244052974997,"323":1.0024375090815845,"324":-0.06899578214678334,"325":-0.06240040397931835,"326":-0.8918327600335566,"327":0.005479233451741944,"328":-0.9724738711815876,"329":1.083707881092401,"330":-0.5817522444547636,"331":0.0671103167319062,"332":-0.1931504265482172,"333":0.5120404340750383,"334":-0.22967764958355827,"335":0.334804716094825,"336":-0.43797328738169616,"337":0.11659091945076616,"338":-0.47643612015962644,"339":0.37202587543272797,"340":0.8690459733428259,"341":0.05898073221010723,"342":-0.2468224745152635,"343":-1.0394841734991966,"344":0.2153009459048716,"345":-1.2130941905446495,"346":-0.39741936425776625,"347":-0.07007167162866272,"348":-0.09092601490307614,"349":0.24884811431743112,"350":-1.1288674892152315,"351":0.04121474092209128,"352":-0.7660260176578101,"353":-0.5530912430387758,"354":-1.0190229992354607,"355":-0.48125894723563345,"356":-0.08122857946028014,"357":-0.45475328097835493,"358":-0.27675720917882607,"359":0.16031127948501953,"360":-1.7868280163224286,"361":-0.5781453786344264,"362":-0.4544303941879454,"363":0.9376441877881737,"364":-0.7133312650679423,"365":-0.5132738069495075,"366":-1.1317244914672304,"367":-0.005651414037773715,"368":-0.47713390705023906,"369":0.11632349733808413,"370":-0.5751416385411218,"371":-0.1635532436013706,"372":0.19065473900764124,"373":-0.45717418764032486,"374":-0.057571867855329535,"375":-0.5833709859239032,"376":0.04091636502820911,"377":-0.1884512953661993,"378":-0.5505820139426431,"379":0.08759336960177544,"380":-0.6463148591556821,"381":-0.8852893581025923,"382":-1.4063937726582079,"383":-0.38046682033967066,"384":-1.3888344040086762,"385":-0.3005188940371918,"386":-0.20789519704745738,"387":0.3860227878837307,"388":0.12081665778995347,"389":-0.4341053010022158,"390":-0.038123704827077144,"391":-0.39311405487795154,"392":0.48341225232706103,"393":-0.6045564920769153,"394":-1.063978727053967,"395":-0.7457783985121011,"396":-0.4790606958613923,"397":-0.018379361876263718,"398":-0.426332323379166,"399":0.1465953352719595}},{"sx":5,"sy":5,"depth":16,"w":{"0":-0.06887943367668575,"1":0.37543339819115,"2":-0.6141254321060322,"3":-0.8926862073185166,"4":0.05795270615952113,"5":-0.7292134116370464,"6":0.46780179574889064,"7":0.2786536413720433,"8":-0.08071479772199305,"9":-0.03017998504946976,"10":0.3321257452141844,"11":-0.5191693614472707,"12":-0.3548792788405993,"13":0.9454034725373736,"14":-0.3860742119160129,"15":0.2848527786264535,"16":-0.2969557521596835,"17":-0.40495246390770623,"18":0.4233996244890774,"19":-0.2634900759300649,"20":-0.1724430717880484,"21":0.1270494383139289,"22":-0.1967407391421767,"23":-0.27976225676286215,"24":0.5067308669015776,"25":1.2354274242588914,"26":-0.39676866900585483,"27":-0.24149520433839314,"28":-0.11058369318457,"29":0.5702388271997207,"30":-1.157730149573391,"31":-0.37954297712341895,"32":0.002835213511584457,"33":-0.7203820588556922,"34":-0.2472414855391695,"35":0.045843634372855914,"36":-0.16874162495805484,"37":0.15372222234350935,"38":0.3595010280918893,"39":-0.6357954769874207,"40":0.7317727836005856,"41":0.44816101506334394,"42":-0.3966724411359633,"43":0.0031646841333870827,"44":-0.11311108494556862,"45":-0.6668910215073043,"46":-0.6499450950754602,"47":-0.5810107079604109,"48":0.0220153548621403,"49":0.263116748955844,"50":0.10284146694826143,"51":0.6382127280630376,"52":-1.1995868983901412,"53":-0.09665020743993069,"54":1.0494875478545755,"55":0.35403469250220887,"56":0.33238503535541947,"57":0.12427667308313788,"58":-0.3799987824310357,"59":0.3271719329562565,"60":0.03073287687507566,"61":-0.21310615906184394,"62":0.07374058284127252,"63":0.4588316400725836,"64":0.7097055621346966,"65":-0.22626097983177637,"66":-0.7284754138476218,"67":0.029182990392474125,"68":-0.3068699006055923,"69":0.44029245803588823,"70":-0.6781995000255397,"71":0.23646230360284506,"72":0.13485919258112292,"73":0.5744367202075172,"74":0.5696780823649424,"75":-0.17306261575988924,"76":0.42063742966352285,"77":0.05943005396722897,"78":-0.09819342014220397,"79":-0.308861853538438,"80":-0.2124989721342577,"81":-0.21037842880141647,"82":-0.8095526927252885,"83":-0.9519537266269296,"84":0.22887579062662716,"85":0.46478811240601775,"86":0.02907253774549639,"87":-0.18826031076248345,"88":-0.4102081481208746,"89":0.46172613140974084,"90":0.12101777013727667,"91":-0.33827918501120974,"92":0.22960497590298945,"93":-0.1044477169617922,"94":0.27308766270502993,"95":0.11677803422929402,"96":-0.3361046345066737,"97":-0.6867846986325937,"98":-0.5625488619742466,"99":-1.5619277223658325,"100":-0.8105248915875926,"101":0.0749315183075096,"102":0.1372063503940231,"103":0.02348689094657046,"104":0.05937362033197419,"105":-0.5196083621594887,"106":0.27610573990058396,"107":0.2624570479183234,"108":-0.08990128490623184,"109":-0.6809023640091442,"110":-0.38239595219819433,"111":0.41934570152764866,"112":-0.5753927120398838,"113":-0.08871284715005602,"114":-0.7643503436105323,"115":-0.6302961869540986,"116":0.5286300220827823,"117":0.4751278056161089,"118":0.6511023706368834,"119":0.2794030205286769,"120":0.289769156832478,"121":0.7995763762109951,"122":-0.36063231086710223,"123":-0.14689367027364367,"124":0.019296933798788916,"125":-0.07882550885102703,"126":-0.956937652529472,"127":0.006818616838570103,"128":-0.03255867358570409,"129":-0.25477749337702627,"130":-0.015246183859760858,"131":-0.08600073532063394,"132":-0.416242380081924,"133":0.5512115573666175,"134":-0.26582713205039704,"135":0.22806098339926043,"136":-0.66808475014797,"137":0.02114990370466436,"138":0.13531651584821733,"139":0.393558279054955,"140":0.89137702790555,"141":-0.16187872539025502,"142":-0.027103234340995045,"143":-0.1278291837302279,"144":-0.2540479999472453,"145":-0.1896124854216675,"146":-0.770545912031399,"147":-0.3465432981391773,"148":0.2236049219281894,"149":0.2288613731991528,"150":-0.5872568798698183,"151":-0.24355257861805912,"152":0.3341871636166307,"153":-0.1870048125569371,"154":-0.10505559189402987,"155":-0.05226109907557937,"156":0.06733565049200718,"157":0.4747174112212188,"158":-0.006291892885466749,"159":0.15541835523879075,"160":0.009707456787128097,"161":-1.0983668383418017,"162":0.3028907517511024,"163":-1.1705714178972846,"164":0.28841089943155873,"165":-0.3269509411081019,"166":-0.24998706214584704,"167":-0.29147599565040755,"168":-0.6239425561952393,"169":-0.7221331619127167,"170":0.11689842012794566,"171":0.29777914985670767,"172":-0.3051277399398194,"173":-0.4019473985159531,"174":-0.30685933748946015,"175":-0.04121479413966141,"176":0.07650448157721686,"177":0.12070341262083431,"178":0.14016451817294054,"179":-0.5015714648740146,"180":0.8003736259926153,"181":-0.25700837503547674,"182":0.22632864012017168,"183":-1.1995758569662385,"184":0.23326835151787478,"185":-0.022001119418501632,"186":-0.10535779337021843,"187":-0.16841173579272586,"188":-0.1565895453886536,"189":-0.05838168093686353,"190":-1.0754636021375412,"191":-0.5036293950907541,"192":-0.6805973019535771,"193":0.3839112354354904,"194":0.3580029680798162,"195":-0.48313217214116155,"196":-0.35717433236001833,"197":0.7904295506569253,"198":-0.288378534175388,"199":0.6173408268296675,"200":-0.30998414865802026,"201":-0.3460429961882265,"202":-0.7713734817155382,"203":-0.17679565084396678,"204":-0.4239908570067712,"205":0.58346576197049,"206":-0.2575949803031302,"207":-0.4401700749127118,"208":-0.4325682217221718,"209":0.09519857345047046,"210":-0.6998656243473396,"211":0.5387015558284993,"212":0.34465748036305144,"213":-0.2864018554477998,"214":0.054101654546588406,"215":0.11760044609818979,"216":-0.6464251536911254,"217":-0.3406465421640622,"218":-0.48544639256677075,"219":0.3942744199494462,"220":0.6985786901885459,"221":-1.6092534433129073,"222":0.005626953638805588,"223":0.43715719554992316,"224":-0.06413397802504031,"225":0.3084959805005061,"226":-0.448153116026905,"227":0.4522772560772404,"228":-0.256925424860341,"229":0.028709652453052147,"230":-0.19373657298345098,"231":-0.32408131992157585,"232":-0.1131117485499036,"233":0.1649604931527572,"234":0.5157641821506965,"235":0.2194523033490915,"236":0.26079419867261866,"237":-0.2881875822575701,"238":0.21849291115325142,"239":-0.110484257882036,"240":-0.5271021348299046,"241":-0.4019258950525788,"242":-0.4165869278832909,"243":0.2960694219350704,"244":-0.2928034924026862,"245":0.3738656850733436,"246":0.3102330582449585,"247":-0.427859060998077,"248":0.44567341860260157,"249":-0.5995786207946481,"250":0.3400861239790501,"251":0.20086362089759588,"252":-0.44555537361859177,"253":-0.28356139091571847,"254":0.2895065216528408,"255":-0.23234355677476287,"256":0.7307036795554834,"257":-0.7640888432367943,"258":-0.2271740412081244,"259":-1.5017456080878213,"260":-1.2850185727133032,"261":0.17122524114536028,"262":0.48319827704465335,"263":0.6298652529411545,"264":-0.06957963198300407,"265":1.2952134288980721,"266":-0.6890359505290533,"267":0.49780424369487114,"268":-0.23641981194749662,"269":0.5909061626862733,"270":0.01671911416113345,"271":-0.33234288805311424,"272":0.38222264656609745,"273":-0.21431681925992596,"274":-0.7293099589815184,"275":-1.0158686344295935,"276":0.23682725451016834,"277":0.46440265137457104,"278":0.09546250758075145,"279":-0.5475324465393031,"280":-0.7467095228945202,"281":0.7234487628616301,"282":-0.35528429965686315,"283":0.022884705117166664,"284":0.39233040215885867,"285":-0.2818569915875946,"286":0.12260560268597578,"287":0.23240410796614466,"288":-0.36433665226298206,"289":-0.31596659992017456,"290":-1.142859330228919,"291":-0.5150918807804236,"292":-0.5917186499307097,"293":-0.25469414936237594,"294":0.05212793712434771,"295":-0.2223513677079301,"296":0.0001789371202232355,"297":-0.30255886534616894,"298":-0.38766431653464783,"299":0.4811835578579401,"300":0.29052121499131517,"301":-0.43804894566252917,"302":-0.1330699616281518,"303":0.42313222094875363,"304":0.10995811809594185,"305":0.1676431394900566,"306":0.21951848709626906,"307":-0.42282088751619945,"308":-0.23526259846316286,"309":-0.17856653075630868,"310":-0.032462602362299454,"311":-0.09080337392185665,"312":0.05465068001191863,"313":-0.9854547874991886,"314":0.2545842313897467,"315":-0.6424746262084431,"316":-0.045754164384142905,"317":-0.31464782362486443,"318":-0.07181000671624355,"319":0.7823087997312228,"320":0.47728707253057545,"321":-1.3908836281008254,"322":0.922138887251966,"323":-0.07324396935508785,"324":0.29719152837792445,"325":-0.74374458827608,"326":0.3099425659085753,"327":0.20264923255456158,"328":0.43083769177970255,"329":0.24044457944972833,"330":0.9245436133139535,"331":0.03062635379695915,"332":-0.5234285731420764,"333":-0.5455370780356147,"334":0.48571670137287476,"335":-0.012217541099802031,"336":-0.9313583565791852,"337":0.5015105962096459,"338":-0.030695285975273028,"339":-1.1949945784040177,"340":0.14486440532564335,"341":-1.1845051164410767,"342":-0.06141675577381534,"343":-0.0398068206745289,"344":-0.3642844617246285,"345":0.14793377199054258,"346":-0.3494348290985253,"347":-0.6229022146887669,"348":-0.38538125189280314,"349":-0.7586858343257866,"350":0.42552194249296077,"351":0.45623686923950907,"352":0.8901377400006056,"353":-0.17701072585234437,"354":0.1654398991740803,"355":-0.05240062473411245,"356":-0.12322997500452862,"357":-0.9902637418754238,"358":-0.8663718290779147,"359":0.2896142799916658,"360":-0.9189798593567777,"361":0.024484223671994102,"362":-0.36975374436759206,"363":0.3911674898365434,"364":0.62685089265101,"365":0.4582657733690038,"366":0.08963811192038373,"367":-0.31803629336639955,"368":-0.32497604168317534,"369":-0.258699363871772,"370":-0.9065393126200608,"371":-0.58728690425387,"372":-0.00679865020334384,"373":0.03647972564151945,"374":-0.1662926222955027,"375":0.3476978297331902,"376":0.4548207901797041,"377":0.3280536630662186,"378":-0.43379023399877437,"379":0.15197024497867243,"380":0.40536912224910043,"381":-0.3231796038593007,"382":0.3579236879121547,"383":-0.09575644364603085,"384":-0.42153135072213677,"385":-0.4273570088020335,"386":0.038368644628443194,"387":-0.16855917810062895,"388":0.3628671000720012,"389":-0.1499493673339311,"390":0.4993813059905608,"391":0.33786246934952807,"392":0.3459783455723715,"393":-0.7428761160189772,"394":0.6185187347786956,"395":-0.035880303364696046,"396":-0.29276877659861744,"397":0.5174270604377472,"398":-0.6365554757525652,"399":-0.26868618904366526}},{"sx":5,"sy":5,"depth":16,"w":{"0":-0.3274431355590611,"1":0.14913856708993464,"2":-0.129551095412887,"3":0.12070178663954957,"4":0.776961845962717,"5":0.11924418993107969,"6":-0.49908263201022673,"7":0.2492078209999428,"8":0.6174406163545328,"9":-1.1197670585100958,"10":-0.5697835080333749,"11":-0.03870122290966783,"12":-0.18235624568210937,"13":-0.45036644461669106,"14":0.7241593192265137,"15":-0.1311941315812359,"16":0.3214945597448268,"17":-0.1266177026512862,"18":-0.5071734672960404,"19":-0.4887619515965064,"20":-0.4604050567181513,"21":0.019615826236228845,"22":0.3359384831104104,"23":-0.01756587326718164,"24":0.06365871743949145,"25":0.21611245645032473,"26":1.0329508874456919,"27":0.52005370096452,"28":-0.09433473451639572,"29":-0.621010779614665,"30":-0.21678279608837275,"31":0.0422387733496869,"32":0.47296406504606137,"33":-0.8374395055570806,"34":-0.5917812556746376,"35":0.4048772426020193,"36":0.34859578390360024,"37":-0.27611162956985985,"38":0.7395148202117254,"39":0.18998595882002017,"40":0.6231581895670796,"41":-0.1754363853198797,"42":0.07777939400255815,"43":0.3519275142280922,"44":0.4124658956790942,"45":0.16221764655550755,"46":-0.07983909994696352,"47":0.2999298220108582,"48":-0.3625137351410393,"49":-0.21782814377830653,"50":0.1644587084371432,"51":0.23104429594989173,"52":-0.5232531574213951,"53":0.07838323657910874,"54":-0.20657274718582117,"55":0.021299332725493864,"56":-0.2627218579449019,"57":-0.26125413722026386,"58":-0.5951320715364239,"59":0.07312338917511953,"60":0.7822806002656658,"61":0.04314791630309986,"62":0.09525774511614594,"63":-0.8469003488785863,"64":-0.00034971258452344615,"65":-1.1000674110304023,"66":0.5588009723827215,"67":0.8309658949928653,"68":-0.634048912852889,"69":-0.672877412254269,"70":-0.07320981897560089,"71":-0.021834415957073406,"72":-0.49085514056059487,"73":-0.2824779403646074,"74":-0.5948589489845554,"75":-0.3954567004372464,"76":-0.564718446549448,"77":0.40030695301643315,"78":0.4260619101663371,"79":0.46523433316709795,"80":-1.1247612757265633,"81":-0.6802867799027797,"82":-1.108703659905932,"83":0.219187589418461,"84":0.04377541992260201,"85":-0.1418689659158182,"86":-0.5323273790131747,"87":-0.32392220899942054,"88":-0.2922480958934781,"89":-0.1351238550116597,"90":0.1813592163055089,"91":0.5591516898225063,"92":-0.07188950848298628,"93":0.017930078912619826,"94":0.23482652940360965,"95":0.5443751081295963,"96":0.20085529902482305,"97":-0.49184567221555603,"98":-0.20369158860729156,"99":-0.5657940273520513,"100":-0.055975061889454635,"101":-0.6085858709364245,"102":0.12978616290665693,"103":0.2515823103863758,"104":-0.9830161682221775,"105":1.3278531529038289,"106":-0.007060439611765157,"107":-0.37849718348983247,"108":-0.32212520684002727,"109":-1.1613581333265894,"110":0.08939043482336259,"111":-0.05061531565090873,"112":-0.23529646633843102,"113":0.05601449481232524,"114":-0.9911377517542125,"115":0.07559424780265137,"116":0.8364695900249162,"117":0.5517714532160154,"118":0.295945456756542,"119":0.49871279782543365,"120":0.22243181792628944,"121":-0.24249828668776988,"122":0.16629035171917206,"123":-0.30127711459632195,"124":-0.014226913599668056,"125":0.07519778662271326,"126":-0.5395999023719541,"127":-0.41451441122995175,"128":-0.5285614435108779,"129":0.2651471487920982,"130":-0.1347317842395092,"131":-0.15795105034956947,"132":-0.3252239553755306,"133":0.3270846327004948,"134":0.4268164864586549,"135":0.28953805005017647,"136":-0.2868232991923754,"137":-0.584531056370349,"138":-0.6875446733969628,"139":-0.3511261101480404,"140":0.4202252594874293,"141":-0.22575776351341023,"142":0.4565965500930656,"143":0.09173400560798062,"144":-0.06366012027765917,"145":-0.27927340080124974,"146":-0.23156351310521558,"147":0.5881630581908627,"148":-0.15712699030787267,"149":-0.46221104206460983,"150":-0.6287910250669067,"151":0.32499778240919697,"152":-0.07009363261255665,"153":0.8109824298765534,"154":-0.7901768420725713,"155":-0.5074653510907784,"156":-0.09871154356399651,"157":-0.2806630578161488,"158":-0.11317790165230439,"159":-0.4085795920261229,"160":0.01729472212076891,"161":-0.5973801730672972,"162":-0.2463604683576975,"163":-0.24860288739257144,"164":0.04068585915440914,"165":0.7476359709416165,"166":-0.13769758859725978,"167":0.728927822984566,"168":0.26029682770628226,"169":0.4271904973666907,"170":-0.27717209597996756,"171":0.047433614350639614,"172":-0.011439901256750843,"173":-0.4318524623647395,"174":-1.3939280098082218,"175":0.8343029850020901,"176":-0.05080207286821164,"177":0.4398143725573277,"178":-0.5838573151993466,"179":-0.8492155637055602,"180":-0.1595595236264546,"181":0.12239755822082247,"182":-0.6599463037249013,"183":0.5843322794389365,"184":-0.7702386758661929,"185":0.5255109680988892,"186":-0.19274142018568166,"187":0.5461903444456174,"188":0.08789621338386477,"189":-0.22383593993677586,"190":0.20227256530945623,"191":0.032277473649160435,"192":-0.8814674661462009,"193":-0.17177778379196879,"194":-0.3984053116491732,"195":-0.1135897425541701,"196":-0.0012599821868063662,"197":-0.07097626569379746,"198":0.006516669445395159,"199":0.5102367315911166,"200":-1.0457695407176322,"201":0.45832117883438617,"202":-0.601813184840219,"203":0.3331820633311537,"204":0.037315895207902676,"205":-1.007465091575509,"206":0.4383222169137891,"207":-0.3721867051039182,"208":0.36920478833249243,"209":-0.35859474865893104,"210":-0.5709513362983613,"211":0.5727868231955221,"212":-0.394361737932078,"213":-0.04429084013127508,"214":-0.521214653909291,"215":0.7645959795074747,"216":-0.681720181561844,"217":0.2797926042831291,"218":-0.3776011811690807,"219":-0.03562011434091229,"220":0.38731658119479057,"221":0.11959290810952058,"222":-0.14563022509200152,"223":-0.22676403288139793,"224":-0.5282611922343243,"225":-0.270458550641384,"226":-0.9513098132763234,"227":0.5794654525608631,"228":0.04547506545417437,"229":-0.1434315281635359,"230":-0.694190875551645,"231":-1.0090753473811853,"232":0.41775064934926576,"233":0.936056463170539,"234":-0.5632810091286259,"235":-1.0298810497668984,"236":0.5516457493942751,"237":-0.5778391830870117,"238":-0.08355567293936507,"239":0.15940651742940595,"240":0.4333874248601242,"241":-0.4188005706421708,"242":-0.4526950785849046,"243":0.21959895144183464,"244":-1.051889639346396,"245":-0.023844951679279015,"246":0.7247799040190154,"247":-0.05620942822869638,"248":0.26232089734407904,"249":0.16042658101538057,"250":-0.08149855502420372,"251":-1.0769371692640088,"252":0.1868392116327133,"253":0.37193044908255457,"254":-0.012504012326110779,"255":-0.6031651993486671,"256":-0.5166505606128442,"257":0.2403787050333577,"258":0.22485847837287554,"259":-0.7696356038290767,"260":-0.5584498392959664,"261":0.15280598924875227,"262":0.31506922953552285,"263":0.21460303730003524,"264":1.225682759931017,"265":0.22436745899827143,"266":-0.25385433061055046,"267":-1.1869875565732013,"268":0.5233389493703521,"269":-0.7440413461946809,"270":0.4298963408360574,"271":0.38579644684648884,"272":0.46308990120056875,"273":0.048342507032151254,"274":0.06330453054531307,"275":-0.38478086531675776,"276":0.31086384338905604,"277":-0.2582745140729583,"278":0.4897367484995187,"279":-1.5839362247768827,"280":-0.5323989333096636,"281":0.6190980172507968,"282":0.6080830041325597,"283":0.3085308654813893,"284":0.4286181752492239,"285":-0.8053288363520764,"286":-0.29499907497736727,"287":-0.24389415207046408,"288":0.28354786765005036,"289":-0.024722476889007253,"290":-0.47297788308606636,"291":-0.01439580352729082,"292":-0.3278359423320636,"293":-0.4424351545442898,"294":-0.22223291115432617,"295":-1.2482742053014426,"296":0.5347551512105735,"297":-0.33221630639651967,"298":-0.7148040332196813,"299":-1.1765158821027313,"300":0.4527310600200726,"301":-0.683892514576134,"302":0.05516056741779205,"303":-0.6214151824985751,"304":-0.03777388231502027,"305":0.2972929519563852,"306":-0.29545199085435414,"307":0.024928546876070993,"308":-0.11562585082415511,"309":0.16989718046196672,"310":-0.5095341776378245,"311":-1.094043249337414,"312":0.2787756767897351,"313":0.329480315463242,"314":-0.049968388278311716,"315":-0.19289636345568556,"316":0.6915892261851089,"317":-0.49345882785631157,"318":0.5675630858240401,"319":-1.0663370154360212,"320":0.07392870660399027,"321":-1.7242809870164566,"322":-0.16621210770047223,"323":-0.4155612316982842,"324":0.36351264718652776,"325":0.2740910400367959,"326":-0.1624444546331947,"327":-0.9743525919635028,"328":-0.4714269386845015,"329":0.4424929372018897,"330":0.1244035921638533,"331":-0.4215641424718589,"332":0.42897900165743547,"333":0.6881452722470992,"334":0.5892855893401774,"335":-0.7507823822342934,"336":0.04796946130820988,"337":0.09670004238503568,"338":-0.21054555643277026,"339":-1.609369684938691,"340":0.043331354721681634,"341":-0.15373221589131733,"342":0.1989256283791279,"343":0.4101132329432906,"344":-0.0945867364693233,"345":0.11861580719822659,"346":0.5554885854372069,"347":-0.2684599577145924,"348":1.2449442019277643,"349":-0.4072892063049642,"350":0.5231812409863096,"351":-0.21704616881550678,"352":0.22294827842503076,"353":0.4101644317718624,"354":0.46262500107604443,"355":-0.43526830849834525,"356":-0.7495885286652011,"357":0.850292321954895,"358":-0.5181540485835483,"359":-0.8509613614801822,"360":-0.3460481674772297,"361":0.13457534761505402,"362":0.7685602288199896,"363":-0.2282957138237046,"364":0.6507325416192543,"365":0.1188489940357022,"366":-0.008373227645399148,"367":-0.5310047146268739,"368":-0.3345500121617191,"369":0.7080124431851736,"370":0.1474382157967017,"371":-0.5868522846677611,"372":0.20387183830754724,"373":0.28537708506536336,"374":-0.6047214298722688,"375":0.9537436381718921,"376":0.8554390591797476,"377":0.4305606389353637,"378":0.09553384180174047,"379":-0.7036877198961278,"380":-0.16166219418273195,"381":0.9627728590349429,"382":0.132745419415049,"383":-1.2381834666407245,"384":-0.18986838105511084,"385":-0.3502633326690036,"386":0.24069886427256984,"387":-0.6856778884315278,"388":0.3242682979758049,"389":0.3519422689928021,"390":-0.36655215018685783,"391":-0.12068264263695747,"392":0.6773768612677968,"393":0.4571254164646734,"394":-0.10880479403970619,"395":-0.5090291706010506,"396":-0.038441787170204564,"397":0.2545671093348458,"398":0.6507064544922586,"399":0.6537163272504336}},{"sx":5,"sy":5,"depth":16,"w":{"0":-0.8660410210939019,"1":-0.12400467876313401,"2":0.22850546925035947,"3":0.48222617160345993,"4":0.514771829339236,"5":-0.7550913393117358,"6":-0.2271664754709375,"7":-0.19519536138898957,"8":0.032321686339931086,"9":-1.698788899109522,"10":-0.24393303053135332,"11":0.5831487098021009,"12":-0.13712754835763577,"13":0.1473198631620544,"14":-0.0868897067667429,"15":0.914230644316921,"16":0.7162693710617389,"17":0.4042150866324505,"18":0.5236121281671807,"19":-1.5116822799776841,"20":0.15031471985460448,"21":-0.615490780616291,"22":-0.42559093327246006,"23":0.9858193334160307,"24":-0.22248501159441014,"25":-0.527527155861009,"26":0.1553487865486751,"27":0.14652162183079936,"28":0.8617570870549731,"29":-0.8207996078544368,"30":-0.09198107606361396,"31":-0.016223312004716637,"32":0.4685292208359539,"33":-0.1516516392836646,"34":-0.7071834288270503,"35":-0.4676813572451445,"36":-0.5705245200475223,"37":-0.14000528916761468,"38":0.4773688511725482,"39":-0.2756517562530926,"40":0.5904661433500095,"41":-1.24772603397213,"42":0.35043564658674287,"43":0.656150292716413,"44":0.03333995891670319,"45":-0.30060578264571564,"46":0.3135535574940351,"47":0.38612596087800866,"48":0.5307476870914632,"49":-0.2570414613359904,"50":-1.178919156002529,"51":-0.06929333512892738,"52":0.5957742327911595,"53":-0.22156390158438244,"54":-0.12618237046007172,"55":-0.9458684398872473,"56":-0.1290995842160477,"57":-0.4023260979613782,"58":0.04718833364968315,"59":-0.3349629549287756,"60":-0.43036906408862935,"61":-0.7024718524034306,"62":0.36760583525919216,"63":0.5969255494036055,"64":0.554684892091793,"65":0.439989392276704,"66":0.17435253728377878,"67":0.26895600213729676,"68":0.954409056603223,"69":-0.6219777915734264,"70":0.1564299615510136,"71":-0.3996411376125259,"72":-1.3155232214784078,"73":0.12670462621242592,"74":0.350555246109718,"75":-0.2852286911309277,"76":-0.2271596120307668,"77":-0.7762742894417977,"78":0.2992147661272907,"79":-0.21557105168192922,"80":0.7727948752958416,"81":-0.54358588175044,"82":0.4370070372493841,"83":-1.0849049163797013,"84":0.34655642863835623,"85":-0.6283892846806401,"86":-1.3721258261143858,"87":-0.5068271675554167,"88":-0.4042323767473197,"89":-0.7386851418251421,"90":-0.6622529510667117,"91":-0.027440717529428026,"92":-0.9646052012054769,"93":0.2576942765249459,"94":-0.2996848729750526,"95":-0.2988074804511275,"96":-0.7715705171261538,"97":0.45580325360114415,"98":-0.7222369540140781,"99":-0.9775871688184914,"100":0.10727829113092724,"101":-0.38450738421220154,"102":-1.2212396158647303,"103":-1.0723237157421388,"104":-1.541834241052786,"105":0.3858006877473619,"106":-0.19667735404754652,"107":0.25742556409510026,"108":-0.1897106388460987,"109":-0.8983497070439967,"110":0.18561644700448293,"111":-0.0029430447864764817,"112":-0.34820752704862634,"113":-0.47026496049213073,"114":0.44472439573547556,"115":-0.11613076146022039,"116":-0.07972630208647524,"117":-0.9326262129283693,"118":-0.7681012579624387,"119":-0.19656719646178844,"120":0.27204059978449135,"121":-1.5219608362369812,"122":-0.7133310438820165,"123":0.13589300305550456,"124":0.14774088310005257,"125":0.5915808527220197,"126":-0.5468716047793653,"127":-0.0032592638179510937,"128":-0.6393959745144474,"129":0.41997891788387925,"130":0.23681712955235248,"131":-0.9401483636519211,"132":-0.10893722636462431,"133":-0.3037748773902672,"134":-0.18531079614081228,"135":0.18581717487719687,"136":0.04377602123395147,"137":0.29237277926353145,"138":0.15644128779326977,"139":-0.5104772538684931,"140":-0.6499784567892352,"141":-0.011749508835132337,"142":-0.0856239917193511,"143":-0.2814723981948396,"144":0.26423922958090335,"145":-0.8383874752252546,"146":-0.9190502180352814,"147":0.44628677317471593,"148":-1.6576767260965872,"149":-0.781160675005891,"150":0.006739384268449023,"151":-0.5178782311985926,"152":-0.9003572662283275,"153":-0.35400354237754184,"154":-0.0755373488699322,"155":-0.5484526966868493,"156":-1.0116971852628855,"157":-0.29694861398513217,"158":-0.22937310573442493,"159":0.1756327904419059,"160":0.35054740750304997,"161":0.911543344803477,"162":0.05399400654883846,"163":1.345355461787568,"164":0.4845851495363982,"165":-1.9480653490790387,"166":-1.3092051202202148,"167":-0.1165880336605821,"168":0.258672517277772,"169":-0.8663676854921254,"170":0.8735570001730206,"171":-1.0175793956947676,"172":-0.2546771181536346,"173":0.8369434886967583,"174":0.19254212977320428,"175":0.6929724416704718,"176":0.07411059682575682,"177":-0.631437383841565,"178":0.8318651583300252,"179":-1.0706611969519784,"180":0.03632576923587123,"181":-0.1421211078356803,"182":-0.3040155372082278,"183":-0.7809220726493574,"184":-0.4165633832991013,"185":-0.669055842801435,"186":0.7846056668972993,"187":-0.8742834872325532,"188":-0.39921038495282457,"189":-1.2659542586920502,"190":-0.5190000378875826,"191":-0.4221246209072314,"192":0.06420601899477492,"193":-0.13771139593910073,"194":1.1354372409259923,"195":-0.2026219161151322,"196":0.1299725194273083,"197":1.262080067600449,"198":0.5932366366819473,"199":0.48955356059199306,"200":-1.0415245925280705,"201":0.5748947745889249,"202":0.6810406966515593,"203":-0.24900902226904423,"204":-0.2205625542348469,"205":0.21537531124608586,"206":0.1842876510632274,"207":-0.7414782311427105,"208":0.9100921204309292,"209":0.007129701386685119,"210":0.04578704760310718,"211":0.10445196913187915,"212":0.19933621238625418,"213":-0.0037772897238289188,"214":0.1683216979380416,"215":0.10630405639457556,"216":0.536385042521724,"217":0.13752832960540196,"218":0.05966918764290968,"219":-0.11216225289541061,"220":-0.5354997139877143,"221":0.45456887819342534,"222":0.21487972556217014,"223":0.15555243066405997,"224":-0.07071249161560557,"225":0.021213653593074852,"226":0.23975793687709585,"227":0.42517614659861097,"228":1.0158741486488356,"229":1.3346873636169208,"230":0.1115051531541892,"231":0.40024921014758047,"232":0.8734122241143614,"233":-0.07499150964932125,"234":0.14554810305457808,"235":0.5420290173028204,"236":-0.03673806427885336,"237":0.20424155446212044,"238":-0.6726167933797702,"239":-0.28904087223779673,"240":0.2568037350499995,"241":0.22482646600835549,"242":0.17930030939496683,"243":0.2987164146090813,"244":-0.6052690520831759,"245":0.37723816893543316,"246":0.06407115710037788,"247":-0.4100878580714712,"248":0.2586568365386646,"249":-0.7530868949608661,"250":0.539615457176934,"251":-1.3230928749225999,"252":-0.28674183784111584,"253":-0.07800808653444014,"254":-0.1352861362828949,"255":0.358563231420682,"256":0.275437012123832,"257":0.01788986269880342,"258":0.6839025697023009,"259":-0.6260014448283944,"260":-0.4095823359984464,"261":-0.7546070490433605,"262":0.015482246565461478,"263":-0.40068310929886225,"264":-0.6589849713289846,"265":-1.0679841705496491,"266":-0.5262892306070092,"267":-0.8813291160202281,"268":-0.46552969448062276,"269":0.16377622518016635,"270":-1.6432027357791608,"271":0.18788660764694265,"272":-0.19705272585972816,"273":-0.989842964287288,"274":-0.4706589538071615,"275":-0.5399000358726844,"276":0.13070873695878116,"277":0.4411185865658251,"278":-0.07665285139400467,"279":0.2790042491685857,"280":0.4484412889151897,"281":0.27130875360722917,"282":-1.36719503193564,"283":0.6288330055169998,"284":0.8085611500753678,"285":-0.45124872476224187,"286":0.30648048707999187,"287":0.6611066503421764,"288":-0.08390365289199958,"289":-0.2756809373030874,"290":-0.8786001468424262,"291":0.039823808472201266,"292":0.08252757893389344,"293":0.5433076596028894,"294":-0.08220303879552211,"295":-0.4618455971010649,"296":-0.4508217223558497,"297":0.27225481918979605,"298":0.34921816425520047,"299":-0.38179318408631385,"300":0.5094868638009383,"301":0.5009415616209622,"302":-0.28573029734437216,"303":0.5173883249330353,"304":-0.14007991811062986,"305":-0.2078559156972702,"306":-0.9300680951756294,"307":0.03420851734211067,"308":-1.6896008025506224,"309":0.6057059370312061,"310":0.08591444531375998,"311":0.5981676830717835,"312":0.6734796222229132,"313":-0.16533016220049557,"314":0.5945481213225957,"315":0.5624609128013387,"316":0.8507686044367312,"317":-0.5411263293175819,"318":0.9442683834395558,"319":-0.49928469730223024,"320":-0.05137250190462916,"321":-0.776266201927613,"322":0.24686186666611717,"323":0.40547599950323127,"324":-1.098060111083044,"325":-0.9894461728696294,"326":-0.14778268005094958,"327":-0.07592894159963165,"328":0.5274309213756815,"329":0.32940518250567835,"330":-1.2070046812018704,"331":-0.266974895576739,"332":-0.07316058868858896,"333":0.7007402856407663,"334":-0.8392848376764308,"335":0.10442356548475944,"336":-0.8862287378504622,"337":-0.6117894162449888,"338":-0.32434701056897425,"339":0.11692374986097352,"340":0.08362075421815049,"341":-0.37434995217055966,"342":1.0441370428170424,"343":0.13519506095458056,"344":0.2683861231407598,"345":-1.026613846455786,"346":-0.7144110565816436,"347":0.17779224988756837,"348":-1.1239587473433843,"349":0.009835067867891614,"350":-0.27294715010245196,"351":-0.36283409890109997,"352":0.3758560038758219,"353":0.11366529153864863,"354":0.042929056926187724,"355":0.745818700995962,"356":0.21930084715948073,"357":0.4431419426335785,"358":1.6598435817155097,"359":1.2331554148389379,"360":0.38731210104223873,"361":0.6945632346849361,"362":-0.6612658682927198,"363":0.46789845607406544,"364":-0.60988801670351,"365":-0.3656198731716101,"366":0.5876082217916018,"367":0.27522148401954233,"368":0.573615221995359,"369":0.2875582549718298,"370":0.24300886308619546,"371":-0.5547748045270916,"372":-0.09783462711797426,"373":0.06521777810667759,"374":1.4352148528969055,"375":0.11853990383087923,"376":-0.5006577657876574,"377":-1.3583426788920834,"378":-0.08324666768486107,"379":-0.23901510069422935,"380":-0.06744230487138954,"381":0.1637603030696944,"382":-0.6620043266377785,"383":-0.29029051092361385,"384":0.3592266344588331,"385":0.4504678284978143,"386":-0.46077443884646985,"387":-1.7910476841850802,"388":0.24744540795635409,"389":0.4214710766368534,"390":-0.19106281160561384,"391":0.7355324903635427,"392":0.4389007129435534,"393":-0.39844880437143826,"394":-0.5410165059382575,"395":0.45076009785077065,"396":0.5478849531038142,"397":0.15358332109627912,"398":0.09424681213771839,"399":-0.12490549845822019}},{"sx":5,"sy":5,"depth":16,"w":{"0":0.24130146829715374,"1":-0.4113601063212379,"2":0.5550569662141467,"3":0.1046474259917514,"4":0.7987801562363808,"5":0.29140753014495246,"6":0.906615835523088,"7":0.10122087832054621,"8":0.8471208496433134,"9":0.15750260153270387,"10":0.006673142328232577,"11":-0.47945601291305495,"12":-0.32892769196526445,"13":0.31184332790957053,"14":0.18346974736891053,"15":0.8734077611245404,"16":-0.33698451763892134,"17":-0.06461957554914625,"18":0.7850581406398223,"19":0.7792521187019033,"20":0.1638713426720441,"21":0.6038811229663199,"22":0.3279869517006874,"23":0.16175205621388755,"24":0.278937034852947,"25":-0.179301654922322,"26":0.16015759099973143,"27":0.4189154337658888,"28":0.6189162482608658,"29":0.24878065266459906,"30":0.6011444086523746,"31":-0.46692200350203245,"32":0.5990475197064026,"33":-0.36206412580376474,"34":-0.9748200153230414,"35":0.5725006265912319,"36":-0.16122601395700523,"37":0.33105840918624607,"38":-0.2838872297042624,"39":0.27990074943821974,"40":0.06585610425122161,"41":-0.008500576734381036,"42":1.031206198933557,"43":-0.7067192588691542,"44":-0.1512008526146335,"45":0.10490400329503494,"46":-0.23998347505147777,"47":-1.1985399484773618,"48":0.040168346136038334,"49":0.509164131890707,"50":-1.1612763504661492,"51":0.16439135796522866,"52":-0.21294026178748823,"53":-0.3928562108370297,"54":-0.19051238781620444,"55":-0.19435738401248218,"56":0.5951827450422947,"57":-0.17489984442473516,"58":0.49609525104149715,"59":-0.37058057977740744,"60":-0.01409121891835097,"61":0.10615020148762029,"62":-0.7397700596517097,"63":-0.3138328558218066,"64":0.38736679967460197,"65":-0.08785541600677906,"66":-0.3565344185252854,"67":-0.6577861871420809,"68":0.3771226831178927,"69":0.5794236833818439,"70":-0.3180043660890153,"71":-0.0277158426991371,"72":0.560609786786133,"73":-0.11375926111982393,"74":1.396605779975418,"75":0.5224925131953516,"76":-0.317357232632408,"77":0.596458949840756,"78":-0.7585686225741591,"79":-0.7882322549817673,"80":0.6280346592201622,"81":-0.37629671223975025,"82":0.09530445872778366,"83":0.4681910795633763,"84":0.4162481936866625,"85":0.07193305968639958,"86":-0.25608827806506923,"87":-0.15223101291917046,"88":-0.35798667613319207,"89":-0.2373047975525538,"90":1.2374923009411214,"91":-0.5286606994889658,"92":0.4352594733622542,"93":0.3841155118981806,"94":-0.385630598852784,"95":0.3088353260412737,"96":0.6651637209478455,"97":0.28241873515301624,"98":0.7672757755532749,"99":-0.0669372632699926,"100":0.23521315847075824,"101":0.2501761605627165,"102":0.4081682715518786,"103":-1.0521164871075679,"104":-0.6648342456486063,"105":-0.047590200889898314,"106":-0.08157890601995776,"107":-0.10546310802787533,"108":0.9549257177622652,"109":-1.0186429478344732,"110":-0.505047188556208,"111":-0.6119037319022943,"112":0.41895326347088907,"113":0.1680974847109387,"114":-0.005489079431313574,"115":0.006472883721121435,"116":-0.6901082598598184,"117":-0.2880575443913626,"118":-0.04215037097417588,"119":-0.3831852313019802,"120":-0.3264938334427518,"121":0.39114499320538204,"122":0.10918764004314784,"123":-0.686985823528335,"124":0.10081769049024222,"125":0.34610153801081056,"126":-0.6775420190267614,"127":0.5420180592259375,"128":0.06642186159656824,"129":0.5429383927219598,"130":-1.4197555988683859,"131":-0.6941237570842669,"132":-0.6992980515198219,"133":-0.0836810890897177,"134":0.6584756928682888,"135":-0.2409500814162712,"136":0.20933255095051914,"137":0.003480038322067496,"138":0.1976771906641425,"139":-0.67114202505951,"140":0.39972260743022414,"141":-0.5304678242827927,"142":0.5519617851121369,"143":0.2188004992014306,"144":-0.12388984184045652,"145":-0.12744034121321085,"146":-0.07423597202743867,"147":-0.1562099418192264,"148":1.188337332987178,"149":1.2086371761983847,"150":0.06545259398539276,"151":0.45765209910176596,"152":0.4778734581977185,"153":-0.6552410407655694,"154":0.03676362764666592,"155":-1.0376506199131914,"156":-0.38509143253735717,"157":-0.8492140870005308,"158":0.329062112287387,"159":-0.5410026678171288,"160":0.9397057034114772,"161":-0.5113622221609756,"162":-0.37176652731865817,"163":-0.10105884085040605,"164":-0.30372274564537316,"165":0.6022073104652015,"166":0.35292693736642144,"167":-0.27898817275403,"168":-0.8294947441501996,"169":-0.07479392924168009,"170":0.5268377657943367,"171":0.36405102462856553,"172":0.1582578340028215,"173":0.6400884733405922,"174":-0.11809811799335417,"175":-0.19681849583626582,"176":-0.8006212515343499,"177":-1.6061261797599276,"178":-0.2810410825922894,"179":0.5096959853123967,"180":-0.19099713270903199,"181":-0.7793537499420964,"182":-0.35166385684339746,"183":0.2858130274687084,"184":0.8136714750708243,"185":-0.25727129854109776,"186":0.09076946697219694,"187":-0.303930944111887,"188":0.26799220015207215,"189":-0.18264187197594348,"190":-1.6685863144118105,"191":0.4201675247064394,"192":-0.35032903403880095,"193":-1.112660370419607,"194":-0.9061657371964501,"195":-0.2669205192479388,"196":0.2193332166297994,"197":-0.00013132807755915306,"198":-0.8883278447771422,"199":-0.26374093381889363,"200":-0.44788356993763995,"201":-0.16876585912394304,"202":-0.4033100996945728,"203":-0.6847740797009941,"204":0.020145182694253846,"205":0.10658710821881563,"206":-0.34293005188640274,"207":-0.6944905381934802,"208":-0.5257283072715472,"209":0.34946817416892545,"210":0.3116182118533624,"211":-0.19645833666328014,"212":-1.2138200301036743,"213":0.23999222512267437,"214":0.19292021239617513,"215":-0.30518708833450736,"216":0.3589518956773419,"217":-0.22979063506408698,"218":0.18381562567338325,"219":-0.06717995229864006,"220":0.008501222951437478,"221":-0.7554086596121908,"222":0.4414477253940445,"223":-0.6451867000663871,"224":-0.5525338387695156,"225":0.4327174556677448,"226":0.8058827175224652,"227":0.18083307126759826,"228":0.23885887651404136,"229":0.27344118508885706,"230":0.04524248331245251,"231":-0.2229401494338992,"232":1.3220215264226076,"233":0.15952916396864647,"234":0.8921813008672957,"235":0.29194375236814113,"236":0.19970062926180843,"237":-0.40355943215005546,"238":0.0018367194520439473,"239":-0.22711261981138597,"240":1.4889840940834953,"241":0.7407025451637937,"242":0.4476307263858835,"243":0.3380602755455471,"244":-0.1549285830687762,"245":0.12377604141772239,"246":-0.07628260476644311,"247":-0.23582680643122506,"248":-0.6919147899332955,"249":0.49737124526623666,"250":-0.332018321205053,"251":0.1477725849557568,"252":-0.0910027438957943,"253":0.18048299214320773,"254":-0.40797682626946746,"255":-0.009455480184603115,"256":-0.3564885422085397,"257":0.41974564041281676,"258":0.3072589017858992,"259":-0.07810558918880887,"260":0.4385056819446769,"261":-0.3034984842759605,"262":0.05480480994269148,"263":-1.0144128089177837,"264":-1.0036618024804773,"265":0.4196614181843689,"266":-0.37000197893203013,"267":-0.12190937065336868,"268":0.01236102270925435,"269":-0.2237847150476501,"270":-0.9015729371650493,"271":-0.7357074848148357,"272":-0.6278961920509823,"273":-0.8380282861963257,"274":-0.14751561565369867,"275":-0.4872546375398898,"276":0.3375807921181666,"277":0.015024012530472737,"278":0.14282679201357376,"279":1.2899374413957607,"280":0.316421825127818,"281":-0.0857616907620131,"282":0.15554067907107322,"283":-1.0632731025107989,"284":0.23423494856337126,"285":0.2704097339044522,"286":0.27307762003886504,"287":0.22673723007456165,"288":-0.536719273791592,"289":-0.018812831124098987,"290":-0.03550735698402765,"291":-0.2864544882634846,"292":0.910099687414284,"293":-0.31642870289684427,"294":0.3750521063654288,"295":-0.68357875970009,"296":-0.47779943621690457,"297":-0.275706117903661,"298":0.08259993081554981,"299":-0.09215725110744447,"300":0.15012600553420663,"301":-0.7911729380112871,"302":0.06728131540468468,"303":-0.08903848555538857,"304":-0.15719554898663252,"305":-0.4350603390456266,"306":-0.037938905349367356,"307":0.3107640290062458,"308":0.16870399600748578,"309":0.28548367922850393,"310":-0.4407538112143484,"311":-0.6283141036755048,"312":0.03565016687466234,"313":-0.30018009858592365,"314":0.17519098379565373,"315":-0.7460455620738278,"316":0.5250923869200078,"317":-0.6308403167893664,"318":-0.6716805105412651,"319":-0.5885831960685052,"320":-0.5457505208133289,"321":0.7856784928865467,"322":0.2718893729542216,"323":0.23232361568708648,"324":-0.6195985702420839,"325":-0.7359141131883407,"326":0.40026062311180444,"327":0.5170165267329467,"328":-0.8515229002865404,"329":-0.5676499720765298,"330":0.3276380359888334,"331":-0.26213882288296486,"332":-0.11456578780039614,"333":0.13574364120930582,"334":-1.3388759176283955,"335":-0.20606606182678908,"336":0.09668389045049273,"337":-0.007034744700043242,"338":-0.3863467688534245,"339":-0.06980573190529882,"340":-0.1297100600968019,"341":-0.6288998076942885,"342":-0.2878272948469549,"343":-0.16763572026164847,"344":0.033365637149245814,"345":-0.15915877131043923,"346":-0.06839363670054548,"347":0.5978484186320514,"348":0.06131921138815526,"349":0.5563763841740964,"350":-0.328738564477637,"351":-0.5518347720046127,"352":0.8107164941910296,"353":-0.44584084343714303,"354":-0.7377758542116234,"355":-0.13523688929842242,"356":-0.2337206260408052,"357":-0.4027386547159536,"358":0.10592272598953892,"359":-0.4983481586415661,"360":-0.5106845100285875,"361":-0.10332886653743072,"362":0.3940575529598972,"363":-0.5033092795032259,"364":0.3622667322185387,"365":-0.19640993417523633,"366":-0.6231892844604724,"367":-1.0052757022560919,"368":-0.211138755937774,"369":-0.14689105673456104,"370":-0.008356117549780072,"371":0.7635774593048056,"372":-0.010076393037407087,"373":-0.4611099337557829,"374":0.0987870277982224,"375":-0.42013162024093,"376":-0.12406162892282094,"377":-0.3133146261790093,"378":-0.030394010026865148,"379":-0.5499410860285435,"380":-0.06329255622006032,"381":0.061631195842675374,"382":-0.4609323099883548,"383":0.5924546094566979,"384":-0.5426990665626371,"385":0.056313738248529296,"386":0.046416159643864405,"387":0.24380617546914235,"388":0.44976823403530347,"389":-0.3523106051454437,"390":-0.5109268258342126,"391":-0.3087813322398576,"392":0.6632271627241916,"393":-0.004159805228474507,"394":-0.11489275367512097,"395":-0.4669928450140135,"396":-0.4630145375446462,"397":-0.549777089054883,"398":-0.03209397721978704,"399":0.8786696127009263}},{"sx":5,"sy":5,"depth":16,"w":{"0":0.08239617399015069,"1":-0.5664912421428531,"2":0.3451877432616561,"3":0.19753243813620458,"4":-0.5825481103200791,"5":0.8895928235263163,"6":-0.8433877194511659,"7":0.5110717720013485,"8":-0.12399031067944118,"9":-0.5423328319980079,"10":0.45032147076935525,"11":-0.15888798422598494,"12":-0.6930582985466092,"13":0.010582045571917964,"14":0.014374486060723468,"15":-0.040048171492018426,"16":-0.4993677133535666,"17":-0.8961676645212614,"18":0.4402186578004652,"19":-0.017079872338295585,"20":-1.3060431951585663,"21":-0.26495259877416355,"22":0.0020964698855917866,"23":-0.3075385153185736,"24":-0.5740352593621902,"25":0.08471961937276488,"26":0.30613185720605635,"27":-0.03948825869189839,"28":-0.3719103479906171,"29":0.20983187506510895,"30":-0.10833589704911217,"31":0.3487892701795685,"32":-0.28681972361210556,"33":-0.010407251010054346,"34":0.3036107149477091,"35":-0.8605376313342966,"36":0.2587128645733979,"37":0.5974777832367132,"38":-0.4196029433827072,"39":-0.6385044420408774,"40":-0.47421149968569853,"41":-0.47696057976050665,"42":0.06463415480378103,"43":-0.7195185565816097,"44":0.2542440182390921,"45":-0.9315187929902141,"46":-0.3244903432920858,"47":-0.20081131144006512,"48":-0.5996524887048632,"49":-0.4869378092722661,"50":0.48173886162375607,"51":-0.1826600177715046,"52":0.2097353943448159,"53":0.3140007645414084,"54":0.63134536946224,"55":0.00467503651593963,"56":-0.1403930297040775,"57":-0.31234470238783585,"58":1.0645407980195924,"59":-0.47163225344112086,"60":0.3033681954470774,"61":-0.10674506548457603,"62":0.36557269653043384,"63":0.42757917152122216,"64":-0.3607781478601311,"65":-0.7235105174703259,"66":-0.4630613292819954,"67":0.4099934451903202,"68":-0.31262130923398773,"69":-0.045921137643408945,"70":-0.9577834916158392,"71":-0.22647332537591933,"72":0.20366001781773355,"73":0.5414119514033539,"74":-0.4615182377021384,"75":-0.5825794096453724,"76":0.16738136824338282,"77":-0.03966119984926143,"78":-0.12268373935902793,"79":-0.07063096972888194,"80":0.51533142447081,"81":0.26223885123515467,"82":0.343185296390411,"83":0.12664623277975767,"84":-0.0871862048036752,"85":0.043031932466799094,"86":0.11530692518140746,"87":0.0016763879303642796,"88":0.13740869781038534,"89":-0.13765421664345062,"90":0.37521585779326283,"91":-1.2939200770847772,"92":-1.2157121837553417,"93":0.4147138432462996,"94":0.15340810862543722,"95":0.04799768619583085,"96":-0.5101673557673503,"97":0.36449143013696683,"98":0.1374670943431022,"99":-0.20077215699101272,"100":-0.3448281049093029,"101":-0.974594507686888,"102":0.8029922206977731,"103":-0.38729751047234,"104":-1.0636774456563765,"105":0.7229746499987141,"106":-0.0582264232429571,"107":-0.814307572036298,"108":0.24905190633267862,"109":-0.07113310211785655,"110":0.09427014308589811,"111":0.0245854568298202,"112":-0.3711253560046113,"113":0.12635201281545838,"114":-0.01880197359266396,"115":-0.052415832595413686,"116":-0.48440591384284176,"117":-0.4569929365082372,"118":0.6427340416815911,"119":0.7949900910636613,"120":0.4043981861031876,"121":-0.5137034934292357,"122":0.43449978289477215,"123":-0.9105777446064024,"124":0.38608715496564355,"125":-0.4798000411532255,"126":0.19272364692771685,"127":-0.3077838278577915,"128":-0.2354259786934727,"129":0.1766731517212112,"130":-0.36985185827886996,"131":0.1968759609286546,"132":0.02503580804060548,"133":0.1258803614375479,"134":-0.3226068822735776,"135":0.24543322780089752,"136":0.009808517865136505,"137":0.26213078695004605,"138":0.8032053710677478,"139":-0.0668810946487961,"140":0.5578816373947163,"141":0.06730283296271611,"142":-0.15316517780845917,"143":-0.22313490354865262,"144":0.9061709806386563,"145":-0.06461257311484218,"146":0.23762366415610947,"147":-0.5235134736122806,"148":-0.35799731865464507,"149":-0.27827088084401064,"150":-0.9384240798903574,"151":0.3408690620932397,"152":0.6309412333243496,"153":-0.5119024627866631,"154":0.27550104873584846,"155":0.027377894282271338,"156":-0.25309931632050015,"157":-0.050726474758933986,"158":-0.32819070898891356,"159":-0.1983896920708452,"160":-0.20677852375395242,"161":-0.06953714761344364,"162":-0.21623309934886176,"163":0.06277345241722025,"164":-0.5810333331020079,"165":-0.27243974114531777,"166":-0.558880701961955,"167":-0.4348282549811826,"168":-0.26370416868479857,"169":-0.5187707726971049,"170":0.3180464894805953,"171":-0.4071643474815222,"172":-0.014454055450228919,"173":-0.43011016302067556,"174":0.3371112175259554,"175":-0.1503675934362086,"176":0.26139473293962273,"177":1.2881977400182734,"178":-0.455247083258037,"179":0.020092826523057657,"180":0.3476612102113107,"181":-0.7179854026860988,"182":0.10094353887550199,"183":-0.5994308461865309,"184":-0.4113607291094341,"185":-0.17833249916430602,"186":0.9586798428547674,"187":0.322426929961315,"188":-0.31301261725653085,"189":-0.6681605010991448,"190":0.0328530053354793,"191":-0.8889695637201485,"192":-0.4045132580496708,"193":0.21580794105617512,"194":-0.5658172092438385,"195":0.31121245531166236,"196":-0.3364243774916414,"197":-1.0856665305080775,"198":-0.08771138714412302,"199":-0.21859373524148346,"200":-0.4237926105264814,"201":-0.12601820755473947,"202":0.7393707391830477,"203":0.017518193791789965,"204":0.3099488867559572,"205":0.40602630586233507,"206":-0.4369970764545133,"207":-0.767796069055792,"208":0.44225330790478257,"209":0.18096977174692372,"210":-0.7434561957827724,"211":0.5416756218701223,"212":-0.03382691404297571,"213":-0.386545064667298,"214":-0.06613144670533633,"215":0.6097154675763496,"216":-0.6214796550458632,"217":-0.16371644081490552,"218":-0.026238715273269445,"219":0.748590259127485,"220":-0.17418764496102676,"221":-0.15439021149891521,"222":-0.1931655724231353,"223":-0.05512615608998095,"224":-0.4673077784586966,"225":-0.03477125397005229,"226":0.04631325160250758,"227":0.006958479150755433,"228":0.3079105777592578,"229":0.11177674628817033,"230":-0.6949067796168774,"231":-0.09325311671494424,"232":0.45593007362730814,"233":-0.5533851966729684,"234":-1.6907656603266779,"235":-0.25788244255953213,"236":0.2544154953676865,"237":0.1057756621574928,"238":0.10929719745138732,"239":-1.361829956762144,"240":0.48959438804412786,"241":0.7651296834399912,"242":-0.861068872400457,"243":-0.11872563796722352,"244":-0.8040318251062233,"245":0.24440209954433204,"246":0.4372384806768611,"247":-0.531919975190519,"248":0.2337383573813615,"249":-0.5388599311562434,"250":0.5749044764012938,"251":-0.918436491839564,"252":-0.6098612289545461,"253":-1.4444083336249838,"254":0.6893012163784069,"255":0.10946428331293684,"256":-0.015608694698305737,"257":-0.37985577684533023,"258":-0.6857402666872688,"259":-0.2811644050020244,"260":-0.14464440808269743,"261":0.21418369989936464,"262":-0.08272625124747407,"263":0.6203525762886271,"264":0.2006708066181589,"265":0.08672995082824508,"266":-0.4108659068059873,"267":-1.4829788443901213,