{"layers":[{"out_depth":3,"out_sx":32,"out_sy":32,"layer_type":"input"},{"sx":5,"sy":5,"stride":1,"in_depth":3,"out_depth":16,"out_sx":32,"out_sy":32,"layer_type":"conv","l1_decay_mul":0,"l2_decay_mul":1,"pad":2,"filters":[{"sx":5,"sy":5,"depth":3,"w":{"0":0.13648880958103876,"1":0.03430800444764933,"2":-0.14187540570218285,"3":-0.2355459486917956,"4":0.05654385083743398,"5":-0.019980390234637456,"6":-0.1272071721095919,"7":0.02135721480259077,"8":0.03220044750827133,"9":-0.10042124596382804,"10":-0.10412117754765826,"11":0.07463275168657199,"12":0.12703260796001042,"13":-0.048401376239753324,"14":0.15110617696738246,"15":-0.01014045074975261,"16":0.03154323229767941,"17":-0.16335916674884124,"18":-0.0714531028009292,"19":0.3533345243775146,"20":0.18280973897829195,"21":0.13052779575193382,"22":-0.14310347127765838,"23":0.170986678195836,"24":0.18493319808340594,"25":0.13993182678066637,"26":-0.07460277517978499,"27":0.13076023621106025,"28":0.20238035004420332,"29":0.07701758692302615,"30":0.1788383302700623,"31":0.0006266041536021278,"32":0.2688620787196624,"33":0.19966774534805018,"34":0.186989238634364,"35":-0.10100641439248077,"36":-0.1912225051889874,"37":0.20020154026245038,"38":0.1827268908957946,"39":-0.16054038467479678,"40":0.06857426848021766,"41":-0.08731682257474856,"42":0.16484333370338788,"43":0.01924930749388238,"44":-0.0025201074902266524,"45":-0.014471827655443912,"46":0.2827939501539663,"47":0.044473027364560345,"48":-0.013998078473788547,"49":-0.12723206249089386,"50":0.0736105282005494,"51":-0.08884388242954637,"52":0.1561214145430305,"53":-0.2327217312291561,"54":-0.17446491250311183,"55":0.011182789588091453,"56":-0.11668734665669667,"57":-0.06256320112814459,"58":0.03982262830328138,"59":-0.15024802271261292,"60":-0.33820181679617195,"61":-0.1524145379230656,"62":-0.07304512757958262,"63":0.09045472999483867,"64":0.036639070711345464,"65":0.014712050336141768,"66":-0.13011402072429315,"67":-0.03341588914546437,"68":-0.11785524440801849,"69":-0.3806516122670558,"70":-0.012917578085952753,"71":-0.15233574072233833,"72":-0.10095629724036827,"73":-0.17191024639499142,"74":0.06039169773039288}},{"sx":5,"sy":5,"depth":3,"w":{"0":-0.06584476270837807,"1":0.07504767109329025,"2":0.1373034465617488,"3":-0.07244891851533815,"4":-0.17142695700914,"5":0.26116715337453666,"6":-0.11266234142912494,"7":0.04808332289148427,"8":-0.003749207612249803,"9":-0.04342273397791825,"10":0.08253189038953754,"11":-0.11750797300395682,"12":0.16895914497988837,"13":0.045256106310658684,"14":0.09872495629543865,"15":0.0795063862041025,"16":0.04235444927295291,"17":0.06760072732225517,"18":-0.010091035919802456,"19":0.060551718268005726,"20":0.2914914890664374,"21":-0.18605938865912172,"22":-0.06418421170125692,"23":0.08162251456459703,"24":0.02705929553742603,"25":-0.19807719820627698,"26":0.009168859845053499,"27":0.01889165825321575,"28":0.13165740457816527,"29":0.11251874868742298,"30":0.06604065834876093,"31":-0.2856520777613468,"32":-0.08500776690355061,"33":0.002167641373164079,"34":-0.06258731586447963,"35":0.03474390966294899,"36":-0.042347671745380754,"37":-0.12935535364790077,"38":0.013686724191483236,"39":0.08380322882335971,"40":-0.13621094764491523,"41":-0.23233101670386402,"42":0.09889305620732067,"43":0.022249346578062795,"44":0.1171203074620067,"45":-0.09621942229047126,"46":-0.02276786241032138,"47":0.09704684265976021,"48":-0.22894482360720095,"49":-0.3515701937924934,"50":0.03892070352832401,"51":0.08023336340305705,"52":-0.13642294994213325,"53":-0.16650169387295152,"54":0.0809809003277883,"55":0.002878792035321781,"56":-0.12920785491952672,"57":0.1139191815732308,"58":-0.20557964292780068,"59":-0.17614120108158557,"60":-0.0789346691898625,"61":-0.009726169052940378,"62":0.11856332715800379,"63":0.19718504534753759,"64":0.15791379417502643,"65":0.13374957334250848,"66":0.18123388125086606,"67":-0.22571795126707972,"68":0.15460238811946522,"69":0.29121158276936554,"70":-0.2819032261103931,"71":-0.11789688086623794,"72":0.15710969891105978,"73":-0.12776031039092026,"74":-0.12597330372962706}},{"sx":5,"sy":5,"depth":3,"w":{"0":-0.08293754087263792,"1":-0.05827640330720889,"2":0.0007493598271050353,"3":0.12136278074577221,"4":0.016483175627162013,"5":0.10459093812044108,"6":-0.0943727161669893,"7":0.04879936858307559,"8":0.08564577451178129,"9":0.059543898349513,"10":-0.04550668896096375,"11":-0.03297232738194405,"12":0.04179659437508559,"13":0.024425099263749018,"14":-0.0028435146657877627,"15":-0.03144858570028697,"16":-0.12437968303198912,"17":0.029048220221618487,"18":-0.11954836720630288,"19":0.16847388765501825,"20":-0.12924211734976768,"21":0.20540924551631617,"22":-0.019073096922559356,"23":-0.034884516849486465,"24":0.23911515356233012,"25":-0.07944541215564674,"26":-0.10689192968168164,"27":0.06294580442310717,"28":-0.035736015541448535,"29":-0.09026935327458847,"30":-0.04599979675688847,"31":0.08587343993034788,"32":0.07929180525055424,"33":0.06868211416940763,"34":0.08589915503065666,"35":-0.03542607325525937,"36":0.06458189309712474,"37":0.0356416562286784,"38":-0.045368779912504625,"39":0.20635236233409573,"40":-0.18354958919675773,"41":-0.06367107759714485,"42":-0.12237892643181394,"43":-0.047612060530623765,"44":-0.06356016493715425,"45":0.07379365378473576,"46":-0.19738100277962656,"47":0.04022852745452768,"48":0.09798124018893027,"49":-0.0928393489090473,"50":-0.006890135563278878,"51":-0.018610936293170136,"52":-0.08210437299594647,"53":-0.02601274525255838,"54":0.09299692812088516,"55":0.14211019796653618,"56":0.05185078922318523,"57":0.16773380748548758,"58":-0.30908890875675255,"59":-0.08031230232990053,"60":0.04214750637689654,"61":-0.07008780905324007,"62":-0.05311314979862383,"63":-0.07806241695423338,"64":0.010630635869929761,"65":-0.05330511265122939,"66":0.004639666500334564,"67":-0.1879826787948493,"68":-0.08793550517834944,"69":0.07034830233598004,"70":-0.14832491792950397,"71":0.025911085114843663,"72":0.00416988347031578,"73":-0.1555548347381281,"74":0.1302204394935183}},{"sx":5,"sy":5,"depth":3,"w":{"0":-0.1666361779388897,"1":0.038240680604669244,"2":0.14278237611178604,"3":-0.2932548511115365,"4":-0.017307213424894472,"5":0.1091416533898587,"6":-0.15458867714477528,"7":-0.07489744511246353,"8":-0.05939583521953507,"9":0.04302575848610409,"10":0.0872010347178923,"11":-0.15658822202901254,"12":-0.16508197724295146,"13":0.14446272858564888,"14":0.12978816109705452,"15":0.1543518398506211,"16":0.13618363461343005,"17":0.02813306036105029,"18":-0.06722229533968922,"19":0.22998774310151723,"20":0.09230228145799228,"21":0.11599750329104558,"22":0.13967898399467507,"23":-0.13364429050284068,"24":-0.01993924481249069,"25":0.06523573531244115,"26":0.20233362950526818,"27":0.011356427883250324,"28":0.3043240197810415,"29":-0.034812468559410344,"30":-0.08992924238004607,"31":0.15314552135726223,"32":0.022197544357207267,"33":-0.20541342351399106,"34":-0.07552099299279166,"35":-0.09328624296276837,"36":0.06838205575515421,"37":0.3482821701888815,"38":0.173029825908688,"39":0.19151983934873887,"40":0.238783937715048,"41":-0.12098084194087694,"42":-0.20181173520452125,"43":-0.14838685832709153,"44":0.056288692002044755,"45":-0.256421268084714,"46":0.07937214600332049,"47":-0.025262880000693,"48":0.11207741238589435,"49":0.028956618468782037,"50":0.24870104684485614,"51":0.16807405538589143,"52":0.0058872330919259915,"53":-0.2258223394075001,"54":0.05061858383455943,"55":-0.04862847795805098,"56":-0.23520150816672514,"57":-0.07115155353054727,"58":-0.10741535741697725,"59":-0.02573505885115704,"60":-0.13419344280636586,"61":0.19889275355991673,"62":0.18227073087493278,"63":0.019885285809740985,"64":0.13516306383559692,"65":-0.0791784752647557,"66":0.06983624568680234,"67":-0.1740386521949208,"68":-0.009148357498182848,"69":0.010905642014050431,"70":0.05708355299975173,"71":0.004979762854256355,"72":-0.17170444045872288,"73":-0.029750216700070085,"74":0.008396166970396775}},{"sx":5,"sy":5,"depth":3,"w":{"0":0.003803924893927721,"1":0.3328350861065217,"2":-0.09819535630638013,"3":-0.017217179572857667,"4":0.08252041199803162,"5":0.007615558800154468,"6":-0.011499594048285877,"7":0.058616334625042996,"8":-0.10097304614501229,"9":0.11653014402799644,"10":-0.00022920208935664444,"11":-0.21514788394774226,"12":0.06428121080133836,"13":-0.1547806106114831,"14":0.03320842782472114,"15":-0.08550956289507156,"16":-0.023621702893469654,"17":0.000826701755366021,"18":-0.09536604150042449,"19":-0.15376348415852778,"20":-0.014797645543675032,"21":0.023706304691224943,"22":-0.11767762799774299,"23":0.09982619727793456,"24":-0.26804850934711544,"25":-0.01609036377532891,"26":0.025193787862630653,"27":-0.056670203387753415,"28":-0.02865126959907961,"29":-0.05280530636979811,"30":-0.19539065334835484,"31":0.2133753750300927,"32":0.0418606676869619,"33":-0.12273887683938578,"34":0.14652757727928437,"35":0.16089981799722636,"36":-0.3160607664352291,"37":0.03478138476873865,"38":0.16874399601304524,"39":-0.3090425683615474,"40":-0.005246226222224039,"41":-0.16875654036034365,"42":0.08141446471928163,"43":0.13134162976633781,"44":-0.05578833549943695,"45":-0.019954531128295476,"46":0.32479449628759677,"47":0.20400368564986004,"48":-0.2418937521018213,"49":0.049555452849898,"50":0.21201385575269874,"51":-0.07523326969247665,"52":0.10274822650164951,"53":0.247564045896409,"54":-0.23494167794656803,"55":0.011332496017544078,"56":0.0861532913738869,"57":0.13332680489637222,"58":0.03557045887776607,"59":0.11595777057308344,"60":0.08922593270341017,"61":0.0034003950454200163,"62":-0.09704373965863555,"63":-0.07313356929924937,"64":0.21351221393371506,"65":0.18135017426863181,"66":-0.05700189364254556,"67":0.018703978140914103,"68":0.24036136464357896,"69":-0.39442127146201594,"70":-0.004103192153063033,"71":-0.028873846880537034,"72":0.25569415712705407,"73":0.10398320088875222,"74":-0.08957857873402869}},{"sx":5,"sy":5,"depth":3,"w":{"0":0.013121651693654488,"1":0.16951110319792406,"2":0.039412834095161345,"3":-0.030083990651273377,"4":-0.020829919362862062,"5":0.23312867097744083,"6":-0.04935101036057813,"7":0.18917996643924967,"8":0.07025603281079303,"9":-0.21266216366515053,"10":0.045436112393454735,"11":0.09320069963687884,"12":-0.11616651372727259,"13":0.051797502720701674,"14":0.010815231065942609,"15":0.06153589198030481,"16":-0.20067480258107148,"17":0.10816417319810194,"18":-0.15598205106494367,"19":0.10871724435635216,"20":0.0828340548201245,"21":0.05568701417035355,"22":0.10235075878780564,"23":0.046345981662775614,"24":-0.11122385567135563,"25":-0.1073128931921234,"26":-0.02666490878308007,"27":-0.18807879556797338,"28":-0.1958067319002464,"29":0.04518535767462829,"30":-0.2584009373504533,"31":-0.06703455136703836,"32":0.23855315651596548,"33":-0.09292213856129902,"34":-0.0954353338668507,"35":0.09846972279323897,"36":-0.1414663711087594,"37":0.019795157759907905,"38":0.12021298236431409,"39":-0.2334916215169672,"40":-0.18138703900851683,"41":0.1118216497230145,"42":-0.03247598225731763,"43":0.1292436478170148,"44":-0.1424743916955603,"45":-0.2730642306586833,"46":0.06284110866406045,"47":0.10249849507996084,"48":-0.1528220795582373,"49":-0.0566689618629783,"50":0.06274088646297225,"51":-0.10629645408443276,"52":-0.031427687101117645,"53":-0.0050473786574223274,"54":0.18861723941452527,"55":-0.00716974319456194,"56":-0.11410641698713675,"57":-0.06959978113617202,"58":-0.04907721599362602,"59":-0.005451194506673738,"60":-0.17562240950736221,"61":-0.04049535815270136,"62":0.22274381222479583,"63":-0.021330025854163152,"64":-0.007676943991687349,"65":0.14333372325229896,"66":-0.0004521090025735688,"67":-0.17523377366565873,"68":0.18827014282951623,"69":-0.3260339679639752,"70":0.22919041056139244,"71":0.1210396291047756,"72":-0.0903661200996088,"73":0.07603831536521383,"74":-0.0524990473322902}},{"sx":5,"sy":5,"depth":3,"w":{"0":-0.04308317402361813,"1":0.03963069165896297,"2":-0.06373758752187536,"3":0.04958538363659437,"4":0.09531206219734666,"5":-0.1389506656032668,"6":-0.07520182501997687,"7":0.26039251976443994,"8":0.04887274282804836,"9":-0.212111573250344,"10":0.06875720958342119,"11":-0.04127124163845042,"12":-0.11438538454694454,"13":0.009843280947175886,"14":-0.29072643943988785,"15":-0.042299386998642344,"16":0.07717395483891332,"17":0.045478061674623343,"18":0.03634462917531528,"19":0.027918997712116315,"20":-0.14118174273681044,"21":-0.10304723853587587,"22":0.09731595831055362,"23":-0.018000608451468808,"24":-0.029229399941585264,"25":0.0805522215213138,"26":0.012100095479903053,"27":-0.02367163831070252,"28":0.08272448411343435,"29":0.08231984693504206,"30":0.3200365422685323,"31":-0.03998428070396381,"32":0.11333308207697744,"33":-0.057366757383652954,"34":0.23509006048606707,"35":0.19822319025586446,"36":0.07356566157371963,"37":0.18757278439787525,"38":0.17846429599134758,"39":-0.0079143667533019,"40":0.22182527622787115,"41":0.3910473281786311,"42":0.08675906973219785,"43":-0.032544724619886625,"44":-0.060474693615016735,"45":-0.07474861887261014,"46":-0.1207379607294268,"47":-0.14633769569721422,"48":0.11944185753630587,"49":-0.14679135186450937,"50":-0.1565912407348718,"51":0.10191346254034228,"52":0.33282771210186635,"53":0.09255410249135955,"54":-0.06944180938573787,"55":0.1843783177782034,"56":0.006154328295473816,"57":-0.06397708121234782,"58":0.19840658591920432,"59":0.15241115602941113,"60":0.11060047923732921,"61":-0.036662833992825786,"62":-0.12192433421045776,"63":-0.22654519074458968,"64":-0.11761623122964292,"65":-0.21195353029754696,"66":-0.10648269046001262,"67":-0.09963267935615962,"68":-0.4534372095691384,"69":-0.08722282035308168,"70":-0.19412392680368634,"71":-0.055529864947419974,"72":0.040086174287433274,"73":0.07436597462971493,"74":-0.1158749157561211}},{"sx":5,"sy":5,"depth":3,"w":{"0":0.13324475980029946,"1":0.01958762589025683,"2":-0.024864828131455366,"3":0.000709302605247947,"4":0.09777185799208768,"5":-0.1513071016867177,"6":-0.1747299188829105,"7":-0.15533542477927506,"8":0.02474282764127443,"9":-0.10389457333307153,"10":-0.007982153640142502,"11":-0.16285249547869302,"12":-0.16463392439971974,"13":0.23598515731508388,"14":0.06386045849384259,"15":0.03244121083137208,"16":0.08158835809513204,"17":0.055747539944767235,"18":-0.20725587787587457,"19":0.08895493211825128,"20":-0.11013706936051058,"21":0.1717693256989052,"22":-0.06565864921136869,"23":-0.32224846220535036,"24":-0.08344899183354365,"25":0.08352101577797837,"26":-0.11567664710423917,"27":0.11428911300528341,"28":0.2270337179884082,"29":0.014200878227113491,"30":0.001969307620112961,"31":0.07081173566451626,"32":0.23777754984852925,"33":0.15578034346972489,"34":-0.11058747418603214,"35":-0.14951586596868435,"36":-0.1455663361282607,"37":-0.0726341872587225,"38":-0.19970018323613214,"39":-0.07630519881396727,"40":0.0007564327057488356,"41":0.10970901383808795,"42":0.06880687877434602,"43":0.291414486789151,"44":0.13192192566154576,"45":-0.07907082123093533,"46":-0.023395244297214485,"47":0.05089131402267404,"48":-0.16268440594149308,"49":-0.002196795815431902,"50":0.07931036249578999,"51":0.03498442194677923,"52":-0.2808911085642803,"53":-0.20185232067839506,"54":-0.17381842002170342,"55":-0.16565028833738749,"56":-0.014062415470895666,"57":-0.04007125886298655,"58":0.0006926754554652235,"59":0.03633201401830305,"60":-0.009770544189841204,"61":0.034879058360921276,"62":-0.1202568060989962,"63":0.0753996317328197,"64":0.37571452713326786,"65":0.1181122085293242,"66":-0.09396893927531264,"67":0.06474427317218334,"68":-0.12386431684344366,"69":0.08014867343693505,"70":0.023538525544722157,"71":0.019734472553958965,"72":0.08774001196872294,"73":0.10576663897797951,"74":-0.08868576359822955}},{"sx":5,"sy":5,"depth":3,"w":{"0":0.03031433645041551,"1":-0.10336998031582345,"2":0.14162473185139468,"3":-0.0576800507025776,"4":-0.09419444741269661,"5":0.2245301789991264,"6":0.13842035009758075,"7":-0.35075199971064464,"8":0.22819539758346694,"9":-0.1142320495127845,"10":-0.0944299323166056,"11":0.2364479360590182,"12":-0.040875554755899254,"13":-0.023937601005911944,"14":0.18289697277083386,"15":-0.10949865214008622,"16":-0.14878755177132946,"17":0.11118514121768536,"18":0.07379699497971297,"19":-0.040529502103367906,"20":0.1928897517037623,"21":-0.036433160296071264,"22":0.05785790507705247,"23":0.2506067130138027,"24":0.09307180631036563,"25":-0.18965556538197373,"26":0.035357145181956984,"27":0.17844949707556113,"28":0.06996208278385885,"29":-0.07979483937585094,"30":0.0003914373637413167,"31":-0.09914732344206344,"32":0.07555827332532376,"33":-0.10623106520280531,"34":-0.16245128292580863,"35":0.2062980429763866,"36":0.027461626094389124,"37":-0.2975598352072405,"38":0.21705469582190776,"39":0.14668580419546604,"40":0.03686136413188625,"41":0.02249383115355875,"42":-0.058252467741593005,"43":-0.018837174958400264,"44":0.08051692628566322,"45":-0.34375963662060766,"46":-0.01513718727876179,"47":-0.20060144726917156,"48":0.0020663938627237866,"49":-0.06823422608538351,"50":0.18968406795208256,"51":-0.2511496151492371,"52":-0.3522880653081678,"53":0.06918071504221601,"54":0.048589311749645175,"55":-0.058897140766387975,"56":0.20485808815402082,"57":-0.05343307457490843,"58":-0.3059989356193393,"59":0.32644045899969387,"60":0.05926243871811114,"61":-0.24412467453123549,"62":0.10400630016758021,"63":0.031256905838325966,"64":0.02666057205737559,"65":0.13133555138845196,"66":-0.027958742937314394,"67":-0.08579665668137769,"68":0.04530454614400758,"69":0.10822419213193397,"70":0.017323302112341624,"71":0.14233795809339475,"72":0.08495008476387697,"73":0.07021167622332963,"74":0.1959529191497009}},{"sx":5,"sy":5,"depth":3,"w":{"0":-0.008552776724067488,"1":0.13924644554188922,"2":0.18539050338148094,"3":0.08453101158781656,"4":-0.07670275479701508,"5":-0.09993541248696725,"6":0.06961144651529491,"7":-0.10694877279666097,"8":-0.16128944119495353,"9":-0.06455266737165861,"10":0.08407345763750562,"11":0.024888981162980262,"12":-0.025334346273834792,"13":0.16388254628529045,"14":-0.05415290865043231,"15":-0.029534002910074967,"16":0.17009191225222228,"17":0.05036059712854623,"18":-0.03304343864828039,"19":-0.25947109234077337,"20":-0.08608054518618387,"21":0.000006567278699617929,"22":0.10607494000006401,"23":0.010578267007249046,"24":0.016600178984862764,"25":0.1241460939463917,"26":0.08975439314342892,"27":0.10815418354062166,"28":0.028430569624132054,"29":-0.10741835723320839,"30":0.039564245177889604,"31":0.05616559050425831,"32":0.06654568336905521,"33":0.09831018278092833,"34":-0.07438632164969368,"35":-0.12574486069894192,"36":-0.04352695674171117,"37":-0.0329688217205475,"38":-0.015209297380339997,"39":0.18262938153556293,"40":-0.22210903476061772,"41":0.03233440154121043,"42":-0.11988115842818639,"43":-0.008607900236923254,"44":-0.1083043631032788,"45":0.14892658555211924,"46":-0.09420659828866879,"47":-0.11857565197925564,"48":-0.08449106530586112,"49":-0.31279605658430537,"50":-0.34206250647219794,"51":-0.13812216476603953,"52":0.12117323142392637,"53":-0.10450875659186919,"54":-0.0675515086410419,"55":0.0412758806867399,"56":-0.12421668616819767,"57":-0.021637965900419876,"58":0.0030712382587364103,"59":-0.11573016915351639,"60":0.0752212850221914,"61":0.0395583380147812,"62":-0.22340557371211486,"63":-0.2112472505111689,"64":0.12507143587533745,"65":-0.14852740476304835,"66":-0.09549397192989538,"67":0.14404103535282864,"68":-0.018779432298816148,"69":0.041151571335110944,"70":0.26810125211400865,"71":0.07983155923989561,"72":0.035632753676381405,"73":0.2792667698597426,"74":0.21987227015724617}},{"sx":5,"sy":5,"depth":3,"w":{"0":0.08046986769638229,"1":0.14148974177646012,"2":-0.05493558747334207,"3":0.05375359104582337,"4":0.08679023933197039,"5":0.13033346374706897,"6":0.023783958647125722,"7":0.060293396566067706,"8":0.10353360153794568,"9":-0.07299325707473645,"10":0.13465222341142344,"11":0.06813033804928184,"12":0.20593047283598595,"13":0.13352513516695325,"14":0.203978377920772,"15":-0.021240424055619572,"16":0.06583859151722969,"17":0.10378388203723582,"18":0.110944920257102,"19":-0.03142620804999897,"20":0.10363248642496413,"21":0.017150614816828703,"22":0.15455362879882922,"23":-0.20709227270394817,"24":0.04179961040127829,"25":-0.12249470873443742,"26":0.2123313480394853,"27":0.021766293056632382,"28":0.15138052067393185,"29":-0.0608335551939829,"30":0.05131688087601893,"31":0.20699085809292062,"32":0.0008671938484217533,"33":-0.18269539973327947,"34":0.061018385172581346,"35":0.06728134384902443,"36":0.0435993933437155,"37":0.008393911139557493,"38":-0.03441213765863696,"39":0.09294600546978807,"40":0.05608714297871156,"41":0.023795026734681,"42":0.031852082057738255,"43":0.048122210046013913,"44":0.2082063098406587,"45":-0.27832640416421267,"46":-0.010009455349522156,"47":-0.05836095250929272,"48":0.08408911937977345,"49":0.09632976373090123,"50":-0.10426142697625826,"51":-0.05297316636375725,"52":0.1591656022815245,"53":-0.14699523412549062,"54":0.0051010105511858144,"55":-0.023073064801449925,"56":-0.12238438422762546,"57":0.20530147982647481,"58":-0.057245138485403274,"59":-0.15626288621527162,"60":-0.0639414408126158,"61":0.08386239081200834,"62":0.1513024785057118,"63":-0.11861298432254132,"64":-0.0170872707658044,"65":0.08956083201338029,"66":0.06213152707185376,"67":-0.18126020285081273,"68":0.05182745104116923,"69":-0.18152161724281407,"70":0.014282133932437513,"71":-0.07022273999000321,"72":-0.23007916130080894,"73":0.050870467531774266,"74":-0.12974210728500038}},{"sx":5,"sy":5,"depth":3,"w":{"0":-0.07583891998953612,"1":-0.033689737115296575,"2":-0.1306637895653461,"3":-0.10612838059499835,"4":0.020658249375197068,"5":0.20274202531671126,"6":-0.264484204614468,"7":0.12359047400506037,"8":0.0026081508299503524,"9":-0.13424881055545393,"10":-0.0782473929942896,"11":-0.00762791009582904,"12":-0.3376878424381235,"13":-0.09678654982210878,"14":0.16724781536290023,"15":-0.05286025490233944,"16":0.06075019358727555,"17":0.05500277486318515,"18":-0.23816175139399834,"19":0.051871841190910956,"20":-0.10130672378626242,"21":-0.05717411157158418,"22":-0.10177510882570488,"23":-0.08637110987425752,"24":-0.05411794912451257,"25":0.01938867916068726,"26":-0.13337577440795817,"27":-0.24733890479792417,"28":0.09588182172601216,"29":-0.05423232663526345,"30":-0.0775595423459468,"31":0.13662710937103856,"32":0.09249212867943168,"33":0.05255664865730299,"34":0.07449286554178823,"35":0.013199354443675593,"36":0.07185956748179899,"37":0.0340499027627194,"38":0.12408544200624491,"39":-0.13331620359399535,"40":0.0009234441867206561,"41":0.25160939256666176,"42":-0.1478232344062604,"43":-0.1449258140756615,"44":0.22390353942058824,"45":-0.20666286966523542,"46":0.0245861731944543,"47":0.07351050624999597,"48":-0.15198482372951977,"49":-0.22321149895840053,"50":0.07725140755677178,"51":-0.19505862185166134,"52":-0.12399175705645293,"53":0.1776397496966417,"54":-0.015822883806304956,"55":-0.10077449699886862,"56":0.03586528316373395,"57":-0.1246288533499252,"58":-0.16885856713972827,"59":0.04625218791966495,"60":-0.1399470700431241,"61":0.13202514085706277,"62":-0.1181855044121242,"63":0.21172731427809016,"64":0.14926796137911755,"65":-0.27063246826960424,"66":-0.09116065031743065,"67":0.033095854570770564,"68":0.13795967718219346,"69":-0.14915383344626976,"70":0.02387844711825794,"71":-0.01653649186456616,"72":0.12628203134538452,"73":-0.06213880716263191,"74":0.05962189283156261}},{"sx":5,"sy":5,"depth":3,"w":{"0":-0.01148262807346947,"1":-0.1146821740459889,"2":0.076294132938934,"3":0.10709265175865183,"4":0.013550341262895916,"5":0.12026656313431326,"6":-0.05309569931422149,"7":0.10625012826557487,"8":0.19693214394520636,"9":-0.2018058950572793,"10":-0.05889945639688042,"11":0.048363269744758276,"12":-0.008827410482166915,"13":0.18215653812401927,"14":0.0026064863522257996,"15":-0.14235668623455464,"16":0.0893530791975887,"17":0.19507340197943232,"18":0.030764692705308145,"19":-0.288357392794261,"20":-0.14048139645416868,"21":-0.30031590735440417,"22":0.1834803700226454,"23":-0.02457825992509022,"24":0.10092843399977773,"25":0.029656500586561992,"26":0.07551392213254846,"27":-0.09485036005886315,"28":0.07590375462071267,"29":0.17090648086587723,"30":-0.17978159418108555,"31":0.12712903986133997,"32":0.01849889083000257,"33":-0.0909643120764557,"34":0.11305270771328,"35":0.18368408584505924,"36":-0.03446822182990886,"37":0.12389080571608269,"38":-0.12213354804394201,"39":0.012134161532133468,"40":-0.040740340588963475,"41":0.35050869928111716,"42":-0.2834647138420925,"43":0.14077327332603748,"44":0.05795817304154299,"45":0.18215534931578362,"46":0.11211604387264136,"47":0.27114297715638913,"48":-0.24386592352287556,"49":0.07830610179219313,"50":0.18263936569355968,"51":0.07904694918944027,"52":0.08047217505541591,"53":0.0043430915218991405,"54":-0.12097773059198696,"55":0.13721988895151202,"56":0.12004740424470416,"57":0.06140434094703755,"58":0.2554230617456643,"59":0.24238310856144482,"60":-0.08553652857635351,"61":-0.06601423160345127,"62":-0.16437475412863187,"63":-0.046697954906636086,"64":0.09010546292733801,"65":0.17737099035756201,"66":-0.22427987800399715,"67":0.16045478485517195,"68":-0.059718005110928604,"69":-0.03570108273325751,"70":0.06525012224284435,"71":0.1055727882457967,"72":-0.14628466086830183,"73":0.17358400243694302,"74":0.07091547334863922}},{"sx":5,"sy":5,"depth":3,"w":{"0":-0.05772304964533626,"1":0.028114221658281244,"2":-0.025826621960757534,"3":-0.15429474456386535,"4":0.038371412829033114,"5":0.13093089663594296,"6":0.011012723221914354,"7":-0.1436885471694808,"8":-0.2989532468351912,"9":-0.15826500103113159,"10":-0.14563497958911234,"11":-0.2600855202551306,"12":-0.21493293593167595,"13":0.08711088119108339,"14":-0.1607092861972095,"15":0.22506014452925222,"16":0.10757959418755457,"17":0.1381685341561076,"18":0.06467407432161495,"19":0.007888908960330553,"20":-0.11083316314908023,"21":-0.2069006203718293,"22":-0.015055242294889238,"23":-0.12412732901023088,"24":0.005605030725607101,"25":-0.26680913833173864,"26":-0.14594942410933343,"27":0.1081900082968645,"28":-0.047485907596292676,"29":-0.34149799570544426,"30":-0.0025144649347169255,"31":0.16609256489230245,"32":0.2507968996398299,"33":0.21813584191558705,"34":0.0850109879325685,"35":0.11335696789366959,"36":-0.06564388421880955,"37":0.31824737796982333,"38":-0.1771906824728502,"39":0.1715019829650343,"40":0.36530392234280296,"41":0.04555104645622352,"42":0.16096324926124475,"43":0.107583170222129,"44":-0.12491845122849984,"45":-0.01694349346511451,"46":0.026084984978224073,"47":-0.13650934008998827,"48":-0.05331632610861608,"49":0.002967301057503054,"50":-0.1416106831600473,"51":0.07628246218297899,"52":-0.10176542213563014,"53":-0.21191380579649707,"54":-0.16274518007863634,"55":0.135927327649367,"56":-0.08251479436590034,"57":0.2662722802004154,"58":-0.011312598841589395,"59":0.12399894608547721,"60":0.05157604000320549,"61":0.08262870240746881,"62":0.1405104028888588,"63":-0.17079386102597635,"64":0.1323855492552691,"65":0.08366235698613007,"66":-0.0062912440342000105,"67":0.03167132881927731,"68":0.037104504372593966,"69":0.08729688521449509,"70":-0.06861778742113071,"71":-0.09781707141387387,"72":0.006330397966644693,"73":0.391978495116672,"74":0.10080665132307069}},{"sx":5,"sy":5,"depth":3,"w":{"0":-0.22444921824653064,"1":-0.14923508315706016,"2":-0.08286909498091069,"3":-0.1505731389151928,"4":0.06623230243236712,"5":-0.05458295525940301,"6":0.058013459750102615,"7":0.17566742201873087,"8":0.09808385568897551,"9":-0.25839863308839756,"10":-0.03363590799057184,"11":-0.11601679243218033,"12":-0.27704926652553635,"13":0.11650393677070667,"14":-0.0046030187998341385,"15":-0.20423595017996263,"16":0.3598031210199055,"17":0.04175142945380496,"18":-0.04940203196847884,"19":0.09224610806411385,"20":0.02302211386974927,"21":0.03979976218166712,"22":-0.0045462465820242425,"23":0.14941100333664392,"24":0.08950255411823561,"25":0.056828684803329935,"26":-0.09856045655333037,"27":-0.019463067006580584,"28":0.17148390630727442,"29":0.049753527859795664,"30":-0.04824698122130399,"31":0.03458714663762497,"32":-0.026324931630277187,"33":-0.14586521316625498,"34":0.14676259493846444,"35":-0.130737655572329,"36":0.006491609136871354,"37":0.3115147070893404,"38":0.15217795236386547,"39":-0.09306733974810584,"40":0.08231262370421766,"41":-0.12062082133563938,"42":-0.3087369494256949,"43":0.32585538621669347,"44":-0.23468148864502453,"45":-0.15291963323127244,"46":0.10986995748055191,"47":-0.19111165179898704,"48":-0.09354101523941993,"49":0.24143489818439373,"50":0.06936102365423792,"51":-0.03756958666226509,"52":0.3280426060665412,"53":-0.005118030468043108,"54":-0.06562302928668574,"55":0.15590894119889784,"56":-0.05025100733551067,"57":-0.02593872170206207,"58":0.09093849977539044,"59":-0.18314536700680698,"60":-0.05457731317055153,"61":0.2024716629706606,"62":-0.12764572548734798,"63":-0.0014769087143740025,"64":0.30003415334591377,"65":-0.22745364269956142,"66":0.004020189745358667,"67":0.29149823515980955,"68":-0.1363376035692819,"69":-0.35947254373634996,"70":0.2687219666684311,"71":-0.16712288469987,"72":-0.12114265967035369,"73":0.12287627166918888,"74":0.0461987825427835}},{"sx":5,"sy":5,"depth":3,"w":{"0":-0.02119542214202154,"1":-0.04398672738423238,"2":-0.0029062104494994748,"3":0.2529816885477374,"4":0.27755250011074123,"5":0.04302896822316513,"6":-0.044585598518481574,"7":0.13781541483897244,"8":0.049746911975578165,"9":-0.012476544438890775,"10":0.08509283555153414,"11":0.17101127990628184,"12":0.09367858327113715,"13":0.07027867019675473,"14":0.19324970633039815,"15":0.12361682048704171,"16":0.1561184820122481,"17":-0.022247227917246454,"18":-0.09666819639455564,"19":0.18094917596261453,"20":0.1300412005030851,"21":-0.09770001466821705,"22":0.10646125659233448,"23":0.09498690683751398,"24":-0.08734263634879474,"25":0.08395570859711807,"26":0.13438189012768165,"27":-0.1406967398713157,"28":0.05192134514056975,"29":0.08069765785865027,"30":-0.21326599060839477,"31":0.02110099714509702,"32":0.16648981836013885,"33":-0.10010139102142976,"34":-0.04723068902451395,"35":0.010159383433052215,"36":-0.14754662589014564,"37":-0.06272340632416448,"38":0.09128997804141308,"39":-0.10532533694825037,"40":0.006383515284180588,"41":-0.10073861786746371,"42":-0.17461687584311947,"43":-0.20912450800583424,"44":0.27739672576896873,"45":-0.22271036778679176,"46":-0.02853350925211171,"47":0.01866089534917245,"48":0.013676537678938073,"49":-0.06375814444150871,"50":-0.13152737678139664,"51":-0.13013221717974782,"52":-0.08606363083793374,"53":0.05310944594486715,"54":-0.13552123255604923,"55":-0.05600470957722754,"56":0.2221622911714049,"57":-0.028034144477687543,"58":0.0268775686491252,"59":0.02478579293398118,"60":-0.054777913364633064,"61":0.04446625438113899,"62":0.26524418489837837,"63":-0.39098719415164024,"64":0.06208344873054483,"65":-0.09427183511794662,"66":-0.0948300332729464,"67":0.23836845485504793,"68":0.12446277846760563,"69":0.03734583583366049,"70":-0.078221924605129,"71":-0.07113013738058696,"72":-0.01722485884585589,"73":-0.040253158140931555,"74":0.059700058521238206}}],"biases":{"sx":1,"sy":1,"depth":16,"w":{"0":-0.24189990092290548,"1":-0.2360973163129698,"2":0.024455229833263176,"3":-0.14582878746034464,"4":-0.09347734705624922,"5":-0.14470797880598602,"6":-0.17316710672431382,"7":-0.17275852297330044,"8":-0.05641284317933961,"9":-0.12533751164747128,"10":-0.1496808856935945,"11":-0.12471097242675178,"12":-0.2113578681171072,"13":-0.18844898909919844,"14":-0.12833175833190938,"15":-0.14905721997156238}}},{"out_depth":16,"out_sx":32,"out_sy":32,"layer_type":"relu"},{"sx":2,"sy":2,"stride":2,"in_depth":16,"out_depth":16,"out_sx":16,"out_sy":16,"layer_type":"pool","pad":0},{"sx":5,"sy":5,"stride":1,"in_depth":16,"out_depth":20,"out_sx":16,"out_sy":16,"layer_type":"conv","l1_decay_mul":0,"l2_decay_mul":1,"pad":2,"filters":[{"sx":5,"sy":5,"depth":16,"w":{"0":-0.08783690268982602,"1":-0.014561443737135235,"2":-0.021483266556689723,"3":-0.03702105368441414,"4":0.06606046934446727,"5":-0.0012999290549344394,"6":-0.14080190558615813,"7":-0.1372306966998986,"8":-0.03760312598693705,"9":-0.1420763809833518,"10":-0.16758236120021222,"11":0.012166358569404335,"12":-0.07366734442779001,"13":-0.050524810516385875,"14":-0.0042743349085427205,"15":-0.12358416461555154,"16":-0.06704350352837198,"17":-0.06313313122354645,"18":-0.047998224382731096,"19":0.011751511733061454,"20":-0.027316254933805968,"21":-0.05328572614887901,"22":-0.06728455464442727,"23":-0.11402520365245986,"24":-0.06458620911810162,"25":-0.03062613162313867,"26":-0.08870401837236466,"27":-0.02049887820407965,"28":0.04991068792435486,"29":-0.044432082908408756,"30":-0.03215252442460051,"31":-0.07477810885716489,"32":-0.041386888144048395,"33":-0.0471957865458201,"34":-0.13136322444500567,"35":-0.008198076386642163,"36":-0.09701049253404138,"37":-0.008611265653245197,"38":-0.11734166929471268,"39":-0.043468476828847025,"40":-0.056200620217567124,"41":-0.08436098286133768,"42":-0.057100928801558565,"43":-0.07824440512355942,"44":-0.11776426207686251,"45":-0.07146904832533656,"46":-0.09166292577689748,"47":-0.08941872693573454,"48":-0.07003047133391531,"49":0.04816706217899802,"50":-0.07614066906345421,"51":-0.007268299667142042,"52":-0.07355608809545061,"53":-0.04399581117349291,"54":-0.03082406759364124,"55":-0.14128495514499795,"56":-0.00823789162830788,"57":-0.16971871521476226,"58":-0.09598663804597624,"59":0.004052886736778123,"60":-0.031220068870470595,"61":0.007028113183683165,"62":-0.06960500027733875,"63":0.0004863373572407794,"64":-0.05670034347370727,"65":-0.038038399040860704,"66":-0.07714506712210974,"67":0.022064647149658823,"68":-0.13023376841708695,"69":-0.01657884365119751,"70":-0.09813918315062818,"71":-0.049638266114907924,"72":-0.017415472216082216,"73":0.008698568480535398,"74":0.009446936872481559,"75":-0.07731934362670623,"76":-0.023340147701513023,"77":0.0889216061219627,"78":-0.07557883946229987,"79":0.026154855700244013,"80":-0.05987315331017623,"81":0.033663178303587636,"82":-0.13839772487502033,"83":-0.0863360775330551,"84":-0.046111993116010344,"85":-0.047402219520033435,"86":-0.06848225614300389,"87":-0.005284448188722798,"88":-0.09389519853821383,"89":-0.08084902162355811,"90":-0.08805474335261376,"91":-0.012677313145756224,"92":-0.0841411440379375,"93":-0.05805174799005181,"94":-0.03570526202827112,"95":0.04122799110512924,"96":-0.030368744697377766,"97":-0.057485167719583424,"98":-0.13403637007970454,"99":-0.042158991862047836,"100":0.06212870112533421,"101":-0.08451634405551582,"102":-0.07671684126499824,"103":0.02254688828445301,"104":-0.03370173724629388,"105":-0.11656724930802524,"106":-0.048490108192352215,"107":-0.02038761683273234,"108":-0.04862136183990546,"109":-0.02793615208833624,"110":-0.012332732095209173,"111":-0.03458858195683566,"112":-0.06921401267482814,"113":-0.03615153251890983,"114":-0.16197339089191778,"115":-0.06936977707743393,"116":0.00034056202969364726,"117":-0.02432425382190886,"118":-0.026689821512994195,"119":-0.0398274509709619,"120":-0.014427413116271801,"121":-0.04315503876275281,"122":-0.058501690308687536,"123":0.05554979646904575,"124":-0.03617323285839607,"125":-0.08743108293716888,"126":0.07197222897120957,"127":-0.08195792616817113,"128":-0.026285313945562192,"129":0.01248467872754956,"130":-0.06559778135414748,"131":0.017286088465006108,"132":-0.004254382379353631,"133":-0.03648002830270456,"134":0.08396025281206707,"135":-0.11038112180782202,"136":0.053476803449528085,"137":-0.0026396851144045333,"138":0.004790808414728324,"139":0.008750858319926402,"140":-0.04554810303018272,"141":-0.05956503251290565,"142":-0.028171580355789354,"143":-0.03063980105966154,"144":0.03538919961404994,"145":-0.10296737285772571,"146":-0.07858925027127417,"147":-0.08172092876814112,"148":-0.021065271819746136,"149":0.05842746648005991,"150":-0.0905721963508098,"151":-0.1252408840107357,"152":-0.04290572728343369,"153":-0.09420757176196774,"154":-0.12862800764484042,"155":-0.1367260111928565,"156":0.005724620559153144,"157":-0.12213565912821953,"158":-0.0008011368358325509,"159":0.05794150120928139,"160":-0.027866633136297673,"161":0.07995424337386378,"162":0.05157958059730856,"163":0.03338735205849312,"164":0.029607260009515943,"165":0.04474399636172871,"166":-0.14442154342067287,"167":0.07035872809240382,"168":0.012209660869688593,"169":0.05629845951133615,"170":-0.08990936053293165,"171":-0.04388648534751708,"172":0.0016187761903956753,"173":-0.02860128881887522,"174":-0.12453614842744391,"175":0.13340698059501466,"176":-0.16832016870826869,"177":0.10496579492160835,"178":0.02752635847136556,"179":-0.006352378145228884,"180":0.018172156028085626,"181":0.053993479205522034,"182":-0.07285780957261992,"183":-0.060608884990710724,"184":0.03931353393752582,"185":0.0702111644291779,"186":-0.06230663687843511,"187":0.024848058064361935,"188":-0.059309766069645546,"189":-0.09284637482033511,"190":-0.1170178659235248,"191":0.03298656494904575,"192":-0.061708460916863786,"193":-0.020984359564065833,"194":0.003531877886252706,"195":-0.10508835360288298,"196":-0.011533389529261185,"197":0.03830260981666757,"198":-0.05078374914748764,"199":0.020746925655786563,"200":0.005731541646769075,"201":0.03476001303309259,"202":-0.06008305544968903,"203":-0.011618878379868205,"204":-0.059866189047732374,"205":0.00840458451958278,"206":-0.1053831616676161,"207":0.048359719958741214,"208":-0.026685277906709808,"209":0.017072539068956366,"210":0.11214589012180293,"211":0.0007644898425764251,"212":-0.023202195914108516,"213":0.03604717490936031,"214":-0.008658084801949779,"215":-0.021835177924922698,"216":-0.009355941902954811,"217":-0.046286969422016065,"218":-0.09346998681857002,"219":0.013938316886546329,"220":-0.09829768397174626,"221":-0.2479379563647473,"222":0.05967921515527461,"223":-0.012794487487114486,"224":-0.04571622676299006,"225":0.04820712804134724,"226":-0.0768485306176864,"227":-0.13328821351866424,"228":-0.07939785631199882,"229":-0.14210348415058724,"230":-0.11694762465357252,"231":-0.03327439384124001,"232":-0.11254648840677486,"233":-0.015448006149076484,"234":-0.06728126433035167,"235":-0.036939105369947364,"236":-0.01570742887685674,"237":-0.025190319810554158,"238":-0.03210916353924609,"239":-0.07294133962672264,"240":0.016784742450043615,"241":-0.012387848852306899,"242":0.0027920120088466716,"243":-0.04961576731378898,"244":-0.022490782520852085,"245":-0.12245543096618249,"246":-0.08332488015184013,"247":0.07365619846707651,"248":0.005683526132808831,"249":-0.07120512135270832,"250":-0.02813978777002042,"251":0.008201996455417497,"252":-0.04107715080109012,"253":0.15666226303104946,"254":-0.04157751947531227,"255":-0.017707336318984118,"256":-0.04250800257458536,"257":0.0050314038378505834,"258":0.02903469098976383,"259":-0.0848544350525541,"260":-0.05678554984880732,"261":-0.08011842530632352,"262":-0.0367012682386227,"263":0.05183591143211697,"264":-0.0884380716214262,"265":-0.0559797664957474,"266":0.06803835045954552,"267":-0.07151865349315539,"268":-0.05384334994349734,"269":-0.07519700826066317,"270":-0.11246171377401132,"271":-0.04786119373331355,"272":-0.012468755434831709,"273":0.0691679629680311,"274":0.043163225703632985,"275":-0.000801258259477905,"276":-0.01594398620550283,"277":-0.056790789249102316,"278":0.045323154797450714,"279":0.00784238194103142,"280":0.029743624701686015,"281":-0.0860396492780765,"282":-0.036044533708094226,"283":-0.05075679145549566,"284":-0.023199913900183413,"285":-0.0749711918313879,"286":-0.10040867558738854,"287":0.010050437622295275,"288":0.0063424167262459375,"289":0.024794284725216144,"290":0.04258293698205474,"291":-0.03752367559139301,"292":-0.034640790899621285,"293":-0.01777502888966355,"294":-0.018608445806968462,"295":0.061151617638241444,"296":-0.05734117811027431,"297":-0.04721068938367732,"298":-0.09155154592875488,"299":0.00029174762721768835,"300":-0.07273024835364773,"301":-0.13011808730049498,"302":0.03697910249173823,"303":-0.02652189791023964,"304":0.07037143319045716,"305":-0.03616601746959523,"306":-0.0399845056665155,"307":-0.1466395724185384,"308":-0.06051782375831223,"309":-0.013899176795753622,"310":-0.03707817987476577,"311":-0.08904074605159172,"312":-0.01832537799659559,"313":-0.12545219817941886,"314":-0.03642396662249697,"315":-0.07072047432263902,"316":-0.0247214529965823,"317":0.01308836177457687,"318":-0.09042201320720533,"319":-0.10802924918821623,"320":0.010676863779990218,"321":0.05892057886985752,"322":-0.005185493796764424,"323":-0.041125204457144834,"324":-0.049718605092088065,"325":0.008052944620791291,"326":-0.06167761807648936,"327":0.038605194517346474,"328":-0.019847582871772365,"329":-0.06772834463697318,"330":-0.005038163246385947,"331":0.024919042259342376,"332":0.005184682948840135,"333":0.01239951578244115,"334":-0.12278509611597707,"335":-0.02656998758843219,"336":-0.05218945722231918,"337":0.006612769882807793,"338":0.0065887888877814065,"339":-0.08976287684180422,"340":0.01910064476816479,"341":0.01895501440985334,"342":-0.012718849296767669,"343":-0.020311540377829788,"344":-0.019817730677622724,"345":-0.0031729458336064776,"346":0.01813868262246929,"347":-0.05464748863370612,"348":-0.1316786971364771,"349":-0.04444174237798692,"350":0.01884214373411704,"351":-0.05504929464443558,"352":-0.019023074643273536,"353":-0.05020123047219021,"354":-0.048961632495652024,"355":0.027106979061709086,"356":-0.04093166441653612,"357":-0.06999537493067151,"358":-0.11711920898415026,"359":-0.017160614949975925,"360":-0.026821096054524124,"361":-0.029688492491911994,"362":-0.0058851655810634096,"363":0.0001807740056189173,"364":-0.07054337642153531,"365":0.01265251648095095,"366":-0.03186550399667408,"367":-0.07363218556757856,"368":-0.01408940939031466,"369":-0.028724873566255776,"370":-0.1321013958376459,"371":-0.02773913973454408,"372":-0.0002274776369034789,"373":-0.012911567804633515,"374":-0.020372550066759938,"375":-0.07352867038311821,"376":-0.023864632851275342,"377":-0.11356003144503192,"378":0.0005171781706108458,"379":-0.0781927236328982,"380":-0.03972379439636897,"381":-0.014271918149089048,"382":0.020401011083818595,"383":-0.03144556894543138,"384":-0.04835895535078984,"385":-0.027914150949339196,"386":-0.040704524621971966,"387":-0.0853604746581667,"388":0.021202732601734078,"389":-0.12139957048895172,"390":-0.01232399977586153,"391":-0.05127628276084414,"392":-0.10875508205344055,"393":-0.1161734862247087,"394":0.0099709936596342,"395":-0.11697006865153144,"396":-0.0018841181164048436,"397":-0.03659833685690941,"398":-0.09071832721026163,"399":-0.019577477440942924}},{"sx":5,"sy":5,"depth":16,"w":{"0":0.09775912044421088,"1":0.1565770700484466,"2":0.008544153200730343,"3":0.04315269979083112,"4":-0.15022979317189558,"5":-0.08296697530412818,"6":-0.17633122620066927,"7":0.0797644936933188,"8":-0.29332903869242266,"9":0.038442805057566795,"10":-0.05658114223813063,"11":-0.2678086426148577,"12":-0.06591294972534514,"13":0.13214392858135532,"14":-0.05463755806042715,"15":-0.13932681021351367,"16":-0.011397043465421456,"17":-0.12847539694854845,"18":0.10217731839186082,"19":-0.04768443940234475,"20":-0.21621009197532495,"21":-0.13046621773570738,"22":0.09670762866733279,"23":-0.02585270789897734,"24":-0.29034994290734384,"25":0.0891818557256667,"26":0.03805059842368847,"27":-0.34035647854634826,"28":-0.27427181749254154,"29":-0.09323364967584678,"30":-0.13823815112054907,"31":-0.07513078815501346,"32":0.04505563897689641,"33":0.06337631744326103,"34":0.031278154602252396,"35":0.020353196787329594,"36":-0.22374815808665632,"37":-0.09045898135420999,"38":-0.08530712046989349,"39":-0.021672146569633496,"40":-0.1544094074980252,"41":-0.025133984272005677,"42":-0.12219358567993434,"43":-0.2148905091704469,"44":-0.191812252761521,"45":0.05006086091577078,"46":0.0404284992300805,"47":-0.03818638739957599,"48":0.06304391577413164,"49":-0.0691056036906381,"50":0.020591743474809902,"51":0.01950059430365872,"52":-0.17530220002000194,"53":-0.29884536876191486,"54":0.07687486572625818,"55":0.011084356842414258,"56":0.17283414505219463,"57":0.014916948931973905,"58":-0.06523874698213687,"59":-0.3118059714799646,"60":-0.025225633152924438,"61":0.01334835801594514,"62":-0.08609651965395791,"63":0.0181142256142621,"64":-0.02589915302748303,"65":-0.07449185322909396,"66":-0.006745264640993751,"67":0.08351148783925506,"68":-0.11745946233108213,"69":-0.10150455483671139,"70":0.05020007706718773,"71":-0.09825591369073894,"72":0.10576884379709305,"73":0.09855595549502236,"74":0.05341533030764047,"75":-0.014166071460822854,"76":0.1401955308592462,"77":0.012259721172681341,"78":-0.08263523138600432,"79":0.0740744463511287,"80":-0.07173610034712675,"81":0.00905009763824283,"82":0.0766901531147058,"83":-0.050578315172026087,"84":-0.11541823821785477,"85":-0.2474507225871878,"86":-0.11488798907863615,"87":0.15737847521619652,"88":-0.19419649937820127,"89":0.14436606643906885,"90":-0.026925899932576856,"91":-0.2568034570722386,"92":-0.21734510537449717,"93":0.09252128408111898,"94":-0.29914852295539496,"95":-0.11149042421965771,"96":-0.1483707302752109,"97":-0.07060196623605385,"98":0.01842810805772225,"99":-0.23108746627233484,"100":-0.07069545991224507,"101":-0.25813996389763294,"102":-0.019307532613136523,"103":0.036729315787063344,"104":-0.23240906067686343,"105":0.02301908768428869,"106":-0.1363100717425329,"107":-0.406036138721483,"108":-0.24247894717338228,"109":-0.1025883336222133,"110":-0.20424131528211262,"111":-0.1710164971809019,"112":0.02194295224418182,"113":-0.12621264376887822,"114":0.10798782682704638,"115":0.0034311304212701417,"116":-0.05509308470062915,"117":-0.1416506201522594,"118":-0.04253107523479145,"119":-0.1252332481338953,"120":-0.20540549771728628,"121":-0.04758664763005207,"122":-0.08645118305139003,"123":-0.11069367994176667,"124":-0.17480158051935085,"125":0.05520817777131244,"126":0.008515865502898963,"127":-0.21606232868831649,"128":-0.11233306235702581,"129":-0.08763650212783189,"130":0.09302984287605713,"131":-0.09953410294067036,"132":-0.10980959794419413,"133":-0.16799016589653393,"134":-0.09999513608057675,"135":-0.034458637142845694,"136":-0.03682181299556677,"137":0.0797395919255948,"138":-0.07890290624349165,"139":-0.31079127261400596,"140":0.019708944083532257,"141":0.053903726329597,"142":-0.10575437205193096,"143":-0.13001745987523614,"144":-0.12138519612677064,"145":-0.16980579904840745,"146":0.1817393940410547,"147":-0.11949844033835288,"148":-0.041944807814171606,"149":-0.033095762231442505,"150":0.1055649101621531,"151":0.05989258374812821,"152":0.05046934607225621,"153":0.0504028976218652,"154":0.1446457121101652,"155":-0.018910154837743293,"156":0.17790644104607106,"157":0.03187219686600651,"158":-0.12955561723223857,"159":-0.011877287122113946,"160":0.10868843042154341,"161":-0.16543323319820932,"162":0.08083047445091304,"163":-0.04301400265863756,"164":-0.17513771751467055,"165":-0.23670421864118155,"166":0.028610239997737593,"167":0.14573299559574268,"168":-0.2890321037234906,"169":0.10603125171485549,"170":-0.1118271827947468,"171":-0.014709992066023718,"172":-0.17402541549304548,"173":0.07828310826672966,"174":-0.18454438507621226,"175":-0.22795030680429543,"176":-0.00805023512161015,"177":-0.08462875044785126,"178":0.058876851696863644,"179":-0.13759963352439614,"180":0.05177720654713947,"181":-0.3035530872191543,"182":-0.04429859337590433,"183":-0.04038081124466221,"184":-0.23666436674543853,"185":-0.05542176633653117,"186":-0.17498275442341177,"187":-0.24831001734870164,"188":-0.16695861386500954,"189":-0.08522559629870562,"190":-0.2479653199802401,"191":-0.16367048776729834,"192":-0.06009619275998926,"193":-0.1100194655920423,"194":0.054918004740562715,"195":-0.2184326737711165,"196":-0.11956004611707796,"197":-0.26613018255798104,"198":-0.034115626624576824,"199":-0.07002030591435572,"200":-0.22413984173049278,"201":-0.009311333944550543,"202":-0.09286614467411465,"203":-0.23144800066547816,"204":-0.173313005154373,"205":0.03653639630034622,"206":-0.1028077992292533,"207":-0.16841145575117264,"208":0.02529230965004185,"209":0.03311798297706612,"210":0.02749012221781388,"211":-0.10474715533999815,"212":-0.06574938773809297,"213":-0.09548422413229225,"214":-0.08412722632347962,"215":0.03377406775402633,"216":-0.1407472718072258,"217":-0.023729064228046257,"218":0.001938708056653143,"219":-0.2752920348105886,"220":0.10141480401505701,"221":0.12946842473011155,"222":-0.21401246141785668,"223":-0.19027194785730023,"224":-0.06199243449288584,"225":-0.1655525207247488,"226":0.0723241028887908,"227":-0.020153111423075534,"228":-0.12967601065734405,"229":-0.09862833487268821,"230":-0.01415975022287174,"231":-0.010598255026875312,"232":0.037900516240712376,"233":-0.0018549827186273144,"234":-0.021788572676959432,"235":-0.0044744793269670775,"236":0.17151456741102464,"237":-0.02580577035411155,"238":-0.05957665568516991,"239":-0.015802751692792966,"240":0.13693885520006802,"241":-0.07646639782915163,"242":-0.019674837989799573,"243":0.05715630795918622,"244":-0.008503390993261103,"245":-0.17673394188588765,"246":0.1694898567302029,"247":0.1072102030612571,"248":-0.22423007183682053,"249":0.12302507912332533,"250":-0.011246165747871042,"251":-0.06794910259659985,"252":-0.1738493564128613,"253":0.072894269686168,"254":0.017890866297245296,"255":-0.21849267396555613,"256":-0.004321537273344378,"257":-0.06834961991567548,"258":-0.008024530573440606,"259":-0.14398793748779937,"260":-0.040384729751942176,"261":-0.13239591639080445,"262":0.08603474488526217,"263":-0.042080803690832946,"264":-0.21963115959488938,"265":0.0637053975232133,"266":-0.16119355974402572,"267":-0.12857596458278547,"268":-0.2776109222298202,"269":0.07390465201499467,"270":-0.11107583630008945,"271":-0.15139239369853827,"272":-0.14890868657989614,"273":-0.1697674272476901,"274":0.04849998466479232,"275":-0.09704580153197036,"276":-0.10403032209133874,"277":-0.16393790733639246,"278":-0.09813725940779724,"279":0.0508300619086235,"280":-0.11846236427769172,"281":-0.011312560789544806,"282":-0.03853790385500057,"283":-0.14458755452171562,"284":-0.11973139524125284,"285":-0.03783204977725959,"286":-0.1619697549551209,"287":-0.07210035874946322,"288":-0.14480060437715891,"289":-0.20837937483377023,"290":0.09093545767710348,"291":-0.21546958842336988,"292":-0.025126883749412705,"293":-0.06622014343248897,"294":0.06892788466190415,"295":-0.06780895316379965,"296":-0.08970673930947183,"297":-0.036041864985746665,"298":-0.13165715105205794,"299":-0.14613581616992968,"300":0.1017969613149983,"301":0.09349917438534507,"302":-0.16396676433888593,"303":-0.1265984416954291,"304":-0.25088197062073814,"305":-0.09610098597150031,"306":0.04887599908708552,"307":-0.02701635314486404,"308":-0.1677387593831373,"309":-0.11526968491656182,"310":0.005004890482994536,"311":0.19010167364824998,"312":0.036532436153152305,"313":-0.03478165651597959,"314":0.12783236626875424,"315":0.06376050377352718,"316":0.1463844753901005,"317":-0.0944719348521976,"318":0.04344650329088141,"319":-0.01104997494090501,"320":0.22102718900227977,"321":-0.021409216004340356,"322":0.014739646348687256,"323":-0.0028622831823440485,"324":0.11273959214360574,"325":-0.2022841541091015,"326":0.006171755503313973,"327":0.04127261648769654,"328":-0.16581449369631837,"329":0.08957982938394324,"330":0.016197104402779668,"331":-0.0699846750303516,"332":-0.1028728951320054,"333":-0.11026665871554364,"334":-0.052672753665901656,"335":-0.11500911939222652,"336":0.13886381010689086,"337":-0.15496084084208875,"338":-0.026059352676474766,"339":-0.17421171033434252,"340":-0.03067034609758075,"341":-0.2644965440988027,"342":0.20534039518817873,"343":0.009589230006406846,"344":-0.0816076113530355,"345":-0.04571211730990005,"346":-0.060655986992285436,"347":-0.11873318436730806,"348":-0.15806211418605268,"349":0.03856733245779119,"350":-0.07134448839733751,"351":-0.10712743369809366,"352":-0.057149637074508694,"353":-0.16281239646147397,"354":0.0011412398626576958,"355":-0.14827804119387533,"356":0.006955723633019966,"357":-0.16886742100686725,"358":0.15000203686102714,"359":-0.020413884596752155,"360":-0.255839448257219,"361":0.002185505655231986,"362":0.10404718736580926,"363":-0.16351699763168576,"364":-0.09025873602329788,"365":-0.030664258083746523,"366":-0.09893792777794276,"367":-0.07676565935416121,"368":0.01291273972379256,"369":-0.24798472149663386,"370":0.1284965169560766,"371":-0.14873002754527415,"372":-0.11182789409487295,"373":-0.1748025242015298,"374":0.16554766981120944,"375":-0.05775372484464818,"376":-0.07231857928248621,"377":-0.18044101059532247,"378":0.05851006730946037,"379":-0.16671546242030066,"380":-0.006604931067894751,"381":0.12040679180121652,"382":-0.1503245715728261,"383":0.030634271011674954,"384":-0.011119684734296913,"385":0.00407633326984777,"386":0.10364276249306868,"387":-0.012291650138414052,"388":-0.1684319875253625,"389":-0.20691008612617298,"390":0.06639441157610874,"391":-0.013557992946265751,"392":0.015516383580817429,"393":0.04488516904460593,"394":0.11795094472196481,"395":0.006573929517997052,"396":0.0874264540730485,"397":-0.08622421420408494,"398":-0.15327158578341396,"399":0.014831083636409736}},{"sx":5,"sy":5,"depth":16,"w":{"0":-0.0009525576982188287,"1":-0.005262418755805198,"2":-0.054115446915369556,"3":0.023358107593800085,"4":-0.018810131841952484,"5":-0.03241495363600802,"6":-0.07637784164873898,"7":0.033173480625557784,"8":-0.04525618089429703,"9":-0.016639279376183886,"10":-0.021999296685547138,"11":-0.10360574852196527,"12":-0.09230706169221893,"13":-0.05927567266332432,"14":0.06948166202406858,"15":0.0049561865648662835,"16":-0.070948380208732,"17":-0.09360766991527214,"18":-0.07692175895404069,"19":-0.06778596249838006,"20":-0.07052859521620876,"21":-0.016867133126302246,"22":0.013415362559678554,"23":0.00736932635598465,"24":0.11173234488589184,"25":-0.059849392881980865,"26":-0.02439943562141958,"27":-0.10097071900579471,"28":-0.11174399129985922,"29":-0.06209753634531485,"30":0.037287218097284636,"31":-0.0440933489209239,"32":-0.06876162131234369,"33":-0.12332528491365606,"34":-0.09633705191479242,"35":-0.07285524947136184,"36":0.0051397344158402025,"37":0.055482686062575136,"38":-0.04066317097285334,"39":-0.03621179083405017,"40":0.027668869553105605,"41":-0.08927905453341711,"42":0.039428335644974076,"43":-0.03899285705001747,"44":-0.03656234529138454,"45":-0.08485584406803082,"46":0.0620852031338853,"47":-0.12579552133527272,"48":-0.09631205360700133,"49":-0.05673822153447062,"50":-0.18715268006331123,"51":-0.015254633439771502,"52":0.051277302796792205,"53":-0.09947763573534556,"54":-0.043305382358516824,"55":-0.12403170332355307,"56":-0.11518535400320831,"57":0.008656369445186324,"58":0.02767682501433017,"59":0.0067892185679219955,"60":-0.09095121225767391,"61":-0.05381571071293683,"62":0.037728808182720536,"63":0.024378975525137136,"64":-0.020940929670054308,"65":-0.0486162830272977,"66":-0.1944740264517355,"67":-0.023204617953746513,"68":-0.008281034953198364,"69":-0.014161105082692145,"70":-0.12038498750006929,"71":-0.007046614709557452,"72":-0.08359992756098615,"73":-0.004251919596791533,"74":-0.19982004806170878,"75":0.05550779651605935,"76":-0.04895035869223312,"77":-0.07613118024422003,"78":-0.03455431484921775,"79":-0.021009275855862736,"80":-0.07753323118402122,"81":-0.10241839589403723,"82":-0.035141681130609725,"83":0.11396472326795928,"84":0.008387589960951621,"85":-0.026777762216815746,"86":-0.043639609619667764,"87":0.008167952430427283,"88":-0.07222516228567956,"89":0.12680407832610588,"90":-0.07308780626689529,"91":0.014633465276252193,"92":0.007605644663814006,"93":-0.11634812706312742,"94":0.05344449071575641,"95":-0.06954726897723128,"96":0.017125869124658313,"97":-0.07643426230412985,"98":0.05394739636358165,"99":-0.17857747924416606,"100":-0.03981946496938236,"101":-0.050226212290403686,"102":0.05351904521984672,"103":-0.016553628497031,"104":-0.02749929606066623,"105":0.10591632857238216,"106":-0.0653949188739316,"107":0.016668715013104695,"108":-0.022478838688161234,"109":-0.18270319966077608,"110":0.0692132326038584,"111":-0.08961167713101593,"112":-0.15651411817437383,"113":-0.10743380667674851,"114":-0.10115499349681566,"115":-0.08371029876046156,"116":-0.012527773268937491,"117":-0.005101217249098185,"118":0.05061116098946606,"119":-0.14847420005100956,"120":-0.07579761419309186,"121":-0.013469777462631548,"122":0.053400772155603106,"123":-0.027186945808700968,"124":0.06790775715047001,"125":-0.01362465823961843,"126":0.04697504408048372,"127":-0.05329178546313171,"128":-0.09206601319111031,"129":-0.07393356685163106,"130":-0.21863528499441104,"131":-0.05419258093843786,"132":-0.1262420000782165,"133":-0.08787303095303665,"134":-0.05104138677099645,"135":-0.024887730288594097,"136":0.02459024338130924,"137":-0.03252195747967025,"138":-0.07402224129273258,"139":0.029992137046138206,"140":-0.0896635455419808,"141":-0.04949430125469952,"142":-0.0453531441929864,"143":-0.09673987265259842,"144":-0.09595013797140198,"145":-0.06391437121059929,"146":-0.13755405446185956,"147":0.010996152429171483,"148":-0.03836950249637674,"149":-0.002370907594817227,"150":-0.06256515134567954,"151":-0.10364504160037447,"152":-0.029072785172481207,"153":0.051571205809623585,"154":-0.01820272719877934,"155":-0.03417632075055306,"156":-0.07460723949247823,"157":0.003946235558718214,"158":0.027517678080908752,"159":-0.010573781715235351,"160":0.08082523118189715,"161":-0.14735310322821177,"162":-0.009481273490707143,"163":0.08732259145999262,"164":-0.09398340354870582,"165":-0.032432162772817026,"166":-0.07248604982555742,"167":0.0977775934137744,"168":-0.05614118432162722,"169":0.10111509328862976,"170":-0.007251625188259472,"171":-0.09305951499542336,"172":-0.0068135418556476215,"173":0.03209336493649517,"174":0.0909458793851894,"175":-0.09564327657600084,"176":-0.08171612200501105,"177":-0.03646031139565205,"178":-0.04897538100265198,"179":-0.003418935200469766,"180":-0.05440012067511868,"181":-0.0642088433172448,"182":-0.05851203848434444,"183":0.09078367018786945,"184":-0.03974413948432344,"185":-0.034542782618572146,"186":-0.07385537386638837,"187":-0.053075124338951084,"188":-0.0867003756190817,"189":-0.12279699683515923,"190":0.07722300086846469,"191":-0.08356376007298896,"192":-0.03308663909359093,"193":-0.02867685067173632,"194":-0.08538553689822817,"195":-0.04230406824943875,"196":-0.08834498530427258,"197":-0.07845249701112271,"198":-0.0013707520944646896,"199":-0.1110886157979862,"200":-0.17992199712942472,"201":0.025306789192615992,"202":-0.025580110947212627,"203":0.003984689997403402,"204":-0.027898175204259967,"205":-0.0015808518476186748,"206":0.06420817938661465,"207":-0.06602799544606877,"208":-0.01579231173065836,"209":-0.04703090045876464,"210":0.006336077415343856,"211":0.002736378898541583,"212":-0.04039382824115428,"213":-0.03477369476318765,"214":-0.13079344734315165,"215":-0.08707163032945091,"216":0.013950155399155315,"217":-0.07122874875026439,"218":-0.09711419245684083,"219":-0.07542882773549407,"220":-0.098372307064216,"221":-0.010412255574690015,"222":0.03152248690473481,"223":-0.08577171589311797,"224":-0.035246114930454174,"225":-0.08512156379274766,"226":-0.015079053194591721,"227":-0.09659834510193137,"228":-0.0052786848387230785,"229":-0.03992425597550635,"230":-0.0641047576766635,"231":-0.09186838609557903,"232":-0.1112496524619533,"233":0.08988377677999441,"234":-0.2177911289572815,"235":-0.026658095560644697,"236":-0.05733519164457432,"237":-0.10908245182437537,"238":0.0036229349577179505,"239":0.03007898104008917,"240":0.013007974995714898,"241":-0.06880817677314176,"242":-0.06552428616408167,"243":-0.0652095313846081,"244":-0.04178396873576715,"245":0.03006835755138549,"246":-0.07781572036484123,"247":0.11831258444896904,"248":-0.10655737208333776,"249":0.16948384072337708,"250":0.01998902802798917,"251":-0.055824618707823175,"252":-0.12624002369003812,"253":0.09985196691367747,"254":-0.10097355157670528,"255":-0.138602895351234,"256":-0.033625859840828005,"257":0.003166065855327676,"258":0.004856139572242736,"259":-0.13965759717246462,"260":-0.0034146659777879564,"261":-0.03213879103461948,"262":-0.00478018476456483,"263":-0.05885186559770619,"264":-0.08112620269662074,"265":-0.06319911609624189,"266":-0.13186872672605054,"267":-0.025294841819804004,"268":-0.040288088921812196,"269":-0.07156085453530805,"270":-0.06203105008991532,"271":0.02015083191305492,"272":-0.11600669317415584,"273":-0.08679542244193333,"274":-0.1791407868468865,"275":0.0040024586380764775,"276":-0.02767764676877096,"277":0.01377135647510234,"278":-0.036262204439784236,"279":-0.14320392196366627,"280":-0.17358400859435716,"281":-0.1134809052779177,"282":-0.042117265267603385,"283":0.07396855045101586,"284":-0.027558350307963598,"285":-0.07341361900367663,"286":-0.025302225007123744,"287":0.053765258651979425,"288":-0.02001129078087794,"289":-0.15512627138432097,"290":-0.06587329440576399,"291":-0.019131800870173795,"292":-0.10268626660309733,"293":0.015842152522658026,"294":-0.17286775320197548,"295":-0.11431194129725265,"296":-0.04176777861775088,"297":-0.04919047333353027,"298":-0.012386731859993342,"299":-0.003635604371198002,"300":-0.11114691563084884,"301":-0.1328745742216656,"302":0.0028083004269056607,"303":-0.07784856565715358,"304":-0.1178723197782243,"305":-0.033230604044839074,"306":0.014375442064089718,"307":0.0017125864647075325,"308":0.008701407571988562,"309":-0.001401932369383798,"310":-0.14837805191134548,"311":-0.04742595444175151,"312":-0.08367022044924513,"313":0.010207896123353892,"314":-0.1366723792273918,"315":0.06264021189202809,"316":-0.08619290750154147,"317":-0.01524014327532525,"318":-0.054615992570229026,"319":-0.15416227055284124,"320":-0.06787380000448383,"321":0.019713563281383913,"322":0.07250695049091686,"323":-0.0406462243802842,"324":-0.005180480921935099,"325":0.010623634385961629,"326":-0.03406962320378948,"327":0.10618176970679923,"328":0.008950093906503061,"329":0.13687979796272562,"330":-0.1992296697341692,"331":0.042493721487181065,"332":-0.14509433442675151,"333":0.12924691637516547,"334":-0.020703667334578135,"335":0.0016794127753613638,"336":-0.008483879341931275,"337":-0.029338408504195834,"338":0.03473357649003304,"339":-0.0133586884897601,"340":-0.03816867461640004,"341":-0.03351765713794664,"342":-0.1083754285382302,"343":-0.08892024255358062,"344":-0.046102053648439764,"345":-0.11131572659930122,"346":-0.05487918008368136,"347":0.05280265034447102,"348":-0.025880907551269473,"349":0.025616592985225135,"350":0.05571340964804561,"351":-0.015397985376512205,"352":0.09112252485148455,"353":-0.09119891632150871,"354":-0.029344631340404246,"355":-0.02867506831845532,"356":-0.04893023999843304,"357":0.017137304978360243,"358":0.07414595351066344,"359":-0.06367356646419164,"360":-0.22216552361974778,"361":-0.07876259421376036,"362":0.011143740944961586,"363":-0.006886698503415508,"364":-0.03314738493155812,"365":0.056461768217730635,"366":0.02858303361414256,"367":-0.10164237048284193,"368":-0.05609724434815472,"369":-0.11939548870481297,"370":-0.004741665430455299,"371":0.003225267941106413,"372":-0.046367673316189816,"373":-0.022364350073726072,"374":0.08106152912104626,"375":-0.09496117621425187,"376":-0.06478333376756262,"377":-0.051041272896204734,"378":-0.09254782377667121,"379":0.004957933850007268,"380":-0.09013047577249184,"381":-0.016316854643915885,"382":-0.05617320711149402,"383":-0.010710436679811725,"384":0.0729098768466249,"385":-0.06604412194389785,"386":-0.02499984805080671,"387":-0.013008325838075274,"388":-0.04495902735821259,"389":-0.036476405608748826,"390":-0.15765200311080668,"391":-0.049303482048011917,"392":-0.02766186746217608,"393":-0.047461566144177326,"394":-0.11321773001213133,"395":-0.007845233241820843,"396":-0.046696399632022254,"397":-0.03543081885503668,"398":0.018008557403525718,"399":-0.024215264880718953}},{"sx":5,"sy":5,"depth":16,"w":{"0":0.1134895599174605,"1":0.13532837426399758,"2":0.0007917260953332272,"3":-0.0030246142131810884,"4":0.09249831793408968,"5":0.15004837714715502,"6":-0.06925870721772198,"7":-0.00987971677410155,"8":0.01050093328862667,"9":0.005276714742588157,"10":0.001619674644901453,"11":0.04365760587111035,"12":0.06475542233481062,"13":0.07575573538282371,"14":0.009165097866260321,"15":0.15683783698911924,"16":0.0046850671688897436,"17":-0.11527654683504394,"18":0.037468553525498854,"19":-0.0734917720076004,"20":0.07269556162372237,"21":0.00744152380129098,"22":0.06770411188782975,"23":-0.07307912032558495,"24":0.02396522200304123,"25":-0.04589204203660822,"26":0.01325358587343908,"27":-0.056157789463827656,"28":0.07459737381371705,"29":-0.06665285489944298,"30":-0.08999502620844606,"31":0.02568656404948762,"32":0.06522522545910882,"33":-0.06765174845278489,"34":-0.025472686587150604,"35":-0.07236454612159537,"36":0.06352707766154682,"37":-0.005149898837106058,"38":0.13787296092677925,"39":0.009256264758353866,"40":-0.03236440049858645,"41":-0.04363823098291037,"42":0.01691096019495278,"43":0.051439694896324696,"44":0.08127378575283556,"45":-0.052245216094407874,"46":-0.07801931037075603,"47":0.06182932513126158,"48":0.1805512647168462,"49":-0.031785577559181176,"50":-0.013231864735034878,"51":-0.09315674243169753,"52":-0.08078983169168621,"53":-0.12454084219404457,"54":0.006482188233290731,"55":-0.09018646098119708,"56":-0.05878402811956081,"57":-0.15121896452715086,"58":0.0635252192531472,"59":-0.11328438602423702,"60":0.03180480989625828,"61":-0.10566605949838871,"62":0.03147189487998871,"63":-0.0914310624402022,"64":0.18735429897247308,"65":-0.07535540377448184,"66":0.010482902967403934,"67":0.11724634669977754,"68":-0.06759817760523602,"69":-0.23767740698484668,"70":0.09369294897794755,"71":-0.026045656415353526,"72":-0.13331277165622907,"73":-0.10466243194219976,"74":0.09590000002251567,"75":-0.027011193808588983,"76":0.07658677516450765,"77":-0.005507827239621154,"78":0.05876089033846055,"79":-0.14319466640389786,"80":0.015267572648125333,"81":0.12060060482455044,"82":-0.09151249148497596,"83":0.11146857855648538,"84":-0.04840550637779441,"85":0.22722923084023636,"86":-0.019251571355729996,"87":-0.025994522346136424,"88":-0.0094810659999548,"89":0.043945970545535326,"90":0.016593977454061735,"91":0.07984201991297757,"92":-0.05178989157725294,"93":0.07542770836605873,"94":0.028373443538590327,"95":0.23770767919810992,"96":0.0819698939659797,"97":0.14494798038164908,"98":-0.06143425075556132,"99":-0.014851452067878933,"100":-0.04500360779278064,"101":0.1613431298249865,"102":-0.02384701500710197,"103":-0.13557020433644998,"104":0.025483972085582583,"105":0.02267651608902217,"106":-0.030883585157649253,"107":0.040505970844089134,"108":-0.07578622924162338,"109":-0.14059173663137206,"110":-0.04160857700595039,"111":-0.016045171662725764,"112":0.053157361342447994,"113":-0.08827619959778497,"114":-0.0009786572199225313,"115":-0.08275565876826742,"116":-0.03286832171882237,"117":0.004472021162839161,"118":0.08455400340262176,"119":-0.080011507289821,"120":0.06833358390834586,"121":0.09197746181698024,"122":-0.062416056690372236,"123":0.0027800937175739065,"124":-0.07045919292719788,"125":-0.09776858796494944,"126":0.0016770444083901164,"127":0.06074734177355161,"128":0.17592522301320992,"129":0.035764919238374285,"130":0.010191156174617796,"131":-0.04437167210944018,"132":0.049429693763715345,"133":-0.03668662663694125,"134":0.0658395308612888,"135":0.04193839369257174,"136":-0.09426769763330207,"137":0.0386855779928059,"138":-0.043920678436667145,"139":-0.09137080763048508,"140":-0.09695425643000166,"141":-0.17696595623132857,"142":0.10642414955445306,"143":0.07643177832372396,"144":0.21781910275928648,"145":0.042859465693969395,"146":-0.04549012856103123,"147":-0.12920365254728278,"148":0.0938683246664092,"149":0.05763826451420015,"150":-0.12048942700841692,"151":-0.07067495907565137,"152":0.05675344875462211,"153":-0.04859068384693087,"154":0.049057596396107295,"155":0.006924658426542253,"156":-0.03372662530987214,"157":-0.0661716193049254,"158":-0.055941399122975216,"159":-0.003908423534339008,"160":-0.07778846270719834,"161":0.1641312419966757,"162":-0.16788300966430644,"163":0.14256327006625302,"164":0.08922072218454262,"165":0.20156235852789633,"166":-0.08997687731257721,"167":0.11074300934506198,"168":0.022965030348474646,"169":0.13219979014817618,"170":-0.027165822638424025,"171":-0.11008862854973339,"172":-0.05833148971810543,"173":0.15015264420377855,"174":0.23150930394014194,"175":0.16477854314095838,"176":-0.16241012832798782,"177":0.12307953380519757,"178":-0.1654350707885323,"179":-0.06164468892257925,"180":0.09088653060704752,"181":-0.0012985553823841429,"182":-0.2037203222092704,"183":0.048710894878526034,"184":0.12182404545903552,"185":0.10517048894551556,"186":-0.07795851622346227,"187":-0.1665475486148647,"188":-0.1037003816308018,"189":-0.05339831528724446,"190":-0.021462192256581226,"191":0.050755024174169154,"192":-0.10821658044471918,"193":-0.07622786696304117,"194":-0.030309731276120706,"195":-0.08027680905506128,"196":0.05280954654677871,"197":-0.07340553475515992,"198":-0.15365069481548618,"199":-0.0011637275222291122,"200":0.05366042456531108,"201":0.06225402224996169,"202":-0.1151339452862171,"203":-0.07505641509361671,"204":0.027139978272325217,"205":-0.027956297572857624,"206":-0.05214466950621298,"207":-0.04778153581110972,"208":0.06432891329320248,"209":0.09956544862348625,"210":-0.051247801877366064,"211":-0.00748069321044002,"212":0.0886414010811821,"213":0.03242832363410997,"214":-0.035464949237819676,"215":0.11508227898130514,"216":0.06478948585627164,"217":0.06509211056030051,"218":-0.12292717457966379,"219":-0.020440607611913547,"220":-0.06709505246622641,"221":0.03525490845075088,"222":0.1064409031579432,"223":-0.02861114268876403,"224":0.010972863355847698,"225":0.1974340653368039,"226":-0.060598411941277554,"227":-0.02541511266455212,"228":0.019839664798953684,"229":0.10157362588238852,"230":-0.0737674574713047,"231":-0.03853355755206139,"232":0.06762227046637284,"233":0.12423469981070555,"234":-0.06491289388419752,"235":0.0038834613708172466,"236":0.014155118909151335,"237":-0.08015731103782296,"238":-0.01289267636196287,"239":-0.032311380453354056,"240":-0.15949650363881313,"241":0.10716434054355276,"242":-0.24668139576792944,"243":0.015553342320064606,"244":-0.07261849509353195,"245":0.07826091953120046,"246":-0.25012117285517504,"247":0.023125509031182146,"248":-0.10743092210953842,"249":-0.012508668465713142,"250":-0.13707310214376803,"251":-0.072541410053847,"252":-0.011629811664886362,"253":-0.0008399847207348223,"254":0.008726024228852226,"255":0.008051120801708786,"256":-0.2352055613514524,"257":0.06671167535281135,"258":-0.04851925068102228,"259":0.010557038329123577,"260":-0.20342633106682723,"261":-0.1390541473275659,"262":-0.1597937806886944,"263":0.04492031074213158,"264":0.020273613156148312,"265":-0.017283578332659668,"266":-0.07876396460107721,"267":-0.07045643639630408,"268":-0.1486853217570598,"269":-0.13598799072198775,"270":-0.272742011964105,"271":-0.10410103501443226,"272":-0.10201550206662915,"273":-0.09123827861655343,"274":-0.11672723710517895,"275":-0.11695767854971316,"276":-0.0437004386538178,"277":-0.24865728060013784,"278":-0.07776245645583617,"279":-0.013939145669875473,"280":0.04210579257774454,"281":-0.10859074626978286,"282":-0.10576685593214917,"283":-0.05982663306077964,"284":-0.08618094807530334,"285":-0.16031585017130007,"286":-0.21729139763011757,"287":-0.10040531675576879,"288":-0.027991925645104353,"289":-0.11785031152235508,"290":-0.0778731963598525,"291":-0.16679561370166518,"292":-0.14121952115090985,"293":-0.03820264778912601,"294":-0.026029934913096832,"295":-0.15227625352197957,"296":0.02360594780705982,"297":-0.05268097786149462,"298":0.025120020416154215,"299":-0.10621768607191194,"300":-0.07263144106600301,"301":-0.11905891238260444,"302":-0.015577568283288762,"303":-0.06207635070985553,"304":-0.10422742975297489,"305":-0.07151743776288676,"306":-0.07654076649352506,"307":-0.21514530767072917,"308":-0.09855725127283937,"309":-0.07003327449517859,"310":-0.11318358680809205,"311":-0.011142431168462256,"312":0.05719829751958831,"313":-0.11207906204206963,"314":-0.04363266589896227,"315":-0.006478793608452915,"316":-0.026204722564487845,"317":-0.15600560771323452,"318":-0.11046401420301036,"319":0.07046888477126861,"320":-0.016734768752545055,"321":-0.07821376992260534,"322":-0.08610625130869652,"323":-0.10194834529132403,"324":0.06050414407006141,"325":0.0953933453780712,"326":-0.07079947569152889,"327":-0.009486301811641937,"328":-0.049184744858201346,"329":0.22722955149622134,"330":-0.1581281618770296,"331":-0.07469956492763746,"332":-0.09693308739564614,"333":-0.004339219799187987,"334":0.03860633345844568,"335":0.03192508289214912,"336":-0.11878792201653092,"337":-0.10558526447538437,"338":-0.117161708988211,"339":-0.0187695198467291,"340":0.02688971053203073,"341":-0.045192652512408595,"342":-0.14572908809106686,"343":0.03761636263358881,"344":-0.12362229707378747,"345":0.007808828127564733,"346":-0.1658857661669432,"347":-0.015632298522665546,"348":-0.014295655370608897,"349":0.060693084147130275,"350":-0.01205388834020033,"351":-0.16323515001780828,"352":-0.2085814290505799,"353":-0.045033852484499794,"354":-0.034759376094381025,"355":-0.02985325849816315,"356":0.05034017454191096,"357":-0.13239295919600266,"358":-0.16177539192937412,"359":0.05064952779531655,"360":0.06324083847363618,"361":-0.05823750697104283,"362":-0.19483584546804256,"363":0.018517794183745443,"364":-0.0888979528705698,"365":-0.11389102651953652,"366":-0.04086698755658115,"367":-0.12223910550711063,"368":-0.20934720383717761,"369":-0.11660068729023719,"370":-0.02848374193818527,"371":-0.08734978764598239,"372":-0.1563826094793487,"373":-0.027982992120322774,"374":-0.09005077849805367,"375":-0.03832011252162885,"376":0.036832706877753786,"377":-0.10913212716901625,"378":-0.1651861014522939,"379":-0.06967582604305596,"380":-0.08287530290429812,"381":-0.005999889987574622,"382":-0.0948961336217027,"383":0.07818014420406155,"384":-0.0430997418871341,"385":-0.0746401402462699,"386":-0.11677314667437477,"387":-0.04013690661050703,"388":-0.06311612559095926,"389":0.0025643865582562777,"390":-0.057243809418287314,"391":-0.1617820047800742,"392":0.06434626629721842,"393":-0.13381975356585735,"394":-0.08047103865970795,"395":0.14918070978194597,"396":-0.04106902921285893,"397":-0.046785804870672826,"398":-0.05705335154276046,"399":0.005707091877975978}},{"sx":5,"sy":5,"depth":16,"w":{"0":-0.09934011955796673,"1":-0.14190713669067256,"2":0.02541049474364871,"3":0.13418352834185834,"4":-0.08915564501311038,"5":-0.05128389829169486,"6":-0.17070797071576962,"7":-0.07431971343767423,"8":-0.16548215413359776,"9":-0.1058478453350594,"10":0.0682744095779007,"11":-0.07147306418772242,"12":-0.03213167726904397,"13":0.09380834143638721,"14":-0.028588401871468282,"15":-0.3154929180364842,"16":-0.11937574555537937,"17":-0.17971962169327663,"18":0.03766770614424708,"19":0.08748070593550697,"20":-0.11444252770657325,"21":-0.18543358290167042,"22":-0.0771197594994639,"23":-0.04785218772753382,"24":-0.05800323168303877,"25":-0.05617247397405916,"26":0.06813688445365436,"27":-0.09144535382041993,"28":0.035369208353907555,"29":0.11531579360660263,"30":-0.19102366716816352,"31":-0.06876795060682654,"32":-0.03241495147875395,"33":-0.21842815944293512,"34":0.12027856460181077,"35":0.016182964716546552,"36":-0.12129309792749632,"37":-0.06334069172096066,"38":-0.08535741107978098,"39":-0.07479045356105452,"40":0.03548765928177923,"41":-0.18606549315258408,"42":0.08550294937417259,"43":-0.1066215035608934,"44":-0.06441917271531283,"45":-0.05450696422271287,"46":-0.04207154542632104,"47":0.01943148352050154,"48":0.06541950461204554,"49":-0.2683593922639984,"50":0.0982405982132201,"51":-0.11694681612469272,"52":-0.003774749295287391,"53":-0.10858721303553286,"54":-0.025211021649684497,"55":-0.12523313603531225,"56":0.07282964301055235,"57":-0.2467315480673078,"58":0.09569672601539675,"59":0.06347791671441008,"60":0.05272592891618741,"61":0.00015392577843062732,"62":0.05640797936187949,"63":0.05226772580885761,"64":0.0036219780540581083,"65":-0.03612936957347205,"66":0.011048134383929773,"67":0.037953258033613185,"68":0.05876514804752614,"69":-0.14657852625497905,"70":0.24409512191924482,"71":-0.0667943027795135,"72":0.12263333580652394,"73":-0.1771759092100248,"74":0.09934727553266774,"75":0.04611556737760617,"76":0.09128896031456105,"77":0.0364858286490713,"78":-0.08335563728379496,"79":0.12586141645408602,"80":0.05639448264119645,"81":-0.18980059368864366,"82":0.027229986515277582,"83":-0.029931632193056154,"84":-0.031514120330661505,"85":0.037949036807251355,"86":-0.06202874864404073,"87":-0.2522383386666155,"88":-0.20598193827511552,"89":-0.1992121600419294,"90":-0.04566483940974532,"91":0.12057084588471469,"92":-0.09079858786056204,"93":0.1794701017213822,"94":0.08208475957010185,"95":-0.11817989902390438,"96":-0.07266004343925761,"97":-0.050759877023899426,"98":0.040752119990090645,"99":0.026514546901448496,"100":-0.06658243982683781,"101":-0.09837259504791984,"102":-0.036049781976328535,"103":-0.027767126455718185,"104":-0.14320126070788547,"105":-0.3696859521395684,"106":-0.0024300064969544405,"107":-0.04952598693501885,"108":0.06632576103413032,"109":0.14252730013995563,"110":-0.019255079453155823,"111":-0.16521002090988868,"112":-0.15833226012201843,"113":-0.12754790151866902,"114":0.06064515513274595,"115":0.008958457761980147,"116":-0.10994396175026912,"117":-0.061315599510975996,"118":-0.07409854416190176,"119":-0.12091885212690169,"120":-0.028509958245673116,"121":-0.4052024433488373,"122":0.07999626609941411,"123":-0.016456527635832198,"124":0.03403280403085127,"125":-0.0917687420308319,"126":0.01742849350848078,"127":-0.06552192920223711,"128":-0.011745289074417216,"129":-0.14869385793722148,"130":0.06605570741587077,"131":-0.04578685477123538,"132":-0.022430078436001522,"133":-0.16517032494380826,"134":0.1705522602323036,"135":-0.046200520999335803,"136":-0.14050874682931666,"137":-0.28866131401575984,"138":0.00046768785960545376,"139":-0.049755326000408544,"140":-0.0857425361374682,"141":0.0029677536751060276,"142":-0.021486952145280246,"143":0.09280982332732764,"144":-0.00852477834517641,"145":-0.08323862347369564,"146":0.04721947396904265,"147":-0.026347607949733284,"148":0.13484321697391102,"149":-0.18513880421972984,"150":0.23928437901223212,"151":-0.16361590895446312,"152":0.08762974291333245,"153":-0.2447027096517586,"154":0.2021216302742152,"155":-0.13695596351431064,"156":0.1585273407885594,"157":-0.020992437885092856,"158":-0.08740518647649635,"159":0.11943882692572476,"160":-0.12223328916586618,"161":-0.1616970547751124,"162":0.0558764726672588,"163":-0.1392068422540671,"164":-0.06509637279291514,"165":-0.05993757467324228,"166":-0.07824284672797152,"167":-0.11531348395875252,"168":-0.23050184943528748,"169":-0.20002350196572538,"170":0.06835907291874017,"171":-0.013092580736598629,"172":-0.0443388855941565,"173":0.11197137213281264,"174":-0.07686988899059799,"175":-0.23122220810104382,"176":-0.10664387457819643,"177":-0.1609589458954895,"178":0.002098207699456009,"179":-0.06754818107438885,"180":-0.16711150721961193,"181":-0.006320978040837362,"182":-0.08790993558565101,"183":-0.22163545597814885,"184":-0.23234352952356363,"185":-0.3626324826241057,"186":0.015024465499037166,"187":-0.019161776581044454,"188":-0.09091749887538972,"189":0.18899241593344893,"190":-0.1669236518477121,"191":-0.3274121890455301,"192":0.09643417375433719,"193":-0.18515696907130655,"194":0.027253842725633057,"195":-0.008664612969829748,"196":-0.1781595324574963,"197":-0.06938777153507769,"198":-0.09901667141802628,"199":-0.14727785684091468,"200":-0.06005917624812771,"201":-0.27966142635680935,"202":0.10629260032704486,"203":-0.07111489657285709,"204":0.011567331508842642,"205":-0.10221210330640011,"206":0.025660896584104476,"207":-0.15972415702452022,"208":0.026156509863444866,"209":-0.21816407543918226,"210":0.03052567273588308,"211":0.0931756749043789,"212":-0.04863889564584515,"213":-0.10625091596374954,"214":0.05516368698136708,"215":-0.13391986316422572,"216":-0.03307206712123778,"217":-0.25408823183652446,"218":0.09568625931920818,"219":-0.2584723268952243,"220":0.08070003509328218,"221":-0.1284622564399112,"222":-0.08499026531697575,"223":0.009236025392089033,"224":0.19132522025119233,"225":-0.015749450836845133,"226":0.07734434463321667,"227":0.02594798751494826,"228":-0.1265054301787259,"229":-0.20410778402142774,"230":0.15852669748396517,"231":-0.10698998515714755,"232":0.017937539006066868,"233":-0.1227741875321168,"234":0.13615924720099598,"235":-0.1742842119104649,"236":0.05905081922257926,"237":-0.08833671001761684,"238":-0.018465162551264885,"239":0.08401311139623134,"240":-0.05115311380147044,"241":-0.18691587412162972,"242":0.10244598600484256,"243":-0.20401500915733464,"244":-0.04420596857935546,"245":-0.05747400303345859,"246":-0.06874575728746132,"247":-0.08538228969788024,"248":-0.13189421346453378,"249":-0.14924061805745478,"250":0.08026924681473534,"251":0.01435069223338347,"252":-0.0059845546991730055,"253":-0.0294946371979969,"254":-0.15456162850132363,"255":-0.04217335877993539,"256":-0.12358318802372463,"257":-0.15860454226748744,"258":0.003899839332107923,"259":-0.14412217972670513,"260":-0.1395998920814052,"261":0.041796706609634776,"262":-0.0022233497031539633,"263":-0.07656998514201817,"264":-0.1039326268995173,"265":-0.29294229923633275,"266":-0.03160709294403913,"267":-0.1867491915458774,"268":-0.0015958455388401537,"269":-0.014403900249386111,"270":-0.07690107958672883,"271":-0.3258371908207552,"272":-0.07277291189929355,"273":-0.1330927936069238,"274":0.15496285755718778,"275":-0.09105243544913656,"276":-0.19817581130871276,"277":-0.003917262249054946,"278":-0.007126132744144793,"279":-0.18949144750612848,"280":-0.05957951009665281,"281":-0.15514328350722184,"282":0.005807365307214694,"283":-0.043902698893841414,"284":-0.1145403228412331,"285":-0.1222929812869452,"286":0.043634356994877055,"287":-0.21315395116522456,"288":-0.11441193834805866,"289":-0.014433199248365213,"290":0.031154406419685865,"291":-0.08976340352555987,"292":-0.04339567533953175,"293":-0.13106402018827315,"294":-0.1527676831987995,"295":-0.08127548913386332,"296":-0.11251868746700017,"297":-0.0996887449151157,"298":-0.06063924049764124,"299":-0.13098055627827637,"300":-0.08894266313395267,"301":-0.12692328550555895,"302":-0.05166423298410124,"303":-0.0395541765645528,"304":0.02096338265754965,"305":-0.02754307370628815,"306":0.07617950466248269,"307":-0.1732519150440971,"308":-0.09485020486685672,"309":-0.07595568236939586,"310":0.013255214647405197,"311":0.09823976312839898,"312":0.04729902523585015,"313":-0.07629630029026262,"314":0.14864141770906023,"315":0.009577715820602656,"316":0.004986241613407186,"317":-0.15873078702872834,"318":-0.03675774303457266,"319":-0.041321910425160376,"320":-0.008648176520044178,"321":-0.08313086949791752,"322":0.03364329737316886,"323":-0.06136327982472374,"324":0.056928320173155335,"325":-0.015916545289404265,"326":-0.16619866341607148,"327":-0.1887152301991727,"328":-0.14188875084109248,"329":-0.07274772071805193,"330":-0.016644487065753787,"331":-0.04059375671493197,"332":-0.08876796683539454,"333":-0.20445519286995567,"334":0.04495005462281674,"335":-0.2168660459960224,"336":-0.06530130059177944,"337":-0.03733973811851501,"338":0.039868086824602855,"339":-0.09791949380886855,"340":-0.10742010729638454,"341":-0.2074187334213455,"342":-0.006392129091783672,"343":-0.02360791145096637,"344":-0.1263473175158873,"345":-0.07336922008596057,"346":0.014739641002588988,"347":-0.06080002231561421,"348":-0.21544199303457154,"349":-0.13104879269294048,"350":-0.0395512414877745,"351":-0.1781255713081059,"352":0.0007339120685014738,"353":-0.14222896091952428,"354":0.09222395500121122,"355":-0.07234272493153047,"356":-0.2079913640372726,"357":0.05431757497636177,"358":0.03777803698833555,"359":-0.11646815196461835,"360":-0.09114259500293265,"361":-0.0704940701139814,"362":-0.1608591394502186,"363":-0.13368091780428898,"364":-0.08327464756847243,"365":-0.16985654750899104,"366":0.026223352441521543,"367":-0.07163634136375874,"368":0.03564397596353385,"369":-0.07448227410983871,"370":-0.017012380578265218,"371":0.038686615284548205,"372":-0.030544662986049007,"373":0.00956265099128296,"374":0.03265784045852002,"375":0.008044918711305936,"376":-0.09587856716007045,"377":-0.029358137919799725,"378":-0.08582320160192997,"379":-0.07479459229802776,"380":-0.03601279523396958,"381":-0.0738771019062676,"382":0.011719267389223242,"383":-0.12759250383328796,"384":0.09228959083269908,"385":-0.07245229314765124,"386":-0.0537130125488174,"387":0.013690010443128049,"388":-0.02058332159654054,"389":-0.08801862890840634,"390":-0.048670634099820385,"391":0.05657224391434791,"392":0.06920598397979255,"393":0.11896166819299664,"394":-0.15823902468791304,"395":-0.033758050757235654,"396":-0.0001919736166401542,"397":-0.0533383728931717,"398":0.032532735516346264,"399":-0.044942023939906504}},{"sx":5,"sy":5,"depth":16,"w":{"0":-0.10321569363094733,"1":-0.008143475053981455,"2":-0.09071807241708175,"3":-0.04376651161185487,"4":-0.12473186611041312,"5":-0.10786768565254014,"6":-0.11311764598867848,"7":0.07560252094015361,"8":0.02271839260950508,"9":0.0936024182542998,"10":-0.1882340895243404,"11":0.009344963445710536,"12":0.018499953273971134,"13":0.06673171544099558,"14":0.015497321657189969,"15":-0.04035622594134659,"16":-0.07600073529343195,"17":-0.13783904304531383,"18":0.00099060439973578,"19":0.020805269637818778,"20":-0.12449245586095573,"21":-0.1135793965660304,"22":-0.06781334171492467,"23":-0.1589266674973151,"24":0.011605821919712964,"25":-0.07151857967640723,"26":-0.12461784565251362,"27":-0.07397955420066764,"28":-0.023757909395134537,"29":-0.17987959960571576,"30":0.11798848418887595,"31":-0.05201535952638893,"32":0.13015215479028383,"33":-0.010127559634579964,"34":-0.006097653439024976,"35":-0.1369442084049161,"36":-0.04819648983474582,"37":-0.15145814269180677,"38":0.08245099019243696,"39":-0.0051804702277504005,"40":0.0054294433776729935,"41":0.022695007134758118,"42":-0.066984144482719,"43":-0.031140337227950697,"44":-0.011318002403352899,"45":-0.24054548613596763,"46":-0.03368426690936798,"47":-0.05931605548887046,"48":0.05739088558430157,"49":-0.0722811311157325,"50":-0.12305730997268934,"51":-0.003144049096470994,"52":-0.05469079763152953,"53":0.01732611136291727,"54":0.05595135513965248,"55":-0.00454741077733853,"56":0.0010090934102885913,"57":-0.05869175104473723,"58":-0.10406572191127213,"59":0.06308216018082471,"60":-0.0034366656091902805,"61":-0.1480303947291273,"62":0.006887057362438175,"63":-0.07884586761702235,"64":0.003321646865274063,"65":-0.047814953363242194,"66":-0.058282156940286566,"67":-0.0058180069211430565,"68":-0.06593267244189606,"69":-0.11799661036600094,"70":0.04657501193672899,"71":-0.1452365127306855,"72":0.007998019316632403,"73":0.003707841674872017,"74":-0.012607764220704292,"75":0.09603383164614798,"76":-0.11315558615341757,"77":-0.19427980221104035,"78":0.08886572657030402,"79":0.061608501750790766,"80":0.0218333865790036,"81":0.13473974271166583,"82":-0.09100086023464579,"83":0.06916138244989165,"84":-0.10212074756081391,"85":0.0011139596782996745,"86":-0.041286575049864514,"87":0.011629484780645443,"88":0.06125469625042917,"89":0.12607340901112563,"90":0.029614095062542787,"91":-0.08460247210110163,"92":-0.080432845401899,"93":-0.087063769823266,"94":0.0973816680179375,"95":-0.016405996815385526,"96":-0.08421471506532788,"97":-0.01864062559085025,"98":-0.07152754468260142,"99":-0.00019898462430796224,"100":-0.1709810690880097,"101":-0.006145737319459933,"102":0.08508703586796301,"103":-0.12122743705586285,"104":-0.027542940710679618,"105":0.14374987716751725,"106":-0.21301114944362964,"107":-0.1031567820484514,"108":-0.22961662794496895,"109":-0.19574821107661516,"110":-0.09573130016885316,"111":0.059734080781488036,"112":0.0539473640516373,"113":0.11569998997278666,"114":-0.037214224442223734,"115":-0.0405208571890103,"116":0.04096870078899866,"117":-0.037895945809552876,"118":-0.022236015692673968,"119":0.06439576619171189,"120":0.03344190110655716,"121":-0.008595284136659678,"122":-0.12896029280917493,"123":-0.06092816643482843,"124":0.024118873763657456,"125":-0.09661762787803362,"126":0.04973207229467241,"127":0.022021365049005568,"128":-0.0822759457547655,"129":0.053585037687193166,"130":-0.09517299211420628,"131":-0.011083110616687458,"132":0.10405069302618893,"133":-0.07238786544967031,"134":0.0069083152565139316,"135":-0.03887903795959372,"136":0.14137072626461583,"137":0.06715378979524281,"138":-0.0799912955080367,"139":-0.06062920061810485,"140":0.038404474381694115,"141":-0.07535605673565444,"142":0.07456069571649827,"143":0.021000179870901154,"144":0.01583443137352206,"145":-0.2424127052210927,"146":0.0615722729344719,"147":-0.08808468110946777,"148":-0.03757586318810408,"149":-0.05104234110065031,"150":0.14084975903672708,"151":-0.09292919105203169,"152":0.1754342353981461,"153":-0.0634916639679423,"154":-0.011925658581813735,"155":0.11258223016216135,"156":0.03863890583400792,"157":-0.10052672350223174,"158":0.035607048178070255,"159":-0.08320777234449236,"160":-0.07178497669840218,"161":0.05039340104741252,"162":0.07324582140015862,"163":0.06657211309702318,"164":-0.1997077037188878,"165":0.11386287303292157,"166":0.02044121942908435,"167":0.160864474599866,"168":-0.011033567705757951,"169":0.09707039122177025,"170":-0.1257773592288701,"171":-0.04604224463068388,"172":-0.11249561376513793,"173":0.013745803277834643,"174":0.05884388050423418,"175":0.030082394758200837,"176":-0.0340089746432843,"177":-0.009676796388203079,"178":-0.09985001664281257,"179":-0.05191353412237494,"180":-0.1817152139188048,"181":-0.01644214921318956,"182":-0.013260444929658683,"183":0.13286024846580147,"184":0.04989197123349971,"185":0.21075030437906508,"186":-0.2968189390876216,"187":-0.1511209432457742,"188":-0.17982489701895582,"189":-0.09499480909453542,"190":-0.08892320045519367,"191":-0.05579841790761271,"192":-0.056734254100028,"193":0.1364964747697432,"194":-0.0005562478448066961,"195":-0.003299688746844226,"196":-0.046108125694759944,"197":-0.06222112708943823,"198":-0.09144479057011796,"199":0.03587257477855549,"200":0.01847389666739769,"201":0.10129799539347198,"202":-0.26194424241032616,"203":-0.0840862802828451,"204":-0.040355226603018865,"205":-0.13438311909223064,"206":0.06677857254210555,"207":-0.00922205372701076,"208":0.018964740423340405,"209":0.031895342134814444,"210":-0.14755346347350018,"211":-0.04378924123913789,"212":-0.013702448225003355,"213":-0.03968406847873437,"214":0.057650213346975676,"215":0.07346151187899763,"216":0.10424122039357282,"217":0.014660713428705075,"218":-0.0892067582457905,"219":0.0030695248982102828,"220":0.04131550972209861,"221":0.01387591007227164,"222":0.0201600410504809,"223":0.051072675821234294,"224":-0.06384870980632507,"225":-0.008577179927687402,"226":-0.0798033431703972,"227":0.007300779848640522,"228":0.022903205916874385,"229":0.03751336977735387,"230":0.029862004007679042,"231":-0.017309744110596954,"232":0.02025192648405973,"233":0.0045674479940630685,"234":-0.1595819941960399,"235":0.13170129843258796,"236":0.23551529816110553,"237":-0.273323719739753,"238":0.11207467184322376,"239":-0.048610812414671474,"240":-0.06959453533378583,"241":0.10067524918227597,"242":-0.027400287839078136,"243":0.04541581496179455,"244":-0.04884660702834456,"245":0.0074828134755887225,"246":-0.06614033505073164,"247":0.08946374345649567,"248":0.09188577264605624,"249":0.10513919095722635,"250":-0.026184316045892136,"251":-0.07981756757063997,"252":-0.0010778593632393772,"253":0.22857174518412968,"254":0.05533712610501682,"255":-0.1835348099933368,"256":-0.04322593223351298,"257":-0.03938919661057204,"258":0.013011884703966211,"259":-0.036425977436387,"260":-0.0744961982259929,"261":-0.16145690222282244,"262":0.026268198667343593,"263":0.055358828257656714,"264":-0.031510639343151334,"265":-0.014797387393195891,"266":-0.33642851358437414,"267":-0.12558649637364122,"268":-0.16017887979931872,"269":0.16072632177042356,"270":-0.025885352275491914,"271":-0.09399398536615552,"272":-0.08349760817351003,"273":0.031521907513037406,"274":0.004577607014822895,"275":-0.04119722601147791,"276":0.065565363087952,"277":-0.012826390878096049,"278":-0.0759714823362995,"279":0.03906396029998606,"280":-0.11409446852582847,"281":-0.008981240063391877,"282":-0.26484032923060463,"283":0.022278259432552114,"284":-0.15443537456537249,"285":0.026627110026377937,"286":0.07160788776808542,"287":-0.030386039595754706,"288":-0.01925055340951802,"289":0.07445908957339525,"290":-0.018285517887234686,"291":0.03374440887546582,"292":0.016088298809478666,"293":0.02491069475654009,"294":-0.03620700672105951,"295":0.13456798211096396,"296":-0.06126165966022507,"297":-0.08576562893001384,"298":-0.203511386031889,"299":-0.018186411997251985,"300":0.05516086559941596,"301":0.03453723474921884,"302":0.06591454737426752,"303":0.08963402114319702,"304":-0.14915292661576252,"305":0.007368388462251757,"306":-0.014221565326258252,"307":0.0019154214912583654,"308":0.036890753127058536,"309":-0.03152596556430944,"310":-0.006457530933302879,"311":0.017299119152066847,"312":0.07380908096583833,"313":0.15797400247948104,"314":-0.0714997863306507,"315":0.15675894816754352,"316":0.10319100524427569,"317":-0.17776856071055544,"318":-0.0806422360192258,"319":0.16048162473151387,"320":-0.1172647568788058,"321":0.1878498281204057,"322":0.07361601818015065,"323":0.03971612968102684,"324":0.01142786650294442,"325":0.04795908138355857,"326":-0.04665637242598038,"327":0.18000023504715412,"328":-0.012795515905653981,"329":-0.03740892090133489,"330":0.013598405299584462,"331":0.04971083056208979,"332":0.11961731315072124,"333":0.16148072111536288,"334":-0.08107936796597492,"335":-0.1517365222472565,"336":-0.08706139264345146,"337":-0.07297670094283026,"338":0.039001737900774346,"339":-0.012659227757303278,"340":-0.03073851788352967,"341":-0.04063550260371447,"342":0.10188845298724326,"343":-0.030601560545987127,"344":-0.08001912815865353,"345":-0.046913190684987595,"346":0.0032417064261939595,"347":0.05086528458750644,"348":0.08458592542091059,"349":0.04813767954226907,"350":0.12510082670145856,"351":-0.009875454476596547,"352":-0.15624311517023964,"353":-0.03984206891430764,"354":-0.012844787484852275,"355":-0.10106403695606543,"356":0.10342400370814706,"357":-0.0016666266874149282,"358":0.031238408302821895,"359":0.09285083380974872,"360":-0.12320348581055356,"361":0.011237408355084768,"362":-0.011067617839297855,"363":0.0496958425207436,"364":0.010380390975470742,"365":0.21152817482292277,"366":0.17978653738037773,"367":0.025574238374817718,"368":0.033099966925219416,"369":0.04728995568569008,"370":0.13175086531205976,"371":0.08218065213403933,"372":0.0680009574200482,"373":0.04140004748070796,"374":0.068926008693101,"375":0.21946986900733229,"376":-0.05006244680633362,"377":0.032599767537062556,"378":-0.14740723896749972,"379":0.0820259414717926,"380":0.10910178263290125,"381":0.19677861157436258,"382":0.0701471186042981,"383":0.02156526878910034,"384":0.04496914983311793,"385":-0.04738959483024151,"386":0.011288343062106722,"387":0.004316382225540881,"388":0.112359945348382,"389":-0.003428630317784058,"390":0.08442321463774241,"391":-0.024536985773515752,"392":-0.021963148366809942,"393":0.12580127235508595,"394":-0.07783827872121896,"395":0.12177054554748566,"396":0.037339448582471846,"397":-0.10664335110346038,"398":0.08970673891329128,"399":0.11763948727725082}},{"sx":5,"sy":5,"depth":16,"w":{"0":-0.0026461463050783266,"1":0.02173300550582351,"2":0.043806493163562575,"3":-0.049696614231597755,"4":-0.030270414573609263,"5":0.17098284547030204,"6":-0.029905193261963618,"7":0.013176813968686729,"8":0.14972743079772566,"9":-0.02672017468402114,"10":-0.06113456174011511,"11":0.10688388337794061,"12":-0.003689973991077314,"13":-0.12180872874025679,"14":-0.08374845736038547,"15":0.040226968437140055,"16":0.016545374847850836,"17":0.06411573460403527,"18":-0.06510339533388214,"19":-0.08253788964575212,"20":0.061911512869132726,"21":0.0659788649910766,"22":-0.07749468777758095,"23":-0.0450763774756636,"24":0.0676974113527813,"25":-0.08751061296217888,"26":0.01147646501666002,"27":-0.045231179871386286,"28":-0.09602177048065469,"29":-0.02550221102512029,"30":-0.03820873780229585,"31":-0.045348440022904,"32":-0.1068278653813547,"33":0.07954167115261823,"34":0.05446148341899986,"35":-0.021393935246978052,"36":-0.045409390242794945,"37":0.012478753348446694,"38":-0.10792605693658693,"39":0.03924677774207379,"40":0.05828532276924299,"41":-0.0994349660947405,"42":-0.05393841727639776,"43":-0.07789127338127808,"44":-0.020512977639163505,"45":-0.10877223012998533,"46":-0.10998776770662283,"47":-0.07617122450947506,"48":0.005514620225365482,"49":0.013602796535268224,"50":-0.036245835277593716,"51":-0.09267648496674395,"52":0.03339120089552614,"53":0.06778120198508004,"54":0.04706434943451591,"55":-0.029475066466026854,"56":-0.0332935927668661,"57":-0.189766367160667,"58":-0.06580081657043563,"59":-0.06750380102962557,"60":-0.04993639148265382,"61":0.04919696627826348,"62":-0.0530658513197435,"63":0.002499930355149925,"64":-0.01873589802593345,"65":0.03459954106391444,"66":0.10076014128990916,"67":0.0011806165949839339,"68":0.028938179642276678,"69":-0.02835111884842994,"70":-0.13536804981765538,"71":-0.05348251314416805,"72":0.0275664272670143,"73":-0.07144127387533881,"74":0.1464186051946539,"75":-0.03537869862442985,"76":-0.07058961279440838,"77":0.04630656032423395,"78":-0.052485868746079495,"79":-0.1263984683238532,"80":-0.039267455609784736,"81":0.1734757114788103,"82":0.043796370187367525,"83":-0.1510978281932622,"84":0.10102503030726771,"85":0.16133751295399634,"86":-0.2881005479542665,"87":0.15320106478429227,"88":0.1126519001380274,"89":0.04551279088512394,"90":-0.09384815085161295,"91":0.035488565456059724,"92":-0.1438707621394704,"93":-0.23239051251059714,"94":-0.13503353105480356,"95":0.033777349829194156,"96":-0.06711116466720492,"97":-0.030013622867026125,"98":-0.008730801505243291,"99":-0.026113847132677663,"100":0.1491074092401857,"101":0.12020774600708053,"102":-0.02002002909396331,"103":-0.02863697961623688,"104":0.07252019152197255,"105":-0.05239544912894205,"106":-0.02023219936672096,"107":0.0408028218944231,"108":-0.1081981930933966,"109":-0.15746095026965054,"110":-0.13040406305181027,"111":0.02563073257848248,"112":-0.03252063445484759,"113":0.02755590765519952,"114":-0.017713396218426995,"115":-0.15521458656476764,"116":-0.02760540953365137,"117":0.06647443588882083,"118":-0.2575637246911595,"119":-0.10344107710114027,"120":0.007299217269774671,"121":-0.05224544108257486,"122":0.044154822945593725,"123":0.03822384676582979,"124":-0.1281896626825749,"125":-0.10566305319850477,"126":-0.07364397934129213,"127":-0.01455768459727818,"128":-0.10318192309596176,"129":-0.022421921592090662,"130":0.06078308606816309,"131":-0.0890865914838862,"132":0.001344857893164065,"133":-0.0223455811789075,"134":-0.138903373924674,"135":-0.017636466834932182,"136":-0.005925443748142257,"137":-0.20474693013286863,"138":-0.07381649137128098,"139":-0.019021889310204473,"140":-0.08903817805156163,"141":-0.00870779336463276,"142":-0.011925334109761447,"143":-0.07146964843988833,"144":0.010488939585401686,"145":-0.03758667662686492,"146":0.04075561337311157,"147":0.018182236168571394,"148":-0.023094352030569577,"149":-0.014461119952094703,"150":-0.09427248705121619,"151":-0.0665251294938798,"152":0.05152134335204207,"153":-0.025206562568889403,"154":-0.1345753636067468,"155":-0.06492957471502858,