{"layers":[{"out_depth":3,"out_sx":32,"out_sy":32,"layer_type":"input"},{"sx":5,"sy":5,"stride":1,"in_depth":3,"out_depth":16,"out_sx":32,"out_sy":32,"layer_type":"conv","l1_decay_mul":0,"l2_decay_mul":1,"pad":2,"filters":[{"sx":5,"sy":5,"depth":3,"w":{"0":-0.06622574737851096,"1":-0.4827252354214712,"2":-0.2831536653797607,"3":0.173569185839696,"4":-0.10625031564142622,"5":-0.1410973883217618,"6":-0.03240480456254085,"7":-0.07318970688622425,"8":0.05038305505245764,"9":0.11685368174422288,"10":0.091816854619349,"11":-0.05427482598572286,"12":0.17643615630292991,"13":-0.07329739821824809,"14":0.05342960379054297,"15":0.09423155010684255,"16":0.005566799766826817,"17":0.14551170850644712,"18":0.45719813493510697,"19":-0.2991620910360428,"20":0.031558853473898925,"21":-0.12106202730562393,"22":0.2163935549074301,"23":0.2387331205355185,"24":-0.15481664842438295,"25":0.23811988494254668,"26":0.6261905439637289,"27":-0.07451672952549385,"28":-0.3100603735520368,"29":0.23923498417597325,"30":0.0776659689906147,"31":-0.279830282956959,"32":-0.35796096986888387,"33":0.04191324087193168,"34":-0.07114076178555173,"35":-0.025272168970501854,"36":-0.44309455210620674,"37":-0.5473078549589324,"38":-0.5670934700466611,"39":-0.12779596804040827,"40":-0.348637318237422,"41":0.017298635746212026,"42":-0.17439148373256508,"43":-0.4010578292529969,"44":0.29025595765689033,"45":0.07028893974780431,"46":0.1271056547922078,"47":0.06301247382965681,"48":0.1422190142517355,"49":0.5547043544565219,"50":0.28815169225384646,"51":0.1370794785687149,"52":-0.1033188397791841,"53":-0.02489034825777954,"54":-0.27817885083627064,"55":-0.28486889367004803,"56":-0.15044660800988482,"57":-0.594741709395127,"58":-0.5679061975522223,"59":-0.21696029541323414,"60":0.07075809771059695,"61":0.04784242804384156,"62":0.09947171865834287,"63":0.05348867052773917,"64":0.25754445997695485,"65":0.12848290147306635,"66":0.011419061953647289,"67":0.4313709080393999,"68":0.43716591879084143,"69":0.2622300308832926,"70":0.3876788436405677,"71":0.5726416297893459,"72":-0.26145270215466215,"73":-0.5737418452638123,"74":-0.12621282452641724}},{"sx":5,"sy":5,"depth":3,"w":{"0":0.12668708284011826,"1":0.019895718256297365,"2":0.1077282756369821,"3":0.10350916174373574,"4":-0.21362110410126678,"5":-0.6648873446012448,"6":-0.09469844518576204,"7":-0.06214874825057528,"8":0.039012453792130836,"9":-0.012102458818875006,"10":-0.19053923216089882,"11":-0.11500747169567482,"12":-0.060330993534105454,"13":-0.4295657785282768,"14":-0.005773719675730659,"15":-0.17354773270208784,"16":0.1708650023552551,"17":0.215496694161112,"18":-0.26078728118222844,"19":-0.0983220925624927,"20":-0.1655797910913944,"21":0.04198695169740303,"22":0.04505885896492066,"23":0.14139898509752166,"24":-0.43127117769657985,"25":0.2925547361935314,"26":0.41493073445437817,"27":-0.7415522565683952,"28":-0.2279918551256166,"29":-0.07595152913146715,"30":0.38349340322044967,"31":0.4936663224709142,"32":0.31636725179854513,"33":0.40230244849303815,"34":0.1813441080082774,"35":-0.46155817057198983,"36":0.5488145718221089,"37":-0.11661810348355856,"38":-0.3552404762875479,"39":0.26057019430085765,"40":-0.10611169349541753,"41":0.0019153839346662384,"42":-0.0820430930038933,"43":0.23245747191302005,"44":0.03471418747005815,"45":-0.0675644702427055,"46":0.15777545201384852,"47":0.12923652114838266,"48":0.4078011590069973,"49":0.19427732718617038,"50":0.0574697324406664,"51":0.28480006266206365,"52":0.04436720751684397,"53":-0.24015031785132063,"54":-0.23149145214773792,"55":-0.4830958973537637,"56":-0.5602667015947236,"57":0.02054531440193133,"58":0.0216998184949057,"59":0.4953257349655034,"60":0.05361353865157542,"61":0.2538009580149473,"62":-0.1824708934976624,"63":0.19973366721849237,"64":0.4327048307257903,"65":-0.00764876178641802,"66":0.2815993651529385,"67":0.1825262913781704,"68":-0.1977635726041846,"69":0.3100530673197459,"70":-0.26666115041683613,"71":0.013161142828987454,"72":0.09891624879794106,"73":-0.05828884235624417,"74":-0.07553020574690725}},{"sx":5,"sy":5,"depth":3,"w":{"0":0.050935003185174355,"1":-0.22226330866986893,"2":-0.38315996675694647,"3":-0.062088976655580275,"4":-0.01285400265803437,"5":-0.36731680153210616,"6":-0.14451014913442325,"7":0.3269621750148333,"8":-0.11100946741304792,"9":0.10117211706487902,"10":0.39687918471477585,"11":0.11825211889889138,"12":0.033220859223980936,"13":0.14867873426160957,"14":0.0011453984387461069,"15":0.1982936066691115,"16":0.4602794953535606,"17":0.3691644825908058,"18":0.030092894164715178,"19":0.04399074391043474,"20":0.2002402355818616,"21":-0.6550116305282067,"22":-0.22951866958837758,"23":-0.2976106933152128,"24":0.2584686888034703,"25":0.40705246581600746,"26":0.44026701687826614,"27":0.057981005256020256,"28":-0.21264678137372417,"29":-0.20668045718769273,"30":-0.8610229165125294,"31":-0.31152354579415126,"32":-0.07008471577695158,"33":-0.3637930159963208,"34":0.031223833519510587,"35":0.0637798455637705,"36":-0.3510284800043493,"37":-0.03602370756947448,"38":0.12418173613447907,"39":0.15184371824436474,"40":-0.06282557019725259,"41":0.1724697089630113,"42":-0.10378461770296864,"43":-0.16634633283339575,"44":-0.647162151209705,"45":-0.721949211075608,"46":0.011969311851979357,"47":-0.2531171276686098,"48":0.0828877796461289,"49":0.37535959767763255,"50":0.28781888493777785,"51":0.1771080010959107,"52":-0.06229405947205743,"53":-0.029608967745880104,"54":0.4178316179659969,"55":-0.04168695911760941,"56":0.5478080150478531,"57":-0.36563819293602756,"58":-0.7136196667917694,"59":-0.5089163930493851,"60":-0.4321201772308819,"61":-0.00026455663754389397,"62":-0.273832573355072,"63":0.5308365426577061,"64":0.34782935945133203,"65":-0.020976615827201575,"66":0.39308794585907636,"67":0.2089873507279642,"68":-0.2708265730901182,"69":0.40583782190995416,"70":0.1987958594399839,"71":0.11985403755645087,"72":-0.16396193265575335,"73":-0.22724539026938617,"74":-0.409761917058342}},{"sx":5,"sy":5,"depth":3,"w":{"0":0.39659723644380224,"1":0.7132935168892928,"2":0.33496455579185785,"3":0.08995056817657444,"4":-0.14098591278932468,"5":-0.6659048762877364,"6":0.16808144156448032,"7":0.13677774996699385,"8":-0.2850422816183491,"9":0.23422044180402535,"10":0.06083084969248737,"11":-0.42520837284495133,"12":0.09201856033567835,"13":0.1433571482051357,"14":0.07933568558191664,"15":-0.24715846381942108,"16":-0.13919729891933713,"17":-0.22841475736962577,"18":-0.35913259028398925,"19":-0.30536566248872943,"20":-0.3655617387986842,"21":0.1024001513402748,"22":-0.4554273855686934,"23":-0.39137821665784395,"24":0.5589600129972959,"25":0.18844921972982492,"26":-0.6874381166010327,"27":0.4077926335994225,"28":0.09712953060084076,"29":-0.38587602471167876,"30":-0.425512953307612,"31":0.10101549233423401,"32":0.5211923884707838,"33":-0.9442371759078716,"34":0.01400919092908138,"35":-0.03372088925912478,"36":0.2198875407218006,"37":0.305585825622854,"38":0.052213407420841976,"39":0.4423843857434472,"40":0.17926051182016992,"41":-0.34703875080955243,"42":0.5006714724532759,"43":0.274121520344329,"44":0.010207207649420602,"45":-0.678296332584189,"46":0.2701403556334248,"47":0.5180025208811025,"48":-0.40062957814080474,"49":0.15391137994311754,"50":0.14317887918810787,"51":-0.2523085330457435,"52":-0.1484855716771924,"53":0.3768318208122142,"54":0.01732135358422161,"55":-0.6216120709311076,"56":0.04364422318089591,"57":-0.2556883337985843,"58":-0.5536045605128274,"59":-0.16619969116034847,"60":-0.6723436920902033,"61":0.022419303425642828,"62":-0.06081594527004093,"63":-0.1385778178214002,"64":0.04413304525725071,"65":0.2687613561953488,"66":-0.14796595097407675,"67":-0.24720650707198905,"68":0.22397678672281757,"69":0.23586507937404252,"70":0.23187579950794168,"71":0.3059840847912702,"72":0.2459583701689977,"73":0.3173502104297496,"74":0.4720282942976853}},{"sx":5,"sy":5,"depth":3,"w":{"0":-0.03249820461113803,"1":0.4791596535326983,"2":-0.005840370480395686,"3":-0.07720769802502839,"4":0.4122727143176709,"5":-0.12396066607796871,"6":-0.1438282242375399,"7":0.38272518911903225,"8":0.33301396937705885,"9":-0.46922397968411056,"10":-0.341014377799057,"11":-0.1196085652136496,"12":-0.5528700351382033,"13":-0.140968667653865,"14":0.14373920775214286,"15":0.15581489120445619,"16":0.2035640107390824,"17":-0.3937269260188351,"18":0.48679403748824496,"19":0.20799650937715536,"20":-0.0601316997311494,"21":0.43877647285419313,"22":0.4958313839357444,"23":0.17417894186430366,"24":0.0359077137287369,"25":0.15814432747836535,"26":0.13235281004131777,"27":-0.21401384155238434,"28":0.23784135690835573,"29":0.3541353384593993,"30":-0.28280853744796886,"31":-0.4820439003253168,"32":-0.7515960825910973,"33":0.6510261145892478,"34":-0.24301163391829575,"35":-0.5996082365840752,"36":0.17102520717067127,"37":-0.753465330494958,"38":-0.8094641864993934,"39":-0.42733273491572626,"40":-0.4111845553481603,"41":-0.43290904475271824,"42":-0.3916065041129814,"43":-0.14910523187497687,"44":0.028149325426125592,"45":0.32234783625575814,"46":0.29554070984105435,"47":0.1412010647784082,"48":0.2071085446966545,"49":-0.11168423751599045,"50":-0.7362426593069641,"51":-0.05182879735705817,"52":-0.35829371525590853,"53":-0.6603526271130514,"54":0.022183601172283067,"55":0.4008856222398798,"56":0.5837242355543373,"57":-0.12204399398692804,"58":0.4800855778582994,"59":0.99143692843094,"60":0.5500656193975342,"61":0.7781164369291064,"62":0.4334017215998828,"63":0.1282383697460427,"64":-0.06656083965929913,"65":-0.6902660954003726,"66":0.43241530502175474,"67":0.10867136729563646,"68":-0.34359531538740407,"69":-0.013331722851777549,"70":-0.27292316428750857,"71":-0.4125580704151313,"72":0.07564362669637927,"73":0.18042262728104078,"74":0.32456561917728083}},{"sx":5,"sy":5,"depth":3,"w":{"0":-0.2007652362034967,"1":-0.24359602293445187,"2":-0.29034903521205635,"3":-0.07346535436915667,"4":-0.05653030610418163,"5":-0.09212242153280414,"6":0.4365286151448607,"7":0.18307990576307473,"8":-0.44302598837921775,"9":-0.07773170868643554,"10":0.04247483531085082,"11":-1.0703418154405782,"12":0.3526193848785423,"13":0.3508849792178512,"14":-0.32638925928321133,"15":-0.014831584662408494,"16":-0.2011693746249418,"17":0.23278138820637218,"18":-0.002763461957571888,"19":0.054547906713512784,"20":-0.1543226684348721,"21":0.3316841911201789,"22":0.36258619104041817,"23":-0.20345893146467323,"24":0.49972608805218055,"25":0.27071071737546315,"26":-0.5495803095350147,"27":0.42663770287030917,"28":0.07729470517620424,"29":-0.24087130382233893,"30":0.12550573880984459,"31":-0.37687143955536434,"32":0.14704400645682664,"33":0.14068349096935082,"34":-0.003636871230511306,"35":0.3300339842588611,"36":0.08487432842182058,"37":-0.14111469916051872,"38":-0.26750145243298595,"39":0.09970607543780385,"40":0.0652266393520434,"41":-0.15658092753917058,"42":-0.39830913000706725,"43":-0.5286788723099036,"44":-0.2889672699918399,"45":0.12455981101238671,"46":0.021945011351696648,"47":0.5052500744526863,"48":0.39870503859946427,"49":0.6006608877508253,"50":0.7141823521647501,"51":0.13209178711888286,"52":-0.1348002271060626,"53":-0.17295180707716842,"54":-0.019440926547364158,"55":-0.524454574953541,"56":-0.12473258842280685,"57":-0.10196385306504302,"58":-0.13801464596071578,"59":0.11659772887400495,"60":-0.09750985240604046,"61":-0.38182968495993763,"62":0.27866914708179746,"63":-0.5071996478406637,"64":-0.7017661908244041,"65":0.22886379570652102,"66":0.13765422725851587,"67":-0.03878036546393133,"68":0.11981974725848245,"69":0.23785017228592376,"70":0.10994304582348345,"71":0.045236226049302566,"72":0.28544411415833154,"73":0.17584560462725068,"74":0.40380056240754225}},{"sx":5,"sy":5,"depth":3,"w":{"0":0.571128603339043,"1":0.04097525077860088,"2":-0.09558858428162897,"3":0.6774440787330132,"4":-0.002955534803555882,"5":-0.22426792591989378,"6":-0.04140005248209875,"7":0.21289131675832576,"8":-0.06606171170787636,"9":-0.28841767698126725,"10":0.23894643660873918,"11":-0.11534195781979804,"12":-1.0755556213599227,"13":-0.21845471233595057,"14":-0.4176893404678795,"15":-0.3796412577921615,"16":-0.5147692377988843,"17":-0.6238288734202262,"18":0.649167311893587,"19":0.0624779729528782,"20":-0.2271218196965433,"21":-0.4637422635725892,"22":-0.30046230450856826,"23":-0.03420545245036027,"24":0.527312937229702,"25":0.4129653598168873,"26":0.5537029617397228,"27":0.05215032326223687,"28":0.7046106283198239,"29":0.013594162364550131,"30":-0.030831577057557336,"31":0.014402594849067593,"32":0.009596630684236745,"33":0.2912555617155188,"34":0.2466694300910359,"35":0.16417481446900498,"36":0.6554186616848205,"37":0.8222134569967913,"38":0.7364420530902505,"39":0.5993027785775928,"40":0.4258960939586201,"41":0.41871177856036307,"42":-0.4588969806663481,"43":-0.08490792551657375,"44":-0.5623462061814178,"45":-0.4101726089781124,"46":-0.08908835201493968,"47":-0.07279053187301406,"48":-0.5036891671795317,"49":-0.5594028875649912,"50":-0.7550240870646229,"51":0.45237362742810433,"52":0.38044612845664033,"53":0.023109733559189747,"54":-0.1648155195739007,"55":-0.13040549239665744,"56":-0.6240471797118093,"57":-0.5439515704426252,"58":-0.09846289345527129,"59":-0.13669025054525494,"60":0.352764258973593,"61":0.5125795070131623,"62":0.27723936219569645,"63":0.7736526157246071,"64":0.8685450166620846,"65":0.6586844820932498,"66":-0.022673529417874462,"67":-0.292592380569068,"68":-0.8581259692732209,"69":-0.37335715087497334,"70":0.1184935552146427,"71":-0.35278544545948065,"72":-0.5397285220622283,"73":0.09483215669798883,"74":-0.06734793748976411}},{"sx":5,"sy":5,"depth":3,"w":{"0":-0.25738560516136677,"1":0.15996843811683142,"2":-0.2495314701485967,"3":-0.2999642104884043,"4":0.6533582997216756,"5":0.3474140762660291,"6":-0.15204280384923585,"7":0.1619445263866339,"8":0.23937479615332155,"9":-0.5154621934447084,"10":0.02370398312633507,"11":-0.02132703886967765,"12":-0.7801812178043845,"13":-0.28263746890173297,"14":-0.21200726986874602,"15":-0.0991941204622893,"16":0.3039083389174848,"17":0.04579348715951873,"18":-0.6504239776980613,"19":0.1287811006428087,"20":-0.026894176191548425,"21":-0.23584970455449536,"22":0.37564760314005824,"23":0.055165845549453175,"24":-0.009619208171382359,"25":0.5986851884212329,"26":0.2631952611546184,"27":-0.6357475615512482,"28":-0.5009026781609714,"29":-0.15894703790260642,"30":0.10864677680584742,"31":-0.3386025066417065,"32":-0.6866570053071183,"33":-0.05323248178131322,"34":-0.42974957722374363,"35":-0.687131064450883,"36":0.12590665690918765,"37":0.1869618373457104,"38":-0.22339548350585892,"39":0.12164888211748784,"40":0.2039398497775197,"41":-0.2774235626509772,"42":-0.20648508683864528,"43":0.23523926812924192,"44":0.16165046673149436,"45":0.2997836915847091,"46":-0.28861824470157305,"47":-0.7207086185925715,"48":0.522907872608251,"49":0.09219752407113808,"50":-0.2671456834212091,"51":0.5022288823975571,"52":0.4441954667779837,"53":0.28027526253867935,"54":0.026892555934551542,"55":0.12716558873700556,"56":-0.3775142868907053,"57":0.4401875307764759,"58":0.6658197872012296,"59":0.30259663455735547,"60":0.14022441497255442,"61":-0.032222439329178204,"62":-0.5235842842606295,"63":0.43928259603853487,"64":0.4800840427339264,"65":0.11652275430990339,"66":0.1772525218822652,"67":0.03972524889876908,"68":-0.5026616497084389,"69":-0.16042699167169333,"70":0.05085770947903308,"71":-0.43115482003144356,"72":0.09623394207926204,"73":0.7766246203611856,"74":-0.04879581502176025}},{"sx":5,"sy":5,"depth":3,"w":{"0":0.24439730170424778,"1":0.34473057792685785,"2":-0.49177632127139864,"3":0.15408103214385568,"4":0.06960164969447373,"5":-0.5854720928502807,"6":0.5225772110908253,"7":0.5056395472478036,"8":-0.4653761884889503,"9":-0.06051340257929162,"10":0.22421049509121244,"11":-0.6638490222247618,"12":-0.052376638761937745,"13":0.2423715933654488,"14":-0.16905301050753474,"15":0.1351621985844494,"16":0.46069802014705913,"17":0.2576524889242985,"18":-0.14888646758591448,"19":-0.14266522560022768,"20":-0.14530482977584275,"21":-0.21714970925816912,"22":0.004780443094122221,"23":-0.5218888404716118,"24":-0.08388199743554933,"25":0.27007920784075307,"26":-0.3130121746031597,"27":0.010456514243020715,"28":0.2911724821588397,"29":0.3247919810130455,"30":-0.005389682634729911,"31":0.2722511284563055,"32":0.22129242240730973,"33":-0.40051289564095255,"34":-0.3447573277026932,"35":-0.05946033550968634,"36":0.08090765208965692,"37":0.43757789027478894,"38":0.27533140675103146,"39":-0.09812004475777748,"40":0.4185013598771727,"41":0.1878978152258083,"42":0.12246386579683513,"43":0.07469398073333562,"44":-0.15825342412302468,"45":-0.49422524704094706,"46":-0.2620576615109032,"47":0.06005538466904196,"48":-0.36093576723554155,"49":0.21770126380549618,"50":0.3733094323297841,"51":0.17030571365229685,"52":0.7178268351105676,"53":0.28176468594459525,"54":-0.08103535428095276,"55":-0.09012932336170465,"56":-0.2631678180090892,"57":-0.2173694266178794,"58":-0.2041146759830115,"59":-0.39711817067549876,"60":-0.1583257368679842,"61":0.29281271196232767,"62":0.39387403136833726,"63":0.04349863718179105,"64":0.8327227711478095,"65":0.5595685688425548,"66":-0.410800410555811,"67":0.20226753798586847,"68":0.2738451413457283,"69":-0.2544371339508729,"70":-0.2531743073282439,"71":-0.28994756371761987,"72":-0.061846060500794886,"73":-0.039701209951242045,"74":-0.3557529207418115}},{"sx":5,"sy":5,"depth":3,"w":{"0":0.39392708139601235,"1":-0.36962520495299145,"2":0.41084449063073236,"3":-0.005089242124794693,"4":-0.19039591731685307,"5":0.20021705129474354,"6":-0.3045069202394906,"7":-0.438315438267984,"8":0.0015514641891281088,"9":0.29824474280308244,"10":0.0868911445514555,"11":0.6907408463943299,"12":-0.10154025263251931,"13":-0.30502775896049383,"14":0.05120353942493936,"15":0.3468858376413453,"16":-0.12790929204651558,"17":0.7387363550700692,"18":-0.11131365238369491,"19":-0.34358515635676545,"20":0.339488227075686,"21":0.10541939416158878,"22":-0.31925287912771705,"23":-0.00733829884605965,"24":-0.0680274665069314,"25":-0.15230697325162731,"26":0.3447271937145822,"27":-0.08443540874409634,"28":-0.6246428264339693,"29":0.14762734448631049,"30":-0.30398788441454405,"31":-0.5924530593027861,"32":0.2428178899678327,"33":-0.03892678888772898,"34":-0.6075905408083424,"35":-0.2995749390333311,"36":0.2046300859006423,"37":-0.3893831801742027,"38":-0.6136115839164865,"39":0.2371687401683233,"40":0.12227594120561389,"41":0.5019737272412048,"42":0.37088211551061284,"43":0.00111871292178428,"44":0.37795311042482793,"45":-0.4617516181960978,"46":-0.6194494881803206,"47":0.05841252760879667,"48":0.5289300944613539,"49":-0.020729765212162517,"50":0.672605691102,"51":0.4213669982038215,"52":-0.2967655449263685,"53":0.1110833817859937,"54":0.2218221311030554,"55":0.11525975011852267,"56":0.5570377871731037,"57":0.013720302425883716,"58":-0.1889451662520778,"59":0.1468857105419818,"60":-0.46160173274973815,"61":-0.32447863970003304,"62":0.23266857248768943,"63":0.17183574866289775,"64":0.2619949000072875,"65":0.5734563337472897,"66":0.11849068901215348,"67":-0.024724283444871202,"68":-0.0054544329082908405,"69":-0.30481143438176694,"70":0.31087758124756587,"71":0.05471802122087286,"72":-0.2911175857432111,"73":0.16166584176893006,"74":0.08883679050154049}},{"sx":5,"sy":5,"depth":3,"w":{"0":-0.29795147192365945,"1":-0.09415351050624443,"2":-0.37273749862677136,"3":-0.4060458284811948,"4":-0.18026501823090663,"5":-0.33848077354489553,"6":-0.4013450626811307,"7":-0.057378963960306575,"8":0.09827821124876218,"9":0.0071665079509318115,"10":0.25873197764941425,"11":0.08439734094011458,"12":0.33788582597379463,"13":0.31153532575536574,"14":0.008803037417971778,"15":0.08351356527107472,"16":0.443003738074026,"17":0.08254943440500244,"18":-0.043954913602748516,"19":0.2146703889248695,"20":0.41085092143449775,"21":-0.19638509311594057,"22":0.22435471390377343,"23":0.4808378376938428,"24":-0.032059173075313085,"25":0.13482221632090646,"26":0.1910243939472479,"27":0.0844413782621863,"28":0.535150865253909,"29":0.2532223838066633,"30":-0.01544414005923869,"31":0.32873597846973207,"32":-0.04471023589168671,"33":-0.09571511531223681,"34":-0.07565807882846674,"35":-0.28114656121472914,"36":-0.3653670678414372,"37":0.008169849098234051,"38":-0.07359625433273922,"39":-0.23839201363784485,"40":0.14987128928590698,"41":-0.02158780160022371,"42":-0.5546204984117963,"43":-0.0474136800558359,"44":-0.11953615735495594,"45":-0.540410076566618,"46":0.18364597779299532,"47":-0.5258284040078778,"48":0.007986316910578651,"49":0.14222847747433176,"50":-0.12350386545278261,"51":-0.7618520202987688,"52":-0.35098888513546095,"53":-0.35200761614004766,"54":-0.19899596868521324,"55":0.18007838666781698,"56":0.059097976464003735,"57":-0.01856685190718077,"58":0.19975621923939066,"59":0.09537054245345203,"60":0.5638771854267164,"61":0.6774659022866536,"62":-0.2562753356000288,"63":-0.11313105912131158,"64":0.1334496090108687,"65":-0.32976439823024933,"66":0.013057266636359978,"67":0.15529693748779916,"68":0.10431457811742299,"69":-0.13154969610649694,"70":0.18696078933216714,"71":-0.1918262108622645,"72":0.25610220753639845,"73":0.3477674664536437,"74":-0.31583840001449576}},{"sx":5,"sy":5,"depth":3,"w":{"0":0.09152489311410353,"1":0.26142647509859324,"2":0.629626005285681,"3":0.2796964735257102,"4":0.5149292821472343,"5":0.5785988365472537,"6":-0.13159785607504565,"7":-0.37892143052077615,"8":-0.4866578546408689,"9":-0.27333629509012963,"10":-0.04134796553976555,"11":-0.03260673682749638,"12":-0.20954927877919988,"13":0.1669791006820366,"14":0.06311526706383408,"15":-0.08253365334386582,"16":0.11369889966944362,"17":0.628449548064638,"18":-0.1474875472072053,"19":0.06645885363497987,"20":0.46077028349212273,"21":0.021126536690045522,"22":-0.06794008067494405,"23":0.16051040275685072,"24":-0.4183335348305114,"25":-0.5728124212952077,"26":0.10548725985993866,"27":0.0063785863763957205,"28":0.10876562240008947,"29":0.5757634873647892,"30":-0.09773360411734615,"31":0.2097745689153895,"32":0.504069212466351,"33":-0.10379401590685394,"34":-0.14588478285966644,"35":0.33971181067289435,"36":0.10889607487860771,"37":-0.13256802679481433,"38":0.15463607761158668,"39":-0.24667665811804457,"40":-0.025153920666486203,"41":0.2857966481475053,"42":0.00828924053063446,"43":0.03962616512146144,"44":0.32296281722010983,"45":-0.24709648734407116,"46":0.004029153703854642,"47":0.4842331534976722,"48":0.14409091157844575,"49":-0.34319205323457436,"50":-0.1274738822247965,"51":0.06086827205497757,"52":-0.3319753156923284,"53":0.1314705606499773,"54":-0.05877901037231571,"55":-0.07994983119253514,"56":0.01898587711636317,"57":0.17760888113954168,"58":0.01310763616636184,"59":0.21288359880650595,"60":0.17490503713765826,"61":0.34548837969392376,"62":0.41697332729339315,"63":-0.11221409454403694,"64":-0.36090971455498627,"65":0.016235139736053752,"66":-0.6183071930133718,"67":-1.1658676889625157,"68":-0.6570892819869917,"69":0.27220193256402503,"70":-0.18732131102046456,"71":0.3233618413181143,"72":-0.10011955621760771,"73":-0.17459947508309084,"74":0.2930466348103598}},{"sx":5,"sy":5,"depth":3,"w":{"0":-0.8895597849903462,"1":-0.596194590370159,"2":-0.7281783930425217,"3":-0.2587031989700492,"4":0.2762138192092564,"5":0.06205233533365666,"6":0.3878554137170757,"7":0.8881383316497697,"8":0.3879821463244088,"9":-0.09429328920073828,"10":-0.12904830828678332,"11":-0.39881770831083807,"12":-0.001915749056426356,"13":-0.11367352587630185,"14":-0.6416530154100696,"15":-0.7011053512743222,"16":-0.18996846704783366,"17":-0.2423527184464814,"18":-0.4354195677253041,"19":0.38860701100321665,"20":0.31001374205292953,"21":0.1642804763737898,"22":-0.053900623133360206,"23":-0.17242645593323827,"24":0.3717242307458934,"25":-0.5809036258766576,"26":-0.40435533674790197,"27":0.8225380083384278,"28":0.37377995050402724,"29":-0.2096121640458203,"30":-0.551372463896619,"31":0.006908374641262131,"32":0.29132000750904286,"33":-0.1495052743953948,"34":0.21243994823905055,"35":0.4069343157009659,"36":0.4379387839007659,"37":-0.16261602994519386,"38":-0.4538338351667569,"39":0.4930386822122235,"40":-0.0949816813036768,"41":-0.3343529607092303,"42":0.48753710351596735,"43":0.9033960630285991,"44":0.13994964469343293,"45":0.39308057266587626,"46":0.21944639865647264,"47":0.8404453509179861,"48":0.04429994006881844,"49":-0.19534887329563727,"50":0.20691799576644543,"51":-0.130987197878773,"52":-0.37717254150965085,"53":-0.14260679652911049,"54":0.6605019324893943,"55":0.21932323966811954,"56":0.1897559493180337,"57":0.28401193770140093,"58":0.41308697305132097,"59":0.29643362180487914,"60":0.6362023650465504,"61":-0.008838509679308468,"62":0.5978280176565345,"63":0.02375792872631421,"64":-0.8454429711066975,"65":-0.27703180785744574,"66":0.37988750134128135,"67":-0.611577385074719,"68":-0.146603130064496,"69":0.37345159995572996,"70":-0.6270866004152671,"71":-0.31726596542276914,"72":0.03205142749955764,"73":-0.17466139451009238,"74":-0.29017552632237764}},{"sx":5,"sy":5,"depth":3,"w":{"0":0.07345043596013291,"1":0.14419761704863043,"2":0.14274689278302108,"3":0.31487025735304924,"4":0.05866092507956318,"5":0.5905897963456307,"6":-0.8235221187007637,"7":-0.9030761177849638,"8":-0.5491723140920765,"9":-0.12194450412885306,"10":-0.6350256723331531,"11":-0.48797417531923737,"12":0.351113607043144,"13":-0.14571581514065793,"14":0.12500931143546742,"15":0.2415226157655262,"16":0.8501412954588478,"17":1.0725864558785085,"18":0.23473991614465844,"19":-0.021539131616379447,"20":0.5927409151631328,"21":0.336950189186646,"22":-0.15985824042564423,"23":0.49666707136917326,"24":-0.07837903972554117,"25":-0.5344316929160831,"26":-0.2408933891993356,"27":-0.23065356609072787,"28":-0.4250795865989909,"29":-0.43023843094401854,"30":-0.12167049057702323,"31":-0.034372750129011,"32":0.7375983439368111,"33":-0.28373346653425807,"34":-0.8341666951346086,"35":-0.18115863366217722,"36":0.9298699226059491,"37":0.22909856234549192,"38":0.42421377323481463,"39":0.6499177094294674,"40":-0.5417849158141761,"41":0.07037222370150963,"42":-0.05173084278438369,"43":-0.2892120238703463,"44":-0.16094006518464565,"45":-0.8261825720177388,"46":-0.3938018527772209,"47":0.13317892057774178,"48":-0.07756187258024726,"49":-0.39840762553447745,"50":-0.5499088011512571,"51":0.5350925514958671,"52":-0.23726834935208763,"53":0.3216184278655551,"54":0.49578273975357273,"55":-0.29210395688917823,"56":0.4420231816364643,"57":0.038269673299229284,"58":0.05057811442905762,"59":-0.007488900234420275,"60":-0.5324350584947096,"61":-0.08331746441390364,"62":0.2745678604083993,"63":0.12806168987091712,"64":-0.1578149659974639,"65":-0.08723676892955974,"66":0.21333821187714772,"67":-0.702918702847381,"68":-0.06859783385190454,"69":0.3297655252361737,"70":-0.37661806127303593,"71":-0.08935742952135958,"72":-0.4890323834662513,"73":-0.5549517151061149,"74":-0.317289670625437}},{"sx":5,"sy":5,"depth":3,"w":{"0":0.14206899984536628,"1":-0.34886686859442534,"2":0.1871295917268425,"3":-0.03708593801317937,"4":-0.3855381564517216,"5":-0.22167229441236727,"6":0.15422638007719078,"7":-0.1547002928334061,"8":-0.12145312629916581,"9":0.03450542408138884,"10":0.05127475001310648,"11":-0.2816055964483756,"12":-0.05447896361694188,"13":0.23660329661875448,"14":0.26539062934113894,"15":-0.48519172683602346,"16":-0.31169645577473737,"17":-0.03317455259351626,"18":-0.20871624926225205,"19":-0.5164666328709686,"20":-0.15118369302738996,"21":0.5249762319774706,"22":-0.16528559904383008,"23":-0.02957751850501425,"24":-0.08490410542322376,"25":-0.1481665215521958,"26":-0.2084779096908648,"27":-0.037326403091885806,"28":0.17389440388831862,"29":0.24288869258921722,"30":-0.38518533347286144,"31":0.049629824158800635,"32":0.06451399091214383,"33":-0.03901178893613302,"34":-0.18001830058929097,"35":-0.20567918140721944,"36":0.44515570193836246,"37":-0.3061722018689697,"38":0.08105323471441107,"39":-0.021741882001294174,"40":-0.11190494456015034,"41":0.11644532874074702,"42":-0.20511660929508221,"43":0.07654487701467673,"44":-0.0898318968189732,"45":-0.08827114802405904,"46":0.2976896881816039,"47":0.02633427830664458,"48":-0.0025487591582640484,"49":0.05810948202464519,"50":0.05789165961820385,"51":0.2844663695000589,"52":0.44400261869632507,"53":0.39121388251741573,"54":0.28064343980966583,"55":0.49696413566459496,"56":0.4063892801906458,"57":-0.12154668210213816,"58":0.19951449477161184,"59":0.03118860589783468,"60":0.21762875718061772,"61":0.12397979695730682,"62":-0.11906842813981061,"63":0.06438418788504865,"64":0.01665707426892736,"65":-0.06344187015705241,"66":-0.18326385841191972,"67":-0.3538351747023813,"68":-0.24584314176815303,"69":-0.15461609455920133,"70":-0.4213461899624999,"71":-0.4596139883889051,"72":-0.25766884860786915,"73":-0.2738359292688003,"74":-0.3261428139609542}},{"sx":5,"sy":5,"depth":3,"w":{"0":0.3008799211304654,"1":0.08157141144318905,"2":-0.2349113787376447,"3":0.17669842658561366,"4":0.06751723735996029,"5":0.21365416058156264,"6":-0.2168234733987814,"7":-0.13217400293016016,"8":0.07774411759662858,"9":0.018624723735680818,"10":0.10687215215232813,"11":0.0595948252014796,"12":0.07971654873679146,"13":-0.11648429572965045,"14":-0.5808461227741223,"15":0.043196265163675175,"16":-0.2853889884365578,"17":-0.10223056045849009,"18":0.1318794679384763,"19":-0.4043459466950845,"20":0.14308881260165632,"21":-0.042269304344446736,"22":-0.030428765341346097,"23":0.36228264215351236,"24":0.5499947541893129,"25":0.0904056944088567,"26":0.32779823639461364,"27":-0.05441096086831925,"28":-0.059985019065911444,"29":-0.1354519385451061,"30":0.007989768038436517,"31":-0.06791009066096704,"32":-0.00569327204017891,"33":-0.13734548557874499,"34":-0.8106588528392404,"35":-0.05342795628222065,"36":0.1913676915037951,"37":0.04319505577869274,"38":0.44790844241902494,"39":0.2288992746740412,"40":0.060998289244319374,"41":0.5332095099744344,"42":0.22624006727369758,"43":-0.09958091787072787,"44":-0.17289439860358302,"45":-0.020795969437861016,"46":0.06373322711619972,"47":0.5900409704240193,"48":-0.6532935976363734,"49":-0.5605232568387013,"50":-0.14463055920214168,"51":-0.22349865021474719,"52":-0.23715015375249252,"53":0.4230328086903335,"54":-0.0032268470608142748,"55":-0.06715905639884875,"56":-0.277065553432162,"57":-0.4794562144931705,"58":-0.518901059045751,"59":-0.4336418427696064,"60":-0.43063013314523985,"61":-0.2480011432553572,"62":0.1372701112578211,"63":-0.02304626739790528,"64":0.14380868923064208,"65":0.039517448076853506,"66":0.029783549759168998,"67":-0.16903690528799173,"68":-0.14926473382313438,"69":-0.19173658967898166,"70":0.36613610063767016,"71":0.2770150986749562,"72":-0.13560940425499693,"73":0.1376854143356982,"74":-0.33611695661269003}}],"biases":{"sx":1,"sy":1,"depth":16,"w":{"0":-0.7570277953872109,"1":-0.2429151540356011,"2":0.010314044663547593,"3":-1.46498874275871,"4":-0.649596495103581,"5":-0.8826808806091823,"6":-1.6049905204442148,"7":-0.7467665954001252,"8":-0.3271293605686779,"9":-1.08280481340608,"10":0.030592506147159113,"11":-0.253406320775129,"12":-1.602237308863658,"13":-1.5134394947377727,"14":-0.24106035263716613,"15":-0.4426776086579751}}},{"out_depth":16,"out_sx":32,"out_sy":32,"layer_type":"relu"},{"sx":2,"sy":2,"stride":2,"in_depth":16,"out_depth":16,"out_sx":16,"out_sy":16,"layer_type":"pool","pad":0},{"sx":5,"sy":5,"stride":1,"in_depth":16,"out_depth":20,"out_sx":16,"out_sy":16,"layer_type":"conv","l1_decay_mul":0,"l2_decay_mul":1,"pad":2,"filters":[{"sx":5,"sy":5,"depth":16,"w":{"0":0.52966475594584,"1":0.29617475975329455,"2":-0.14103707364516727,"3":-0.024426225495009293,"4":0.8596598247143784,"5":0.5675519725250391,"6":0.07960346291651602,"7":0.5826817235422512,"8":-0.5937278518109427,"9":0.05341878041431864,"10":0.20816899353275456,"11":0.5191127665748214,"12":0.9775410396147262,"13":0.19565368657862636,"14":0.6565255975167243,"15":0.3773619399705864,"16":0.7403609656631892,"17":0.15821902091563678,"18":0.5914452570719293,"19":0.25181588898588725,"20":-0.3627090364002757,"21":0.18457790914495437,"22":-0.10023929823059437,"23":1.118090278355503,"24":0.4199567124806658,"25":0.9296604141539486,"26":0.3367781230399305,"27":-0.6377400271942661,"28":0.3390645296471667,"29":0.3155708614940876,"30":0.22316457724388236,"31":-0.07587147137587665,"32":0.07352791054099396,"33":-0.14513344086612737,"34":0.20220032649928446,"35":0.7662853928836724,"36":0.6049471378494665,"37":0.04216949109569913,"38":-0.04609396888988408,"39":1.1182726430395118,"40":0.21886468524041305,"41":0.1369781519520433,"42":0.3346509132089516,"43":0.36023434249449054,"44":-0.15720662376117037,"45":0.008278040851297444,"46":0.3104996010923515,"47":0.01944131576872322,"48":-0.2111056247868964,"49":0.17618471581437944,"50":0.07733899852529535,"51":0.15116730375074194,"52":0.4884721843300171,"53":0.1509073892164148,"54":-0.4349856240874933,"55":0.09634306624248988,"56":-0.11222331803381114,"57":-0.0952634638183686,"58":0.6642901714492467,"59":0.5579196062193105,"60":-0.3746961052870958,"61":-0.5761987460318272,"62":-0.6252900946370644,"63":0.25992910057311375,"64":1.0992581900621363,"65":0.591184993664171,"66":-0.022680412621941856,"67":-0.21886901498303404,"68":0.1995632026015702,"69":0.043035252100763234,"70":0.09859015185878052,"71":0.5501587564288656,"72":0.16109295662559447,"73":-0.4863978886828046,"74":0.2320856941201768,"75":0.09225572145327536,"76":0.46429908699054245,"77":-0.4912663455873463,"78":-0.9584261729660248,"79":0.025587891673380415,"80":0.5387910160768631,"81":0.0541470181300832,"82":-0.19939900592648685,"83":0.17913083332131047,"84":-0.04509289225604654,"85":0.7950832686311499,"86":-0.3487906461155719,"87":-0.725705300341437,"88":0.501213845492536,"89":-0.4686299116881909,"90":-0.22691475407151013,"91":0.4304122041996457,"92":1.3219740691824502,"93":-0.22489204576457564,"94":0.22233775125357116,"95":-0.14397874721723652,"96":0.3778794276193305,"97":0.20736503586130928,"98":0.2163018559577942,"99":0.2212810601653704,"100":-0.43360108685615684,"101":-0.14314866301718568,"102":0.06694222583810003,"103":0.6972304324988943,"104":0.11596137075410747,"105":-0.027704424996611365,"106":0.2044693457712708,"107":0.06292513375259992,"108":-0.07452044165086288,"109":-0.2450302021641825,"110":0.06920509559578292,"111":0.23168482000026105,"112":0.2840840660447226,"113":-0.42627805306415845,"114":0.15457186039756265,"115":-0.5273029860695814,"116":-0.05398268237603108,"117":0.478488984565409,"118":0.3129306133005943,"119":-0.04299961782833908,"120":0.34420289801799825,"121":0.2415453631989871,"122":-0.48186470945607923,"123":-0.2849429587548689,"124":0.6290584276305797,"125":0.4769003944466937,"126":0.4042341521250155,"127":0.17619586015023067,"128":0.7638989980638721,"129":-1.5295610025914654,"130":0.365433249536335,"131":-0.6429813031182023,"132":0.7697331650741798,"133":0.45845339432475635,"134":-0.5311258408539028,"135":-0.272784705902318,"136":-0.6403935479954653,"137":0.5476120103237271,"138":0.6565501793059306,"139":-0.10417354904718433,"140":0.07322881360807594,"141":0.15981643555662012,"142":0.47519281898967186,"143":-0.1191807103791588,"144":1.091894499718306,"145":-0.7817796418496045,"146":-0.3748730817773285,"147":0.2631329586069728,"148":-0.015689801688461416,"149":-0.43111993009284927,"150":0.3325320886696653,"151":-0.43130014464341115,"152":-0.43225169391709045,"153":-0.09927303496648479,"154":0.09824610217234599,"155":0.14572496405266966,"156":0.6129895737575098,"157":0.43261743621165477,"158":0.035413859334480595,"159":0.6741628825928447,"160":0.7263325234608413,"161":0.4059290288645952,"162":-0.16917527100493082,"163":0.7054027905885145,"164":-0.30471858989441775,"165":0.15574138993462977,"166":0.2785278627855044,"167":0.40364328272256844,"168":-0.2249850007418153,"169":0.2747223879077643,"170":-0.01868483315514979,"171":0.5030998330075709,"172":0.6198864030942188,"173":-0.09716424753412005,"174":0.03695722712784048,"175":0.5087248221843261,"176":-0.017212789398470003,"177":0.6241411519314831,"178":0.4387813201297774,"179":0.7232419329213938,"180":-0.2931046488850503,"181":0.4148288397318361,"182":0.2174465091904456,"183":0.33784727975572537,"184":-0.6531210529246275,"185":0.03859736603580773,"186":0.34170166156377624,"187":-0.3303781614566125,"188":0.09679975664686806,"189":-0.28912007773467874,"190":0.10343827171033335,"191":-0.16888987812551676,"192":0.5237977341983875,"193":0.9316994590992217,"194":0.2496743896666141,"195":0.4675869599148461,"196":0.41801389809486145,"197":0.31008837136377865,"198":-0.3175198586550597,"199":0.0316637966486244,"200":-0.2886709527120573,"201":0.1400646460043976,"202":-0.22897343045104468,"203":0.1946934646747425,"204":0.5631326089104396,"205":0.20342879681359657,"206":0.42236611428344195,"207":0.3173802065834616,"208":0.6261612236528457,"209":-0.0727221363647374,"210":1.2802023850064306,"211":-0.7927385447119353,"212":0.3871945519053272,"213":-0.1791725989900172,"214":0.14879392668658706,"215":0.5128922819559991,"216":0.14090604677985072,"217":0.7767638464555714,"218":0.1344126371030341,"219":-0.35026098905520153,"220":0.07565208044209107,"221":0.6757918196885091,"222":0.4813956492797463,"223":0.21554198382296927,"224":-0.4508622717630624,"225":0.04232752229945951,"226":0.5305575334448984,"227":-0.29637828497585017,"228":0.3502884573661874,"229":0.16828163969945806,"230":-0.7798151905515519,"231":0.7288806255952138,"232":-0.12261965063484423,"233":-0.270341044389349,"234":-0.09604018489594524,"235":0.10738814679449311,"236":0.45804183704200396,"237":-0.3000097155505199,"238":0.5691762656671568,"239":0.2504909448843224,"240":-0.05564086883916097,"241":-0.2010595526465528,"242":0.2541447398759422,"243":0.09530691227506632,"244":0.8490937345262115,"245":0.09618833762672307,"246":0.00020700335586736234,"247":0.1961647486709444,"248":-0.32010277605520404,"249":0.057987456653290304,"250":-0.5218312555284387,"251":-0.35436299571051905,"252":-0.12181090922985037,"253":0.22558196400550062,"254":0.03278606902013219,"255":-0.8227219601510867,"256":0.3862169253079689,"257":0.13846232219467605,"258":-0.1998659958795199,"259":-1.476910796608376,"260":0.4965487754341315,"261":-0.28397954740128795,"262":0.04789745649294916,"263":0.46874302212421964,"264":-0.1219171333259862,"265":-0.02362103828462757,"266":-0.34811739546490766,"267":-1.135475785772597,"268":0.31687881299582243,"269":0.07126721150939343,"270":-0.19233216625811353,"271":-1.3642481133673403,"272":0.07383679246967459,"273":0.8220509706850123,"274":0.00015190895071143451,"275":0.1743727945115055,"276":-0.18639026593737712,"277":0.14419936364663175,"278":0.38409833081767386,"279":-0.08451500974881271,"280":-0.06972051542073167,"281":-0.395738274638293,"282":-0.4696968334935528,"283":-0.574517736332978,"284":0.3194594809330899,"285":-1.4655326379728264,"286":0.3353360636049916,"287":-0.07764108527051464,"288":-0.2548308764632242,"289":0.33400752197479083,"290":-0.238360545542073,"291":0.5587125861157397,"292":-0.3023712052003778,"293":-0.36547791693843285,"294":0.35571732688706587,"295":0.4350729831539898,"296":-0.007993346745388433,"297":-0.3516966176278817,"298":-0.33845930691023685,"299":-1.0242959655077644,"300":0.5039522887842237,"301":-1.0824360296986415,"302":0.42493232166759787,"303":0.08366051105903949,"304":-0.5566872443865837,"305":-0.38106582720421917,"306":-0.30297690189385923,"307":-0.5254039850139778,"308":0.7979161004186008,"309":-0.8294574262448243,"310":0.06668391238592841,"311":0.23988786881824717,"312":0.15997248768302358,"313":-0.916221394959826,"314":0.45162673793343383,"315":0.9071639770026326,"316":-0.48016486042073414,"317":-0.24406393808300927,"318":0.9772197187005676,"319":0.4465981013863997,"320":-0.5540406663722333,"321":0.33308468953999354,"322":-0.2494400682326279,"323":0.32034556838908096,"324":0.7565008859928642,"325":0.198330239244552,"326":0.2301841831473193,"327":-0.038462763095311575,"328":-0.26988423277878,"329":-0.5480569176076225,"330":0.4419128828782273,"331":0.2812539286178764,"332":0.45700327278285163,"333":0.9074064396318875,"334":0.1447368591818973,"335":0.6688919255708963,"336":0.3028111888177714,"337":0.5382443219344246,"338":-0.11179819719481511,"339":-0.3831214449183247,"340":-0.6358523116958686,"341":0.11688825399621638,"342":0.1486376020248388,"343":0.32935120824088554,"344":0.052698140492150214,"345":-0.6623425172452343,"346":-0.16432828936888424,"347":-0.535151448100533,"348":0.26457981528167757,"349":-0.21885007195228845,"350":0.7307036589727243,"351":-0.22153407206924844,"352":0.3484265207663772,"353":0.9487226109148466,"354":-0.4820711587664845,"355":0.4965404974292221,"356":0.23254011242104325,"357":0.4847965901646234,"358":0.8154504583638649,"359":0.6907864868771012,"360":0.20620650595076487,"361":-0.5003707253374402,"362":-0.3837221681544275,"363":0.744991712759031,"364":1.3869996203369035,"365":-0.9106850224824302,"366":0.09185970977315144,"367":0.4042935532756511,"368":0.07181084722163525,"369":-0.34774154286436276,"370":0.18716851850757416,"371":0.3041482250397156,"372":0.6032102549918738,"373":0.24904185478670213,"374":0.1815542625477824,"375":0.4820767493878704,"376":0.2552671452494636,"377":-0.23241000811198692,"378":0.14330305040214142,"379":0.6084492042523935,"380":0.47047000871275146,"381":0.2766708797172356,"382":0.35790637454919727,"383":0.2172865849964495,"384":-0.1303561298566019,"385":0.21131703672545812,"386":0.8306947456204928,"387":0.47401767579436743,"388":0.523504715138014,"389":-0.12333414981515092,"390":0.7416634139827785,"391":1.1202150516008829,"392":0.29002529313595826,"393":-0.4487136058736587,"394":0.10979270800240289,"395":0.29312919828433376,"396":-0.15778950386244095,"397":-0.4844029738862189,"398":0.8755463110047413,"399":-0.26672379436737315}},{"sx":5,"sy":5,"depth":16,"w":{"0":-0.5063959597676514,"1":-1.805087376069719,"2":0.14622915737949568,"3":0.06827267771524378,"4":0.3466334912847707,"5":-0.23314037445506494,"6":0.10569425506446066,"7":0.5915659915403716,"8":-0.6204060464592203,"9":0.4753152999593911,"10":0.1411558514295088,"11":0.23407213919143893,"12":0.17825509636860162,"13":0.30371958181265574,"14":0.09051243215513506,"15":0.23374436491662,"16":0.11060018598203182,"17":-1.156190069643124,"18":0.45586242805960836,"19":-0.13495032968472698,"20":-0.4909092262588221,"21":-0.06905446607108119,"22":-0.13783527746681062,"23":0.2142278394817647,"24":0.30996224895356667,"25":0.7114768946337786,"26":0.24323391645954964,"27":0.4656362469928995,"28":-0.3169922952652476,"29":-0.7624394093251252,"30":-0.18095787086694368,"31":0.015533782577310631,"32":0.0765218121670627,"33":-0.06589070875508506,"34":-0.646050552609235,"35":-0.1251106664605096,"36":-0.407680562197768,"37":0.6418284907475926,"38":0.46751896733447074,"39":0.3753051817045316,"40":-0.3874459547933184,"41":-0.882489487139367,"42":-0.17108168612556618,"43":0.0006778279793793306,"44":0.3645818188235678,"45":0.42590574575244644,"46":-0.39900268230961944,"47":-0.18732779765795857,"48":-0.441782252088893,"49":-0.06486693270137002,"50":-0.43739208920679007,"51":-0.2654106871542932,"52":0.26941789701118113,"53":-0.17300136739246083,"54":0.14864249350461722,"55":0.3278649111226099,"56":-0.3181745007658197,"57":-0.30544985479483966,"58":0.039996682975627404,"59":0.1127733931044576,"60":-0.06206243630429991,"61":-0.00770304735467272,"62":0.027116654383197783,"63":-0.5277724179837585,"64":-0.6383656961809427,"65":-0.27013581693036043,"66":0.01552497487845507,"67":-0.28661914012610257,"68":-0.4916999424009226,"69":0.057477670401911346,"70":0.044700922214364155,"71":-0.24950883691390036,"72":-0.19288193772158327,"73":-0.354889085827422,"74":0.1170434006353291,"75":-0.14112626348118473,"76":-0.31739635446074815,"77":0.2559098604337361,"78":-0.10150039984644342,"79":-0.8106436156606296,"80":-0.572470353612511,"81":-1.319337488710736,"82":0.5015483925192011,"83":-0.2707571070168996,"84":-0.16733537227235643,"85":0.002152261106027652,"86":0.008689816268469526,"87":0.39037591157296686,"88":0.06246462363923095,"89":-0.075357750290696,"90":0.26705397547259263,"91":-0.1407800040281175,"92":0.37262612276829793,"93":0.16193401551112757,"94":0.1882965878429412,"95":-0.14721777508624492,"96":0.18698822836271928,"97":0.03603070596687198,"98":0.3179567989923085,"99":-0.12958723270719827,"100":-0.5331485488848071,"101":-0.3758736746836588,"102":-0.06022611659839785,"103":0.05797704259245074,"104":0.1944329285934604,"105":-0.6710725464179967,"106":-0.6190699163216267,"107":-0.556872119317651,"108":-0.576932806426431,"109":-0.07215310085141666,"110":-0.2070995445886449,"111":0.0410354630161381,"112":-0.60054510022614,"113":-0.42775782968142717,"114":-0.2192802661359112,"115":0.15797267375872945,"116":-0.5339354163036302,"117":0.12240426094956673,"118":0.28189469329228173,"119":-0.7421208694874326,"120":-0.02940354780071325,"121":-0.24876752034518823,"122":-0.509323162419495,"123":-0.43732992138909443,"124":0.5779415996441627,"125":0.7941747864625814,"126":0.014934510117305474,"127":0.7239733473350777,"128":-0.6963333997702617,"129":-0.3039736624122103,"130":-0.5520352975363192,"131":-0.3643806432068508,"132":-0.1295588989442194,"133":-0.6286369782933601,"134":0.14312073060146632,"135":-0.7709548714587605,"136":0.5184986002186174,"137":0.2293494825065355,"138":0.07927486100476692,"139":-0.6544604286200604,"140":-0.25273941904166847,"141":-0.3192536356669029,"142":-0.15301785083768238,"143":0.17626034477039354,"144":-0.45997067713740725,"145":0.39073918068778396,"146":-0.4892848833955074,"147":0.11911453713427583,"148":-0.6927157091989743,"149":-0.33753986569936456,"150":-0.12490468327020184,"151":0.23238396482922746,"152":-0.6066812061985543,"153":-0.7967724018898596,"154":0.5176914220338897,"155":-0.43886014757367847,"156":-0.5050740861179789,"157":0.5266065507519275,"158":-0.1629251068959417,"159":-0.23378618226077266,"160":0.03531965110646509,"161":0.4465698220138951,"162":0.09560215080237804,"163":-0.43792960551960225,"164":0.4816531855426735,"165":-0.24590058150836064,"166":0.49827944999628476,"167":0.42085206203386105,"168":0.6796822865286536,"169":-0.020327141709388267,"170":0.3386325994543486,"171":-0.3725376905376833,"172":0.15298358528068928,"173":-0.18700585800149983,"174":0.0022826185542864155,"175":-0.5756220334420228,"176":0.7347728908749753,"177":0.6693827691043314,"178":0.03300259174190791,"179":-0.10691821856896046,"180":0.03862735774208235,"181":0.02612887885154429,"182":0.43527695289682306,"183":0.18301371732165655,"184":-0.02934411151108383,"185":-0.38276721309137296,"186":-0.11259409157302115,"187":0.09946348617987172,"188":0.25291369214784476,"189":0.4263627595873222,"190":-0.3579809056011146,"191":-0.5761397167610307,"192":-0.1694738684524415,"193":-0.21596735461295288,"194":-0.27109585144013637,"195":-0.04447358265889408,"196":0.0721516721019634,"197":0.33033289509409886,"198":-0.30078009658395904,"199":0.11974078426815593,"200":0.37369133218885325,"201":-0.34976144217879335,"202":-0.08701623842354385,"203":-0.4526864154128753,"204":0.3632108380725363,"205":-0.4972799822514862,"206":-0.2832721177720382,"207":-0.32202083958190436,"208":0.001152863946777787,"209":-0.4132981174871425,"210":-0.2598480421632145,"211":-0.32497756292440544,"212":-0.23225705704282293,"213":-0.2851485975701887,"214":-0.10875080449378488,"215":-0.3407097316575301,"216":-0.4944566365739396,"217":0.5931758880005819,"218":0.26572875014534536,"219":0.09732471165731504,"220":-0.8102930611105666,"221":-0.0527299199256395,"222":-0.11390911048941484,"223":-0.1074158540355175,"224":0.294375626255116,"225":-0.8503678755103055,"226":0.25473681090885647,"227":-0.003961947980773411,"228":0.19990080081131903,"229":0.11272368973548588,"230":-0.35621448593886484,"231":0.08499530343220908,"232":-0.8011314829305078,"233":-0.3623096571770528,"234":-0.007888683323355378,"235":0.3876466280369942,"236":-0.23500987789409472,"237":-0.49906907472235357,"238":0.027087954230023317,"239":0.10150434591902412,"240":0.5033107615319145,"241":-0.26779382788077527,"242":-0.2364399695698212,"243":-0.02053497322477575,"244":0.2583356244835169,"245":0.14634957050001715,"246":0.1424913779798121,"247":-0.31144212533045235,"248":-0.0297563079795734,"249":-0.2038690201994539,"250":0.18278087973518015,"251":0.24283780021448526,"252":0.0401775005505732,"253":-0.6638584110126351,"254":0.09192511843389731,"255":-0.633453056773577,"256":0.04157801231449138,"257":0.3573607131100967,"258":0.22338128439155866,"259":-0.07759929509157196,"260":-0.2180659914528734,"261":0.19978706084376122,"262":-0.1162114144713452,"263":0.4857058836295642,"264":0.7147525040072262,"265":0.3597320005449561,"266":0.06987914254277097,"267":0.3787049228960145,"268":-0.5800494367799152,"269":0.23484643245249676,"270":-0.577549350968774,"271":0.3849641659771096,"272":-0.3686991537375581,"273":-0.4273336819240517,"274":-0.5311480495613708,"275":-0.08099624924258268,"276":0.21669494855276406,"277":0.11477643250657331,"278":0.15554481239369825,"279":0.190085297693053,"280":-0.362133518933306,"281":-0.18940499749962064,"282":0.16028777010998482,"283":0.3434657776746031,"284":-0.24630140563035602,"285":0.2390572363829839,"286":-0.17326714648571231,"287":0.6034278414879071,"288":0.3523688553322939,"289":-0.16554169648287642,"290":-0.10718929678020907,"291":0.19925296202428494,"292":-0.31434439115773766,"293":0.2501369512102938,"294":0.06053395659069042,"295":-0.22581962594961538,"296":-0.42352130173793656,"297":0.65082853478009,"298":-0.06115144600393511,"299":0.13662553814296186,"300":0.19751118435184928,"301":0.1067686360342498,"302":0.14440314453786127,"303":-0.28971193468282463,"304":0.06934558152643626,"305":-0.5217499429017004,"306":0.9281238854086629,"307":0.6418206131703624,"308":0.05853550987950016,"309":0.47827335112008945,"310":-0.34142077159326945,"311":-0.30661297954203454,"312":0.2087868902684893,"313":0.22702591792243693,"314":-0.044092671822400245,"315":-0.4495768248433786,"316":-0.3491713447785724,"317":0.2807309493113938,"318":0.4766151498471841,"319":-0.30267052802288913,"320":-0.0417529764456847,"321":0.41033575547257223,"322":0.27508916987281373,"323":0.02616007352833442,"324":0.1829109978633453,"325":0.15817043770510567,"326":0.07652765560162586,"327":-0.24740807499358847,"328":0.4023198736604504,"329":-0.23808563071877514,"330":-0.1359458885853548,"331":0.03968296676077535,"332":0.7376131270878781,"333":0.3028137870708828,"334":0.14640051860411876,"335":0.11150120938197225,"336":-0.5090298535094908,"337":-0.33914929408751165,"338":-0.40358189190134663,"339":0.2223244247585527,"340":0.3001829386694435,"341":0.03296784040994811,"342":-0.19195111459604888,"343":-0.3993406042017539,"344":-0.2714121420075755,"345":0.07527374211878451,"346":-0.8251037213235379,"347":-0.23745871634238325,"348":0.15877276932595405,"349":-0.04866503541756396,"350":-0.1153790785476705,"351":0.07974529577028013,"352":-1.1883760813102624,"353":-0.39627284503033083,"354":0.5353888119848658,"355":0.25232137385009057,"356":0.3804549956707942,"357":0.2166188469387835,"358":-0.10617101358026479,"359":0.10884187396359182,"360":-0.08673769370722906,"361":-0.23971799416493883,"362":-0.004269395598677474,"363":-0.010399539108313628,"364":0.2131468403578904,"365":-0.13221644479168307,"366":-0.2102183179021901,"367":-0.35697038397637215,"368":0.4431639379364447,"369":-0.06473665405288494,"370":-0.32253527378039615,"371":-0.5429181849019874,"372":0.0015860261514781342,"373":-0.03791186347520964,"374":0.18364842802773854,"375":0.4396389500145364,"376":-0.205779681378936,"377":-0.07056153430887094,"378":0.21688820627982203,"379":-0.6946223204726811,"380":0.08373171370268034,"381":-0.4003224999667267,"382":-0.08897558078642141,"383":-0.5003965463602699,"384":0.6299075346260223,"385":0.4820608482592694,"386":-0.868618030163534,"387":1.052995870416159,"388":-0.01933009069840751,"389":-0.18301934496775862,"390":-0.7171382921669383,"391":0.032353693902267215,"392":0.11448206591115302,"393":-0.12132195943219867,"394":0.1501751408652028,"395":-0.9605733644280172,"396":-0.4836062691664709,"397":0.09071426849204323,"398":0.15415063244435814,"399":0.36719936446792867}},{"sx":5,"sy":5,"depth":16,"w":{"0":-0.028972777070816105,"1":-0.31273562840544633,"2":-0.25745244547412227,"3":-0.18510280637357443,"4":0.4823144479869544,"5":-0.7898352436992403,"6":-0.1705745324415268,"7":0.08838686837449758,"8":-0.05336554809291719,"9":-0.28318403808164444,"10":-0.10621226406888155,"11":-0.15766527268267444,"12":-0.27275813500141805,"13":-0.32149661489376147,"14":-0.23549633494415234,"15":-0.11078110412748483,"16":0.3473724134236926,"17":0.05641322506458698,"18":0.22628493000319347,"19":-0.42044333630003533,"20":-0.6393475819433578,"21":-0.13356941256383303,"22":-0.17731989860613293,"23":-0.5978197131402034,"24":0.4033902301194292,"25":-0.36466876459486297,"26":-0.20508200913718078,"27":-0.066175363859284,"28":-0.30319499751554774,"29":0.2555400475290784,"30":-0.31248804691409526,"31":-0.07103201051241485,"32":-0.09546653674209882,"33":0.24307649346141014,"34":-0.47271530542632534,"35":-0.41459574847283154,"36":0.4735750872251331,"37":-0.14380179748415411,"38":0.2831847571741396,"39":0.43339343011540704,"40":-0.1359816450358359,"41":0.3017594544003585,"42":-0.35313103161786114,"43":0.16825931252558365,"44":0.4647472508256053,"45":0.07577920929862603,"46":-0.4551760189861869,"47":0.01994516501707311,"48":0.013038478331981011,"49":-0.6010711786826504,"50":-0.16359305723933856,"51":0.4957916094608272,"52":0.0779906958510605,"53":-0.054622286491020154,"54":0.45372631060856605,"55":-0.19164946886700698,"56":-0.47662570220872225,"57":-0.052630739472718194,"58":0.08150113277642267,"59":0.3207606731448625,"60":0.1803624524765025,"61":0.13462160462675393,"62":0.02595072130897455,"63":0.3698640304146804,"64":0.04827664940979486,"65":-0.9935302259796923,"66":-0.8376723351382516,"67":-0.43804926137472905,"68":0.08296019750787371,"69":-0.27826152303688534,"70":0.6743964058278877,"71":-0.04992330199367229,"72":0.038204227840617964,"73":-0.11413965442038641,"74":-0.28856747248987047,"75":-0.2058572532297436,"76":-0.2555496311693557,"77":-0.20816383213551684,"78":0.2816555126878609,"79":-0.25526763192826635,"80":-0.4162887339236815,"81":-0.0679586547575024,"82":-0.20065023832846093,"83":0.1872293742868382,"84":-0.32932817939923287,"85":-0.10122503845514437,"86":-0.5608451208183399,"87":-0.5505739516029996,"88":0.04824706528370296,"89":-0.15186325527531877,"90":0.28347534763124116,"91":-0.015231761747233674,"92":0.27265340518470915,"93":0.053291937635707304,"94":0.3324962088619273,"95":-0.2987365628549961,"96":0.32850311124499365,"97":0.04724760614552149,"98":-0.7566276267202499,"99":-0.10579752194087738,"100":-0.25042864309747503,"101":0.47213017660020495,"102":-0.035241747195836934,"103":0.25126065716503043,"104":-0.1940484927767536,"105":-0.23714307230503093,"106":0.582410480323297,"107":0.0006154352904736647,"108":0.18077086086112534,"109":-0.08272605901994304,"110":-0.7077716502351331,"111":0.24931885744528443,"112":-0.4881451700894738,"113":-0.028269470238278884,"114":-1.0928506008409207,"115":-0.10252826712401648,"116":-0.06841242275309929,"117":0.23144948598700674,"118":-0.43083598014318997,"119":0.0865867209588563,"120":-0.5838822764552374,"121":-0.35854181297594323,"122":-0.582363566581303,"123":-0.0465669844272098,"124":-0.12629031869162982,"125":-0.2957548799200197,"126":-0.9182102160348697,"127":-0.08527508335614341,"128":-0.756700551684765,"129":0.36266339760572286,"130":0.14241675820398755,"131":0.35605428480420265,"132":0.04700909392252269,"133":-0.18188209465253694,"134":-0.3036107389690859,"135":0.18642199189370595,"136":-0.18981587756660886,"137":0.15502560755499414,"138":-0.601502343151497,"139":-0.28912428517010647,"140":0.547881928900913,"141":-0.17061954374678048,"142":0.13381736372359626,"143":-0.5547496718744788,"144":-0.38938337970259135,"145":0.13022368742229065,"146":-0.1929206119121821,"147":-0.2166180756927088,"148":-0.1274282928379684,"149":0.05602255014122114,"150":0.3716487792128847,"151":-0.00616523108046186,"152":-0.43465858179739303,"153":0.5323877223165884,"154":-0.35350895968114265,"155":-0.8012923590230538,"156":-0.3886279150473965,"157":0.2263353808964916,"158":-0.05917144140526939,"159":-0.6854414911029943,"160":-0.32308897658833635,"161":0.07523870095006738,"162":0.2298900891235464,"163":0.31359309327024276,"164":0.49567970431595404,"165":0.5453200087521826,"166":-0.3566079117288266,"167":0.1521044672473427,"168":-0.00862568875912584,"169":0.3771954590973958,"170":0.28343510892111184,"171":-0.24163283149805992,"172":0.07434218473102917,"173":-0.304779735859936,"174":-0.06475024632666795,"175":-0.5992173624394234,"176":0.5704488680256445,"177":0.07255378833731604,"178":-0.18929098994182417,"179":-0.2148401475509836,"180":0.017262117826883062,"181":-0.2124369504041954,"182":0.24391687630161005,"183":0.011265200753048448,"184":-0.3285838991487988,"185":0.7893852735097587,"186":-0.42737001998373947,"187":-0.1514928991458367,"188":0.094224832850336,"189":-0.06320011564915137,"190":-0.1876366546544049,"191":-0.0997907860368908,"192":-0.2542155193607956,"193":-0.002709720751585111,"194":0.02382459337741347,"195":0.027986651505102298,"196":0.41942430263082703,"197":0.2808486501666672,"198":0.32971353437216966,"199":-0.41929924940782626,"200":0.04053733152092425,"201":-0.6373167565745778,"202":-0.2043330414220357,"203":0.19807305876854242,"204":-0.07611745843059792,"205":0.1048649105763514,"206":0.0009886729727354075,"207":-0.09639940052566948,"208":0.3746956116586273,"209":0.010582983660016778,"210":0.003753950745277043,"211":0.12093964940213534,"212":-0.12648741364820934,"213":-0.17811549186048561,"214":0.014477068263312439,"215":0.5125364857732106,"216":-0.3720524860911781,"217":-0.4552926615338988,"218":-0.3419207202302963,"219":-0.7432945525769334,"220":-0.30383491093296455,"221":-0.4113575940868024,"222":0.6549771734231287,"223":0.18643555080864682,"224":0.2559390563206125,"225":-0.3662938611223778,"226":-0.012308684088709894,"227":-0.08545298696186267,"228":0.22064687051277723,"229":-0.18150823669205796,"230":-0.7343177058779394,"231":0.7993672251446077,"232":-0.22073828879347807,"233":0.03796914139599691,"234":0.23106219580622964,"235":0.44812881942222155,"236":-0.4130405780062747,"237":-0.08419944413714499,"238":0.2190380480963094,"239":-0.13445859125286072,"240":-0.04570225969853493,"241":0.4013011731608065,"242":-0.45054911496323663,"243":0.3809729954094423,"244":-0.3604078736789617,"245":-0.2674871920275172,"246":-0.004089545505631365,"247":0.6407338071316747,"248":-0.09123240833262376,"249":0.03889984238816678,"250":-0.10348988070658102,"251":-0.4481422106898217,"252":0.5070204958419998,"253":0.0075830279665670556,"254":0.2812449957031456,"255":-0.4825864740874203,"256":0.8795644235165718,"257":0.13654801577745637,"258":0.17843476632084102,"259":-0.26073079357564377,"260":-0.17841734724514566,"261":-0.3064639208715192,"262":0.4264287746932497,"263":0.024286309824611742,"264":-0.10061104005049093,"265":0.222677348670247,"266":-0.3152853413461931,"267":-0.5980551646424752,"268":-0.22757731464056458,"269":-0.23777823278643667,"270":-0.31904925997910605,"271":-0.08151536662213223,"272":0.04769605757229584,"273":0.3830072809176113,"274":0.3172962215764283,"275":-0.47895241228532237,"276":0.5032809500088424,"277":-0.1255634270969178,"278":-0.5459524090719623,"279":0.5054718278629614,"280":0.25933097964874263,"281":0.1189126625745843,"282":0.2429989432981653,"283":-0.16247926466508936,"284":-0.5228361927061149,"285":0.3096976623035061,"286":-0.2639331430028367,"287":0.08296109216676749,"288":-0.942569881788246,"289":0.2510636321966363,"290":0.08027183873579503,"291":0.3450869089782077,"292":0.026479090727195176,"293":0.24430607783954916,"294":0.686130489025367,"295":-0.12219866657448047,"296":-0.20844579942844677,"297":-1.1600190143759408,"298":-0.013788967992971213,"299":-0.29606580210274924,"300":-0.1505384598651974,"301":0.3710032061801705,"302":-0.055264917013122444,"303":0.1694074155479678,"304":-0.42634097804345383,"305":0.060941300557189916,"306":-0.5873649602713551,"307":-0.39038265874333344,"308":-0.1053425815007677,"309":-0.3078171581589757,"310":0.16323266379374354,"311":-0.2647291464063332,"312":-0.12322211172311325,"313":-0.1963379925970043,"314":-0.3311330707124285,"315":0.4958493290479777,"316":0.225755135832475,"317":0.253267407382338,"318":-0.2159689837894704,"319":-0.6981618977306345,"320":-0.08229849002938151,"321":-0.0956838363705814,"322":-0.1308999376410896,"323":-0.06101866373392459,"324":-0.5850775778807762,"325":0.022419988052432685,"326":0.23793807307692305,"327":-0.4878137521224828,"328":-0.030748493621575373,"329":-0.7880980950035277,"330":0.07328074339134706,"331":0.1348084472240115,"332":-0.05244806552045335,"333":-0.10513473124828572,"334":0.13292195152601818,"335":0.1638618150227105,"336":0.15222727012459308,"337":-0.15806027289181798,"338":-0.3890170642166307,"339":-0.9586685405316704,"340":-0.6437504740101717,"341":-0.049441573285206805,"342":-0.3278909675390813,"343":-0.04511557781676554,"344":0.13573423074495533,"345":0.03985027786630933,"346":-0.003475752690068017,"347":0.3906512008272884,"348":-0.4035669423525823,"349":0.11992424750670448,"350":-0.7861174710940787,"351":-0.2932070273583843,"352":0.11133617911236111,"353":0.14752529996497796,"354":-0.4931819855989245,"355":-0.2126076896758325,"356":-0.710252029315312,"357":-0.5584604127287234,"358":0.21220037761051697,"359":-0.40941052578466863,"360":-0.723985320997592,"361":0.9275898870953307,"362":0.05656878659389554,"363":0.40525503557475995,"364":-0.15932408471188528,"365":-0.40427555562109985,"366":-0.1726044168665105,"367":0.14919664761496865,"368":-0.5124253116408931,"369":-0.06278910179669023,"370":0.7168201564546268,"371":1.2234745799758924,"372":0.2846211191124206,"373":-0.11636986473764487,"374":0.09665448222403736,"375":-0.24902185179427042,"376":-0.13043604758430913,"377":0.0858215548763031,"378":0.48533885678432875,"379":-0.35372179277910815,"380":-0.8466227054456649,"381":0.4453932296848155,"382":-0.20304224446078184,"383":0.41432522827374885,"384":-0.5875913423694314,"385":-0.14874118184287086,"386":0.05503443054689678,"387":0.05317841216335778,"388":-0.4463569353582234,"389":0.5136044154450055,"390":0.5086534987066385,"391":0.21327534587259472,"392":0.24317313668731927,"393":0.503284200892817,"394":-0.40197612922372056,"395":-0.3386748940224337,"396":0.010822421622615023,"397":0.42939505651215837,"398":-0.008147104196891535,"399":-0.5458312016860906}},{"sx":5,"sy":5,"depth":16,"w":{"0":-0.3853971441322796,"1":-0.8303599044170519,"2":0.30596886102962134,"3":0.0035768493583506968,"4":-0.2876049801967639,"5":0.07088026413063746,"6":0.611446461341568,"7":-0.010162727152966424,"8":0.33419982833948736,"9":0.11813783796969961,"10":0.29498533113228587,"11":-0.1636657723184223,"12":-0.07857468142038737,"13":-0.4916860634263817,"14":0.28801835411797616,"15":0.18277181002260118,"16":0.34720295964154574,"17":-0.13955568725497708,"18":0.2083625942326696,"19":0.50121667375242,"20":0.14218769788680155,"21":-0.23731735126424763,"22":-0.399648992309397,"23":-0.03590631891126813,"24":0.26040935715158453,"25":0.21879787867523098,"26":-0.1492980851744128,"27":-0.1090423841938866,"28":0.2625992557269572,"29":0.07547617024016767,"30":0.24645466165184235,"31":0.011916208263897533,"32":-0.7964651878454355,"33":0.045171205586405284,"34":0.21418891589463915,"35":0.5757021081912864,"36":0.03612863160897038,"37":-0.7041561165450411,"38":-0.1389467954428576,"39":-0.07869488374520117,"40":-0.0947410426851505,"41":0.44671572500011564,"42":-0.1089141397672939,"43":-0.19797003702265675,"44":-0.07525796861151902,"45":-0.12435077728021009,"46":0.3851301252381226,"47":0.41490597663689927,"48":-0.19420283225138166,"49":-1.1732944809364334,"50":-0.4467197440516346,"51":-0.06045023416801526,"52":-0.26997216232375754,"53":0.026222217307506852,"54":-0.023878724805572397,"55":-0.08560183014636445,"56":0.20743899846837408,"57":-0.13785075706490008,"58":-0.37116554360243026,"59":0.17491872674804032,"60":0.18263973824890364,"61":-0.42418697470089645,"62":-0.33906210430030387,"63":0.48824030751831476,"64":0.020250345917112857,"65":-0.4906775147924973,"66":-0.1866315349143496,"67":-0.12442560271174076,"68":0.2913819578527629,"69":0.6018395109049395,"70":0.19310972954010736,"71":0.3399603413169622,"72":0.1670338170491527,"73":0.16893119898393102,"74":0.3224001300118294,"75":-0.13750195817652908,"76":-0.23811281848240365,"77":0.03349585600263217,"78":-0.04845732988321297,"79":0.030382357476639154,"80":-0.15374998072501023,"81":0.34016109266203703,"82":0.3381925907678856,"83":-0.3720615788928727,"84":-0.1440425423597434,"85":-0.10941320834934071,"86":0.06538879589137443,"87":0.5409769576079547,"88":-0.29674468087783035,"89":0.36220200357206517,"90":-0.39613086737139125,"91":-0.36416317875970006,"92":-0.3214860751024778,"93":0.3254868115757014,"94":0.14277593775016084,"95":-0.08330914619158845,"96":-0.3518685437272521,"97":-0.08793193683920611,"98":0.20428422114630468,"99":-0.21395223443171452,"100":0.5448392481581393,"101":-0.28268443082192785,"102":-0.2124702715795654,"103":0.17972660519582676,"104":-0.19133355200666224,"105":0.30769053075218594,"106":0.05768321511302079,"107":-0.28644523694861734,"108":-0.6166285063597868,"109":0.05415290592198074,"110":0.2475000197042792,"111":-0.43238538938767446,"112":0.33772766068453575,"113":-0.25754002120276115,"114":0.6588153763257558,"115":-0.22391135467455825,"116":-0.06241299733895378,"117":-0.45872874670722547,"118":0.3093240526494897,"119":-0.4003489060260973,"120":0.2066352611538067,"121":-0.4984178382700323,"122":-0.3231873090157181,"123":-0.10544953580948113,"124":0.180489178626329,"125":0.14457351080675301,"126":0.026125810672876882,"127":-0.2575970909595617,"128":0.558469663949951,"129":-0.10972018544628288,"130":-0.05509710302453587,"131":0.12656041794540965,"132":-0.18719552768723574,"133":-0.3359252404373285,"134":0.05109328095662641,"135":-0.5027487027308758,"136":0.20828577957829464,"137":-0.5659130245100136,"138":-0.6266091548224557,"139":-0.21261176515084684,"140":0.0063885462323163755,"141":-0.25154532260576223,"142":-0.03040888209441194,"143":-0.28622443086696175,"144":0.3768917414822877,"145":-0.21626675694686692,"146":-0.2280438545585357,"147":-0.42301296515935705,"148":-0.03154173575041581,"149":-0.14377732115391564,"150":-0.33345171643919114,"151":0.14703842993929386,"152":0.06235387904950575,"153":-0.21555298389265654,"154":-0.7971525957337399,"155":-0.5518476824241725,"156":-0.29197933659183056,"157":-0.15948166778701497,"158":0.056684388869905976,"159":0.3090417058289958,"160":-0.40023017187639365,"161":-0.12225232041585295,"162":-0.9976166358679045,"163":0.056100541209477064,"164":-0.17144780177320929,"165":0.4314714771180254,"166":0.37622881354189636,"167":-0.28615528106368643,"168":-0.34035854639199364,"169":0.19018489934348526,"170":0.04776278855225278,"171":-0.03160101587060082,"172":-0.40383223978836025,"173":-0.05120721188310317,"174":-0.0560350701507245,"175":0.17038452409030475,"176":0.2540268390554851,"177":-0.14497284349747885,"178":-0.18062086264307778,"179":0.1267263173524174,"180":-0.15039357142461154,"181":-0.031318396618056674,"182":0.3874896269783745,"183":0.18511381471948665,"184":0.1169843140703714,"185":0.08426121853829603,"186":-0.3147357228431073,"187":-0.49029839975520945,"188":-0.6079526300233518,"189":0.17161301370158352,"190":0.06594506541254745,"191":-0.2850681922193685,"192":-0.14406220735476577,"193":-0.25146265403188633,"194":-0.14248985776559966,"195":0.1004353540194317,"196":-0.08466149210686008,"197":-0.6548641116831397,"198":-0.3390726269923238,"199":-0.0566687462874929,"200":-0.03062492705585743,"201":-0.04895738854739993,"202":-0.46268254785293167,"203":-0.4493506008079541,"204":-0.12379177463513569,"205":-0.25480733088803553,"206":-0.10461236563760627,"207":-0.03820960255991799,"208":0.4414679641448576,"209":0.11890503775094267,"210":-0.5091053524767498,"211":0.23996652084240538,"212":-0.0470247792019372,"213":-0.06963305763371627,"214":0.12359623210565947,"215":-0.3262737033170895,"216":0.14854559561807493,"217":-0.6992559366056613,"218":0.10205607770818673,"219":0.4453310449998022,"220":-0.36823005908783973,"221":-0.15406829167555294,"222":-0.30838836893854116,"223":-0.08475371654667253,"224":0.3250910022679482,"225":0.01314471940473483,"226":-0.056558864748197726,"227":0.2084056619651066,"228":-0.5097583932835702,"229":-0.4395051369548122,"230":-0.22651113452252897,"231":-0.016936431233133296,"232":-0.5084751086861125,"233":-0.15069801530656712,"234":-0.0004960351351371894,"235":-0.31020131751837793,"236":-0.35651118591905434,"237":-0.1848974110230853,"238":-0.3489332655020031,"239":0.050472685471057176,"240":-0.3656411650938823,"241":0.10533935494639143,"242":0.06550644748594554,"243":0.061361588487711796,"244":-0.4780917780668991,"245":0.14874988698713845,"246":0.3579276631587033,"247":0.0598289216077795,"248":-0.08235028664398489,"249":0.3104667500645207,"250":-0.051407180980830657,"251":0.17721988101891142,"252":0.4592381236493191,"253":0.09574087163661796,"254":-0.3897434334983865,"255":0.27338598320892965,"256":0.47053470087296834,"257":0.09616599551133156,"258":0.1108633791409574,"259":-0.21592009202017223,"260":-0.07708031313476638,"261":0.19533683113462957,"262":0.16231841539171407,"263":-0.527447477934566,"264":0.0892549129906156,"265":0.03657397031029125,"266":-0.2698628518018339,"267":0.11542390630191188,"268":0.4826052298825411,"269":0.07358130067515194,"270":-0.7206207185281108,"271":-0.21486365412177827,"272":-0.0090669289420745,"273":0.2909632059192519,"274":0.05774793087148807,"275":0.08758350829580493,"276":-0.06924392091302117,"277":-0.5435717044870902,"278":0.365164940219348,"279":0.2082297370404277,"280":0.275277839415726,"281":0.4004990634635252,"282":-0.5300557125236288,"283":-0.24934541910558067,"284":-0.3233255613464767,"285":-0.17949062108097877,"286":0.061677917048213404,"287":-0.8146006747072427,"288":-0.3198964321416492,"289":0.13568659752981063,"290":-0.2602666615912947,"291":0.19030857859884545,"292":-0.09430996433679753,"293":-0.05836053203003159,"294":0.0024332329434883374,"295":-0.15115527345605917,"296":-0.5086268328515148,"297":0.09295370000034468,"298":0.5469191767799144,"299":0.1819176412702452,"300":-0.17680777114428267,"301":-0.3916692154072718,"302":-0.47661818390850264,"303":0.016271418028331843,"304":0.007797661969594705,"305":0.08919901406181933,"306":-0.06832474822810553,"307":0.2516219187918186,"308":0.05229145843013846,"309":-0.1630443320241309,"310":-0.0024390842640796212,"311":-0.4335992013543444,"312":-0.444911707221693,"313":0.12024889882877553,"314":-0.027952348467164483,"315":-0.18215056824298306,"316":-0.22467584451870276,"317":-0.23509523648310832,"318":-0.8133105434054667,"319":0.38704435701305867,"320":-0.11770615971791193,"321":0.2212358703797281,"322":-0.035416417854002714,"323":0.25363459376457065,"324":0.3650648552875267,"325":-0.1732224343153045,"326":-0.3617355721942859,"327":0.12589099779929072,"328":0.20673092800060114,"329":-0.1978246426263203,"330":0.013792097388226615,"331":-0.0571067294503727,"332":-0.08568134758531236,"333":-0.5179221915276375,"334":-0.4358200129304585,"335":0.8272580002666842,"336":0.045023368928086734,"337":0.03556524632953435,"338":0.23214076003585052,"339":0.08085199794745498,"340":0.1731739369661553,"341":-0.21914196956148158,"342":0.23552691033519021,"343":-0.7483993699039326,"344":0.3229317237715552,"345":0.09448233763015561,"346":-0.20245754065389443,"347":0.021625330023643974,"348":-0.16517078172362823,"349":-0.7646561639219679,"350":-0.6675572377397485,"351":0.3771086979299388,"352":0.6246512451391998,"353":0.25833567703940763,"354":0.29239095761656025,"355":0.6046117398500421,"356":0.21761611790561966,"357":0.331976196541829,"358":-0.3238292383313207,"359":0.061263390079761185,"360":0.07049834132606674,"361":-0.06106271276403991,"362":-0.31571892268513835,"363":0.3991927440158333,"364":0.34151677931475505,"365":0.0030378603233607486,"366":-0.739309192097193,"367":-0.5539656163396506,"368":-0.13722132262635742,"369":0.028467874174351974,"370":0.29092464223659814,"371":-0.044116609762343606,"372":0.20189807937500093,"373":0.09374082172565881,"374":-0.11944316388918652,"375":-0.5907983684613727,"376":0.0788018746434048,"377":0.7059751851560675,"378":0.5777554357984868,"379":-0.16655142554432,"380":-0.14389795171834535,"381":0.2988996099102596,"382":-0.6967914895957171,"383":0.09905506648953957,"384":0.04864572855176183,"385":0.0484864400286749,"386":-0.12305353825965479,"387":-0.016564352275754934,"388":0.02377895903206945,"389":-0.3049347390318458,"390":-0.060422198371617025,"391":-0.291210028550982,"392":-0.10713738343285086,"393":0.29802891656138625,"394":-0.5312740841262159,"395":-0.44234106442126325,"396":0.11998242728331093,"397":0.2144868560198481,"398":-0.24269112495970163,"399":-0.5137132926936365}},{"sx":5,"sy":5,"depth":16,"w":{"0":-0.2656563003136974,"1":-0.30256304658610056,"2":-0.09079721937706393,"3":0.16128280347861113,"4":-0.2962776279306532,"5":-0.08411142082413986,"6":-0.22442261185815993,"7":-0.24387502803399147,"8":-0.07952927516763439,"9":-0.2739924473714902,"10":0.40644060970414886,"11":-0.42436419736308345,"12":-0.257025039435264,"13":0.32322034139421296,"14":0.10641056987371213,"15":-0.4257745105963918,"16":0.5670776736260251,"17":-0.8062977515973906,"18":-0.5756197410154343,"19":-0.7433502218383785,"20":-0.14876009270912666,"21":-0.7080356280292168,"22":-0.05076254661529719,"23":0.013846612825003338,"24":-0.15877727802411995,"25":0.3080891915514729,"26":-0.34401311268663654,"27":-0.29260676234842714,"28":0.3234414020486023,"29":0.3528646836992142,"30":-0.347070996401187,"31":-0.5528328489199228,"32":0.569058223427409,"33":-0.5307729574665148,"34":0.2736231514897,"35":0.23727063806914134,"36":0.5642635420915877,"37":-0.23653010379014025,"38":0.3629867688704892,"39":0.8469276323956102,"40":0.007012900776618419,"41":-0.5006864720730155,"42":-0.3478738384470213,"43":-0.2862720455522808,"44":-0.046204004577295135,"45":0.42000987276519697,"46":-0.7263515596279967,"47":0.3561150323911203,"48":-0.22416506828760782,"49":0.27791086204153864,"50":0.2921929023779589,"51":0.1212409916566249,"52":0.019974172659695793,"53":0.2580146131840731,"54":-0.4145871684111966,"55":0.12772059213940307,"56":-0.3158266807998413,"57":0.10108377064728369,"58":-0.2609280394724117,"59":-0.1300785536548364,"60":0.18003170466145743,"61":-0.02446418824158049,"62":-0.5423565708508364,"63":0.004984189211677345,"64":-0.19517765341147353,"65":0.05954784882188776,"66":0.2152030095355455,"67":-0.04323061254487066,"68":0.3634631566777898,"69":0.5388433248375405,"70":0.11122406000655302,"71":0.40715602753284436,"72":-0.0063493145408914575,"73":0.18529268630435208,"74":0.22902578458733772,"75":0.07373498739794794,"76":-0.6140217714204266,"77":-0.08992816650663711,"78":-0.1314240543826127,"79":-0.2975136761935911,"80":0.10568008253950735,"81":0.2123365351176104,"82":0.22378932514831898,"83":0.008616854670937533,"84":-0.1005631456560546,"85":0.08989808865521752,"86":-0.1917039488882447,"87":-0.2811691519163788,"88":-1.0824089307728888,"89":-0.18256740198596183,"90":0.4972660365972114,"91":0.46658379533523053,"92":0.1761035052876335,"93":0.39871826739221,"94":0.4906051597038212,"95":-0.2098535685966244,"96":0.34023284746729204,"97":-0.26825605912233336,"98":-0.8959719258837955,"99":-0.08767539008293332,"100":0.025134691753342934,"101":-0.28875439951458115,"102":-0.05845532648413418,"103":-0.13383820857048606,"104":-0.29990929291207985,"105":-0.4279386307471268,"106":-0.16256649780876775,"107":-0.833569650910619,"108":0.08228565754295114,"109":-0.196993388858738,"110":0.06275004806534078,"111":-0.29828505176217324,"112":0.10632495581489722,"113":0.2877533632105214,"114":-0.33528864532921604,"115":-0.04343248083171852,"116":0.02974973234334326,"117":0.33045062136944037,"118":0.23360452122673322,"119":0.1502679189956401,"120":0.36996765235360685,"121":-0.20722726871243138,"122":-0.3030868991126279,"123":-0.022963823523561105,"124":-0.2986995027748833,"125":0.021271276635872433,"126":0.20999032848002575,"127":0.05817726041685097,"128":-0.20764516902408586,"129":-0.5243112988514106,"130":-0.7650662861430313,"131":-0.26115695948788203,"132":-0.15326809897899957,"133":-0.3032916401551823,"134":-0.12570363363927772,"135":-0.7251536771303666,"136":0.08072865615512038,"137":0.04060015694109785,"138":-0.5299564185785464,"139":-0.24739361406208177,"140":0.19925594099172184,"141":0.40533897358898635,"142":0.033921013289121574,"143":0.2077446162942914,"144":-0.19695778460659089,"145":-0.07720301034815921,"146":-0.2840240367331928,"147":-0.33008939941948845,"148":0.5039523931906955,"149":0.04644587316637533,"150":0.1118372033219874,"151":0.22328500530634532,"152":-0.0008123922008660372,"153":-0.5925422370708544,"154":0.18736202956442413,"155":-0.17873967713770755,"156":-0.055349747013619194,"157":0.15680033108173355,"158":0.11241351176702319,"159":0.3844077727460641,"160":-0.2310873138582476,"161":-0.06878013301077025,"162":-0.2325934861620294,"163":0.0798589426299258,"164":-0.027974317263248123,"165":0.08721834045848816,"166":-0.2702877408381326,"167":-0.18669186658147524,"168":-0.6575880370541719,"169":0.009057142466831949,"170":-0.3946441466722564,"171":-0.4490890473232802,"172":0.25028689650385005,"173":-0.2558451775508058,"174":0.7288096379523331,"175":0.03983027550530133,"176":-0.10239045044727177,"177":0.060594204083994845,"178":-0.20218233925578216,"179":0.21337830493849713,"180":-0.36597056811024364,"181":-0.7846883910056833,"182":0.10702840868908436,"183":-0.48281838426618606,"184":-0.5699379633273784,"185":-0.22307269049963274,"186":-0.08950295521294789,"187":-0.452059784564636,"188":-0.3758251445344424,"189":-0.24402252561811752,"190":0.20313437971261863,"191":0.3913213408700445,"192":-0.581278727009704,"193":0.13902750195566208,"194":0.14694013648941082,"195":-0.23981717990209672,"196":0.270286243559404,"197":-0.4369725207305199,"198":-0.3309433532943972,"199":0.08109360594951763,"200":0.005744121985350074,"201":0.11786877937653015,"202":0.12238350658477046,"203":-0.7189814852448977,"204":-0.29750680044581174,"205":-0.15234722286494806,"206":-0.011453191302724462,"207":-0.4788875844672657,"208":0.4132375135988881,"209":-0.11800053877100883,"210":-0.5272075644281251,"211":-0.23687881919451376,"212":-0.18939215271598028,"213":0.06714809992986358,"214":-0.17961576074314517,"215":0.2934520313772376,"216":0.2864654297551749,"217":0.18887214977369624,"218":0.2751582020591595,"219":-0.39165638436383354,"220":-0.3948471657412762,"221":0.937482396247055,"222":-0.4269282648703624,"223":-0.1418474740581755,"224":0.21666673564690042,"225":0.13297222361594271,"226":-0.1750209993122899,"227":0.37134080448900764,"228":-0.5181076731862463,"229":0.1823055041589193,"230":0.4289882489665804,"231":0.479514357203756,"232":-0.03559546617765533,"233":0.12319038728975959,"234":-0.10124057648007578,"235":0.08503979547676441,"236":0.4389039757400286,"237":-0.04812479136136489,"238":-0.41387040084307636,"239":0.0815407603336729,"240":-0.04171777673310904,"241":0.03301767986030643,"242":0.17483499117862472,"243":-0.1835976682459667,"244":-0.32823200352407295,"245":-0.47909908785260574,"246":-0.17913998441518253,"247":-0.29584974948279025,"248":0.22941601208277237,"249":-0.5536703501571674,"250":-0.3608062720585282,"251":0.05991769254343384,"252":-0.5587576589553501,"253":0.1174213889649562,"254":0.3482628165299311,"255":-1.0178671336319747,"256":0.1471927395873895,"257":-0.5193918711474229,"258":-0.3026976640150018,"259":0.3801742001885372,"260":-0.24319157130420274,"261":-0.16912093900041172,"262":-0.04639646291042931,"263":-0.7617994488783753,"264":0.1511039059065514,"265":0.4932911796728668,"266":0.2940100515071077,"267":-0.2563384114369915,"268":0.11539291712510659,"269":-0.29060639403196387,"270":0.005874564546374069,"271":-0.005891096267258556,"272":-0.5613691539179708,"273":-0.512604544133055,"274":-0.3417182715949622,"275":-0.1965014129751227,"276":-0.4307317064624196,"277":-0.6600353074641496,"278":-0.41725079645869445,"279":-0.47850981798986036,"280":0.4746951098923133,"281":-0.6412127952013601,"282":-0.3053477128827587,"283":0.06388230001944614,"284":0.252148360205437,"285":-0.3797812396360894,"286":-0.15524425406826883,"287":0.4968485772791548,"288":0.11449214610385101,"289":-0.09145146885362783,"290":-0.44903311607861496,"291":0.3271649487778068,"292":-0.4704053402239763,"293":-0.2657172184009561,"294":-0.5861504089772456,"295":-0.2815148095599281,"296":-0.39442924316112615,"297":-0.3272243853818673,"298":0.07194711318173591,"299":-0.05008872699589465,"300":-0.36180371784944465,"301":-0.2151868290952404,"302":-0.36945894686149733,"303":0.03632068984652966,"304":-0.6120041439403516,"305":-0.13922012581408758,"306":0.06876142964590697,"307":-0.14669136749008013,"308":0.18568474123697243,"309":-0.07317917585167565,"310":-0.3049027077458797,"311":-1.1108278210049702,"312":-0.07907779518313492,"313":-0.14829621611939414,"314":0.06698753144023838,"315":0.016924524578997832,"316":0.7541853792318078,"317":-0.37596564620195094,"318":-0.6629318777305488,"319":-0.1446735466672194,"320":-0.02566051867469728,"321":0.1795961515943829,"322":-0.018068722594636825,"323":0.10587781218189789,"324":-0.09207296390881135,"325":-0.16910602609386868,"326":-0.48611656236668654,"327":0.29975245097174624,"328":-0.1913543328062533,"329":-0.12899066257825317,"330":-0.7024697190613284,"331":0.3775774490457168,"332":0.5792635817500831,"333":0.07432146031178852,"334":-0.4267522005689925,"335":0.19539029167817323,"336":0.10279954954816384,"337":0.48719359056583084,"338":0.17085419694088463,"339":0.3923251605387325,"340":-0.08278739957215167,"341":-0.36604339117534546,"342":0.2558772596050917,"343":-0.05238344044842326,"344":0.03361662760699485,"345":0.03184176949866481,"346":0.5735148085648339,"347":-0.0890773471170925,"348":-0.0894233520388213,"349":0.1789703826419763,"350":0.37545228124641455,"351":0.056438106205151314,"352":0.5511845943006725,"353":-0.5132336251006865,"354":-0.2038379590834474,"355":-0.22827911418739885,"356":-0.2872500615968422,"357":0.3815908347743387,"358":0.0034083015386399524,"359":0.4534146539773896,"360":0.20456676543644114,"361":-0.5421437900851747,"362":-0.3412637953452076,"363":-0.5548996381095674,"364":0.2450535504336791,"365":-0.3189237006520653,"366":-0.043243912604205584,"367":0.5158918115915863,"368":-0.13371976132700372,"369":-0.2142824700258161,"370":0.7000429551203343,"371":1.0260330899823682,"372":0.5717543137897247,"373":0.2709802913694821,"374":-0.031326022052965447,"375":-0.6266205030244902,"376":-0.04924288939365914,"377":0.06448521892419964,"378":0.43702412311393146,"379":0.1186991204449337,"380":-0.13989819514473467,"381":-0.008665601197921383,"382":0.10205956333145115,"383":0.138372638740045,"384":-0.06663001627366638,"385":-0.318054150289603,"386":0.268254836333543,"387":0.4001692405326355,"388":-0.6018303503442719,"389":-0.05564820122941148,"390":-0.12398619301870355,"391":0.08748913479262364,"392":0.06153137601019733,"393":0.21328112580693062,"394":-0.5788301307844567,"395":-0.4491479501025098,"396":-0.23640249677985775,"397":0.10119439122404887,"398":-0.4382444700309888,"399":-0.292622369926745}},{"sx":5,"sy":5,"depth":16,"w":{"0":1.1124482913356828,"1":-1.2369627592549186,"2":-0.23842192777844098,"3":-0.17917126999469132,"4":-0.23589555072462273,"5":0.5408481413540235,"6":0.10138680701160546,"7":-0.2100918026017645,"8":0.12880764525801439,"9":-0.03897112689252796,"10":-0.16735016028712077,"11":-0.7293106343376401,"12":-0.4525266840115883,"13":0.13293568467914685,"14":-0.5233087844607748,"15":-0.0203084263788235,"16":-0.10456766439332413,"17":-0.6879401698721245,"18":-0.7713522163010876,"19":0.034250475931793756,"20":-0.231345103530134,"21":-0.10626166458418917,"22":0.035853583680843584,"23":-0.1861071411670407,"24":-0.09776202881939458,"25":-0.5052273065443146,"26":0.5562154455291322,"27":-0.7451615630956342,"28":-0.0018761319220799212,"29":0.22316020545725138,"30":-0.7678946744770306,"31":-0.11702794270964482,"32":-0.3491731262844096,"33":-0.035744582534558464,"34":-0.18331865592138058,"35":0.6537459351059429,"36":0.8017215389458234,"37":-0.4959520452112705,"38":0.2136385438405666,"39":0.6844787482182356,"40":0.615588240473312,"41":0.3975676074324583,"42":-0.31209812315680374,"43":0.2905746151372252,"44":0.2577866050012382,"45":0.1334391628117033,"46":-0.18782056731966432,"47":-0.5430055598759101,"48":-0.31516833216459816,"49":0.036232412929492155,"50":-0.20722606704127303,"51":-0.05957297585067566,"52":0.4143478011887998,"53":0.0962042505547662,"54":0.18545456661247162,"55":0.1209218165809483,"56":0.46541558231277946,"57":0.657822883569513,"58":-0.1800051596647111,"59":0.585069362522642,"60":-0.07326003135909254,"61":0.3343692353276,"62":0.033105870983385736,"63":-0.33403227745715275,"64":-0.024897464590366545,"65":-0.19338788939455556,"66":-0.3491664070211084,"67":-0.5055254256537973,"68":0.10401337554449211,"69":0.2845500124356566,"70":0.39387137750272233,"71":0.0957653168000396,"72":0.14467455518151243,"73":-0.10082189607954978,"74":0.3827270348593847,"75":0.15732354799982037,"76":-0.5970100200832331,"77":-0.1999949586627558,"78":-0.08229044670183987,"79":0.5537437214985745,"80":0.5213145811928559,"81":-0.792599248207735,"82":-0.5634236739380083,"83":-0.3103923378756681,"84":-0.11095135641291787,"85":-0.03206561399496898,"86":0.19029599168763847,"87":0.617034159273034,"88":-0.2674234237268746,"89":-0.37210756930913225,"90":-0.008771021337991179,"91":-0.3313506766556853,"92":-0.25583565946379994,"93":-0.0653459507141043,"94":-0.29739105947441086,"95":-0.22191206994419027,"96":-0.5662091845558411,"97":-0.5488609418898993,"98":-0.19422349872290315,"99":-0.3095174618734929,"100":-0.35395316300883,"101":-0.7908046563780851,"102":0.011804268443412412,"103":0.2122913003142234,"104":-0.41714749698222175,"105":0.4001757630955444,"106":0.6695295489153456,"107":-0.32948345931330825,"108":0.21439188253058752,"109":-0.09572872561731806,"110":-0.29112721027878585,"111":-0.1547728941600294,"112":-0.029175890713823805,"113":-0.3736190068548109,"114":-1.0783574050830467,"115":0.3805736767407979,"116":-0.22402909200894336,"117":-0.03247188657209352,"118":-0.41833499988256745,"119":0.10318558644224858,"120":0.4650138999021424,"121":-0.10044128925927323,"122":-0.6593820661193653,"123":0.19061802569299416,"124":0.14565447143438803,"125":-0.003741839555053297,"126":0.27047627621521536,"127":0.03703912226749246,"128":-0.22908534266342004,"129":-0.3753111204880287,"130":0.06389575443184124,"131":-0.29624806245076885,"132":-0.2804670753751555,"133":-0.2238495655014616,"134":-0.26696800676193333,"135":-0.16298789608503866,"136":0.17384530016065353,"137":-0.4605762363655479,"138":-0.03885733447183181,"139":0.0010671634399502163,"140":-0.4922067202002082,"141":0.039320518517270996,"142":-0.5837838318012261,"143":0.28036633244308645,"144":-0.014546194310919967,"145":-0.4117087458561291,"146":-0.17746079938416323,"147":0.13201769391725487,"148":-0.44780895195394577,"149":-0.11481516639042226,"150":0.29832005161536584,"151":-0.04927849275064766,"152":0.06016341065702902,"153":0.1595001232648058,"154":0.060658756711148114,"155":0.4122306136929236,"156":-0.3512152886751567,"157":-0.07891045767419093,"158":-1.2329430420767786,"159":0.7076348565610718,"160":0.5808943289224759,"161":0.4435190146782086,"162":-0.19625373254773265,"163":-0.07135784162448898,"164":-0.9535571608496428,"165":-0.188113765658194,"166":0.1659481794773544,"167":-0.05003691078480846,"168":0.5627367198884856,"169":-0.16605141033817739,"170":-0.2065399852454745,"171":-0.16014340491398937,"172":0.15155711631897878,"173":-0.2782645672292321,"174":0.44046051358928995,"175":0.45749129536403593,"176":-0.27932894615141984,"177":0.2093964969587782,"178":-0.18573220279801517,"179":-0.20288516961406955,"180":-0.7210085331402148,"181":-0.3071215065917838,"182":-0.22211534231434665,"183":-0.2618017206949668,"184":-0.17055987466612704,"185":0.1825129863683892,"186":-0.48530843134067086,"187":-0.22777423652741333,"188":0.896838689698969,"189":0.2721598024509353,"190":0.14112263974068903,"191":-0.3803444262116061,"192":0.03828861491844314,"193":-0.17218681491678198,"194":-0.1020719619481362,"195":-0.010772487201038424,"196":-0.11911464749331396,"197":-0.7707127077450299,"198":-0.03385919268532402,"199":0.08876300630363954,"200":0.07642398890346638,"201":-0.32547971793641983,"202":-0.47952985857035474,"203":-0.08631301596372722,"204":0.02855342745559617,"205":-0.25563322259013205,"206":-0.4403069555885912,"207":-0.15491129641398588,"208":-0.09486738928912668,"209":0.48463643007761004,"210":-0.06113362180161253,"211":0.36439888476516785,"212":-0.2618057326767173,"213":0.5020841615145557,"214":0.3282197081827286,"215":-0.10870116889244963,"216":0.5640605726101826,"217":-0.3164171469379977,"218":0.10347359262668546,"219":-0.3360014824066438,"220":-0.36982310199320534,"221":0.007252058392586395,"222":-0.428974745543756,"223":-0.16126959180334277,"224":-0.13836224597459307,"225":0.0971939635563592,"226":0.5375769856429502,"227":-0.21898701800270548,"228":-0.594086403849621,"229":-0.136966139952663,"230":0.30317213078365823,"231":-0.755534345509522,"232":0.18130989176259157,"233":0.014656985483902091,"234":-0.012173711070591342,"235":-0.6186783773684915,"236":-0.3726660958521443,"237":-0.4322659937853473,"238":-0.30556374146994186,"239":0.33746960470108317,"240":0.26515367068597706,"241":0.12606319944516645,"242":-0.022010477807161227,"243":-0.22653884326127144,"244":-0.10603902746247763,"245":-0.566623882039509,"246":-0.0007706500907949423,"247":0.14918843600015916,"248":-0.3977708332392569,"249":0.2406504368643807,"250":0.20463436529122564,"251":0.3776182670166271,"252":-0.0486345369441959,"253":-0.24470666796656315,"254":0.793695381046949,"255":-0.02546656626639626,"256":-0.16006728452885347,"257":-0.057026606760260154,"258":-0.1320898193065558,"259":-0.2163419676191972,"260":-0.29537655187642864,"261":-0.1918984329433507,"262":-0.2279210740224588,"263":-0.5094903100045943,"264":0.4064358070967627,"265":0.4548620729133576,"266":-0.03033332191702011,"267":-0.1541805001347342,"268":0.14608096382500876,"269":-0.14668677122166693,"270":0.27100918512957956,"271":0.023235473975788595,"272":0.16212800633742563,"273":0.03892714544083405,"274":-0.40777659808130057,"275":-0.1077806394340236,"276":0.21802811451135243,"277":-0.5792267765362729,"278":0.5075927356337079,"279":-0.3728556970461516,"280":0.3320877214234182,"281":0.12737902968138026,"282":-0.44065955963429604,"283":-0.4147447550726506,"284":0.0851624279342588,"285":-0.14966667960667798,"286":0.2407998863380521,"287":0.21551705534026105,"288":-0.482834825055377,"289":-0.04187070200365923,"290":0.06216117069828845,"291":0.04309120252846168,"292":0.20505426508168895,"293":0.761736980091301,"294":0.09009924267023753,"295":-0.571601242829012,"296":-0.8125447162615378,"297":-0.09302926181436677,"298":-0.3788348723293838,"299":0.041924989599200685,"300":0.22136653599125858,"301":0.23587280520262144,"302":0.26973899598696527,"303":0.12168755431139831,"304":0.22852405734429054,"305":-0.3953400161652407,"306":0.29888192473878067,"307":-0.40118894562631974,"308":0.21632714564467542,"309":0.06133555511486716,"310":-0.11590975707487938,"311":0.3995036167655637,"312":-0.23367271916271035,"313":0.560005748238371,"314":-0.5302633927076312,"315":0.23274915135817864,"316":-0.03701705772060447,"317":0.5029111074008447,"318":0.14103368313445505,"319":-0.16930252854730557,"320":-0.5596220594835986,"321":0.002690594654583839,"322":-0.20655748922924988,"323":-0.6700983117515478,"324":-0.24918402819949906,"325":-0.15976174561308676,"326":0.34657708397930814,"327":-0.2552844282003853,"328":-0.37794899181954367,"329":0.35897319802394534,"330":-0.2031908159581477,"331":0.3600153394806136,"332":0.3485499348823539,"333":-0.1596136166571012,"334":-0.1789751707098441,"335":0.2022113891445709,"336":0.08446178307400896,"337":0.3481067829404356,"338":0.1045317180974869,"339":0.009455957596229093,"340":-0.1978932560948801,"341":-0.38092453056017755,"342":-0.47699301929124943,"343":-0.35670512643591934,"344":0.07174143315347369,"345":-0.05723937263816915,"346":-0.04767839554118005,"347":0.3400602169557206,"348":0.07433858584285903,"349":-0.1370073986085409,"350":0.09028616763908258,"351":0.05362155205881336,"352":0.24695583981078723,"353":-0.19527096109123246,"354":0.1526032283698355,"355":-0.46976798840735634,"356":0.28903713442763174,"357":0.36840458812148363,"358":-0.5267246421438377,"359":-0.6128175674744767,"360":-0.39933455891947744,"361":0.46827064618800723,"362":-0.829169683238939,"363":-0.13998382028537712,"364":-0.12351396083387754,"365":-0.02804286719614253,"366":0.23560021159584785,"367":0.056278845703622044,"368":-0.6680904307131482,"369":-0.3764483915661584,"370":0.2945411375023797,"371":-0.1603862922805947,"372":0.020638719044416023,"373":0.018594628335127948,"374":-0.005811953345860669,"375":0.24945796962288758,"376":0.045955737009815985,"377":0.5311739634418942,"378":-0.16376845780208849,"379":-0.3962018128301164,"380":-0.18905471525187365,"381":0.006378082917586571,"382":0.3262655364929446,"383":-0.4650436836640508,"384":-0.9381801767901109,"385":0.26473872159339823,"386":-0.3236613848912265,"387":-0.05540339570193755,"388":-0.14248996053063862,"389":0.36154267011705254,"390":0.2628939926495736,"391":0.26328269666369836,"392":-0.16907394247776336,"393":0.5555068283422145,"394":0.6125164693689732,"395":0.10291901013517799,"396":0.3639484439918076,"397":0.47996647883663685,"398":-0.3824459441826484,"399":0.04718446055615391}},{"sx":5,"sy":5,"depth":16,"w":{"0":0.609243587889692,"1":-0.32473445859649025,"2":-0.4430360227507514,"3":0.036657874670677826,"4":-0.6019567354648893,"5":-0.13158755403944694,"6":-0.42461148110321134,"7":-0.03533679520303625,"8":0.05824126339478929,"9":0.5101063177996867,"10":0.11418173950709756,"11":0.3685907767910659,"12":0.5728188706657866,"13":0.07009730997571721,"14":0.015010789851911167,"15":0.17725558917681297,"16":-0.13127106093607305,"17":-0.2014600697266765,"18":-0.4595665819197483,"19":-0.1758699259590264,"20":-0.3272482143408592,"21":0.3340929838877343,"22":-0.019357928700311142,"23":0.14461769866119462,"24":-0.08657717480952423,"25":0.19294539841364908,"26":0.3423163087866298,"27":0.09024486127550048,"28":0.2285123821266789,"29":0.2827655148387013,"30":-0.6839349030454215,"31":0.4566490417902889,"32":0.25585095966016624,"33":-0.6486434988249111,"34":0.7259224776367847,"35":0.5040214221027679,"36":0.27697323043445016,"37":0.38628750064595263,"38":-0.1700156408799481,"39":0.3674807704031167,"40":-0.3603291392114259,"41":-0.1444308376017684,"42":0.3028473057612949,"43":0.06321914081123857,"44":0.4158627109152737,"45":-0.30118172661173065,"46":-0.044019176626836784,"47":0.2600871626437516,"48":-0.6374800598998578,"49":-0.4779362695820047,"50":0.13453720090460744,"51":0.772699530819466,"52":-0.06429805165407941,"53":0.55400082844323,"54":0.17412476558487486,"55":0.3059276452366829,"56":-0.313218117458086,"57":0.19621017169355306,"58":-0.1813477419094388,"59":0.04392651198287334,"60":0.14657808270924025,"61":0.28721233618739034,"62":0.730272061996604,"63":-0.1691831864563821,"64":-0.26972381734687095,"65":-0.7993010164065903,"66":-1.0506466171595428,"67":0.9917054789330316,"68":0.0923646790998339,"69":0.3650724608443505,"70":0.09473367900678868,"71":0.2565432254095642,"72":0.6119237097579309,"73":0.10252010777289446,"74":0.25242491687072066,"75":-0.06308685148570996,"76":-0.1034414505461724,"77":0.0837595663658509,"78":0.20471112733161423,"79":-0.975465036991729,"80":0.4844046860277563,"81":-0.499957306308193,"82":0.08407886553316372,"83":-0.18357668196997023,"84":0.016312052220374178,"85":0.181917050056181,"86":-0.10003736146349441,"87":-0.1276455204573008,"88":-0.4656402343455414,"89":-0.015881425837944697,"90":0.47589965362575154,"91":0.13681124172204245,"92":0.6428298642872072,"93":-0.03849985732314217,"94":0.1783107606500737,"95":0.4697510898647839,"96":0.4217021877883736,"97":-0.7702911320959679,"98":-0.8205065504983651,"99":-0.12976647034749872,"100":0.42863680384790104,"101":0.16009554608967938,"102":0.18944996502952302,"103":0.08326149930553736,"104":0.011787761901182218,"105":-0.153928472539712,"106":-0.4715066649273803,"107":-0.13644152389776976,"108":0.24340372547625855,"109":-0.24893573352352502,"110":-0.8939989784849766,"111":0.6615558206244204,"112":-0.13227734517566803,"113":-0.7861993735902949,"114":-0.44199753052955165,"115":0.28525567002825797,"116":-0.44135724286859207,"117":0.12471143682711572,"118":0.13470320993282067,"119":-0.3055055152377456,"120":-0.21137665752872165,"121":-0.08700370270892305,"122":-0.00496215866720741,"123":-0.20979274503704914,"124":0.615754864799143,"125":-0.4539545412872646,"126":-0.21065214872500793,"127":-0.13131091736814407,"128":-0.289763133913041,"129":-0.28780425098111445,"130":-0.5049213667166949,"131":-0.693481364809143,"132":-0.15104308455201296,"133":-0.47634972244512785,"134":0.2942680910198606,"135":0.04976982319251411,"136":0.3466279884125369,"137":-0.326648623889733,"138":-0.6463960654852577,"139":-0.030841033575344262,"140":-0.2599867691447155,"141":0.3945764303350932,"142":-0.005766198205463161,"143":-0.415347342265954,"144":-0.342207528535995,"145":-0.4394000280809082,"146":-0.18301785173296717,"147":-0.02568109647121294,"148":0.10298303971186651,"149":0.06075120289778173,"150":0.33836049585427774,"151":-0.18979930073257298,"152":0.4872700318694523,"153":0.21335650522397312,"154":-0.1903462371159536,"155":-0.18800782344096856,"156":-0.20370644844527336,"157":-0.2939616169126601,"158":0.13915453358353855,"159":-0.34251842767231094,"160":0.36054359715650586,"161":-0.4312592417199458,"162":0.02514219869807462,"163":0.3878694157954981,"164":-0.28690042227452095,"165":0.17110400406655518,"166":-0.152318038702785,"167":-0.49016681998132755,"168":-0.37836240584107445,"169":-0.34005644887332126,"170":-0.4145512168728012,"171":0.07381721678978938,"172":0.0666846141132055,"173":-0.00897035971586629,"174":0.1161342124120603,"175":-0.08238190446678438,"176":0.6264801182079268,"177":-0.028507567735667125,"178":0.2272672752631956,"179":0.07170038041383449,"180":-0.32017383290961626,"181":-0.32579153562190827,"182":-0.06930847186574168,"183":-0.12854332748458147,"184":0.19911684789866363,"185":-0.3932716436995963,"186":-0.27381810843094023,"187":0.19156703279030524,"188":0.26337417847619243,"189":0.3881780272483708,"190":-0.008626226563039895,"191":0.09911495768614567,"192":-0.06701667250607267,"193":-0.2865257927009468,"194":-0.24753030002022627,"195":0.4486332392851079,"196":-0.461303300540078,"197":-0.06333520971995392,"198":0.08132782149091486,"199":-0.18309253272302328,"200":0.3843062509358742,"201":0.08158072227934315,"202":-0.4834125033778869,"203":-0.2366121323253772,"204":0.41593764082939416,"205":-0.46510835880182466,"206":-0.37852129777010446,"207":-0.16264334287766868,"208":0.056905590090883154,"209":0.5643942063193985,"210":-0.3367757922683909,"211":-0.041727331815803494,"212":-0.10216838243229719,"213":-0.5870324600900807,"214":-0.22210394392297467,"215":0.1132222189603431,"216":0.18926703592092897,"217":-0.3416234140104682,"218":-0.2952564648715515,"219":0.002745544907635472,"220":-0.39681095016099477,"221":0.02461701711247973,"222":0.01237755822234378,"223":-0.05905119497861282,"224":-0.09590961022153549,"225":-0.08088237305121945,"226":0.15467137004721462,"227":0.17318692844572856,"228":0.276417273733172,"229":-0.4847345477720886,"230":-0.08914419647395373,"231":0.17716880528062068,"232":-0.11315621260504313,"233":0.04002155902777838,"234":-0.3614905305319733,"235":0.49757843630477316,"236":-0.18338715405799944,"237":-0.10517311308933532,"238":-0.48984680479618087,"239":-0.06786541861616839,"240":0.16498009424731483,"241":-0.015787210233323214,"242":0.06413379116618408,"243":-0.22264895318222513,"244":-0.4357307117771063,"245":-0.46014436229124395,