{"layers":[{"out_depth":3,"out_sx":32,"out_sy":32,"layer_type":"input"},{"sx":5,"sy":5,"stride":1,"in_depth":3,"out_depth":16,"out_sx":32,"out_sy":32,"layer_type":"conv","l1_decay_mul":0,"l2_decay_mul":1,"pad":2,"filters":[{"sx":5,"sy":5,"depth":3,"w":{"0":-0.04752378069585749,"1":-0.4839689799355781,"2":-0.285163256909533,"3":0.19018187314951499,"4":-0.12046650886643796,"5":-0.1593237729524294,"6":-0.003230201127148295,"7":-0.08262227128881415,"8":0.03385800663015241,"9":0.1467697174628424,"10":0.08534907370046009,"11":-0.059440224470824754,"12":0.25122133941712443,"13":-0.012336782080405978,"14":0.10297402393916284,"15":0.09386441977443766,"16":-0.010232344286967262,"17":0.11988859757881822,"18":0.4570350519088326,"19":-0.3145887418534207,"20":0.0007625887425455431,"21":-0.12635463593804921,"22":0.17941311922966446,"23":0.19742842938941643,"24":-0.16104048799007048,"25":0.20094044632629707,"26":0.5968256823009539,"27":-0.033848225125482856,"28":-0.27300228421543477,"29":0.2672085457615603,"30":0.10239039450554116,"31":-0.2862769537211659,"32":-0.38197734893636864,"33":0.0488712573097668,"34":-0.07738017542558102,"35":-0.04906844782350758,"36":-0.4393261915191969,"37":-0.592815609286919,"38":-0.6082076512370376,"39":-0.1233102588961076,"40":-0.37446846020853664,"41":0.0014078905270221882,"42":-0.12425437161354771,"43":-0.3697730068432498,"44":0.31667167776036287,"45":0.11347190953605217,"46":0.1374332821187093,"47":0.05170590733844212,"48":0.1908963426221516,"49":0.5821790107148215,"50":0.283694881673837,"51":0.16217130901347734,"52":-0.11207678319934845,"53":-0.03850252980149575,"54":-0.24801958803063195,"55":-0.27933101390736376,"56":-0.13796000683927795,"57":-0.4987909517353926,"58":-0.5077201325290809,"59":-0.16407548734023683,"60":0.13209189434934918,"61":0.06761193335582931,"62":0.10532978069845375,"63":0.11560628086382606,"64":0.30470461994988246,"65":0.13787396402770147,"66":0.06667487455487191,"67":0.4632379421120746,"68":0.441399175842051,"69":0.32745985822133955,"70":0.42513910463733096,"71":0.5945910190219494,"72":-0.1604510027382302,"73":-0.5028085867027916,"74":-0.06831970959382794}},{"sx":5,"sy":5,"depth":3,"w":{"0":0.10715697452063229,"1":0.0031481252590841923,"2":0.09730293679443303,"3":0.073208546095254,"4":-0.2472689747306819,"5":-0.6888958222030717,"6":-0.12619779336027895,"7":-0.09412743214264034,"8":0.0067926641872174676,"9":-0.024979914707609997,"10":-0.21444036347185627,"11":-0.13877085169516565,"12":-0.07830757846835579,"13":-0.4620140723178422,"14":-0.049948688609043126,"15":-0.20377691168064485,"16":0.14809834339671613,"17":0.1885751394996468,"18":-0.3013674721023748,"19":-0.1260053210551873,"20":-0.1840679661766041,"21":0.0029199928760275276,"22":0.023022639029616737,"23":0.12617841377136987,"24":-0.4444403764100741,"25":0.29461870560443026,"26":0.4248051937640218,"27":-0.7495076992831279,"28":-0.23929711392071357,"29":-0.0848496633903123,"30":0.37816286593937104,"31":0.4817892332667875,"32":0.2944138746036419,"33":0.40039103276804405,"34":0.18848413174928072,"35":-0.4639540615658287,"36":0.549375955249231,"37":-0.10388307548777129,"38":-0.3461403691127098,"39":0.265114439273485,"40":-0.08466326920662687,"41":0.02114288409178751,"42":-0.07859482970655518,"43":0.25397389081244726,"44":0.052337576135428485,"45":-0.05218648430695266,"46":0.17001625376719517,"47":0.12430587623514076,"48":0.4095300249769047,"49":0.19691633447696189,"50":0.042454663580622345,"51":0.3003756446720573,"52":0.06935583810715978,"53":-0.2262064812188153,"54":-0.23372168709307029,"55":-0.46837377433806804,"56":-0.5487197002055808,"57":0.02537925439794065,"58":0.048070524360861,"59":0.5090261260582489,"60":0.056616582022296726,"61":0.2548370019512542,"62":-0.19708479710163368,"63":0.19826585773599167,"64":0.4331259261433103,"65":-0.025613341868822893,"66":0.2904223161416075,"67":0.20183224998086094,"68":-0.19195210392567155,"69":0.3013721635137784,"70":-0.2534317897327743,"71":0.01828139303406613,"72":0.0770755679077637,"73":-0.06305556558070395,"74":-0.09796881957068612}},{"sx":5,"sy":5,"depth":3,"w":{"0":0.04759080478204326,"1":-0.2170735013411235,"2":-0.3422022155622101,"3":-0.07614317718566022,"4":-0.02805620177323848,"5":-0.3463716627068328,"6":-0.14338483282699452,"7":0.32500867302400527,"8":-0.08372051177010272,"9":0.1177421268301037,"10":0.40469721271611814,"11":0.15975906742292,"12":0.0489578806022056,"13":0.1600139175566848,"14":0.05103801815702456,"15":0.2237872990577791,"16":0.4688788889392446,"17":0.39731307288412226,"18":0.048154687592197064,"19":0.04029422798699518,"20":0.21724570545464358,"21":-0.6549548207825137,"22":-0.24653228260094112,"23":-0.2888166026987354,"24":0.2703612329230434,"25":0.41257443541285893,"26":0.47533274663686276,"27":0.0712103309678829,"28":-0.22357908007600588,"29":-0.18169893771336798,"30":-0.8383851896361045,"31":-0.30751036725868136,"32":-0.05378320849629768,"33":-0.34595602243421975,"34":0.037847359394928115,"35":0.0816766739373349,"36":-0.3405989949815812,"37":-0.04178628305311254,"38":0.1346791460896865,"39":0.17218629840150806,"40":-0.058664036582209325,"41":0.1933709336771512,"42":-0.08469592593059551,"43":-0.1656947219436998,"44":-0.6282035811683486,"45":-0.7016968985004138,"46":0.01593187456386901,"47":-0.2331505012466519,"48":0.10607464533108668,"49":0.39345412716387596,"50":0.3186988136290783,"51":0.19786852437572267,"52":-0.04561860152527261,"53":-0.0013060508722730598,"54":0.4443275700681911,"55":-0.021906857274567215,"56":0.5841746450492369,"57":-0.3528441539589996,"58":-0.7248849456314318,"59":-0.5011763167454808,"60":-0.4195312761470486,"61":0.014141919859326066,"62":-0.24333686426871204,"63":0.5486534294924559,"64":0.3744563947879497,"65":0.017169590642596155,"66":0.4201292898148995,"67":0.24970759824989086,"68":-0.21661734250043221,"69":0.42729254467107164,"70":0.22499542417827662,"71":0.15684242826875772,"72":-0.1491602668038179,"73":-0.2000098581985602,"74":-0.36649717187051906}},{"sx":5,"sy":5,"depth":3,"w":{"0":0.34458530231119705,"1":0.6233189683619564,"2":0.23974502198829148,"3":0.08388894192496651,"4":-0.15579003918162307,"5":-0.6799675452896181,"6":0.22690572594030564,"7":0.16387249180709748,"8":-0.2756705794559459,"9":0.28668932589837864,"10":0.09663481384434633,"11":-0.3988185173340801,"12":0.09909695570931248,"13":0.13825931718027337,"14":0.09651618169919245,"15":-0.2739818469655328,"16":-0.179192941805377,"17":-0.2703114886246029,"18":-0.346490377031919,"19":-0.29490278210842713,"20":-0.3533734124516951,"21":0.14068491075892603,"22":-0.4229543535043149,"23":-0.3659855004276251,"24":0.5748697795193402,"25":0.20513741648104275,"26":-0.6462890472490531,"27":0.39204582090374274,"28":0.08314345112180807,"29":-0.37049433640831014,"30":-0.43318758450405026,"31":0.09104591646412705,"32":0.5121238036174776,"33":-0.9268533380269042,"34":0.031328482067225244,"35":-0.017075613632545984,"36":0.23107923839328706,"37":0.3161557074015185,"38":0.06346940385390211,"39":0.43150441422374103,"40":0.1762680019006829,"41":-0.33956442786798324,"42":0.4791987832879233,"43":0.2609839983713391,"44":0.01247185660017843,"45":-0.6804745071904418,"46":0.2616997348878132,"47":0.508354713221511,"48":-0.4009238930304136,"49":0.1544866869564165,"50":0.14606877730208398,"51":-0.2700500338110954,"52":-0.1627579491613449,"53":0.37518985596765403,"54":-0.005672516892450531,"55":-0.6412509598769909,"56":0.03726846321546085,"57":-0.27352114792613397,"58":-0.5640685381396927,"59":-0.1615530755150958,"60":-0.6940940789284348,"61":0.0012236702577343062,"62":-0.08157959115619749,"63":-0.15543339534347647,"64":0.026158078193275817,"65":0.25622464935157413,"66":-0.19966372428108958,"67":-0.29335864639893283,"68":0.19645028826536662,"69":0.20355817890918698,"70":0.21486688700905626,"71":0.3053011824014356,"72":0.21831975791731714,"73":0.3088150282873719,"74":0.4816544762791793}},{"sx":5,"sy":5,"depth":3,"w":{"0":0.003118242477436579,"1":0.45376483038720666,"2":-0.03278075228109769,"3":-0.036213218722119626,"4":0.4142683596200921,"5":-0.125284119286569,"6":-0.11199674105640685,"7":0.3879819709215191,"8":0.3266285708418424,"9":-0.44759800639081226,"10":-0.34887221092574927,"11":-0.13537869204996886,"12":-0.499871222600239,"13":-0.11177241913431146,"14":0.16770989142138795,"15":0.18687220245836328,"16":0.18230882675020404,"17":-0.43512767461866664,"18":0.5364264913539234,"19":0.24346685361579284,"20":-0.040827624985104796,"21":0.4743367415579609,"22":0.5186406821258517,"23":0.17520036608135095,"24":0.07288847774791181,"25":0.1841347556370973,"26":0.1331096497554469,"27":-0.15215487333057512,"28":0.29265216616383,"29":0.3848989368233791,"30":-0.24599494930710145,"31":-0.47771919769055665,"32":-0.7503400881324608,"33":0.6898146131892264,"34":-0.22834426266996344,"35":-0.5860142364148477,"36":0.1973688325529358,"37":-0.7563581820573555,"38":-0.8351259659469695,"39":-0.41309466102076436,"40":-0.4189673298434818,"41":-0.4505568471636121,"42":-0.36242092906487766,"43":-0.1213064748210059,"44":0.027524791090721475,"45":0.34203501462745745,"46":0.2702611360984984,"47":0.10227040898695812,"48":0.21236140635571857,"49":-0.1504428941044517,"50":-0.7818313584351287,"51":-0.0579851273827576,"52":-0.4128885075383627,"53":-0.7275612949215122,"54":0.0028760654789820725,"55":0.33912624008638104,"56":0.5362069172740284,"57":-0.12860502046848804,"58":0.43039255516022273,"59":0.9628681534378025,"60":0.5785447943270814,"61":0.7679931699274929,"62":0.4184862823366859,"63":0.15509028916926318,"64":-0.0888542697881888,"65":-0.7241796226736464,"66":0.4436970199927743,"67":0.046442801061230665,"68":-0.3949080405230403,"69":-0.012514079441826122,"70":-0.32004354071343083,"71":-0.45065593641898255,"72":0.0888833722709767,"73":0.1419802016335452,"74":0.2918117244760287}},{"sx":5,"sy":5,"depth":3,"w":{"0":-0.13796746949493388,"1":-0.22701288039810089,"2":-0.2703358340196278,"3":-0.056254215661796475,"4":-0.060999494503943145,"5":-0.1136993625557631,"6":0.44368278872867944,"7":0.18789156906952767,"8":-0.45989144270959914,"9":-0.02885398441640401,"10":0.07620872885647118,"11":-1.0444599118768347,"12":0.3923888185708489,"13":0.4061997673926015,"14":-0.2804099013793279,"15":0.031486208081085904,"16":-0.18430416686908493,"17":0.23557406047060334,"18":0.038592204217602885,"19":0.0622245658043306,"20":-0.14569669540857316,"21":0.3704720353955186,"22":0.38543680373756445,"23":-0.20734715210271557,"24":0.5390266573455257,"25":0.2833213394698331,"26":-0.5470992144766768,"27":0.44916647271202953,"28":0.08764906736134281,"29":-0.2354763188126872,"30":0.15691855548171987,"31":-0.35797692135754045,"32":0.16882549619835216,"33":0.16450528579214307,"34":0.005725585409381875,"35":0.3497080391366081,"36":0.13804748106637574,"37":-0.10917851148341334,"38":-0.24668402946879428,"39":0.14806501873295708,"40":0.08463534855555079,"41":-0.15274691602262433,"42":-0.3682030651444393,"43":-0.5450477748258169,"44":-0.3056355527919365,"45":0.13214078407205798,"46":0.007876593294730908,"47":0.48570287474916335,"48":0.4093403464435672,"49":0.5791669756657832,"50":0.6900742089017916,"51":0.15789392186913248,"52":-0.14325026040736596,"53":-0.1858333227308222,"54":0.027400812223913922,"55":-0.503542035803867,"56":-0.12295662840615944,"57":-0.03978547028219854,"58":-0.12432690061869427,"59":0.12479999400118579,"60":-0.0772185127207318,"61":-0.3725713671468575,"62":0.26594620986277645,"63":-0.5087680589840458,"64":-0.7296420931037907,"65":0.19396796341409092,"66":0.1274456057719625,"67":-0.05548150701517763,"68":0.08966391288030232,"69":0.2577996089611981,"70":0.11981588093910156,"71":0.03157549717778108,"72":0.3361547170519074,"73":0.22481317773080556,"74":0.42666000885098504}},{"sx":5,"sy":5,"depth":3,"w":{"0":0.5811309343712062,"1":0.05686709637953044,"2":-0.08043284069942012,"3":0.6940642464245116,"4":0.010381742331319742,"5":-0.21841809375844531,"6":-0.002976448306665183,"7":0.2347885308976612,"8":-0.0464567258192554,"9":-0.2772118614538163,"10":0.2177790959882871,"11":-0.13862117674588303,"12":-1.115540716328457,"13":-0.2829849110370804,"14":-0.4589312391734455,"15":-0.36567448370449507,"16":-0.5036325770474082,"17":-0.615393650645698,"18":0.6629082091933702,"19":0.06876809868059137,"20":-0.2318439637890337,"21":-0.466618268776614,"22":-0.3227061249572195,"23":-0.06468788020869581,"24":0.48282562907654153,"25":0.34494204218558383,"26":0.4804368075649407,"27":-0.030802647410715523,"28":0.6223375345388941,"29":-0.046342542597449354,"30":-0.014263907067450945,"31":0.03545100867408414,"32":0.026770579581900517,"33":0.2961164689787545,"34":0.23946512480141136,"35":0.148255360501602,"36":0.6350581548084455,"37":0.7936683228472856,"38":0.6959382066093367,"39":0.564739584402053,"40":0.37080570039030886,"41":0.3539832209140009,"42":-0.4896215734973824,"43":-0.11464105522092852,"44":-0.5885922408918177,"45":-0.3979488392653033,"46":-0.07115624600127608,"47":-0.05841355739217552,"48":-0.50777945714002,"49":-0.5661636763750432,"50":-0.7621775954344902,"51":0.42748174586015925,"52":0.34221506817369884,"53":-0.021579103045596744,"54":-0.21411443314700127,"55":-0.18451636285142523,"56":-0.6729915843742488,"57":-0.559214172182485,"58":-0.11653871246753128,"59":-0.150556155831785,"60":0.3341609371827375,"61":0.4856534738411711,"62":0.24613350593037847,"63":0.7497380762505412,"64":0.8459921298625841,"65":0.6348088663006496,"66":-0.07747479358091655,"67":-0.3642681521039975,"68":-0.9241045620118374,"69":-0.43631078149511665,"70":0.06794240231894844,"71":-0.3978460956430884,"72":-0.5650835683857672,"73":0.07293637530509688,"74":-0.0808404481635338}},{"sx":5,"sy":5,"depth":3,"w":{"0":-0.26096532965478875,"1":0.16028916033728632,"2":-0.26826133071209934,"3":-0.28699458462391825,"4":0.6851085758304115,"5":0.355154404743578,"6":-0.11286091548978373,"7":0.21218454563986883,"8":0.28032621297926147,"9":-0.47833107362915916,"10":0.0539610214588671,"11":-0.005328887009361603,"12":-0.7095901049123394,"13":-0.22235871996589396,"14":-0.13912567461750155,"15":-0.09884156474978573,"16":0.30351489944898696,"17":0.027359005659527858,"18":-0.6681257879159475,"19":0.11840753761090556,"20":-0.03796462179204989,"21":-0.2279608856766484,"22":0.3948135590292784,"23":0.08112443068959642,"24":0.01937325367772553,"25":0.6278678651547631,"26":0.27652004884342823,"27":-0.5837846092773874,"28":-0.4762866037737366,"29":-0.11803639177013445,"30":0.13125829008150566,"31":-0.31096247834553264,"32":-0.6728806047099405,"33":-0.03686920177817543,"34":-0.4203484320211419,"35":-0.6881207868024566,"36":0.19017374641100263,"37":0.2421315345183182,"38":-0.18728754707451886,"39":0.21452519327425318,"40":0.27376863009432384,"41":-0.21196798843818693,"42":-0.12846281961691086,"43":0.29841743497788065,"44":0.2433270572592632,"45":0.3105524582845452,"46":-0.30555873069691486,"47":-0.7526579526496351,"48":0.5516810021727163,"49":0.0876669960667953,"50":-0.2967127678711397,"51":0.5782411244821628,"52":0.5006742808076992,"53":0.3203763537437142,"54":0.1427271180368161,"55":0.2383380549773682,"56":-0.2809195112587428,"57":0.5243122147539286,"58":0.7244437815296852,"59":0.3763753933393409,"60":0.17333009237802882,"61":-0.041958277935888376,"62":-0.5388017296294426,"63":0.4859479020804795,"64":0.466486424625954,"65":0.1078759804326779,"66":0.2505044761662504,"67":0.08493573755605983,"68":-0.45579828280296897,"69":-0.040371698583067404,"70":0.11807376566683217,"71":-0.3695005239572792,"72":0.17317428141263824,"73":0.8118074207116828,"74":-0.009702813671275349}},{"sx":5,"sy":5,"depth":3,"w":{"0":0.24319420823795407,"1":0.3224035440598948,"2":-0.5365268056022549,"3":0.1747832563495418,"4":0.08427943027891906,"5":-0.5885692670481492,"6":0.5556561542752506,"7":0.5267844827253708,"8":-0.46321544856589614,"9":-0.054369881409753094,"10":0.22331494093687337,"11":-0.6815139476593911,"12":-0.048400385796047087,"13":0.2399975308695182,"14":-0.18279936246455383,"15":0.13607504776989893,"16":0.4585232465799411,"17":0.24904446429578841,"18":-0.11255266077860074,"19":-0.10569712309489897,"20":-0.11385787476556923,"21":-0.19103366398086577,"22":0.027696930838544336,"23":-0.5094190990926837,"24":-0.05566425462615384,"25":0.2934795975716233,"26":-0.29283152962015774,"27":0.04826131965408599,"28":0.32171418369031096,"29":0.34769087545267896,"30":-0.009380253453058195,"31":0.2655304740241586,"32":0.21203422075830688,"33":-0.3922805630106524,"34":-0.34260824533230494,"35":-0.06282525449009238,"36":0.1009469067295387,"37":0.452086858551299,"38":0.2891656172382749,"39":-0.07424723746830866,"40":0.43011064151115347,"41":0.19514199629972112,"42":0.16989974172309094,"43":0.10650390166299513,"44":-0.1329125590669894,"45":-0.5122939649728995,"46":-0.28930491738995157,"47":0.03071885460920914,"48":-0.378288147036631,"49":0.1851945324658813,"50":0.3437940756324894,"51":0.1596050283558626,"52":0.6964981017587906,"53":0.2584735150471105,"54":-0.0644573625227927,"55":-0.09059885340821414,"56":-0.2723753256597778,"57":-0.15815001861870012,"58":-0.15866073846421147,"59":-0.36277906029089835,"60":-0.1817496618606367,"61":0.2701790707433429,"62":0.3761157775428823,"63":0.029074366535039982,"64":0.8166215914900099,"65":0.5454582861700059,"66":-0.41567872193521566,"67":0.19555635278884415,"68":0.2663519724758804,"69":-0.24866560623653078,"70":-0.26335292672487315,"71":-0.3057425702401041,"72":-0.01229931874457997,"73":-0.0031033135285504837,"74":-0.3344128353687958}},{"sx":5,"sy":5,"depth":3,"w":{"0":0.37938491683289044,"1":-0.4007387722886567,"2":0.39269412474083576,"3":-0.00887071700809841,"4":-0.21286886547522463,"5":0.17862515682479976,"6":-0.3193048266409112,"7":-0.453018850418862,"8":-0.006474849364585073,"9":0.29028223090749755,"10":0.06567072993369145,"11":0.6811129162495604,"12":-0.10102934544206624,"13":-0.3059840334539302,"14":0.05975864927613511,"15":0.33238670113301644,"16":-0.15726516134272786,"17":0.7253714450414109,"18":-0.10204357417930116,"19":-0.3488994315064959,"20":0.33221109266376886,"21":0.09377118508580906,"22":-0.33003275004161275,"23":-0.01002664756348903,"24":-0.06844054604608593,"25":-0.17357423951964948,"26":0.3414665997018974,"27":-0.08939579170862841,"28":-0.6466148582953191,"29":0.1375364166948965,"30":-0.3179064156519622,"31":-0.6145807631942437,"32":0.24843447579563188,"33":-0.027655145455649385,"34":-0.6100154916297809,"35":-0.28836254477721407,"36":0.21317976204019712,"37":-0.3950117882202741,"38":-0.6026141767999336,"39":0.24060946472758407,"40":0.11937300837389629,"41":0.5190891987497399,"42":0.3579503286627309,"43":-0.015761558188824066,"44":0.3792358764066502,"45":-0.4593902393110419,"46":-0.6182613707558632,"47":0.0855600281651466,"48":0.5478309360811804,"49":-0.014374015970928298,"50":0.6898015783967334,"51":0.4389707234239528,"52":-0.28718143977991684,"53":0.13268596564871876,"54":0.21848124064631083,"55":0.11249008194997574,"56":0.5755924430012764,"57":-0.0014224861619492328,"58":-0.20882972216343618,"59":0.15260525063445007,"60":-0.49260988609123996,"61":-0.35916474307206026,"62":0.22926456475870524,"63":0.1702630877126876,"64":0.2644546720804042,"65":0.589720666609346,"66":0.1124356906393726,"67":-0.026688750948845513,"68":0.017816196142235254,"69":-0.317757138435408,"70":0.2961170860030253,"71":0.0692629994744153,"72":-0.3290419350534387,"73":0.13230149208113404,"74":0.08540227481519075}},{"sx":5,"sy":5,"depth":3,"w":{"0":-0.28034193417967546,"1":-0.09874296861570077,"2":-0.3613516220081507,"3":-0.400477501611266,"4":-0.18322659649388942,"5":-0.31410827178129347,"6":-0.3826406732859941,"7":-0.04771333831632179,"8":0.12215620284328751,"9":0.04166110176845921,"10":0.2823260603724968,"11":0.11774318510921812,"12":0.36867454206684486,"13":0.35311721335330354,"14":0.07119272626895735,"15":0.06320523565125276,"16":0.42563470129256964,"17":0.08071683013670626,"18":-0.055622354115216585,"19":0.19994114349723882,"20":0.410309117506059,"21":-0.19747975907468518,"22":0.2251104669949701,"23":0.4937683501601541,"24":-0.011721964632154112,"25":0.1523410492949055,"26":0.22051944040599222,"27":0.11223865623259457,"28":0.5659886337271591,"29":0.30517698186554315,"30":-0.0454787462431602,"31":0.298204142731026,"32":-0.05148270531930409,"33":-0.11782674544158396,"34":-0.11463559699603644,"35":-0.30647073065065983,"36":-0.37824457406161205,"37":-0.01109048986918315,"38":-0.0767251269235314,"39":-0.23398180865210116,"40":0.1510942973823313,"41":-0.0018940453643466102,"42":-0.5307832646188932,"43":-0.021072518908515244,"44":-0.07903287918968774,"45":-0.5521316217239925,"46":0.16951484328226735,"47":-0.5223633102307274,"48":-0.01504439598246761,"49":0.11235985360125571,"50":-0.11194361259704404,"51":-0.8027324464157561,"52":-0.37585922877947997,"53":-0.35253644186274047,"54":-0.21218162769933396,"55":0.16903187281362883,"56":0.08347999709019557,"57":-0.025317010095508963,"58":0.1937590258684666,"59":0.10491018412497032,"60":0.5571028870907654,"61":0.6649653713184573,"62":-0.2426441251876472,"63":-0.13970669875453837,"64":0.08650024411569061,"65":-0.3400631835870733,"66":-0.01726358435684288,"67":0.1312253861727371,"68":0.1124368879636654,"69":-0.1542403770709454,"70":0.17835325737165622,"71":-0.16590957156261876,"72":0.24528873824086717,"73":0.3504428767213066,"74":-0.2837354541797707}},{"sx":5,"sy":5,"depth":3,"w":{"0":0.11951517759703967,"1":0.28247964416850413,"2":0.6452812964265393,"3":0.29731092317526614,"4":0.5270139042638937,"5":0.5859639968821962,"6":-0.11561355018059495,"7":-0.3669844258092977,"8":-0.48207351184569824,"9":-0.2689905613669167,"10":-0.03345812600407554,"11":-0.035625534933020515,"12":-0.1886492276096914,"13":0.1793776540075043,"14":0.06589647772408597,"15":-0.0755273230560872,"16":0.12132542653334061,"17":0.6346901384821653,"18":-0.14192843962980184,"19":0.0650998390465116,"20":0.4562748699470127,"21":0.023290985152282503,"22":-0.07326806324195893,"23":0.15090831892687304,"24":-0.417243424464924,"25":-0.5800975968542876,"26":0.09863710388921842,"27":0.013518621730004482,"28":0.10553132762331739,"29":0.5686142714751444,"30":-0.08194990836000107,"31":0.22247233899878502,"32":0.5099803574359281,"33":-0.10125636480397068,"34":-0.15476461935818941,"35":0.32671218860030693,"36":0.1199569953737339,"37":-0.13324335414932528,"38":0.14840072026561987,"39":-0.24860033823196834,"40":-0.028695897073308507,"41":0.27074464766843137,"42":0.005024309695473825,"43":0.03655495962717214,"44":0.3076591925452225,"45":-0.22202937785956336,"46":0.024628296932618657,"47":0.49476416732990824,"48":0.1476776939604046,"49":-0.3350108690569551,"50":-0.1265318361145802,"51":0.08653838830311086,"52":-0.3059629773597448,"53":0.14799472886751747,"54":-0.043017554672925486,"55":-0.06073812749553138,"56":0.02478193034844702,"57":0.17597627712783448,"58":0.019439390978218722,"59":0.20718328489599883,"60":0.20015231589949203,"61":0.3766564529393364,"62":0.42858152475466393,"63":-0.11341092900776825,"64":-0.35885004742610727,"65":0.002582341405534784,"66":-0.5999849053235526,"67":-1.1466647571465731,"68":-0.6508090338514557,"69":0.2969075258113151,"70":-0.1522862444297975,"71":0.34037082253413337,"72":-0.09092924644150907,"73":-0.14499168656091915,"74":0.3124177632352037}},{"sx":5,"sy":5,"depth":3,"w":{"0":-0.8216481200123805,"1":-0.540031119822044,"2":-0.6683635043852061,"3":-0.22901166366092657,"4":0.28442556316609274,"5":0.07090306304884843,"6":0.396993283395652,"7":0.9164406774870972,"8":0.39964405944903303,"9":-0.09059930354789719,"10":-0.12169200152999382,"11":-0.3969370487377523,"12":-0.04128126973104703,"13":-0.1486444089754178,"14":-0.6716886109576737,"15":-0.6470752541086461,"16":-0.13015395409347813,"17":-0.1959002094533315,"18":-0.4000427415777656,"19":0.4226469915927663,"20":0.3203553333934466,"21":0.16726622285661408,"22":-0.041850710866044964,"23":-0.18118798381960963,"24":0.3446109611049806,"25":-0.6026570168033077,"26":-0.4535832538138547,"27":0.7606697411360588,"28":0.30650046370525535,"29":-0.2647151522273843,"30":-0.5005211889753232,"31":0.05356388794448204,"32":0.3205601435102297,"33":-0.13919655029994818,"34":0.23468544020120238,"35":0.40767685850667656,"36":0.4129102191478103,"37":-0.17552629959587965,"38":-0.4819891777824038,"39":0.4433321733358513,"40":-0.1379955306451837,"41":-0.3967996546785224,"42":0.437153701218126,"43":0.8548179273329146,"44":0.08952210777150976,"45":0.41471865319146795,"46":0.2343639271209683,"47":0.8358553402817466,"48":0.05706469137015057,"49":-0.1909582711441134,"50":0.18323546027224163,"51":-0.1338235950751561,"52":-0.39066311329434944,"53":-0.16362060093999534,"54":0.6199900624222889,"55":0.18836428001978567,"56":0.12783582253876916,"57":0.2189254309223565,"58":0.3792159859074133,"59":0.2610690514996482,"60":0.6322472226984172,"61":-0.017038091053290565,"62":0.5631080475943075,"63":0.049405564598359084,"64":-0.8681589447390582,"65":-0.30661855050323994,"66":0.37643882925908695,"67":-0.6495964942044129,"68":-0.17715448492545469,"69":0.3553365144931015,"70":-0.6738009933706223,"71":-0.37164795110249205,"72":-0.015146702765035467,"73":-0.2133779336016035,"74":-0.33596681494696123}},{"sx":5,"sy":5,"depth":3,"w":{"0":0.04958588570696721,"1":0.10186840485340631,"2":0.09654734792376522,"3":0.2788144950991916,"4":0.01878656758244325,"5":0.5451737008775687,"6":-0.8312250944292465,"7":-0.9003522581825768,"8":-0.5433967567117015,"9":-0.11998253812370963,"10":-0.6283910790269851,"11":-0.4806111075633348,"12":0.3373812278956669,"13":-0.15267341227316608,"14":0.11436683124334131,"15":0.2454076066447475,"16":0.8388500540543088,"17":1.0752934221568577,"18":0.2127494329898655,"19":-0.043309241696070346,"20":0.5770744238218244,"21":0.3325533183616734,"22":-0.15515054913180568,"23":0.5006849177303643,"24":-0.049233969983265465,"25":-0.504932006514772,"26":-0.21005982374062887,"27":-0.21539060541471583,"28":-0.40414398269686336,"29":-0.40719556085138725,"30":-0.10704768927652689,"31":-0.02628335190552478,"32":0.7591315813348494,"33":-0.2895236661264636,"34":-0.8351638617837515,"35":-0.1720819329116492,"36":0.9230911641628314,"37":0.23324237492501104,"38":0.437103713224891,"39":0.647632829491301,"40":-0.5318062244060966,"41":0.0867025687714597,"42":-0.06640245663279587,"43":-0.2926774920680952,"44":-0.15622463075507478,"45":-0.8261069916022818,"46":-0.39522554874187515,"47":0.1562963052035045,"48":-0.07415858210544254,"49":-0.39648415958884187,"50":-0.539583366122141,"51":0.5293388506325248,"52":-0.2293191992514283,"53":0.33959569761474123,"54":0.49174993193790606,"55":-0.2892806696963783,"56":0.4559716813489906,"57":0.016729865165805154,"58":0.038495661699511546,"59":-0.010461516971831966,"60":-0.5457067470019379,"61":-0.07878075502554657,"62":0.3064808681287024,"63":0.12068027636313633,"64":-0.15451775746546167,"65":-0.07240150965501689,"66":0.21108197465509548,"67":-0.6769680841505532,"68":-0.03068561272265445,"69":0.3146511302688035,"70":-0.36712998794382545,"71":-0.0655732474791469,"72":-0.4960365907904874,"73":-0.5434541777670505,"74":-0.30066585046572464}},{"sx":5,"sy":5,"depth":3,"w":{"0":0.15092694755431388,"1":-0.32947649185261946,"2":0.1526258506522651,"3":-0.019595001842108457,"4":-0.3582316499012163,"5":-0.23467294029633634,"6":0.16596489438209522,"7":-0.1484704755014504,"8":-0.14406394276133652,"9":0.03908212701959651,"10":0.06810066381333542,"11":-0.2974877375825763,"12":-0.06127454704507473,"13":0.2445472417679521,"14":0.23387802555259796,"15":-0.4376736908239369,"16":-0.2589807712691989,"17":-0.028175320102801608,"18":-0.14044563950181893,"19":-0.45680086504707507,"20":-0.13429344605211033,"21":0.5651349193422474,"22":-0.11570971438679259,"23":-0.0160140367423243,"24":-0.047532231503717194,"25":-0.07046619661138642,"26":-0.17058217900091102,"27":-0.021856335405176768,"28":0.22466818545717757,"29":0.2567204193147719,"30":-0.3462964458927984,"31":0.10748281588121891,"32":0.07661222154592669,"33":0.008748023240647454,"34":-0.12103005878306199,"35":-0.18745527534889225,"36":0.46851718216866917,"37":-0.26635168977346424,"38":0.10406059961393972,"39":0.01035714404950123,"40":-0.04199055771297178,"41":0.15937795972725058,"42":-0.18257750472474127,"43":0.1338807998269303,"44":-0.06094394161894954,"45":-0.08178536069985218,"46":0.3244280924296293,"47":0.01369195454643392,"48":0.013395285614135352,"49":0.09268140267206808,"50":0.061951582688550326,"51":0.30024965211470866,"52":0.4866908483200619,"53":0.4182078737464125,"54":0.2994233938783465,"55":0.5494284705339892,"56":0.4439356348119828,"57":-0.10551247027403036,"58":0.24181444140484784,"59":0.049110945422270715,"60":0.22300506567847406,"61":0.1359728065709635,"62":-0.13527979468482393,"63":0.07832590768412374,"64":0.044612778367671004,"65":-0.0630674781713163,"66":-0.17765097645531439,"67":-0.3333345128948266,"68":-0.2442333466227622,"69":-0.1462444661244405,"70":-0.3884908972011226,"71":-0.44730754307929377,"72":-0.24226482078673783,"73":-0.22547001167395472,"74":-0.3041027248503783}},{"sx":5,"sy":5,"depth":3,"w":{"0":0.2572088550180293,"1":0.04321997468165033,"2":-0.26727837136331145,"3":0.14128465115631617,"4":0.038389298860930066,"5":0.18457126302105725,"6":-0.2060153624399371,"7":-0.12480621727883148,"8":0.07219679270106559,"9":0.05710640338467951,"10":0.14696022832311506,"11":0.07829218970629419,"12":0.12830389782130908,"13":-0.0740316307125442,"14":-0.5504158370054939,"15":-0.03340536902738363,"16":-0.34636172485500344,"17":-0.1676759851170129,"18":0.10777115847642335,"19":-0.42295479599284236,"20":0.11345935637104795,"21":-0.02604948729396373,"22":-0.004008014243127621,"23":0.3654498693128407,"24":0.5778984779005674,"25":0.13435512320628074,"26":0.34428388512567737,"27":-0.005575871822427973,"28":-0.008569368908340784,"29":-0.09989275677101708,"30":-0.02269957222377477,"31":-0.09772339927254743,"32":-0.047524388107098435,"33":-0.14633928378128302,"34":-0.8119707832485509,"35":-0.0664244650524596,"36":0.21042823559402832,"37":0.060388325860519926,"38":0.4494907711028969,"39":0.27173872841533625,"40":0.10198670665545831,"41":0.551969825291516,"42":0.24891050783244173,"43":-0.08838909826932073,"44":-0.18091949762600978,"45":-0.014308294101763172,"46":0.07694348802607734,"47":0.5902769838524548,"48":-0.644289861719728,"49":-0.5267060694734301,"50":-0.12843259144821018,"51":-0.20241750065333858,"52":-0.21661027181456452,"53":0.433601421205472,"54":-0.00331413845389126,"55":-0.08683962732586042,"56":-0.3398713483100377,"57":-0.46989105023192473,"58":-0.5439181558939683,"59":-0.48561168694142376,"60":-0.3310119110019983,"61":-0.15940784866949745,"62":0.21430818340312627,"63":0.05956843363699182,"64":0.2364130478588958,"65":0.10538838638931837,"66":0.07308309845813096,"67":-0.13174166493710082,"68":-0.12267797414950453,"69":-0.16625356081042014,"70":0.370571808848873,"71":0.24197118692192215,"72":-0.11122789379345402,"73":0.13491225571404214,"74":-0.3620284831395657}}],"biases":{"sx":1,"sy":1,"depth":16,"w":{"0":-0.7845799091819295,"1":-0.26620850321604617,"2":0.01288441151170699,"3":-1.48330428016094,"4":-0.6058317111245498,"5":-0.872025173275299,"6":-1.6220560536733517,"7":-0.7183302114156075,"8":-0.32257328136630004,"9":-1.0663482088471539,"10":0.04051452655624062,"11":-0.24492955624100848,"12":-1.6633644402881211,"13":-1.537640025095766,"14":-0.2669006396026751,"15":-0.43899216577339667}}},{"out_depth":16,"out_sx":32,"out_sy":32,"layer_type":"relu"},{"sx":2,"sy":2,"stride":2,"in_depth":16,"out_depth":16,"out_sx":16,"out_sy":16,"layer_type":"pool","pad":0},{"sx":5,"sy":5,"stride":1,"in_depth":16,"out_depth":20,"out_sx":16,"out_sy":16,"layer_type":"conv","l1_decay_mul":0,"l2_decay_mul":1,"pad":2,"filters":[{"sx":5,"sy":5,"depth":16,"w":{"0":0.48276485360722454,"1":0.3651940353423141,"2":-0.14963953102535918,"3":-0.04576028087456151,"4":0.8573423276578522,"5":0.5948792947529761,"6":0.020787593766783137,"7":0.6790344905934421,"8":-0.6212127646850413,"9":0.03961613881254565,"10":0.14023443441690142,"11":0.5073676674799985,"12":0.9720801683912214,"13":0.20852937044591113,"14":0.657143186209087,"15":0.3158474455382103,"16":0.8238298641759448,"17":0.27615704828620946,"18":0.5956925927942928,"19":0.23843860915723578,"20":-0.38256472919096846,"21":0.1372706494152403,"22":-0.11990759319551433,"23":1.148386819373577,"24":0.46445918195435815,"25":0.9105215492765695,"26":0.2756018877617568,"27":-0.6688333722766281,"28":0.3320587326637821,"29":0.24646629634737133,"30":0.22739399956360667,"31":-0.11441242799555851,"32":0.14330494555254508,"33":-0.0736405832359505,"34":0.22082791047254355,"35":0.7449651091969836,"36":0.6126579976259409,"37":0.05662820231354529,"38":0.011292788576805922,"39":1.121365605025446,"40":0.2986476486357003,"41":0.1009140502708436,"42":0.3417523449539175,"43":0.3417990762481861,"44":-0.12904590259431134,"45":-0.0051026790410938615,"46":0.34565127787820993,"47":0.03669328902655997,"48":-0.21408151522192798,"49":0.21445755144051595,"50":0.022240534516172167,"51":0.1287688148710587,"52":0.5661482767153848,"53":0.1445034252861687,"54":-0.39453953595783897,"55":0.1386281823641738,"56":-0.0820493286812106,"57":-0.10298215993693559,"58":0.6969063969924495,"59":0.5666713471249517,"60":-0.3619132492970519,"61":-0.5956384227024234,"62":-0.6015052351346432,"63":0.19337906173532649,"64":1.082883641903055,"65":0.5872026171244162,"66":-0.08420286293235874,"67":-0.22825157209322053,"68":0.17797909395446626,"69":0.06081162330047856,"70":0.07466267024066445,"71":0.5870661612481592,"72":0.1935552616160598,"73":-0.48847743409505234,"74":0.2420893515801083,"75":0.06691980043611875,"76":0.46166764268208654,"77":-0.5098317283395314,"78":-0.9981260431121705,"79":-0.015667645645880014,"80":0.5162497933280725,"81":0.09449324055287864,"82":-0.23576700498938902,"83":0.14858703337724047,"84":-0.05042323081027572,"85":0.8239535195612997,"86":-0.3838720255929242,"87":-0.6262278772733412,"88":0.5426162109791907,"89":-0.48033555424177443,"90":-0.23190467391615432,"91":0.4399123129585069,"92":1.3578142062373382,"93":-0.265549684569804,"94":0.25463833281873977,"95":-0.146883562279896,"96":0.43196998779703066,"97":0.2934944424512902,"98":0.1802528801617476,"99":0.22862034165672915,"100":-0.49262489311314883,"101":-0.13370185364988335,"102":0.05882853405672748,"103":0.677048581592698,"104":0.19604540403219828,"105":-0.04363235119928198,"106":0.1968713147103596,"107":0.08305061832230812,"108":-0.042835789280817126,"109":-0.23340157021170976,"110":0.03545296379865559,"111":0.19336310805156712,"112":0.3004740629760565,"113":-0.29912939596843136,"114":0.14005103850497075,"115":-0.524977481511641,"116":-0.027452603563565697,"117":0.519562172762907,"118":0.3350397404426447,"119":-0.007407192711265582,"120":0.40579046247819883,"121":0.22955433874392156,"122":-0.49290949752993896,"123":-0.2298396927971299,"124":0.6900530379544279,"125":0.4867858578278251,"126":0.3909724112795686,"127":0.16897166338307393,"128":0.7258964768257684,"129":-1.4535557143948623,"130":0.27931617105105866,"131":-0.6337272749514345,"132":0.8406098873328027,"133":0.4496862718817895,"134":-0.5560336343766951,"135":-0.22623849575473703,"136":-0.6302254105881688,"137":0.5116669409226375,"138":0.683627480556464,"139":-0.058982185428296835,"140":0.10841072427695438,"141":0.16180672348170017,"142":0.4354016644566537,"143":-0.16814186243700327,"144":1.0726514504041937,"145":-0.7803643549820412,"146":-0.4620739419830919,"147":0.27453589645911775,"148":-0.08087530188643342,"149":-0.44038949173271835,"150":0.2898905320915226,"151":-0.451583908709169,"152":-0.3949741050039963,"153":-0.1017818018697632,"154":0.0759417388686732,"155":0.1371904235916783,"156":0.5748742021802332,"157":0.41094033119242546,"158":-0.03796553719498847,"159":0.5972935814660436,"160":0.7421602673262859,"161":0.3747545110020037,"162":-0.17758755381428928,"163":0.6722384843984374,"164":-0.2955485156674322,"165":0.1739840193547767,"166":0.2815496439470895,"167":0.39032911574458723,"168":-0.16302160672828456,"169":0.2629115978865351,"170":0.0015356187245387164,"171":0.5034077363792647,"172":0.625707249248145,"173":-0.14427109815383288,"174":0.024094702171773928,"175":0.4574903704551087,"176":-0.010634278201817183,"177":0.6153850758679998,"178":0.42657318390406596,"179":0.7050962801540654,"180":-0.28642836974612257,"181":0.4165116722273363,"182":0.2856008018908765,"183":0.31204032537983833,"184":-0.6120721617332352,"185":0.02325731227590642,"186":0.3731814089600146,"187":-0.30874697768520676,"188":0.10184805564456516,"189":-0.31495040037648325,"190":0.04241071565725678,"191":-0.14662634412899395,"192":0.5192287968115012,"193":0.9638333609851071,"194":0.2107501502287716,"195":0.4284396966568823,"196":0.5015972191193366,"197":0.33272016619804484,"198":-0.3008530525329373,"199":-0.04254831369286718,"200":-0.2389848894704825,"201":0.13544912068060982,"202":-0.2191561006526601,"203":0.262933379608158,"204":0.5127617388114664,"205":0.21979466517499524,"206":0.3296820654893874,"207":0.35856762086567107,"208":0.5273154546127679,"209":-0.05042299586891524,"210":1.2043142698144604,"211":-0.7601305075547949,"212":0.4573493422307147,"213":-0.2038532527254051,"214":0.15464683881710756,"215":0.49193773258649687,"216":0.17070168478340034,"217":0.753938323341521,"218":0.15889872065713104,"219":-0.28793486705212806,"220":0.060621511520016144,"221":0.6968920390220836,"222":0.4120747074044054,"223":0.1525556030966295,"224":-0.5327559079201778,"225":0.013355546568913492,"226":0.4723175386800504,"227":-0.27540165029563,"228":0.3330398365809109,"229":0.1471763070366671,"230":-0.7486668748605536,"231":0.7302033638942976,"232":-0.09981114245912402,"233":-0.29057342121105484,"234":-0.1482187538565222,"235":0.11879408981320275,"236":0.4198522536477015,"237":-0.34038275497696974,"238":0.5011943829611046,"239":0.18336416065217723,"240":-0.02843124815004811,"241":-0.19656923974290186,"242":0.27525836359245903,"243":0.08267971512328097,"244":0.8386227829182065,"245":0.1300567725024406,"246":-0.021542004662961925,"247":0.16137928358743078,"248":-0.27880450581193483,"249":0.04577050150576825,"250":-0.5216205657682867,"251":-0.371001787566177,"252":-0.16005324011683963,"253":0.18188675902013468,"254":-0.002584438827867107,"255":-0.8740978273724976,"256":0.40737804658195154,"257":0.17501836832374928,"258":-0.18494576989490977,"259":-1.4841702892660742,"260":0.5327073102068253,"261":-0.2935425532957699,"262":0.06138939457087661,"263":0.4193527751215006,"264":-0.07643784807167987,"265":-0.034097458707477865,"266":-0.341078561600304,"267":-1.1414153517162788,"268":0.3162164551912318,"269":0.07027537278905949,"270":-0.27011947933442676,"271":-1.384642775063505,"272":0.06605290445471411,"273":0.8858408348464059,"274":0.0010141468903672678,"275":0.1622614112291035,"276":-0.12272657669222357,"277":0.16329840238835483,"278":0.3894632533278024,"279":-0.14783542847569706,"280":-0.020824002408256125,"281":-0.40333385591275556,"282":-0.47443955347551064,"283":-0.5534752995533131,"284":0.3034294192516959,"285":-1.426669359013123,"286":0.28292197751285586,"287":-0.06743100575599617,"288":-0.26580320960462006,"289":0.31013325587946633,"290":-0.25144333824281095,"291":0.5574034188461621,"292":-0.2399022450417327,"293":-0.37989433175077336,"294":0.3423413276077751,"295":0.37705913850610023,"296":0.009104338125340821,"297":-0.3586821350535439,"298":-0.28738459409869554,"299":-1.0138194591151999,"300":0.5067330787139928,"301":-1.0986607327163775,"302":0.4012938764341442,"303":0.06787031343430966,"304":-0.5694790116579362,"305":-0.41935811923468747,"306":-0.37590337109220223,"307":-0.5209587050997811,"308":0.8193187631262242,"309":-0.828728494313898,"310":0.06005996846714151,"311":0.2232587426572678,"312":0.1644129150923803,"313":-0.925581175641076,"314":0.39863868943725916,"315":0.9035003552085793,"316":-0.4637420877038535,"317":-0.2787621230363585,"318":0.9174249006215934,"319":0.41292737857525263,"320":-0.5412764588198083,"321":0.3540792987845396,"322":-0.25179192707984116,"323":0.29223617587887857,"324":0.6971466457091403,"325":0.24122713330523826,"326":0.20600402901378434,"327":-0.05835078752582856,"328":-0.21449653328826937,"329":-0.5572235284369162,"330":0.40073557034957946,"331":0.2537630057205117,"332":0.43490350151493956,"333":0.895865781117114,"334":0.12092879251498277,"335":0.6574865529940351,"336":0.31715178127462684,"337":0.5835609453024849,"338":-0.13452489658732367,"339":-0.3854171795252072,"340":-0.6679254857480698,"341":0.14621659886662433,"342":0.14187225297762093,"343":0.2559829427679115,"344":0.06280780932077622,"345":-0.6751701452849211,"346":-0.2348792480796598,"347":-0.5263340808285248,"348":0.2334137835376835,"349":-0.17651737593392933,"350":0.6745322191625518,"351":-0.24833355196105983,"352":0.33608756308301263,"353":1.0608202252340435,"354":-0.48641687913589865,"355":0.48438345636493263,"356":0.27178245127896994,"357":0.4874421218853927,"358":0.7877129577575621,"359":0.6714358600214824,"360":0.19414458110911348,"361":-0.5219443231536538,"362":-0.37895952194897087,"363":0.7584108517202106,"364":1.395738950496179,"365":-0.8946717271085047,"366":0.11166579922279694,"367":0.4116331527831029,"368":0.07428216289724719,"369":-0.34140780890683425,"370":0.1745183214964598,"371":0.2714585802639895,"372":0.6772799889216542,"373":0.23948985439920648,"374":0.16046841124339406,"375":0.48203383376150166,"376":0.29322041822835243,"377":-0.2514793241731601,"378":0.1742322095417745,"379":0.6442822986703143,"380":0.471738829503614,"381":0.2578051456252009,"382":0.4021539754076454,"383":0.22349086309320304,"384":-0.14995228153809825,"385":0.1724953342953356,"386":0.8231156195138982,"387":0.44834760315026095,"388":0.5389828582637678,"389":-0.12531858478946703,"390":0.7433655167103209,"391":1.1484591511937436,"392":0.3052597750596082,"393":-0.44709644328101195,"394":0.10270096867387402,"395":0.27659336938519763,"396":-0.1307461054701616,"397":-0.524691845509788,"398":0.842490495954505,"399":-0.29026945763003914}},{"sx":5,"sy":5,"depth":16,"w":{"0":-0.5144930393037821,"1":-1.7862474196107943,"2":0.1407655557432257,"3":0.09499647309151635,"4":0.36155775445536437,"5":-0.24088629535383385,"6":0.10163246078211251,"7":0.5663198452657437,"8":-0.6252827620776157,"9":0.46275984183665,"10":0.1622370373173474,"11":0.24988499457020422,"12":0.18979294519377435,"13":0.29723200053178467,"14":0.0856033347622174,"15":0.224912011704755,"16":0.10023343979583188,"17":-1.1535974696476707,"18":0.46335497446770374,"19":-0.12792977277607942,"20":-0.4617476068332683,"21":-0.08825194016017576,"22":-0.14101955816480888,"23":0.20687644968927751,"24":0.26874318667331887,"25":0.7015326337028086,"26":0.2661117424064324,"27":0.445577797482267,"28":-0.3102007645355898,"29":-0.7606066168852068,"30":-0.16166524044918815,"31":-0.003604245428789044,"32":0.07948731320186639,"33":-0.07289380960658562,"34":-0.6505230553859168,"35":-0.13843765477023073,"36":-0.3955010282325856,"37":0.6320801996918104,"38":0.46615678665099514,"39":0.3821189331921777,"40":-0.40898731290700574,"41":-0.8651964908053695,"42":-0.18296387515299783,"43":-0.008307252748411162,"44":0.3525925452844456,"45":0.41445796404788315,"46":-0.37332900477526176,"47":-0.18727833294892077,"48":-0.434359589647232,"49":-0.012803554395348641,"50":-0.4277474781137911,"51":-0.26212021483767567,"52":0.2650980262264808,"53":-0.193719956734738,"54":0.14057829743832856,"55":0.3534719293789918,"56":-0.29202542727838743,"57":-0.3071591280321148,"58":0.05471234068079279,"59":0.12504171803538808,"60":-0.05889021775002465,"61":-0.004620007142341126,"62":0.034737269606133,"63":-0.5216260762813613,"64":-0.6237240079550908,"65":-0.2543359630210965,"66":0.030174717824265583,"67":-0.2830657325772199,"68":-0.5196865843571953,"69":0.05273572872632095,"70":0.0453800083837705,"71":-0.255039413937396,"72":-0.1839205468967779,"73":-0.35850032844320895,"74":0.14958424057161357,"75":-0.14256208293987743,"76":-0.3069817993488004,"77":0.26616761608503353,"78":-0.07188575223997817,"79":-0.8120204805317539,"80":-0.5684453168216465,"81":-1.2952702468738362,"82":0.5056821938937529,"83":-0.25562131658774345,"84":-0.1823904783640327,"85":-0.002765994447478413,"86":0.007454447131738733,"87":0.39504327825940216,"88":0.07578802670703326,"89":-0.06706042776803182,"90":0.2937087051264739,"91":-0.14504261040990354,"92":0.3659142416565211,"93":0.16209847955508366,"94":0.17311718549938288,"95":-0.16150415731223813,"96":0.18891733439699188,"97":0.049027323538188894,"98":0.33936877825915696,"99":-0.1253302377876386,"100":-0.5471489286243406,"101":-0.3762439217952686,"102":-0.075377360106157,"103":0.04583085327450492,"104":0.16631378826522872,"105":-0.657420790128356,"106":-0.5815785199513722,"107":-0.5783550061289119,"108":-0.5881134256462259,"109":-0.08478966892904366,"110":-0.1907592196220247,"111":0.03231382152392226,"112":-0.6002658400891066,"113":-0.44056793652248216,"114":-0.22546433663958082,"115":0.1479553246811193,"116":-0.5319173173702036,"117":0.10302807352331811,"118":0.2788160786935781,"119":-0.7239105773353425,"120":-0.03871586950503158,"121":-0.24900048816619186,"122":-0.48570612770314,"123":-0.4631092515255884,"124":0.5761191725641854,"125":0.7645550835017513,"126":0.0056638157850935865,"127":0.7451803350960099,"128":-0.6872137322686285,"129":-0.29827911841937393,"130":-0.5217057062362677,"131":-0.3631798196834813,"132":-0.12457071233426929,"133":-0.6152255661499415,"134":0.14044827770134752,"135":-0.753946401367924,"136":0.5311710082386114,"137":0.22091811102657619,"138":0.12786464863619887,"139":-0.6605793432421344,"140":-0.24391455689195937,"141":-0.33146007285640394,"142":-0.17128805294139088,"143":0.18707851227694483,"144":-0.4600877847885512,"145":0.41542967637966866,"146":-0.47153712617070376,"147":0.11763779516677156,"148":-0.6609095895790805,"149":-0.3379916221195867,"150":-0.12827967782337552,"151":0.24327001873515533,"152":-0.576877581540181,"153":-0.7831626542117113,"154":0.5660985513599155,"155":-0.43167679307792495,"156":-0.4835471789267349,"157":0.5286616975536668,"158":-0.1687831521218372,"159":-0.22767830908568998,"160":0.03325387479212321,"161":0.4725810274555833,"162":0.10453641048667366,"163":-0.42707836757679796,"164":0.46299316822459147,"165":-0.2406100186712327,"166":0.49994548017037393,"167":0.4288324061124935,"168":0.6803846589299819,"169":-0.007739199194409358,"170":0.3546285639556502,"171":-0.365596691245388,"172":0.19032873661571578,"173":-0.17576815454647057,"174":0.03606717624609967,"175":-0.5947248746639108,"176":0.7312755778652822,"177":0.6725544203391968,"178":0.0287883916549047,"179":-0.10147746066525808,"180":0.058697443875808795,"181":0.032554654774097504,"182":0.3933565719085772,"183":0.19151250557604488,"184":-0.06499141816994224,"185":-0.39174105008626114,"186":-0.08655777478815953,"187":0.07760603727116473,"188":0.2743941441254221,"189":0.43762803324138255,"190":-0.3829495054204637,"191":-0.5945975776241149,"192":-0.15595853377087718,"193":-0.21475938329097838,"194":-0.28032140964711305,"195":-0.054599907336451016,"196":0.06853759643407785,"197":0.30413760370082193,"198":-0.3329041496126711,"199":0.170876892537327,"200":0.3669073955533439,"201":-0.3455107959899412,"202":-0.08536831055169386,"203":-0.48687840587680936,"204":0.3567029371801547,"205":-0.5137905246366226,"206":-0.321212269108717,"207":-0.3698642806741667,"208":0.003304131736784328,"209":-0.37141532939853605,"210":-0.28487053737933593,"211":-0.309649007433705,"212":-0.23753271396919384,"213":-0.2997142749543652,"214":-0.14005796122702163,"215":-0.28992045623370827,"216":-0.4785421613464014,"217":0.5883361542167609,"218":0.26173324891792443,"219":0.10446111096590727,"220":-0.8206724999857281,"221":-0.08426695876099793,"222":-0.11411350209561819,"223":-0.16350507485284727,"224":0.29702248508237356,"225":-0.8329893255488752,"226":0.2175814518607779,"227":-0.003115092512684823,"228":0.19221773900651729,"229":0.09144834424059672,"230":-0.37113333255830355,"231":0.14946969302336868,"232":-0.8063827378373221,"233":-0.35826314237912643,"234":-0.008298417113279458,"235":0.4160492953702553,"236":-0.21361270165441154,"237":-0.5036033608357073,"238":0.031406315473178195,"239":0.07728884801844653,"240":0.47588061140344284,"241":-0.2658705071525981,"242":-0.2586809820756988,"243":-0.01326019009587233,"244":0.23321711075328375,"245":0.15445860512292323,"246":0.10840697421250285,"247":-0.31402554321520226,"248":-0.05829798084454282,"249":-0.2204979827537718,"250":0.1977401955657818,"251":0.23849110180303293,"252":0.05808573035433585,"253":-0.6182514862441001,"254":0.12494931770034325,"255":-0.655508938838631,"256":0.05079374891501557,"257":0.3741734073074095,"258":0.2377057789574601,"259":-0.07093267460704762,"260":-0.22008163882631862,"261":0.18025052128841157,"262":-0.15032210856150754,"263":0.5338974995202218,"264":0.6996876408688989,"265":0.3377770842968108,"266":0.05512404404379411,"267":0.35926506785175005,"268":-0.5531088043710503,"269":0.2295182738008962,"270":-0.5153991002483481,"271":0.38052303356034767,"272":-0.3562191614908457,"273":-0.4187903706190198,"274":-0.5576976816438062,"275":-0.08623005329209558,"276":0.20350303988750484,"277":0.11014800291512064,"278":0.1435987981695383,"279":0.19875803716444473,"280":-0.3438647921154025,"281":-0.19495990417435444,"282":0.16317305443760743,"283":0.32349251392860334,"284":-0.24716868588930008,"285":0.21552092641877996,"286":-0.14645987804918761,"287":0.5736365123940723,"288":0.36075433581553834,"289":-0.13819188091545287,"290":-0.13400379221526468,"291":0.18933380066963007,"292":-0.3118044270311501,"293":0.26760225453619063,"294":0.055573290487915886,"295":-0.22954874286952576,"296":-0.43060084613561816,"297":0.6596943604454456,"298":-0.0292784058993801,"299":0.14700763257763996,"300":0.2050353651231784,"301":0.08596433791626266,"302":0.1283067624471568,"303":-0.2585984005256548,"304":0.06178712961402565,"305":-0.5401984196515122,"306":0.9112423329109538,"307":0.642558155710633,"308":0.07542204584207425,"309":0.4608331508914331,"310":-0.34189200383957563,"311":-0.28526000926927053,"312":0.17999534404987252,"313":0.23175158668431398,"314":-0.02886739052909985,"315":-0.44910531729998104,"316":-0.3307496010371839,"317":0.29314009262782703,"318":0.4608847958733189,"319":-0.28697203531819226,"320":-0.07676987555633691,"321":0.39502017985292254,"322":0.26939186488728534,"323":0.02612716368049622,"324":0.15754730010392493,"325":0.15174319772853323,"326":0.06321264809464458,"327":-0.22139059136148231,"328":0.393139744557281,"329":-0.25727586657720874,"330":-0.13252709273234772,"331":0.0392248216927767,"332":0.7562050316759034,"333":0.30106149165521484,"334":0.1717552819113601,"335":0.09043786879223807,"336":-0.48748889428540443,"337":-0.32201049566462947,"338":-0.3572454088268487,"339":0.22199800525584662,"340":0.2779910526515414,"341":0.07135191597115893,"342":-0.19404672242352283,"343":-0.3955865477058702,"344":-0.23888513412801654,"345":0.0607375431599591,"346":-0.8192744284534408,"347":-0.27493832503094623,"348":0.17691505144922676,"349":-0.07414543355803319,"350":-0.10604055853414936,"351":0.06851456735838829,"352":-1.1480285213717976,"353":-0.35263685020478563,"354":0.515852440878336,"355":0.23816444630157094,"356":0.38926764682449944,"357":0.23813478022725074,"358":-0.10862791606267704,"359":0.13590760714103944,"360":-0.09316745709858147,"361":-0.24994014254860797,"362":0.024498829916917,"363":-0.019410053111165507,"364":0.22968707977283587,"365":-0.1751575467962663,"366":-0.23105484685575806,"367":-0.36630455350865243,"368":0.44066898834544493,"369":-0.05408941654577128,"370":-0.31539262392016326,"371":-0.5235501302528662,"372":-0.003436372076371416,"373":-0.04503883714901128,"374":0.17593952376693991,"375":0.4415503808051645,"376":-0.20008199566853888,"377":-0.041335281239261897,"378":0.24979933952176914,"379":-0.7127853566141976,"380":0.10592756709897114,"381":-0.3734503458814758,"382":-0.0806367820851282,"383":-0.47725422143847773,"384":0.6172755118015916,"385":0.4814089860712347,"386":-0.8940057239891733,"387":1.0427176236675293,"388":-0.010141095102890293,"389":-0.2000489689732315,"390":-0.7388089722745788,"391":0.04846974486698812,"392":0.1040696469086563,"393":-0.11305705432916655,"394":0.15293273001273935,"395":-0.9437325628579876,"396":-0.48980809217428417,"397":0.07587770311563152,"398":0.15719136346070325,"399":0.3982823905703138}},{"sx":5,"sy":5,"depth":16,"w":{"0":-0.034480090748069805,"1":-0.32243787764151577,"2":-0.3260904392566339,"3":-0.18280796406702907,"4":0.45354407952640124,"5":-0.7856621915131908,"6":-0.16607915897469852,"7":0.08896815768629375,"8":-0.031690774406160305,"9":-0.2685895979435822,"10":-0.10642254401234924,"11":-0.15577164550199726,"12":-0.2868273844708713,"13":-0.3152664107048198,"14":-0.24619355277906907,"15":-0.11836188885675966,"16":0.3526817820374386,"17":0.04917332694242968,"18":0.2200482732122125,"19":-0.41523082174667114,"20":-0.6406981921676842,"21":-0.11294750738401345,"22":-0.16264082732395346,"23":-0.5802438474118253,"24":0.4367381933079393,"25":-0.3599476612189305,"26":-0.20328050871775996,"27":-0.08099353004846574,"28":-0.304375203720616,"29":0.26073479839669783,"30":-0.29162431592825255,"31":-0.042190740610312506,"32":-0.10885655980085185,"33":0.2539908715135818,"34":-0.49215812897984706,"35":-0.41053113609757186,"36":0.47856278120426343,"37":-0.11373251644160183,"38":0.2895942817093526,"39":0.40970844904414067,"40":-0.1409276941057253,"41":0.3006731471216126,"42":-0.3519447290788623,"43":0.1842991655468937,"44":0.4763453009496275,"45":0.10168194029186006,"46":-0.4613765221092874,"47":0.018554167957134368,"48":0.002382342315510618,"49":-0.6074270629615871,"50":-0.18750714553250172,"51":0.48189401860548986,"52":0.0840711067486375,"53":-0.054474242848921405,"54":0.448973015523178,"55":-0.1956805777502908,"56":-0.4977573566226305,"57":-0.04757204725468276,"58":0.058837315754017405,"59":0.31801094000152713,"60":0.18756951926081913,"61":0.1418902260186124,"62":0.02704905864990755,"63":0.34440562369016103,"64":0.05240342843691093,"65":-1.0132449830962227,"66":-0.8546501209813958,"67":-0.42989444107931996,"68":0.0906389894601277,"69":-0.2916885088704273,"70":0.6690795805245707,"71":-0.040366735081700036,"72":0.06032955191039363,"73":-0.10261141693487862,"74":-0.3219368211814861,"75":-0.19440149840324378,"76":-0.24212055363670176,"77":-0.1938236564746579,"78":0.2787549356974674,"79":-0.23581502506346141,"80":-0.43184326750772106,"81":-0.08101501956766785,"82":-0.22490184761049828,"83":0.18490816750800887,"84":-0.3529023689377963,"85":-0.10173084803204717,"86":-0.5506719810653555,"87":-0.5724067061974858,"88":0.043884189602823254,"89":-0.15173241356699085,"90":0.2691745531268187,"91":-0.011402271819659342,"92":0.25127497990475794,"93":0.05516797106792719,"94":0.3042116537620914,"95":-0.3137909531753999,"96":0.3104223903722882,"97":0.04829359489138451,"98":-0.7425994487114789,"99":-0.10448587984620775,"100":-0.24138484603397456,"101":0.46079023256166785,"102":-0.02649748447200305,"103":0.23796637017960848,"104":-0.1725480320899895,"105":-0.23359894099132558,"106":0.594880843589756,"107":0.002845701374184636,"108":0.1655271708728269,"109":-0.06785706337130452,"110":-0.7172615640530393,"111":0.2725806846668277,"112":-0.49187249090537205,"113":-0.022169971399201016,"114":-1.1362906198694773,"115":-0.0967162301019356,"116":-0.043433926536242486,"117":0.22099196434037768,"118":-0.44304853259991267,"119":0.08422516325137813,"120":-0.6008669000071649,"121":-0.35019642177604293,"122":-0.5934677613260186,"123":-0.002403783767004148,"124":-0.11337489838445414,"125":-0.25884116072730246,"126":-0.9029857881926405,"127":-0.09673263163945778,"128":-0.7338082694277541,"129":0.35493684610549264,"130":0.13151744361966977,"131":0.34545819095429015,"132":0.024703922948210204,"133":-0.17473754294023253,"134":-0.29952496068484685,"135":0.15631040042933114,"136":-0.18736584081422122,"137":0.15798772158762692,"138":-0.6338850942707098,"139":-0.2907798012087576,"140":0.5481773701495967,"141":-0.14180307265329212,"142":0.1597211646163599,"143":-0.5631625676518788,"144":-0.37684817741671817,"145":0.1417045510634304,"146":-0.20257201091493496,"147":-0.2165419501106555,"148":-0.14953213234940674,"149":0.04556659187221654,"150":0.3790735823725672,"151":-0.04358680251267596,"152":-0.40867770018935534,"153":0.5313336264026547,"154":-0.3463592076234175,"155":-0.7961240604653371,"156":-0.4022100848841775,"157":0.23579341748966892,"158":-0.06196580597019506,"159":-0.6594794324566615,"160":-0.343102489164385,"161":0.009948604062028509,"162":0.23268551543210628,"163":0.29816820530067206,"164":0.44899311521751645,"165":0.5257324724932553,"166":-0.35545379455100007,"167":0.13706184260171797,"168":0.0005381144107116276,"169":0.3810723687657836,"170":0.25153682920790965,"171":-0.2086624405813739,"172":0.07051410527161316,"173":-0.31109352830744075,"174":-0.0732978929173629,"175":-0.5930974555476466,"176":0.5652371719279103,"177":0.04823464640865554,"178":-0.19814027395222825,"179":-0.2121766316735575,"180":0.031874656036887807,"181":-0.1874636941069862,"182":0.23654002189856152,"183":-0.028402352504887422,"184":-0.32156171280051765,"185":0.7848144255851495,"186":-0.4458918672419763,"187":-0.13657520205629053,"188":0.09119308208645821,"189":-0.057999671193719474,"190":-0.18989910350816777,"191":-0.08086874452522558,"192":-0.25935711922029847,"193":-0.036446521812713586,"194":0.015370121611474226,"195":0.032912546510746724,"196":0.40886983903189944,"197":0.2544317408934133,"198":0.3140662771726843,"199":-0.47882993468577684,"200":0.020734941786651036,"201":-0.6207999432197474,"202":-0.2502169773558333,"203":0.24269236790706072,"204":-0.06235707122820417,"205":0.13666326705669543,"206":-0.0000600773875455617,"207":-0.0845676318911417,"208":0.38711923860613406,"209":-0.05438754737892504,"210":0.006036947127112994,"211":0.11484459153570054,"212":-0.18956304368059823,"213":-0.17316879289779413,"214":0.006002176961039301,"215":0.4659674154846213,"216":-0.37428360579761166,"217":-0.44576540749849514,"218":-0.37688996736119074,"219":-0.7321073784585745,"220":-0.3116179960544149,"221":-0.38815626860529173,"222":0.6513253846944603,"223":0.2109356240350565,"224":0.27534445699535354,"225":-0.4059369059904229,"226":0.00593325553632723,"227":-0.08433461422760886,"228":0.189176052169386,"229":-0.1771589632644881,"230":-0.7169139807371593,"231":0.762352492193956,"232":-0.2255097246817571,"233":0.05570384314210813,"234":0.20016986403137538,"235":0.44064660185893945,"236":-0.41768403835745554,"237":-0.07592518993245441,"238":0.20179313878349125,"239":-0.1077938342530077,"240":-0.051396051427005957,"241":0.35781983119577343,"242":-0.46644093849256735,"243":0.3768145053012213,"244":-0.33855331008672385,"245":-0.2896463715937278,"246":-0.0023067907471457797,"247":0.6383152488919599,"248":-0.1346362085662008,"249":0.03773984986780159,"250":-0.10425790177551392,"251":-0.4306350771947632,"252":0.525290011392203,"253":0.005589277594889712,"254":0.2766925276339422,"255":-0.4617135963613923,"256":0.878815276998198,"257":0.10131015285117037,"258":0.19540172477610085,"259":-0.2574983409987227,"260":-0.20568028720417714,"261":-0.31077676970570844,"262":0.40980353369306405,"263":0.016772731106809786,"264":-0.11533312346090327,"265":0.23927149684317703,"266":-0.3310085303200295,"267":-0.6068080830852017,"268":-0.21724494637361969,"269":-0.23455118793869725,"270":-0.3312426249541623,"271":-0.09189454365283026,"272":0.06087456957875367,"273":0.3665526773736751,"274":0.3215199288083138,"275":-0.4677655459884288,"276":0.476437456262617,"277":-0.14866473489650187,"278":-0.5643706015051864,"279":0.4802874884922252,"280":0.22680214189009182,"281":0.12921939164104476,"282":0.19892250737911354,"283":-0.15616870043500558,"284":-0.5033154332229819,"285":0.31876409366374175,"286":-0.2696675155780074,"287":0.07765461151134652,"288":-0.9305205158790486,"289":0.20908070722933908,"290":0.08119903179644061,"291":0.3500179900444273,"292":0.03943006351929383,"293":0.2126656424546937,"294":0.6715982343799595,"295":-0.1224033723731548,"296":-0.25205057827831057,"297":-1.1402829817985363,"298":-0.06984371475720971,"299":-0.2838399135742871,"300":-0.11888297827568013,"301":0.38785952948488606,"302":-0.05687017667307288,"303":0.1932553000104537,"304":-0.45157952314091354,"305":0.03567732262621204,"306":-0.6041170924897054,"307":-0.3841636983179403,"308":-0.16415791242718394,"309":-0.3389193468246388,"310":0.1736971320524,"311":-0.2345476325188781,"312":-0.1804139864601356,"313":-0.1814596356666824,"314":-0.38859883643856363,"315":0.49271068773565657,"316":0.2518424742728836,"317":0.2722237167377688,"318":-0.19857395465649633,"319":-0.7149894166847258,"320":-0.09470508737116243,"321":-0.12545017186086796,"322":-0.15291218731485015,"323":-0.05649657167874135,"324":-0.5665213621087343,"325":0.014806011881821252,"326":0.21740365904650955,"327":-0.49780261426234534,"328":-0.06578862741426808,"329":-0.7863792127076509,"330":0.11887623145718217,"331":0.13313176419786085,"332":-0.037872376635695953,"333":-0.09148060603076805,"334":0.16500573584457506,"335":0.19996462358469907,"336":0.13442758751753953,"337":-0.1819616741721558,"338":-0.35642619045568413,"339":-0.9467832969486988,"340":-0.6501053738820423,"341":-0.05009928213594417,"342":-0.31523961177868737,"343":-0.03677620653186343,"344":0.11933844095906863,"345":0.05035201783073785,"346":0.03449741041367749,"347":0.37246568019704174,"348":-0.4001552452365641,"349":0.15389601373647457,"350":-0.7871521256688754,"351":-0.2623705098961784,"352":0.12358395755838293,"353":0.16625297623360233,"354":-0.47488160340415825,"355":-0.2026620496272896,"356":-0.7434307562004226,"357":-0.5725377421688,"358":0.2163912266213206,"359":-0.41634375791773787,"360":-0.7525186259501778,"361":0.9304276483407724,"362":0.06557442128463556,"363":0.40059235010824745,"364":-0.14629975275463256,"365":-0.3549859941282164,"366":-0.1447459455925169,"367":0.16295591354852348,"368":-0.5133128590551514,"369":-0.09436269120615302,"370":0.7311280593664694,"371":1.2173487199884576,"372":0.2556092752974171,"373":-0.14447953668413108,"374":0.12119975387573644,"375":-0.30687710471435015,"376":-0.1886629129047078,"377":0.1012257707118919,"378":0.4800359870389529,"379":-0.35788950105075823,"380":-0.8163909881339468,"381":0.4505996023207737,"382":-0.16433484172822263,"383":0.4621090219011821,"384":-0.5837326828595713,"385":-0.17329667857139716,"386":0.036152962039981945,"387":0.056031404652983834,"388":-0.49233962659472513,"389":0.5061873360668603,"390":0.5099577452416544,"391":0.17133076470449374,"392":0.1900458204342314,"393":0.5249903571054286,"394":-0.39646203316327444,"395":-0.34621798072403126,"396":0.019459029210900668,"397":0.43824173067220895,"398":0.0003569689747557978,"399":-0.5009883006303935}},{"sx":5,"sy":5,"depth":16,"w":{"0":-0.3859278026657856,"1":-0.8104003680312531,"2":0.2789691081490049,"3":0.0023657452614714437,"4":-0.29460375504954484,"5":0.07625764459873162,"6":0.6044779230617953,"7":-0.02756596509908848,"8":0.3546118218003357,"9":0.10193215717362862,"10":0.27616536056561214,"11":-0.14958972314936547,"12":-0.07686027592385561,"13":-0.49700927184452875,"14":0.2675251957577597,"15":0.1760932332529053,"16":0.3366097764937676,"17":-0.11457540676935447,"18":0.18759055764053983,"19":0.49446490088888534,"20":0.14176027071485095,"21":-0.22842785581850364,"22":-0.3957889869406973,"23":-0.056436470785607304,"24":0.2604625218624053,"25":0.20104398279260202,"26":-0.18395862354638878,"27":-0.09667545420217515,"28":0.2457264280623424,"29":0.07788549171556769,"30":0.21856706981033971,"31":0.0010790164861609133,"32":-0.8004422549559931,"33":0.056575096352883755,"34":0.21209032898831934,"35":0.5669211057787639,"36":0.02466604910277778,"37":-0.6910824477656097,"38":-0.1445033772643701,"39":-0.08750353706973897,"40":-0.09963035596224963,"41":0.4262240427927899,"42":-0.12697088626016242,"43":-0.19091753662368338,"44":-0.06987954634563497,"45":-0.12343122405711586,"46":0.3646003156996802,"47":0.4021599285078332,"48":-0.19650948390320755,"49":-1.164907501202785,"50":-0.44849198571222304,"51":-0.05970079249229303,"52":-0.2781230223420638,"53":0.0324543402374307,"54":-0.020458078348406343,"55":-0.08665603937437404,"56":0.1886745933649198,"57":-0.13424160452808398,"58":-0.387221677387418,"59":0.16820731056586852,"60":0.17939730937184162,"61":-0.4121779724984798,"62":-0.336836811205337,"63":0.47875239512780393,"64":0.016706883637599354,"65":-0.4768902695365695,"66":-0.1835049817646692,"67":-0.12288301594078355,"68":0.27902890066051994,"69":0.6128727717590734,"70":0.19076031310987224,"71":0.3248040872742711,"72":0.16988282440618327,"73":0.16672690801925094,"74":0.3128616524483318,"75":-0.13745581007314744,"76":-0.23516077592378237,"77":0.04222797731992494,"78":-0.0415361349685328,"79":0.030516352693263846,"80":-0.15085702906808107,"81":0.3548437970075284,"82":0.3173851686397965,"83":-0.36942001067934194,"84":-0.14855305210251998,"85":-0.0866887415475554,"86":0.061022678354932476,"87":0.5201387672304304,"88":-0.2788926099740233,"89":0.35522415623718767,"90":-0.40841458208704373,"91":-0.3572782127527709,"92":-0.31759263237438484,"93":0.32824102242811504,"94":0.11851395197287032,"95":-0.09586345271950548,"96":-0.337482800523856,"97":-0.07079225458654319,"98":0.1941812155359072,"99":-0.21373727170829437,"100":0.5560572564149048,"101":-0.2646425657661699,"102":-0.21375166371383772,"103":0.18011699301602915,"104":-0.1886249526912105,"105":0.2930508471076844,"106":0.024274740102508404,"107":-0.2715134057561276,"108":-0.6123416590012437,"109":0.052570074753957974,"110":0.2103422204931989,"111":-0.44194094126914946,"112":0.35225749684760427,"113":-0.23232341496006798,"114":0.6687280692949491,"115":-0.22113537707198305,"116":-0.05649086124953907,"117":-0.4432643207703728,"118":0.31675982578514095,"119":-0.3871546177754837,"120":0.20725403685361854,"121":-0.5064442713384002,"122":-0.34223710692568887,"123":-0.10451277955474435,"124":0.17689536646357504,"125":0.14278113705403261,"126":0.023963594592345122,"127":-0.2580652766199816,"128":0.55408924271789,"129":-0.11093530913046269,"130":-0.07650429516018617,"131":0.12499136445375698,"132":-0.18647570672767566,"133":-0.3137614984132743,"134":0.04550299306738736,"135":-0.49827248001677454,"136":0.19835641578624708,"137":-0.5588970264805743,"138":-0.6339883825481041,"139":-0.21921567229705313,"140":0.006731068503255912,"141":-0.2484267483957762,"142":-0.03277024365818929,"143":-0.2860880617529939,"144":0.3818631691281641,"145":-0.20864694717071514,"146":-0.22335541712581927,"147":-0.4216472841845773,"148":-0.02938174106523519,"149":-0.1356864970733079,"150":-0.3293176944581307,"151":0.14873334493525728,"152":0.0631581078234517,"153":-0.2131062826796358,"154":-0.7914348145274377,"155":-0.5495051592163476,"156":-0.28835947513962096,"157":-0.1498568081029841,"158":0.06501759463959508,"159":0.3069295821886187,"160":-0.39473023619817865,"161":-0.10370792597438387,"162":-1.0224486305311056,"163":0.055405025564177084,"164":-0.16681891505447627,"165":0.42865978631268203,"166":0.3711202885468975,"167":-0.28808838022173594,"168":-0.3383283231229031,"169":0.198561642265791,"170":0.03265096298073515,"171":-0.04186250216253821,"172":-0.4073191977622197,"173":-0.05432497154766192,"174":-0.06832085619014715,"175":0.17142704263674616,"176":0.24047578584344198,"177":-0.11373414127733035,"178":-0.19008864193987104,"179":0.1251552070957589,"180":-0.14938269541268784,"181":-0.037412440094374465,"182":0.3934110497020458,"183":0.18344072900374767,"184":0.13693039631392281,"185":0.08016535270459159,"186":-0.3257873150355206,"187":-0.5010688852967885,"188":-0.6072674420356401,"189":0.175280907938306,"190":0.06297139314734558,"191":-0.2721826244569325,"192":-0.14417423445013733,"193":-0.20180887709385628,"194":-0.1483476432847526,"195":0.10033152642686931,"196":-0.07875654632875317,"197":-0.6376701932214845,"198":-0.33867299402027073,"199":-0.0784371345681306,"200":-0.0016865018810027863,"201":-0.051706228312074394,"202":-0.48358634959451624,"203":-0.4296714765845513,"204":-0.10652481191972205,"205":-0.2539832789669529,"206":-0.08995541831789364,"207":-0.054199007286912355,"208":0.4477275905315728,"209":0.12563895480545148,"210":-0.5141550160020396,"211":0.2369914967076091,"212":-0.04643440159976324,"213":-0.0709197423548113,"214":0.11595328236900469,"215":-0.3226747008816379,"216":0.1620898420790334,"217":-0.6905867991979949,"218":0.09615908728038945,"219":0.4498476394507382,"220":-0.34900008110217823,"221":-0.1444131538398939,"222":-0.2754827857685898,"223":-0.07323535462409377,"224":0.33092916658704363,"225":0.053991376361822344,"226":-0.04803696247178597,"227":0.20349428045244383,"228":-0.5187122905329237,"229":-0.411947494315635,"230":-0.22736096961399752,"231":-0.011509067155002878,"232":-0.49092482463329545,"233":-0.14112239533596843,"234":-0.009004649307807895,"235":-0.27398272216336533,"236":-0.34828236265797824,"237":-0.18166760904791995,"238":-0.3266966496478861,"239":0.046120360408445284,"240":-0.3548105117528511,"241":0.11004919908115389,"242":0.06163608383386376,"243":0.059047843296981595,"244":-0.4710301236888039,"245":0.15739717969761421,"246":0.3498474815134659,"247":0.06923440487266667,"248":-0.06467096313161586,"249":0.3116691952853788,"250":-0.06583921653044637,"251":0.1780683545719097,"252":0.4586008803330577,"253":0.10144484233491956,"254":-0.40702601784107034,"255":0.27816370538528773,"256":0.4894866743606866,"257":0.10651563876179032,"258":0.15227523920123995,"259":-0.20983848027359878,"260":-0.0837883430972852,"261":0.20256605464405658,"262":0.17391673552428377,"263":-0.5257195378709683,"264":0.11979535022898598,"265":0.042942156310158366,"266":-0.27824581325146924,"267":0.12052217364202614,"268":0.4732680458069175,"269":0.07601872001151619,"270":-0.7276310094111528,"271":-0.19087428021925865,"272":0.002399397899449428,"273":0.30764516785533863,"274":0.07033053148178992,"275":0.08649767741415455,"276":-0.04267401501581418,"277":-0.5272890231489847,"278":0.3915415577877911,"279":0.22068417454246297,"280":0.30491490391270903,"281":0.39834559401468445,"282":-0.4968506879632786,"283":-0.21340861793650243,"284":-0.3242656335806798,"285":-0.1796455046839038,"286":0.06823048102337347,"287":-0.7938357114058715,"288":-0.30834096842825875,"289":0.12939399247611852,"290":-0.25275354511061954,"291":0.18389625257924602,"292":-0.08546977609262187,"293":-0.06770274283389835,"294":-0.0007514806047828433,"295":-0.14307713676006148,"296":-0.49037402770961713,"297":0.08888092178882546,"298":0.5676958271676659,"299":0.1902995875089415,"300":-0.17478573354036267,"301":-0.3876340847824541,"302":-0.4581966077767093,"303":0.053713620006796546,"304":0.010168498681530658,"305":0.10458222908315623,"306":-0.03994797072314089,"307":0.2477096712699613,"308":0.0821416029950843,"309":-0.1504007882819527,"310":-0.003008600252685467,"311":-0.4213527518564265,"312":-0.45614251502778297,"313":0.10905878676132294,"314":0.006466379647570621,"315":-0.13837843013227555,"316":-0.2264445394991919,"317":-0.23241565243495887,"318":-0.8080029620382337,"319":0.4287865347201862,"320":-0.10073960915618736,"321":0.2291136062384788,"322":-0.03172689955870848,"323":0.24697954066189312,"324":0.3721297036994211,"325":-0.17369458238770866,"326":-0.3594045371137162,"327":0.13235234528055453,"328":0.23160590996949246,"329":-0.2015237668693334,"330":0.008127665625873796,"331":-0.053998754867215705,"332":-0.07922567562123393,"333":-0.5127058557472408,"334":-0.42158783385668486,"335":0.832095367902886,"336":0.059153019729749554,"337":0.04894529664725132,"338":0.2574749691139316,"339":0.0798496220666162,"340":0.17746584918532812,"341":-0.2166822482792007,"342":0.26740918329350977,"343":-0.7408613969948922,"344":0.3506703892605645,"345":0.08995780420441694,"346":-0.20918490637173723,"347":0.0432817769249373,"348":-0.16689136947448438,"349":-0.7532924403836473,"350":-0.6664563881501306,"351":0.4102071733935466,"352":0.6405674349026007,"353":0.2699860150865078,"354":0.3027124379580919,"355":0.5971159684596359,"356":0.25731817465287754,"357":0.3664147854356544,"358":-0.3297834518042339,"359":0.062310376200091104,"360":0.07902579192168842,"361":-0.058826137619702255,"362":-0.28284812429707806,"363":0.4323775600005033,"364":0.33499749722424116,"365":0.02283247233535717,"366":-0.7322383996229961,"367":-0.5570235913352993,"368":-0.11826882765931769,"369":0.038074699588798736,"370":0.31177176312164845,"371":-0.03339853837251328,"372":0.1989328923535607,"373":0.1107382047267962,"374":-0.11796234771777814,"375":-0.5784071203542803,"376":0.08208715910293345,"377":0.7078477205825676,"378":0.5848205287507893,"379":-0.170060561829789,"380":-0.13229039634742196,"381":0.31899536902015835,"382":-0.681632067928748,"383":0.12277107131338746,"384":0.0669005235943546,"385":0.06539247083593588,"386":-0.09400094741990282,"387":-0.005394856321691723,"388":0.04409073190610381,"389":-0.3101330134652956,"390":-0.05391500259303544,"391":-0.2720613741756189,"392":-0.10848692137066161,"393":0.30174104433767435,"394":-0.4919759982366659,"395":-0.4285442764019316,"396":0.11487747756828225,"397":0.19464072790873563,"398":-0.21387922317866193,"399":-0.4913014304353435}},{"sx":5,"sy":5,"depth":16,"w":{"0":-0.25384309417867734,"1":-0.2868652963825839,"2":-0.09805897545646611,"3":0.16132391947155234,"4":-0.284990666653655,"5":-0.09185343844748531,"6":-0.2216402958615085,"7":-0.2624479315390453,"8":-0.08478252930634497,"9":-0.2792984618891068,"10":0.39922866345077,"11":-0.4239598039240003,"12":-0.26170410914649483,"13":0.31147150665843354,"14":0.07919587928932781,"15":-0.43303308812244123,"16":0.5593202360948506,"17":-0.8181971781484246,"18":-0.584129785883558,"19":-0.7382799989621575,"20":-0.13589251390085144,"21":-0.7274773901947091,"22":-0.05013320963178011,"23":0.02172238031588065,"24":-0.17993711382181307,"25":0.2915821219726136,"26":-0.35461788976192515,"27":-0.29882317815764453,"28":0.3209940294955055,"29":0.3491876946501287,"30":-0.33736530963338573,"31":-0.5557674100301844,"32":0.5762237306152793,"33":-0.5363256856948092,"34":0.27140344611133926,"35":0.22800224926391086,"36":0.5832433140007492,"37":-0.2415640795223072,"38":0.3519035618506679,"39":0.8542261696905871,"40":0.0002001934283699337,"41":-0.49011328789975617,"42":-0.3773341439856116,"43":-0.30491100078814914,"44":-0.0582779337141174,"45":0.40404011478921825,"46":-0.7230536839595091,"47":0.3565159217620549,"48":-0.2099209121624386,"49":0.27278393102039683,"50":0.3145663212950609,"51":0.11942388254066592,"52":0.044161277214294,"53":0.24273898849532669,"54":-0.4165361534642816,"55":0.11033268570881699,"56":-0.27926225981606284,"57":0.11801063015261837,"58":-0.2230236334842053,"59":-0.1359979165222293,"60":0.17144117707960907,"61":-0.03940401337285989,"62":-0.536382482230798,"63":0.03590129624367255,"64":-0.1975612421239254,"65":0.04367406677067751,"66":0.2457225861027716,"67":-0.04721824895054713,"68":0.3793423328872775,"69":0.5252599689019263,"70":0.1360812587962857,"71":0.40480474056373317,"72":0.024737190466738168,"73":0.20238015016150607,"74":0.2875897463202949,"75":0.06530948524229531,"76":-0.6125573595783728,"77":-0.11688685253073254,"78":-0.08738690057129528,"79":-0.2695742618820572,"80":0.10723308582895716,"81":0.2317919247179637,"82":0.24410820368261496,"83":0.008517597279846106,"84":-0.08023598837412446,"85":0.07330099867923622,"86":-0.18932726784167114,"87":-0.2867981806251987,"88":-1.057210963619033,"89":-0.19054973146226445,"90":0.509297785272297,"91":0.48133928281222116,"92":0.16113498318318425,"93":0.3857785885397711,"94":0.466766557115192,"95":-0.2084375539547102,"96":0.33505082301333394,"97":-0.29389388184909776,"98":-0.8992282640958384,"99":-0.08019877331495004,"100":0.03874863738341605,"101":-0.2944179160318629,"102":-0.057730617002948244,"103":-0.1460413518320414,"104":-0.30937316345685656,"105":-0.4261353294449779,"106":-0.13458987699213906,"107":-0.8116522881584235,"108":0.08837088984794488,"109":-0.20082326814237614,"110":0.0770400434889399,"111":-0.3034608687629442,"112":0.10966168536903159,"113":0.298969830571474,"114":-0.3150487666240532,"115":-0.04289401953875167,"116":0.006933168856600021,"117":0.31027350507145485,"118":0.22365269548849087,"119":0.18745508507822845,"120":0.35506331696595156,"121":-0.1960623613131056,"122":-0.28127101915217567,"123":-0.0434494535092586,"124":-0.2983747495916562,"125":0.041373456347789016,"126":0.23513489371071752,"127":0.07689409574169266,"128":-0.1994966023522095,"129":-0.49828443620189755,"130":-0.7485416648621503,"131":-0.26199164361451566,"132":-0.13233686682020188,"133":-0.3028124186546562,"134":-0.12077901956946574,"135":-0.7271241605690516,"136":0.10844289508921179,"137":0.02561331438894306,"138":-0.504775945368155,"139":-0.2783323874228558,"140":0.18950344340093353,"141":0.40420877364549185,"142":0.034642294690012336,"143":0.20750204365322647,"144":-0.1863023194069368,"145":-0.07412041738997072,"146":-0.22643065311532282,"147":-0.3259970623059269,"148":0.5353567371102671,"149":0.04808088239256918,"150":0.10941334618409675,"151":0.22264851887236217,"152":0.01749551699021502,"153":-0.5803933995796852,"154":0.23480438551781382,"155":-0.18211026253121573,"156":-0.04136125359369896,"157":0.1326767879062245,"158":0.10213902644519957,"159":0.41111887076822723,"160":-0.22432753681497838,"161":-0.02768497269817678,"162":-0.22973807169781688,"163":0.08825582145989223,"164":-0.004496022024564173,"165":0.06402855356238268,"166":-0.266936804457714,"167":-0.14777573617029238,"168":-0.6701865398559791,"169":-0.005982202169580065,"170":-0.3711790829085797,"171":-0.43304788106130715,"172":0.24673242646469482,"173":-0.24875147955375956,"174":0.7174516329571676,"175":0.03698003753964338,"176":-0.10587259952258114,"177":0.07844949816781874,"178":-0.17698862758727762,"179":0.21971718361550494,"180":-0.35848869492263197,"181":-0.8003773750056231,"182":0.10710565650037453,"183":-0.4673224122688016,"184":-0.597490779133613,"185":-0.22083071966044285,"186":-0.07179670031175377,"187":-0.46274399306892156,"188":-0.36847459324701004,"189":-0.2359085453493065,"190":0.20803556192830686,"191":0.39353691693128096,"192":-0.5818363867968754,"193":0.16270270715359977,"194":0.16492247921089664,"195":-0.24145556634549772,"196":0.2986013555339464,"197":-0.45896675008758964,"198":-0.3270872704816642,"199":0.11301380184609022,"200":-0.013687350278507478,"201":0.10489989723806512,"202":0.15045574459774116,"203":-0.7271025748287747,"204":-0.30470633273287007,"205":-0.1452310242040842,"206":-0.004617051158027295,"207":-0.4702748088050515,"208":0.40717199597276027,"209":-0.05056521902545228,"210":-0.5462854624996221,"211":-0.23456004673935765,"212":-0.09978444322642027,"213":0.06419743105199342,"214":-0.19103784493952838,"215":0.3541495753640168,"216":0.2748700283746407,"217":0.18872305982974463,"218":0.32780386290551644,"219":-0.4078597816407972,"220":-0.3884941990890437,"221":0.9348279775476329,"222":-0.4227096095466523,"223":-0.1558906929056835,"224":0.23589101010708832,"225":0.18755892372547422,"226":-0.13271850957703896,"227":0.3673326245127974,"228":-0.45677966388014113,"229":0.1824075783536652,"230":0.4101259331452088,"231":0.550698034261893,"232":-0.014444380386669684,"233":0.12769158793320778,"234":-0.07988926241319912,"235":0.06355592453576124,"236":0.44304178326331145,"237":-0.039935563249089104,"238":-0.3948666673908164,"239":0.07528056828825742,"240":-0.05709664980812331,"241":0.07352425438571951,"242":0.18550892193616253,"243":-0.18253734178854691,"244":-0.3367442260207522,"245":-0.4939019567358301,"246":-0.1769190671658637,"247":-0.27709190671880046,"248":0.2546440302331658,"249":-0.5475581991186899,"250":-0.3577648935125657,"251":0.08726116832521828,"252":-0.5478128586160472,"253":0.13212103905712602,"254":0.3537620457951872,"255":-1.0105582144070586,"256":0.14127534987060475,"257":-0.5102630173416257,"258":-0.27516893197767445,"259":0.3835379889043601,"260":-0.26258454649465207,"261":-0.17064875111781044,"262":-0.04302511642966833,"263":-0.749530082678927,"264":0.1430831776083898,"265":0.49201310663405873,"266":0.3119931904148241,"267":-0.23971553660528575,"268":0.12058013669698424,"269":-0.28777049143892874,"270":0.03338514559229944,"271":-0.002674426569029688,"272":-0.5528789505040199,"273":-0.471020395700126,"274":-0.31366881567570143,"275":-0.19685919289498877,"276":-0.43343388018557255,"277":-0.6517675299427577,"278":-0.41746677132830684,"279":-0.4891634160247179,"280":0.4704468447839743,"281":-0.6340022593911465,"282":-0.30525277470393913,"283":0.0454490925024824,"284":0.23607054144359235,"285":-0.382770516741981,"286":-0.12341814258782711,"287":0.5023726558313223,"288":0.11136503911205206,"289":-0.0408605933774097,"290":-0.45127005694807204,"291":0.3201627509997544,"292":-0.4282969277410274,"293":-0.2688763699318508,"294":-0.5827775834622555,"295":-0.26780270312340654,"296":-0.39235439290728663,"297":-0.3213162563192401,"298":0.11126003918136985,"299":-0.051985227186398135,"300":-0.3501700759282387,"301":-0.21481299115264063,"302":-0.34756196600349026,"303":0.04853104741935836,"304":-0.6051234045978001,"305":-0.12691862404466533,"306":0.11361524526646122,"307":-0.14823698828701137,"308":0.18789406039692239,"309":-0.06616090217743387,"310":-0.30864425671675016,"311":-1.0699580608042947,"312":-0.054741832742892425,"313":-0.14261685814377104,"314":0.08581351262871104,"315":-0.0032907958277191844,"316":0.7404264272117845,"317":-0.362311299095633,"318":-0.6253701969014436,"319":-0.13811930090412855,"320":-0.010714493681653394,"321":0.19205521394137937,"322":-0.013004359725513694,"323":0.10612750301396387,"324":-0.09099136846857153,"325":-0.16202141006975765,"326":-0.4773325552080908,"327":0.33433877688543,"328":-0.1987470457206225,"329":-0.11820541570355639,"330":-0.6719852752016755,"331":0.392527035005014,"332":0.5728910176512034,"333":0.07764200187623387,"334":-0.42554326307061,"335":0.18953671777612965,"336":0.11570293211583296,"337":0.4773477771449044,"338":0.20574284982960475,"339":0.39526005074553533,"340":-0.06171826681093431,"341":-0.3644795424647194,"342":0.25886741597945484,"343":-0.051535855117710326,"344":0.031585728828522015,"345":0.03878910524054257,"346":0.5875496153920083,"347":-0.11431730258661653,"348":-0.08717513726444354,"349":0.15348856715283066,"350":0.3813843128753448,"351":0.06785218293809647,"352":0.57067978581195,"353":-0.490574759153587,"354":-0.17251856920220418,"355":-0.23433944383200755,"356":-0.24280708175638105,"357":0.39352105799707215,"358":0.005550302577486229,"359":0.4414695606743205,"360":0.21295813701626576,"361":-0.5404678203225599,"362":-0.3169209535006822,"363":-0.5336909661982572,"364":0.2598211541144145,"365":-0.3095552300329927,"366":-0.017186713355116835,"367":0.5365424391341937,"368":-0.11808313848496951,"369":-0.1968587541778171,"370":0.725600266938025,"371":1.010997119338001,"372":0.6183782454178697,"373":0.24679999837015743,"374":-0.033759888376328435,"375":-0.5770393601666626,"376":-0.03881005923188725,"377":0.06801773021094405,"378":0.48232487362240994,"379":0.11648416490041498,"380":-0.13661212517880053,"381":-0.011206140656357675,"382":0.12301247906781529,"383":0.13943413848601363,"384":-0.056930918157140756,"385":-0.31937816804471464,"386":0.3053694838727783,"387":0.3898439126099953,"388":-0.5950408747768421,"389":-0.0534372232023128,"390":-0.12819370541576938,"391":0.12140901347233947,"392":0.09054344505094539,"393":0.207776515779821,"394":-0.5121891737145003,"395":-0.45923527402888115,"396":-0.23517430509687895,"397":0.10242185921878201,"398":-0.40602912410912395,"399":-0.27913053646746716}},{"sx":5,"sy":5,"depth":16,"w":{"0":1.0905009326430612,"1":-1.2263070357799817,"2":-0.25455587250604617,"3":-0.17694996487729997,"4":-0.23792833290390683,"5":0.5372864846796346,"6":0.10012984747649728,"7":-0.21288984025579627,"8":0.1250080980079769,"9":-0.04695665093559086,"10":-0.1636587332638877,"11":-0.7290952467251407,"12":-0.44399745518355527,"13":0.124993004825298,"14":-0.5266502049992926,"15":-0.02885655717447034,"16":-0.11451889071271683,"17":-0.6778231739415552,"18":-0.7730895105584957,"19":0.03354352196680004,"20":-0.2422856234369799,"21":-0.11090634784125776,"22":0.031316498012973364,"23":-0.2064401401636111,"24":-0.08835308203478341,"25":-0.5120931684340304,"26":0.5366674909948712,"27":-0.7383466653236577,"28":0.006051429596218079,"29":0.2158843913996805,"30":-0.7546133019216876,"31":-0.10515714646785763,"32":-0.36180245940051153,"33":-0.05608231387336858,"34":-0.20431273629487154,"35":0.6456410149235622,"36":0.7820995408930977,"37":-0.495771750263742,"38":0.20663090217037902,"39":0.6645537924729975,"40":0.5994401999605065,"41":0.39253024439523904,"42":-0.3074419704189802,"43":0.30754140389621626,"44":0.2592795777496397,"45":0.1186826172811882,"46":-0.19821693282801991,"47":-0.5505884799909488,"48":-0.3464295008363218,"49":0.0005575441428710889,"50":-0.2327407415478364,"51":-0.058834410128530586,"52":0.39813993490234184,"53":0.09655671397344412,"54":0.15348522807106516,"55":0.10566929290342685,"56":0.42665915304780466,"57":0.654407041405052,"58":-0.17172272441610165,"59":0.5837966475858277,"60":-0.06920372187017493,"61":0.31409318769091554,"62":0.016066981898628825,"63":-0.3552323912550611,"64":-0.04728093867328273,"65":-0.21969836005645405,"66":-0.36598210718711055,"67":-0.49925809236507523,"68":0.08140149639206742,"69":0.28521599343452797,"70":0.3752291118209731,"71":0.08222214047671166,"72":0.11981102555557453,"73":-0.1104515082515171,"74":0.3564796656969264,"75":0.16588525760262499,"76":-0.5944854471198907,"77":-0.21873465006413467,"78":-0.10355220651052523,"79":0.5287815250181934,"80":0.5113816235550268,"81":-0.794661486683515,"82":-0.577937730454076,"83":-0.3065441982585493,"84":-0.12620090102115117,"85":-0.03505758264289448,"86":0.18793676601986486,"87":0.5965943986411297,"88":-0.27729071439760217,"89":-0.3718496120112451,"90":-0.022445565035823876,"91":-0.339228791080563,"92":-0.24947126126269345,"93":-0.06900962225289926,"94":-0.3110447272401084,"95":-0.22807000675482783,"96":-0.5619437478854874,"97":-0.5550529941906458,"98":-0.19745211133087442,"99":-0.3057070986819644,"100":-0.3598797227230141,"101":-0.781481294411261,"102":0.00953027321182447,"103":0.1844739728262847,"104":-0.42625204632867836,"105":0.39046412378834927,"106":0.6557860935046758,"107":-0.3403836032887398,"108":0.2100210253183218,"109":-0.09904095466052226,"110":-0.3127813696592743,"111":-0.1490437864518326,"112":-0.038989446222465876,"113":-0.39542463675050116,"114":-1.0963549184987345,"115":0.37585545267618203,"116":-0.230687965701513,"117":-0.03781060125510897,"118":-0.41887698161678955,"119":0.08567097622470157,"120":0.43655390806627314,"121":-0.10167997327723649,"122":-0.6616118776630123,"123":0.19631485442417956,"124":0.14706390813878295,"125":-0.008016107031979062,"126":0.25890061804316894,"127":0.025281440414575702,"128":-0.25361115523547,"129":-0.42200185716855804,"130":0.04414634531177745,"131":-0.2925752787790262,"132":-0.2817331932412977,"133":-0.2211423625849167,"134":-0.256937863145923,"135":-0.18089090445913567,"136":0.14675288927816357,"137":-0.4602302702473067,"138":-0.04880053854311866,"139":0.006735492974211943,"140":-0.4913093782356285,"141":0.03103251802220782,"142":-0.5876670509973639,"143":0.2672712092230782,"144":-0.041685759720881094,"145":-0.4661672548930933,"146":-0.19219386485009732,"147":0.1267905055354691,"148":-0.4708480414172171,"149":-0.09830057361023974,"150":0.2886462156962508,"151":-0.07565172429510807,"152":0.034116759341523153,"153":0.14194148663685877,"154":0.04056878759096758,"155":0.39421780391138955,"156":-0.3497485784816353,"157":-0.1136361699760583,"158":-1.2450254784389816,"159":0.7091320166685255,"160":0.5684348205724951,"161":0.45405381060313305,"162":-0.20980971860920866,"163":-0.07463767418434968,"164":-0.9480468329604393,"165":-0.18282862457347407,"166":0.16655190761100505,"167":-0.043133675437994866,"168":0.5617095898294584,"169":-0.15833742877185797,"170":-0.2047641377721322,"171":-0.1860793420391178,"172":0.14068577171735092,"173":-0.2751368126434177,"174":0.42095798569014675,"175":0.4542016466231855,"176":-0.28583544799626787,"177":0.22814768084013468,"178":-0.17453490660381024,"179":-0.19625684720560527,"180":-0.7162182142304742,"181":-0.3031464753570537,"182":-0.2171320169929956,"183":-0.27813433294623696,"184":-0.17075597458647856,"185":0.18129562617315034,"186":-0.4750530098733656,"187":-0.2445064780671417,"188":0.8832541118175129,"189":0.2737032570833816,"190":0.11621600051450436,"191":-0.39117984619363194,"192":0.024146103198991072,"193":-0.16246646901316075,"194":-0.11664142170663558,"195":-0.01063893352687797,"196":-0.1334212210571951,"197":-0.7736902590097258,"198":-0.02383943823835432,"199":0.06309812109880937,"200":0.051338568270964766,"201":-0.31936771258706725,"202":-0.45496476029645533,"203":-0.10131381621365365,"204":0.03593135682675795,"205":-0.27396011521798375,"206":-0.43206856491834666,"207":-0.1615272411676161,"208":-0.1221749165398766,"209":0.47719656408703953,"210":-0.07435318602860043,"211":0.3592743529436262,"212":-0.2677146502926503,"213":0.4972700202226058,"214":0.3275290221191142,"215":-0.12880223207968183,"216":0.5386889044940456,"217":-0.3167364440346943,"218":0.11037993498170148,"219":-0.3593682446433909,"220":-0.355038435876831,"221":-0.009045724659064272,"222":-0.43309082500083307,"223":-0.15155174699394552,"224":-0.153550996628316,"225":0.09378115503460464,"226":0.5164431073589116,"227":-0.2280410430426043,"228":-0.6032860973336368,"229":-0.13400928699362522,"230":0.3218346049643475,"231":-0.7294619096444088,"232":0.18532736037830244,"233":0.0071076411921977035,"234":-0.01351212303188295,"235":-0.6351659527335581,"236":-0.3663044911797113,"237":-0.4187313017017464,"238":-0.3255293765952144,"239":0.32372571138209616,"240":0.25996659765979524,"241":0.12274369330698266,"242":-0.04230275157546711,"243":-0.22768544163832907,"244":-0.11521595164951313,"245":-0.5572585727418387,"246":0.0004521308214262046,"247":0.1564862871564828,"248":-0.37134241685396213,"249":0.23888021399432705,"250":0.1781974987017928,"251":0.3666549390472861,"252":-0.05821162338984859,"253":-0.24529253191773445,"254":0.7955221609601697,"255":-0.019735380544062653,"256":-0.15870264194561104,"257":-0.05155672261507104,"258":-0.14159119179646523,"259":-0.22204879178538373,"260":-0.28941331909535983,"261":-0.19633488487444492,"262":-0.22250396535885347,"263":-0.5176992399988712,"264":0.4170621399901243,"265":0.45136098701644345,"266":-0.04706720610596446,"267":-0.15762125103589766,"268":0.13196656165300719,"269":-0.14177464608989124,"270":0.2833828851584277,"271":0.03458544360957178,"272":0.16509011576269447,"273":0.03933699894492825,"274":-0.41716363116935173,"275":-0.10644441131142277,"276":0.2002035942375881,"277":-0.5689236127990591,"278":0.516692828724534,"279":-0.3960949373854636,"280":0.32474952508139626,"281":0.12655377980187205,"282":-0.43131738681686976,"283":-0.4301560569575023,"284":0.07584360840336012,"285":-0.13770713990223474,"286":0.25381089781914634,"287":0.21540605488007875,"288":-0.4807195219878788,"289":-0.07144944124338871,"290":0.07413493115043276,"291":0.046337269214583574,"292":0.18386294630811068,"293":0.7503353802300348,"294":0.08600412574297253,"295":-0.6092017186986647,"296":-0.8088230718885585,"297":-0.09987183645133951,"298":-0.37009137133960407,"299":0.022645417593303685,"300":0.22247880114607851,"301":0.22885306552461365,"302":0.2673885955876441,"303":0.13334539256209943,"304":0.20397148093524084,"305":-0.4222506828950103,"306":0.2817494277562424,"307":-0.39815731880615773,"308":0.22074229927874434,"309":0.045597530650500394,"310":-0.1215877943056422,"311":0.38124262937733067,"312":-0.25062766000024994,"313":0.5489119789469334,"314":-0.5192239464561441,"315":0.22791271627876133,"316":-0.03521787658653851,"317":0.4868939132268009,"318":0.10811240335037403,"319":-0.14519441544687092,"320":-0.5485625444222352,"321":0.002394833246896362,"322":-0.21934894709071526,"323":-0.6657020151070081,"324":-0.2412144193909545,"325":-0.15414185927814897,"326":0.3472570628250967,"327":-0.25119063328514074,"328":-0.3551169043596474,"329":0.35412831645875764,"330":-0.2154322327042319,"331":0.354421359431846,"332":0.3411083764357925,"333":-0.14902014251073,"334":-0.18662825050131787,"335":0.21301127357291333,"336":0.09676590076052637,"337":0.3562604994650749,"338":0.1011782854107336,"339":0.008110738213201902,"340":-0.1806720521937598,"341":-0.38778211416837016,"342":-0.4709799327010567,"343":-0.36300226991223394,"344":0.08176620597833058,"345":-0.0610227069092536,"346":-0.06897372469011596,"347":0.3375173897502005,"348":0.07294090027563041,"349":-0.12810249056734097,"350":0.08610299169371648,"351":0.0539824762371404,"352":0.25915617765293075,"353":-0.17850733082996104,"354":0.14174269501852782,"355":-0.46394396361146484,"356":0.297452958435241,"357":0.368456217098611,"358":-0.5267982055090852,"359":-0.6023165271099614,"360":-0.4024686418607291,"361":0.46418497472699477,"362":-0.8355775949419247,"363":-0.14121492501824548,"364":-0.13241559197619984,"365":-0.02235962279913614,"366":0.22994155516260426,"367":0.05815410028312836,"368":-0.6748217342930608,"369":-0.38377140185792313,"370":0.2743748752780413,"371":-0.16235911747710619,"372":0.04755512387193682,"373":0.00787579330677788,"374":-0.0027290542820049384,"375":0.2584032642235386,"376":0.040420864423773864,"377":0.5428176304091062,"378":-0.15914709906728924,"379":-0.39455147467345164,"380":-0.20114912292408207,"381":-0.008882197250322616,"382":0.3273031421827064,"383":-0.4544298867073814,"384":-0.9149753535890718,"385":0.2501252619459213,"386":-0.31990273010848314,"387":-0.05140994004215154,"388":-0.1258728157092395,"389":0.3443282022647207,"390":0.273361095355978,"391":0.26868901431507564,"392":-0.17182198622767694,"393":0.5629100168781194,"394":0.6153336227769456,"395":0.11546146879005743,"396":0.3656007373538622,"397":0.47720933451365116,"398":-0.3973434444721693,"399":0.058693201725590664}},{"sx":5,"sy":5,"depth":16,"w":{"0":0.6099629042050092,"1":-0.32013036102229697,"2":-0.4254162993765938,"3":0.03130511115132932,"4":-0.5990863232804056,"5":-0.13398276271854895,"6":-0.42191858714948405,"7":-0.04267495434095265,"8":0.04150064990985571,"9":0.5019047496352083,"10":0.10296566776582734,"11":0.3703671798154017,"12":0.5666407422985977,"13":0.06483009078109879,"14":0.007184366835564765,"15":0.19301501148488065,"16":-0.13152408376357944,"17":-0.1894742179769014,"18":-0.48433446076672293,"19":-0.1723568461449832,"20":-0.3007751075879588,"21":0.3355476233844968,"22":-0.019684464141778102,"23":0.1329435823462089,"24":-0.10102253103594454,"25":0.1709985593003021,"26":0.34602980263521466,"27":0.08834461176912459,"28":0.23304359063234473,"29":0.2726340616866812,"30":-0.6901656395426152,"31":0.45566120690876954,"32":0.2645442179484431,"33":-0.6408087324467152,"34":0.7750951647923994,"35":0.5022881673000924,"36":0.2901886400542356,"37":0.40299994204357525,"38":-0.16679076229413436,"39":0.3325026080863944,"40":-0.36027672986361886,"41":-0.14096554169275413,"42":0.3158252820266653,"43":0.06203100439648457,"44":0.4186186936262434,"45":-0.3094899692761032,"46":-0.04189851986398508,"47":0.26857935117109916,"48":-0.6272650402057988,"49":-0.46156498188253553,"50":0.1689281196152427,"51":0.7660396830780405,"52":-0.06266221844436454,"53":0.5682264618231295,"54":0.17121554877769612,"55":0.2932459269836791,"56":-0.29866423596668895,"57":0.1961409074546881,"58":-0.14468279411132481,"59":0.05295227982572248,"60":0.14174023112126008,"61":0.2778861891951783,"62":0.7492575828687252,"63":-0.15766819669460452,"64":-0.2607209368438234,"65":-0.7793376490595992,"66":-1.0405900647929096,"67":0.9759154800231886,"68":0.10849942392625177,"69":0.3815567056605975,"70":0.0879541158493136,"71":0.26534598315717217,"72":0.6100360131406377,"73":0.10707526133509898,"74":0.27390004876411705,"75":-0.036227268336144036,"76":-0.10056072158143521,"77":0.08199109159270972,"78":0.19819714921523576,"79":-0.9698444259362694,"80":0.48475655367241566,"81":-0.4794400208112003,"82":0.10131129900056163,"83":-0.18560383140671755,"84":-0.008226244901789853,"85":0.1720862094159549,"86":-0.09846404978426446,"87":-0.14205672647133016,"88":-0.5022236954454513,"89":-0.027878193647785512,"90":0.46092860768170596,"91":0.13856279874989214,"92":0.6255777663732912,"93":-0.054970021393833564,"94":0.17556484958787513,"95":0.45860123931787383,"96":0.4186432126847283,"97":-0.753864694374529,"98":-0.8232831635526616,"99":-0.1284086924707018,"100":0.3962275968565636,"101":0.15289418837783295,"102":0.18710122811509886,"103":0.05768663445529424,"104":0.005226423221895504,"105":-0.16829037955404516,"106":-0.4764390451393727,"107":-0.13443536434711853,"108":0.2419089347125841,"109":-0.2528503933361388,"110":-0.8957120088285413,"111":0.6386444196159072,"112":-0.1238457937721852,"113":-0.7877262466644642,"114":-0.3986004066831531,"115":0.2780476910790745,"116":-0.4281237428776301,"117":0.11714932313943775,"118":0.1316927693400981,"119":-0.30334295563097907,"120":-0.27439993458583545,"121":-0.08632030394072884,"122":0.009262618286519841,"123":-0.208637589503635,"124":0.6156213285794158,"125":-0.44803764430207416,"126":-0.22829482549896535,"127":-0.13953734940151935,"128":-0.27003462596783956,"129":-0.28892409110571227,"130":-0.4857022162864924,"131":-0.6848838185376623,"132":-0.13755551721180576,"133":-0.4644796495851075,"134":0.28796341950285353,"135":0.06895678671967752,"136":0.3216383694885421,"137":-0.3167754060593479,"138":-0.6243201561733213,"139":-0.024980488053362223,"140":-0.25941361352266956,"141":0.38361063864862127,"142":-0.009817110496496664,"143":-0.4044685510018697,"144":-0.34710033270075974,"145":-0.44141888761459114,"146":-0.1894771442413589,"147":-0.025362710872320185,"148":0.10920665873889977,"149":0.05935041775203562,"150":0.3292308270451532,"151":-0.1911351271142947,"152":0.46287598997247714,"153":0.20216996811998333,"154":-0.18154005416025026,"155":-0.16607879007689996,"156":-0.19864180857926297,"157":-0.2955270681361345,"158":0.13390032016194503,"159":-0.33617252418442883,"160":0.3483409783661218,"161":-0.4334578136677616,"162":0.018748624535466964,"163":0.38285962193892353,"164":-0.2988492747778799,"165":0.16085777455937975,"166":-0.15166015884205725,"167":-0.4979731121995937,"168":-0.4009451013142564,"169":-0.3600724652655668,"170":-0.44120699493247373,"171":0.07464275222342577,"172":0.06175285318413421,"173":-0.009995878613211738,"174":0.10420931459303133,"175":-0.0821234830759158,"176":0.6140018988247653,"177":-0.027296155182277976,"178":0.22145337439597926,"179":0.07646773966235056,"180":-0.3303008667447809,"181":-0.31558425483726454,"182":-0.07512253991800089,"183":-0.1557045001367074,"184":0.1627932669667113,"185":-0.40252065643901946,"186":-0.281792418835795,"187":0.1841093363604678,"188":0.26280737348535604,"189":0.3845066559072375,"190":-0.024509649875441256,"191":0.06490716978052381,"192":-0.07424736012176887,"193":-0.27285343950341306,"194":-0.21718926719761236,"195":0.44307123591347813,"196":-0.43068063103792326,"197":-0.07431528554821629,"198":0.06827900179051494,"199":-0.1570951709102404,"200":0.32577924520046886,"201":0.07706672156794757,"202":-0.46514979252547195,"203":-0.26393841959716713,"204":0.40225221532175287,"205":-0.46108060734310335,"206":-0.38678714611368203,"207":-0.1824079659503069,"208":0.054718302957187354,"209":0.5815179285094196,"210":-0.33236713424081954,"211":-0.04121001038692558,"212":-0.10413206533518243,"213":-0.5786439848314905,"214":-0.22889409335088096,"215":0.13988090487295882,"216":0.1915383888896922,"217":-0.34829497168296336,"218":-0.2758351952243478,"219":-0.0003221215250046571,"220":-0.3944272562624476,"221":0.028790143828505883,"222":0.03134426751405777,"223":-0.06268751394354241,"224":-0.09172008902170249,"225":-0.05774062735925763,"226":0.13748321463787908,"227":0.17103981517848366,"228":0.24834094719426167,"229":-0.4841346224715165,"230":-0.09046878741096735,"231":0.17869911020842077,"232":-0.12968547504784236,"233":0.03015018339779382,"234":-0.3382725798932826,"235":0.5189485498952747,"236":-0.18752059432492071,"237":-0.0914296132739064,"238":-0.48037552264112365,"239":-0.09007090900457794,"240":0.16541276722219497,"241":-0.016738536972493584,"242":0.041588021635180626,