{"layers":[{"out_depth":3,"out_sx":32,"out_sy":32,"layer_type":"input"},{"sx":5,"sy":5,"stride":1,"in_depth":3,"out_depth":16,"out_sx":32,"out_sy":32,"layer_type":"conv","l1_decay_mul":0,"l2_decay_mul":1,"pad":2,"filters":[{"sx":5,"sy":5,"depth":3,"w":{"0":-0.09362083694165521,"1":-0.5166816687715211,"2":-0.2993685494061596,"3":0.0980079000298551,"4":-0.18314353845945314,"5":-0.10455194859004655,"6":-0.043709526051823086,"7":-0.10331892580028393,"8":0.15788470842021468,"9":0.06339374876719446,"10":0.04933532317214864,"11":0.027954061526676562,"12":0.14642564244167602,"13":-0.1231220981818931,"14":0.11232892490270147,"15":0.13481583799514257,"16":-0.0015606697662482285,"17":0.15342959883352694,"18":0.4580804177022311,"19":-0.2615938813502986,"20":0.1396769403080431,"21":-0.06324169622273572,"22":0.28049128585998884,"23":0.3951547515347333,"24":-0.15311263450887108,"25":0.23651168056618285,"26":0.6981002318243087,"27":-0.08333403163849416,"28":-0.3794754834394028,"29":0.2825273917847106,"30":0.125919456863745,"31":-0.31912292017947347,"32":-0.35682887327011864,"33":0.04956078973591861,"34":-0.06651235254034733,"35":0.03166958758818648,"36":-0.33636397613135793,"37":-0.4797391796756703,"38":-0.41736838425129347,"39":-0.09512761381160675,"40":-0.35674808686087817,"41":0.12248130964969255,"42":-0.09559308032017048,"43":-0.42070675780759703,"44":0.45105851805488595,"45":0.08875003835875159,"46":0.04856546761571286,"47":-0.021993490095733672,"48":0.18616987651811784,"49":0.5374887588558858,"50":0.26329894424280154,"51":0.16998850405380622,"52":-0.13732316824871213,"53":0.0022934134493525207,"54":-0.13513963866557233,"55":-0.26462057740752204,"56":-0.011965911184491178,"57":-0.39848555001081554,"58":-0.5190470254884668,"59":0.018172284082237557,"60":0.07247425686401814,"61":-0.020716641029660598,"62":-0.0386814974497447,"63":0.0388147351755582,"64":0.2156957439992145,"65":0.12172279291792798,"66":-0.03071696002242665,"67":0.3366290468596185,"68":0.335841250094504,"69":0.24155246426177468,"70":0.2976907496821463,"71":0.5566088934575535,"72":-0.11406477522801799,"73":-0.5421362785414682,"74":0.07561054823863382}},{"sx":5,"sy":5,"depth":3,"w":{"0":0.11127774961118991,"1":0.05737249554296817,"2":0.10883906064971334,"3":0.07246455809272558,"4":-0.2243323469125872,"5":-0.6907081797653541,"6":-0.09853009470400437,"7":-0.059691776146844074,"8":0.0016179641505892032,"9":-0.00034727715534535827,"10":-0.1938209819894212,"11":-0.16374327265629768,"12":-0.04788344778858752,"13":-0.3900055083549534,"14":-0.009140944669876484,"15":-0.24948664222229797,"16":0.17790005326656763,"17":0.2531774955298408,"18":-0.2762075637685805,"19":-0.09812914061402213,"20":-0.11960416745512777,"21":0.09078952231556667,"22":0.11579040082177904,"23":0.2240937023151258,"24":-0.36506927649619275,"25":0.3390355623646333,"26":0.4754524223514561,"27":-0.7662064156269709,"28":-0.2715231666283369,"29":-0.0976391043918841,"30":0.31911359332911865,"31":0.5119835465956452,"32":0.3510252352713799,"33":0.38157476980315125,"34":0.20930435598506317,"35":-0.3778775829982499,"36":0.572875179912173,"37":-0.043233676870723284,"38":-0.2721894236530947,"39":0.302973325729989,"40":-0.04106578597534536,"41":0.06076929221667961,"42":-0.09525488080540237,"43":0.2128596777666428,"44":0.04365022739454849,"45":-0.10619320912085889,"46":0.19184824050975596,"47":0.23616355343322387,"48":0.3658366432608528,"49":0.23737674137861248,"50":0.18399127971450638,"51":0.22687224077632376,"52":-0.016071255534303285,"53":-0.21203298441206933,"54":-0.25445793976914094,"55":-0.5134477884316384,"56":-0.522574430264722,"57":0.009070900856202902,"58":0.04887620413278559,"59":0.5789461103177188,"60":0.009176867008677814,"61":0.27937897422216185,"62":-0.08288435406956736,"63":0.09074646923905355,"64":0.3854854816951055,"65":0.036789329250108964,"66":0.15295255355843765,"67":0.08113583104410786,"68":-0.21899685392071166,"69":0.230207279097967,"70":-0.356643810118025,"71":-0.02147538481842831,"72":0.10144022608842625,"73":-0.03784275199948403,"74":0.010564290934295669}},{"sx":5,"sy":5,"depth":3,"w":{"0":0.1387781325188584,"1":-0.1281280779875709,"2":-0.295483940378918,"3":-0.1487843919230512,"4":-0.024289483569849564,"5":-0.35669191747565787,"6":-0.21427771647029967,"7":0.3508601442144138,"8":-0.06619102495771083,"9":-0.029042219181725996,"10":0.3322232270799001,"11":0.19329953020248924,"12":-0.03816508932338087,"13":0.16253815176675152,"14":0.06460803849563966,"15":0.23472487216093146,"16":0.48995875566196395,"17":0.3737726026899549,"18":-0.1254084561838694,"19":-0.04699213692838916,"20":0.11184865239546822,"21":-0.8502190118877917,"22":-0.28401257770906646,"23":-0.3365373350193398,"24":0.09005106271033851,"25":0.2785743409355308,"26":0.4511713213684374,"27":-0.026488374532799723,"28":-0.21423745902300673,"29":-0.13609371775091691,"30":-0.8506873973291406,"31":-0.2999461302061501,"32":-0.05787567449111282,"33":-0.5928472703753224,"34":-0.07394154862713659,"35":0.0003031462787285657,"36":-0.5373321453073784,"37":-0.012621837172724323,"38":0.1708699925451317,"39":0.020791610405424005,"40":-0.028254321496484155,"41":0.27372897334408786,"42":-0.2231136760837588,"43":-0.08425244783796511,"44":-0.490367214326635,"45":-0.6680948459456356,"46":0.07218546127508578,"47":-0.15610933429073065,"48":-0.05520273129866889,"49":0.3190010525738398,"50":0.3291168450463938,"51":0.0008829023571382349,"52":-0.06949570012050829,"53":0.04612099667619551,"54":0.33240344935568517,"55":0.051513993196045764,"56":0.7189360327031048,"57":-0.4133522577136993,"58":-0.5596887980692309,"59":-0.35506371159447403,"60":-0.42991378836358424,"61":-0.032455981804502404,"62":-0.23619599524218107,"63":0.41200234606918684,"64":0.3058591742233656,"65":0.005106414106928256,"66":0.35073904496691427,"67":0.25865184067681624,"68":-0.14558932955410106,"69":0.43218036771677754,"70":0.315978663559496,"71":0.3174017850452791,"72":-0.15759785587138933,"73":-0.09129363804736763,"74":-0.27210940074825163}},{"sx":5,"sy":5,"depth":3,"w":{"0":0.16006221855672678,"1":0.5894016754400998,"2":0.185416227805425,"3":0.08592148328947456,"4":-0.03348975373825279,"5":-0.6329194469778294,"6":0.33235157113780683,"7":0.3145519238301461,"8":-0.23726470417005963,"9":0.41605231076518306,"10":0.20375439677438778,"11":-0.3601743596076575,"12":0.3089101945584577,"13":0.30007871924683144,"14":0.134425481727698,"15":-0.441409303818476,"16":-0.2344716080648654,"17":-0.37598556816586326,"18":-0.36354679002566936,"19":-0.2304324032385474,"20":-0.3282994896909099,"21":0.3016146476944144,"22":-0.3284105528270503,"23":-0.41131503273001097,"24":0.6659183972511724,"25":0.21882838877923275,"26":-0.7096423247650573,"27":0.5693703270409172,"28":0.19839204986030923,"29":-0.37512454049319627,"30":-0.3936971220376936,"31":0.18854863349366574,"32":0.5560000121330516,"33":-0.857058765537697,"34":0.10546490442398872,"35":0.017648522362220986,"36":0.34951593049251894,"37":0.35417433067788134,"38":0.0509721253121723,"39":0.5207320076125573,"40":0.10791058664528679,"41":-0.38964345964026326,"42":0.5797528833709912,"43":0.2858395332582223,"44":-0.0024855026251574775,"45":-0.7042123312768592,"46":0.2705319169583941,"47":0.4990276374717518,"48":-0.4281949431777292,"49":0.14465018675679317,"50":0.1563633746299132,"51":-0.2917267594006802,"52":-0.23180432587247743,"53":0.27125301774345245,"54":0.06271803913985632,"55":-0.7625041481508666,"56":-0.13110858469821737,"57":-0.21831430513589964,"58":-0.6435437310523558,"59":-0.30499025551049447,"60":-0.7311580666502705,"61":0.060891274378962225,"62":-0.025174939634555665,"63":-0.18632283808651334,"64":0.0704712617670942,"65":0.31398833136257615,"66":-0.1963189654146624,"67":-0.21652649519537792,"68":0.2165801629576711,"69":0.19415898486733854,"70":0.12258268255196224,"71":0.2392544798403173,"72":0.27332032835503284,"73":0.26957884295526785,"74":0.4329794038047134}},{"sx":5,"sy":5,"depth":3,"w":{"0":0.03685163239849511,"1":0.5189699703622443,"2":0.017223576741526518,"3":-0.10419033692083134,"4":0.36337749495475724,"5":-0.1314504926830483,"6":-0.1494638328870927,"7":0.3172702306999657,"8":0.27427129808656736,"9":-0.4171820009705645,"10":-0.37123419339813946,"11":-0.16803767764536634,"12":-0.545039045097423,"13":-0.26538974190419434,"14":0.057042904087644834,"15":0.12379122909410413,"16":0.1540694627896323,"17":-0.4451196073580354,"18":0.4046736256007546,"19":0.1557078988315495,"20":-0.08996751772077036,"21":0.3732334416954562,"22":0.4660132684373851,"23":0.12129670959525697,"24":-0.07228689245791495,"25":-0.008359280276123982,"26":-0.07372806449353753,"27":-0.22667988164516906,"28":0.24615438103877132,"29":0.3757281195982798,"30":-0.2985454504301103,"31":-0.5593122582572853,"32":-0.7928080903945272,"33":0.6301507878234169,"34":-0.2013027008025434,"35":-0.524104477089516,"36":0.13226889911772133,"37":-0.7180509438533289,"38":-0.7820662612202415,"39":-0.3908922044543463,"40":-0.37732187321757527,"41":-0.4529073173003148,"42":-0.23119507727368088,"43":0.10696510470652623,"44":0.26196798933150633,"45":0.3487964417793053,"46":0.29896222939323724,"47":0.1250071339069019,"48":0.14517118360773232,"49":-0.15256236511315077,"50":-0.7619623757542076,"51":-0.10538201081659736,"52":-0.3564181776513468,"53":-0.6924190989196258,"54":0.0011693171074573898,"55":0.3833041175305715,"56":0.5414146299817957,"57":0.0008595620225561299,"58":0.6759063711486496,"59":1.1648496500186076,"60":0.6126909508155964,"61":0.9263418683221784,"62":0.48459913061041826,"63":0.08876769849736511,"64":-0.023790043170293356,"65":-0.6419696726387316,"66":0.41795923998878826,"67":0.14395012083131214,"68":-0.3185561346607166,"69":-0.028643614649751764,"70":-0.2696801215148601,"71":-0.4257434131414609,"72":0.15892088079731614,"73":0.3161912123262578,"74":0.47331665626712227}},{"sx":5,"sy":5,"depth":3,"w":{"0":-0.14932415818742922,"1":-0.20139201110390928,"2":-0.2306457513865432,"3":-0.01810484565910527,"4":-0.08241570749450212,"5":-0.07496726736508445,"6":0.5296022618113545,"7":0.17457405251483402,"8":-0.38176356772886905,"9":-0.04756777828839428,"10":0.06935728065340846,"11":-1.0022534728054697,"12":0.3669999062088765,"13":0.39734169308129536,"14":-0.2585486944844356,"15":-0.0073100485081923836,"16":-0.12394830472085334,"17":0.30999162609507197,"18":-0.018761885078836534,"19":0.07320466860535066,"20":-0.049259244846480074,"21":0.2839597354981462,"22":0.30628301706447525,"23":-0.21310866608285217,"24":0.4542693682669297,"25":0.30839083920525545,"26":-0.5114840746460072,"27":0.3940202479162465,"28":0.14375613049791905,"29":-0.16603384686634068,"30":0.12985905788186447,"31":-0.3614962894621856,"32":0.1418433085325544,"33":0.13745728453334197,"34":0.09850929899881514,"35":0.41833581854903557,"36":0.10759107122094198,"37":-0.03212548455418227,"38":-0.20830544611763266,"39":0.05730737336526898,"40":0.15831706069559054,"41":-0.11453579790282184,"42":-0.41201492707328147,"43":-0.44585248065317945,"44":-0.22749215966265252,"45":0.10317292817913827,"46":0.041578714966717265,"47":0.46294165397880105,"48":0.32754649233706556,"49":0.5842870845076438,"50":0.6810111771509179,"51":0.08838597376414317,"52":-0.1068418651074494,"53":-0.13416501413914322,"54":-0.12031076355318182,"55":-0.5172949684092005,"56":-0.16221241963134608,"57":-0.16046330629219754,"58":-0.05690288399137525,"59":0.11470459595245014,"60":-0.11484533407118208,"61":-0.40809500856616926,"62":0.23096609462301376,"63":-0.4910171683687547,"64":-0.7600735002765994,"65":0.1999256853009868,"66":0.21157549364877068,"67":-0.07691974755939739,"68":0.179128589277571,"69":0.20184697218251538,"70":0.09057964944825178,"71":0.06884104395349604,"72":0.2501445987986473,"73":0.15842401717376622,"74":0.4495295728415528}},{"sx":5,"sy":5,"depth":3,"w":{"0":0.6253625360687332,"1":0.18002243232807272,"2":0.01807401341428205,"3":0.6844109254807929,"4":0.10594006417494178,"5":-0.12806582901591823,"6":-0.12541035196273972,"7":0.2167208932354937,"8":-0.08594228337125014,"9":-0.38061244851829273,"10":0.20923382556436604,"11":-0.20139314235029193,"12":-1.0065609076744368,"13":-0.14809536852963895,"14":-0.4079264555924598,"15":-0.34859865015139796,"16":-0.3945123890377429,"17":-0.5761492000147519,"18":0.6546079634768379,"19":0.15710924905722223,"20":-0.2377260900185687,"21":-0.45124675868818714,"22":-0.25529037166430374,"23":-0.08694018582016697,"24":0.4119068532664719,"25":0.3810643848037265,"26":0.3649163809287217,"27":-0.036674798982694067,"28":0.7082500524549538,"29":-0.02972179430284726,"30":-0.02926261735895642,"31":0.06185003976299473,"32":0.00795145924220347,"33":0.12059781633014714,"34":0.13689467130753652,"35":-0.0057703827092560655,"36":0.5358100598921053,"37":0.7332569746507266,"38":0.5252260686918141,"39":0.5053693584962571,"40":0.4150644222278344,"41":0.28546388659079597,"42":-0.4849276197765389,"43":0.03130773614278326,"44":-0.5185847945149655,"45":-0.37657748793985507,"46":-0.04588458894989424,"47":-0.07295795448545976,"48":-0.5984986877721272,"49":-0.634032411438723,"50":-0.8072295166238449,"51":0.40521275419815206,"52":0.3964553106807037,"53":0.000025528489871359328,"54":-0.11989527948271334,"55":-0.0015070199734524598,"56":-0.5406183190985874,"57":-0.5648080601040283,"58":-0.05776309199393504,"59":-0.1639029949568361,"60":0.24890706803444734,"61":0.43973562812270117,"62":0.13334419341518608,"63":0.5358696264344824,"64":0.6784287533777182,"65":0.45205818075457294,"66":-0.06789226908882343,"67":-0.2716009189036936,"68":-0.8717027172833078,"69":-0.398307725639062,"70":0.19642410334364854,"71":-0.33364564000703323,"72":-0.6089450653585262,"73":0.07523347054059346,"74":-0.11486738760100194}},{"sx":5,"sy":5,"depth":3,"w":{"0":-0.3400782267667486,"1":0.20917085704161667,"2":-0.25253653405519483,"3":-0.3268301841437906,"4":0.8042768287067007,"5":0.33113533457833333,"6":-0.07628767972703084,"7":0.28109666358416435,"8":0.24072462037304554,"9":-0.5223896703560819,"10":0.06870055120256269,"11":-0.04561878866875557,"12":-0.7328572096651882,"13":-0.20071359855315296,"14":-0.09227440706588312,"15":-0.18016579533040564,"16":0.4235702420487965,"17":0.06270921933855379,"18":-0.6932759686145636,"19":0.20301520289445488,"20":0.0026657740926339215,"21":-0.251108894786214,"22":0.4357215069390348,"23":0.07829445090172255,"24":-0.07944257052258517,"25":0.6090276860342587,"26":0.27286586846945665,"27":-0.623013177081005,"28":-0.43503572103898475,"29":-0.08082824114151226,"30":0.06535983804160314,"31":-0.26124956687761786,"32":-0.5830026220682842,"33":-0.05462830723574846,"34":-0.33853167149332813,"35":-0.6319414761891886,"36":0.16247407898789967,"37":0.23809917313866819,"38":-0.1901441171177482,"39":0.07439090343112144,"40":0.1887870144859353,"41":-0.3097710642530129,"42":-0.25937767603429207,"43":0.2437311958985665,"44":0.15461858145356383,"45":0.2014624702074236,"46":-0.2344442638175206,"47":-0.6154169616541573,"48":0.5270386785082878,"49":0.1830568571461026,"50":-0.16856237843037825,"51":0.6335576086942646,"52":0.6536574046656026,"53":0.44616111553361687,"54":0.0871939099188244,"55":0.23754438934334288,"56":-0.2548431098288843,"57":0.39157206899046476,"58":0.6996005276184856,"59":0.257671603493467,"60":0.11277772069257433,"61":0.002951068665612893,"62":-0.49355541454867435,"63":0.5067332203434618,"64":0.5558356729765357,"65":0.191947032022814,"66":0.31682698944823884,"67":0.2554432740535753,"68":-0.3083820847928045,"69":-0.1959645141161997,"70":0.008340136741932555,"71":-0.4777311863431068,"72":-0.019769117939509907,"73":0.6516700767581229,"74":-0.24779570675670187}},{"sx":5,"sy":5,"depth":3,"w":{"0":0.035216390604323654,"1":0.16323210790902837,"2":-0.6703555866718853,"3":0.029007250709914716,"4":0.022753813313435595,"5":-0.5960126832375566,"6":0.48675820577298606,"7":0.5855980571181635,"8":-0.3377427797016874,"9":-0.09644598080444074,"10":0.2862560337616104,"11":-0.5450144690828471,"12":-0.08501316846293466,"13":0.24249100133040138,"14":-0.1413724026986228,"15":0.004988080482578746,"16":0.31906307055704325,"17":0.04943406668953405,"18":-0.20344196641264795,"19":-0.17933898335158308,"20":-0.21014347670192055,"21":-0.22766649260197652,"22":0.0711037109743172,"23":-0.461881227657806,"24":-0.09543168403263064,"25":0.364171068217353,"26":-0.19860854759873384,"27":0.06395358220506352,"28":0.4100804317177454,"29":0.4452548533096332,"30":-0.15033055734526227,"31":0.11113256836629241,"32":0.00015234942070445996,"33":-0.4121089180878737,"34":-0.35908252425767706,"35":-0.13401197828700223,"36":0.08240409807687903,"37":0.4539250426773165,"38":0.2956267530525327,"39":-0.09355796537819239,"40":0.41257123917984523,"41":0.19451087365758024,"42":0.11831912627802534,"43":0.11063359151212587,"44":-0.1041076495597107,"45":-0.4800211482645047,"46":-0.291297090833621,"47":-0.001584262072150803,"48":-0.2842517950020282,"49":0.3003196564409357,"50":0.3985262164123407,"51":0.26263066937241286,"52":0.8267632533915372,"53":0.4117785589740268,"54":-0.07789964058845983,"55":-0.09288180110012771,"56":-0.20366417957826813,"57":-0.25470516604815935,"58":-0.2358940740933969,"59":-0.3800609198606186,"60":-0.09592525301375905,"61":0.30883811755435436,"62":0.34512567942485,"63":0.1335190383045727,"64":0.9214111978038465,"65":0.5563617716077615,"66":-0.32898773859612696,"67":0.2913026268818514,"68":0.36153611734608804,"69":-0.28413845496450796,"70":-0.2992785581438292,"71":-0.2478819039736576,"72":-0.020126262516972963,"73":-0.005463829271130009,"74":-0.2900416807329602}},{"sx":5,"sy":5,"depth":3,"w":{"0":0.37481591517911,"1":-0.395086196548858,"2":0.32472997536209314,"3":-0.06143579731561222,"4":-0.2268243717474662,"5":0.15813061681231447,"6":-0.4277059310591988,"7":-0.5462349786279472,"8":-0.07247515471693407,"9":0.28389137123299735,"10":0.1539969598351395,"11":0.7138738890914558,"12":-0.061052389517288176,"13":-0.22134425301051175,"14":0.06838676490362801,"15":0.4057499324352191,"16":-0.0830665046740587,"17":0.7355739293460328,"18":-0.15938049779001695,"19":-0.38377804683159006,"20":0.32858922279762065,"21":-0.048390340115908516,"22":-0.44342364919165694,"23":-0.05704113746185987,"24":-0.17108328374114948,"25":-0.11852024026121936,"26":0.40549237685014955,"27":-0.1290678670967092,"28":-0.5642848741010514,"29":0.18937591361800682,"30":-0.2159340437632343,"31":-0.6015094300011097,"32":0.23221205468794123,"33":-0.06573106400078949,"34":-0.6294626305314739,"35":-0.32683381215854224,"36":0.017282737008100464,"37":-0.5717437288748828,"38":-0.7336576755290322,"39":0.11140970451294427,"40":0.059649353319272944,"41":0.4928370949265592,"42":0.3725348430765044,"43":0.11495335518549889,"44":0.4410795004963308,"45":-0.42699039330770877,"46":-0.6182867380826521,"47":0.05927794951714585,"48":0.44285145852872937,"49":-0.08040729495995583,"50":0.6609937243153353,"51":0.3088694069300676,"52":-0.4489249299477575,"53":0.13058438597922403,"54":0.1546270404779253,"55":0.06508634599483043,"56":0.5360605377760054,"57":0.03315045032637844,"58":-0.05740144286275723,"59":0.23991116055067885,"60":-0.38410745414654973,"61":-0.3197303474321806,"62":0.25114114504346874,"63":0.19835155274957306,"64":0.2831136823613197,"65":0.6354353024155212,"66":0.04149189978415,"67":-0.12943708182595254,"68":-0.03263012546432536,"69":-0.2953932057296073,"70":0.3465581663789446,"71":0.11369247283828737,"72":-0.27379482984360076,"73":0.299531467255173,"74":0.20550227024856238}},{"sx":5,"sy":5,"depth":3,"w":{"0":-0.2931141783925472,"1":-0.07789291456137884,"2":-0.25439414699288115,"3":-0.41807847681638316,"4":-0.14417753990796864,"5":-0.19778380499235307,"6":-0.40249560242095744,"7":-0.04139720406328602,"8":0.23707977459154617,"9":0.027621807891527128,"10":0.31028502562166194,"11":0.25664073602203274,"12":0.3274092250141085,"13":0.21249833200272022,"14":0.08208063797113531,"15":0.1399523379478925,"16":0.42370001376572286,"17":0.11165211765547277,"18":-0.07875431618058486,"19":0.18615048274703996,"20":0.43480428532519383,"21":-0.2178175080308,"22":0.20596078027908898,"23":0.5188954038357453,"24":-0.0030576540999113994,"25":0.17246700450630006,"26":0.31028200461771405,"27":0.08765782219837998,"28":0.5102980090806934,"29":0.3201514331665453,"30":-0.006723021693188086,"31":0.30898346435531787,"32":-0.01821342466590616,"33":-0.05772313429940876,"34":-0.025435505620854632,"35":-0.1600133397536553,"36":-0.3580922663186414,"37":0.013759426581827546,"38":-0.024870451393426345,"39":-0.19887529537134965,"40":0.2152903543770172,"41":0.060875715746111066,"42":-0.5066100987395111,"43":-0.008810370815531569,"44":-0.07872360706422381,"45":-0.6165952984914097,"46":0.14003516587370843,"47":-0.5016486756051485,"48":-0.0211461755466051,"49":0.14524048803476816,"50":-0.07897880020581712,"51":-0.7452443737118034,"52":-0.3125971625798409,"53":-0.35082580391957874,"54":-0.15546221038125452,"55":0.2338326344923509,"56":0.0858469394590847,"57":-0.0075712273177990196,"58":0.203474084923021,"59":0.09304910939243326,"60":0.5077910587047021,"61":0.6111343115868705,"62":-0.2823935900398596,"63":-0.2482639458042536,"64":0.02985837235176005,"65":-0.39512386369584973,"66":-0.04127748071858334,"67":0.10800471812922431,"68":0.04996758542175693,"69":-0.09454316269448343,"70":0.274280225189855,"71":-0.11783872570668942,"72":0.27841179557250534,"73":0.39335902699541786,"74":-0.2725346601880889}},{"sx":5,"sy":5,"depth":3,"w":{"0":0.06145649298621506,"1":0.21147306658380277,"2":0.65187173435901,"3":0.3378716059609647,"4":0.5672327098903692,"5":0.7070534942877423,"6":-0.0624857037714005,"7":-0.23150422893990805,"8":-0.28007365236639037,"9":-0.1796415456122696,"10":0.09468206785612028,"11":0.21223218812834496,"12":-0.15322355364660165,"13":0.23463874880074506,"14":0.21214767946763421,"15":-0.13587602204321303,"16":0.027530787691385433,"17":0.5564088802045031,"18":-0.1940684622770175,"19":0.033865748384034194,"20":0.4349357329317487,"21":-0.04626688946033906,"22":-0.06913796743946687,"23":0.18333494696767577,"24":-0.41591795820476885,"25":-0.5024886077610852,"26":0.2171689606445236,"27":-0.016080223327365993,"28":0.11696272555433612,"29":0.6017465396405679,"30":-0.13810970020445293,"31":0.09052040720658927,"32":0.4093032675098714,"33":-0.14250569412499972,"34":-0.1954407869903725,"35":0.2925807420319448,"36":0.08848106795642659,"37":-0.08209859123171025,"38":0.20759818995951812,"39":-0.23953099764235056,"40":0.06807075727083003,"41":0.41055399700816797,"42":-0.03901555585323629,"43":0.018203648784179457,"44":0.33555984722639354,"45":-0.2923524284181435,"46":-0.08537542968569585,"47":0.4222342634308609,"48":0.16209974209407296,"49":-0.34221427528238246,"50":-0.10779518134145816,"51":0.17425519391956892,"52":-0.23838815379788153,"53":0.28222293927048975,"54":-0.0595794166997072,"55":-0.08569464811861487,"56":0.11050630503159105,"57":0.14591036056707632,"58":-0.05069435520195039,"59":0.22519077880413405,"60":0.11449421512811182,"61":0.21365998756989932,"62":0.31955298267371923,"63":-0.09556017365473073,"64":-0.4162514697950041,"65":0.018683336262829458,"66":-0.5252003575507531,"67":-1.1376899109165095,"68":-0.5614629571349292,"69":0.33595370867828384,"70":-0.1509379967998894,"71":0.41821127900603694,"72":-0.03865826732779056,"73":-0.1604575088655894,"74":0.31251840127786606}},{"sx":5,"sy":5,"depth":3,"w":{"0":-0.8061152486054609,"1":-0.4468109457197739,"2":-0.5084601803214424,"3":-0.2949678140288561,"4":0.3261653748474709,"5":0.17017406781820008,"6":0.2781217024126903,"7":0.6884056765723549,"8":0.35012339018731176,"9":-0.09633510086905557,"10":-0.09789706918758793,"11":-0.2689329703388448,"12":-0.0009434928944691141,"13":-0.09285755007933791,"14":-0.5300081359697058,"15":-0.6585623000624514,"16":-0.1082668139754676,"17":-0.03727289690345365,"18":-0.4202281845863298,"19":0.44587007193270134,"20":0.46379416651938854,"21":0.19434430230197067,"22":-0.12171989363833291,"23":-0.13519388783767655,"24":0.381891406112984,"25":-0.6307872786594401,"26":-0.3534247456175613,"27":0.8149414323905482,"28":0.2409586038336812,"29":-0.2496064069384298,"30":-0.5332338287605244,"31":0.044650751610952444,"32":0.4457357632829451,"33":-0.23057243828689694,"34":0.2237759265161803,"35":0.5394499881273397,"36":0.3883494461042302,"37":-0.2319796553129978,"38":-0.38950359242328575,"39":0.5103874233663226,"40":-0.1548369575037314,"41":-0.3185354906540547,"42":0.5367425975475042,"43":0.91251354333031,"44":0.21805666408859295,"45":0.3168037979492739,"46":0.1316974392871577,"47":0.8916435611388552,"48":-0.14896968315185832,"49":-0.3148402677473549,"50":0.2650621614678062,"51":-0.19502822366325695,"52":-0.49573173968712964,"53":-0.11457838740440503,"54":0.6514994908796196,"55":0.09484864038440466,"56":0.1531798628205764,"57":0.3773054437126472,"58":0.4620218030178617,"59":0.43014427136345196,"60":0.4335000160970322,"61":-0.19948683073469736,"62":0.5958886633113682,"63":-0.16032838505672484,"64":-0.9256458967671153,"65":-0.14967228169454386,"66":0.3080207052173489,"67":-0.7159573424436068,"68":-0.05294598016535107,"69":0.3678562273658444,"70":-0.7012268400565871,"71":-0.2733815278418342,"72":0.10531769812655917,"73":-0.1337272392513266,"74":-0.0909631616462399}},{"sx":5,"sy":5,"depth":3,"w":{"0":-0.12796414020529143,"1":0.020295857967710034,"2":0.028299560308034974,"3":0.08371968910159426,"4":-0.016073469043142923,"5":0.5283423002617434,"6":-0.749785086282709,"7":-0.6826246634766795,"8":-0.3234532285969427,"9":-0.046306941879740604,"10":-0.4925818011501622,"11":-0.32930070421055335,"12":0.33162298284436287,"13":-0.13265104559299654,"14":0.18543263196770238,"15":0.009912779895904816,"16":0.709359167714513,"17":0.9566955438619884,"18":0.04343608574503509,"19":-0.005472367778792656,"20":0.6749817898264763,"21":0.29618882659471013,"22":-0.004314924253004607,"23":0.7155010376651567,"24":-0.07538376724720504,"25":-0.42759972701334403,"26":-0.10320074062077779,"27":-0.1833393130584357,"28":-0.3561304106209897,"29":-0.326791995470167,"30":-0.3407061122201791,"31":-0.1760156056195782,"32":0.6999692827621634,"33":-0.45775865719752407,"34":-0.8041572626678495,"35":-0.05187255679394872,"36":0.9563254869300885,"37":0.36675338180688155,"38":0.6169390701081388,"39":0.5715281623937072,"40":-0.45919376204234846,"41":0.1808415094875257,"42":-0.03510712651526115,"43":-0.23906596340682254,"44":-0.027190347947380924,"45":-1.0997567941182524,"46":-0.51195153723643,"47":0.0882658869441926,"48":-0.2558006148124345,"49":-0.4903910942743822,"50":-0.5840459774075312,"51":0.5487772345888048,"52":-0.2175984333326954,"53":0.3735545729169896,"54":0.5809238543375616,"55":-0.1173621011103363,"56":0.6086016805750991,"57":0.25145571122064597,"58":0.31273838502320866,"59":0.29163126331721717,"60":-0.8126328381522253,"61":-0.18449137984197272,"62":0.24930263213552076,"63":-0.14608237536790916,"64":-0.28333960611552117,"65":-0.18533402499804943,"66":0.09049588074970728,"67":-0.7540318663833527,"68":-0.016475208222889413,"69":0.35325340767655056,"70":-0.27413055271696785,"71":0.03464025586076655,"72":-0.35815329823930786,"73":-0.35644283614793193,"74":-0.03173132965179654}},{"sx":5,"sy":5,"depth":3,"w":{"0":0.14685539538399214,"1":-0.3523572110753507,"2":0.0736628223121822,"3":0.07420876617023525,"4":-0.3161054938705104,"5":-0.24845342898590636,"6":0.2585287247926596,"7":-0.08990075104414251,"8":-0.09568288451329984,"9":0.09247893568004142,"10":0.09385619417564138,"11":-0.27461235509596416,"12":0.03655459115309951,"13":0.2939042427997795,"14":0.2639197452928894,"15":-0.46690287047218726,"16":-0.32373361309660426,"17":-0.10980765684518055,"18":-0.17565652546044583,"19":-0.47599409685205285,"20":-0.1673475718555336,"21":0.4857484260237476,"22":-0.14811786485367007,"23":-0.04776322802025581,"24":-0.17389725171376266,"25":-0.22576508953725435,"26":-0.30486216222972606,"27":-0.03749751633132776,"28":0.14642244021372322,"29":0.1973753704853511,"30":-0.35506357670740857,"31":0.034624042426890385,"32":-0.03727328804284596,"33":-0.015286639613391679,"34":-0.15346855461698142,"35":-0.2395496729686236,"36":0.4144935098911235,"37":-0.29634237071710584,"38":0.03987405438476218,"39":-0.05697597568226264,"40":-0.18066968464314714,"41":0.03370664642851648,"42":-0.138622543212447,"43":0.07706853029108168,"44":-0.12648345731230545,"45":-0.10495211893703549,"46":0.22724607111509507,"47":-0.09269615364841785,"48":0.023995991774144583,"49":0.011006237263261828,"50":0.024824299564196618,"51":0.23120962029785241,"52":0.32514118821079224,"53":0.2659551823851559,"54":0.2753596790732648,"55":0.3920633336057097,"56":0.3021971764213414,"57":-0.0357782359865527,"58":0.1750173718726686,"59":-0.05371540897403774,"60":0.2569095229843686,"61":0.13202715079845678,"62":-0.18885836184092447,"63":0.16678071369625092,"64":0.04139412734396422,"65":-0.05305285539953741,"66":-0.10831955540792274,"67":-0.3173400504608819,"68":-0.17729836677181576,"69":-0.06721947304033328,"70":-0.3682409378851329,"71":-0.3958824774429745,"72":-0.14237363736353437,"73":-0.244052923329536,"74":-0.32452950684655324}},{"sx":5,"sy":5,"depth":3,"w":{"0":0.3289509156868423,"1":0.189070855982159,"2":0.022806643620332197,"3":0.2243411914972391,"4":0.10047187963890143,"5":0.35715587882787425,"6":-0.2770822628899872,"7":-0.2648339549956736,"8":0.02816293580584874,"9":-0.0595765904986217,"10":-0.049281645402027945,"11":-0.027150559957873865,"12":0.11206566653619439,"13":-0.22449162459076855,"14":-0.5886341906358029,"15":0.15293243980601182,"16":-0.17410823711923734,"17":0.1373413270282034,"18":0.1898811659514855,"19":-0.3665566303051067,"20":0.23873317158862037,"21":-0.10207868145146415,"22":-0.11136600535943092,"23":0.3020068920361874,"24":0.5184865624686652,"25":0.0053047212356601755,"26":0.2717618371640185,"27":-0.018204140516697557,"28":-0.18215722387132,"29":-0.15775377383145409,"30":0.1686815303634187,"31":0.04777993055853053,"32":0.2205321083233645,"33":-0.07035068928136504,"34":-0.8145404230373813,"35":-0.008685715397555272,"36":0.15047914590089181,"37":-0.011598145562914889,"38":0.4448385729906395,"39":0.20911627008992775,"40":0.01744769730130778,"41":0.5133285510229532,"42":0.29153499273257727,"43":-0.11848925090147652,"44":-0.08503336469915779,"45":0.06986526595825684,"46":0.0996681082085893,"47":0.734694926511742,"48":-0.5960848323222223,"49":-0.5672129938067549,"50":-0.08207351655349437,"51":-0.3185359005271783,"52":-0.33127092834155075,"53":0.40518544835119863,"54":0.02649473960613777,"55":-0.09118888019205969,"56":-0.19468100657720736,"57":-0.4164623183092566,"58":-0.5301845790653883,"59":-0.3189867066602646,"60":-0.2963200772588527,"61":-0.2775989146317698,"62":0.18332505410486183,"63":-0.05662674209426129,"64":0.06864964548858085,"65":-0.0008198065329921894,"66":-0.20101361785840224,"67":-0.32174612592144103,"68":-0.2338087392923731,"69":-0.22444301621236357,"70":0.27231942984145313,"71":0.2614131566516045,"72":-0.16677736715041105,"73":0.025316398781561198,"74":-0.38525530134531677}}],"biases":{"sx":1,"sy":1,"depth":16,"w":{"0":-0.7847903893307534,"1":-0.35373252150041257,"2":-0.03364329813585246,"3":-1.306811228776804,"4":-0.6551779813684608,"5":-0.7952633825777949,"6":-1.6259023012873655,"7":-0.6582024946945878,"8":-0.3361496877453772,"9":-1.0956862348943592,"10":-0.057002723222125115,"11":-0.4073691396953825,"12":-1.5895834892930618,"13":-1.469146205370897,"14":-0.3539557372724547,"15":-0.3242774023897457}}},{"out_depth":16,"out_sx":32,"out_sy":32,"layer_type":"relu"},{"sx":2,"sy":2,"stride":2,"in_depth":16,"out_depth":16,"out_sx":16,"out_sy":16,"layer_type":"pool","pad":0},{"sx":5,"sy":5,"stride":1,"in_depth":16,"out_depth":20,"out_sx":16,"out_sy":16,"layer_type":"conv","l1_decay_mul":0,"l2_decay_mul":1,"pad":2,"filters":[{"sx":5,"sy":5,"depth":16,"w":{"0":0.41379467037467904,"1":0.2410909649307247,"2":-0.10447316004874851,"3":-0.016130138514004765,"4":0.5454309056262768,"5":0.5385443995370048,"6":0.11788516410984481,"7":0.7516728569502955,"8":-0.5534391603275995,"9":0.053304779136818796,"10":0.07374911779318094,"11":0.3111072604282734,"12":0.8267214218816198,"13":0.20254578627124856,"14":0.6786315852170286,"15":0.2550925229385631,"16":0.7843453457012366,"17":-0.04629061077287951,"18":0.5332507250264387,"19":0.20176189321054683,"20":-0.5226675946402749,"21":0.1518580965509483,"22":-0.043077056793259696,"23":0.9210648681076491,"24":0.47978839583448896,"25":0.8898511327826946,"26":0.38255282325036516,"27":-0.6893448800355394,"28":0.3425879378620616,"29":0.2983637687266305,"30":0.4206840275020045,"31":-0.14318457622070035,"32":0.13964663214106213,"33":-0.3469591398068809,"34":0.1315665840939563,"35":0.7077458062256932,"36":0.4822156842750008,"37":0.02769251004860293,"38":0.02276949750332192,"39":0.9326762712941923,"40":0.06853094370273292,"41":-0.02361769120523141,"42":0.3737475427725996,"43":0.24954889152307952,"44":-0.3165211316505974,"45":-0.10863732264737452,"46":0.368169875878476,"47":-0.16740558673224873,"48":-0.3622529928092287,"49":-0.18457815592739255,"50":-0.006787538646592905,"51":0.26264957587054316,"52":0.34941179188139593,"53":0.0754696957628779,"54":-0.5366281861125516,"55":-0.095477672053215,"56":-0.30798782090452526,"57":-0.14471621806387983,"58":0.6934842318019254,"59":0.5917958874181316,"60":-0.5783646726322417,"61":-0.4356890670838336,"62":-0.6692370783751985,"63":0.3236465383399222,"64":1.0842428209467727,"65":0.3645937247532956,"66":0.00494740244771044,"67":-0.19999618293725846,"68":-0.057353635440045334,"69":-0.15395493850078878,"70":0.14634997588239917,"71":0.4400893131281372,"72":-0.04095979733410238,"73":-0.5184923506063104,"74":0.13125994427027637,"75":-0.006281976388749586,"76":0.20035856734741855,"77":-0.43400981982411635,"78":-1.0374396525347094,"79":0.09792154422875249,"80":0.474455482340047,"81":0.07176904670399364,"82":-0.26474204103016674,"83":0.15619018089248768,"84":-0.42450364018493364,"85":0.8026064908624393,"86":-0.3821520429776243,"87":-0.7639117291880223,"88":0.5218672966008827,"89":-0.551478204373571,"90":-0.40022997199445315,"91":0.3075592587011699,"92":1.344820103473292,"93":-0.25703089981285104,"94":0.18450144275007946,"95":-0.19598012360776035,"96":0.3516930310308916,"97":0.14238505204096172,"98":0.1490222469935428,"99":0.11016013488826074,"100":-0.5276843358587628,"101":0.0850179936487422,"102":0.03757053201113104,"103":0.4699509573250853,"104":0.13563920419169956,"105":-0.0677954671554064,"106":0.06318894263977833,"107":0.04709358072633844,"108":0.11226863093799365,"109":-0.14203307054320466,"110":0.08438351193380958,"111":0.1843378626589014,"112":0.44862938893159765,"113":-0.5459116374649693,"114":0.16389003616716044,"115":-0.5632371597801593,"116":-0.1305640728119169,"117":0.5496939447316345,"118":0.3583185727637253,"119":0.08671067493539743,"120":0.26628834590001665,"121":0.1856870948562642,"122":-0.6825391270092532,"123":-0.2781469989754455,"124":0.7191548865405715,"125":0.39358565461761863,"126":0.4591595537603766,"127":0.05997440888074834,"128":0.7080223848497852,"129":-1.720688578080906,"130":0.16349842988376528,"131":-0.7132028854350928,"132":0.6818371747054169,"133":0.35836180097645204,"134":-0.48176639863437204,"135":-0.4167200735686643,"136":-0.6362378912282508,"137":0.6600291703013691,"138":0.6249486274751733,"139":-0.12429621110310485,"140":-0.029151780066933874,"141":0.3087438120691083,"142":0.5253606653526882,"143":-0.10486319832600385,"144":0.8805768784651375,"145":-0.9342451502375064,"146":-0.40857133594748496,"147":0.09159795978658891,"148":-0.13586403113599566,"149":-0.4381462937499229,"150":0.33778686958750404,"151":-0.45134664419333903,"152":-0.3586445281665443,"153":-0.11329732420234168,"154":-0.023167879496467914,"155":0.2175660410913764,"156":0.6339646378466438,"157":0.3376111861483836,"158":0.0771001297280327,"159":0.5904294846213091,"160":0.5852349122030914,"161":0.28587251879987097,"162":-0.2392104666951635,"163":0.5948896102519458,"164":-0.5135567724881664,"165":0.1254739600325777,"166":0.10608999440578007,"167":0.44234849420994415,"168":-0.26107043651811995,"169":0.20248416638494976,"170":-0.18868715248658136,"171":0.3431598082951704,"172":0.42003427969723117,"173":-0.22109497980494172,"174":-0.08210499966325738,"175":0.5453519762163538,"176":0.15916724659225318,"177":0.4400466491670444,"178":0.4434640011729628,"179":0.5483240542781126,"180":-0.15202938467057986,"181":0.3590908825910027,"182":0.20909428820199688,"183":0.2992618820146691,"184":-0.5741473603079086,"185":0.10492946689133614,"186":0.23980337421392345,"187":-0.321215347033215,"188":-0.015402292251430848,"189":-0.28920158568116716,"190":0.0902547189124579,"191":-0.24620202847274325,"192":0.6570393103550495,"193":0.7141094847689161,"194":0.25500359841899184,"195":0.4268592013644866,"196":0.41009192413914225,"197":0.3767685608909862,"198":-0.037551656981346604,"199":0.1429093795928982,"200":-0.29378994985097634,"201":0.14785915656386978,"202":-0.15195695568497722,"203":0.16132990088804067,"204":0.5176272360549258,"205":0.04033212792487664,"206":0.5518992899438606,"207":0.12740641988486648,"208":0.5877698843923357,"209":-0.33259120267236436,"210":1.0902903398766253,"211":-0.8080828057985846,"212":0.48366562419286646,"213":0.07045614234788017,"214":0.2771883674104574,"215":0.3772768839641718,"216":0.11011653031204274,"217":0.8094616432337879,"218":0.367959268202505,"219":-0.4251094098582595,"220":0.23497810512295794,"221":0.6367686188038271,"222":0.5223138839739243,"223":0.13977216156456737,"224":-0.4022927117268858,"225":-0.2792268895634245,"226":0.586910020617798,"227":-0.36210740232781025,"228":0.5274072996927651,"229":0.038974323395266186,"230":-0.6540678239215695,"231":0.6061878943203732,"232":-0.05483679516989196,"233":-0.21459165813856065,"234":0.05362167422944377,"235":0.09259158008187081,"236":0.2901606177298548,"237":-0.35757432090409985,"238":0.6254088050246694,"239":0.20895025961221325,"240":-0.25029832771418453,"241":-0.2751763541309648,"242":0.11960180809905989,"243":-0.13984787959220718,"244":0.5667974870815093,"245":0.07293385009689071,"246":-0.017332050446444446,"247":0.3957563545066964,"248":-0.33771504165714444,"249":0.044144924924213014,"250":-0.8184014693859161,"251":-0.46877410819853055,"252":-0.1249104281239417,"253":0.27410522291654293,"254":-0.04678224703514585,"255":-0.8300990478499976,"256":0.3072508668996819,"257":0.1294780269911873,"258":-0.2999178855979202,"259":-1.6454271755619048,"260":0.40900330013392755,"261":-0.2993836272099417,"262":0.10042077833063422,"263":0.25060307317659264,"264":-0.06656032474151512,"265":0.044224267551349734,"266":-0.3474097368166147,"267":-1.1365662153852836,"268":0.0874179707519532,"269":0.09013163524968652,"270":-0.24567513289785436,"271":-1.45328135918201,"272":0.23026278190179883,"273":0.8182178079854815,"274":-0.25237045488696974,"275":0.13181474460884954,"276":-0.1448420988007009,"277":0.1977070347808198,"278":0.4469109897296302,"279":-0.06904961663754558,"280":-0.22509860955260086,"281":-0.2812756819158697,"282":-0.538091754681565,"283":-0.6867563442254773,"284":0.03196656066745093,"285":-1.3944702583336916,"286":0.27372873418235677,"287":-0.25672860313379803,"288":-0.31000506036986475,"289":0.2207107532319032,"290":-0.19455877148032272,"291":0.6085137170425576,"292":-0.12314431589535488,"293":-0.4915225201442145,"294":0.287264659242725,"295":0.5484554203046221,"296":-0.04189815381549086,"297":-0.31628231694283454,"298":-0.21725433324756005,"299":-1.2262535088574635,"300":0.499234580815201,"301":-1.0023780262984776,"302":0.39851746419572975,"303":-0.11424319298433584,"304":-0.5556395009073273,"305":-0.6047326938584531,"306":-0.18150045468696308,"307":-0.5882066932757798,"308":0.7511914531334734,"309":-0.8936635445409001,"310":0.0774932357421126,"311":0.28042525785451256,"312":0.257861585927187,"313":-0.9407215013255937,"314":0.33728689981978505,"315":0.7285213718797662,"316":-0.5795498731790684,"317":-0.263051683927093,"318":1.182969951946167,"319":0.39403103430279773,"320":-0.7238795217750179,"321":0.14110781166256947,"322":-0.3274844351494204,"323":0.22344355054074033,"324":0.27206964976848186,"325":0.12581648048080477,"326":0.21119838026482454,"327":-0.08229968795074159,"328":-0.25844304494631964,"329":-0.4225722177885222,"330":0.2062952626327276,"331":0.24525012792444098,"332":0.2883595565196678,"333":0.7941793398955387,"334":0.090621446843055,"335":0.6978321934697642,"336":0.07624075967663904,"337":0.4500498291523286,"338":-0.4687382900611646,"339":-0.31445615189365717,"340":-0.757819380318191,"341":0.13782709505100393,"342":0.23015056355824162,"343":0.06548901609859527,"344":0.06081890482000601,"345":-0.6986242200317517,"346":-0.12067112557138487,"347":-0.4612113943693721,"348":0.12626816058619142,"349":-0.20761864554833395,"350":0.5158847344896741,"351":-0.08189265100232665,"352":0.29436501107579044,"353":0.870266594208197,"354":-0.5652481182017512,"355":0.5481387110199848,"356":0.10416511949596573,"357":0.25849517648060366,"358":0.8444737058116762,"359":0.687842832458997,"360":0.040784768627974616,"361":-0.5883773641661528,"362":-0.4814265522404364,"363":0.6250210370148283,"364":1.010925367987985,"365":-0.7612353921379944,"366":-0.08894861995398774,"367":0.36624241652138795,"368":-0.042975374345585814,"369":-0.4104683887131565,"370":0.19657536229485612,"371":0.3443992660671293,"372":0.28266286448577843,"373":0.28807319024277694,"374":-0.011225295004799012,"375":0.460749902088343,"376":0.30542593652305466,"377":-0.2539207728510085,"378":0.2919517215772482,"379":0.48954141571133936,"380":0.49947240000524845,"381":0.11389925737363753,"382":0.2366664852257107,"383":0.1585882223167427,"384":-0.12679312810234689,"385":-0.11394394826008636,"386":0.8187257722712312,"387":0.5149650219372385,"388":0.14881822911173107,"389":-0.184017708653177,"390":0.6217365034173348,"391":1.0311149715637047,"392":0.26835527503985657,"393":-0.4796306267313705,"394":0.04781301276161231,"395":0.27637882598137214,"396":-0.053676380694519056,"397":-0.3649917362719718,"398":0.9659408688697763,"399":-0.251769811146256}},{"sx":5,"sy":5,"depth":16,"w":{"0":-0.5280484691868093,"1":-1.938460560943697,"2":0.042472957962086194,"3":0.09225233312507981,"4":0.2583806635297473,"5":-0.2552525512458015,"6":0.12869749337735623,"7":0.5087953014841871,"8":-0.598572689669604,"9":0.39300659835665847,"10":0.09043573841647802,"11":0.17054958708351034,"12":0.17476083052663838,"13":0.34438068412951633,"14":0.041122308934745465,"15":0.36101447305630163,"16":0.03753705514568818,"17":-1.2615428696534803,"18":0.340719539506656,"19":-0.1670681154591498,"20":-0.5301331265018192,"21":-0.021285065808911662,"22":-0.22065211649431377,"23":0.13356605433232863,"24":0.24304381921824533,"25":0.6852490878495411,"26":0.11044383313912448,"27":0.4161818965898946,"28":-0.3425558158472374,"29":-0.7523373833430697,"30":-0.197639741639153,"31":-0.011972287770187088,"32":0.08452561861688608,"33":-0.09890254457176163,"34":-0.7173143935240502,"35":-0.1199670809834848,"36":-0.5173516870658611,"37":0.7003183229963301,"38":0.4156489453939771,"39":0.3098469666021377,"40":-0.36420331601522526,"41":-0.9353214297820898,"42":-0.23109113346894047,"43":-0.06774116952561328,"44":0.301262586212749,"45":0.42875490376026115,"46":-0.49364557940716236,"47":-0.279384847995488,"48":-0.3856674622523364,"49":-0.009346617859257233,"50":-0.41707005013961934,"51":-0.2638460039514158,"52":0.20219672546308998,"53":-0.14389284869806857,"54":0.17267976582150815,"55":0.3440282333367164,"56":-0.2435173956778069,"57":-0.2752649031724879,"58":0.013184355231865171,"59":-0.06404945675404618,"60":-0.10048133668539895,"61":0.0234191855573251,"62":0.05788819378064753,"63":-0.567617871712189,"64":-0.6076186855073887,"65":-0.16549043811766811,"66":-0.04457122050161894,"67":-0.27733336287685184,"68":-0.5092984561953847,"69":0.11016716628544226,"70":0.047115013519216056,"71":-0.21116322198325646,"72":-0.12157417707990979,"73":-0.37025304968161926,"74":-0.05843415701415823,"75":-0.2253028977973408,"76":-0.41621850257919596,"77":0.3106862414394245,"78":-0.09825220959724851,"79":-0.7982051366830721,"80":-0.5525422513619033,"81":-1.275819566872719,"82":0.43852218001780074,"83":-0.30249940989181706,"84":-0.2048762940752913,"85":-0.06627956269805292,"86":-0.025618085937924827,"87":0.3401719767203843,"88":-0.09409855713065457,"89":-0.145347158394412,"90":0.3152200419867846,"91":-0.06920113949972782,"92":0.285820433479023,"93":0.16436558785975985,"94":0.11918523591550724,"95":-0.11262050826352828,"96":0.25468269745610833,"97":0.014902922361767554,"98":0.3210843314346963,"99":-0.13678279413499314,"100":-0.47348661194211633,"101":-0.38796800850394875,"102":-0.12893848158220883,"103":-0.009258906417818142,"104":0.1757323739297614,"105":-0.7033282743877679,"106":-0.6339542523666035,"107":-0.5333073634407607,"108":-0.6664790140902048,"109":0.018523765828320368,"110":-0.2511208849547517,"111":-0.020370169148191782,"112":-0.615731097947448,"113":-0.33220811946362094,"114":-0.18386595332650782,"115":0.12256631347134311,"116":-0.6029256118020135,"117":0.17399160332930313,"118":0.26302485315001933,"119":-0.626575160504783,"120":0.10212359284003418,"121":-0.22449767727874825,"122":-0.592058407699584,"123":-0.4808928757799239,"124":0.4872577462851301,"125":0.8591507441213412,"126":0.10284757160758623,"127":0.6763019101211472,"128":-0.6423322591711041,"129":-0.10679713917603699,"130":-0.5623885553912895,"131":-0.3415622264703987,"132":-0.18103564522491253,"133":-0.6447497409734889,"134":0.1669464792796918,"135":-0.6868804194566568,"136":0.6779294276645953,"137":0.23895202571422855,"138":0.11132534051391214,"139":-0.6159892648153328,"140":-0.2519636935012307,"141":-0.26480940968325417,"142":-0.07591322660076695,"143":0.08074174937086759,"144":-0.41485865217222406,"145":0.6004971062033558,"146":-0.46285493836603014,"147":0.1455426326109138,"148":-0.7853134156623701,"149":-0.25586764671704665,"150":-0.14293270270079148,"151":0.31304206862572725,"152":-0.48092114124492286,"153":-0.806351560041377,"154":0.4391905995206649,"155":-0.45993824612890616,"156":-0.5102525960205206,"157":0.5708997074762968,"158":-0.1585392377452385,"159":-0.2412404722739252,"160":-0.07410582192669755,"161":0.44236606717270177,"162":0.21460444940826234,"163":-0.4630498538834034,"164":0.351405192937922,"165":-0.3318501457868481,"166":0.43475610340199183,"167":0.38898114970931885,"168":0.6222953192851423,"169":0.09777701247761458,"170":0.21966235433498268,"171":-0.4046679510429401,"172":0.13186088814191982,"173":-0.14055059407779466,"174":-0.0069020916237699315,"175":-0.592666550340171,"176":0.6363252161728363,"177":0.6694683884301947,"178":-0.0943254374083757,"179":-0.10124656584675575,"180":-0.004168752172538034,"181":-0.19984721698334165,"182":0.28994852210369176,"183":0.28121342071225086,"184":-0.13864319583355272,"185":-0.3354150499360271,"186":-0.10462201863558697,"187":0.12462287225931135,"188":0.167750984040867,"189":0.34213366433933773,"190":-0.35958779404203856,"191":-0.8562391839860488,"192":-0.1730386333433031,"193":-0.2751315258831158,"194":-0.21913112662662346,"195":-0.0350705283713733,"196":0.018694289174894702,"197":0.26736992280869265,"198":-0.3647532485562529,"199":0.14854059644378034,"200":0.3876603592909101,"201":-0.35248476479103186,"202":-0.12449422475989001,"203":-0.5633482667419101,"204":0.3065881849640288,"205":-0.5584355371826945,"206":-0.2666712524059357,"207":-0.4118437307432194,"208":0.07786080326624992,"209":-0.4392831205439786,"210":-0.28402922882555065,"211":-0.3238150596380001,"212":-0.060257825689694844,"213":-0.37595738236609894,"214":-0.16253136957947506,"215":-0.29664162637849634,"216":-0.506646226128835,"217":0.6059462182886518,"218":0.3194126831678233,"219":-0.005894122691554638,"220":-0.8045087065090095,"221":-0.14323626406733367,"222":-0.10803438063253687,"223":-0.23017036120114598,"224":0.22465184347709252,"225":-0.7628320869685324,"226":0.19095892182780694,"227":0.025858563170627104,"228":0.19324182879270282,"229":0.197935932436902,"230":-0.37070790118310043,"231":0.22807398566916054,"232":-0.7747477325370585,"233":-0.41881442296671617,"234":-0.06960871571249731,"235":0.2616648931072537,"236":-0.36161871867244233,"237":-0.4506799565368274,"238":-0.014378223361147762,"239":0.003378422089940097,"240":0.4668496696428833,"241":-0.336436287599511,"242":-0.21332711702867935,"243":-0.002181426753270446,"244":0.2114082119905155,"245":0.10188864744187032,"246":0.141612785577324,"247":-0.16585621752186264,"248":0.05423607616141575,"249":-0.1674297478596771,"250":0.1788766055854549,"251":0.14959115163477965,"252":-0.09686585894860408,"253":-0.6498040433187408,"254":0.1065709597995785,"255":-0.6233249819199453,"256":0.0926891011307326,"257":0.38453874787110537,"258":0.011657968187415471,"259":-0.06304236837496048,"260":-0.25066112506871263,"261":0.18053815457779393,"262":-0.20728824506388077,"263":0.46559530133260846,"264":0.6505111997533524,"265":0.38621972035536845,"266":0.11738635562330169,"267":0.4015575217340975,"268":-0.6542107666654153,"269":0.2547250233089186,"270":-0.5941236563020259,"271":0.37392812086595073,"272":-0.48144992691948557,"273":-0.2942656716192476,"274":-0.6464520416269243,"275":-0.07966188943240607,"276":0.25565780616471995,"277":0.1697408733043363,"278":0.2007307816471864,"279":0.28417226659261235,"280":-0.30548244947830144,"281":-0.2077012277889772,"282":0.1336210044167919,"283":0.25736199450413405,"284":-0.30439539170868124,"285":0.21151373099475895,"286":-0.07977370085406586,"287":0.5684237183664922,"288":0.3809058381202007,"289":-0.09028771182221652,"290":-0.1630787092966712,"291":0.22248878602145764,"292":-0.19996480690951204,"293":0.21118263903475218,"294":0.07418793028016389,"295":-0.2766008746908261,"296":-0.40285911059748264,"297":0.5335222592982083,"298":0.004049123475943201,"299":0.05257210842004695,"300":0.1904122568643184,"301":0.10981921197863952,"302":0.15835371233179707,"303":-0.3749338086360012,"304":0.0012175524954864535,"305":-0.6092042783422006,"306":0.9348030738385742,"307":0.5715444142449173,"308":0.22345748678929225,"309":0.5165431269678754,"310":-0.2562488060873524,"311":-0.3183448894189472,"312":0.4005796163568267,"313":0.11363667548463836,"314":-0.055582799499390684,"315":-0.433583697207353,"316":-0.34160844362801035,"317":0.22185413117967834,"318":0.4645707640079291,"319":-0.1882195282451386,"320":-0.15195943390649622,"321":0.3246432567359191,"322":0.2513866463402147,"323":-0.03692604322819532,"324":-0.0037847441398067335,"325":0.24006068638966108,"326":0.07673909023423518,"327":-0.2355572969318138,"328":0.41469405044322233,"329":-0.21268376341212036,"330":-0.06426475103676102,"331":0.06404447860424207,"332":0.7361285565473146,"333":0.2370405330199462,"334":0.2598562314886363,"335":0.052981636475579866,"336":-0.5613582654673918,"337":-0.35902876883026674,"338":-0.394374082837023,"339":0.23631265928268608,"340":0.17057703536644872,"341":0.03156829350800649,"342":-0.2109831578628634,"343":-0.4406075935185608,"344":-0.2931847983378084,"345":-0.0383374419531389,"346":-0.8366262135731376,"347":-0.18745132833942263,"348":0.156893773915369,"349":-0.14409469684286066,"350":-0.145865505520941,"351":0.0500989182960757,"352":-1.2338413408337567,"353":-0.4815434687723058,"354":0.4987891227203154,"355":0.22762404699812347,"356":0.4427692464366261,"357":0.2649443496490852,"358":0.005920953726844252,"359":0.0786860430146496,"360":0.07813370262488849,"361":-0.32574716647220714,"362":-0.015786519501529685,"363":-0.0014568067913278341,"364":0.17199720345146044,"365":-0.17829698546322056,"366":-0.15468458675216268,"367":-0.37137115519244285,"368":0.40431971645473797,"369":-0.21933844523422388,"370":-0.4152860979966898,"371":-0.5510303975654702,"372":0.12860015707577563,"373":-0.1767650022992769,"374":0.23085383347933985,"375":0.3040806573973986,"376":-0.1647810850933429,"377":-0.1531050837447045,"378":0.22871332920038195,"379":-0.6599831221235054,"380":0.02245731619288541,"381":-0.43592209444154895,"382":0.030212097426478613,"383":-0.6359285996601514,"384":0.5024439332461788,"385":0.31133354025068366,"386":-0.7152149735105852,"387":1.0349964569360275,"388":0.0011685796733607685,"389":-0.3111055066069395,"390":-0.6480568395800277,"391":-0.12442936728054799,"392":0.2719589382023702,"393":-0.07769757638344217,"394":0.13267708365101635,"395":-0.9387504820909846,"396":-0.6024269603300962,"397":0.033753118555147434,"398":0.21959891934611744,"399":0.42624005332597875}},{"sx":5,"sy":5,"depth":16,"w":{"0":0.006736066948704776,"1":-0.27477232323616013,"2":-0.19036984582234961,"3":-0.2414518701115782,"4":0.4755704906990277,"5":-0.8025588166723343,"6":-0.16091786281406864,"7":0.041797059329541766,"8":-0.11742193902400458,"9":-0.3015025250081738,"10":-0.133810976442823,"11":-0.09099913410388479,"12":-0.35548828727837556,"13":-0.3348135148066566,"14":-0.27152224377207845,"15":-0.10024125847453039,"16":0.3837002100785043,"17":-0.014422839761863164,"18":0.15968789553272525,"19":-0.4389605837407063,"20":-0.5979085746300915,"21":-0.24197492985049193,"22":-0.1690241130234428,"23":-0.6943431245714234,"24":0.3588898343310587,"25":-0.3417224075737017,"26":-0.07002990898755275,"27":-0.016063820860086248,"28":-0.3208123692718864,"29":0.27902110788191853,"30":-0.39742665850396175,"31":0.0018514654917154885,"32":-0.06557794199390343,"33":0.25511683922498657,"34":-0.3904358394657882,"35":-0.43350237813912385,"36":0.43567148617495643,"37":-0.055484867511762896,"38":0.3587435037511283,"39":0.4206502832724985,"40":-0.04330763804572532,"41":0.3399586152406496,"42":-0.30072764852775913,"43":0.14654403647414863,"44":0.47295008379021797,"45":0.026918313542251354,"46":-0.44057731741700273,"47":0.13227577971380097,"48":-0.002277884464501045,"49":-0.5655832295546676,"50":-0.08826819573089972,"51":0.4804668417489067,"52":0.03147786325168369,"53":-0.021825614319750327,"54":0.4937904903256439,"55":-0.1564963213575255,"56":-0.24942013094945656,"57":-0.1569151395398126,"58":-0.01784220494534959,"59":0.2722600243487511,"60":0.1816971123442017,"61":0.07491530578551314,"62":0.1065864261266411,"63":0.5739508145137414,"64":0.0056148196983795366,"65":-0.971624925244905,"66":-0.8005620605424445,"67":-0.4534262098566203,"68":-0.0759560130141338,"69":-0.2609171220964689,"70":0.7256815620553692,"71":-0.18633214360536515,"72":0.09891581384125411,"73":-0.22222375105078013,"74":-0.42636694142118137,"75":-0.37020952771628235,"76":-0.2168471229227571,"77":-0.19886714970122732,"78":0.2951462859776029,"79":-0.19198275478556873,"80":-0.4122551371549053,"81":-0.11514488901883325,"82":-0.18039779272197154,"83":0.12811297421280887,"84":-0.1344124947435992,"85":-0.1798158637674705,"86":-0.5486827315963264,"87":-0.5468295740169192,"88":0.015402286406010669,"89":-0.12690043498953438,"90":0.33003566999365463,"91":0.0431890778090396,"92":0.31323382226368357,"93":0.10521650691560724,"94":0.38338012604872695,"95":-0.2837410227758928,"96":0.4069800244453885,"97":0.06453976040106611,"98":-0.7086075204706305,"99":-0.1193205392619949,"100":-0.45114229590419025,"101":0.4145618578889978,"102":-0.02075165548525379,"103":0.24170000917312218,"104":-0.1389989751691446,"105":-0.22182778853336962,"106":0.522354769803778,"107":0.04322284137281691,"108":0.1911048200101225,"109":0.047556536464819235,"110":-0.6928962037514265,"111":0.26891926191507926,"112":-0.42290009456733213,"113":-0.0430480004593619,"114":-0.9044805125356651,"115":-0.11638086600629237,"116":-0.14489180495304166,"117":0.3781799832140162,"118":-0.2775503898475128,"119":0.1065366847603608,"120":-0.46414984649565805,"121":-0.32078220313881145,"122":-0.5583731927886529,"123":-0.045417799757866965,"124":-0.1615362024783986,"125":-0.19129388652630994,"126":-0.7100953858678235,"127":0.07031431430177196,"128":-0.6842514353170233,"129":0.41436183798813503,"130":0.20570992771022242,"131":0.3379106276018128,"132":0.06505396908974895,"133":-0.2102711222206912,"134":-0.2664058149475971,"135":0.04386585506219751,"136":-0.129788916798108,"137":0.05751295609161358,"138":-0.6255661582652741,"139":-0.3213762382822281,"140":0.6087010916515555,"141":-0.15585123757494962,"142":0.05367709680896339,"143":-0.40062215546900465,"144":-0.40663168736650346,"145":0.08357886320428116,"146":-0.08651735773880824,"147":-0.21293376916403403,"148":-0.15586553052261526,"149":0.12191064057443551,"150":0.3597366456145554,"151":-0.04051308257774933,"152":-0.4872421929717056,"153":0.4416090331528621,"154":-0.3804615204482243,"155":-0.8782259912069734,"156":-0.4178073119020189,"157":0.22498242638818927,"158":-0.11715812673994123,"159":-0.7268692985652824,"160":-0.3202996996188408,"161":0.0605033476340172,"162":0.28940494878678247,"163":0.25988656277882244,"164":0.5912977864966669,"165":0.5509788993767618,"166":-0.3633023225178776,"167":0.13496851727097542,"168":0.05946207015352378,"169":0.5117014553060305,"170":0.27196685995813813,"171":-0.09080392152051527,"172":0.13931771017969474,"173":-0.3509293464183372,"174":0.09242548547002641,"175":-0.5353051773866208,"176":0.49892620630864976,"177":-0.021840600361996556,"178":-0.12092580916746994,"179":-0.23988736867106258,"180":-0.04388526115883873,"181":-0.16953149308474755,"182":0.1285492749718542,"183":0.011291509502618388,"184":-0.27578671542917343,"185":0.855374053644936,"186":-0.4395686160556527,"187":-0.03786280654147029,"188":0.19463267700981296,"189":-0.05310984904710692,"190":-0.04796120779816525,"191":-0.10543041201257405,"192":-0.2839625428548963,"193":0.0015850193720079865,"194":0.04358986005667525,"195":-0.010888026232226773,"196":0.38882790013989577,"197":0.3507192941778568,"198":0.4208120423653952,"199":-0.41315258369338026,"200":0.07018421353691208,"201":-0.5459979719656561,"202":-0.2071380535773326,"203":0.16121423959036615,"204":-0.047751872171507705,"205":0.1701152357542829,"206":0.11551214441877736,"207":-0.02769870462118627,"208":0.3005196113301427,"209":-0.018495407968049625,"210":0.002585830790329852,"211":0.12341009433939194,"212":-0.17691501521172823,"213":-0.22785070610899819,"214":-0.03297745987005416,"215":0.3969416777236232,"216":-0.49499545703494885,"217":-0.4871203954670546,"218":-0.3644007300562535,"219":-0.8416119880886941,"220":-0.2895482973729317,"221":-0.32926822479705736,"222":0.5742395950658791,"223":0.2478007163098505,"224":0.1547028257231192,"225":-0.3703441775464432,"226":0.042956373549223964,"227":-0.08848376850205866,"228":0.19158680713971404,"229":-0.19190359735453255,"230":-0.6458826697260948,"231":0.726735198999705,"232":-0.10376194118558792,"233":-0.04538293740462503,"234":0.09230251029273137,"235":0.19406407861365096,"236":-0.41502964203073933,"237":-0.008843271810227676,"238":0.31087405372585813,"239":-0.11646964509444571,"240":-0.0014634575335225294,"241":0.36979275770350634,"242":-0.3587234803738057,"243":0.38903604009504006,"244":-0.49471557931385973,"245":-0.2094319400532189,"246":-0.07491502442120385,"247":0.628408921435843,"248":-0.0721952719953836,"249":0.04431523138544788,"250":-0.09026927999698782,"251":-0.3984780622518399,"252":0.5336971004670387,"253":-0.053529109602692845,"254":0.4851975401491351,"255":-0.4878531922240764,"256":0.7917736838562165,"257":0.05123883456541048,"258":0.13983299128253196,"259":-0.25398915507140224,"260":-0.33210319584650083,"261":-0.2966093609032963,"262":0.426122929994772,"263":-0.04052644415244586,"264":-0.04653167166697732,"265":0.20856441672200482,"266":-0.32639841234562494,"267":-0.4876038974823914,"268":-0.11290548272913777,"269":-0.32375557956999745,"270":-0.1610412731924074,"271":-0.0601518832596218,"272":-0.03361252100005984,"273":0.3889681351592509,"274":0.2732705743342875,"275":-0.4747833768204347,"276":0.5292152174821113,"277":-0.04466974981862714,"278":-0.47186095714630083,"279":0.4791045526498117,"280":0.33664993085590783,"281":0.09269672932353695,"282":0.18283107905114215,"283":-0.20774675822909855,"284":-0.482730287464104,"285":0.3604643195813158,"286":-0.23402988580496792,"287":0.09666418791540175,"288":-0.9775523298492009,"289":0.1578778258280668,"290":0.020959581929250994,"291":0.38106897208822554,"292":0.04068230944618285,"293":0.18365484820164577,"294":0.7234685339574557,"295":-0.19802735518593018,"296":-0.2369599634234158,"297":-1.177247744599904,"298":-0.15178754914672873,"299":-0.3511009567132527,"300":-0.1352666940511353,"301":0.36205925141043843,"302":-0.008041895202226654,"303":0.12616499271003798,"304":-0.42180152437738266,"305":0.025481148789061794,"306":-0.4992562978000996,"307":-0.38445279563595636,"308":-0.07809966982794833,"309":-0.18004785567826978,"310":0.2541190208661579,"311":-0.22410125591958896,"312":-0.019781760468079827,"313":-0.2149577682136008,"314":-0.2656233145030934,"315":0.33321384314655556,"316":0.29509051443107404,"317":0.19035693090548828,"318":-0.1363311759678325,"319":-0.6633718774109805,"320":-0.056773816945328855,"321":-0.19085713220564685,"322":-0.13814245908149603,"323":-0.11867743805116188,"324":-0.6680721106496553,"325":0.14175317518479258,"326":0.13052788736792958,"327":-0.5211644128276443,"328":-0.13052628973231595,"329":-0.8014130783995934,"330":0.0061845022099704565,"331":0.28974005069353587,"332":-0.03683790843959052,"333":-0.1575707498785894,"334":0.34526305308858135,"335":0.15074092375134357,"336":0.14215054038282793,"337":-0.24743065890086235,"338":-0.5157112619643361,"339":-0.981657119119378,"340":-0.677311652311692,"341":0.08669666242990184,"342":-0.5311884286217426,"343":-0.11385610781494906,"344":0.032873353180091436,"345":0.05439709564767588,"346":-0.11970625136595911,"347":0.46286180952259476,"348":-0.37095321196643016,"349":0.021171134147610054,"350":-0.7628639414954634,"351":-0.28983074237030976,"352":0.06122799051667047,"353":0.08927675613422342,"354":-0.4801943939031101,"355":-0.21494146353982255,"356":-0.6477129859984756,"357":-0.34786793327444,"358":0.18946824110785762,"359":-0.36969182941373313,"360":-0.7616755205211225,"361":0.9142418098115834,"362":0.12052430873188627,"363":0.38654420120554145,"364":-0.12013644025418993,"365":-0.34092797107745604,"366":0.06254327359204277,"367":0.1651924176813189,"368":-0.48376773206879153,"369":-0.15557345114998591,"370":0.7236155214705734,"371":1.2240769204748716,"372":0.280195025888321,"373":-0.05175023377635713,"374":0.08555374600148523,"375":-0.417454658780167,"376":-0.06102377520821634,"377":0.07389691737665707,"378":0.4565041169695994,"379":-0.4320613673924896,"380":-0.8188470153621779,"381":0.4258602570227382,"382":-0.10669686465083032,"383":0.41015377151349397,"384":-0.5334162043830828,"385":-0.1323286959399731,"386":0.16735648898845157,"387":0.08457574815867182,"388":-0.4011389790787682,"389":0.5840284964080722,"390":0.5251125306661755,"391":0.2809290219661587,"392":0.32186214662317775,"393":0.44533376590521445,"394":-0.40743813065129125,"395":-0.46369439860127193,"396":0.016203985343150554,"397":0.3513601172926523,"398":0.0034694761273441526,"399":-0.5900230561846532}},{"sx":5,"sy":5,"depth":16,"w":{"0":-0.35769610767620136,"1":-0.7578661523017776,"2":0.31086276881024744,"3":-0.006441849376481033,"4":-0.28645801064124593,"5":-0.007736048576449818,"6":0.6026575097832143,"7":-0.07618844372845845,"8":0.26646935791540655,"9":0.14360536253348208,"10":0.3106333474373063,"11":-0.08212164023427398,"12":-0.014511291071116936,"13":-0.486411235055549,"14":0.2586164432861452,"15":0.14194266987195073,"16":0.4464931213997746,"17":-0.16019539538531333,"18":0.19544223150518,"19":0.47342853304408705,"20":0.1217727580316474,"21":-0.27199307727610467,"22":-0.38286410308262075,"23":-0.041538939898701076,"24":0.24026816079750543,"25":0.22301921224768378,"26":0.04023091426640746,"27":-0.06514064173262188,"28":0.27568761145863296,"29":0.047871964396234874,"30":0.19207418775364637,"31":-0.06082459966919855,"32":-0.75413588100545,"33":0.0542959121830892,"34":0.23852917420280798,"35":0.5673304374432189,"36":0.07541860126960905,"37":-0.7227064748348746,"38":-0.11207103494402712,"39":-0.06122311670986911,"40":-0.07700658500196177,"41":0.43599210775402586,"42":-0.03472773604621672,"43":-0.048076225750172764,"44":-0.10343078753005373,"45":-0.05546798666678721,"46":0.2909356346786194,"47":0.44788280127868974,"48":-0.16125333398865854,"49":-1.212158228365303,"50":-0.4462409394029223,"51":-0.07774694002556388,"52":-0.20468446252636358,"53":0.04467498173364725,"54":-0.009708169601928548,"55":-0.10392865585221957,"56":0.22155480964049604,"57":-0.12904847326983984,"58":-0.27293836339633887,"59":0.2765137831606576,"60":0.17839964841001604,"61":-0.4522933361455354,"62":-0.4445848461383974,"63":0.5002831521092707,"64":0.032752638482618925,"65":-0.4974425488233739,"66":-0.15566308912163726,"67":-0.12234510862889622,"68":0.25185180084211695,"69":0.6138412781454631,"70":0.23703529624098846,"71":0.38944495708569,"72":0.1757838759844127,"73":0.16807206159253218,"74":0.40310871902511314,"75":-0.0909989804163665,"76":-0.2753453384508844,"77":-0.01938443626862756,"78":-0.05891475602054347,"79":0.018326407052057864,"80":-0.18587554386442082,"81":0.3115536339951515,"82":0.33586792912851043,"83":-0.36463403350947404,"84":-0.1578682317696946,"85":-0.1704514069669288,"86":0.09866281780392036,"87":0.45460757669594276,"88":-0.38740784541230616,"89":0.4042791651416675,"90":-0.42758179754060305,"91":-0.24778582925897852,"92":-0.2843264526457789,"93":0.3260093876490538,"94":0.07267711747256783,"95":-0.11875559874252646,"96":-0.3783351763358021,"97":-0.11484076443719396,"98":0.20536801621003684,"99":-0.21943006703653856,"100":0.4804336572796045,"101":-0.29625635304463904,"102":-0.20065974151783944,"103":0.15936069929243055,"104":-0.30774953529445703,"105":0.2650222771618028,"106":0.09569876267349191,"107":-0.2500925141884323,"108":-0.5939088063801212,"109":0.08798180429047102,"110":0.18671038125122352,"111":-0.42140572233989226,"112":0.3489170570298634,"113":-0.2926218800922048,"114":0.6185459861846822,"115":-0.23365716409774384,"116":-0.04173071116390143,"117":-0.4522036254782433,"118":0.31923439423156547,"119":-0.3955543694854288,"120":0.15584268217173972,"121":-0.5056880419872286,"122":-0.30744649233896776,"123":-0.010428440938873613,"124":0.23290363328544772,"125":0.19204762834795489,"126":0.008738493628843894,"127":-0.26418007625339845,"128":0.5828357534139297,"129":-0.14222195712933625,"130":0.028002068301417667,"131":0.13978203733072767,"132":-0.12484205425022715,"133":-0.31785828596522,"134":0.07561477275637267,"135":-0.5092614570051323,"136":0.19991799814073438,"137":-0.5641156599720764,"138":-0.5959020105704993,"139":-0.12434204704841943,"140":0.018279556862246644,"141":-0.2157796013863855,"142":-0.07600101705445461,"143":-0.28927532722976046,"144":0.38061375216571686,"145":-0.181381625136776,"146":-0.15356829468377628,"147":-0.4327737959056836,"148":-0.003958898866776973,"149":-0.1343773800430611,"150":-0.34827581999068735,"151":0.158507040527453,"152":0.04743367882121827,"153":-0.21616941144270688,"154":-0.7388096297027311,"155":-0.5429008386801754,"156":-0.295461285233188,"157":-0.1661161463414306,"158":0.047722592860576674,"159":0.2927222161120769,"160":-0.43414319354615616,"161":-0.06723898527414492,"162":-0.9931652789785407,"163":0.07060845377575013,"164":-0.252974691281193,"165":0.3636705751675267,"166":0.4099294925849859,"167":-0.32471691294613125,"168":-0.4412985775899888,"169":0.17336574285307035,"170":0.08187765656534327,"171":0.002773049447618506,"172":-0.47661538132232084,"173":-0.07213637634668481,"174":-0.11495727213063114,"175":0.11856056054262508,"176":0.22989506203731594,"177":-0.12898455140362738,"178":-0.2234279949817372,"179":0.1373233584655823,"180":-0.18222131163284758,"181":-0.02169536954508861,"182":0.3531023595470709,"183":0.17716653161497378,"184":0.0319313529877061,"185":0.08268027308640284,"186":-0.35556399239702247,"187":-0.39923699641965327,"188":-0.6058804326378588,"189":0.1961582520105863,"190":-0.05620316750112994,"191":-0.31207154949246074,"192":-0.22965795774576142,"193":-0.23960464679494928,"194":-0.16460714400512969,"195":0.09107701424188262,"196":-0.0285231838054306,"197":-0.6449894065717403,"198":-0.4362248849682024,"199":-0.014271972543112563,"200":-0.007632655463579345,"201":-0.02025498380509761,"202":-0.5307986257422551,"203":-0.5328362551807708,"204":-0.1160369783129282,"205":-0.16023716408199148,"206":-0.09106073053306706,"207":-0.0999857131585565,"208":0.42952208869168024,"209":0.07780470422725945,"210":-0.5493857379620976,"211":0.23730404369553046,"212":-0.13887180671892013,"213":-0.11220133535218964,"214":0.17017170691931138,"215":-0.3145256674278075,"216":0.12777346951462262,"217":-0.7142512572294193,"218":0.035425256514030286,"219":0.46463697589368524,"220":-0.3562978609124671,"221":-0.1817942271988429,"222":-0.31389526189499545,"223":-0.17543584125793774,"224":0.2848297663201273,"225":-0.019057812935844094,"226":-0.08068859794214264,"227":0.23237492072988306,"228":-0.4881827474062789,"229":-0.4839176673105945,"230":-0.23571226379537868,"231":0.02837061475777874,"232":-0.4918150851521946,"233":-0.17516082057464788,"234":0.02585369779983311,"235":-0.300684230022944,"236":-0.3301295351846675,"237":-0.26452557346328814,"238":-0.3298242127121935,"239":0.058275371496729816,"240":-0.39515465387367227,"241":0.04750633656620502,"242":0.03378533803233056,"243":0.04832360485724575,"244":-0.4450378554302663,"245":0.1855723428475257,"246":0.35998063950396775,"247":0.04875814891078127,"248":-0.1447831183400291,"249":0.26342271879572565,"250":-0.08975369110101851,"251":0.14035386384401427,"252":0.4474152206395307,"253":0.04490665905326391,"254":-0.33753103585839034,"255":0.1954984489305029,"256":0.46650980603844633,"257":0.06207811632761206,"258":0.07991946389620348,"259":-0.2083079507095167,"260":-0.024183674124929153,"261":0.15690752063692745,"262":0.08451091678144398,"263":-0.47806087769747097,"264":0.021272011868059475,"265":0.02128723806742998,"266":-0.2898427946771968,"267":0.15031378772785933,"268":0.47064486272265077,"269":0.14418873286878017,"270":-0.7256535458617714,"271":-0.2640047336454999,"272":0.009184664411484628,"273":0.2986731228027586,"274":0.06506744321704094,"275":0.10880957488438803,"276":-0.13363607153413076,"277":-0.4967760700125338,"278":0.32916712864048897,"279":0.2636424949989171,"280":0.32457632700161115,"281":0.42631826207199347,"282":-0.5654067194666443,"283":-0.2567090455125887,"284":-0.3637931526724176,"285":-0.18704818595703065,"286":0.15664667133467416,"287":-0.7575430878878384,"288":-0.3363915478502314,"289":0.02701814417757941,"290":-0.24311759849806047,"291":0.1942064489371659,"292":-0.1736139247385418,"293":-0.10150353951382743,"294":0.053850432144739925,"295":-0.1411937767160838,"296":-0.5728899599732961,"297":0.05943313364848877,"298":0.5149069150187824,"299":0.19569841383502332,"300":-0.21348492599339033,"301":-0.38735613032172933,"302":-0.3932419615000663,"303":0.10211955300660358,"304":-0.004275248317013749,"305":-0.003948335467500769,"306":-0.0043825493590537315,"307":0.2747936464097891,"308":0.09940560034374739,"309":-0.1714157456623532,"310":-0.01798495373321329,"311":-0.5019469990402412,"312":-0.5090733801921232,"313":0.04659712934478815,"314":0.009216874676944608,"315":-0.19153643891061176,"316":-0.24846232972232413,"317":-0.3092151696047809,"318":-0.8383300638965666,"319":0.47063903960108533,"320":-0.08837887102844184,"321":0.24529493314526746,"322":-0.043742121805217776,"323":0.26096319095432813,"324":0.43014384522554816,"325":-0.20443858324081762,"326":-0.4078168773944642,"327":0.1974690168901258,"328":0.14071205190353242,"329":-0.20401733067488975,"330":-0.07248112802692604,"331":-0.0733665137066861,"332":-0.08708431761063054,"333":-0.4820966645264413,"334":-0.37440341832124646,"335":0.695525595387122,"336":0.11268965864498003,"337":0.0866845649244629,"338":0.15892800402354207,"339":0.0696376733682954,"340":0.27853311874783193,"341":-0.23416557645966832,"342":0.1986928651529341,"343":-0.6823182319915506,"344":0.27337267560020034,"345":0.09536869642213582,"346":-0.22721148870389554,"347":0.07985845898521239,"348":-0.0958999854067441,"349":-0.6577301477019712,"350":-0.6542461994425725,"351":0.2730009896014373,"352":0.6753357605778858,"353":0.2902173823968744,"354":0.24733708328868037,"355":0.6175301019148081,"356":0.18796424491024916,"357":0.24397624048793673,"358":-0.35127796647979803,"359":0.0884259067318751,"360":0.08916925714418242,"361":0.00038193580395239844,"362":-0.42856816147259047,"363":0.36706489062993436,"364":0.3303720382483912,"365":0.013233918809410213,"366":-0.7588416470101026,"367":-0.5156010573454455,"368":-0.08473090833066108,"369":0.037688487612262324,"370":0.23204342177124235,"371":-0.054083294882387285,"372":0.20875147185881146,"373":0.12486333192606744,"374":-0.08132034409665417,"375":-0.5372268046471294,"376":0.11524170450650392,"377":0.6548790893499263,"378":0.4267271047757874,"379":-0.1868536702019367,"380":-0.18675233303364328,"381":0.3295676348847671,"382":-0.6998813454891305,"383":0.17722181038834012,"384":0.04014101888652948,"385":0.006511720398794045,"386":-0.10042649909879676,"387":-0.030257338573247618,"388":0.03675852975081843,"389":-0.3009292514115734,"390":-0.0020872410404785425,"391":-0.2854189349372848,"392":-0.1279000017973863,"393":0.3139984188181027,"394":-0.565401166192816,"395":-0.4060138784739681,"396":0.07595631717637767,"397":0.18956362379055214,"398":-0.18847312587034185,"399":-0.5987340055039384}},{"sx":5,"sy":5,"depth":16,"w":{"0":-0.24134359546524872,"1":-0.2071122771328954,"2":-0.09568816699070366,"3":0.1293000929083154,"4":-0.38191164700933017,"5":-0.059568236088452714,"6":-0.2134782968741247,"7":-0.2501480893579537,"8":-0.09093248415740375,"9":-0.27010203104474123,"10":0.3502247865234067,"11":-0.31369069604136324,"12":-0.25764999849076115,"13":0.31895535175490763,"14":0.012501425427685446,"15":-0.438883091051465,"16":0.5973597382483065,"17":-0.8380160981787472,"18":-0.476259137043243,"19":-0.7686373022654927,"20":-0.10236651126385832,"21":-0.7155930607156132,"22":-0.02490271703703162,"23":0.011869414072475187,"24":-0.09332510011621542,"25":0.30055732099177107,"26":-0.24079012711742553,"27":-0.22233496111058826,"28":0.298171545414429,"29":0.3845958217246324,"30":-0.40606565263631483,"31":-0.5085705392749639,"32":0.49136235608856355,"33":-0.5765621777400484,"34":0.3178834550285953,"35":0.2090493243720432,"36":0.5070454477608065,"37":-0.38624355669939636,"38":0.3278824393995748,"39":0.8127756174215409,"40":-0.14159167147475846,"41":-0.5474011398870194,"42":-0.4451280006867204,"43":-0.20775027794976883,"44":-0.11069095645528708,"45":0.45047528262500325,"46":-0.9641199588359373,"47":0.36283233685262994,"48":-0.35044569942005654,"49":0.3701243585132264,"50":0.2076983519519867,"51":0.10037586277804696,"52":-0.01942388922257277,"53":0.2450332729840737,"54":-0.35573387194141814,"55":0.16058704764940848,"56":-0.3409090710387904,"57":0.0410813650083788,"58":-0.2673610592251131,"59":-0.14012078725682453,"60":0.17253824009859142,"61":-0.01217564257345131,"62":-0.6220851706167885,"63":-0.031382124427276725,"64":-0.24888736277874138,"65":0.1653633664957592,"66":0.24843639151701388,"67":-0.041395286418708925,"68":0.42946199495092324,"69":0.45556622902355004,"70":0.09907537013929853,"71":0.3585588872509477,"72":0.00813099324163877,"73":0.16302466601930182,"74":0.2963650235917026,"75":0.12390559242465525,"76":-0.5759975180638995,"77":-0.02689739036794526,"78":-0.21274073699795532,"79":-0.29407283657261185,"80":0.20414494841611722,"81":0.30176398089846934,"82":0.15887614129548872,"83":0.02852269109957188,"84":-0.15973601842433316,"85":0.10428990099061158,"86":-0.17061227974999327,"87":-0.3060451695164045,"88":-1.060081725836551,"89":-0.20363988573821898,"90":0.4445967522692407,"91":0.5678599644422598,"92":0.1619789084476379,"93":0.4315120630445598,"94":0.4628957905176526,"95":-0.15946737909339476,"96":0.41975139519598936,"97":-0.17342271633293213,"98":-0.8354130972638378,"99":-0.09862650905173403,"100":-0.01927382560639355,"101":-0.32100052905546667,"102":-0.043147976945117836,"103":-0.16043990360797203,"104":-0.21294129787612706,"105":-0.3904451946410142,"106":-0.14159608847087762,"107":-0.8334994539448293,"108":0.06552192211296752,"109":-0.2016652503713995,"110":0.0733096501601196,"111":-0.2443743789998544,"112":0.1668124250698327,"113":0.24631469374484619,"114":-0.29781872450568425,"115":-0.059311069957438116,"116":-0.10154155904278457,"117":0.2821329514026094,"118":0.2339139619152888,"119":0.010291413634499948,"120":0.23610082249158737,"121":-0.27876091247578055,"122":-0.30101850866902646,"123":0.01192499496942196,"124":-0.38738719123868276,"125":-0.05086401092746732,"126":0.2370011706446904,"127":0.038003415840105775,"128":-0.2558181518891357,"129":-0.5913063319316489,"130":-0.743365112173667,"131":-0.3073167503835721,"132":-0.07161410072971601,"133":-0.3135026831196762,"134":-0.04674916993668593,"135":-0.6732545995838858,"136":0.025470559569708152,"137":0.039963341981864346,"138":-0.5348708824968675,"139":-0.24952352401869304,"140":0.11886006997199274,"141":0.3046858297686901,"142":0.09715991558086572,"143":0.2394499942332729,"144":-0.19458706373475695,"145":-0.05576790082747266,"146":-0.24906579620052663,"147":-0.32835360713227385,"148":0.4865126541462305,"149":-0.008890971852502118,"150":0.14315734883230546,"151":0.1583598152575599,"152":0.0049202530884217555,"153":-0.6505243886773494,"154":0.28893405195350885,"155":-0.13777548979420587,"156":-0.1828075172723144,"157":0.15915818434709966,"158":0.19605705037746757,"159":0.39552397591946925,"160":-0.14261561868807773,"161":0.022827753233346803,"162":-0.10127479810092416,"163":0.11726568540634225,"164":-0.008307643049387699,"165":0.09845843011097467,"166":-0.24702281147069885,"167":-0.13124772622524875,"168":-0.5256929635086541,"169":0.08708901583405675,"170":-0.40815490210167216,"171":-0.41122271291783774,"172":0.24251819758715265,"173":-0.11172834009978429,"174":0.7613784613669664,"175":0.11717652253944259,"176":-0.05532483811717883,"177":0.21844126837581787,"178":-0.13998811144306675,"179":0.2232525798121574,"180":-0.3485260334390812,"181":-0.776426678347517,"182":0.13729695010032325,"183":-0.4519537513323227,"184":-0.3592213382569752,"185":-0.21575971484850723,"186":-0.12158481091596873,"187":-0.3233887626231523,"188":-0.36788991657350917,"189":-0.22013612516121514,"190":0.2364121229439803,"191":0.416221866612995,"192":-0.5786377082573559,"193":0.23580297277652817,"194":0.28695705413388195,"195":-0.24038508068461656,"196":0.0900794492072632,"197":-0.3822513163423563,"198":-0.2642184380296815,"199":0.1778395545414794,"200":0.07191368411756116,"201":0.09827342733053597,"202":0.1430344333279792,"203":-0.5351530003990278,"204":-0.3829683283262645,"205":-0.14591981333956197,"206":0.1166335293924613,"207":-0.4056928253023181,"208":0.47175140240017005,"209":-0.11038464905891847,"210":-0.4270933148801558,"211":-0.25583803207157135,"212":-0.3313781819010875,"213":0.2555188436503765,"214":-0.17391696334122514,"215":0.34490187760436436,"216":0.3491246430334406,"217":0.15479016358637324,"218":0.3434124033396535,"219":-0.35551029692489466,"220":-0.4406268647510629,"221":0.9634437330965127,"222":-0.35331549604340884,"223":-0.09139914424674622,"224":0.3291444395201524,"225":0.1622733998963495,"226":-0.05246089731666672,"227":0.38591787542551764,"228":-0.4805472023108367,"229":0.34340521196607365,"230":0.3609692797520882,"231":0.46706939469203396,"232":0.04291520605106719,"233":0.1249912238753929,"234":-0.056914888154123315,"235":0.20103583744448877,"236":0.4776794321661084,"237":0.019394090700298565,"238":-0.3634191831949465,"239":0.15077501534478033,"240":-0.013997116488085524,"241":-0.02909474530729575,"242":0.28240925861438826,"243":-0.1596425737290363,"244":-0.2728041904649228,"245":-0.39765369994326744,"246":-0.20040885828101754,"247":-0.19344648354849941,"248":0.3240920195244845,"249":-0.4974533568758138,"250":-0.39526130651256697,"251":0.08553917943448108,"252":-0.5506446323683011,"253":0.15594946811105032,"254":0.415838473936193,"255":-1.0758453932560192,"256":0.25326370700469253,"257":-0.4602808716659741,"258":-0.16752091074728248,"259":0.3568662620505324,"260":-0.13508819108383566,"261":-0.1582161105025462,"262":-0.0019080889661846465,"263":-0.7645994134960619,"264":0.2990039548334706,"265":0.48026531392803323,"266":0.19915482985973093,"267":-0.24475970671540473,"268":0.129990476543903,"269":-0.27720744941790587,"270":-0.03469870365181507,"271":0.00781015990580135,"272":-0.44065241417415585,"273":-0.5475650288864964,"274":-0.2928370161242609,"275":-0.1666614443655848,"276":-0.4162863786340572,"277":-0.6173351677396166,"278":-0.360756641461309,"279":-0.46443117349444996,"280":0.4977844781288393,"281":-0.6684588610374963,"282":-0.16306979524449458,"283":0.17283828470520476,"284":0.31444913026145266,"285":-0.346214069717244,"286":-0.14255392837153638,"287":0.582922306780557,"288":0.1975799043975344,"289":-0.20142404967314304,"290":-0.26614366619063834,"291":0.3294146490686647,"292":-0.4555122830977236,"293":-0.2309350756587525,"294":-0.595543829594698,"295":-0.2317366792468557,"296":-0.4342884960258304,"297":-0.309398050747974,"298":0.23965162425571637,"299":0.029100391877832497,"300":-0.3711189260891693,"301":-0.1951818720785356,"302":-0.2824599984092934,"303":0.2927780052152109,"304":-0.5465152363502771,"305":-0.23537485384624918,"306":0.10623152846918989,"307":-0.13030018206227517,"308":0.18728667408257266,"309":-0.14055030104316638,"310":-0.27942823628491287,"311":-1.1484251060102972,"312":-0.08441389988385602,"313":-0.0706028074084787,"314":0.27028529142584523,"315":0.15097120225261662,"316":0.8674623203050463,"317":-0.23125178964077434,"318":-0.5631048146612653,"319":0.07779613118049326,"320":-0.07748191791620422,"321":0.14165466431086385,"322":-0.08466482447313643,"323":0.17249635103899946,"324":-0.16152661655202255,"325":-0.15172354540128952,"326":-0.4716256268321616,"327":0.19230748838515352,"328":-0.25332173760282317,"329":-0.10478785399247459,"330":-0.7456576182454765,"331":0.3632777629125182,"332":0.6407997545647619,"333":0.1369216002529075,"334":-0.31066357799866695,"335":-0.03920291897296925,"336":0.12909539530413383,"337":0.5752851286755423,"338":0.19502507710766137,"339":0.3721939342557009,"340":-0.15933369210110898,"341":-0.2025335012313948,"342":0.19019507390992166,"343":-0.014657224584582141,"344":0.041468392242219224,"345":0.0018934016953952317,"346":0.4110077088923337,"347":-0.17398634747855884,"348":-0.11394308893820286,"349":0.22145465152497518,"350":0.44470734790927596,"351":-0.07816833677407145,"352":0.6170262436588329,"353":-0.42136325884572007,"354":-0.25516975695368194,"355":-0.22715187970710063,"356":-0.434043702096252,"357":0.33100174271586585,"358":-0.038957867680211755,"359":0.3853867121547811,"360":0.11743216340549464,"361":-0.5331772129969363,"362":-0.47212385690239056,"363":-0.6426213958013276,"364":0.22410624012693528,"365":-0.32392928200084786,"366":0.052899682572445275,"367":0.48331122586025793,"368":-0.07265935492039069,"369":-0.3963385469637349,"370":0.6840316814055817,"371":1.0338333706665457,"372":0.5542407557530162,"373":0.21339745296177248,"374":-0.004319907764429094,"375":-0.7326204310807888,"376":-0.12608427045315862,"377":0.09544401518036763,"378":0.47462916384360454,"379":0.10305382718901093,"380":-0.10591786254785407,"381":-0.0282668040475614,"382":0.2945568935293107,"383":0.22579380268463453,"384":-0.04827516539216463,"385":-0.6313162563901812,"386":0.22397179194598762,"387":0.44839547013541725,"388":-0.6919957121644457,"389":-0.09522034473905305,"390":-0.14912180753422724,"391":0.0551173722506796,"392":-0.1560813966387486,"393":0.3053241340391917,"394":-0.40794381732860285,"395":-0.42312648787607227,"396":-0.20564183378883238,"397":0.06393213173426118,"398":-0.16969915876416136,"399":-0.22085771163339749}},{"sx":5,"sy":5,"depth":16,"w":{"0":1.1389291167310194,"1":-1.2354224328958603,"2":-0.223392359825937,"3":-0.18903619063563418,"4":-0.13084917922146028,"5":0.554847657358243,"6":0.09993506321846624,"7":-0.11858867224087868,"8":0.1036832764762562,"9":-0.006386141603559449,"10":-0.13407332856675022,"11":-0.709899256396826,"12":-0.4325027848787035,"13":0.15922976254969057,"14":-0.47844475718330487,"15":-0.028412782042403762,"16":-0.13527516621157679,"17":-0.6715895349405815,"18":-0.7480863847679478,"19":0.006840321647266661,"20":-0.17872894987498406,"21":-0.13959112003639343,"22":0.025647197038071848,"23":-0.16308520777471588,"24":-0.10614604989471074,"25":-0.4751479495044891,"26":0.5668316789658984,"27":-0.7975819715033012,"28":-0.0055070010967678,"29":0.24529755480349952,"30":-0.7379775379727066,"31":-0.10048811811139113,"32":-0.3699629498601243,"33":-0.14312691964531668,"34":-0.17226693178296437,"35":0.6262092276589936,"36":0.7623210853627547,"37":-0.5290785890762074,"38":0.21274656084600277,"39":0.7157872845235946,"40":0.6020752468968246,"41":0.39215631361761155,"42":-0.3379853379919464,"43":0.19328222563854974,"44":0.2593858523149203,"45":0.1403886643495901,"46":-0.09412793598394134,"47":-0.5399685913927479,"48":-0.2969128075057128,"49":0.04718236109111678,"50":-0.2568020020574781,"51":-0.050214567393223886,"52":0.3620985902762156,"53":0.10850564602505443,"54":0.2089538982864558,"55":0.10301346217676863,"56":0.454157772703005,"57":0.61716288152576,"58":-0.18627580318143036,"59":0.5674744962598616,"60":-0.04103332651141493,"61":0.293075233343323,"62":-0.025472587044287932,"63":-0.34625610711064797,"64":-0.05734506867449597,"65":-0.10751285322157451,"66":-0.29226293851245455,"67":-0.5262634811818241,"68":0.08477750348681418,"69":0.20146088013117483,"70":0.3870193246872181,"71":0.10904040735940491,"72":0.14808273761356247,"73":-0.0641960714856465,"74":0.345106981818576,"75":0.14109774999154848,"76":-0.570093639617736,"77":-0.17616055675467118,"78":-0.1428582458471955,"79":0.5614963338806105,"80":0.5532255844497864,"81":-0.8085007731657227,"82":-0.5077988931891759,"83":-0.31447632178824536,"84":-0.03598495628927224,"85":0.010023931932278277,"86":0.18285424357844055,"87":0.6246504134654995,"88":-0.20813183149901282,"89":-0.3709157832649475,"90":0.04811608216084207,"91":-0.282352660621821,"92":-0.26250657685123563,"93":-0.011238550051771698,"94":-0.18831545250957923,"95":-0.18497589750062884,"96":-0.5668954450404128,"97":-0.5949925531267246,"98":-0.22668348386457515,"99":-0.3197077522730731,"100":-0.2771780858147442,"101":-0.7948523180928514,"102":0.018284606375405642,"103":0.17676232033176306,"104":-0.44029722820464356,"105":0.4326868999342919,"106":0.6762673615771498,"107":-0.3767218601701339,"108":0.18432444539808096,"109":-0.08915437924562608,"110":-0.21583550264558438,"111":-0.13411931412290634,"112":0.0029204675094973184,"113":-0.5282118384143724,"114":-0.9970217774042379,"115":0.39526428154310983,"116":-0.19159887034744302,"117":-0.003549723712265967,"118":-0.4114198750243533,"119":0.10453138743644817,"120":0.42514608562727235,"121":-0.12253738072716562,"122":-0.6177285950455955,"123":0.1077804684186706,"124":0.10820221479553613,"125":-0.030710315235004008,"126":0.32331978309776765,"127":-0.013806611759131742,"128":-0.20821493223309434,"129":-0.40193384214219413,"130":0.0835820062920209,"131":-0.30733508783628266,"132":-0.22946965807868372,"133":-0.21650141846302776,"134":-0.3379583978907419,"135":-0.15518076004262155,"136":0.1995189962900174,"137":-0.45581531479477233,"138":-0.11677174518352483,"139":-0.05471001968473205,"140":-0.5055120583321675,"141":0.029693496025945277,"142":-0.5819276650416836,"143":0.2562302248168233,"144":-0.03994933955871053,"145":-0.40942376334458863,"146":-0.17976001266750635,"147":0.15014061417548313,"148":-0.43932601081844963,"149":-0.13965624210333508,"150":0.2716748643098562,"151":-0.013179773865191377,"152":0.09187896278870376,"153":0.17340547010967997,"154":-0.008589278360267788,"155":0.37801412467493484,"156":-0.32113845070704344,"157":-0.0771141290509254,"158":-1.1871769126377512,"159":0.6848793763888557,"160":0.5300579808373961,"161":0.4510017499739396,"162":-0.13467553552692826,"163":-0.04270110763274996,"164":-0.9384023986597185,"165":-0.13569728997091088,"166":0.13075787669683464,"167":-0.047313909413222784,"168":0.5854659425336797,"169":-0.17009078115795784,"170":-0.16639331975038438,"171":-0.1826074032455981,"172":0.041713649711252715,"173":-0.27011713791071007,"174":0.5426919203204719,"175":0.42745692056599627,"176":-0.30047024183663107,"177":0.16127322042806116,"178":-0.18728148168986547,"179":-0.2152888947610052,"180":-0.6767786718513674,"181":-0.2658007424768266,"182":-0.25826571733972503,"183":-0.2547568221569998,"184":-0.19776988784806998,"185":0.16173445540839074,"186":-0.46298796073233495,"187":-0.3285012992094173,"188":0.7885876410093146,"189":0.1397333943697819,"190":0.20268350138029487,"191":-0.3984126110173501,"192":0.009826556816857422,"193":-0.23198618827429052,"194":-0.16030222502795477,"195":-0.009831110392765147,"196":-0.04806408742510406,"197":-0.8034966388548266,"198":-0.10110446374542849,"199":0.17104414235538754,"200":0.03359135573593901,"201":-0.35018517100662977,"202":-0.48705860128758155,"203":-0.23727687999831645,"204":-0.10533148975515613,"205":-0.3235558988017106,"206":-0.4072550230765814,"207":-0.18508916225682442,"208":-0.025025027746882755,"209":0.453121068346738,"210":-0.057279815464366265,"211":0.38369951576104516,"212":-0.28686620453648215,"213":0.412048245187763,"214":0.23709343381272036,"215":-0.1350639902041659,"216":0.4953891566922026,"217":-0.3515497147916598,"218":0.05570948648009113,"219":-0.44349663183106475,"220":-0.4845768062553116,"221":-0.07017372278430792,"222":-0.543201335872457,"223":-0.22464903950245146,"224":-0.20742973273806772,"225":0.02964853045574781,"226":0.516875410012068,"227":-0.18573782570639027,"228":-0.6402241867314619,"229":-0.2219983392614306,"230":0.23925683194227074,"231":-0.8169410705075474,"232":0.19585599328953482,"233":-0.04346020918428788,"234":-0.07968168107654479,"235":-0.6950874205974426,"236":-0.41364247879296095,"237":-0.47590966946380087,"238":-0.34419542282644267,"239":0.3613392237814696,"240":0.24720183673285584,"241":0.16682410503080058,"242":-0.030840938058562296,"243":-0.2463887316239875,"244":-0.08993911439526454,"245":-0.43577814980205815,"246":-0.007359274518107627,"247":0.2133435431181955,"248":-0.39164444958733924,"249":0.1903957047556591,"250":0.2521840448945753,"251":0.3312636448283631,"252":-0.003496600496403805,"253":-0.26186569753034955,"254":0.8595822443422662,"255":0.011461659421590685,"256":-0.18684211283352717,"257":-0.09805293354632287,"258":-0.12247408238364925,"259":-0.22383931268616974,"260":-0.2820537680483692,"261":-0.18801049194105837,"262":-0.22446437234407626,"263":-0.4944576131846401,"264":0.38968217973985264,"265":0.46239141924412036,"266":0.011699723630001109,"267":-0.23842689965694278,"268":0.13737055819031602,"269":-0.19031242721585592,"270":0.35988933584920224,"271":0.021709846556361052,"272":0.1641052629440207,"273":0.04636671879889723,"274":-0.4266989553858488,"275":-0.10239700011003032,"276":0.07018069151133757,"277":-0.5134226926844674,"278":0.45530604649452683,"279":-0.3046419036296384,"280":0.3585542055812652,"281":0.10754472570360797,"282":-0.46136887133164406,"283":-0.5309410345629821,"284":0.12357509774985023,"285":-0.17957259502867393,"286":0.3223300579853873,"287":0.23462505709703324,"288":-0.5474012844335752,"289":0.013681169966912765,"290":0.026677745104205276,"291":0.062115403688454966,"292":0.13520395668607638,"293":0.7625862333018876,"294":0.07448828533456418,"295":-0.6236944958197567,"296":-0.8768918414071144,"297":-0.1484759391464104,"298":-0.348640193891121,"299":0.002416809120090155,"300":0.19819463183037675,"301":0.24624488563714103,"302":0.2885906934595022,"303":0.14091923633947562,"304":0.2129158109547448,"305":-0.4056911461170785,"306":0.24133591704523405,"307":-0.3775689571665182,"308":0.2402373338227899,"309":0.12995586999774233,"310":-0.07915595553531024,"311":0.35852581058572075,"312":-0.3033780352768773,"313":0.5037066849732186,"314":-0.500313787260932,"315":0.21764732544036805,"316":-0.021555240665259864,"317":0.5136664364615189,"318":0.10078811198192596,"319":-0.16827513652814216,"320":-0.6154631568671908,"321":0.020683292813145283,"322":-0.21889013055532858,"323":-0.6624051322595039,"324":-0.27936731449861557,"325":-0.13761233657692967,"326":0.39240506040475154,"327":-0.2189714929223879,"328":-0.4654542752943263,"329":0.34916810789831976,"330":-0.0812043042985647,"331":0.3329713398929349,"332":0.333504868991711,"333":-0.10751360290286377,"334":-0.1101491495905415,"335":0.22150726927948722,"336":0.02537485532331127,"337":0.3475347247631416,"338":0.038040678610470946,"339":0.02137524910745761,"340":-0.2578160434023531,"341":-0.32499194680267746,"342":-0.5069712522065798,"343":-0.3271929728718911,"344":0.023970626824267316,"345":-0.08734495037420005,"346":0.06038814768334855,"347":0.29594402163533623,"348":0.04305247299211795,"349":-0.14470213820963987,"350":0.05760277733566087,"351":0.010195423180120419,"352":0.289210684790795,"353":-0.17474739128795108,"354":0.1586725101716514,"355":-0.4490592588601567,"356":0.19039018458302598,"357":0.3626318688866199,"358":-0.45376336551782487,"359":-0.5753386265021446,"360":-0.31750880364528716,"361":0.4620104479829602,"362":-0.8390141345144188,"363":-0.2359798153805806,"364":-0.20293831106588275,"365":-0.04881025463587961,"366":0.18113099725729126,"367":-0.029730070568051492,"368":-0.6348635590139451,"369":-0.28828862925493093,"370":0.41812885888905355,"371":-0.14033639064432993,"372":-0.06908467762196308,"373":-0.016635397259370476,"374":0.030434849614762553,"375":0.12961659978796328,"376":0.09636845844573459,"377":0.47581204719481834,"378":-0.13402151410532134,"379":-0.4786364674747103,"380":-0.18966296622734005,"381":-0.032406400449330554,"382":0.3131857190259004,"383":-0.4967166562134336,"384":-0.9032232584028522,"385":0.21943381542516785,"386":-0.34184201750650745,"387":-0.0568275228552409,"388":-0.10154428261301501,"389":0.33868317015863547,"390":0.28056709094695015,"391":0.1299040139328248,"392":-0.23524069069575324,"393":0.4996080105288346,"394":0.6960172256467254,"395":0.042802859619347905,"396":0.26310277359705286,"397":0.48626740923895384,"398":-0.42622701564158727,"399":0.11737127969735989}},{"sx":5,"sy":5,"depth":16,"w":{"0":0.6279828268289949,"1":-0.39012421755715593,"2":-0.4212978147598889,"3":0.07214856572539421,"4":-0.6048444031570563,"5":-0.18253235736307735,"6":-0.44563010245890944,"7":-0.01115215099176861,"8":-0.04989484129936692,"9":0.582066516728364,"10":0.05009600656781231,"11":0.45039890749042877,"12":0.6445747052090679,"13":0.10764464965801623,"14":0.02242934878087755,"15":0.1836796622738804,"16":-0.05389294259425315,"17":-0.11939639956034281,"18":-0.48438530544363173,"19":-0.16680028613071515,"20":-0.3163470810929738,"21":0.39933180597918944,"22":-0.017141347547169866,"23":0.2362385845609793,"24":0.003096906420484582,"25":0.267826479557011,"26":0.23804876037345502,"27":0.2054461637350905,"28":0.27268832668578197,"29":0.34818557359378927,"30":-0.6270645293311328,"31":0.5091160110153305,"32":0.2977461902807592,"33":-0.4933246402826435,"34":0.7395688266087518,"35":0.5480256976224862,"36":0.22846038550981085,"37":0.34418279055971274,"38":-0.11957324301896967,"39":0.32595365299218987,"40":-0.2009101435028291,"41":-0.05633361764111141,"42":0.1916316594418155,"43":0.15512722275039273,"44":0.46946214264105346,"45":-0.21307330958521029,"46":0.010553122255401058,"47":0.31506930545366907,"48":-0.6373706544076895,"49":-0.3596388881006377,"50":0.17594606106652114,"51":0.7503028078850611,"52":0.020403160387193944,"53":0.5133910255314041,"54":0.19885704920378666,"55":0.24992231823149047,"56":-0.385279800012063,"57":0.23819577714532936,"58":-0.2932519052375928,"59":0.011171872413936702,"60":0.18510427860813364,"61":0.3549653577009133,"62":0.778747276213817,"63":-0.09206767060399097,"64":-0.27700996635177816,"65":-0.8591400401188403,"66":-1.02334897905136,"67":0.9602676891589167,"68":0.07498353832521934,"69":0.331314994484724,"70":0.032883377746313606,"71":0.1688295448720973,"72":0.42323895240816967,"73":0.15427823258333287,"74":0.17393119301216817,"75":-0.13587827474528025,"76":-0.13728915072897258,"77":0.11954777473645208,"78":0.1695379906656989,"79":-0.9466424803645765,"80":0.5643744066942505,"81":-0.5321247388014531,"82":0.12648353346668378,"83":-0.1896332735897851,"84":-0.046310751408923115,"85":0.1718504932415397,"86":-0.11781877655058476,"87":-0.15484620093920562,"88":-0.38842521044028433,"89":-0.020416719296512047,"90":0.4959089159115033,"91":0.16819297875451747,"92":0.6793774608836248,"93":-0.04831803108231417,"94":0.2909794666851509,"95":0.465139744845048,"96":0.4949088246967344,"97":-0.7363953207538819,"98":-0.734310477624743,"99":-0.1404153686870902,"100":0.35498595321208276,"101":0.24144268660254262,"102":0.20045884145093026,"103":0.04664236034780921,"104":-0.052250281406484446,"105":-0.120455510229056,"106":-0.48872864427785573,"107":0.02457092645393694,"108":0.25634766255596053,"109":-0.21628151099056378,"110":-0.7709280754017501,"111":0.7027669294109455,"112":-0.04796279149908239,"113":-0.7279830970004763,"114":-0.42513816956589257,"115":0.2586153455467302,"116":-0.40788172046071286,"117":0.12956191452521823,"118":0.17929506721056757,"119":-0.42577783606545805,"120":-0.250864683974708,"121":-0.08005179551916343,"122":-0.18935696344549333,"123":-0.07745787748485779,"124":0.6829919897789675,"125":-0.38656087547387524,"126":-0.23490200180545898,"127":-0.09368723128616088,"128":-0.31518170038003274,"129":-0.1697275891138663,"130":-0.5082355320895117,"131":-0.7262245503337248,"132":-0.04747260654720858,"133":-0.4606718017476333,"134":0.2509379163433484,"135":-0.07179681863192285,"136":0.16329146939691225,"137":-0.31171416023008597,"138":-0.6671794653976288,"139":-0.09794369098951802,"140":-0.23559053865995375,"141":0.4996151310221738,"142":0.03108614208346785,"143":-0.3790531503263048,"144":-0.41755645241792505,"145":-0.5010700255827647,"146":-0.09969022838318181,"147":-0.06672549940871356,"148":0.19252926590070388,"149":0.05177238937499263,"150":0.26325058899567355,"151":-0.1825336633702834,"152":0.36843126419928846,"153":0.237741439361226,"154":-0.24544003366133965,"155":-0.2661787186965314,"156":-0.24311860721711984,"157":-0.27704276154698104,"158":0.13321205432077377,"159":-0.3259356528727696,"160":0.3826329175664782,"161":-0.32218073840453465,"162":0.12626949926716433,"163":0.36996751402962696,"164":-0.15969605168476442,"165":0.2331739014355869,"166":-0.15052663907514685,"167":-0.45827094519222056,"168":-0.33251499269332613,"169":-0.3098227114964145,"170":-0.43721691817236863,"171":0.0499208714398549,"172":0.1262335757358106,"173":-0.006853585402959095,"174":0.3369236039479587,"175":-0.10334673673124205,"176":0.6672147718799399,"177":0.06331432468387649,"178":0.3062749397406323,"179":0.06794514389170037,"180":-0.22258775995907548,"181":-0.31767576503304157,"182":-0.07886933079338733,"183":-0.07511125772290131,"184":0.2503188659516449,"185":-0.3693205313368141,"186":-0.35242040971109406,"187":0.25107360793941436,"188":0.22633388174236443,"189":0.38067227100948736,"190":0.13289507803736134,"191":0.1432725900190629,"192":-0.04308233226973478,"193":-0.19847839091320787,"194":-0.31763073956656485,"195":0.3988477721202638,"196":-0.31255896780768344,"197":-0.09754810202073366,"198":0.045664795974052506,"199":-0.11780602096537775,"200":0.35616905662128945,"201":0.0827617098745208,"202":-0.7223094650755654,"203":-0.25327071021968045,"204":0.46079505208822785,"205":-0.46551764230865383,"206":-0.30177901214272135,"207":-0.25377376427461634,"208":0.09382345876458413,"209":0.7058896533255997,"210":-0.26354893943322166,"211":-0.05683590691687237,"212":0.03666569952736542,"213":-0.59842290762557,"214":-0.23526597096459262,"215":0.2272673014536496,"216":0.20327016085720676,"217":-0.319977483115235,"218":-0.47495178053092796,"219":-0.08254632137777909,"220":-0.4147829308003097,"221":0.01229415817863844,"222":0.17747857495425245,"223":-0.0426512123156097,"224":-0.11826264844320285,"225":0.0819640423581102,"226":0.19676253895335424,"227":0.1950633277266877,"228":0.37086475489367476,"229":-0.3913945625855717,"230":-0.05543837590137011,"231":0.24511267292031522,"232":-0.08272189938131233,"233":0.029434699282887587,"234":-0.3118696378988056,"235":0.41511821387067716,"236":-0.17594964476834857,"237":-0.08019658520373532,"238":-0.39179250181074254,"239":-0.02766950603312419,