{"layers":[{"out_depth":3,"out_sx":32,"out_sy":32,"layer_type":"input"},{"sx":5,"sy":5,"stride":1,"in_depth":3,"out_depth":16,"out_sx":32,"out_sy":32,"layer_type":"conv","l1_decay_mul":0,"l2_decay_mul":1,"pad":2,"filters":[{"sx":5,"sy":5,"depth":3,"w":{"0":-0.10536816689379314,"1":-0.4274657613516733,"2":0.08088434993181595,"3":0.0047647947053736294,"4":-0.10877269610705276,"5":-0.009317398601885076,"6":0.3625775137017089,"7":-0.08003706223147336,"8":0.16908370435110903,"9":0.34423493479986056,"10":0.0616134108125838,"11":0.10154898295840892,"12":-0.04115113994879828,"13":-0.27380443530956955,"14":-0.19345856412718904,"15":0.100363568907267,"16":-0.10314395523333296,"17":0.28870356785985696,"18":0.24364198924242175,"19":-0.31522511743345294,"20":0.19411033059787827,"21":0.17059732171721426,"22":0.02779230197487859,"23":0.2799872096835251,"24":-0.04440228003208125,"25":0.04498087951677208,"26":0.400253637524548,"27":-0.061079797858535595,"28":-0.28139649226878255,"29":0.09597340660423649,"30":-0.012500820027669406,"31":-0.45105056623715223,"32":-0.08339962062736749,"33":0.14476239535738317,"34":-0.059306154516382256,"35":0.33582984844430724,"36":0.00811102181233684,"37":-0.15259137925153737,"38":0.008625022544734698,"39":-0.08120707216799465,"40":-0.31003557861880554,"41":-0.008031426103716646,"42":-0.2596753299043484,"43":-0.5011857037970096,"44":0.11443662209325914,"45":0.09633435334194422,"46":-0.22758991160302475,"47":0.13807278155357475,"48":0.18768886578504776,"49":-0.0666242913251962,"50":0.2837745231013287,"51":0.3066810232001241,"52":-0.20615330205425592,"53":0.5291122166442918,"54":-0.10541517271574762,"55":-0.14243769178135704,"56":0.12995096668779413,"57":-0.35236191072905204,"58":-0.3428838294657988,"59":-0.0002551557138066737,"60":0.2503940899814976,"61":-0.1997610402964889,"62":0.2400930284373732,"63":0.13655406549127327,"64":-0.05866224051019702,"65":0.38800116602945167,"66":-0.03261252833532597,"67":-0.13664588532698957,"68":0.48135104135457385,"69":-0.03349276773254714,"70":-0.11010356301270152,"71":0.36857193113280384,"72":-0.20560818050417118,"73":-0.4202249325145426,"74":-0.09475895766489972}},{"sx":5,"sy":5,"depth":3,"w":{"0":0.0287619881648722,"1":-0.17552448872311927,"2":0.05985045893835616,"3":-0.014786441267573398,"4":-0.07214105930315881,"5":-0.237104518367427,"6":-0.11533880269788735,"7":-0.06673673780842293,"8":-0.11452142802623252,"9":0.06264628785382519,"10":-0.2068638270912903,"11":-0.33613595214364533,"12":-0.05939743585891103,"13":-0.3608951738113276,"14":-0.14964690876455516,"15":0.04807215646673095,"16":0.14414047590958287,"17":0.2154377522246285,"18":0.022316369561212065,"19":0.04672042410185365,"20":0.03456230892501982,"21":0.18026023075420422,"22":0.021296755105511187,"23":-0.0472929221427195,"24":-0.20620818521076667,"25":0.26585726219669054,"26":0.16866171296867996,"27":-0.4717020316446984,"28":-0.24716254599712065,"29":-0.14890923314379548,"30":0.2883868855143966,"31":0.24343430592840926,"32":0.19435924845930277,"33":0.384312542914023,"34":0.29588290591177063,"35":0.08236082788446059,"36":0.38106370988256616,"37":0.1868263222132597,"38":0.009270915602722998,"39":0.1523599503074646,"40":0.1482808603799109,"41":0.10158453361801231,"42":-0.18697032202312355,"43":0.2998084861784637,"44":-0.0018843355792306528,"45":0.04429510754164384,"46":0.11152983263884919,"47":0.35220465032764814,"48":0.13297613914807074,"49":0.062066865869489216,"50":0.20154110258650482,"51":0.14557445979676373,"52":0.26787494986924854,"53":0.032072591689447254,"54":-0.21790613136250067,"55":-0.12711473134335327,"56":-0.23683205406633276,"57":-0.1405507763206822,"58":-0.10903562961324312,"59":0.13222704648458766,"60":0.18924952480177548,"61":0.020486728430085137,"62":0.08208936360892143,"63":0.06634472431650866,"64":0.17179576342526615,"65":0.16420438817732289,"66":0.14850061903024694,"67":0.1699935167646386,"68":0.12137591272632411,"69":0.14537051668547632,"70":-0.18834345153181828,"71":0.1440322294876195,"72":-0.006771817461578811,"73":0.12338077490264579,"74":0.09108551453170914}},{"sx":5,"sy":5,"depth":3,"w":{"0":0.06923742569247732,"1":0.09774874298964693,"2":0.1410857452700913,"3":-0.13308149915348697,"4":-0.010896900221976211,"5":-0.04440890328054614,"6":-0.30788889879211223,"7":0.17975435858701488,"8":0.1018869874758844,"9":0.00830921216941148,"10":0.24221361528732416,"11":0.37143076332463154,"12":-0.03924090730577155,"13":0.28556981339291354,"14":0.3821623400902007,"15":-0.1007612394966744,"16":0.19087115100661883,"17":0.13143961874362042,"18":-0.29181883687679583,"19":-0.09482167283419848,"20":0.1125475027497253,"21":-0.5499050009555879,"22":-0.11964942136216526,"23":-0.06025612634969563,"24":-0.14546776421536511,"25":0.16863732140200674,"26":0.3140838436203493,"27":-0.10321712135996731,"28":0.037304419185355445,"29":0.12309960109028005,"30":-0.41499327520211293,"31":-0.056526930496151595,"32":0.052631830771075146,"33":-0.5156800421814444,"34":-0.08059205237302369,"35":-0.14792861894953713,"36":-0.7068346199059592,"37":-0.22588643857026397,"38":-0.09443598775631985,"39":-0.2533625003760881,"40":-0.16106355670445494,"41":0.05981678000728326,"42":-0.3047466161864572,"43":0.011749185183419565,"44":-0.2852276930773541,"45":-0.4561916257874724,"46":0.17788894607578007,"47":-0.006497996664372151,"48":-0.14579042306129822,"49":0.1384562283288098,"50":-0.02320794078506063,"51":-0.20608833962686945,"52":-0.04226984502292597,"53":-0.17579939842541373,"54":0.14898180895069352,"55":0.001275035340948341,"56":0.36373805619041333,"57":-0.22664174497820938,"58":-0.1237976723787747,"59":0.038231514884181694,"60":-0.2930169936101923,"61":0.19670639855944774,"62":-0.046288929881994935,"63":0.16806368688299542,"64":0.26502066643432937,"65":0.0261803431545199,"66":0.3870415728965772,"67":0.3672870608616277,"68":-0.0326692705723557,"69":0.4647896284358359,"70":0.4665284189408438,"71":0.25971111362293886,"72":0.015898226792567006,"73":0.06604037744738304,"74":-0.210291143344678}},{"sx":5,"sy":5,"depth":3,"w":{"0":0.0012150964460703054,"1":0.39222329165961767,"2":0.1170212508823938,"3":-0.1957418707719744,"4":-0.06435656696493161,"5":-0.37868345593169445,"6":0.2745100221236861,"7":0.2225675380598243,"8":-0.0042509202318929415,"9":0.3677749370391405,"10":0.09726146186239622,"11":-0.10701372065734065,"12":0.3334771290742042,"13":0.2679920262495143,"14":-0.08487654357391841,"15":-0.09962378768743796,"16":0.1666091668285813,"17":0.0495405014658188,"18":0.0428903257466627,"19":0.18564914410872374,"20":-0.16613042566956068,"21":0.08343202346016086,"22":-0.13003096349730597,"23":-0.11471899383014027,"24":0.5663605746492585,"25":0.14419782759637012,"26":-0.46384770779831325,"27":0.6792596052310667,"28":0.12915187611991152,"29":-0.3839930311055374,"30":-0.31523624171854325,"31":0.01622196615142378,"32":0.3729302783294768,"33":-0.4873584085314243,"34":0.10632001530620959,"35":-0.16305045253830225,"36":-0.21030419844938578,"37":-0.037134011346698366,"38":-0.20763649665507206,"39":0.106573957359904,"40":0.08137135857616212,"41":-0.2333941413553086,"42":0.25233561511769953,"43":-0.09048047727288218,"44":-0.2339339246763945,"45":-0.5491935377172015,"46":0.15037930708680214,"47":0.4300205306118031,"48":-0.5457301218540275,"49":0.025031206833603336,"50":-0.09789280711409118,"51":-0.43311800259356614,"52":-0.13031158634323736,"53":-0.08941531203699739,"54":0.15504720737298094,"55":-0.2715006213291453,"56":-0.14999401413866015,"57":0.1593748281122447,"58":-0.16112840793387442,"59":-0.3869440811634582,"60":-0.44674468322903005,"61":0.14557939135582443,"62":0.19705590032308445,"63":-0.14014297865015282,"64":0.19869694594053605,"65":0.34499417689788703,"66":-0.3167588940025997,"67":-0.02105950797626103,"68":0.09664209597019188,"69":0.0031033547964854336,"70":0.08146891530704348,"71":-0.009578451947350077,"72":0.2223971723745742,"73":0.09486026746622064,"74":0.12670403323015417}},{"sx":5,"sy":5,"depth":3,"w":{"0":0.0730082778323917,"1":0.55232660619402,"2":0.009912664572169607,"3":-0.009404043996819522,"4":0.4328566329451494,"5":-0.057509436125017126,"6":0.024758775281128208,"7":0.27317051862448605,"8":0.15307809644901027,"9":-0.20718289491345682,"10":-0.13304332163137797,"11":-0.06534982674057492,"12":-0.3696724536673994,"13":0.04543141676236204,"14":0.11587246312040117,"15":0.11400132882399831,"16":0.2655555659483913,"17":-0.27669010530439103,"18":0.43143794201875835,"19":0.3599474203477646,"20":-0.037041432465885454,"21":-0.054781814903602004,"22":0.2121795975672402,"23":-0.08984242756967467,"24":-0.19815661406004595,"25":0.07367134644455645,"26":-0.05676054833318887,"27":-0.37890901508801306,"28":0.31431313944930606,"29":0.18670634619684678,"30":-0.2724739580139624,"31":-0.17078347105491196,"32":-0.518528060339924,"33":0.18667703265703697,"34":-0.10424865792610787,"35":-0.4486061448359117,"36":0.009916043152850138,"37":-0.26045342217570755,"38":-0.5537576965359932,"39":-0.3845726825953464,"40":-0.1432480652273381,"41":-0.32070665561667283,"42":-0.2645608437052081,"43":0.26659169363760005,"44":0.24974029336485742,"45":0.1101217050784008,"46":0.06788716015521955,"47":0.007222637242725559,"48":-0.010130702037844391,"49":-0.21977224986257693,"50":-0.818338616791744,"51":-0.04321417250635157,"52":-0.17306639338793733,"53":-0.5408275325206354,"54":-0.1306767820714356,"55":0.1007023557116239,"56":0.08391485296386736,"57":0.23015959061545832,"58":0.6820696425016288,"59":0.7273242970432946,"60":0.3583871922160635,"61":0.7163835879998339,"62":0.3520080242691515,"63":0.043240233014764165,"64":0.1780541955436032,"65":-0.3685036221497453,"66":0.09251641170399993,"67":0.15394063286126525,"68":-0.3989715291267545,"69":-0.2309363219585804,"70":-0.1565312083881906,"71":-0.16595739559202802,"72":0.13081220828355908,"73":0.37895153218875444,"74":0.5682428038433577}},{"sx":5,"sy":5,"depth":3,"w":{"0":0.05558376671821275,"1":0.09642111405371506,"2":-0.0903205421098336,"3":0.11330257946859543,"4":0.17773660074656766,"5":0.0589444178177464,"6":0.3126016520921937,"7":0.1576890663937516,"8":-0.13841503384604117,"9":-0.10204211507937944,"10":-0.19175754363753222,"11":-0.5876739380115067,"12":0.18973469630313655,"13":0.04083527093036785,"14":-0.2533354284869692,"15":0.08481072385907781,"16":0.16880048149667876,"17":0.2912942182872378,"18":-0.03186731107425254,"19":0.10627831181030882,"20":-0.097688018842449,"21":-0.0937563719171506,"22":0.0705139177921695,"23":-0.09102798180861948,"24":0.09947033968449456,"25":-0.024388771139619164,"26":-0.2373474502729091,"27":0.027253161088943677,"28":-0.1870023623149495,"29":-0.2695872633919108,"30":0.009534024849660717,"31":0.0521880238524789,"32":0.3821589728129015,"33":-0.048123863604684014,"34":0.09287752248769393,"35":0.38900667453774995,"36":-0.22903404901836416,"37":-0.11660635348783684,"38":-0.1094807039139624,"39":-0.04363347419398032,"40":0.07209930359089303,"41":-0.018059498274178173,"42":-0.31856185408019044,"43":-0.35063297952557915,"44":-0.24004174473297146,"45":-0.09443382262357038,"46":0.06189706532177487,"47":0.30889821202157575,"48":0.05975916352361223,"49":0.3016650246137908,"50":0.19712257486634904,"51":-0.0643432263344044,"52":0.17763953586812656,"53":-0.09546440929258149,"54":0.026721138845123428,"55":-0.3742513899490085,"56":-0.2121669147126004,"57":-0.18206404591327907,"58":0.08304951871559287,"59":-0.01830946072990284,"60":-0.0765359262276002,"61":-0.1028137623899189,"62":0.016959977962894526,"63":-0.3524083820141783,"64":-0.21952457887824092,"65":-0.020363762314163425,"66":-0.18197136709891806,"67":0.07425215226018687,"68":-0.0407116134357683,"69":0.12841690562810998,"70":-0.02870393025458176,"71":-0.23177554265326,"72":0.3802308964241396,"73":0.24331005830268815,"74":0.11816710804543262}},{"sx":5,"sy":5,"depth":3,"w":{"0":0.12989191622680143,"1":-0.21074025736129448,"2":-0.3230928333697588,"3":-0.0040406593343081795,"4":-0.3655995303284654,"5":-0.4729588133053031,"6":-0.16350496528446204,"7":0.03130383228292712,"8":-0.25772970277261126,"9":-0.31564805441409743,"10":0.2694412532755218,"11":-0.06757377727925909,"12":-0.344486128958306,"13":0.026889009893461876,"14":-0.23762932134814022,"15":-0.27675707408116107,"16":-0.02531848748739358,"17":-0.31987527597579885,"18":0.18662867968587055,"19":0.1785040899252449,"20":-0.18693290040460742,"21":-0.05837831146014498,"22":0.23906865827789225,"23":0.15173098663897927,"24":-0.025917622626017902,"25":-0.07968992052273469,"26":-0.06524353857951287,"27":0.11902806241757355,"28":0.4592434838913818,"29":-0.29229528863642923,"30":-0.056488240251778135,"31":-0.0334994320122014,"32":-0.13083639518099452,"33":0.03239884928633204,"34":0.1487587356281951,"35":-0.010320301550650293,"36":0.16923611655651485,"37":0.39303831761567104,"38":0.14890620779182365,"39":0.2592967444824599,"40":0.2108590763736514,"41":0.09704703289480396,"42":0.013109113567057334,"43":0.22394308239341015,"44":-0.44956694457008195,"45":-0.1681164019611552,"46":0.028548935046475203,"47":-0.0584729535437842,"48":-0.11728472543002347,"49":0.05140993802714371,"50":-0.03244585135223506,"51":0.16310690054380692,"52":0.4152712993860923,"53":0.24243954583484173,"54":-0.03633353926265345,"55":0.22691175213460785,"56":-0.3953223834889106,"57":-0.11545841448373192,"58":0.03324690491422014,"59":-0.3670519331966334,"60":0.3314219985170969,"61":0.3316663170280539,"62":-0.04849485363470485,"63":0.21150243574862077,"64":0.08586973628695257,"65":0.10335363282766477,"66":-0.11796743657734565,"67":-0.16109222450825286,"68":-0.41932581014939546,"69":-0.41688441365890644,"70":-0.029664568393461536,"71":-0.31187811263368737,"72":-0.34072935781706837,"73":-0.03654408709405554,"74":-0.39252795527365425}},{"sx":5,"sy":5,"depth":3,"w":{"0":-0.2355550728857924,"1":0.24975035259630862,"2":-0.09615521631482578,"3":-0.19245648173153443,"4":0.5020396140777618,"5":0.17726577541055458,"6":-0.02288406424906206,"7":0.13020147237738122,"8":0.1197400061588115,"9":-0.2636206164954654,"10":0.05503090217999293,"11":-0.1645507022715853,"12":-0.4541627053361206,"13":-0.12485471903185294,"14":-0.32951064094502946,"15":-0.2041611788691639,"16":0.21253606641069772,"17":-0.06922033567867496,"18":-0.5603996009461776,"19":-0.03411823875435811,"20":-0.09466800823863841,"21":-0.3069774490191102,"22":0.15292888918657796,"23":-0.02185255700649282,"24":-0.010423960206368092,"25":0.24595371010822606,"26":-0.015384250719046035,"27":-0.3427574820373705,"28":-0.34016929287807895,"29":-0.11596480567849136,"30":-0.05925100232841725,"31":-0.1811443640457537,"32":-0.346225344787893,"33":-0.020642430448556022,"34":-0.10431349956503201,"35":-0.48101286636841317,"36":0.1745811645433785,"37":0.44676481070971785,"38":-0.1402636274934256,"39":0.06618784672286059,"40":0.010473217662807325,"41":-0.282880258139965,"42":-0.1208686947387897,"43":0.10751609173010368,"44":0.007771878612111165,"45":0.1855582564241298,"46":-0.04527705311119796,"47":-0.462862459322479,"48":0.35233756526941157,"49":0.12154917173986507,"50":-0.12192605415571983,"51":0.3463653700750246,"52":0.28497801354169106,"53":0.17407548349095678,"54":-0.038757247719755646,"55":0.07218266220231305,"56":-0.2774815019445803,"57":0.4184770376101144,"58":0.4076838249166711,"59":-0.02831359119073609,"60":0.30382097648800055,"61":-0.06836778342762932,"62":-0.4854301738510065,"63":0.5212482873928889,"64":0.28306021279784355,"65":0.058069530676773756,"66":0.4283412188826435,"67":0.13443361164162057,"68":-0.124147190330817,"69":-0.10440346923207781,"70":-0.008877219866617544,"71":-0.11794712760906714,"72":0.008208258975702636,"73":0.1642922851578243,"74":-0.2894352793513745}},{"sx":5,"sy":5,"depth":3,"w":{"0":-0.1599368860229633,"1":-0.025859963420448117,"2":-0.6078840092197938,"3":0.08056794556694379,"4":0.00013978881501692316,"5":-0.44472494590061373,"6":0.258641242320399,"7":0.37077076838681056,"8":-0.2411477491485658,"9":-0.05694814916477538,"10":0.2537809053237821,"11":-0.2371274687294959,"12":-0.024213476741983295,"13":0.2629406806654709,"14":-0.04734869550615253,"15":0.03817859644908879,"16":0.11260396893170367,"17":-0.2512887993094959,"18":-0.08589510752578883,"19":-0.33026555351076897,"20":-0.4334641444789962,"21":-0.13147686410056098,"22":0.17806431498320835,"23":-0.3656450858014783,"24":-0.2484128254750496,"25":0.27615716699587395,"26":-0.108665518820972,"27":-0.13729675813067113,"28":0.24864755028542196,"29":0.2439832633620923,"30":0.07058529853052178,"31":0.23939057198607308,"32":0.025271574743307233,"33":0.1799323475124885,"34":-0.06320042714199205,"35":0.0425529043209119,"36":-0.019450121375405593,"37":0.3103444697934437,"38":0.0893879858282908,"39":0.015598077391755005,"40":0.5188003856427955,"41":0.12555942561171507,"42":0.0927000065518176,"43":0.3217883844127482,"44":-0.11496294393883202,"45":-0.04976292734801379,"46":-0.01702077933416615,"47":0.16840113391109288,"48":0.020043265900514248,"49":0.2580889277087032,"50":0.2999443516982703,"51":0.12175945729687047,"52":0.39978320114582194,"53":0.10121297267516643,"54":0.1208906861213475,"55":0.1485780630709832,"56":-0.09880428863385664,"57":-0.27061608526429276,"58":-0.020444553056282462,"59":-0.5166748405526297,"60":0.029693178184577573,"61":0.22376035593544186,"62":0.22494738147214008,"63":0.203565538224766,"64":0.6209336946463316,"65":0.16699206381277978,"66":-0.0024368776359926696,"67":0.2148869073804653,"68":-0.035170494044677314,"69":-0.15841976169881689,"70":-0.09749922851231614,"71":-0.5186003196888211,"72":-0.20666203813198059,"73":0.19855799006759134,"74":-0.5477617179467711}},{"sx":5,"sy":5,"depth":3,"w":{"0":-0.04666191125804943,"1":-0.06741089102267663,"2":0.06695284292775958,"3":-0.28489369571718726,"4":-0.02114192107060906,"5":-0.02075118252482422,"6":-0.3272901821026766,"7":-0.13119444216542428,"8":-0.09189084273759753,"9":0.05412005571305751,"10":0.1324778574944924,"11":0.24406172739596627,"12":-0.19294760602586727,"13":-0.017741801803936672,"14":0.017216540093641687,"15":0.04112430593792451,"16":-0.0821242373359641,"17":0.24897829135187194,"18":-0.25795113726185454,"19":-0.17189693514465212,"20":0.23429191908958147,"21":-0.302956331747504,"22":-0.21855887192901446,"23":-0.1080435355260668,"24":-0.19992503371811923,"25":0.002456921454542408,"26":0.08413541617114871,"27":-0.16808607056544586,"28":-0.3548831944222838,"29":0.13024680427594132,"30":-0.17227889633358875,"31":-0.24326540461690432,"32":0.07988553906552578,"33":-0.04524904316784384,"34":-0.17972464477153943,"35":-0.16624819852580183,"36":-0.3574763743738747,"37":-0.16691696770005113,"38":-0.42652129606768613,"39":-0.027888521308172973,"40":0.09088754413123729,"41":0.41350017789105536,"42":0.0032241598884432277,"43":0.03905984222810532,"44":0.30929229295723987,"45":-0.24549403877102668,"46":-0.10384966505964002,"47":-0.03468847917989343,"48":0.057437033563815465,"49":0.04907626052739729,"50":0.3593964777291633,"51":-0.15292029025872175,"52":-0.23569208118734825,"53":0.11145516683690045,"54":0.06978699424873082,"55":-0.05084483943800439,"56":0.43787298466046853,"57":0.038841112439053846,"58":-0.045977694491581386,"59":0.40886711315560886,"60":0.10017722523877352,"61":-0.021557499453529066,"62":0.14909892649443118,"63":0.018527136180374826,"64":0.13260653395890898,"65":0.3337071218990279,"66":-0.1498920266776257,"67":-0.08642186314833462,"68":0.05640565333759161,"69":-0.04440118840926762,"70":0.29604739805361086,"71":0.11184108410205294,"72":0.057774331815769964,"73":0.16506324525444124,"74":0.24932398620106155}},{"sx":5,"sy":5,"depth":3,"w":{"0":-0.2643144605709579,"1":0.08839309106801745,"2":0.08253271875680065,"3":-0.33222971366958204,"4":0.03151231559063736,"5":-0.24909981253576938,"6":-0.5868821990806795,"7":-0.1092272685205601,"8":-0.04473329342805301,"9":-0.10021774540765142,"10":0.26495975792533527,"11":0.2951373549607488,"12":-0.018781582040995115,"13":0.02846640861157918,"14":0.18231633286363386,"15":-0.0011926034315929586,"16":0.31026078099720544,"17":0.07847155690255424,"18":-0.1635064512406479,"19":0.05205604544198246,"20":0.15361673037172827,"21":-0.05710409333865936,"22":0.0756442223366123,"23":0.14882602701130973,"24":0.2333169267319774,"25":0.16698413753682817,"26":0.3779033541387838,"27":0.09590721592930723,"28":0.3684460869922243,"29":0.2839679407151679,"30":-0.07794506205956216,"31":0.19826185925904075,"32":0.13052148988380458,"33":-0.24215856998551916,"34":-0.03387281836280939,"35":0.00815222464335254,"36":-0.4031656086416724,"37":0.04576809833928384,"38":-0.14694146731952723,"39":0.027076191033311978,"40":0.21359547794872316,"41":0.2686706083356862,"42":-0.27589642205286513,"43":0.13785779043188032,"44":0.2650395786289239,"45":-0.15806359171326093,"46":0.29436080894321703,"47":-0.0704794472258365,"48":-0.13083301252053398,"49":0.018686543737005526,"50":-0.22671343344847952,"51":-0.5166070702561028,"52":-0.01975271720948782,"53":-0.31593214246053447,"54":-0.12545496196148698,"55":0.16634076870316866,"56":0.2039371743102354,"57":0.04256397164552449,"58":0.2632869518442728,"59":0.33951558421654876,"60":0.19747558263339496,"61":0.16482343640465585,"62":-0.26341707629883804,"63":-0.24080913461170753,"64":0.08605560461508807,"65":-0.26589828770894164,"66":-0.2579286139383902,"67":-0.1276723716200434,"68":-0.25312494567030214,"69":-0.09613273456150737,"70":0.24968718907434723,"71":-0.029519371652692566,"72":0.10645720823274679,"73":0.3878645140450049,"74":0.1017905477313494}},{"sx":5,"sy":5,"depth":3,"w":{"0":0.2105303015799963,"1":0.36255933707665994,"2":0.48177499341117325,"3":0.24790926326706775,"4":0.4461038506198222,"5":0.40200362605561835,"6":0.1578073153132172,"7":0.04791934130532159,"8":-0.11376191012372583,"9":-0.028178856066297196,"10":-0.07342925648501303,"11":-0.024257379806627493,"12":-0.027867121452556733,"13":0.11710639076252796,"14":0.0018614446453061881,"15":-0.030155905069689702,"16":0.19067446653305295,"17":0.254961086016985,"18":-0.09846925494077619,"19":0.14418445414034728,"20":0.21754497401109807,"21":0.20142773439301764,"22":0.14488284638787477,"23":0.16374900427379008,"24":-0.18949471159242365,"25":-0.37714962696373505,"26":-0.0529972409837757,"27":-0.12746238319119782,"28":-0.0850505262251542,"29":0.13702035188330164,"30":0.051078599746070444,"31":0.10598088466690349,"32":0.08033557270600511,"33":-0.07571648512613584,"34":-0.04182858479111194,"35":0.11533786242902763,"36":0.18506354570969488,"37":0.01813280477521532,"38":0.09348182504551422,"39":-0.1133751350892237,"40":0.12618731633851119,"41":0.19420213939188039,"42":-0.11445677214737952,"43":0.10276556304999078,"44":0.25763553007684425,"45":-0.11071548752419272,"46":0.12587628313204044,"47":0.15134871306037545,"48":0.06374748637124619,"49":-0.16268391111852853,"50":-0.2932493749716199,"51":0.1282991245181548,"52":0.018698904509667002,"53":0.09554951931165473,"54":-0.10282322181338217,"55":0.19064715555213102,"56":0.21545893763554877,"57":-0.15929996484849532,"58":0.04577729304620001,"59":0.12821957095755454,"60":0.193270255423425,"61":0.30314250929518555,"62":-0.05600164902988352,"63":-0.1805696309258074,"64":-0.29853563316187665,"65":-0.38348942340114556,"66":-0.4203273530690475,"67":-0.47259512987187424,"68":-0.535518145019115,"69":0.2119641706835847,"70":-0.04538861484867919,"71":0.033131259384915825,"72":-0.14859174283996948,"73":-0.10968682554145964,"74":0.08703537074814188}},{"sx":5,"sy":5,"depth":3,"w":{"0":-0.3397577530554632,"1":-0.056409883739835374,"2":-0.16430322987224436,"3":-0.06703927733398013,"4":0.5001074674517912,"5":0.44147701321900784,"6":0.09022368511684671,"7":0.39134818548600686,"8":0.2070684479210794,"9":-0.14857855349620838,"10":-0.09059988806820098,"11":-0.3356600023075294,"12":-0.03184731960355634,"13":0.0242857533457627,"14":-0.28866553714263626,"15":-0.2795947740307553,"16":0.07199434263834469,"17":0.010284886984797454,"18":-0.13535863739520787,"19":0.37249868204319037,"20":0.26474528905823264,"21":0.10520725538420422,"22":-0.1351573447533577,"23":-0.09092945154117066,"24":0.11559531613767217,"25":-0.5202833482709056,"26":-0.42785428931906083,"27":0.3762764777676063,"28":0.0506407688122471,"29":-0.05184695589764576,"30":-0.39669384948875797,"31":0.08011014115406545,"32":0.2890533303181301,"33":-0.06358291129556118,"34":0.2402254884964927,"35":0.32590511201212957,"36":0.2074016266155035,"37":-0.2928788116578936,"38":-0.45665527001817885,"39":0.2269819075671576,"40":-0.33874074493843354,"41":-0.3246588733767204,"42":0.2704888155953017,"43":0.467230527307498,"44":0.16997516076261399,"45":0.1320849203320703,"46":-0.04831307308190115,"47":0.32506772553357066,"48":-0.024540545685348216,"49":-0.10195053125520356,"50":0.026382615726986053,"51":-0.1125604307342135,"52":-0.32124060441494756,"53":-0.13843694843203222,"54":0.36450431374511716,"55":-0.024693189753131076,"56":-0.02760685595110384,"57":0.22579325385059879,"58":0.1259079796241366,"59":0.015954121478515517,"60":0.2254750772536733,"61":-0.26047481175532866,"62":0.29419269968089634,"63":-0.09009817163659926,"64":-0.5219066321431394,"65":-0.054822309701592846,"66":0.3166406103613268,"67":-0.42508849293851875,"68":-0.026843614651397636,"69":0.2921552989473763,"70":-0.33458744381097094,"71":-0.15460516471344846,"72":0.22073965922647912,"73":-0.1061532082439658,"74":-0.07506094579699299}},{"sx":5,"sy":5,"depth":3,"w":{"0":0.17502324073156825,"1":0.341084226553079,"2":-0.004534249053233927,"3":0.19996207424118262,"4":0.007436244264529019,"5":0.05315805688835759,"6":-0.04494325168216486,"7":-0.11069736009883796,"8":-0.19714437636394674,"9":0.1227308614466622,"10":-0.13414941007082382,"11":-0.27542095384359955,"12":0.28304468091116325,"13":-0.1878072607320857,"14":-0.04354582517463089,"15":-0.11344673240820423,"16":0.2985604100552114,"17":0.27454677006779,"18":-0.07688182353199687,"19":-0.008497388620836644,"20":0.13455113703877322,"21":-0.13410401004247835,"22":-0.18826126223539688,"23":0.20573164628761928,"24":-0.00032457094650602226,"25":-0.09240604368881111,"26":0.09289995597628824,"27":0.08382574677052522,"28":-0.011603262696934163,"29":-0.11931562131669715,"30":-0.03467479227087546,"31":-0.07609775148603438,"32":0.27889166548421557,"33":-0.09944680587264479,"34":-0.34465734164986234,"35":0.13412339429221287,"36":0.15323691046187035,"37":0.10203662379199883,"38":-0.10473497723559429,"39":0.3794810415388455,"40":-0.18001937078218602,"41":-0.12086677697610419,"42":0.17768109653367914,"43":0.055678387401322194,"44":-0.07714749789200419,"45":-0.05255128111245136,"46":-0.16187178993578225,"47":0.10548665151898046,"48":0.19668330977895856,"49":-0.2365015551953801,"50":-0.23304998820953887,"51":0.15652896921458942,"52":-0.07651214792823637,"53":0.011235118897994723,"54":0.2996998653228544,"55":-0.14681063846904796,"56":-0.0029837965470675557,"57":0.27581385852781676,"58":0.22977890629517655,"59":0.0225046034111351,"60":-0.1667838680314026,"61":-0.18232687443298218,"62":-0.07091332207395398,"63":-0.000054938817289802494,"64":-0.26875209746468554,"65":-0.20235151830318304,"66":0.23051717907151958,"67":-0.16664274435147738,"68":0.0652275770486398,"69":0.42781810586333563,"70":0.06252854164520019,"71":-0.2019143729223971,"72":0.058309551594718935,"73":-0.08969634459961802,"74":-0.01596343342288022}},{"sx":5,"sy":5,"depth":3,"w":{"0":0.08410336109496609,"1":-0.11882742509963996,"2":-0.09345996674957087,"3":-0.04519028449417299,"4":0.024132194777477217,"5":-0.10509923185603365,"6":-0.060962621744425696,"7":-0.24196149339460057,"8":-0.24628084453782773,"9":0.19286014256887682,"10":0.15615319967309607,"11":-0.09746478972103483,"12":0.1564353277905229,"13":0.14184709337187903,"14":0.22318531176913647,"15":-0.4113861439869307,"16":-0.19719768664431095,"17":-0.34247700675487425,"18":-0.40713360507184865,"19":-0.2905714087543946,"20":-0.22874593398267057,"21":0.11965423324212728,"22":-0.06186436901353036,"23":-0.10987391403190469,"24":-0.192452885591431,"25":-0.021111443822831776,"26":-0.10627736444713883,"27":0.10739815794750285,"28":0.1010993937158456,"29":0.32986374833193044,"30":-0.36764532490948154,"31":-0.10138973349367744,"32":-0.14393698616066403,"33":-0.20141042254856928,"34":-0.02097032954450445,"35":-0.267143021945533,"36":0.26691455096860484,"37":-0.134406567301231,"38":-0.02228234677919309,"39":0.011252900206695726,"40":0.017836707913503502,"41":0.1192192273560245,"42":-0.008023491509089235,"43":-0.01107902641099367,"44":-0.11672709538289822,"45":0.08178172818887239,"46":0.08862547617020673,"47":-0.03276599492061458,"48":0.08277733100928854,"49":-0.051918155192639426,"50":-0.0009859895120528104,"51":0.0046657442782786435,"52":0.18448963034959043,"53":0.1553746846424399,"54":-0.04117242369938793,"55":0.0866792092244307,"56":0.21553714764721046,"57":-0.04845038872546875,"58":-0.038342955997732166,"59":-0.09729187932467298,"60":0.17506123346767002,"61":-0.017929171974995422,"62":-0.08594115672464413,"63":0.08228584259797474,"64":0.10354661256333768,"65":0.07756419099126378,"66":0.010939262839852805,"67":-0.21589170760033974,"68":-0.024192114705262308,"69":0.09884950118198295,"70":-0.14528668991344862,"71":-0.0217312799031961,"72":-0.04838588868562035,"73":-0.13422515246853714,"74":0.046626818514797115}},{"sx":5,"sy":5,"depth":3,"w":{"0":-0.02450608517806091,"1":0.16244411019856508,"2":0.17085037675972967,"3":-0.012334214720893907,"4":-0.0676686736033755,"5":0.1556426995885814,"6":0.02476617484319975,"7":-0.11177576006553154,"8":0.24361885535260924,"9":-0.22879732888576731,"10":-0.12216732430347124,"11":-0.013884198311016168,"12":0.04227886018401034,"13":-0.11880396961230306,"14":-0.0876314465060815,"15":0.11381366287927665,"16":0.207975684663105,"17":0.34691872994084694,"18":0.1835326512143639,"19":-0.034736568212237376,"20":0.3241057823489011,"21":0.007082916315755134,"22":0.17988474844343985,"23":0.45398198450968397,"24":0.2489021256603577,"25":0.06784119412974837,"26":0.30445950739337746,"27":0.04035073655038209,"28":0.0803910592245425,"29":0.29052730354978007,"30":0.026071086014523886,"31":-0.1465870338593113,"32":-0.025172413530280956,"33":-0.12926791572032345,"34":-0.5852036028342167,"35":0.06547125787760406,"36":-0.023968870242474138,"37":0.02274976742595596,"38":0.15540842794856882,"39":-0.14043076530819976,"40":-0.06725264740378575,"41":0.3448967746960977,"42":0.1302077758854888,"43":-0.06036376576494132,"44":0.11900100330626555,"45":-0.32086828748306157,"46":-0.27219322951793146,"47":0.12022876126482437,"48":-0.4178171448869497,"49":-0.5053632232202843,"50":-0.2493978616214427,"51":-0.24715734138637263,"52":-0.4820042033172297,"53":0.05952715397446049,"54":-0.029211984880811004,"55":-0.2443683898313688,"56":-0.3138150270751724,"57":-0.020792196100644027,"58":-0.4017350588443767,"59":0.004802403693681377,"60":-0.04003991525911101,"61":-0.1930149881265608,"62":-0.01404333416159532,"63":-0.0425436021518657,"64":0.10946684185946062,"65":0.11087701037566454,"66":-0.05104767728966003,"67":-0.34340221936661824,"68":-0.1839510337227108,"69":-0.16540336100178032,"70":-0.0019967589306147853,"71":0.28989043230571926,"72":-0.04472806806857429,"73":-0.07013752289140604,"74":0.034171926357158065}}],"biases":{"sx":1,"sy":1,"depth":16,"w":{"0":-0.4143698558463614,"1":-0.44516562103842167,"2":-0.12024268085682648,"3":-0.5888510706016635,"4":-0.6220907221715365,"5":-0.239434236811549,"6":-0.6973907950593634,"7":-0.49359966803594985,"8":-0.5370686452848619,"9":-0.48286298994023863,"10":-0.15616228971141782,"11":-0.5820235735651033,"12":-0.8517468036552474,"13":-0.6653004852980938,"14":-0.20996702510094273,"15":-0.19951343584921052}}},{"out_depth":16,"out_sx":32,"out_sy":32,"layer_type":"relu"},{"sx":2,"sy":2,"stride":2,"in_depth":16,"out_depth":16,"out_sx":16,"out_sy":16,"layer_type":"pool","pad":0},{"sx":5,"sy":5,"stride":1,"in_depth":16,"out_depth":20,"out_sx":16,"out_sy":16,"layer_type":"conv","l1_decay_mul":0,"l2_decay_mul":1,"pad":2,"filters":[{"sx":5,"sy":5,"depth":16,"w":{"0":0.18404743008191246,"1":0.25958858939497403,"2":0.036176810190352376,"3":0.1729046738951666,"4":-0.10337622739566257,"5":-0.06263681987950724,"6":-0.27766085041180166,"7":0.052944629633822134,"8":-0.1680225248977076,"9":0.19518717877264793,"10":0.18897784431556297,"11":-0.011375422551040822,"12":0.06841225132846578,"13":0.1331379992422574,"14":0.2114045535970589,"15":0.4313953445776185,"16":-0.028410714307256626,"17":-0.127652625388191,"18":0.13501585218886458,"19":0.15059434307415206,"20":-0.2931459608402287,"21":-0.09301635207959197,"22":0.24969182939936815,"23":-0.2834665886588925,"24":0.21561602653055037,"25":0.213418767564614,"26":0.1335057712608588,"27":-0.013329454064229026,"28":0.17072533606075113,"29":0.11332485270462359,"30":0.05362356415618914,"31":0.254948234789936,"32":-0.0506671896046614,"33":-0.3208424446623494,"34":0.11300769661192223,"35":0.16990391306322677,"36":0.17687907980875225,"37":0.08876897568527792,"38":0.0856390545825483,"39":0.01608468566898508,"40":-0.07198981323965341,"41":0.2980228403134727,"42":0.04691647715882387,"43":-0.08543386222651059,"44":0.24330341436718955,"45":0.06822802307223935,"46":0.10877223377074308,"47":-0.07886703007830835,"48":-0.12153088274900206,"49":-0.024931490428585844,"50":0.10223372847382482,"51":0.06130972127475519,"52":0.2556175124748888,"53":-0.20353617983829833,"54":0.19617836508562084,"55":-0.19143169565822654,"56":-0.20478564576248326,"57":0.17021448435930156,"58":0.3647317245888325,"59":0.24547942694741026,"60":-0.03735205883496941,"61":0.016323020906829543,"62":-0.011208203228984784,"63":0.15250479734876068,"64":0.21080754013849137,"65":0.13235776891415005,"66":0.03927113262818405,"67":0.021399609796347377,"68":-0.012919697435199627,"69":-0.10559112358372663,"70":0.0023052171892466115,"71":-0.1384934578981038,"72":0.08433655088731479,"73":-0.3601683065423141,"74":-0.02842142780519531,"75":0.26352622047028945,"76":-0.32026405081573806,"77":-0.2397899652005001,"78":-0.418661108956682,"79":0.20786051519399973,"80":0.01239178695867456,"81":0.08316292832560357,"82":-0.23530678774359165,"83":0.06447088295430513,"84":-0.255387525955812,"85":0.08619690161164338,"86":-0.1643233875594654,"87":-0.3349789831957686,"88":-0.09851986500296736,"89":0.012941432560557024,"90":-0.5068282713756873,"91":-0.07260467562618361,"92":0.19500046868161214,"93":0.05810203615713068,"94":-0.02185116115573574,"95":0.07425612091105593,"96":0.21004341364808268,"97":0.0185231768482929,"98":-0.09519633690027064,"99":-0.1449939733646233,"100":-0.2753995708137031,"101":-0.030136930125116583,"102":-0.020895050571571327,"103":0.12593792574691082,"104":-0.05957728852174792,"105":0.07041962506329413,"106":0.1826829927042118,"107":-0.14515953916212718,"108":-0.27228905541529985,"109":-0.15543480462262424,"110":0.05314779383576843,"111":-0.09578431641495536,"112":-0.0006072911638952136,"113":-0.34553789183902667,"114":-0.09112010617484813,"115":-0.026731098761916313,"116":-0.19523799060249142,"117":0.0890424224519541,"118":-0.10850426038451978,"119":-0.2380692162157678,"120":0.13787751839279702,"121":-0.027969366716368634,"122":-0.3622742511595219,"123":0.040996707061214985,"124":0.16201153094315196,"125":-0.07910544426957368,"126":0.24327584503693894,"127":-0.18367853753809688,"128":-0.033159100626190076,"129":-0.5399651216190672,"130":0.24674112007312876,"131":-0.17611284259655316,"132":0.33373202194702506,"133":-0.23819231304175856,"134":-0.35584698090895794,"135":-0.5098259602167752,"136":-0.1436309589797232,"137":0.5188931776906603,"138":0.44356399519238543,"139":0.0435691648604464,"140":0.08603875512807119,"141":0.1556690125028341,"142":0.4239262028158626,"143":0.13372744321287366,"144":0.28756795439635374,"145":-0.2267218809701324,"146":-0.07391420137163558,"147":-0.3130309415954363,"148":0.08818053973455225,"149":-0.1815735800363049,"150":-0.10845602626778575,"151":-0.46791006265646307,"152":-0.10289099293878964,"153":-0.07740880911223574,"154":0.1854114227194703,"155":0.0784379127562211,"156":-0.017038093632305764,"157":-0.21224687531438036,"158":0.023150393738937288,"159":0.3449111913201424,"160":0.0913753736024561,"161":0.20653214260264136,"162":-0.07688680733667626,"163":0.2547222572239532,"164":-0.34981164315074315,"165":0.29048271272709214,"166":-0.1806559085179678,"167":0.06752498824431588,"168":0.0009055414748454926,"169":0.0681082605679276,"170":-0.325730675328814,"171":0.22442877151584584,"172":0.319278785168006,"173":-0.10918129602739217,"174":-0.10058001300060625,"175":-0.0977533636938323,"176":0.005943745219019227,"177":0.17821695275472108,"178":0.16902122602345346,"179":0.10138618378014692,"180":-0.23359800295285854,"181":0.17578035935729167,"182":0.15952309678736692,"183":0.23663224433874558,"184":-0.06498243113431856,"185":0.03316467934056228,"186":0.2833613979860147,"187":-0.13561250331097,"188":-0.03301576861395849,"189":-0.01452484726334966,"190":-0.05382715939438873,"191":-0.2910219308558483,"192":0.09283084356457577,"193":0.09561692167898117,"194":0.20523493201860166,"195":-0.0502789166014895,"196":-0.00752013444564396,"197":0.14248463890723426,"198":0.1536411234984752,"199":0.2654771058622933,"200":-0.3407611740835999,"201":-0.22102207521742318,"202":-0.1583376492641494,"203":-0.11463246181643624,"204":-0.0020243052514566416,"205":0.04862111222373778,"206":0.27362971018707133,"207":-0.40011226162416796,"208":-0.021919432880852494,"209":0.1263137136015943,"210":0.5381596580163791,"211":-0.06972689434624271,"212":0.33590415552356273,"213":0.09515537898297788,"214":0.2564768133909791,"215":0.038534510759904106,"216":0.2426302467518728,"217":0.1876610753026879,"218":0.2039440825883989,"219":-0.09620189135341017,"220":0.08030969284668664,"221":0.2359333017754746,"222":0.4382287610202497,"223":-0.008403975630675535,"224":-0.461520807689652,"225":-0.08437830733697751,"226":0.18048080272937214,"227":-0.18513738248869485,"228":0.3446423686236093,"229":-0.06631127425182615,"230":-0.049843086269187674,"231":0.047758355160689735,"232":0.08266214229551963,"233":0.010997946295134392,"234":0.17202148446383939,"235":-0.15319730201872211,"236":0.14780776290131373,"237":0.005690730255211628,"238":0.3506043245429955,"239":0.11849502945995095,"240":-0.25177434779086727,"241":-0.2060287055223712,"242":0.17178112415531832,"243":-0.09797225131601112,"244":-0.014787531830515266,"245":0.08996412468842047,"246":-0.36557789005018493,"247":0.30686249140178906,"248":-0.02745951761845233,"249":0.018576868313387136,"250":-0.2836873729796738,"251":-0.35265790393640956,"252":0.02954550358336375,"253":0.06773514454327421,"254":-0.13275752418317555,"255":-0.34790709579372026,"256":0.018285678283739244,"257":0.14989791343865896,"258":-0.3158761104774418,"259":-0.22403324376702297,"260":-0.08601217697491133,"261":-0.07589108548181739,"262":0.007958993431307815,"263":0.527711737100578,"264":0.08284546062949914,"265":-0.163068817608373,"266":-0.028418069679507576,"267":-0.6169030106943408,"268":-0.2514780704963652,"269":0.07321372641547927,"270":-0.14346794143389582,"271":-0.6237774032713177,"272":-0.14960465510259388,"273":0.28314952946446253,"274":-0.04879940138355325,"275":0.1811655016346104,"276":-0.23429455595243875,"277":0.11344136748812345,"278":0.19199242034995606,"279":0.19255454351443185,"280":-0.06876748608486383,"281":-0.3782295300486702,"282":-0.24441809903981007,"283":-0.45129258314057485,"284":-0.2367071271178392,"285":0.18273188338812257,"286":0.19702828217870721,"287":-0.6992446362060802,"288":-0.23776410532493938,"289":0.1907287832887864,"290":0.2025645793920498,"291":0.24073008338950064,"292":0.06570635356462502,"293":-0.27396733703423004,"294":-0.07567597443823365,"295":0.0859411261089929,"296":-0.020334049174202302,"297":-0.31488760648971026,"298":-0.1472237150280537,"299":-0.46406942830537157,"300":-0.024717509614731993,"301":0.15607061935313796,"302":0.3882645752361069,"303":-0.18056964841036155,"304":-0.53420125681599,"305":-0.26443978098881593,"306":-0.12298186495977247,"307":0.18507446918814208,"308":0.2691837739295297,"309":-0.3760585419451358,"310":0.06394806123336748,"311":0.10351329824498254,"312":-0.22104358079081218,"313":-0.24023842888211402,"314":0.02077243110772877,"315":0.5412660044097175,"316":0.2970012999567196,"317":0.017993585103460868,"318":0.4047673695544602,"319":-0.06601724089492667,"320":-0.17165527973607297,"321":-0.16424589808312356,"322":-0.09256826029000946,"323":-0.2008287318878415,"324":0.0947882339244517,"325":-0.37503514119844766,"326":-0.15466694744401965,"327":0.0003201799514915189,"328":0.03700574214893178,"329":-0.10403578890007598,"330":-0.10260621629996648,"331":0.06566526508294239,"332":-0.21814447536431789,"333":0.08427050865146364,"334":-0.09045723218855027,"335":0.14910576459527175,"336":-0.11316584705280007,"337":0.11721006931853525,"338":-0.21491513397610876,"339":-0.10406050281085792,"340":-0.20131824574464005,"341":-0.0008381614938158471,"342":-0.026689953906871813,"343":-0.1422038806818168,"344":0.20692848963365534,"345":-0.12562982456017827,"346":-0.16332446952695684,"347":-0.2667650160370023,"348":0.4065693146779823,"349":0.026666072972546986,"350":-0.006605413433654898,"351":0.02925559729210845,"352":-0.05965201068258049,"353":0.16558127946341913,"354":-0.16346300954289897,"355":-0.21120883998597592,"356":-0.32441024733630386,"357":0.17696927929506456,"358":0.1372548502490261,"359":0.4580846395922874,"360":0.2188264736843198,"361":-0.09474457290938204,"362":-0.3086259074994193,"363":-0.09335092224968056,"364":0.33437345040122846,"365":-0.039285237060339935,"366":-0.21100481654987777,"367":0.04894153253932701,"368":-0.15022088361321864,"369":-0.07655614716864133,"370":-0.09162199355743772,"371":-0.08735729848085418,"372":-0.070559770525649,"373":0.12981245057285212,"374":0.289042617234661,"375":0.16806821855064225,"376":-0.06910850206440598,"377":-0.11885002199276637,"378":0.008346547345249013,"379":0.15658100250800355,"380":0.19832398652548944,"381":0.4052655503271413,"382":-0.020332314743374973,"383":-0.009961771292697888,"384":-0.07980553803245355,"385":-0.10109091563146855,"386":0.2313746537494098,"387":0.25757251252905655,"388":0.258037924507562,"389":-0.32986441137542505,"390":0.12124192238902663,"391":0.29739868997497504,"392":-0.2748962195435167,"393":-0.1771010270648649,"394":-0.11947608260443698,"395":0.08787453831001603,"396":-0.06964386613111553,"397":0.16289580155227987,"398":0.20656765956744072,"399":-0.030099155293916994}},{"sx":5,"sy":5,"depth":16,"w":{"0":0.11143234225937867,"1":-0.7266528665855676,"2":0.020923550250584455,"3":0.11634983702347039,"4":0.1867704765097038,"5":-0.008273962766113413,"6":-0.09140444241022817,"7":0.2769846270485847,"8":-0.5967630121009252,"9":0.1853988409492846,"10":0.37467300080416105,"11":0.14874122781848884,"12":0.23889581021347064,"13":-0.028486847980518384,"14":0.3463880987950622,"15":0.471014301795178,"16":-0.19605970727347588,"17":-0.5788139137924777,"18":-0.03412513365132308,"19":0.17283956374593906,"20":-0.3517927480986105,"21":-0.145994746397381,"22":-0.21836696717651674,"23":0.3067984929789737,"24":0.0028874835582100855,"25":0.10122353135936049,"26":0.23737315642555293,"27":0.3303957197837179,"28":0.3077891960122284,"29":0.006875185070057544,"30":0.08761116630732095,"31":0.39492371763468753,"32":-0.20968262902665918,"33":-0.2514728062505118,"34":-0.36233237249245326,"35":0.09598939833212256,"36":-0.6331805925377895,"37":0.06433103162483375,"38":0.1303799647919224,"39":0.22234188758835008,"40":-0.13761679371411117,"41":-0.31515020931708243,"42":-0.44273066893300905,"43":-0.004985109860240006,"44":0.05012770583417383,"45":0.20247172318759663,"46":-0.33980634573826674,"47":0.00715816815855855,"48":-0.5819782162474386,"49":-0.16870571215423275,"50":-0.4109732134284396,"51":0.01700632962798201,"52":0.0706784699389798,"53":-0.1961696361832059,"54":0.14300829788455757,"55":0.12332405617948561,"56":-0.20247731977463612,"57":0.10730634630719636,"58":-0.19980441477778385,"59":-0.014350605049164782,"60":-0.0644929890170933,"61":0.0826589668848595,"62":-0.2191096874454795,"63":-0.28931060079249965,"64":-0.5231090572972664,"65":-0.2774584787305949,"66":-0.28160312163493967,"67":-0.04634956201322309,"68":-0.014416891318380354,"69":-0.35938667085682413,"70":-0.0004731607706675129,"71":0.1014018535485598,"72":-0.1057896824191518,"73":-0.3909902496598021,"74":-0.20434859648576414,"75":0.033418425643044446,"76":-0.13692785785801637,"77":-0.15930837057289995,"78":-0.01664893315208472,"79":-0.15938866226907028,"80":-0.41581786064537846,"81":-0.4561220937977331,"82":0.349469349594814,"83":0.015887598092479825,"84":0.12565203632360974,"85":-0.20344420391218454,"86":0.23065103929280176,"87":0.40467878911552135,"88":-0.18124890730500154,"89":0.10859961456819785,"90":0.09896049098125642,"91":-0.28639794053595474,"92":0.07135036958437048,"93":0.16725496085934227,"94":0.24101339213927267,"95":0.032914501060799295,"96":-0.025845660203071365,"97":-0.15782834553252328,"98":0.40683154837007385,"99":-0.05100520425504555,"100":-0.43522156982135946,"101":-0.2883337013251456,"102":0.017378636465850236,"103":0.112172509614168,"104":0.11729767984405501,"105":-0.1097484926593154,"106":-0.4166778709907161,"107":-0.2824699893112871,"108":-0.34979529856488556,"109":0.0695231534533993,"110":-0.12160097843418163,"111":-0.13031427032717113,"112":-0.04621056747731227,"113":-0.23067999290893965,"114":-0.24895401348225604,"115":-0.012583875079047745,"116":-0.2519637842145042,"117":-0.03233913974580188,"118":-0.2723719775641139,"119":-0.23739313480600135,"120":-0.10826389599619997,"121":-0.4393009172294692,"122":-0.3531803157107921,"123":-0.21521328494719105,"124":0.07151230418725701,"125":0.005726016460743322,"126":-0.19302466531326246,"127":-0.29971933825912733,"128":-0.30104943624419855,"129":-0.11700183294783098,"130":-0.19260117786081785,"131":-0.013095334162983446,"132":0.19122579880314988,"133":-0.27041676200802467,"134":0.0611289526694924,"135":-0.6923533149292759,"136":-0.1718730382082392,"137":-0.06857368894827354,"138":-0.02017824481476315,"139":-0.21286234258367187,"140":0.11754231201584506,"141":-0.14335890076431865,"142":-0.2352355718790015,"143":-0.336284954990739,"144":-0.4829834830328226,"145":-0.20531067205472137,"146":-0.34574075952811556,"147":-0.26219398024418855,"148":0.23498711557771623,"149":-0.23946639457282248,"150":0.15528644599215802,"151":-0.2168546881706026,"152":-0.0899349016213395,"153":-0.40974104960346464,"154":-0.07566304802232056,"155":-0.2785508308536813,"156":-0.06632932083476359,"157":-0.04711590322506875,"158":0.013945570996662963,"159":-0.14640435486929135,"160":-0.4108883523718514,"161":-0.14733255740388188,"162":-0.18776576930794048,"163":-0.22874644779807501,"164":0.02446833502131231,"165":-0.23375311566465523,"166":0.3203091514887792,"167":0.18378853314186583,"168":0.25394336146866103,"169":0.20295972887740116,"170":0.004167951443539808,"171":-0.14830734556497838,"172":0.033931254686078015,"173":0.2014228415589342,"174":0.14742341198084308,"175":-0.2372999099625211,"176":0.157582975711891,"177":0.2813601336184663,"178":-0.3752555734400354,"179":-0.23296230679265445,"180":-0.19845827706125374,"181":-0.06114622937542066,"182":0.2597700301873438,"183":0.11821203207449806,"184":0.19624666062094417,"185":-0.2287876443181715,"186":-0.2915575435886382,"187":-0.2052711943461794,"188":-0.35027612006991166,"189":0.059614001090281164,"190":-0.2357257213974389,"191":-0.8587522036130174,"192":-0.09572837812108768,"193":0.11429392053415434,"194":-0.17705602247265312,"195":-0.07733876363534087,"196":-0.13254041379003614,"197":0.11711506154293395,"198":-0.1622754592032249,"199":-0.02256284490987154,"200":-0.03598621423100632,"201":-0.224734772341355,"202":-0.1191501302144498,"203":-0.10079741559830846,"204":-0.006223885195032244,"205":0.000957030007548271,"206":-0.18676207381385845,"207":-0.3553810771777716,"208":-0.2539093061941698,"209":-0.462041832039082,"210":-0.10087102416044341,"211":-0.14420178732179292,"212":0.01244515336425932,"213":0.02246631466818966,"214":-0.04344067089648497,"215":-0.47617168291306045,"216":-0.11570387505886363,"217":0.06908571145378636,"218":0.056410333368660144,"219":-0.23250462270216077,"220":-0.20947529640963597,"221":0.03624970343922815,"222":0.18522377693145278,"223":-0.017422771165588026,"224":-0.0711443076775724,"225":-0.33171818207142,"226":-0.09625163844133032,"227":0.0019194083670747378,"228":0.37381692477742856,"229":-0.10919135954591773,"230":-0.25058097249224864,"231":-0.07329651848022628,"232":-0.06244041522603663,"233":-0.15699691553437234,"234":0.17771319249914108,"235":-0.014459501985190243,"236":-0.08887635295048943,"237":-0.22439399285841913,"238":0.2207030454081957,"239":0.13725128495504443,"240":0.16304166724683258,"241":-0.09944515971495582,"242":-0.1376770876409735,"243":-0.3713889328495416,"244":-0.17610673164060311,"245":0.12745585535361248,"246":0.3414559237440382,"247":0.0531135848698136,"248":0.5695160199732167,"249":-0.0749933912985832,"250":0.057698764018454106,"251":0.058388255421677776,"252":0.033253814688108896,"253":0.00588691678811219,"254":0.20893757611273983,"255":0.13021981168286662,"256":0.2665488424903851,"257":0.25211119087544237,"258":-0.4948022104552459,"259":-0.05529123614745323,"260":0.340547872727399,"261":0.38248819330609096,"262":0.04220907243799854,"263":-0.18695487381859363,"264":0.26006160401883377,"265":-0.3296516471726708,"266":0.20077142132561926,"267":0.055652691045113785,"268":0.01727981118743219,"269":-0.19400706966006726,"270":-0.27921264729003026,"271":0.07725097962751357,"272":-0.15722205810189072,"273":0.000819692738850633,"274":-0.22366965990907292,"275":0.06680131842967031,"276":0.22364860009990215,"277":0.41549526224173483,"278":0.25285134473884435,"279":0.08572197952155075,"280":-0.15791358871693012,"281":-0.05112244998032834,"282":0.3102354474125059,"283":0.29266253665501496,"284":-0.15558227783249895,"285":-0.22338140459501848,"286":-0.2218938495885447,"287":0.3404103590032634,"288":-0.1266547725957211,"289":-0.15898706324038184,"290":-0.017961511615031834,"291":0.29349313829636253,"292":0.13786788821594473,"293":0.2608097420749463,"294":-0.1718475994049975,"295":0.0012865862710698423,"296":-0.3449586114828612,"297":0.13629910249904192,"298":0.09336623516357263,"299":-0.00998147475040424,"300":-0.33828079016814544,"301":0.008400278182629655,"302":0.33903539198070926,"303":0.05826984625976548,"304":-0.13370330466152142,"305":-0.15620416847022336,"306":0.33279980302686746,"307":0.34819683815055485,"308":0.5438371031685496,"309":0.2086978430965564,"310":-0.11481505083503751,"311":0.37088038834118425,"312":0.2407534287617505,"313":0.14405819726156335,"314":0.21101688566146204,"315":-0.0959220075246057,"316":0.007374417247773105,"317":0.05053371413057138,"318":0.3550332603853735,"319":-0.03614550631912813,"320":-0.06587786979753918,"321":0.17013673740055377,"322":0.01778562285348391,"323":-0.2837926237282879,"324":-0.43538310953020887,"325":-0.11632328909832665,"326":0.19191430798897782,"327":-0.04583861724928887,"328":0.6299091614401058,"329":-0.4682488164204831,"330":-0.30656584912378065,"331":0.04373410020415101,"332":-0.2033909104190472,"333":0.007883794523062612,"334":-0.03374012538033812,"335":-0.25622748266183737,"336":-0.38741701122079997,"337":0.0012928041840243759,"338":-0.16940906762554445,"339":0.030129393806506765,"340":-0.005601744090350107,"341":0.05067085032847896,"342":-0.13669502800748795,"343":-0.26546737549417343,"344":-0.0921192895626121,"345":-0.46937075474709594,"346":-0.24579739766296532,"347":0.14466436526410067,"348":0.2530654686887598,"349":-0.15938248701582594,"350":-0.22328605805071128,"351":-0.22806943472494226,"352":-0.40306950442171596,"353":-0.14516958021300805,"354":0.1074991657233625,"355":-0.10721950644131577,"356":0.3235894136482067,"357":0.07919130027420318,"358":0.02050431485556988,"359":0.1932538074429856,"360":-0.3653126418890549,"361":-0.07136759073725489,"362":-0.04537336903031764,"363":-0.2333019158727803,"364":0.02148196776821931,"365":-0.19016624306511962,"366":0.05311661346282647,"367":-0.323311278658403,"368":0.15706641149883072,"369":-0.14421502034917205,"370":0.20630723852355898,"371":-0.25230854173077966,"372":0.16862682345873178,"373":-0.24157819872253625,"374":0.24295864297003794,"375":0.2865256412825155,"376":0.00886026379867935,"377":-0.08179246693963857,"378":-0.02416751079067794,"379":-0.056800577439574756,"380":-0.06867331518017523,"381":-0.056725236912547286,"382":-0.010334391724429995,"383":-0.04335760561182954,"384":-0.07304871063954461,"385":0.009411984860089363,"386":-0.07503186392227047,"387":0.29205444077769027,"388":0.26440151075781226,"389":0.023905246210716394,"390":0.12769510661212813,"391":0.08808923426616455,"392":0.27941074635831825,"393":0.18309848967951028,"394":-0.0697470399890348,"395":-0.2182165399308541,"396":-0.007467929238437399,"397":-0.034944365540876224,"398":0.22982191641609365,"399":-0.02171918996156602}},{"sx":5,"sy":5,"depth":16,"w":{"0":-0.39271750518552573,"1":-0.03230382250933739,"2":-0.02338317980236569,"3":0.13348145138698883,"4":-0.17038678980873026,"5":-0.107588396639773,"6":-0.05693656936768837,"7":-0.2791295218322715,"8":0.16817938146374004,"9":-0.16777745903520713,"10":0.10151564715048349,"11":0.026101647941269204,"12":0.07525736657675174,"13":-0.171648616409503,"14":-0.20731847875742876,"15":-0.013080304429627817,"16":0.3758166091629426,"17":0.11091436393637685,"18":-0.26867100261655436,"19":-0.17758619607342732,"20":-0.38112504155191756,"21":0.03967556456081462,"22":0.11941772250115484,"23":-0.5058059872570487,"24":0.279351036387406,"25":-0.36687486282431914,"26":-0.21619454088983206,"27":-0.0008534118594199115,"28":-0.25531427573295506,"29":-0.03501791317128029,"30":-0.40546666396718706,"31":0.05015838146286515,"32":0.15744038594794868,"33":0.12577643899831853,"34":-0.20406693012163973,"35":0.1897176885563558,"36":0.1908276693852241,"37":0.40281439860166746,"38":0.14196454980107634,"39":-0.2532706813400442,"40":0.10654742621692784,"41":-0.05590220209955932,"42":-0.021825923460496156,"43":0.2851048448876679,"44":0.3549014527829127,"45":-0.15831861283699045,"46":-0.3547544104255228,"47":0.021349072908926063,"48":-0.12794327220404658,"49":-0.6638209988583738,"50":0.30045887029230683,"51":0.2829161402538942,"52":0.32035713973563773,"53":0.053924751665868985,"54":-0.29957083437832716,"55":-0.5604012015425768,"56":-0.37182254431199846,"57":0.12599042151328432,"58":-0.06581599232814533,"59":0.010151829130958275,"60":0.14599828459073516,"61":0.2910642138820176,"62":-0.08877462744140024,"63":0.31079616804817345,"64":0.07751522386647723,"65":-0.7054821312092012,"66":-0.24121901630425246,"67":-0.1608758350210503,"68":-0.4451747223320654,"69":0.01836872775791694,"70":-0.07763764534765616,"71":-0.3786631527567994,"72":-0.3078544954406484,"73":0.1472433760217982,"74":-0.3091352404065033,"75":-0.09014283334631622,"76":-0.06637105997361402,"77":-0.15088472045076942,"78":0.1690959174661416,"79":0.09683417266266653,"80":-0.34884626136116753,"81":-0.26579899848353666,"82":-0.12137869960800848,"83":0.08333473439687188,"84":0.0009581276794974052,"85":-0.42113002271162375,"86":-0.23792111699312843,"87":-0.3265684389513408,"88":0.30362365487750276,"89":0.15807141093102067,"90":-0.003573900836123569,"91":-0.0904779845656845,"92":0.1579633824215539,"93":-0.05858825323822971,"94":0.040107331970028526,"95":0.13178602130916509,"96":0.40940129521951074,"97":0.1461378056669559,"98":-0.6142175216853005,"99":-0.2124080090300207,"100":-0.6214487630934391,"101":0.1769299837824756,"102":-0.0323644584918415,"103":0.19844928096203004,"104":0.1553237964048358,"105":-0.33324069976567117,"106":-0.14479661435650645,"107":0.011941891987097924,"108":0.01012377787451412,"109":0.013135318844601831,"110":-0.0809607558448422,"111":0.09806819327604323,"112":-0.1049872035230468,"113":0.10911445257383852,"114":-0.11600243371308736,"115":-0.13053649923560237,"116":-0.171596954639232,"117":0.29573812523430204,"118":-0.19468011524573176,"119":-0.00033430377047116824,"120":-0.27607047066805956,"121":-0.10932812021325408,"122":-0.4514677942603743,"123":-0.10549736923677637,"124":0.11218329116593459,"125":0.061789988937110116,"126":-0.3716272213992191,"127":-0.39754588725664747,"128":-0.46471668797388493,"129":-0.08557093064975833,"130":0.009136075663702545,"131":-0.15526253185624184,"132":0.03332832380771559,"133":-0.029751069695777708,"134":0.1463804564980268,"135":-0.0902391594141034,"136":-0.22294434703629065,"137":-0.1364300635729252,"138":-0.4371200344959679,"139":0.058589518118468575,"140":0.0242696421781361,"141":0.2485139639499334,"142":0.14097797020554012,"143":-0.3408281154433191,"144":0.04740520666220964,"145":-0.4930857682467413,"146":-0.16170576175857126,"147":-0.13545950834452491,"148":-0.39414522582143463,"149":0.0704787813966295,"150":0.0927660761602178,"151":0.017538722477824217,"152":-0.316273876248329,"153":0.046064764276988024,"154":-0.09429715672098149,"155":-0.5358549373858187,"156":-0.033743928679152525,"157":0.13024385397942304,"158":0.10888347270673301,"159":-0.06523855448103857,"160":-0.05938188577243845,"161":-0.1177566482404244,"162":-0.1332783987007077,"163":-0.01775042126442578,"164":0.14292094676174122,"165":-0.19943199897065536,"166":0.09793224086352058,"167":0.24918897582619987,"168":0.14327206023246264,"169":0.2943401900208575,"170":0.14022460919641191,"171":-0.05029402235097939,"172":0.37707298494228253,"173":0.11677964546895474,"174":0.13967257155100102,"175":-0.07229167723673724,"176":0.5760251467738795,"177":0.054664254146726425,"178":-0.16273099476058933,"179":-0.1294835153124228,"180":-0.5470876642883753,"181":-0.06457194844516294,"182":0.14997990452002835,"183":0.07131504689626585,"184":0.16420253287505054,"185":-0.14984742280327798,"186":-0.3991099853438362,"187":-0.11728559946155234,"188":0.3316622274750495,"189":-0.2195471706054117,"190":-0.21509148149610743,"191":-0.30335330459758797,"192":-0.2928083728769642,"193":-0.004593475976066096,"194":0.28277235310918863,"195":-0.09262670765989388,"196":-0.11073921961349978,"197":0.39621563922058567,"198":0.05458317703373576,"199":0.0642656594780566,"200":-0.24085143948455842,"201":-0.09361472614568814,"202":-0.04149581118734582,"203":-0.19630839761212346,"204":0.1178591169713791,"205":0.02343375576461071,"206":-0.1796971767714949,"207":-0.4897409034622258,"208":-0.2378763131762164,"209":-0.11821101856382789,"210":-0.03293071697535653,"211":-0.0079748109683104,"212":-0.0744839016538044,"213":-0.1938468445305259,"214":-0.3629938560989812,"215":0.28638809107677937,"216":-0.2513197923274117,"217":-0.3558627233974707,"218":-0.626108563330146,"219":-0.5902738027978058,"220":-0.3524833066314122,"221":-0.08060423116742195,"222":0.049920526070009776,"223":-0.25814923673539875,"224":0.09643000726132847,"225":-0.41427631565988676,"226":-0.06215368158448053,"227":-0.10104581082606236,"228":-0.15277578455910498,"229":-0.04294521404205719,"230":0.025759499335179854,"231":0.1488698808431969,"232":-0.3090739474713057,"233":0.05828979498382059,"234":-0.21256038982766381,"235":-0.21920867254223964,"236":-0.03837041086818154,"237":0.040045975871486686,"238":-0.0027274225612127856,"239":-0.17157658038463242,"240":0.0912936989100431,"241":0.07622671248906558,"242":-0.18579802563721526,"243":0.1648842645521439,"244":-0.1228892831772951,"245":-0.14277243645125823,"246":-0.1266914665787048,"247":0.3428018316041723,"248":0.039335564739940626,"249":-0.06529356692933458,"250":-0.0985982001190014,"251":-0.34681503091271976,"252":-0.03987702083556137,"253":-0.05272739772655602,"254":0.21077923532488774,"255":-0.012600822129681935,"256":0.2863542526295224,"257":0.16106195357500933,"258":0.09603826458117372,"259":-0.16688526390474048,"260":-0.00359418598159101,"261":0.026641724506214028,"262":0.021245699707397123,"263":0.089018686532097,"264":0.16197708066991504,"265":-0.210903374659973,"266":-0.271407452671356,"267":-0.3017986601489712,"268":-0.05794514568170211,"269":-0.04287729562765677,"270":-0.37583048464566815,"271":-0.16767141124846907,"272":-0.21941062382525087,"273":0.28860716505024314,"274":0.26092847498337,"275":-0.11082309052870086,"276":0.004180778181752371,"277":-0.036469219785372355,"278":0.1909943475452464,"279":0.04025361154428003,"280":0.1688397958183499,"281":0.01591454521198884,"282":-0.3102064773646002,"283":-0.20644152951641975,"284":-0.18245483987673733,"285":0.01044390594676421,"286":-0.0809147448196845,"287":-0.18765536239717773,"288":-0.3661434828382776,"289":0.24858636051792674,"290":-0.10106507978044779,"291":0.1373465747876574,"292":-0.11101783622615898,"293":-0.15538765503456575,"294":0.13451022768343857,"295":0.16867579188050072,"296":0.219656777679715,"297":-0.32946237259667294,"298":-0.2829616437130502,"299":0.07439105523032147,"300":-0.17812374580496806,"301":-0.05982067556909292,"302":-0.09081660022297308,"303":-0.2209412323815299,"304":-0.008498045856742454,"305":0.050288914866755664,"306":-0.1535433727212114,"307":-0.17255089024783982,"308":-0.2551376615098224,"309":-0.08780162075210424,"310":0.3216812887322828,"311":0.09969951923475472,"312":0.2720622820886062,"313":-0.009420501861293293,"314":-0.05249989555942298,"315":-0.40293113703696676,"316":0.07199584278496897,"317":-0.0028381807544622687,"318":-0.08479046411592102,"319":-0.26107520104948556,"320":-0.056559119201359344,"321":-0.20109055580359808,"322":-0.5019959314224263,"323":0.04267218657317935,"324":-0.568609848122209,"325":-0.005078293890804458,"326":-0.1883923076288089,"327":-0.19651952288276375,"328":-0.1309822564194424,"329":-0.057062982057447136,"330":0.04607914378680412,"331":0.3091978871932742,"332":-0.2614789251501036,"333":-0.16330494695564302,"334":0.07491499507404768,"335":0.20384753668135988,"336":-0.060916717180524715,"337":0.02989151855776417,"338":-0.6036028556069737,"339":-0.17274394996449444,"340":-0.339370203101423,"341":0.17925585482396675,"342":0.05358923808947238,"343":-0.28820052519057904,"344":-0.18752497844303806,"345":-0.05733408487339156,"346":0.1267163021087163,"347":0.40305181372364646,"348":-0.35685717946432277,"349":-0.24891112042731978,"350":-0.4308391650031253,"351":0.33704600768694654,"352":-0.027414001463414977,"353":0.19958923573169154,"354":-0.1141921049718999,"355":0.2357992483111457,"356":-0.24028631494260752,"357":0.41432693549426647,"358":0.39922828608495725,"359":-0.09054882212434465,"360":-0.10476211752208132,"361":-0.06737596125622565,"362":0.04708946075454154,"363":0.5754192572979078,"364":-0.11267928295916495,"365":-0.13275226601077766,"366":-0.16807639803640156,"367":0.3713543613055889,"368":0.01788471655669502,"369":-0.17456336552707605,"370":0.181639501211865,"371":0.5604600284760034,"372":-0.23501040761191122,"373":0.260415317714167,"374":0.105285487060729,"375":-0.28824287434665585,"376":0.0007959907325073398,"377":-0.5141512148676112,"378":0.05528418323116964,"379":-0.12020736755284833,"380":-0.2190983142922984,"381":-0.035174000363208384,"382":-0.06446284478291417,"383":0.0657669229932507,"384":0.1692928810367984,"385":0.09205729869455527,"386":0.3028452356244101,"387":0.4241659262763499,"388":-0.2328047161507808,"389":0.1256842102239502,"390":0.18099853552381406,"391":-0.04924492923969964,"392":-0.1309037465963516,"393":-0.23855785549771105,"394":-0.2248682646336099,"395":-0.26879466986748984,"396":0.0479847201205071,"397":-0.20721615630315865,"398":0.1154891717938911,"399":-0.321873512938639}},{"sx":5,"sy":5,"depth":16,"w":{"0":-0.3244402370663573,"1":-0.2185697129810778,"2":0.30120972285535735,"3":-0.11132031044394805,"4":-0.19213224730877965,"5":0.09903482220885564,"6":-0.1304416489873679,"7":-0.029936507747011926,"8":0.20362534495499332,"9":0.04897770145295608,"10":-0.09514111443245551,"11":-0.04807558374666458,"12":-0.17760398802830005,"13":0.030139143728774926,"14":0.3150505417435726,"15":-0.29832747742641713,"16":0.09641388870624545,"17":-0.25524659160055174,"18":0.19606457091643897,"19":0.19180862774095628,"20":0.10111019806981972,"21":-0.24785685234074173,"22":-0.0038606007441834116,"23":-0.006746084668336458,"24":0.0018383372362559855,"25":0.2700174352735022,"26":-0.003418106497251695,"27":-0.08206037478511943,"28":-0.11836154351085963,"29":0.17404760564939353,"30":0.25717074393326395,"31":-0.19129658731673393,"32":-0.22438020076521953,"33":-0.29014736843064465,"34":-0.09817017174499273,"35":-0.17672294294397356,"36":-0.01902066380450533,"37":-0.5208194406765211,"38":-0.1282549988016121,"39":0.1044934534196284,"40":-0.07887533394600435,"41":0.08434193523938144,"42":0.02862287780885496,"43":0.00521712477705526,"44":0.058846214899431856,"45":-0.024951851744233478,"46":0.23283467902517427,"47":-0.06976782721705242,"48":-0.009980473907050376,"49":-0.3992755634035161,"50":-0.12771794742730433,"51":-0.1526905863893119,"52":-0.3837344820384861,"53":-0.2517835965367187,"54":0.009065905436925207,"55":-0.24505682712154406,"56":-0.00006238116865070519,"57":-0.08667599544123851,"58":-0.0948561760369385,"59":0.1208029305616882,"60":-0.05430362118682894,"61":-0.07186460691897313,"62":0.11532302304930889,"63":-0.08397249444852455,"64":-0.12745951328902883,"65":-0.41534883195575917,"66":-0.17365849550200446,"67":0.006048976763701674,"68":-0.30743816217056236,"69":-0.08391108072908159,"70":0.026213361677133118,"71":-0.3066995593840103,"72":-0.155935273734987,"73":-0.10250383546543691,"74":-0.11935270339512741,"75":0.0718316904492055,"76":-0.0558442327845251,"77":-0.13692877125307007,"78":-0.03115688602043578,"79":-0.2182301678652221,"80":-0.2391605915649476,"81":0.3713265103577751,"82":0.4501268135080718,"83":-0.03896883404974002,"84":-0.22519186038370376,"85":-0.4701737665303826,"86":0.0036814735841146974,"87":0.41153864250807237,"88":0.05952712507598784,"89":0.2061429391804867,"90":-0.013739574084196475,"91":-0.45914524219156666,"92":-0.1353979757337719,"93":0.17863355369848166,"94":0.341652311375733,"95":-0.2628989678996253,"96":-0.02784905729415537,"97":0.1836804021549098,"98":0.03649231912660617,"99":0.03413274182119542,"100":0.15613731412196716,"101":-0.2585687325477938,"102":0.0642401127323402,"103":0.3873610694717762,"104":-0.016451560144566252,"105":0.10973490603429893,"106":-0.08156273332722327,"107":-0.10540659398600563,"108":-0.063656274694918,"109":-0.037784003173450494,"110":0.32530214196985324,"111":-0.33796567741647254,"112":0.12267069788710593,"113":-0.059182304441628135,"114":0.22079834225027248,"115":-0.14230075838843495,"116":0.12273475453947733,"117":-0.35487038459746306,"118":-0.08122375470200664,"119":0.29390681516165934,"120":0.07840999218271927,"121":0.05685612651709448,"122":0.0157272173987305,"123":-0.10278418422886076,"124":-0.001764110706107225,"125":0.115144568994637,"126":0.15904858612830178,"127":-0.5222305778955699,"128":0.21503037014036594,"129":-0.11418803235959067,"130":0.06228288858004769,"131":-0.1540188941976214,"132":-0.2711965668577143,"133":-0.03441078338616955,"134":-0.0031983943842573354,"135":-0.023554993502570152,"136":-0.23739256328558161,"137":-0.1662559317899598,"138":-0.12757049587265584,"139":-0.002063017567835039,"140":-0.03981997334524796,"141":-0.03222178965349233,"142":0.11889611822023989,"143":-0.17398695434436773,"144":0.017830602514894142,"145":-0.1954156377986528,"146":0.031406686413032465,"147":-0.01976700479673769,"148":-0.152646507764207,"149":-0.006933627429588899,"150":-0.17160245187406573,"151":-0.005363645715027952,"152":-0.3341212612755384,"153":-0.005474998684397659,"154":-0.261780713416854,"155":-0.24810773461540314,"156":-0.11696484055324792,"157":-0.19537129076587947,"158":-0.14259704262812875,"159":-0.149729465486106,"160":-0.3633527700028253,"161":0.007449067526913462,"162":-0.12967594645230773,"163":-0.13696305614563167,"164":-0.05445225623153988,"165":-0.5164125463763402,"166":0.26777426023684403,"167":-0.07590963337285728,"168":-0.1053307292945027,"169":0.04798378181592884,"170":-0.021012558824460594,"171":-0.000765801655378249,"172":0.014064547288917166,"173":-0.038666929760241595,"174":0.15634931987534567,"175":-0.16308369662703714,"176":0.0036645256402457094,"177":0.2093915778525858,"178":-0.37828381136144756,"179":-0.10732590116197178,"180":0.002542424283151585,"181":0.0048940793575668355,"182":-0.2740283373932534,"183":0.024541892835435945,"184":-0.1027124959546065,"185":-0.027967712669722963,"186":-0.020063591869943984,"187":-0.0708815557699156,"188":-0.12492144216809435,"189":0.012283184368877587,"190":-0.0672423523230038,"191":-0.38739416526732223,"192":-0.33891491179981253,"193":0.013175613824547398,"194":-0.27127988828388366,"195":-0.044458431200102226,"196":-0.07543244075246548,"197":-0.23026136675384293,"198":-0.16821722999203503,"199":0.08157649886847461,"200":-0.21180746403896988,"201":-0.19595325396396723,"202":-0.1579926536263952,"203":0.005093503639282903,"204":-0.0141737433136202,"205":-0.17526450842721172,"206":-0.23425959321115505,"207":-0.15497566387120626,"208":0.05933157292334174,"209":-0.029024637100280505,"210":-0.13294266501861254,"211":-0.06429066134518759,"212":-0.47913923983118467,"213":-0.18054159438921372,"214":-0.09237430758158739,"215":-0.04316858367027839,"216":-0.037828471261215,"217":-0.19723772416083094,"218":-0.16887671018250586,"219":-0.0016443192160882332,"220":-0.23699613848928527,"221":-0.21495897485849755,"222":-0.2316818941046543,"223":-0.19190952999697014,"224":-0.22546489209335466,"225":0.0042228291573857225,"226":-0.12791342507088918,"227":-0.16168031050209433,"228":-0.33477500364445933,"229":-0.2034209559268019,"230":-0.23042930339628975,"231":-0.22128048235190184,"232":-0.16522944024589686,"233":-0.2505170612327848,"234":-0.4332469513837364,"235":-0.3329026655285472,"236":-0.37310195363044324,"237":-0.2839595412301701,"238":-0.11463364001538785,"239":-0.1147546467405123,"240":-0.32376464996829407,"241":0.09577812025501818,"242":0.18234395736166595,"243":0.185182685024812,"244":-0.1926570638031537,"245":-0.02021318147377586,"246":0.1953895793688624,"247":0.024525219808365327,"248":0.12651705347686598,"249":-0.10209902822144244,"250":-0.01993330051423551,"251":-0.17435460271533731,"252":-0.10672833134316462,"253":0.09619823869058583,"254":0.05394537181362979,"255":-0.09886278749846347,"256":0.06885007136662495,"257":0.2077674701916189,"258":0.19317573960874024,"259":0.24964928572345618,"260":-0.030608602264719998,"261":-0.18532545862448957,"262":0.13639584808989644,"263":-0.11237006435047969,"264":0.23584868979415088,"265":0.09419006368012646,"266":-0.037783552465414434,"267":-0.1606741932713535,"268":-0.18871613387502492,"269":0.11861797887304944,"270":-0.11089141160737279,"271":-0.10485810038233155,"272":0.12438225138545922,"273":0.2104523053343399,"274":-0.026274786065952228,"275":0.3708566463338879,"276":-0.26592626904429256,"277":-0.22038560946911007,"278":0.18409013616102948,"279":0.01438486792685786,"280":0.3261288791553042,"281":-0.2642228146727746,"282":-0.07800279808737554,"283":-0.1136303335579868,"284":-0.07523317382737064,"285":-0.12785215134186323,"286":0.06382852185469103,"287":-0.018638763649942606,"288":0.0360803806171551,"289":-0.27183711635650887,"290":-0.043100318732907456,"291":0.23956560903385035,"292":-0.12210719991692737,"293":-0.027171300409241022,"294":-0.11254932751923637,"295":-0.5079166275412644,"296":-0.3519784159709083,"297":-0.3423187039663908,"298":0.09433858322999836,"299":0.10732529816342538,"300":-0.08818201219782504,"301":-0.22140954372195373,"302":-0.39328344425746364,"303":0.12546943472925004,"304":-0.07005427490689047,"305":-0.2853976865451033,"306":-0.10938307283723908,"307":0.09032278036306253,"308":-0.4084878143610312,"309":-0.07084872519755953,"310":-0.22099702353715028,"311":-0.4387407717799689,"312":-0.3179748664770854,"313":-0.2649437222029832,"314":-0.12836281806926927,"315":-0.2081516296063905,"316":-0.19164492221811116,"317":-0.2938846470449036,"318":-0.04147499983329008,"319":-0.07321495988183668,"320":-0.41673916407736167,"321":-0.11143666510378879,"322":0.033511536723791965,"323":0.21944802363340812,"324":0.035602462631764864,"325":-0.22307409736969233,"326":0.01109238931087027,"327":-0.059611604156125576,"328":-0.14838116794275522,"329":-0.1101922209220918,"330":0.003154608293672473,"331":-0.10370194682943422,"332":-0.2398328973712856,"333":-0.015157737201768632,"334":-0.22237715243031517,"335":0.4164936704883572,"336":-0.061466415349208534,"337":0.031159434519581187,"338":-0.02848677589737521,"339":-0.007381690003395568,"340":-0.31964484409129595,"341":0.08519388535465476,"342":0.4182654754719417,"343":-0.1392743859881037,"344":0.17398166241150181,"345":0.15259943373760634,"346":0.08908786861319488,"347":-0.05738970800092384,"348":-0.3932406887080134,"349":0.1069657712148604,"350":-0.21075912946784814,"351":0.2050332599980582,"352":0.2106001284419631,"353":0.10183050303072806,"354":-0.22543025261845862,"355":0.09787894929583701,"356":-0.31121139451276647,"357":0.29710817661839506,"358":0.26977431142545294,"359":-0.21754537925737297,"360":0.2214637774065077,"361":-0.2841151156363893,"362":-0.044368279581911564,"363":0.13403837309956465,"364":0.04076588621334417,"365":-0.2973252873414116,"366":-0.30792664716416435,"367":-0.051977451542848406,"368":0.035326862192485195,"369":-0.3336867531226598,"370":0.0012253633385968855,"371":-0.040070085906632885,"372":0.11776566768102086,"373":0.20269533761728123,"374":-0.30927485984536107,"375":-0.23758577375851825,"376":-0.3304215153603171,"377":0.092984818210483,"378":0.11615444672576711,"379":-0.38041290284465135,"380":-0.16777050310179353,"381":-0.22811806828528797,"382":0.14628170595939147,"383":-0.18137067598854575,"384":0.06021119994135562,"385":-0.37817695996609,"386":0.16763138705010303,"387":-0.03124476358196254,"388":-0.1642106964614854,"389":-0.10390220865464023,"390":-0.32518605161103065,"391":-0.17036164687287939,"392":-0.34256903111895676,"393":0.14412519773246477,"394":0.027144399851857934,"395":-0.4157404250879708,"396":-0.21867894785153585,"397":-0.0014448678139089336,"398":0.19275254797397265,"399":-0.3607894780394958}},{"sx":5,"sy":5,"depth":16,"w":{"0":-0.5523571667458953,"1":-0.24358429450367536,"2":-0.11300433097776265,"3":-0.040513796393544625,"4":-0.02557031143061172,"5":-0.07782436139647286,"6":-0.2883871314910208,"7":-0.40260132033770407,"8":-0.278278850093298,"9":-0.044461641791764865,"10":0.15178223580652878,"11":-0.1884519097852976,"12":0.01365633444799488,"13":-0.06193248919846059,"14":-0.1009421133572377,"15":-0.006311780009278582,"16":0.007475405730206158,"17":-0.10795468956416986,"18":-0.27841494133729644,"19":-0.12281095512856469,"20":-0.2351535206722768,"21":-0.310035735479446,"22":-0.03361480712362227,"23":-0.36912886766125313,"24":-0.044521167496994356,"25":-0.10570302605869009,"26":-0.10807370956571753,"27":-0.3268484126187799,"28":-0.2520274301714526,"29":-0.16564785405092086,"30":-0.008342756605661725,"31":0.20920936775468532,"32":-0.1496091963212575,"33":-0.11538469017998239,"34":-0.19496461512655114,"35":0.029956399841074566,"36":-0.2516139715164277,"37":-0.11043128478713948,"38":-0.265742959970925,"39":-0.1447869332968206,"40":-0.20434637406541556,"41":-0.5869642740487999,"42":-0.10866668041778042,"43":-0.27962512056118355,"44":0.24740779892992085,"45":-0.25334560822784985,"46":-0.5712298274555241,"47":0.14749627547501218,"48":-0.4744829739543826,"49":0.1615854074018255,"50":-0.0938111523161942,"51":-0.24867207473320208,"52":-0.18240760603714976,"53":-0.08764666597100058,"54":-0.22901184657700965,"55":-0.04021915793528746,"56":-0.12942403319576484,"57":-0.11245646268789267,"58":-0.05830133234832678,"59":0.02111771416957306,"60":0.09666813977100248,"61":-0.19431881419465624,"62":-0.4315784856073617,"63":-0.1759942365301307,"64":-0.05508879253992273,"65":0.09536617152141649,"66":-0.08826328960105602,"67":-0.18584690394627967,"68":-0.3447360854185844,"69":-0.11925355808718387,"70":-0.016546171030198203,"71":0.33478096295893717,"72":0.22391456444249028,"73":-0.15865897960938666,"74":-0.08651542486600912,"75":-0.11416288760986167,"76":-0.034663598574793925,"77":-0.42634229432232407,"78":-0.5522781778308088,"79":-0.11144012204601272,"80":-0.3329639929059671,"81":-0.15454147369310486,"82":-0.02013318874825799,"83":-0.008111383927602234,"84":-0.04810415253987907,"85":-0.2697490667107303,"86":-0.24556495411421927,"87":-0.5466267383686814,"88":-0.3317975964644494,"89":-0.029824729938231025,"90":0.221472046927095,"91":0.03565757542816204,"92":-0.03257701169358412,"93":0.11271089892695266,"94":0.04668022926855159,"95":-0.089908355460523,"96":0.08429615006492,"97":-0.21190665441198075,"98":-0.41654963118036903,"99":-0.280254579981281,"100":-0.33890389392716197,"101":-0.3900470091949237,"102":-0.004282418661594604,"103":-0.534989797406338,"104":0.16575022570975578,"105":-0.26457205945736967,"106":-0.29330104102957055,"107":-0.3326277102300974,"108":-0.2130716943205291,"109":-0.26977769583028594,"110":-0.010485019600931386,"111":-0.07440965887954278,"112":-0.12989678150326672,"113":-0.005338324292880234,"114":-0.3115689363202757,"115":0.10769133475074186,"116":-0.3264487400285282,"117":-0.10174800712591685,"118":0.05000526766463663,"119":-0.32601099969400127,"120":0.04076201481262409,"121":-0.26206081958111754,"122":-0.33190396189570337,"123":0.05061191398336708,"124":0.0591040861895638,"125":-0.26725041300078045,"126":-0.2412836659731048,"127":-0.15812808521544505,"128":-0.511713770960718,"129":-0.33500943770264746,"130":-0.4490787776151044,"131":-0.28089826709078186,"132":-0.23962018949149486,"133":-0.4743420804665682,"134":-0.0004896260632584505,"135":-0.5558731285876971,"136":-0.07042465005904716,"137":-0.0622994985159036,"138":0.06672042287718703,"139":-0.12873544495019487,"140":-0.10191146538415696,"141":-0.18313786505001142,"142":-0.3581046052597016,"143":-0.06459657970620154,"144":-0.06737862586966877,"145":0.06106168410004247,"146":-0.28932794484049823,"147":-0.19155768673766255,"148":0.07827899563578837,"149":-0.06969079539150631,"150":-0.04541258200370841,"151":0.03190379458009356,"152":0.009776903364785764,"153":-0.376594067253952,"154":0.11482936126356978,"155":0.008805803714662032,"156":-0.08704349451629703,"157":-0.31316866628097567,"158":-0.3297645201717742,"159":0.18748079919646782,"160":-0.44442223382915946,"161":-0.5139092080951826,"162":0.05482519870620051,"163":-0.08858741383118661,"164":0.3095707441771513,"165":-0.3510173474823137,"166":-0.31112957370115907,"167":0.04165976500683347,"168":-0.3391788103660997,"169":0.18308060671318907,"170":0.004323831553174806,"171":-0.5010034426249252,"172":0.27545828913090825,"173":0.05293301470703207,"174":0.5744516214093367,"175":-0.2998973510214325,"176":-0.07680261962361548,"177":-0.2327119140802445,"178":-0.19441929859178644,"179":-0.0016585215358716704,"180":0.1720804385921511,"181":-0.19753287645440576,"182":-0.39565243436890357,"183":-0.2089184260243435,"184":-0.2506450159836075,"185":-0.1687114625863962,"186":-0.030845910723471485,"187":-0.4568887970756154,"188":-0.008871554790044462,"189":0.08301237965592093,"190":0.036113322546065786,"191":-0.16520116153534187,"192":-0.2829586504918442,"193":0.0605315040795293,"194":-0.1072194593192036,"195":0.12138138019508066,"196":0.06601049056678386,"197":-0.21168550787068208,"198":-0.1775935335058379,"199":0.0943792979099977,"200":-0.06267179984715311,"201":0.030363948854736096,"202":-0.02837725283507639,"203":-0.19782810074676999,"204":-0.2002204877263021,"205":0.07906534034313313,"206":-0.22017872552637197,"207":-0.23469281893957175,"208":-0.18895908129800204,"209":0.21494648205360428,"210":0.036219543441563404,"211":-0.03825432307903842,"212":-0.13690931054273586,"213":-0.3625907551231632,"214":-0.005940739519863468,"215":-0.022318231440792934,"216":0.05200240677123224,"217":0.07416181420652466,"218":0.05068317378615105,"219":-0.4078194866618433,"220":-0.24969393471504922,"221":-0.126535994092328,"222":-0.3816562360891272,"223":-0.07953950306863783,"224":0.3180351600755514,"225":0.17381374389117202,"226":0.11829017517163894,"227":-0.04553146353352511,"228":-0.11933996743573705,"229":0.1074118546162919,"230":0.18044015274447844,"231":-0.05888081113938552,"232":0.08095677670909197,"233":-0.17164564663834306,"234":-0.2937006649295902,"235":0.21384286485640164,"236":0.22262720630891658,"237":-0.3405934117107947,"238":-0.4933334249174835,"239":-0.03238611130676009,"240":-0.07480846972443934,"241":-0.26606386666873194,"242":-0.04447674794271941,"243":-0.12353669713476825,"244":0.12320031526976216,"245":-0.16373920906062484,"246":0.0486883060396959,"247":-0.12592242657728378,"248":0.16774631982623786,"249":0.0131326387003206,"250":-0.19022053988614537,"251":-0.21260565476155588,"252":-0.19453305778779165,"253":0.23576246521998487,"254":0.4370802530928266,"255":-0.6394463238925542,"256":-0.04203514615755564,"257":-0.5234100907222669,"258":-0.2392360603875732,"259":-0.23052262622881545,"260":0.18241324645875662,"261":-0.18268271083824272,"262":0.17492585032783176,"263":-0.3524147323862814,"264":0.10422209086287675,"265":0.12296936078596019,"266":-0.02417939212502756,"267":-0.11077436536357549,"268":-0.34673790685669764,"269":0.1331289064177884,"270":0.08504377223021356,"271":-0.262896775832702,"272":-0.18427102729290312,"273":-0.1993282049884123,"274":-0.276319131457359,"275":-0.05470119913046577,"276":-0.4027162820460182,"277":-0.2399105438040104,"278":-0.31530095769183003,"279":-0.46190684713792446,"280":0.18578467186979752,"281":-0.05012798503663969,"282":-0.11110940220744345,"283":0.15805996648256784,"284":-0.00959689546135582,"285":0.05742197375216679,"286":-0.2978736567504623,"287":0.042898966769028025,"288":0.2816453668602919,"289":-0.11311462002338851,"290":-0.007295185965434799,"291":0.005561542122067582,"292":-0.22635611408640505,"293":0.09418457844933707,"294":0.046127431394075796,"295":-0.32491915705222585,"296":-0.20186043204924714,"297":-0.06357214517225575,"298":0.18090149810199177,"299":0.1852139126414775,"300":-0.2855142202510497,"301":-0.10378822271358983,"302":-0.3034157183087382,"303":0.17910041138791863,"304":0.28182000815263714,"305":0.07624369429067658,"306":0.1215677633533174,"307":0.04523687022976181,"308":0.0515371542713668,"309":0.3302343992559325,"310":-0.06891838298242242,"311":-0.11612367209274307,"312":-0.16029215108608375,"313":-0.17955218708501444,"314":-0.06879514976676518,"315":0.5036255807674391,"316":0.37032442121075404,"317":-0.3298401754791538,"318":-0.27570888567972945,"319":0.19786119010559705,"320":0.42548391209494346,"321":-0.032287509275585935,"322":-0.056843594772672416,"323":-0.004252463080939664,"324":-0.08618329865981365,"325":0.12667198055276202,"326":-0.026670087921551223,"327":-0.1680962319911434,"328":0.044592003667701156,"329":0.12956263072551472,"330":-0.004070855609754848,"331":0.2576875617749629,"332":0.0690431792534139,"333":0.23204632750792067,"334":0.20460450296741367,"335":-0.21209392710290711,"336":0.2203029979452561,"337":-0.2875305623807838,"338":0.2838385644200943,"339":0.3386881770262051,"340":0.2631775199639588,"341":0.25678965149910915,"342":-0.11384021951934915,"343":-0.06324455302828444,"344":0.0653892249948256,"345":-0.02539702157504902,"346":0.15383023116881844,"347":0.013108620012112519,"348":-0.15968421368843702,"349":0.33204247590705854,"350":0.21319782697287543,"351":-0.18792940633408117,"352":0.30428975739148556,"353":-0.14586602159946738,"354":0.1348399596607963,"355":0.34315428283412297,"356":-0.11286248751340015,"357":0.2852536005080138,"358":0.13399370165792895,"359":0.0026055105084201624,"360":0.20743328018517518,"361":-0.07509098436729345,"362":-0.3729334119538217,"363":-0.2619492533442158,"364":-0.021621682979876995,"365":0.315305865815412,"366":0.23480393407885478,"367":0.14802743011089692,"368":0.37358073054844765,"369":-0.18836163638088668,"370":0.4254137546283525,"371":0.2052202305574301,"372":0.6352983600594475,"373":0.26316398642783695,"374":0.04078832563452617,"375":-0.5383442458628933,"376":-0.382841894055032,"377":0.23193787937850535,"378":0.22929780293203586,"379":-0.09053579718929554,"380":0.023402030141035153,"381":-0.4337450014630188,"382":0.003478513424887592,"383":0.15626917402649454,"384":0.3214106054726012,"385":0.04987064922917912,"386":0.06410054000464714,"387":0.1902089932466518,"388":-0.36751071233220217,"389":0.16030307969188778,"390":-0.29485885017057323,"391":-0.1701961064411911,"392":-0.17036245260225144,"393":-0.3851557987168946,"394":-0.1389176864666094,"395":0.0768667436348814,"396":0.017547477185210145,"397":-0.03828672056741821,"398":-0.24048564406800682,"399":-0.06719953068120114}},{"sx":5,"sy":5,"depth":16,"w":{"0":-0.034780945481539226,"1":-0.16490585909983682,"2":-0.07074825060168959,"3":-0.23395998178000524,"4":-0.2912778130751164,"5":0.05037174431042358,"6":-0.24905128075420002,"7":-0.19924191959169882,"8":-0.21531391488246343,"9":-0.052426531497387546,"10":-0.03549380312742071,"11":-0.4630464831559166,"12":-0.1391420984874816,"13":-0.14834798299538468,"14":0.11504828280557831,"15":-0.2394513363744166,"16":-0.2244952616552067,"17":-0.05429024278717025,"18":-0.06546034050751948,"19":0.015433693295085482,"20":-0.03336910359069098,"21":0.10706697567801303,"22":-0.04153547221255222,"23":-0.0027446019789678245,"24":-0.3325785878642209,"25":0.004835792331027891,"26":0.04917604100310475,"27":-0.07621563103115557,"28":0.07948203550118847,"29":-0.04241628002110626,"30":0.0654159943935669,"31":-0.08658033511588574,"32":-0.27630162834749156,"33":0.050083691129849055,"34":-0.3500121643478754,"35":-0.20869212584278793,"36":0.3938250678080348,"37":-0.302644039209889,"38":0.007281316981949711,"39":0.42401683645003846,"40":0.09118499998327993,"41":0.07996149161175875,"42":-0.2995943568003085,"43":-0.13476607220781234,"44":-0.027615621720164466,"45":0.10964599645706598,"46":0.13024196694842144,"47":-0.18287601051024532,"48":-0.2925901795994736,"49":0.15684768495026408,"50":-0.3328063194071691,"51":-0.43489287766252027,"52":0.13867016198418614,"53":-0.4622119317117096,"54":0.06670221542842585,"55":0.2421673551535651,"56":-0.062012248997071875,"57":0.3716554909779305,"58":-0.0780618681478405,"59":0.023933186823696374,"60":-0.2748559716312291,"61":-0.24142593500055048,"62":-0.12657046745975759,"63":0.08857314733570562,"64":-0.34452807971237726,"65":0.12236798097967874,"66":-0.1576614023483442,"67":-0.2205738971413871,"68":-0.10686370143447352,"69":-0.34112833017758065,"70":0.027635569992740028,"71":0.12943520948130793,"72":0.02668957401304067,"73":-0.13162209800963598,"74":-0.18415604019748774,"75":0.1754210542568086,"76":-0.3834067391026971,"77":-0.2879743044059928,"78":-0.3888526671930977,"79":0.016965429195622717,"80":-0.24595032653832205,"81":-0.5218980180154118,"82":-0.23675286048502847,"83":-0.20126925535405596,"84":-0.06247557701600955,"85":0.01779848409759106,"86":-0.10566179235783268,"87":0.2396791230466396,"88":-0.5722762406774092,"89":-0.1573494060939085,"90":0.009850534322475324,"91":-0.35350685385772446,"92":-0.40050622458253404,"93":-0.14135252096050205,"94":0.13655251704633697,"95":-0.28999850990420345,"96":-0.4299170272231983,"97":-0.41803420145004816,"98":-0.11446481083055622,"99":0.019635724781472796,"100":-0.17293028711005815,"101":-0.287124897168237,"102":0.028419177088950656,"103":0.09885453962036335,"104":-0.25393386252378164,"105":0.17935238867883727,"106":-0.07604990347264204,"107":-0.00852400994622952,"108":-0.02042981338643317,"109":-0.1313997259292726,"110":0.12116416758411791,"111":-0.37534842802715596,"112":0.10960828129202244,"113":-0.2966312920037724,"114":-0.5748029889470732,"115":-0.09227976834033347,"116":-0.11012547537477765,"117":-0.4946762947050277,"118":-0.006188511697583015,"119":0.12167836195991669,"120":0.10031125414694912,"121":0.006601531288274881,"122":-0.39700328882656655,"123":-0.21753482003613664,"124":-0.1254333899345604,"125":0.09576708348445141,"126":0.22378878388480164,"127":-0.29879155336493074,"128":-0.08093877254595103,"129":-0.0725775175853174,"130":-0.1757373367787397,"131":-0.15389097635865487,"132":-0.13675760468666912,"133":-0.26790631149106525,"134":0.0001760770670480768,"135":-0.4789269741606174,"136":-0.00873752419249003,"137":0.121330844958019,"138":-0.0939154982951553,"139":-0.03660212702431752,"140":-0.22300048847558024,"141":-0.1578155260544345,"142":-0.1547950773337754,"143":0.10407380119976099,"144":-0.10301175657867627,"145":-0.24500541581720361,"146":-0.48621163259202116,"147":-0.1702128876599899,"148":-0.2037105652615199,"149":-0.015574611301499031,"150":-0.08749761006873807,"151":-0.026223272852707938,"152":-0.011907946325431176,"153":-0.39309637495113886,"154":-0.28257609328046424,"155":0.2980932388195258,"156":-0.36718383976995306,"157":-0.3074159110762677,"158":-0.6373320548640679,"159":0.3352097216020074,"160":-0.3175550792615856,"161":0.029744812226726407,"162":-0.4524946363083084,"163":-0.2354141735862082,"164":-0.3774062966538159,"165":-0.22258100968545633,"166":0.1464302316864484,"167":0.35805305263604037,"168":0.05452290197982093,"169":-0.16754318325383782,"170":-0.04444343792042715,"171":-0.37427775921953316,"172":-0.3085015827579874,"173":-0.14899326621705578,"174":0.2753382493868033,"175":-0.06162750274319514,"176":-0.39243039763126397,"177":-0.009634372751914436,"178":-0.3676188542451257,"179":-0.011266782942016725,"180":-0.2613080659303987,"181":-0.24920625572010574,"182":0.08035001700681403,"183":-0.3477646972514493,"184":-0.1136137594342368,"185":-0.12718847781662657,"186":-0.17571228480414305,"187":-0.05217666033627359,"188":0.10410719346654648,"189":-0.145682360061313,"190":-0.021953266639220183,"191":-0.12021080409828688,"192":0.17334470271343433,"193":0.1166459388565252,"194":-0.44553102484127194,"195":-0.21283213430258544,"196":-0.34857423593179876,"197":-0.38905177736661223,"198":-0.10495912879923718,"199":-0.41198254417737995,"200":0.042039388119153545,"201":-0.222920016511632,"202":-0.27547618583560957,"203":-0.07760089278538124,"204":-0.18432255020099506,"205":-0.01678465372856632,"206":-0.22127200539588057,"207":0.06635378976135967,"208":-0.03874839502908254,"209":0.2189842021295295,"210":-0.01501939418810927,"211":-0.03708149805522952,"212":-0.22483380123770602,"213":0.12030158356903191,"214":0.032500110773820985,"215":-0.0175202528454172,"216":-0.12892583835847649,"217":-0.10572969189297038,"218":-0.1472028593358504,"219":-0.014297080058384077,"220":-0.0634244296177835,"221":0.054336714276468676,"222":-0.26317722427884777,"223":-0.051570121816564375,"224":-0.07401389806360825,"225":-0.14655251240948147,"226":0.09402110244947551,"227":0.10074764747132182,"228":-0.17416864596947856,"229":0.10847879173551347,"230":-0.00931080116374973,"231":-0.2796537847278826,"232":0.2835275196521175,"233":-0.09627549585567008,"234":0.03899536729836286,"235":0.11539248196985806,"236":-0.385589155639302,"237":-0.2146897565889907,"238":-0.16797809156418575,"239":0.18950684034699652,"240":-0.36407018701400967,"241":-0.158215645797967,"242":-0.25574223715961464,"243":-0.10623930042736618,"244":-0.3754960856502324,"245":-0.06396488578562327,"246":-0.14323970087801394,"247":-0.062013910310934645,"248":-0.1539204006720838,"249":-0.1712305358269347,"250":-0.0714899079836093,"251":-0.2241592086096231,"252":-0.04358441374677017,"253":-0.22351516556705966,"254":0.08039279800057662,"255":-0.3481015749316787,"256":0.029398499804571175,"257":-0.1256477735545589,"258":-0.052812578224179674,"259":-0.03746348499953679,"260":-0.09085739172229505,"261":0.09862648653826869,"262":-0.16278909022010515,"263":-0.30135067588764386,"264":-0.24599288194104246,"265":0.05155097824430298,"266":0.01402223665743547,"267":-0.18436697019402556,"268":-0.002596805204420124,"269":-0.039297917527499046,"270":0.08985755344960633,"271":-0.30885098206223105,"272":0.3570438180832531,"273":-0.03405291811598734,"274":-0.04100956173904251,"275":0.09491936268212599,"276":-0.11431408940794069,"277":-0.1165546057863665,"278":0.11298896260296577,"279":-0.0731796821182942,"280":-0.13991846847815562,"281":0.04704859505631259,"282":-0.44546222874798624,"283":-0.2876152743455076,"284":-0.35263661654170797,"285":-0.05494814562412201,"286":0.30788700186332196,"287":0.10025264538465474,"288":-0.006436177507570733,"289":-0.06247828766070461,"290":0.2241277597028475,"291":0.33511055234015397,"292":-0.0026448550971028585,"293":0.4851361660552422,"294":-0.4675964731449543,"295":-0.38447038829084756,"296":-0.5080208037091273,"297":-0.06843403562221236,"298":-0.1527461111602228,"299":0.09103703103614944,"300":0.04435779383794823,"301":-0.12906532592526215,"302":0.17478164227805726,"303":0.09854326129714941,"304":-0.19213987210526437,"305":-0.23313997571975298,"306":0.2498740428289316,"307":0.14948568452291688,"308":-0.007278588585122578,"309":0.30058313421241717,"310":-0.4644269160448362,"311":0.10467594153343518,"312":-0.1414057344673456,"313":0.023891303494541064,"314":-0.1297593942629465,"315":-0.13954163218256038,"316":0.098298905194004,"317":-0.037762928594100936,"318":0.2656789258202959,"319":-0.11642148836577809,"320":-0.2748834647317288,"321":-0.08075162386518715,"322":-0.5698384342043913,"323":-0.23106296024073403,"324":-0.2684332082667694,"325":-0.09559202475308956,"326":0.03990483342124519,"327":-0.13264620506150823,"328":-0.46033952349977075,"329":-0.15394282183541744,"330":-0.0031000423886293187,"331":-0.18527437249593529,"332":-0.11672233040621752,"333":-0.060768741929150105,"334":-0.1270646695924827,"335":-0.02708080822469221,"336":0.0695520659395361,"337":0.5985734623968461,"338":-0.09635253940690228,"339":-0.20340056346896024,"340":-0.2600570829014082,"341":0.04756286564764268,"342":-0.07322833182523573,"343":-0.24916654882142314,"344":-0.3278577079983725,"345":-0.047344646335539885,"346":-0.015263080435675383,"347":0.000024750931878627248,"348":-0.2881778658627933,"349":0.07410593532377369,"350":0.020958070827628378,"351":-0.1027534624504145,"352":0.45844287402408124,"353":0.048654625314427546,"354":-0.049918290511924195,"355":-0.29698281894180933,"356":-0.08507520014971345,"357":0.2190998759769944,"358":-0.16308890136276996,"359":-0.5032178782421123,"360":-0.4931733381013829,"361":0.018385356095832243,"362":-0.18882378924319157,"363":0.08606449915842593,"364":-0.0011780917289362803,"365":0.03310099624569116,"366":0.17956449709493724,"367":0.013028920450307867,"368":-0.24127436880744826,"369":-0.30717647680665267,"370":0.20705308329906288,"371":-0.13236036855598535,"372":0.29342772548944585,"373":0.32574869510200166,"374":-0.5047671639236638,"375":-0.49308512822071476,"376":-0.694340130076631,"377":0.2628020515655436,"378":0.05784611988075301,"379":0.08411716086953228,"380":0.07748915304095737,"381":0.1100069960240979,"382":0.07003704221310954,"383":-0.202966826628544,"384":-0.4158630975026503,"385":-0.0793936724454683,"386":0.016478548009024024,"387":-0.022891424894842156,"388":-0.1417514709760927,"389":0.10415628845742263,"390":-0.2769127354769389,"391":-0.07370958079387391,"392":-0.04129204230470015,"393":0.1574490346077643,"394":-0.03670499013942934,"395":-0.12108314238959522,"396":-0.2606947269824568,"397":0.22468128273343757,"398":0.16269462979211693,"399":-0.20665345057689846}},{"sx":5,"sy":5,"depth":16,"w":{"0":0.11197023963578588,"1":-0.06628509307365973,"2":-0.1704412515216862,"3":-0.06928038325689626,"4":-0.19749554348494333,"5":0.0795706771275808,"6":-0.303212383598636,"7":0.07888072550911593,"8":-0.3862236938389692,"9":0.210139017575609,"10":-0.22420670682788085,"11":0.27701549787934227,"12":0.10962810690281809,"13":0.1228055892643296,"14":0.12595892420035396,"15":0.0832479070514444,"16":0.3028068180318617,"17":-0.04424744501746071,"18":-0.28708611722574756,"19":0.08010168239097565,"20":-0.4070074744736991,"21":0.20358526493772364,"22":0.23412616047210047,"23":-0.002802649793303049,"24":-0.1867997654775811,"25":0.10120394474831214,"26":-0.06903714677804,"27":0.17422430646465348,"28":0.17090313726463127,"29":0.1254321935629988,"30":0.20751931237539176,"31":0.29855916116487424,"32":0.23098372309470538,"33":-0.20349768190522372,"34":-0.1550013046808494,"35":0.2861206432753687,"36":0.1192074281197854,"37":0.3822231307963812,"38":0.12023193630021912,"39":0.15865934866682324,"40":-0.1723367631297355,"41":-0.033296358629952595,"42":-0.03483529631792973,"43":0.1662988204821538,"44":0.24862447503197033,"45":0.17206765879710922,"46":0.0319514294220927,"47":0.15949160175730587,"48":0.05567761781003574,"49":-0.1338111499877811,"50":-0.18888024216081867,"51":0.021033029122750572,"52":0.09106029364420155,"53":0.19458841347297234,"54":0.12514206685222287,"55":0.26134291929057274,"56":-0.21505691449410524,"57":-0.11064051639222432,"58":-0.33844773879044937,"59":0.062031166860430635,"60":0.04556070818336566,"61":0.054465540408236576,"62":0.08168122795416159,"63":-0.14455027581875485,"64":0.030178235486563922,"65":-0.6677021172111425,"66":0.014793525628694395,"67":-0.22185313344891175,"68":0.18708707979102787,"69":-0.07778734707299155,"70":0.07428714634295139,"71":0.0786975970640971,"72":0.19501296722157496,"73":0.09117860041789379,"74":-0.1333022859687842,"75":-0.10082757810481213,"76":-0.17361957463166802,"77":-0.017071537469438822,"78":0.04753504482635961,"79":-0.19674289547798243,"80":0.18020580467002395,"81":-0.12566978557450645,"82":-0.4053385366827149,"83":0.10206537524527845,"84":-0.12446064227866409,"85":0.09324211609682541,"86":0.05021719596511319,"87":-0.19224608792549414,"88":-0.29510601327623254,"89":-0.09425499708983402,"90":-0.05754415281432623,"91":0.259132272576635,"92":0.15065944234056175,"93":0.036704105515374175,"94":0.2400523834526349,"95":0.29414769852595046,"96":0.31654310761167287,"97":-0.18185897329553788,"98":-0.34641381661944626,"99":0.19877128095484528,"100":-0.35591822305395887,"101":0.16774951798975668,"102":0.05794009171695356,"103":-0.06366353203522701,"104":-0.1708902236082569,"105":-0.2406124934588163,"106":-0.3354192575037773,"107":0.09554815150138322,"108":0.3889157522598544,"109":0.08827052158581222,"110":-0.020504762325840135,"111":0.152942406488173,"112":0.17954464667402278,"113":-0.4161569789418431,"114":-0.4721486940623067,"115":0.06378778063021179,"116":0.02745983817530589,"117":0.20641363604560803,"118":-0.10099511074964637,"119":-0.12543175051807856,"120":-0.4319842943850292,"121":-0.17931717471570802,"122":-0.12099048809696934,"123":-0.11219758222548813,"124":0.3208568248365399,"125":0.23988740002549375,"126":-0.14410710744349825,"127":-0.17695889015482585,"128":-0.033010614051672875,"129":-0.1624274655874445,"130":-0.22401090953318464,"131":-0.18417427867043326,"132":-0.14909614753227235,"133":-0.20553332898567214,"134":0.12673565791410474,"135":0.24338907767416035,"136":-0.16171218332139425,"137":-0.3780118069642794,"138":-0.20300937494853286,"139":-0.37754410575110625,"140":-0.31444640265721174,"141":0.16880980962451123,"142":0.029240517491275573,"143":-0.31777987159804677,"144":-0.06211988863861373,"145":-0.34013662481838686,"146":-0.21157497155697982,"147":-0.02821357493211616,"148":0.10964386414738204,"149":-0.1547318804048984,"150":0.16597605935394494,"151":0.13526436748143403,"152":-0.075875655789368,"153":-0.026736239692027177,"154":-0.20690808025968344,"155":-0.047921196477623475,"156":-0.09735782269225379,"157":-0.18577090579115577,"158":-0.19097792565523178,"159":-0.07670434324017918,"160":0.210054371552716,"161":0.09941517773142579,"162":-0.04255351324787227,"163":0.07685151673920293,"164":-0.06476956623869046,"165":0.06753670090250362,"166":-0.13221094938456204,"167":-0.04672978193153146,"168":-0.24462995131054174,"169":-0.20688687166925807,"170":-0.32279612643579064,"171":-0.12790034768682762,"172":0.14631074387802404,"173":-0.27933636016093943,"174":-0.08421246742056354,"175":-0.2691749826661088,"176":0.2652547427786414,"177":-0.12428724560386434,"178":-0.21721953402446217,"179":0.19583583624324102,"180":0.07417698252326023,"181":-0.23774227080979926,"182":-0.1526938638860301,"183":-0.09968628520078818,"184":-0.21074320602554286,"185":-0.3015145911507145,"186":-0.3299227574047021,"187":0.024220420848377014,"188":0.25889498695691765,"189":0.09885287184978461,"190":-0.09668438355575448,"191":-0.061197237146283424,"192":0.2144165951489935,"193":-0.15821804086173755,"194":-0.3767509477680904,"195":-0.10628077462507536,"196":-0.0780409952165353,"197":-0.10421708720633921,"198":-0.3806691616728836,"199":-0.15093733646625204,"200":-0.00631156596005365,"201":-0.26630859052103756,"202":-0.16714612685251878,